#Parameter# /AuxNonLinear-6c670b03/_0 {300,256} 1228801 ZERO_GRAD
-2.09155291e-01 -7.99606442e-02 +6.92382921e-04 +3.33500415e-01 +4.72676903e-02 -1.82934150e-01 +1.51815355e-01 +8.97673517e-02 +1.16044708e-01 -1.96779668e-01 +2.10130468e-01 -1.17126241e-01 +1.95841864e-01 -5.74342608e-01 -8.67653489e-02 -8.05288851e-02 -9.14364606e-02 +6.19768873e-02 +1.96849585e-01 +5.34411184e-02 +1.68019041e-01 +9.70886275e-03 +4.97010127e-02 +1.65675521e-01 +2.01868758e-01 -7.10627884e-02 -4.59782407e-03 +1.16527732e-02 +1.74899191e-01 -4.95949667e-03 -5.04032113e-02 +1.03096306e-01 -1.16451280e-02 +2.68292993e-01 -2.34513998e-01 -1.59896299e-01 -9.84630827e-03 +1.81283161e-01 -1.68347821e-01 -1.20681405e-01 +1.28442451e-01 -1.41523153e-01 -1.80159677e-02 -7.83867002e-01 +2.11284366e-02 -1.74563348e-01 -1.53584465e-01 +2.07279935e-01 -4.36490402e-02 +5.78437112e-02 -1.86468139e-01 +1.17599182e-02 +1.02711700e-01 -1.70630626e-02 +5.86491972e-02 +5.30329756e-02 -2.07874645e-02 -3.98726255e-01 -2.03011423e-01 -1.30578801e-01 -1.04768388e-01 -1.05804943e-01 +4.40667160e-02 -2.94184983e-01 -1.83099508e-01 +4.16432209e-02 -1.49020806e-01 +2.86587626e-01 +4.46841083e-02 -1.12653203e-01 +7.21371695e-02 +1.55009091e-01 +1.83865651e-01 -1.44999191e-01 +6.04924224e-02 -3.10277849e-01 -1.26382574e-01 -2.16156185e-01 -8.03839028e-01 -1.96221739e-01 +1.46425068e-02 +2.89294552e-02 +2.68764906e-02 -4.62371826e-01 +7.03442842e-02 -1.11690715e-01 +1.09679468e-01 +2.28961945e-01 -3.64061259e-03 +4.57767136e-02 -2.09597543e-01 -5.81037141e-02 +9.71756876e-02 -1.87950015e-01 +7.72636294e-01 -3.46352644e-02 +1.09408140e-01 +1.74421296e-01 +6.26051798e-02 +9.86234993e-02 +7.82705992e-02 -2.25281164e-01 -1.58269316e-01 -2.73804128e-01 -1.96634140e-02 -3.13286483e-01 +4.08728123e-01 -2.30585765e-02 -8.14763457e-03 -7.45130479e-01 +1.60061326e-02 -5.93807511e-02 -3.29710692e-02 -1.51340559e-01 +6.50312304e-02 -9.43186413e-03 -1.28901139e-01 +1.51577085e-01 -1.62507985e-02 -2.15647481e-02 +1.20959766e-01 +2.17828959e-01 -1.43400421e-02 +9.14306223e-01 -1.35588303e-01 +1.43286780e-01 -4.96999323e-02 +1.83741711e-02 +7.44559169e-02 -1.72314510e-01 -9.45656933e-03 +6.71910448e-03 +1.95399955e-01 -1.90359831e-01 -1.19709566e-01 -1.44394919e-01 +1.50628269e-01 -1.59424432e-02 +4.47220057e-01 +1.43171147e-01 -1.53303325e-01 +3.82707594e-03 +1.25840962e-01 -1.68992668e-01 +1.64764270e-01 -1.97207093e-01 -8.70466754e-02 +9.01565030e-02 +4.90868390e-02 -1.49917468e-01 -1.65783986e-02 +4.21648426e-03 +1.32265359e-01 +1.31368458e-01 -1.58902749e-01 -4.92507994e-01 +5.26133180e-02 -4.48781669e-01 -1.82108697e-03 +5.29333390e-02 +1.60210446e-01 +2.24813935e-03 -3.98538113e-01 +7.09373057e-02 +2.77332757e-02 +1.17781706e-01 +3.01044318e-04 +1.09622002e-01 -6.08468294e-01 +2.62732282e-02 +1.85428470e-01 -2.06559435e-01 -1.02505773e-01 +2.26071611e-01 +1.59167930e-01 +1.44154564e-01 -2.30294019e-02 +3.77253354e-01 +1.61083594e-01 +8.75118524e-02 +1.68356284e-01 -1.46318480e-01 -4.99316677e-02 +4.86950040e-01 -2.69680560e-01 -6.39153318e-03 +7.71471811e-03 -5.31965084e-02 +9.78532583e-02 -3.80977839e-01 -1.80041771e-02 +2.15561762e-01 -8.55852943e-03 -3.57737333e-01 -7.45409429e-02 -1.62560329e-01 +2.40519680e-02 +1.02994695e-01 +1.76326960e-01 -7.32876956e-02 -1.41335890e-01 +1.94648787e-01 -1.12880357e-01 -6.66413084e-02 +3.10113709e-02 -1.17716119e-01 -1.80097017e-02 -7.88163990e-02 +1.02876969e-01 -9.75896269e-02 -1.79354846e-02 -4.13323492e-02 -2.32639283e-01 -1.91657811e-01 -3.42306308e-02 +1.11432269e-01 +4.32943970e-01 -8.83225724e-02 +2.70486087e-01 -3.91470455e-02 -2.13355646e-01 +2.37237245e-01 +2.59717494e-01 +1.96193278e-01 -9.49115530e-02 +1.80029616e-01 -9.35570821e-02 +3.78441736e-02 +1.72564909e-01 +7.89357796e-02 +1.06129050e-02 -8.81441295e-01 +1.25291646e-02 -2.05948636e-01 +1.70420721e-01 -9.04057324e-02 +1.89707488e-01 -2.72566736e-01 +2.74289787e-01 +6.72251657e-02 -1.08225100e-01 -7.20088258e-02 +2.10179791e-01 -8.65365788e-02 -9.79070142e-02 -1.40077561e-01 -3.41110528e-02 +1.63672060e-01 -2.95256943e-01 +1.80179715e-01 +2.53068656e-01 -3.62154365e-01 -2.61397153e-01 -1.55418128e-01 +1.46917894e-01 -2.46169835e-01 -1.62384301e-01 -3.78570259e-01 -3.32649387e-02 +9.44376513e-02 -9.28932577e-02 -1.45921642e-02 +1.45735428e-01 -1.19312154e-02 -6.32446706e-02 +9.09922495e-02 +7.98573568e-02 +3.03471297e-01 -2.48049125e-01 +1.51778355e-01 +4.01244879e-01 +2.71467477e-01 -3.03371280e-01 +1.79430936e-02 +2.21415251e-01 -4.71472740e-02 +5.94573244e-02 +2.35206634e-01 +1.23520896e-01 +1.10039994e-01 +4.06708121e-02 +6.97234869e-02 -6.31756783e-02 +1.81743488e-01 -1.30919337e-01 -2.42034867e-02 +2.66854435e-01 -1.03944645e-03 -1.49984494e-01 +3.59988511e-02 -1.08162835e-01 -1.34587646e-01 -6.42650248e-03 -2.76824385e-01 +1.55075699e-01 +2.44585618e-01 +2.43290693e-01 +5.40629961e-02 -5.26399463e-02 -9.46736708e-02 +2.17101246e-01 +1.12736598e-01 -9.25021842e-02 -3.85359931e-03 +2.59040645e-03 -1.35378554e-01 +4.48359340e-01 -6.98169768e-02 -2.11692810e-01 +1.13061637e-01 -5.73327988e-02 +2.67628103e-01 -2.35711843e-01 +4.20175165e-01 +1.73828632e-01 -5.64901195e-02 +1.59501001e-01 +7.06577152e-02 -1.98339418e-01 -4.16902006e-02 +1.92495704e-01 +8.89272615e-02 -2.53704607e-01 -2.72268988e-02 +9.94997174e-02 -7.20598921e-02 +2.20505536e-01 -2.76909143e-01 -2.64249444e-01 -1.65386036e-01 +1.97356910e-01 -1.15352541e-01 -1.00002483e-01 -3.06757748e-01 +6.01472482e-02 -5.91197796e-02 -5.72789073e-01 -2.77536679e-02 -5.18690124e-02 +3.89783201e-03 +1.37492605e-02 -1.94660351e-01 +1.32953942e-01 +1.36888817e-01 +1.82098784e-02 +2.61899412e-01 -1.52728006e-01 -1.19022496e-01 +1.47040514e-03 +2.39564002e-01 +1.59749776e-01 +1.05117723e-01 -2.02968821e-01 -3.99308726e-02 -6.16253205e-02 -1.56570837e-01 +1.19352462e-02 +8.18598922e-03 -8.45678374e-02 -1.09645814e-01 +1.32958502e-01 +2.93560605e-02 -8.04286003e-02 +3.26509804e-01 +2.65338868e-01 -3.73912081e-02 -1.34489611e-01 -1.51118398e-01 -1.14702739e-01 +1.29766941e-01 -6.16567805e-02 -1.50167763e-01 -1.20518327e-01 +4.55121621e-02 -2.75235325e-01 +2.76240379e-01 -1.60694998e-02 +1.24085590e-01 +3.11010778e-01 +5.18462323e-02 -1.32233500e-01 -5.13341576e-02 +8.44796002e-02 +2.67389696e-02 +6.76480979e-02 +6.95954561e-02 -5.55630505e-01 -6.67804433e-03 -6.34731650e-02 +3.56889963e-01 -2.87121296e-01 +3.05073053e-01 -1.33456096e-01 +8.81096795e-02 -1.75152998e-02 -5.32053895e-02 -4.56435084e-02 -4.36053239e-02 +3.01339149e-01 -5.65383909e-03 -1.20580368e-01 +1.19587907e-03 +4.34545204e-02 +2.16906797e-02 +2.65834183e-02 -1.53315521e-03 -5.25225289e-02 -3.32459845e-02 +2.37559661e-01 +1.38232544e-01 +1.26880899e-01 +4.13639508e-02 +2.57606860e-02 +7.94720203e-02 +1.96543574e-01 +2.26412490e-01 +2.11830944e-01 -6.72193896e-03 +7.21484274e-02 +9.22579169e-02 -2.35897854e-01 -2.44839758e-01 -2.10933015e-01 -6.90420419e-02 +5.04219765e-03 +5.97087517e-02 -1.19416483e-01 +2.04735667e-01 +5.00478372e-02 +3.22855115e-01 -1.71057671e-01 -1.28603289e-02 -1.81640819e-01 +1.09138712e-01 +1.09411933e-01 -1.24102309e-02 -2.31870130e-01 +1.14361361e-01 -8.76649246e-02 -1.56039104e-01 +3.70204933e-02 +1.90975517e-01 -6.18610494e-02 +2.92455584e-01 -8.88456777e-02 +7.54524246e-02 +2.73597687e-01 -6.33352762e-03 -9.47682932e-02 -1.81493118e-01 +2.02374794e-02 -4.50237766e-02 +1.07917953e-02 -4.85178046e-02 +6.52320012e-02 +4.59047079e-01 +1.62669107e-01 +3.17519158e-02 +7.80166388e-02 +3.05989273e-02 +9.89403129e-02 +3.60233456e-01 +3.59679520e-01 +1.20398983e-01 -1.11076981e-01 -1.15065701e-01 +2.65966952e-01 -6.13583550e-02 -2.99633928e-02 +1.86200812e-01 +4.49928455e-02 +1.27741978e-01 +3.53227556e-02 -7.48579651e-02 -4.83917370e-02 -1.42839596e-01 -9.95381996e-02 -1.19821560e-02 -3.24119538e-01 +7.10769668e-02 +6.49624541e-02 -1.64909691e-01 -1.00885689e-01 -1.55668959e-01 +3.28272134e-01 +1.89376660e-02 -1.33213744e-01 +8.52642655e-02 +4.19007033e-01 +8.77624378e-02 +2.47208774e-02 -2.33251322e-02 -2.58982182e-01 +4.84731905e-02 +1.72881991e-01 +9.66965314e-03 -2.27994733e-02 -8.80805701e-02 +2.18400992e-02 -1.29243612e-01 +9.29846615e-02 +1.88318938e-01 -1.61760338e-02 +7.20271189e-03 -8.22980031e-02 +2.11345717e-01 +2.48257875e-01 +7.87098333e-02 -2.51832753e-01 +2.35862900e-02 +1.51339635e-01 +1.00198552e-01 +2.64031410e-01 +2.55031675e-01 +4.49202210e-02 -8.26951712e-02 -2.23546535e-01 +3.68831009e-02 +1.28299028e-01 -3.14825594e-01 +7.95994028e-02 +2.03342840e-01 -1.76500499e-01 +6.84616640e-02 -7.93949366e-02 -8.55762288e-02 +1.07213132e-01 -9.45380330e-03 -2.33019456e-01 -1.11271746e-01 +3.97783704e-03 +2.06183523e-01 -3.44754905e-02 +2.11776242e-01 +4.86560389e-02 +2.78742816e-02 -1.25358373e-01 +9.26836580e-02 -9.41922292e-02 -1.65847033e-01 +2.69081980e-01 +1.47123924e-02 -3.27115625e-01 +1.74974669e-02 -3.85679275e-04 +5.60172722e-02 +1.34887835e-02 -4.93222326e-02 -4.81127724e-02 -1.72509141e-02 -5.24271987e-02 +2.32105315e-01 -6.99638948e-02 +9.84588638e-02 +1.29762618e-02 +1.17369078e-01 +1.67506188e-01 +5.96183762e-02 +1.05011716e-01 -4.23542634e-02 +2.88818121e-01 +7.31176808e-02 +2.52354797e-02 -1.49181888e-01 -7.46367648e-02 +7.62496367e-02 +6.01479076e-02 -1.34789079e-01 -8.43058825e-02 +1.90926075e-01 -6.73607737e-02 -2.28598446e-01 -1.24943741e-01 +1.69562206e-01 +2.36335099e-02 -4.18061055e-02 +4.33428846e-02 -4.37336080e-02 -1.10466108e-01 +1.17597803e-01 +2.71222413e-01 -2.19573334e-01 +6.07398860e-02 +1.88335460e-02 +1.30219802e-01 +4.72672433e-02 -2.24405602e-01 -1.00214332e-02 +1.54744580e-01 +6.21228069e-02 -1.53776467e-01 +1.51278585e-01 +3.19988936e-01 -4.82236147e-02 -4.64642420e-02 -2.82897472e-01 +1.94483772e-01 -6.81163371e-02 +1.78297028e-01 -1.35910138e-01 -1.00804217e-01 -2.42416590e-01 -8.94127041e-02 +7.02747330e-02 -1.36823773e-01 -9.09962207e-02 -9.62203089e-03 +3.39620322e-01 -2.50996556e-02 +5.15241921e-02 -3.17044072e-02 -3.01474571e-01 +2.53589869e-01 -7.60173276e-02 +8.79314635e-03 +2.63937443e-01 -2.25680381e-01 -1.54562920e-01 +4.20705788e-03 +6.78898320e-02 +1.83906958e-01 -2.80299573e-03 +5.45388572e-02 -9.62012559e-02 -3.33673209e-01 +8.18414912e-02 -2.90631093e-02 +7.88828880e-02 +5.18798828e-01 -4.00495529e-02 -1.39283136e-01 -1.65996850e-01 -3.74243520e-02 +2.13077709e-01 +1.34962201e-01 +1.32709235e-01 +2.71667950e-02 -1.63259953e-01 -1.49653908e-02 +3.78503054e-01 -2.19825357e-01 -5.84452711e-02 -3.64790440e-01 +1.09046079e-01 -7.49468803e-02 -6.90843880e-01 +8.69715065e-02 -3.80880326e-01 +1.43655226e-01 +1.06988195e-02 -2.22756699e-01 -2.07431421e-01 +5.11432469e-01 +7.22918436e-02 +2.43012875e-01 -1.01577736e-01 -2.26504073e-01 -1.14951819e-01 +6.44655600e-02 +2.95286328e-01 +2.28410736e-02 -2.10863009e-01 -1.54126197e-01 -2.89886504e-01 -8.76927674e-02 +2.51117289e-01 +9.01598856e-02 +8.63986909e-02 +6.46284372e-02 +1.03469767e-01 -1.12445533e-01 -3.80554982e-02 +1.44184873e-01 -1.42319962e-01 -5.72658777e-02 +8.45635906e-02 -6.23715892e-02 +2.93716919e-02 +1.08749367e-01 +5.43410182e-02 -8.99791494e-02 +1.04327127e-02 -7.17457354e-01 +1.09800190e-01 +1.20628394e-01 -1.24599114e-01 +9.58378986e-02 +8.92258435e-03 -2.26924587e-02 -2.33523980e-01 -1.78361982e-02 -1.89906098e-02 +4.07838059e-04 -8.34668800e-02 -8.21141079e-02 +2.21226722e-01 +3.50093365e-01 -4.93273586e-02 +1.19898126e-01 +1.52019739e-01 +7.51647353e-02 +2.59702116e-01 -5.93588762e-02 +8.35626200e-02 -3.18592727e-01 +1.85055077e-01 -3.19744311e-02 +8.46458972e-02 +2.77453601e-01 -1.13688037e-02 +1.88864116e-02 -5.25554866e-02 -5.16119599e-02 -4.70773801e-02 -2.70447642e-01 +1.21559814e-01 -3.55820656e-02 +1.62235722e-01 -5.23305424e-02 -4.92050856e-01 +5.36119699e-01 -6.23189025e-02 -1.63921207e-01 -2.69992560e-01 -2.45309591e-01 +1.91246465e-01 -1.13819234e-01 -2.62010284e-02 -1.58649638e-01 -4.72631864e-02 +2.41464153e-01 -8.26097652e-02 -8.09248090e-02 -4.84566279e-02 -3.40646952e-01 +1.77189082e-01 +5.50006211e-01 -3.17817986e-01 -1.82656432e-03 -4.50692773e-02 +2.70003080e-02 +2.51933560e-02 -1.49756502e-02 -2.07144260e-01 +2.69924194e-01 -2.75599640e-02 +1.30366623e-01 +3.91696915e-02 -2.21643552e-01 +1.99457750e-01 -2.18458861e-01 +4.81741667e-01 -1.07143618e-01 -1.59500957e-01 +5.55324331e-02 -3.02590668e-01 -2.88573682e-01 +6.10708177e-01 -1.55682445e-01 +1.21180855e-01 +3.50942433e-01 -1.61537156e-01 -1.14460953e-01 +1.53140977e-01 -2.03460515e-01 -7.52580315e-02 -2.45280325e-01 +3.29757243e-01 -2.42856160e-01 +2.69666165e-01 +2.37080470e-01 -1.03803627e-01 -1.29355356e-01 -3.51196192e-02 +4.48071845e-02 +3.43303792e-02 -1.17340058e-01 -1.71490870e-02 +1.74771115e-01 -1.51737267e-03 +1.27829611e-01 +1.80900648e-01 +1.77916765e-01 +1.09081902e-01 +2.12355386e-02 -1.59219548e-01 +7.41557777e-02 -2.74717778e-01 -1.08842693e-01 +2.72525281e-01 -2.80517668e-01 -1.74521580e-01 -9.15138870e-02 -4.26780619e-02 +2.08513122e-02 -5.91698363e-02 +2.31436617e-03 -1.03747696e-02 -1.36658892e-01 +2.32532978e-01 -5.31614162e-02 -1.37126431e-01 -6.78103805e-01 +4.09851260e-02 -2.79261827e-01 -5.59110306e-02 -1.31175831e-01 -3.53925020e-01 +3.16756845e-01 -1.03621408e-01 -3.56961250e-01 -1.25317991e-01 -4.50597763e-01 +2.55598396e-01 +2.30361670e-01 -1.79362878e-01 -2.71940921e-02 -8.53220150e-02 +3.73329669e-02 -7.38094598e-02 -9.11321957e-03 +3.87973309e-01 -4.29239385e-02 -2.10686460e-01 +1.77512422e-01 +8.11182335e-02 -1.50515974e-01 +8.25759694e-02 +3.54689270e-01 -8.97407308e-02 +3.36065322e-01 +3.64720374e-02 -9.72251371e-02 -1.50106046e-02 +1.78334221e-01 -4.63118702e-02 +4.46966439e-01 -1.25507444e-01 -3.97376716e-02 +2.18687147e-01 -5.14501780e-02 +1.57201052e-01 +2.27176547e-01 +3.10259283e-01 -8.95034522e-02 +1.90558299e-01 -2.01351807e-01 -1.49981654e-03 +1.73318326e-01 +4.24013473e-02 +5.38922809e-02 +1.54242232e-01 -1.12390786e-01 +9.56168398e-02 +4.58942145e-01 -1.83790952e-01 +1.19046569e-01 -4.56002839e-02 +3.88150066e-01 +3.40107203e-01 +9.87246707e-02 -1.67142510e-01 +3.40658091e-02 +3.47905338e-01 +1.68872271e-02 +1.11240849e-01 -1.70961022e-02 -4.90440875e-02 +1.62056163e-01 -8.67421746e-01 +1.03627026e-01 -1.76187411e-01 +8.28211084e-02 +4.93432060e-02 +2.13167697e-01 +1.52484611e-01 +1.23061933e-01 -1.80129737e-01 -1.42996728e-01 -8.53888467e-02 -1.47651121e-01 +7.07128569e-02 -3.89000624e-01 +7.43825138e-02 -2.53651384e-02 +2.77797226e-02 +1.20603256e-01 -2.27530431e-02 +1.59480080e-01 +3.06828283e-02 +1.44597217e-01 +1.65283099e-01 -4.57152218e-01 +4.60171521e-01 -2.05137625e-01 +2.23226935e-01 +2.47823402e-01 +9.41606984e-02 +2.48607785e-01 +1.82576537e-01 +8.36164597e-03 -1.85200840e-01 +2.03674003e-01 +1.49478406e-01 +2.47354973e-02 +1.44256696e-01 -7.33183399e-02 +3.09764624e-01 -1.01919733e-01 -9.77271125e-02 -3.82579789e-02 -5.18438041e-01 -7.88257867e-02 +1.99123677e-02 +7.05601764e-04 +3.36294949e-01 -1.00198083e-01 -4.06938195e-02 +6.72164083e-01 +1.69981681e-02 -1.19131953e-01 +6.39031008e-02 +2.48935327e-01 -1.38031557e-01 +1.37216905e-02 +2.07023144e-01 +1.78355649e-01 +8.20759088e-02 +6.09543324e-01 -8.51503387e-02 -2.67073303e-01 -7.39663094e-02 -1.40999466e-01 +3.30335885e-01 +1.73947930e-01 -2.07091361e-01 -3.15175131e-02 -1.49158254e-01 +9.11469012e-02 +3.44347447e-01 -2.68145174e-01 +2.38717481e-01 -2.95075059e-01 -6.61190823e-02 +1.49466902e-01 -4.60966200e-01 -8.30396563e-02 -2.58683294e-01 -3.79106328e-02 +2.17359513e-01 -4.80591387e-01 -2.32069828e-02 +5.85264325e-01 +1.27998844e-01 -3.27716209e-02 -1.62789688e-01 -1.15547210e-01 -1.17578201e-01 +4.59670974e-03 +4.50936854e-02 -4.92163077e-02 -1.30171731e-01 -1.14006465e-02 -4.15901214e-01 -4.57004681e-02 +4.55404758e-01 -1.67116389e-01 +3.02072521e-03 +2.27709755e-01 -1.83613375e-02 +5.67790493e-02 -9.56275538e-02 +1.50579035e-01 +1.17106929e-01 -3.45750041e-02 -3.60392839e-01 -1.17584482e-01 -7.51811564e-01 -1.64839670e-01 -1.39908284e-01 +8.98052156e-02 +3.09808608e-02 -2.10466728e-01 -6.89438432e-02 +1.51242599e-01 +8.38663653e-02 +2.26955205e-01 -2.84152329e-01 +1.47550061e-01 +5.46342395e-02 +9.75545496e-03 -2.80404478e-01 -8.83582383e-02 -1.40115723e-03 -4.52306829e-02 -2.13694379e-01 +2.59030014e-01 +1.32397011e-01 +8.75840485e-02 +5.85137568e-02 +1.50885135e-01 -1.77491337e-01 -1.80246085e-01 -2.38067508e-01 -1.31794065e-01 +9.53586623e-02 +1.98107272e-01 -2.57313158e-03 +1.31566316e-01 -8.95676091e-02 +3.73146422e-02 -1.59639463e-01 -5.05573787e-02 -1.12246402e-01 +4.36604582e-02 -7.52892345e-02 -2.91509509e-01 +2.54663348e-01 -3.96165960e-02 -4.12115008e-01 +3.46998245e-01 +1.92941234e-01 +2.35281020e-01 -1.29812866e-01 -2.24865943e-01 -2.83610433e-01 +8.33181888e-02 -5.43744266e-02 +1.17115788e-01 -4.90317285e-01 +1.78486124e-01 +1.14755839e-01 -1.15439132e-01 -1.16018020e-01 -2.27989376e-01 +3.78722101e-01 +5.66975355e-01 -2.99965322e-01 +3.07493120e-01 +7.09833056e-02 -9.35671255e-02 +2.54051089e-01 -1.36227518e-01 -1.55500889e-01 +2.59926826e-01 +3.29882115e-01 -4.05514874e-02 -8.30341354e-02 -4.24242824e-01 +1.20227508e-01 -2.72609621e-01 +8.65559459e-01 +1.55784935e-01 -6.40340447e-02 +9.54084471e-02 -5.67314446e-01 -6.23888075e-02 -1.32592350e-01 +3.69034335e-02 +2.15958953e-01 +7.05864653e-02 -2.49555349e-01 -4.83482629e-01 +1.83134273e-01 -1.95656538e-01 -8.33670981e-03 -1.17321290e-01 +2.01378450e-01 -2.40278970e-02 +4.44754183e-01 +1.70911163e-01 -2.71470379e-02 -2.54912168e-01 +2.90810447e-02 +8.59055072e-02 +1.66400671e-01 +1.37351349e-01 -7.18569010e-02 +1.00264937e-01 +2.16221154e-01 -5.38572632e-02 -1.16510928e-01 +1.66296169e-01 +4.89069909e-01 -5.21376312e-01 -2.61272043e-02 +1.55242264e-01 -3.97629559e-01 -1.00642867e-01 -2.24398822e-02 -1.71975598e-01 -8.69034231e-02 -1.31288826e-01 -3.20106372e-02 +1.33159325e-01 +4.49817516e-02 -1.60292387e-02 +3.42939019e-01 +5.23454994e-02 +7.90333003e-03 +1.72601253e-01 +1.44261345e-01 -5.64370632e-01 +8.12777802e-02 -7.59260962e-03 +8.23141932e-02 +1.38858035e-01 +5.59674762e-02 +7.39682317e-01 +2.05152795e-01 -7.38489628e-02 -1.25574365e-01 -5.82299829e-01 -6.31482825e-02 -4.65286896e-02 -2.61898905e-01 +3.60344380e-01 +2.02654712e-02 -3.46273296e-02 -9.57726687e-02 +4.55866009e-02 +3.00648928e-01 +2.49815524e-01 +2.28829905e-01 -6.15658127e-02 +1.18019119e-01 +1.15041807e-01 +2.73042414e-02 +3.68946850e-01 +1.04845865e-02 +4.39444333e-01 +4.71139466e-03 -2.34034136e-01 -9.67695192e-02 +2.84886677e-02 -1.28587767e-01 +5.27278483e-01 -4.31805193e-01 +2.01631576e-01 +6.62460998e-02 +1.66156515e-01 +3.06262448e-02 +1.94728449e-01 +2.25427970e-01 +8.82171020e-02 -3.54326107e-02 -7.36556426e-02 -1.45621657e-01 +7.17656240e-02 +6.92845415e-03 +3.19714785e-01 -1.81494445e-01 -1.56346694e-01 +1.98135883e-01 +3.87242168e-01 -1.32787734e-01 +9.17829853e-03 +6.51682392e-02 +2.82917321e-01 +4.50406373e-01 +1.35391653e-01 -7.04553723e-02 -6.91467822e-02 -8.34941119e-02 -3.11006069e-01 +2.55226553e-03 -1.30220711e-01 +1.33032491e-02 +2.10132271e-01 -2.88990825e-01 +5.43932244e-02 -1.34524941e-01 +1.29009068e-01 -6.48130290e-03 +3.75712126e-01 -1.75530966e-02 +7.62196705e-02 +5.89283928e-02 +1.49384141e-01 +5.49539924e-02 -3.32654901e-02 +1.12698274e-02 -2.62304902e-01 -4.47983705e-02 +3.51620018e-02 +2.38802478e-01 +1.87663883e-02 -2.40860395e-02 +1.25183240e-01 +2.44912043e-01 +8.66842121e-02 +1.18584245e-01 -5.25403798e-01 +2.81752646e-01 -3.45502943e-02 +4.16406304e-01 +5.28754771e-01 +1.32376805e-01 +2.74412990e-01 -8.54035020e-02 +1.21829495e-01 -3.87537852e-02 -8.12338218e-02 +6.61045313e-02 +2.69813895e-01 +3.77158262e-02 +1.33415714e-01 -1.69744402e-01 -1.97779268e-01 +9.30684805e-03 +1.34513333e-01 +1.01355352e-01 -2.78178513e-01 +1.22600198e-02 +2.89788455e-01 +2.24642865e-02 -6.39671683e-02 -4.52709705e-01 +1.17863305e-02 -3.76522020e-02 -1.69271026e-02 +1.25401556e-01 -5.26631355e-01 -1.09028235e-01 +2.07421184e-02 -4.06090200e-01 -6.90464750e-02 -9.98980626e-02 -1.43470421e-01 -1.71749949e-01 +1.20971873e-01 +2.03472540e-01 +6.27745315e-02 -1.31313249e-01 +2.02035725e-01 -1.54244630e-02 -3.02254763e-02 -1.24367036e-01 +4.08699602e-01 +1.33033516e-02 +4.43903923e-01 -5.74060753e-02 -7.07712844e-02 +9.78790596e-02 -1.16706481e-02 -8.59600864e-03 +9.25953239e-02 +5.14800847e-02 -1.89180493e-01 -2.68693194e-02 +1.01558246e-01 +9.46164131e-02 +1.62458587e-02 -6.79545179e-02 +1.25720993e-01 -1.33973919e-02 -1.87482506e-01 +7.73524567e-02 -2.01044932e-01 -2.12043285e-01 +3.68854329e-02 +9.48176458e-02 -3.84381488e-02 -5.67286536e-02 +1.41564831e-02 +1.70922596e-02 +1.48055460e-02 -5.36948768e-03 -1.71529874e-01 -2.53386348e-02 -1.95780709e-01 -4.52975556e-02 -1.56810760e-01 -4.57829535e-02 -1.62602901e-01 +1.62815917e-02 -1.38774067e-01 +6.78944886e-02 +9.41627473e-02 -8.19708854e-02 +8.28327388e-02 +4.91412170e-02 -3.44609506e-02 -2.67692208e-02 +9.56946239e-02 +4.04045910e-01 +8.01614448e-02 +3.00149709e-01 -4.65540737e-01 -5.34884445e-02 +5.19295456e-03 +1.72859311e-01 -1.35120541e-01 -1.75449029e-02 +1.90061972e-01 -4.31981795e-02 -5.89491725e-02 +4.37885821e-01 -5.40444143e-02 +3.15500915e-01 -3.16296667e-01 -1.79067180e-01 +1.52036324e-01 -2.76069552e-01 +4.20905128e-02 -2.31492788e-01 +2.00704727e-02 -4.30573672e-02 -2.24429280e-01 -2.17220858e-02 +1.47895902e-01 +3.74805301e-01 +4.01864685e-02 -1.48146883e-01 -9.91627108e-03 +2.56839544e-02 +5.10118425e-01 -1.22216605e-02 +3.92126814e-02 -7.76815135e-03 -5.97236007e-02 +8.35436732e-02 +2.48708561e-01 -9.81861278e-02 +8.50737616e-02 +5.89836203e-02 +4.53443974e-02 +1.69978529e-01 +2.20345065e-01 +1.81172788e-01 +5.22050187e-02 +5.67083396e-02 -1.73063278e-01 +6.25944018e-01 +1.14606313e-01 -9.87167582e-02 -4.83512646e-03 +9.97217223e-02 -4.84225824e-02 +2.12326124e-01 +1.92768723e-01 +1.86446503e-01 +1.57908127e-01 +9.85401645e-02 -1.23922579e-01 -1.52755052e-01 +2.74012893e-01 -9.48974192e-02 +9.26341489e-02 -1.50418460e-01 +9.91810933e-02 -3.80878039e-02 +2.81069666e-01 +4.86777760e-02 +1.66969821e-01 +8.39653164e-02 +7.55717158e-02 +4.30324972e-02 -1.01992577e-01 +1.31237596e-01 -6.45716935e-02 +1.63144842e-02 -3.41259837e-02 +2.27374688e-01 +4.28547561e-02 +6.91186935e-02 -2.60181397e-01 +1.99825808e-01 +2.30817068e-02 -9.38208774e-02 +1.37541965e-02 +1.55183841e-02 +5.48644178e-02 +1.31431490e-01 -4.74772463e-03 +4.27750200e-01 +2.91481674e-01 -4.61461619e-02 -1.62823737e-01 -4.01373282e-02 +1.67646319e-01 -2.19726950e-01 -4.85929668e-01 +9.09995008e-03 +8.74415711e-02 +1.61317244e-01 +9.94210839e-02 +5.56005090e-02 +8.98617357e-02 -1.66410010e-03 +2.10347205e-01 +4.36940454e-02 -1.86990380e-01 -1.64836273e-03 +1.55512288e-01 -4.82211709e-02 -9.32813585e-02 -3.90047044e-01 +2.28584334e-01 -2.62565762e-01 +1.39866024e-01 +5.43704852e-02 -7.78255463e-02 -3.24370027e-01 -2.02403337e-01 +2.28616029e-01 -1.07167698e-01 +2.49256324e-02 -7.91676808e-04 +1.52656421e-01 -4.49342281e-02 +6.95348680e-02 +1.90664336e-01 -1.73431456e-01 +2.92383641e-01 -9.76198688e-02 -2.89350492e-03 -4.79876176e-02 +3.17461550e-01 -1.39068469e-01 +6.23309799e-02 +1.15511246e-01 +1.06860094e-01 -6.33317754e-02 -2.15766206e-01 +5.09940600e-03 +2.20454112e-01 -1.76377177e-01 +1.64935552e-02 -2.03578249e-01 +4.03302401e-01 +7.70031661e-02 -1.30217612e-01 +1.14343561e-01 -1.12622231e-01 +4.83135283e-01 +3.94460596e-02 +1.97650686e-01 +7.37953857e-02 +7.23748580e-02 +1.83295026e-01 +1.44871891e-01 -1.45748883e-01 -1.01004131e-01 -3.98964703e-01 -2.08148420e-01 +1.59724895e-02 -1.25056326e-01 +4.55564260e-01 +1.05595775e-03 -1.10528670e-01 -8.70809108e-02 -1.68244988e-01 +6.44270629e-02 +6.58891648e-02 +2.33709484e-01 +2.98555404e-01 +4.13856618e-02 +1.93421066e-01 +1.74761429e-01 +1.91087157e-01 +2.72245295e-02 -1.28473520e-01 -4.60476950e-02 +5.81484288e-02 -6.14653826e-02 +2.76116766e-02 +2.95309834e-02 -6.96698800e-02 +9.10003483e-03 -6.23064749e-02 -3.30149710e-01 +2.38379068e-03 +2.52129585e-01 +2.25303143e-01 -1.43806398e-01 -8.27886760e-02 +1.07894972e-01 +4.89525050e-02 -4.13727388e-02 -1.49115054e-02 -8.21888447e-02 -9.25297886e-02 +2.09537253e-01 +1.13987505e-01 -5.87488972e-02 -3.18074860e-02 -4.33470607e-02 -3.17675352e-01 -1.43215925e-01 -1.44910768e-01 +2.93321699e-01 +6.35501295e-02 +2.19557453e-02 -2.63223611e-02 -1.54578373e-01 +1.69823244e-01 -1.99423637e-02 +1.05509080e-01 +9.90368351e-02 +2.02561960e-01 +4.81115505e-02 +8.36505294e-02 +1.09847926e-01 -2.10581467e-01 +5.11800468e-01 +1.24186464e-01 +9.39374603e-03 -6.74953610e-02 +8.63657743e-02 +5.59510738e-02 +1.77615225e-01 +1.34293273e-01 -1.68706886e-02 +1.59458488e-01 +1.59952417e-01 +2.41766110e-01 +1.48445903e-03 +1.25451356e-01 -1.39594963e-02 -3.84696513e-01 +6.45226091e-02 -6.50373548e-02 -5.00098616e-02 +1.81461528e-01 +1.99942648e-01 +1.95266217e-01 -3.55703354e-01 -2.93295264e-01 -1.06772564e-01 +3.86724114e-01 -1.01750210e-01 +1.69817172e-02 -3.03631544e-01 +2.32802331e-01 -2.03669891e-01 -2.93061644e-01 +1.29957676e-01 -1.57523584e-02 -1.08899856e-02 +5.17254531e-01 +3.70013863e-02 +2.19469890e-01 -2.23877236e-01 -2.47260630e-02 +5.15312731e-01 -4.15050805e-01 +2.20024124e-01 -2.11402655e-01 -2.21524268e-01 -1.12854362e-01 +9.03960690e-02 -1.90018430e-01 +1.17123105e-01 -2.07107514e-01 -3.89402390e-01 +7.34760314e-02 -3.46206017e-02 +2.60551065e-01 -2.87530243e-01 +4.08547670e-02 +1.55919595e-02 -1.75455794e-01 +1.66504532e-01 +6.85888762e-03 -2.28793204e-01 -2.10833296e-01 +1.12313265e-02 -7.68836588e-02 -1.56111464e-01 -1.18725449e-01 +1.93972632e-01 -2.11641744e-01 +5.30010819e-01 -2.24021643e-01 -5.05157948e-01 -3.26018669e-02 -2.56318241e-01 -1.02003641e-01 -1.62437275e-01 +1.88933447e-01 +8.39154944e-02 +3.62794161e-01 -3.44070107e-01 +2.05408990e-01 +8.06528404e-02 -9.15797055e-02 -3.06939036e-01 +1.46431122e-02 +4.86860663e-01 -1.32772759e-01 +3.27357382e-01 -1.48517132e-01 -4.02091332e-02 +4.24157888e-01 -3.37721854e-01 +4.74750251e-02 +2.12582633e-01 +1.46062225e-01 +1.19609006e-01 -1.52657300e-01 -5.46593852e-02 -3.42247896e-02 -2.06044808e-01 +4.40679461e-01 -2.80180395e-01 +7.86124915e-02 +3.51781473e-02 +4.05269176e-01 -9.14112851e-02 -2.34903395e-01 -2.69928705e-02 -1.31899297e-01 +6.53984994e-02 -2.02534720e-01 +1.30286440e-01 +8.99259076e-02 +2.98932523e-01 -9.59840193e-02 +2.61317074e-01 -3.83922964e-01 +6.75036833e-02 +1.37307748e-01 +2.73406148e-01 +1.26752377e-01 -1.24535367e-01 +2.07200021e-01 +2.62116045e-01 +1.90883070e-01 +1.01003675e-02 -3.96813452e-01 -1.34607434e-01 -2.25939706e-01 -4.29763012e-02 +2.54761446e-02 -1.06010132e-01 -8.56885388e-02 -1.14247248e-01 +1.01116940e-01 +5.55663370e-02 -6.06922656e-02 +1.80372804e-01 -2.98405766e-01 -5.75961173e-02 +1.40484497e-01 -3.35594602e-02 +1.94294408e-01 +2.11726069e-01 -1.33194551e-01 -2.03637645e-01 -4.11909148e-02 -1.49448946e-01 -9.40010920e-02 -3.69331315e-02 -2.33411347e-03 +1.31331936e-01 +4.33050454e-01 -3.68937552e-01 -1.10159293e-01 +1.94557220e-01 -1.00782603e-01 +2.52586842e-01 +2.96939075e-01 +1.99834108e-01 +8.37740526e-02 -1.21124253e-01 +2.04612881e-01 +1.43366292e-01 -6.30121082e-02 +1.59563586e-01 +1.09172121e-01 +4.99181934e-02 -1.92957282e-01 -6.90072030e-02 +3.30063775e-02 +1.22381374e-01 +3.90542224e-02 -2.44922731e-02 -5.26897833e-02 +1.67473763e-01 +5.10260761e-02 -3.38263899e-01 -4.02122438e-01 -2.21098438e-01 -1.67904273e-01 +3.46012384e-01 +9.20889676e-02 +2.63701648e-01 +1.79896697e-01 -3.10030758e-01 +2.81290323e-01 -7.31054917e-02 -1.99958608e-01 -9.53671560e-02 +1.82264581e-01 +2.53031254e-01 +1.34191290e-01 +3.28953378e-04 +2.58838803e-01 +1.61161855e-01 -1.89110085e-01 +3.34741682e-01 +3.26295316e-01 -8.44358206e-02 +8.27170257e-03 +1.58919469e-01 +3.11681658e-01 -2.30525341e-02 +4.31362651e-02 +3.44087005e-01 +3.23913753e-01 -1.67143673e-01 -1.81567892e-02 -1.03297472e-01 +8.34090188e-02 +1.15675740e-01 +3.61388773e-01 -3.47316898e-02 +3.46176296e-01 -1.76695034e-01 +2.46411577e-01 +2.76302308e-01 +3.01143736e-01 +3.45387667e-01 -2.51813740e-01 +1.87820703e-01 +2.42749751e-01 -3.82603675e-01 -1.95371419e-01 -1.19971789e-01 +1.13398777e-02 -1.65585294e-01 -3.33892554e-01 +2.57415712e-01 -1.38218656e-01 +9.95850265e-02 -8.34738463e-02 +1.82976294e-03 +1.28515929e-01 -5.44741638e-02 +2.73541033e-01 -1.49963558e-01 -9.82429832e-02 -2.69824028e-01 +9.73233655e-02 -9.37047601e-02 +2.18093187e-01 -6.88034147e-02 -2.90776700e-01 -9.11919624e-02 -3.21712866e-02 +4.51231562e-02 +1.21177277e-02 +7.68250674e-02 -1.95553645e-01 +2.41735756e-01 +2.79710907e-02 +7.51706362e-02 +1.06747160e-02 +2.76689604e-02 +2.15404317e-01 -2.64306013e-02 -1.25518516e-01 -2.78201401e-01 -3.50047529e-01 +1.38986826e-01 -1.33706391e-01 -1.68162271e-01 -1.14628412e-01 +4.51832741e-01 -5.12191616e-02 -3.89544964e-02 -4.67612565e-01 +2.53012925e-02 +1.13698877e-01 -1.49494797e-01 +1.87137555e-02 +1.15309052e-01 +3.39459002e-01 +3.10696840e-01 +7.05427825e-02 -2.63903439e-01 +3.82553577e-01 +4.05934229e-02 -1.02615625e-01 +8.23592842e-02 +1.47024728e-02 -1.96423516e-01 -2.16009304e-01 +1.00633845e-01 -5.40578425e-01 +1.00446723e-01 -2.84134019e-02 -2.95649856e-01 -2.02583503e-02 -2.28132635e-01 -1.61275759e-01 -3.54811192e-01 +1.27659306e-01 -2.18697876e-01 +5.74990571e-01 -1.14203356e-01 -4.50208426e-01 -9.19858590e-02 +8.09758976e-02 -1.89164698e-01 -5.02150021e-02 -1.59339711e-01 +7.49101192e-02 +4.21377659e-01 -4.95391823e-02 +4.33383197e-01 -3.35234374e-01 +3.64296697e-02 +1.46269342e-02 +1.72080293e-01 -1.03587136e-01 -8.97516087e-02 -8.19963366e-02 -9.46527570e-02 +2.62013078e-02 -2.10468043e-02 -1.22843251e-01 +1.90364137e-01 -1.98079735e-01 +9.26043838e-02 +1.72376782e-01 -1.64361745e-01 -1.07107423e-01 -1.10474527e-01 +4.37789485e-02 -1.09822959e-01 -1.53224915e-02 -4.33085650e-01 +1.05958261e-01 +5.65691963e-02 -7.95457214e-02 -1.53928950e-01 +2.36254066e-01 +2.36595748e-03 +5.44210300e-02 -1.02595054e-01 +1.25455022e-01 +8.92544910e-02 +3.45972404e-02 +1.34159088e-01 -1.04996875e-01 -5.29184425e-03 +7.96333104e-02 +8.44250619e-02 +1.77170306e-01 +1.78063244e-01 -1.09719932e-01 -1.53679907e-01 -9.49640386e-03 +2.13719495e-02 -2.90639043e-01 +5.76253124e-02 -3.58182751e-02 +1.16321750e-01 -1.12000993e-02 +2.68057287e-01 -5.24644777e-02 -9.07437038e-03 +7.12461948e-01 -3.21391732e-01 -7.85934832e-03 -2.52398718e-02 -1.10672854e-01 +1.46828368e-01 -8.20268784e-03 -1.25014767e-01 +1.43457651e-01 +6.24444820e-02 -3.60918753e-02 +1.12978533e-01 +6.16295785e-02 +1.26878202e-01 -1.68802347e-02 -8.03383067e-02 +6.58798590e-02 -5.65885790e-02 +8.44400764e-01 -1.29613439e-02 +9.25310999e-02 +1.51358709e-01 -1.70349509e-01 -9.51174200e-02 +1.04099378e-01 -8.51100385e-02 -7.86886439e-02 +1.07783139e-01 +2.37422762e-03 -2.29914370e-03 -1.49940044e-01 +3.32669973e-01 -1.22497685e-01 +9.56427604e-02 -8.80949795e-02 +1.36601463e-01 -1.16105609e-01 -4.22898680e-03 +2.90664703e-01 +1.59918461e-02 +1.75633729e-01 -8.72059143e-04 -9.07623917e-02 -1.58231005e-01 +2.03247964e-02 +1.33549431e-02 +3.00215244e-01 +7.24539042e-01 +5.47291227e-02 -1.01470605e-01 +1.54945888e-02 +5.09429947e-02 +1.04112543e-01 -2.42271304e-01 -3.23035903e-02 +2.81854600e-01 -2.08212256e-01 -5.93699664e-02 -1.04548289e-02 -7.53534138e-02 +1.34767627e-03 +1.05520390e-01 -9.85370055e-02 +9.82607678e-02 -1.08533978e-01 +2.28146031e-01 -3.52383964e-02 +2.07036972e-01 -4.27833088e-02 +1.53699249e-01 -4.50873822e-02 +1.02685355e-01 -1.35042742e-01 +2.13745027e-03 -2.30761543e-01 +2.77114332e-01 +1.50515884e-01 +7.33708203e-01 +1.62921503e-01 +2.02731296e-01 -1.31223530e-01 -1.60894170e-02 +2.44297683e-02 -2.91267615e-02 -2.48810332e-02 -4.18425612e-02 +2.23864138e-01 -4.51436520e-01 +1.76848806e-02 +1.00357704e-01 -3.42568345e-02 +1.56587526e-01 +2.12166354e-01 -2.01092921e-02 +1.38958529e-01 -1.32942244e-01 -3.10221333e-02 +1.06663346e-01 +3.70594859e-01 -8.56559351e-02 -2.30094194e-01 +1.53563768e-01 -9.42603126e-02 -3.85931842e-02 +1.14680991e-01 -1.20385528e-01 -1.47750989e-01 +1.09397203e-01 +1.67217866e-01 -1.55877229e-02 -2.93897036e-02 -2.26201087e-01 +1.99261215e-02 +3.81404646e-02 -4.13126409e-01 -1.05986275e-01 +9.47194472e-02 +1.42708704e-01 -5.82685210e-02 -1.68506697e-01 +7.40261152e-02 -3.62117924e-02 +1.08958460e-01 -8.98518879e-03 +2.39199117e-01 -1.31682053e-01 +6.63099065e-02 +3.83060090e-02 -5.60836270e-02 +2.22968198e-02 -3.33216861e-02 -3.53736337e-03 -2.71704525e-01 -9.20040756e-02 -1.43777793e-02 +1.13535021e-02 +1.82279751e-01 -1.33198947e-01 +4.59448062e-02 -1.45772388e-02 +4.45322730e-02 +8.83350223e-02 -1.56508163e-01 -6.72427341e-02 -1.89821959e-01 -1.96145445e-01 -9.00184885e-02 +9.10949484e-02 +4.05187219e-01 +2.58221388e-01 -1.47298366e-01 -6.25345111e-01 +1.12094887e-01 -1.19163334e-01 -3.09043601e-02 -7.03633279e-02 -5.70905320e-02 +1.86578214e-01 +5.55719286e-02 -5.28598577e-02 -1.67727038e-01 +5.73141128e-02 +3.61280411e-01 -1.14310428e-03 -6.13888502e-01 +6.34961054e-02 -1.55392960e-02 +1.79737154e-02 +1.12187959e-01 +5.22727609e-01 -2.29436472e-01 +1.28785253e-01 -4.85807508e-01 +4.73715872e-01 -2.77449459e-01 +6.19519316e-02 +3.54206748e-02 +2.81874865e-01 -5.85983872e-01 +2.32485496e-02 +3.84592265e-02 -1.86419189e-01 -2.13511020e-01 -1.19430512e-01 -1.21907130e-01 +2.51404867e-02 +8.66879523e-02 -2.35923864e-02 -1.32712424e-01 -1.55997291e-01 -9.17750970e-02 +6.09760545e-03 -1.62612386e-02 -6.49072677e-02 -3.30732130e-02 +5.98535128e-02 +4.07746993e-02 -4.24594097e-02 +9.13558006e-02 -7.99876869e-01 +2.73199733e-02 -3.89614850e-02 +2.08306402e-01 -4.95295264e-02 +5.98433614e-02 +7.16178939e-02 +7.32561201e-02 -8.03396851e-02 +2.83018965e-02 +9.44383815e-02 +8.40710327e-02 +4.94630598e-02 -2.07438856e-01 +6.48683012e-02 +7.36417621e-02 -3.98196168e-02 -5.11329770e-02 -3.12089957e-02 -1.46259010e-01 +1.69290259e-01 +4.92534973e-02 -1.16033047e-01 +3.39609310e-02 -2.32386794e-02 +1.12207793e-01 +8.70274901e-02 +5.13285808e-02 -1.16441563e-01 +2.94802696e-01 -2.05006391e-01 +1.03745155e-01 -3.76850925e-02 +1.04238413e-01 -2.55951136e-02 -7.08240494e-02 +7.18749464e-02 -1.45335607e-02 +7.04675093e-02 +6.70728981e-02 +2.37127915e-01 -1.06091894e-01 -1.56964198e-01 +1.64258361e-01 +7.26548284e-02 -7.32651576e-02 +9.15415660e-02 +4.32403773e-01 -2.21810210e-02 +1.46496266e-01 -7.98798501e-02 +9.31438953e-02 -2.78708898e-02 +2.29510665e-01 -1.58796430e-01 +3.65031779e-01 -6.03131652e-02 +4.90039140e-02 +1.66599229e-01 -8.71553719e-02 -1.70888662e-01 -2.21713990e-01 +1.99881978e-02 -1.16896129e-03 -2.52492309e-01 +1.50887659e-02 -2.05744535e-01 +7.72349015e-02 +2.31739152e-02 +8.86028036e-02 +2.66945630e-01 +7.34327435e-02 -7.98619911e-02 -6.82021752e-02 -3.12663577e-02 +1.15416162e-02 -2.51363337e-01 +4.70103949e-01 +1.81487694e-01 -7.61924982e-02 -2.53925264e-01 +5.88336401e-02 +4.46502566e-02 +5.55425845e-02 +2.82981694e-01 -7.04430789e-02 -1.33774579e-01 -2.29410559e-01 -3.08746961e-03 -8.71870071e-02 -1.45874187e-01 +1.33683920e-01 -2.67736521e-02 +1.74918808e-02 -2.92429388e-01 -4.69408110e-02 -2.57452965e-01 +1.48990706e-01 -5.51700480e-02 -5.73430434e-02 -7.66416639e-02 -2.11757898e-01 +1.50387511e-02 -5.97569756e-02 -5.36148474e-02 -1.93049952e-01 +8.28731582e-02 -3.28718871e-02 +4.79304157e-02 -4.92645390e-02 +6.48358837e-02 -9.82379355e-03 -2.39973694e-01 +3.09845470e-02 -1.16557248e-01 -1.14064790e-01 +1.08300664e-01 +8.18355605e-02 +7.38034919e-02 -4.45641816e-01 -3.07074845e-01 -1.36759311e-01 -8.71802643e-02 +7.54409507e-02 +1.40740365e-01 -2.96144456e-01 +3.25272679e-01 +5.90885431e-02 -1.54189974e-01 -2.12059185e-01 -6.45452514e-02 +2.10197762e-01 +1.72878921e-01 +1.87330946e-01 +1.45549268e-01 +6.72015846e-02 +1.01800129e-01 -2.29938433e-01 -2.05181558e-02 -3.64073634e-01 -5.14647067e-01 +1.49836466e-01 -2.08398804e-01 +4.14146662e-01 -1.60428345e-01 -2.86400411e-02 -1.69742733e-01 +8.47900286e-02 -5.68901300e-02 -7.26279691e-02 -7.79128596e-02 -5.30192852e-02 +7.43184239e-02 +1.01276584e-01 +2.79694557e-01 +2.47718230e-01 -7.15770125e-02 +1.13645785e-01 +9.90183577e-02 -1.60587341e-01 +2.77559012e-01 -1.02340505e-01 +6.47272989e-02 -1.44624487e-01 +1.41214728e-01 -4.05609375e-04 -1.47217270e-02 -9.73626599e-02 -5.47441579e-02 -1.68122172e-01 -4.10145819e-02 -4.00037132e-02 -8.97202641e-02 +2.23841548e-01 +1.39245421e-01 +5.28102219e-01 -5.12853381e-04 -4.02133390e-02 +1.46385571e-02 +1.21775463e-01 -3.19294959e-01 +3.53898346e-01 -7.40113556e-02 +6.76847920e-02 +5.60642853e-02 +3.43650393e-02 -7.55553320e-02 -7.14183152e-02 +2.18026683e-01 +1.15890456e-02 -2.36595515e-02 -4.45920974e-02 -1.75609067e-01 +1.41389102e-01 -3.29662897e-02 -9.71069783e-02 -1.06042556e-01 +3.76408815e-01 +1.94310769e-01 -1.54929921e-01 +2.09292293e-01 +2.63182998e-01 +4.61929943e-03 -4.02683392e-02 +3.36915016e-01 -6.08203053e-01 -2.30719671e-02 -2.07383726e-02 -1.90190189e-02 -1.43804550e-01 -1.96672548e-02 -1.07102446e-01 +4.01376933e-01 +1.11375570e-01 +3.22175063e-02 +1.69173419e-01 +3.68134677e-02 -1.49304897e-01 +6.90123513e-02 -2.94969290e-01 +1.07479475e-01 +1.35837540e-01 +1.10238530e-01 +6.39157817e-02 +1.08154953e-01 +1.37499258e-01 -2.19045863e-01 +1.46964952e-01 +1.80839933e-02 -1.93093836e-01 -5.71248792e-02 +1.21358536e-01 -1.46471381e-01 +2.56520286e-02 +6.53812736e-02 +3.69218230e-01 +7.30711073e-02 -1.68303132e-01 -1.18532419e-01 +1.85485691e-01 -2.87396997e-01 -6.48375750e-02 +1.93957537e-01 +6.00304492e-02 -8.92201588e-02 +2.35593781e-01 -2.77193133e-02 +3.08943260e-02 -4.70253378e-02 -1.85771838e-01 +4.77935672e-02 +8.57202634e-02 +6.54610246e-02 +2.66183704e-01 +1.24278016e-01 +3.33960772e-01 -9.25433338e-02 -1.20423846e-01 +5.55100143e-01 +2.77253270e-01 +1.18215121e-01 +1.09870799e-01 +2.67437071e-01 -7.60054067e-02 -2.68390894e-01 +4.00575161e-01 -1.68524623e-01 +1.10053502e-01 -2.63199687e-01 -7.16777425e-03 -6.89334720e-02 +2.07063094e-01 +1.04259402e-02 +3.02256614e-01 -3.83505136e-01 +4.57749665e-01 +1.84823927e-02 +1.87113807e-01 +6.13911338e-02 +6.97300807e-02 -1.53799176e-01 -3.28888804e-01 -9.10014659e-02 -1.32018745e-01 +2.00108066e-01 -1.50422603e-01 +4.78986055e-02 +1.59708574e-01 -1.44716233e-01 +8.07766914e-02 +2.31808200e-02 -1.03303321e-01 +2.81176460e-03 +9.82601643e-02 +8.59568045e-02 +1.26302421e-01 +6.97792619e-02 +1.54133946e-01 -1.20763116e-01 +7.25497976e-02 +1.63755476e-01 -1.78353772e-01 +1.07037351e-01 -1.26654401e-01 -1.11547243e-02 -2.60100603e-01 +4.86962683e-02 -1.02771901e-01 +7.71435052e-02 -1.85594514e-01 +1.38516380e-02 +8.70585516e-02 -7.93163702e-02 +7.44310692e-02 -8.13038051e-02 +2.54735112e-01 +1.09062374e-01 -1.50045035e-02 -1.42199680e-01 +5.25601320e-02 +1.07087299e-01 -2.64038324e-01 -7.33819976e-02 +2.35778987e-02 +3.76047231e-02 -1.58997387e-01 -2.65343264e-02 -2.49751508e-01 +1.02565967e-01 -1.32550552e-01 -1.35917351e-01 -5.10429079e-03 -1.06833316e-01 -1.81834435e-03 +9.46715623e-02 +2.53396779e-01 +7.22916499e-02 +2.46343479e-01 -1.33073866e-01 -7.77707202e-03 -1.17656291e-01 -8.21063593e-02 -3.00978031e-02 -9.00406465e-02 -8.06860179e-02 +8.66622478e-02 -9.02154073e-02 -3.39357466e-01 +1.47678792e-01 -1.84541285e-01 +1.24224946e-01 -4.34646234e-02 +2.07255036e-01 -1.13018438e-01 +1.73974797e-01 -1.25786409e-01 +1.04611084e-01 -1.62561566e-01 -1.03223044e-03 -1.42830266e-02 +3.76150012e-02 -2.86636408e-02 +5.49861491e-02 +1.17129218e-02 +2.43877736e-03 -5.52410632e-02 +4.68867198e-02 -3.22894356e-03 -1.92934453e-01 -1.63844470e-02 -3.96908790e-01 +6.79012835e-02 +1.16563715e-01 +7.63256773e-02 -1.16560064e-01 +2.07795933e-01 +2.10060582e-01 -3.77011716e-01 +4.38298807e-02 +1.10096224e-01 +2.28746906e-01 +1.56564172e-02 +3.84071581e-02 -6.27621189e-02 -3.09966683e-01 +6.99509531e-02 -2.90954318e-02 +3.35905343e-01 +5.87296933e-02 +9.80600268e-02 +2.13554222e-02 -3.16270813e-02 +2.37193152e-01 +4.28733937e-02 +1.36860043e-01 +1.73229188e-01 +2.27283567e-01 -2.23057210e-01 -4.05638479e-02 -6.85542673e-02 +1.46907538e-01 +4.51209933e-01 +2.43911631e-02 +1.11896647e-02 +8.21913257e-02 +1.34343863e-01 -3.20907831e-02 +4.67794724e-02 -3.21473666e-02 -3.57278846e-02 +1.28745914e-01 +7.94530809e-02 +2.74932981e-01 -3.54297052e-04 +1.10685408e-01 +2.66232044e-01 +8.91832337e-02 -4.55425940e-02 +2.84700710e-02 +5.12946010e-01 +3.41718346e-01 +1.09599374e-01 +1.36680931e-01 +3.67044620e-02 -1.22546732e-01 +2.03318015e-01 -1.97915733e-01 +4.35766950e-02 +1.24365374e-01 +4.39787321e-02 +6.23200350e-02 -7.76199475e-02 -1.78705394e-01 -1.89840019e-01 +2.75707003e-02 +7.61580542e-02 +1.05030211e-02 +1.76713765e-01 +2.83132344e-01 +2.78804690e-01 +5.16631007e-01 -1.13206595e-01 +3.05931866e-01 -6.26865745e-01 -1.33678748e-03 +2.56602932e-02 +3.18399638e-01 -1.27820134e-01 -3.60539220e-02 +1.23875365e-01 +1.24588288e-01 +4.20014113e-02 +6.62876144e-02 -9.83227938e-02 -2.41914436e-01 -7.52553344e-02 +2.28229731e-01 -2.36564856e-02 -1.57710481e-02 +1.42315984e-01 -2.73811489e-01 +1.90235943e-01 -9.10475403e-02 +1.75130948e-01 +2.38556769e-02 -7.99958929e-02 +2.99741566e-01 +3.91399860e-02 -5.43408357e-02 -1.57428696e-03 +1.39792576e-01 -1.97355412e-02 +1.46128237e-01 -2.37134337e-01 +4.35630493e-02 -6.25585437e-01 +8.85819048e-02 +1.17703490e-01 +1.94724612e-02 -2.55625639e-02 +3.96134377e-01 -4.47145104e-01 +1.87552437e-01 -1.08098216e-01 +1.64427632e-03 +8.20816606e-02 +1.30188450e-01 +2.74121631e-02 -1.58939719e-01 -1.36098653e-01 -9.66308452e-03 -2.81761158e-02 +1.38656929e-01 -2.01350927e-01 +5.40004857e-02 -6.90567419e-02 +1.67056754e-01 -2.97703475e-01 -1.75090387e-01 +2.50758737e-01 -1.21385209e-01 -1.41487300e-01 -5.21644019e-02 +3.55838835e-02 -2.44686455e-01 +5.48669755e-01 -9.64229852e-02 +1.21545628e-01 +2.51868740e-02 +1.77061677e-01 +9.23531651e-02 +1.11265823e-01 -3.10755551e-01 +7.96351284e-02 +7.47463554e-02 -3.00431430e-01 -6.59196898e-02 +3.27917561e-02 +6.30805790e-02 +2.80018270e-01 -2.73319453e-01 +9.76435766e-02 -5.58248907e-02 -1.48449540e-01 -1.03843383e-01 -9.76729691e-02 +9.65880305e-02 -2.48829480e-02 -1.33303717e-01 -1.34172529e-01 +9.88656282e-02 +8.50681886e-02 +9.69522074e-02 -1.67194769e-01 +3.51873189e-02 -4.69554365e-01 +4.54574041e-02 +9.35133770e-02 +8.89274664e-03 -1.64626509e-01 +3.11906129e-01 -6.17753677e-02 -6.10343888e-02 +9.12151262e-02 +4.78704199e-02 -2.84620881e-01 +2.56520975e-02 -3.49082388e-02 +3.38966995e-02 +1.84897929e-01 -1.54071962e-02 +6.41182810e-02 -9.37068369e-03 -3.99507195e-01 -7.73536786e-02 -2.18390450e-01 -4.56192158e-02 +1.65196285e-01 -3.13816339e-01 -2.08722562e-01 -1.30135700e-01 +9.51646417e-02 -9.12240595e-02 +2.57426500e-01 +1.34232759e-01 -3.74857664e-01 -9.71853081e-03 -2.30181620e-01 +3.14220041e-01 -5.92796281e-02 +4.42591995e-01 -6.72867298e-02 +4.67394628e-02 -4.96817768e-01 +4.73621607e-01 -5.12171805e-01 -1.99534342e-01 +5.75546026e-02 -2.26770118e-01 -1.11038059e-01 +8.97027701e-02 +4.51882303e-01 +2.59114671e-02 -1.99518017e-02 -4.83604744e-02 +9.37451273e-02 +2.74588205e-02 -1.14618227e-01 +2.78281838e-01 -9.78199387e-05 +1.25774249e-01 +3.55976485e-02 +3.24044786e-02 -1.31397501e-01 -8.98452327e-02 -6.15664497e-02 -4.77172285e-02 -3.36316302e-02 +8.86045173e-02 -2.52782971e-01 -7.21398070e-02 +1.44546553e-01 -3.10512278e-02 +1.16024025e-01 +1.48413228e-02 +2.33922258e-01 +3.67199108e-02 -3.45434062e-02 -1.78735688e-01 +3.60460848e-01 -1.59879923e-01 -1.02275640e-01 +1.15969956e-01 +3.31344157e-02 -1.24915456e-02 -6.76688477e-02 -1.38298452e-01 -1.57423705e-01 -7.02812448e-02 -6.35748655e-02 -3.87895219e-02 +1.98039249e-01 +1.59713462e-01 -1.18604846e-01 -9.84093323e-02 +1.51797310e-01 +2.17883676e-01 +2.74572164e-01 +1.81051195e-02 +2.00903580e-01 +5.70309423e-02 -9.76020694e-02 -1.07462913e-01 -2.74786148e-02 +7.21047446e-02 -3.50559205e-01 +1.23290010e-01 +3.90298218e-02 +1.00726716e-01 +2.20980067e-02 -1.05490819e-01 +2.96635292e-02 +5.91079295e-02 +2.29065076e-01 -5.78567898e-03 -1.64581388e-01 -9.36829448e-02 +1.76610276e-01 -1.00359231e-01 -1.61365252e-02 +1.80355925e-03 +2.33927265e-01 -1.46903098e-01 -1.92222819e-02 +1.28185451e-01 -5.58811761e-02 +2.69306377e-02 +8.82564411e-02 +1.01292074e-01 -7.20110955e-03 -3.76243033e-02 +2.79373210e-02 -1.81004107e-02 +2.83091426e-01 -2.11926594e-01 +3.33354622e-02 -2.86071450e-01 +2.17405006e-01 +7.21244514e-02 -2.38567278e-01 -1.69894010e-01 -1.12999119e-02 -6.84262067e-02 -7.52452016e-02 +9.41623375e-02 +2.46818624e-02 -1.27743840e-01 +1.00434810e-01 -5.43459840e-02 +1.57587022e-01 -6.19730167e-02 -1.00561418e-01 +4.52529080e-03 +6.68307319e-02 +1.65678039e-01 -1.07631594e-01 -1.94159955e-01 +1.08352751e-01 -4.32016440e-02 +1.05821341e-02 +5.21367323e-03 -1.51998520e-01 +2.76494175e-01 -1.02289259e-01 -1.35916665e-01 -5.00468761e-02 +9.71461907e-02 -7.03359246e-02 -1.18115827e-01 -2.58371294e-01 +1.76460534e-01 -4.94190902e-02 +1.27761275e-01 -1.16813201e-02 +3.67321894e-02 -1.94003344e-01 +9.13512185e-02 -2.45952770e-01 +1.87424552e-02 -5.05828410e-02 +4.12495993e-02 -2.73120999e-01 -7.20855966e-02 -5.11177331e-02 +9.95337442e-02 -1.24386199e-01 +6.00408018e-02 +4.76060994e-02 +5.89706823e-02 -4.17405330e-02 -1.93541184e-01 -8.54057353e-03 +2.06081588e-02 -1.31093159e-01 +7.83544928e-02 -5.52252345e-02 +6.86429217e-02 +1.27518103e-01 +7.56960213e-02 -3.73808086e-01 -8.20150301e-02 -4.70666774e-03 +3.27292010e-02 -1.96589977e-02 +3.09438825e-01 -8.77188072e-02 -3.93895106e-03 -8.07614699e-02 +5.22673726e-02 +3.76140103e-02 +3.39729227e-02 +9.61351395e-02 -1.85334265e-01 +1.03725426e-01 +7.05538020e-02 -1.22982413e-01 +1.36008486e-01 -7.41898566e-02 -2.73746867e-02 +3.65774205e-04 +1.87388957e-01 +3.27807441e-02 +5.27890166e-03 +1.44779742e-01 -1.48522547e-02 +9.20602754e-02 +6.07305169e-02 -5.31348214e-02 -1.28889322e-01 +1.61571801e-01 -3.45502757e-02 +3.82944234e-02 -1.09260000e-01 +4.89281267e-01 +2.78788149e-01 -5.69578931e-02 +2.97100190e-02 -5.88158332e-02 -8.96551646e-03 -3.08965325e-01 -3.20187099e-02 +1.21215120e-01 -2.20001619e-02 -5.38711101e-02 +2.30107442e-01 +1.58469692e-01 +5.62175289e-02 +3.46451439e-02 +2.01413799e-02 +6.62731528e-02 -2.63643879e-02 -7.37300515e-02 +6.17336482e-02 +1.91570386e-01 +7.41889328e-02 +9.07693207e-02 -1.62969172e-01 +1.56628996e-01 -1.22953363e-01 +1.18473403e-01 -1.26536921e-01 -1.89777821e-01 +6.52467087e-02 +8.36229622e-02 -1.11016281e-01 -1.20733082e-01 +7.46841282e-02 -6.15960732e-02 +8.23456869e-02 +8.42867047e-02 +7.14769363e-02 +6.64219037e-02 -1.96547747e-01 +1.58202257e-02 -1.33657977e-01 +6.31286278e-02 +1.17196023e-01 +1.95096672e-01 +3.13148759e-02 +2.27651428e-02 +2.00854074e-02 +1.23000748e-01 +1.35315508e-01 +2.74261504e-01 -7.64035061e-02 -6.22885711e-02 +8.15697536e-02 -4.01192270e-02 +5.98882362e-02 -9.06223208e-02 -1.00254558e-01 +7.98104852e-02 +1.62055418e-01 +1.10542037e-01 +1.71639532e-01 +1.21348821e-01 +3.54170986e-02 +1.12094339e-02 -1.48875624e-01 -2.47073263e-01 +4.00691777e-02 +3.64097297e-01 +3.99179786e-01 -1.64564028e-01 -5.80999739e-02 +1.61555439e-01 +3.48274112e-02 -1.33869737e-01 -4.48047891e-02 -8.88589546e-02 -3.89325549e-03 -3.70042361e-02 +1.91725299e-01 +1.08958082e-02 -5.94168827e-02 -4.43549007e-02 +4.71251123e-02 +6.86531216e-02 +1.16238564e-01 -1.26313001e-01 -9.62142870e-02 +1.33851886e-01 +3.89296077e-02 +1.31696135e-01 +2.78346464e-02 +2.84620561e-02 -3.55850637e-01 +2.09427048e-02 -7.21816868e-02 +7.78009221e-02 +4.85359967e-01 +2.17831716e-01 +9.80308726e-02 +3.07402890e-02 +3.49741615e-02 -7.87222933e-04 -2.64232457e-01 +6.97808489e-02 -2.02241074e-02 -6.40067011e-02 -1.10831641e-01 +6.12575226e-02 -2.81399135e-02 +7.03176484e-02 +6.78862631e-02 +6.04555644e-02 -1.74128175e-01 +3.62210929e-01 -7.62488022e-02 -8.57476741e-02 -2.46784419e-01 +1.19787708e-01 -7.70075396e-02 +2.44279448e-02 +6.06805682e-02 +1.19146213e-01 -1.33615538e-01 -8.86133686e-02 +4.19223867e-02 +8.97467777e-04 -1.02382079e-02 -1.38450623e-01 -1.74417570e-01 +2.19256863e-01 +1.22467019e-01 -1.25467196e-01 -1.27495915e-01 +3.54600787e-01 -2.93926418e-01 -2.83060551e-01 +4.12540250e-02 +9.44673643e-02 +4.19805199e-02 -1.86152801e-01 +7.87811503e-02 -3.53053153e-01 +1.34688616e-01 -8.63056816e-03 -6.06231540e-02 -2.17375960e-02 -8.74603093e-02 +5.57955578e-02 +1.04278088e-01 +1.20039657e-01 +2.91202478e-02 +1.17660604e-01 +2.51755387e-01 +6.25996813e-02 -3.84327352e-01 +1.88012287e-01 +1.16870314e-01 +3.64122868e-01 -1.44798018e-03 +1.63130835e-01 -4.05447632e-01 -1.91740260e-01 -4.33794595e-02 -1.13811374e-01 +2.28001118e-01 +1.22686671e-02 -1.31490737e-01 +1.09385274e-01 -2.87268795e-02 -2.73410361e-02 -7.99720176e-03 -1.24160729e-01 +4.89591286e-02 +1.17927827e-02 +3.94846387e-02 +2.02962399e-01 -4.54345159e-02 -2.18323413e-02 -7.80650824e-02 -7.55375251e-02 +4.75806668e-02 -1.51991412e-01 -1.27134249e-01 -2.74973512e-01 +2.04139631e-02 -1.57890115e-02 +3.37256342e-01 +2.41368022e-02 +2.34297737e-02 -8.55563655e-02 +1.82091713e-01 -9.17732343e-02 +2.87823260e-01 +3.01169157e-01 +2.38006458e-01 -2.79872697e-02 -1.09072916e-01 -4.91817780e-02 +1.49121717e-01 -6.39373362e-02 +1.46890000e-01 +1.85896829e-01 -2.16562953e-02 -2.24980995e-01 +1.36120856e-01 -1.24269217e-01 -7.97241628e-02 -1.08277336e-01 -9.99272056e-03 -1.49237169e-02 -1.12862900e-01 -1.37736842e-01 +2.96483245e-02 -1.56770319e-01 -2.12603528e-02 +7.00625181e-02 +5.50609350e-01 -1.61084116e-01 -1.32311761e-01 +3.83831054e-01 -3.81455928e-01 +2.18937442e-01 +3.41955960e-01 +1.00454614e-01 -9.65086594e-02 -9.23992842e-02 -6.44877926e-02 +4.91685197e-02 -1.03233056e-02 +1.85076650e-02 +4.97682512e-01 +1.24286853e-01 +6.57525063e-02 -1.00202203e-01 -1.56048939e-01 -1.15665726e-01 +2.77072519e-01 +5.43748103e-02 +1.22494057e-01 -1.48551211e-01 -3.09393741e-02 +1.59059480e-01 +1.15865506e-01 -1.30862787e-01 -1.99840218e-01 -6.12213612e-02 -3.97053540e-01 -1.93057477e-01 +5.82637727e-01 -4.77345400e-02 +4.68086272e-01 +4.97880518e-01 +6.06722161e-02 -9.68060568e-02 +1.10201109e-02 -3.60788852e-02 +5.82211435e-01 -1.71890995e-03 -1.20737843e-01 +1.58582523e-01 -5.87092619e-03 +1.36539280e-01 -1.74028814e-01 +1.76614270e-01 +4.50953282e-02 -5.94034558e-03 +2.46259958e-01 -4.77213174e-01 +1.43414363e-01 +1.71344250e-01 -1.59630075e-01 +6.66989759e-02 +1.77359395e-03 +6.86077029e-02 +4.00521308e-02 -3.00708357e-02 +2.47307226e-01 -3.22343171e-01 +3.54153991e-01 -4.04043198e-01 +2.80768692e-01 -2.03106940e-01 +4.14294630e-01 -1.62498847e-01 +2.60263141e-02 -6.61885962e-02 +1.92129925e-01 +1.58798039e-01 +6.51429743e-02 -4.21954282e-02 -5.72999706e-03 +7.70520940e-02 -1.38290122e-01 -5.90733737e-02 -2.84727395e-01 -4.36949581e-02 -7.68319249e-01 +1.16779841e-01 -1.50657833e-01 -1.32053211e-01 -4.23064530e-02 +1.73285417e-02 +2.32440367e-01 +1.19556732e-01 -1.72675565e-01 -2.11812213e-01 -5.63997142e-02 -3.70371975e-02 +3.47016752e-01 +4.45781201e-02 +1.80870667e-02 -2.09310576e-01 -2.51817465e-01 -5.53664267e-02 -1.97685629e-01 -5.91661856e-02 +1.38530791e-01 -1.20597683e-01 +1.45804048e-01 +4.39383052e-02 -7.64760226e-02 -1.50824293e-01 +1.40593663e-01 +8.09224620e-02 +9.85598713e-02 +3.11399609e-01 -1.02796294e-01 +2.68864427e-02 +3.13155264e-01 -3.12900841e-01 +8.92387450e-01 -9.50148236e-03 -9.98894498e-02 -4.75363061e-02 -1.39542654e-01 +1.30720943e-01 +1.92732606e-02 -2.03041926e-01 -3.82953323e-02 +2.91691214e-01 -9.50723961e-02 +2.19485253e-01 -7.08252862e-02 +2.69209832e-01 +6.02860972e-02 +6.27366826e-02 +9.01549682e-02 -1.14064388e-01 -9.71418843e-02 -2.19358504e-01 +7.65610114e-02 -9.02318358e-02 +1.43561527e-01 -1.69065610e-01 -1.06172904e-01 +1.09105796e-01 -2.68436763e-02 +4.49605808e-02 -3.51518810e-01 +2.04542741e-01 -5.81912138e-02 -1.43061817e-01 +7.28588998e-01 -1.33871794e-01 -1.59445450e-01 -8.40964541e-02 +4.07325774e-02 +6.69588521e-02 -3.44907232e-02 -1.75036147e-01 -8.06436613e-02 -9.68365446e-02 -4.67152372e-02 -7.35605974e-03 +1.08187348e-02 -1.83949605e-01 -1.52034611e-02 +9.18638706e-02 +1.28743798e-01 +1.49179205e-01 +2.14137271e-01 -1.75733939e-01 -2.36100540e-01 -1.78854391e-01 -1.70304552e-01 -1.07733440e-02 +1.48009703e-01 +4.18685600e-02 +2.38080502e-01 -7.21016943e-01 -2.43000966e-02 -2.06934333e-01 -7.06305876e-02 -7.52734765e-02 -9.30904672e-02 -6.74389243e-01 -1.82189897e-01 +1.35927023e-02 -3.77386779e-01 +4.87508066e-03 +3.41459066e-02 -1.00369740e-03 -1.54985502e-01 +6.94307163e-02 +5.35777569e-01 -8.72726552e-03 +5.24052717e-02 +3.19827735e-01 -7.11532757e-02 +8.58495906e-02 +6.64336458e-02 -3.10321838e-01 -4.11344096e-02 +4.93852831e-02 -4.91961055e-02 +1.33305099e-02 +1.31381704e-02 +1.65083498e-01 +1.43995598e-01 +6.17331751e-02 -8.11137110e-02 +5.53151146e-02 -2.04634756e-01 -1.09452270e-01 +3.82121056e-01 +1.33537486e-01 +2.07433268e-01 +5.87019622e-02 -4.80723493e-02 +2.44366229e-01 -6.66352883e-02 -1.06053650e-01 +1.24538444e-01 +3.17897126e-02 -2.12284978e-02 +1.87274739e-01 +1.86561674e-01 +2.91329771e-01 -1.82777241e-01 -2.29413301e-01 +1.26219034e-01 +1.84919968e-01 -5.66763341e-01 -5.68639152e-02 +1.42859723e-02 +4.14740920e-01 -1.39005318e-01 -7.41187856e-02 +2.31106624e-01 +5.65479919e-02 -1.57654539e-01 -2.65309542e-01 -1.05432577e-01 -1.09143175e-01 -3.56697030e-02 -1.43794864e-01 -2.61281848e-01 +1.92805171e-01 +1.83555439e-01 -2.08523646e-01 +4.36247997e-02 +2.31828690e-01 +6.76599666e-02 +4.64030474e-01 +1.33850455e-01 +2.88074166e-02 +4.52424169e-01 -2.88381904e-01 -8.91434550e-02 -2.52241455e-02 +1.09398380e-01 +7.87403286e-02 +2.27025598e-01 +6.93800002e-02 +2.92036384e-01 +3.03994268e-02 +2.77112991e-01 -7.76861086e-02 -1.72994763e-01 +1.66235566e-01 -2.77121253e-02 +6.50745854e-02 +6.30639568e-02 -1.32981688e-01 +6.54318780e-02 -1.97507113e-01 +2.95809388e-01 +1.59102511e-02 +5.89648843e-01 +2.57846832e-01 -3.57636511e-01 +4.99944687e-01 +8.78400169e-03 +3.98347735e-01 -1.52429596e-01 -5.23554422e-02 +1.03434660e-01 -1.11615539e-01 +3.27203274e-01 -3.31083089e-01 +1.68017492e-01 +5.22879399e-02 +2.68390387e-01 +2.26434857e-01 -3.64791751e-01 +2.76805796e-02 +3.10123205e-01 -4.19839740e-01 +1.88889112e-02 -4.88686785e-02 -1.83017984e-01 +1.93382114e-01 +4.10428420e-02 -1.55359000e-01 +3.28230679e-01 +4.45986204e-02 +3.79844382e-02 +1.23337843e-01 -7.26833120e-02 -1.01032741e-01 -4.09600846e-02 +5.24046309e-02 +5.76766193e-01 -1.32998422e-01 -4.70423013e-01 +1.87455953e-04 +1.50207534e-01 -1.26180515e-01 -2.58116037e-01 +2.23272130e-01 +4.58685309e-01 -7.64010474e-02 -1.94676474e-01 +4.96024847e-01 +6.21030442e-02 +1.22423224e-01 -2.18814492e-01 -2.34518856e-01 -1.76617142e-03 -1.53813973e-01 -1.15060033e-02 -3.14065129e-01 +1.18251160e-01 +1.08976692e-01 -1.63300604e-01 +1.88932538e-01 -2.48939712e-02 +9.70947668e-02 -1.19353563e-01 -4.16873954e-02 +4.62841913e-02 +4.80469495e-01 +1.76574253e-02 -2.54289359e-01 +2.92181894e-02 +2.63700541e-02 -1.46458760e-01 +1.12348786e-02 -6.97964877e-02 -3.04898947e-01 -9.50446501e-02 +1.36077955e-01 -1.86697081e-01 +1.77841634e-01 +2.94402540e-01 +2.12405562e-01 +1.30820379e-01 +2.43866533e-01 -5.65800555e-02 +1.30735546e-01 -1.13805301e-01 -2.01225206e-01 +3.16900283e-01 -3.74956243e-02 +2.46982276e-02 -1.19882688e-01 -2.93026298e-01 -2.39800245e-01 -3.02128911e-01 +7.04166442e-02 -1.31777063e-01 +8.56907070e-02 -1.58482835e-01 -2.23756343e-01 +1.85431372e-02 -3.59664261e-02 -7.43805151e-03 -9.75123048e-02 -5.71662672e-02 +2.38335103e-01 +2.29604989e-01 -1.24980077e-01 -6.79473430e-02 -1.71339944e-01 +1.29290849e-01 -3.12248796e-01 +2.00219616e-01 -7.70405158e-02 +1.06630720e-01 -1.53162584e-01 -1.96717039e-01 -3.68238427e-02 +1.94971729e-02 -2.65521884e-01 -9.30433124e-02 +6.48110881e-02 +9.17983875e-02 -1.18069969e-01 +1.50908053e-01 -7.59363696e-02 -1.26647457e-01 +1.60492640e-02 +1.75635442e-01 +1.73454210e-01 +5.40622026e-02 -4.00216579e-02 +1.67107120e-01 -6.36449978e-02 +1.03907488e-01 -1.19402513e-01 -2.03745253e-03 -3.69858056e-01 +1.15496859e-01 -1.79515064e-01 +2.26567358e-01 -1.98809966e-01 -7.05466419e-02 -5.95128126e-02 +6.74005374e-02 -4.39881720e-03 +4.42536473e-02 +4.55043055e-02 +2.18309581e-01 -2.32184946e-04 +2.11491823e-01 -5.94082363e-02 -2.87780255e-01 +1.27751425e-01 -9.59679112e-02 +6.34476095e-02 +2.21436888e-01 -3.12937856e-01 -3.25320333e-01 -2.71244913e-01 -4.49729949e-01 -3.23572367e-01 +3.39535326e-02 -4.95528519e-01 -1.00280434e-01 +3.53248924e-01 -2.03553159e-02 +9.37833413e-02 +5.92130758e-02 -3.40656966e-01 +4.38433677e-01 +2.76232153e-01 +1.65109970e-02 +1.85132429e-01 +1.49135202e-01 +5.76611981e-02 -2.87099600e-01 -1.75605249e-02 +1.82725713e-01 -3.01462766e-02 -1.23336343e-02 +1.39113218e-01 +7.66021535e-02 -1.35496944e-01 -1.16038620e-01 -2.74577528e-01 +4.35967237e-01 +1.02254756e-01 +1.32179096e-01 +2.07155943e-01 -2.88194597e-01 -4.84057069e-01 +4.87940609e-02 -1.08745903e-01 -2.59781539e-01 +2.43776873e-01 -1.31874576e-01 +1.11333728e-01 +5.72404042e-02 -2.84724217e-02 +1.45553038e-01 +8.11157003e-02 +2.00883925e-01 -1.35270879e-01 +1.66747704e-01 -9.05736983e-02 +5.51972240e-02 +4.16326284e-01 +1.61086172e-01 -1.81446522e-01 +2.99363080e-02 -4.70287763e-02 -2.25361437e-01 +2.38110676e-01 -1.76423863e-01 +2.07633868e-01 +1.50878027e-01 -4.25089411e-02 +1.89332992e-01 +1.09375618e-01 -5.65917417e-02 +2.31194481e-01 +1.29274189e-01 +4.09117341e-01 -1.00444719e-01 +1.40513092e-01 +1.73917331e-03 +2.35274315e-01 +2.67784834e-01 -2.51293004e-01 +2.23708004e-01 -9.40329731e-02 +1.75295413e-01 -4.60096180e-01 -2.35606134e-02 +1.63415700e-01 -2.71831661e-01 +3.46408129e-01 +1.52790649e-02 +3.26673836e-01 +1.35771483e-01 +3.66749227e-01 -3.23681580e-03 -1.53100073e-01 +2.74585396e-01 -1.22145481e-01 -2.57248040e-02 +2.08495706e-01 +4.34687175e-03 -1.33996740e-01 +2.33377493e-03 +4.60467428e-01 -3.28789741e-01 -2.58971363e-01 +7.18471333e-02 +2.23489612e-01 -2.48103037e-01 +1.17407233e-01 -5.58065958e-02 +1.23029217e-01 +1.49278626e-01 +1.12685911e-01 +3.82644543e-03 +1.07647724e-01 +2.48119429e-01 -1.60919502e-01 -2.54869491e-01 -6.09215572e-02 -3.17673460e-02 -1.06648520e-01 +2.40999013e-01 -6.26625642e-02 +8.55621248e-02 -7.57163912e-02 -2.39557028e-01 +3.00151229e-01 +2.36216187e-01 -8.32481384e-02 +5.35601452e-02 +8.48217756e-02 -4.09215596e-03 -1.44917637e-01 +8.69291723e-02 -3.15918595e-01 -3.36881578e-01 -3.59288007e-01 -4.94116023e-02 -5.20578942e-06 -5.53624481e-02 +2.68694162e-02 +3.98912877e-02 -1.08371489e-01 -2.09649220e-01 +9.82619897e-02 +7.72032961e-02 +3.92426066e-02 +4.74399962e-02 -1.31432980e-01 +1.35438576e-01 +8.34168959e-03 +3.27218920e-02 -3.62661853e-02 +6.84557185e-02 +1.34387031e-01 -1.13273263e-01 +8.07855278e-02 +1.87040210e-01 -1.05340421e-01 +7.24881142e-02 -5.77955395e-02 +1.69107050e-01 -1.29429758e-01 -4.00744945e-01 -1.58947408e-01 -2.42225435e-02 +1.96208060e-03 +3.35581154e-02 -1.75652534e-01 -1.53670967e-01 +1.65550143e-01 -7.69271255e-02 +1.94975175e-02 -1.20692179e-01 -5.77542894e-02 +1.40461758e-01 -4.69336519e-03 -6.77575124e-03 -1.93368737e-02 -1.13855302e-01 +4.28054743e-02 +8.66195094e-03 -3.81809510e-02 +1.91996217e-01 -5.68671227e-02 +1.85120165e-01 +1.31481886e-01 +8.60007480e-02 +6.83320537e-02 -5.94267324e-02 +4.04577851e-02 +1.89743280e-01 -7.81569555e-02 +2.61851735e-02 +4.59209681e-02 -5.13894074e-02 +2.04076730e-02 -1.15741836e-02 +1.63018540e-01 -5.69392331e-02 +1.51018158e-01 +1.33128271e-01 -6.98236227e-02 +8.11882541e-02 -1.11557715e-01 +1.80117171e-02 -1.26891611e-02 -4.05302912e-01 -1.20863006e-01 -4.10441011e-02 -1.13241725e-01 +8.18574280e-02 -2.50208136e-02 +1.53646782e-01 -1.65979177e-01 +1.37047887e-01 +1.08593635e-01 -4.53568846e-02 +2.57684737e-01 +7.03312457e-02 -1.09637357e-01 -1.07511200e-01 +8.05370435e-02 -2.47542523e-02 +4.43092212e-02 -2.20142957e-02 -1.79586604e-01 -6.32913038e-02 +2.22136788e-02 +2.30651479e-02 -9.15212631e-02 +1.29515335e-01 -8.61775875e-02 -2.14595348e-02 -1.93894908e-01 +3.23000215e-02 -9.62677691e-03 -2.04695091e-01 -1.94892317e-01 +8.12205598e-02 +1.33664357e-02 -1.70610979e-01 -5.44313230e-02 +1.42507747e-01 +2.16962129e-01 -1.66268587e-01 -3.91698144e-02 -1.38089834e-02 +1.38963247e-02 +3.32446575e-01 +8.94037113e-02 +9.17601585e-02 -2.43860841e-01 +5.96023202e-02 +1.54434070e-02 +2.50522405e-01 -1.06552392e-02 -4.05387096e-02 +1.10641681e-01 +1.18936732e-01 -1.96113661e-01 -5.58677427e-02 +1.53405413e-01 -1.37004212e-01 +2.77976021e-02 +1.13639012e-01 -3.21884081e-02 +1.83664575e-01 +1.55159505e-02 +1.56796768e-01 -5.88082522e-02 -8.76620784e-02 -6.94559515e-02 -1.53365046e-01 +6.76628575e-02 -3.97544466e-02 +6.62239417e-02 +5.03950864e-02 +6.86163490e-04 +2.20294762e-02 +9.13326666e-02 -1.42902657e-01 -9.35461372e-02 -3.57816480e-02 -7.27753639e-02 +4.22641374e-02 +1.13852195e-01 -1.06269620e-01 +5.78396916e-02 -3.41265202e-01 +7.69819380e-05 -6.86034262e-02 +1.19661097e-03 -5.24832010e-02 -1.63329244e-01 +1.60206288e-01 +1.08828939e-01 +1.32905528e-01 -5.64679615e-02 +2.91694961e-02 -1.66453019e-01 +3.18821192e-01 +1.15812965e-01 -3.41469646e-02 +1.33284956e-01 +1.02198370e-01 +2.58149430e-02 +9.33755934e-02 +9.63509977e-02 -2.71097571e-01 -7.55867809e-02 +1.95996985e-01 +2.74720758e-01 -4.02394742e-01 +1.08613528e-01 -4.37170640e-02 +1.15777552e-01 -3.04281682e-01 -1.30159706e-01 +4.35432047e-02 -1.06521979e-01 +1.03612177e-01 -6.78238869e-02 -7.35184029e-02 +9.95892063e-02 +4.45863407e-04 -7.84490928e-02 +1.39279261e-01 -1.62153259e-01 +1.35550722e-01 +2.03138925e-02 -8.11001137e-02 +1.98907889e-02 +4.30618733e-01 +1.14146300e-01 -5.31782135e-02 -1.12503417e-01 -1.45076379e-01 +1.27027114e-03 +1.45745352e-01 -1.33719444e-02 -1.78156421e-01 +2.59172648e-01 +8.66914764e-02 -6.19067252e-02 +1.12275019e-01 +3.20855379e-02 +7.88928289e-03 -1.20213673e-01 +4.66367172e-04 +2.02500865e-01 +1.51117845e-02 -1.85650457e-02 +3.86920087e-02 +1.65786892e-01 +7.18443096e-03 -1.29487276e-01 +2.65877038e-01 -2.07825974e-02 -1.32563427e-01 +9.75314677e-02 -1.03382550e-01 -1.96495187e-02 -2.14754373e-01 -1.41341940e-01 -9.05670300e-02 -7.52354227e-03 -5.57468794e-02 -3.32197994e-02 -1.71810925e-01 -8.95745084e-02 +2.40410611e-01 +6.64925575e-02 +6.09740838e-02 -1.74088627e-01 -8.55808631e-02 +2.31966916e-02 +2.26394888e-02 -5.77321313e-02 +1.17371842e-01 +8.94809738e-02 -3.29533815e-02 -1.44518048e-01 -6.34592921e-02 -4.01656032e-02 +5.45418225e-02 -6.96549788e-02 +1.42737534e-02 +1.36691719e-01 -2.73752928e-01 -1.07815936e-02 +2.40425572e-01 -3.98251899e-02 -2.48989817e-02 -1.97699264e-01 +7.82572404e-02 +6.43169582e-02 +3.22988600e-01 +9.53286514e-02 -6.21246286e-02 +4.03410457e-02 +1.70468509e-01 +9.79226157e-02 +5.93569875e-02 -4.23634388e-02 -2.18826458e-01 +7.69702569e-02 -3.26958597e-01 +3.17793302e-02 -1.33700654e-01 -4.23281461e-01 +7.81060830e-02 -5.06781973e-02 +4.20648307e-02 +5.93040250e-02 +7.54862055e-02 -6.07719496e-02 -5.07781245e-02 +1.18493021e-01 +6.24485612e-02 +5.84141351e-02 +8.09163041e-03 +6.90402538e-02 +3.00659314e-02 +9.09785554e-03 -1.58971444e-01 -1.78482458e-01 -4.69975807e-02 -1.19789906e-01 +1.57503173e-01 +9.87412184e-02 +1.88640118e-01 -7.72951543e-02 -5.47189973e-02 +4.61659431e-02 -1.46038145e-01 -2.59795673e-02 +4.48119119e-02 +2.18776446e-02 -1.47255659e-01 +6.32288575e-01 +1.19785383e-01 +3.62378627e-01 -4.89088029e-01 +3.67065161e-01 +2.57152393e-02 -1.21691618e-02 -4.18014936e-02 -7.92372003e-02 +2.02607274e-01 -2.69559950e-01 +8.32564294e-01 -3.87570053e-01 -2.07925558e-01 +5.79323173e-02 -1.15945622e-01 +1.36945620e-01 +3.94687206e-01 -5.31180978e-01 -8.47097263e-02 +1.86803043e-01 +5.26547208e-02 -1.88852653e-01 +6.88878074e-02 +1.36713594e-01 +1.33282505e-02 -7.90071413e-02 -2.11140066e-01 -1.19366258e-01 -2.53543019e-01 +2.29106501e-01 +3.73544723e-01 -1.18724979e-01 -2.95814216e-01 -6.88654706e-02 -3.05058807e-01 -2.05442622e-01 +1.43314987e-01 -1.32778361e-01 -7.49341786e-01 +1.45271137e-01 +8.93966854e-03 +6.08398855e-01 +4.67770457e-01 -8.50712433e-02 +2.83501595e-01 +1.49894848e-01 +2.29635805e-01 -8.87268260e-02 -7.95949772e-02 +1.33566654e+00 -2.20247641e-01 -2.50934899e-01 +1.29887909e-01 -2.08755732e-01 +5.39388239e-01 +3.60838473e-01 +1.90157220e-01 -1.50281280e-01 +2.06601605e-01 +7.65469894e-02 +1.25714362e-01 -1.62905633e-01 +5.28281212e-01 +2.76304990e-01 -5.27284026e-01 +6.47921562e-02 +2.27415692e-02 -1.23278804e-01 -1.75970942e-01 -3.33366506e-02 +1.67026162e-01 -1.82519391e-01 -1.60811931e-01 -1.64250776e-01 +1.07819684e-01 +5.84465116e-02 +3.74025255e-01 +8.80742148e-02 +8.76806974e-02 +5.90490215e-02 +9.23015922e-02 +1.79190576e-01 +9.82908756e-02 -2.10455328e-01 -1.03988580e-01 -9.88775566e-02 -3.03960424e-02 -7.38870278e-02 +1.38776407e-01 +2.98157513e-01 +1.15020879e-01 -1.69444516e-01 +3.14608634e-01 -1.46261767e-01 -2.19610542e-01 -3.42082918e-01 -1.08206742e-01 +3.02868992e-01 +1.18132740e-01 -1.12302400e-01 +1.63399777e-03 +5.20317018e-01 +5.08210063e-01 -1.60173789e-01 +1.21723980e-01 -7.26922989e-01 +2.26713140e-02 -5.90493023e-01 +2.98812538e-01 -5.76587468e-02 +2.75477678e-01 -5.55328913e-02 +1.96976900e-01 +9.06121850e-01 +4.67059985e-02 +1.84999511e-01 -6.24371409e-01 -4.42500524e-02 +6.61146343e-01 -3.53648067e-01 -1.25777543e-01 -8.82187858e-02 -3.59618515e-01 +5.47936969e-02 -4.68737513e-01 +2.02438772e-01 +2.06404224e-01 +2.74898499e-01 +3.94610792e-01 -6.83367923e-02 +3.04296583e-01 -8.11710302e-03 +5.04434966e-02 +3.88610214e-01 -2.83663481e-01 -1.03073502e+00 +4.19653028e-01 -4.76707578e-01 +3.24845202e-02 -9.45658237e-03 +9.57577825e-02 -1.75807834e-01 +1.26449883e+00 -4.73064482e-01 +1.96998432e-01 +6.34137839e-02 +2.20581070e-01 +1.07163154e-01 -2.63319135e-01 +7.05256760e-01 -6.45301282e-01 -2.47985702e-02 +7.01575801e-02 -2.32282281e-01 +6.32819772e-01 +5.21694161e-02 +1.15526110e-01 -1.65342679e-03 -1.45788476e-01 -6.82270408e-01 +1.47104457e-01 +5.35225391e-01 +3.17235112e-01 -4.77476232e-02 +2.38822494e-03 +1.93522915e-01 -1.11954379e+00 +1.94785863e-01 +1.60506427e-01 +2.34949932e-01 +2.69953489e-01 +3.81519616e-01 -3.37034725e-02 -3.35147455e-02 -3.03111196e-01 -5.63905425e-02 -2.51108296e-02 -9.44719732e-01 -1.54729187e-01 -3.64973664e-01 -2.53081709e-01 -1.61274880e-01 -7.26348579e-01 +4.45198417e-01 +1.31969720e-01 +4.45662215e-02 +1.82625473e-01 +3.08794677e-02 +7.95389563e-02 -1.14230879e-01 -2.28700072e-01 -1.34130865e-01 -1.35044158e-01 +3.07766587e-01 +1.38307020e-01 -2.98320144e-01 -2.23017246e-01 -1.58741549e-02 +6.73997402e-02 -1.06253870e-01 +8.63553509e-02 +1.05372258e-01 -1.99514907e-02 +5.71170039e-02 +2.18118191e-01 +5.59092164e-02 +7.33374834e-01 -1.13895154e+00 +1.30935416e-01 -1.97968721e-01 -1.96505785e-01 +9.59856629e-01 -1.77800618e-02 +7.26233423e-02 +4.87774372e-01 -5.57786703e-01 -7.52776042e-02 -2.44061187e-01 -1.52756274e-01 -3.87195423e-02 -6.79513752e-01 -2.93814480e-01 -7.75761232e-02 -1.18349023e-01 -2.49174014e-01 +4.59571332e-01 +6.62130654e-01 -5.55901587e-01 -7.47295171e-02 -1.31586328e-01 +4.54464197e-01 -3.73923928e-02 +3.67608845e-01 +9.99910384e-02 -3.42454076e-01 -7.86268532e-01 +6.42296314e-01 -7.32734621e-01 -1.65684760e-01 +2.15386346e-01 -3.29744995e-01 -7.80573964e-01 -4.84657437e-01 +1.88743219e-01 -1.17390025e-02 +2.73576587e-01 -7.59980753e-02 +1.98235512e-01 -6.34522364e-02 +2.94272555e-03 +6.62631765e-02 +2.72242904e-01 +9.72567350e-02 -3.13378274e-01 +1.94505885e-01 +2.21450091e-03 -1.96247874e-03 -3.53930533e-01 -2.19438612e-01 +3.07943523e-01 +1.84118301e-01 -1.30337164e-01 -7.12743700e-02 +1.64775133e-01 -3.41816694e-01 -2.25678794e-02 +6.20246530e-02 -2.28091151e-01 +1.36241391e-01 +4.94806767e-02 -2.49348711e-02 +6.81664124e-02 -2.17827022e-01 -1.35879904e-01 +1.33858368e-01 +3.28366101e-01 -7.24569187e-02 -9.11863819e-02 -1.37592748e-01 +2.76148051e-01 -2.12076515e-01 +6.38264269e-02 +4.34571505e-02 +1.87517926e-01 +2.86441475e-01 +2.16973662e-01 -2.48198032e-01 +4.08004597e-02 +2.71380335e-01 +9.49433967e-02 +1.73372589e-02 +1.00630558e+00 -1.84799701e-01 -1.70821249e-01 -3.72118801e-01 -2.75388271e-01 +1.14762723e-01 -4.65256184e-01 +4.03810926e-02 +1.77705109e-01 +6.23942241e-02 +2.08214168e-02 -6.79814637e-01 -2.80343518e-02 +1.35628060e-01 -9.84239578e-02 +3.22934501e-02 +2.40805764e-02 +1.22014083e-01 +7.00222850e-02 +2.21016154e-01 -1.86592072e-01 -7.47006834e-02 +9.34242904e-02 -3.85153413e-01 -2.12290600e-01 +4.75444853e-01 -7.26471484e-01 +2.71966726e-01 +2.53402442e-02 +1.13533236e-01 +1.14990830e-01 -2.43525952e-01 +9.80921835e-02 -4.54178415e-02 -1.04502530e-03 -1.68852687e-01 -9.95027795e-02 +5.00079729e-02 +1.58820488e-02 +1.98504582e-01 +1.06454805e-01 -5.01999915e-01 -2.85066694e-01 -2.67050683e-01 +1.07157148e-01 -3.05072721e-02 +1.28157482e-01 -9.43028033e-02 +7.72145152e-01 -2.29978278e-01 +2.62663752e-01 +6.32055819e-01 +1.50564704e-02 +1.95484117e-01 +2.02629983e-01 +2.30122343e-01 -1.12712353e-01 +2.82778535e-02 +3.81905794e-01 +1.99485585e-01 -1.24530077e-01 +1.06212392e-01 -3.42046142e-01 +2.65902787e-01 +1.50311545e-01 +2.17760578e-02 -3.38871814e-02 +2.33149171e-01 -2.70475298e-01 +3.48200127e-02 -1.11203790e-01 +3.70381355e-01 +2.33286452e-02 -5.75016141e-02 +2.97550052e-01 -2.44434848e-02 -6.20767884e-02 -6.01685420e-03 -4.63956930e-02 +9.73979011e-03 +1.62312776e-01 -2.19924673e-02 -4.36611250e-02 +6.35103276e-03 +7.48214945e-02 +4.83332366e-01 -4.52112332e-02 -2.98766978e-02 -1.74682066e-02 -9.74815041e-02 +1.31990060e-01 +1.44301370e-01 -7.26042464e-02 +4.63540889e-02 -8.46915618e-02 -5.64086251e-02 -2.18248993e-01 +3.75079960e-02 -8.59164521e-02 +3.32642883e-01 +4.92390208e-02 -9.54763740e-02 -1.31208926e-01 +6.63885325e-02 -2.79321045e-01 +1.94315836e-01 -1.80258214e-01 -3.78421724e-01 +1.42325554e-02 +1.94573715e-01 +9.27206874e-02 +3.95957172e-01 -5.53749762e-02 +3.62319171e-01 -3.38226050e-01 -2.69521158e-02 -1.49548709e-01 +4.18064892e-01 -2.49660492e-01 +2.86116451e-01 -3.77711840e-02 +1.65000200e-01 +2.92431682e-01 +3.06018323e-01 -8.26162398e-02 -3.28272372e-01 -8.70216079e-03 +2.19206974e-01 -4.65716213e-01 -4.20572698e-01 +2.12797858e-02 -3.33124250e-01 +4.66812886e-02 -1.71150833e-01 +1.99960202e-01 -1.09216198e-01 -1.17354035e-01 +2.44331151e-01 +1.27221346e-01 +1.07587256e-01 +3.56806368e-02 -1.78887770e-01 +8.18200588e-01 -8.68674144e-02 -2.28596374e-01 +2.41499633e-01 -3.50043863e-01 +2.66466197e-02 +5.99971563e-02 +1.72886252e-01 +1.52686045e-01 +3.23881686e-01 -2.94188321e-01 -1.65986016e-01 -4.82950918e-02 +9.83388349e-02 +5.18724561e-01 -6.40780807e-01 +4.66401100e-01 -2.41376832e-01 +2.69113719e-01 -2.68071681e-01 -2.10327610e-01 +3.70616794e-01 +3.74226943e-02 +1.72374293e-01 -2.88474839e-02 +6.42551184e-02 -3.16083312e-01 -5.44109195e-02 +4.50388849e-01 +1.03329145e-03 -2.97984898e-01 -1.89709917e-01 +1.04908347e-01 -4.17081296e-01 +3.42176050e-01 -3.99975628e-02 -1.31435730e-02 +6.44340098e-01 +2.47494876e-01 -9.39805508e-02 +5.13851307e-02 -1.44496918e-01 -1.58383921e-01 -1.21994607e-01 -3.18289578e-01 -5.95395593e-03 +2.21587680e-02 -2.58446801e-02 -6.14019394e-01 -3.45103174e-01 +3.09036374e-01 -3.37315304e-03 +2.83910963e-03 +6.63743556e-01 +2.97912717e-01 +2.09277943e-02 +4.75364644e-03 +1.46530747e-01 +6.68190420e-02 -1.53435722e-01 -9.60182995e-02 +1.93508655e-01 -2.85910189e-01 -5.69538236e-01 +3.72614227e-02 -1.79956146e-02 -1.70604840e-01 -1.11858949e-01 +1.42934516e-01 +8.49307105e-02 -9.68143940e-02 +7.28776157e-02 -1.78001642e-01 +4.11203623e-01 -3.24727744e-01 -1.98893286e-02 -2.99272109e-02 -1.55982524e-01 +2.79852480e-01 -3.13072085e-01 +4.97003682e-02 +1.34068981e-01 -4.73911352e-02 +6.16029429e-04 -3.92265737e-01 +4.51919362e-02 -1.24168590e-01 -4.09581125e-01 -2.23925993e-01 +8.08905661e-02 +2.78048031e-02 +1.19873546e-01 +2.79363811e-01 +4.48045969e-01 -2.60049492e-01 +9.27735493e-03 -1.47347655e-02 -8.76076333e-03 +4.56427298e-02 +1.03013061e-01 +6.36786371e-02 +3.45243094e-03 -1.77812189e-01 +1.06697656e-01 -4.42514330e-01 -9.75901112e-02 -1.51139140e-01 -8.83093476e-02 -1.44204214e-01 -3.26611698e-01 +3.05196941e-01 -1.67946815e-01 +1.28217831e-01 -8.59871954e-02 -1.15697466e-01 -1.15710258e-01 -1.73814464e-02 +1.72094367e-02 +4.33226116e-03 -1.05910413e-01 -5.78375645e-02 -2.80843139e-01 +3.18646990e-02 +4.09283005e-02 -3.33481222e-01 -4.45035189e-01 +8.68038908e-02 +1.84995849e-02 -1.58416897e-01 +4.79314849e-02 +1.27767518e-01 -4.85893905e-01 +3.42163420e-03 +3.13286483e-01 -3.68399143e-01 +4.77513559e-02 +7.38831908e-02 +9.46763381e-02 +1.44568086e-01 +5.26638031e-02 +2.52619442e-02 -1.25845104e-01 -2.20185202e-02 +8.30878876e-03 -2.70969272e-01 +2.33375486e-02 -1.94557115e-01 +5.72071746e-02 +2.73943961e-01 +5.98308444e-02 +4.61856961e-01 -3.51702012e-02 +3.06201689e-02 -4.22093123e-01 +1.82203189e-01 +2.76631117e-02 +9.15536135e-02 +8.39699432e-02 +3.47562402e-01 -1.07058801e-01 +8.53389129e-02 +4.03489843e-02 -1.02664508e-01 -2.38025859e-02 -1.28943250e-01 +5.83448783e-02 -2.08834469e-01 +4.09605503e-01 +6.19728602e-02 +1.36031330e-01 +8.42836201e-02 -9.65789109e-02 +3.74785036e-01 -4.89821807e-02 -9.15622711e-02 +1.46283186e-03 -5.98220192e-02 +8.02391991e-02 +3.84867340e-01 -6.85580447e-02 +9.14364085e-02 -9.61610526e-02 -1.75727140e-02 +2.94513647e-02 -1.65005811e-02 -1.22102149e-01 +2.55197734e-01 +1.45911425e-02 +1.25657380e-01 -3.99212576e-02 -2.16609716e-01 -6.10470176e-02 +1.45396143e-01 -4.88747656e-02 +7.74872527e-02 -1.11337475e-01 -1.75227970e-02 -1.59459352e-01 -1.32450253e-01 +4.70558554e-02 -9.61473361e-02 +2.05869749e-01 +7.22276047e-02 +2.92839296e-02 -3.38001400e-01 -2.08189294e-01 +1.47954943e-02 -1.51694283e-01 +9.30360109e-02 +2.02328824e-02 -7.86954686e-02 +1.45812258e-02 +3.04159343e-01 +1.10337727e-01 -2.43703008e-01 -1.06167555e-01 -1.79953426e-02 -2.97893822e-01 +6.41380530e-03 -1.49379596e-01 +1.33721903e-01 -7.30777457e-02 -1.52846187e-01 -2.40935996e-01 +1.29097819e-01 -7.70234987e-02 -4.15852889e-02 +1.40807116e-02 -7.93904439e-02 -1.18071930e-02 -3.49043995e-01 -6.23008311e-02 +1.46035269e-01 +2.02890895e-02 +1.00421563e-01 -6.61423281e-02 -6.73717260e-02 +1.28029227e-01 +2.57737115e-02 +4.04236577e-02 -4.09988314e-02 +2.94855595e-01 +3.90296541e-02 +1.90483034e-01 +4.49958928e-02 +8.72892663e-02 -9.60311890e-02 -6.20556511e-02 -3.59451354e-01 +2.03015640e-01 +2.16125131e-01 -1.13976434e-01 +1.07851937e-01 +2.17702404e-01 -9.14407969e-02 -1.91969573e-01 -2.46489197e-01 -5.17941266e-03 -8.45151246e-02 -2.43048444e-01 -1.67824432e-01 +3.40279490e-01 +2.03731969e-01 -2.02836059e-02 -1.26732275e-01 -2.25852445e-01 +8.72259960e-02 -2.24207610e-01 -7.93341473e-02 +1.77794427e-01 -1.00663610e-01 +1.92364410e-01 +1.65793732e-01 -5.42020984e-02 +1.97087303e-01 +1.10037468e-01 -3.24609518e-01 +1.10093482e-01 +3.87577689e-03 -1.41331494e-01 -1.58985898e-01 +2.53433913e-01 +1.03782602e-01 +5.11119962e-02 +3.72030400e-02 -4.41597067e-02 -2.62209848e-02 -3.50360215e-01 -3.25356126e-01 -2.67370194e-02 -6.98974580e-02 +9.48505551e-02 -5.87827452e-02 +7.23162442e-02 -8.26079845e-02 +9.61361825e-03 +2.11716175e-01 -3.98599654e-01 -1.33331299e-01 +3.29805515e-03 +1.38035804e-01 -1.47133181e-02 -6.08545281e-02 -2.41096085e-03 -2.49148943e-02 -2.72781134e-01 -6.08589575e-02 -2.29729787e-02 +1.76096544e-01 -2.19599560e-01 +1.50575086e-01 -2.64135271e-01 +7.81597793e-02 +1.17525816e-01 +1.75664395e-01 +1.43020272e-01 +3.17039192e-02 +2.56682374e-02 +4.16216671e-01 -7.01239631e-02 +8.32780916e-03 -6.71993243e-03 -1.09053150e-01 +3.29964608e-01 -1.13253117e-01 -2.09617242e-02 -5.14478981e-02 -1.72639750e-02 +1.01524509e-01 +3.58081274e-02 +1.60156131e-01 +1.32322088e-01 +6.03144243e-02 +3.46750170e-01 -5.50872199e-02 -4.30237167e-02 +3.27137746e-02 -5.85547946e-02 +1.39075950e-01 -6.02766983e-02 -3.66731994e-02 +1.43684834e-01 +5.08320294e-02 +8.75751115e-03 -3.68614160e-02 -9.34666842e-02 +2.48946264e-01 +4.12605554e-02 -7.26250093e-03 -3.89407799e-02 +8.93658325e-02 -3.92284431e-02 -2.48796254e-01 +1.14814797e-02 -1.39602810e-01 +2.60098994e-01 -1.65871680e-01 -1.21486686e-01 -9.22971815e-02 +6.67185187e-02 +9.09476951e-02 +8.92642140e-02 -2.20255926e-01 -2.24981278e-01 -1.95349362e-02 +4.50271331e-02 -2.74823219e-01 -4.34143662e-01 +8.31275433e-02 +5.86298387e-03 +1.20691121e-01 +1.54391661e-01 -1.53809920e-01 -8.73299967e-03 +8.60689282e-02 -2.42796153e-01 -4.69963431e-01 -1.73001304e-01 -2.17109686e-03 +1.40918106e-01 -6.30609170e-02 +4.84962970e-01 -3.02134186e-01 +1.94408238e-01 -7.53546283e-02 +4.04975042e-02 +1.99356079e-01 +3.14619653e-02 -3.77304614e-01 -1.12820603e-01 +2.66247720e-01 +1.36138961e-01 -2.16163099e-01 -5.54171614e-02 +2.04345465e-01 +3.74850631e-03 -2.46107325e-01 +1.51060626e-01 +4.23994958e-02 -2.84784865e-02 +1.09677215e-03 -7.58877620e-02 +3.27848673e-01 +5.31142391e-02 +1.07983917e-01 -4.42018881e-02 +9.37867686e-02 -3.55981551e-02 +4.41219239e-03 -4.78547141e-02 -1.74958929e-01 -6.79900795e-02 -9.18206871e-02 +2.90540248e-01 +2.42048889e-01 +5.77986650e-02 -2.36266572e-02 +1.84943825e-01 -2.02616885e-01 -1.74608052e-01 -2.10670024e-01 -1.73839673e-01 +9.38963890e-02 +7.91065097e-02 -1.39943883e-01 -1.06187396e-01 -7.33425515e-03 -2.58011222e-02 -6.89105839e-02 +7.28854060e-01 +1.71906963e-01 +5.18968441e-02 +1.17413715e-01 +2.12819383e-01 -1.22514531e-01 -2.03787059e-01 -1.48901027e-02 -2.21091822e-01 -1.29788995e-01 +3.38342376e-02 +1.10471211e-01 +5.01063131e-02 -1.11164272e-01 -1.78529173e-01 -2.48147279e-01 -1.21309973e-01 +7.01642558e-02 -1.14200637e-01 +6.00843579e-02 +1.79865614e-01 -1.53596237e-01 -1.88851550e-01 -1.65055677e-01 +2.14696258e-01 -5.31415455e-02 +2.58141644e-02 +1.79593846e-01 +1.13754667e-01 -8.30387399e-02 +1.65965930e-01 +3.41607705e-02 +8.22325200e-02 -1.57677129e-01 +3.50185018e-03 +5.08925505e-02 +2.23359764e-01 +4.48195562e-02 -3.19461413e-02 -1.35877309e-02 +1.27974465e-01 -1.12238035e-01 +4.39289182e-01 +3.47458959e-01 -5.11352830e-02 -2.11772621e-02 -7.10582267e-03 +8.68073106e-02 +2.68587500e-01 +6.16374426e-03 +2.18295828e-01 +5.03586605e-02 -6.40361244e-03 +5.90761960e-01 +1.78362235e-01 -1.61175564e-01 +5.95213659e-02 -2.97340870e-01 +1.21047631e-01 -1.63517073e-01 -2.13971764e-01 +2.92372316e-01 -1.02377146e-01 -2.05861703e-01 -4.82765399e-02 -1.86425909e-01 +3.82161811e-02 +9.57909003e-02 -7.66444430e-02 -2.34487597e-02 -1.28473848e-01 +1.81073863e-02 -2.56482303e-01 -2.48480052e-01 -6.49887770e-02 -1.60587758e-01 +6.37859628e-02 +3.16506267e-01 -2.26438623e-02 +2.03531131e-01 +4.74053845e-02 -2.68174279e-02 +1.48814887e-01 -3.91565800e-01 -2.84005143e-02 +2.93138847e-02 +1.11385025e-01 +2.10555479e-01 +9.54504758e-02 -2.04617810e-02 -1.79836880e-02 -2.67715752e-01 -4.08662528e-01 -3.54974717e-03 -4.72653806e-02 +1.67579889e-01 -2.05367327e-01 +3.24476033e-01 +1.91264793e-01 -5.19832522e-02 +3.39497000e-01 +6.49777204e-02 -1.76465064e-01 -2.10267544e-01 -2.76128411e-01 +1.12119123e-01 -2.26594955e-02 -9.97515023e-02 +8.10178593e-02 -5.69208078e-02 +1.27752721e-01 -1.52346015e-01 -1.04492277e-01 +8.06502998e-02 -1.36941569e-02 -9.36876237e-02 +1.14575222e-01 -1.69105724e-01 +6.65612891e-02 +1.89778358e-01 -8.61440524e-02 +4.13604304e-02 -3.79646681e-02 -5.16027331e-01 -1.59703225e-01 -2.65142858e-01 +6.39209986e-01 -4.18345332e-01 +4.59099442e-01 -5.29129021e-02 +1.39911860e-01 +3.13672513e-01 -1.72900155e-01 +5.67193981e-03 -6.92002550e-02 +2.12657243e-01 +4.80128303e-02 -1.23807132e-01 -2.00357869e-01 +1.11926291e-02 -5.66551741e-03 +6.77840039e-03 -8.30120891e-02 +1.09868310e-01 -7.52645656e-02 +3.78241211e-01 -4.58366722e-02 -1.80529952e-01 -1.20574735e-01 -1.57110393e-01 +9.10739694e-03 +1.18777290e-01 +3.23061764e-01 +4.16825488e-02 +1.97867975e-01 +1.13338485e-01 +2.19915837e-01 -1.69104159e-01 -1.26925275e-01 +2.84387004e-02 +6.75699934e-02 -6.15250915e-02 -3.43404897e-02 -3.13597232e-01 +4.43177391e-03 -1.71213374e-02 +1.08090296e-01 -3.55413020e-01 -1.32937700e-01 +5.66839017e-02 -6.80586547e-02 +3.06389868e-01 -2.15482358e-02 -1.20583065e-01 -3.13657194e-01 +7.66464546e-02 -3.35502595e-01 +4.18185741e-02 +1.18054859e-01 -3.58658791e-01 +1.84164777e-01 +4.20345701e-02 +7.64972940e-02 +1.01485603e-01 +1.51084304e-01 -2.13138357e-01 -2.77013808e-01 -3.49584132e-01 -1.62483543e-01 -3.81945223e-02 -9.83514339e-02 -9.36029553e-02 +1.81222841e-01 +8.43734667e-02 -2.14608371e-01 -6.01946600e-02 +1.18064545e-01 -2.38649100e-01 +5.03369093e-01 +1.75441816e-01 +3.36249322e-01 +3.41624796e-01 -3.88791002e-02 +3.00090432e-01 +2.31611319e-02 -9.70121548e-02 +2.22673342e-01 +2.95333743e-01 +1.38958782e-01 -2.34883651e-01 -2.75177121e-01 +4.25552651e-02 +4.24064361e-02 -2.28246838e-01 -3.19588602e-01 +8.38174522e-02 +2.40034074e-01 +6.53035194e-02 -6.26945317e-01 -4.05473083e-01 -4.45247181e-02 +7.80128464e-02 +2.75822937e-01 -2.17071712e-01 +2.89954722e-01 +2.42299974e-01 -1.37295336e-01 +7.65006244e-02 -1.50951698e-01 +4.92944382e-02 +2.60371685e-01 -1.31808193e-02 -1.32067099e-01 +1.43643945e-01 -7.50734936e-03 +2.99499691e-01 +8.24694410e-02 -1.65632024e-01 +2.01611638e-01 +2.11711586e-01 -5.54011501e-02 +1.62362546e-01 -9.04214103e-03 +5.85881174e-01 +2.79828548e-01 -9.83025432e-02 +1.81716815e-01 +3.85760635e-01 -9.27993432e-02 +1.09798536e-01 +3.96180786e-02 -4.67760675e-02 +3.00871164e-01 -1.43781647e-01 +1.79125413e-01 +1.89233154e-01 -3.37270647e-02 +1.57037321e-02 +3.16422284e-02 -1.09470479e-01 -5.70343668e-03 -3.79854977e-01 +2.24197451e-02 +2.54433267e-02 -3.67012829e-01 -1.11838818e-01 -1.15473131e-02 +2.58611366e-02 -1.61934737e-02 -1.25036210e-01 +2.30358645e-01 -2.38934219e-01 +3.43517028e-03 -2.87042391e-02 +1.58660769e-01 +2.91711725e-02 -2.18927413e-01 +1.05491035e-01 -3.22233140e-01 -2.00164989e-01 -2.49529302e-01 -1.63766555e-02 +1.44010916e-01 +1.62114859e-01 +1.57347739e-01 -1.76254228e-01 -1.40243694e-01 +6.02794550e-02 -1.66270938e-02 +8.96736756e-02 +1.20042697e-01 -1.45527735e-01 +1.57669485e-01 -1.47134904e-02 +2.42969766e-01 +5.75892366e-02 +1.91284925e-01 +8.56703967e-02 -3.29680555e-02 +3.85973215e-01 -2.47339204e-01 -1.24608487e-01 +4.35490161e-02 -1.28549427e-01 -2.95935452e-01 -2.21245944e-01 +9.59723368e-02 -2.91346967e-01 +1.51335776e-01 -1.25632077e-01 +1.63792849e-01 +4.37298939e-02 +8.07107687e-02 +1.56791344e-01 +1.43690541e-01 +1.60880998e-01 +3.84875350e-02 +2.03072295e-01 -3.58877890e-02 +2.97621816e-01 -1.20356269e-01 -1.58509225e-01 +3.04772496e-01 -1.01727664e-01 +3.28489393e-01 -5.32908514e-02 -5.89853264e-02 -1.67031586e-01 +2.70046219e-02 +5.71842827e-02 -2.17240423e-01 +1.98752470e-02 -3.33574444e-01 +1.87846705e-01 -3.45910579e-01 +2.83659518e-01 -2.21575469e-01 +3.41416419e-01 -3.79503034e-02 +6.72678769e-01 +9.17846620e-01 +1.22050093e-02 +4.82582361e-01 -3.74432765e-02 +9.34255868e-02 -1.27996922e-01 +4.13824618e-01 -2.66356915e-02 -1.00438930e-01 -1.25200897e-01 +1.11753836e-01 +1.20039321e-02 +5.48598647e-01 +4.38699454e-01 -2.17868522e-01 +1.19485068e+00 +4.42349836e-02 -4.43730772e-01 -6.25582486e-02 +2.88220719e-02 +8.36235881e-02 -1.82283074e-02 +2.79108044e-02 -1.06683105e-01 +1.96899250e-02 -2.26588741e-01 -1.31772444e-01 +4.43976164e-01 +3.03517103e-01 -2.05102503e-01 +3.89193416e-01 +5.09633839e-01 +2.69202003e-03 -4.15372759e-01 -1.16403863e-01 -4.66568880e-02 +2.20911458e-01 -1.23520806e-01 +6.78369045e-01 -1.76891088e-01 -6.80248559e-01 +1.13053277e-01 +3.82752717e-01 -5.31367660e-01 -4.78039116e-01 -1.34877916e-02 +3.68069589e-01 -3.98425043e-01 +3.12683195e-01 -6.44999802e-01 -2.50080705e-01 -4.76022601e-01 -4.47536051e-01 +1.21944830e-01 +2.95391511e-02 +4.50991005e-01 -6.28485322e-01 +4.85056967e-01 -5.80281056e-02 +9.55378488e-02 +6.71257004e-02 -8.48291516e-02 +2.71591216e-01 -1.25598490e+00 +1.87256820e-02 -1.88172266e-01 +2.07183748e-01 -6.73994720e-02 +3.23955938e-02 -4.26685363e-01 +1.56788066e-01 +9.80349854e-02 -3.72685403e-01 -1.61881432e-01 -5.93977273e-01 -3.76202673e-01 -8.19170624e-02 -2.32343718e-01 +2.30837569e-01 -2.99687475e-01 -2.57911503e-01 -2.00399324e-01 +3.81498202e-03 +3.87820452e-01 -2.26483703e-01 +8.33453238e-02 +4.47576404e-01 +1.58074558e-01 -2.97919124e-01 -1.84864953e-01 +4.51481134e-01 +4.10467386e-01 -3.81125331e-01 +4.30294216e-01 +1.54077306e-01 +5.41721694e-02 +7.35226870e-01 -1.65093150e-02 -3.76670510e-02 -3.37195069e-01 -4.24858153e-01 -1.58595577e-01 -2.16281414e-01 +5.46438657e-02 +2.05075163e-02 +5.36844075e-01 -7.07405746e-01 +1.26476645e-01 -3.55838805e-01 +4.91711311e-02 -2.70495534e-01 -6.48723124e-03 +1.20003736e-02 +9.30338129e-02 +6.97648048e-01 -6.28304854e-02 -2.59485662e-01 +2.73177344e-02 +3.60949278e-01 +1.38642177e-01 +5.99443495e-01 +2.00339019e-01 -7.92259514e-01 -9.39748585e-02 +1.50667995e-01 +1.45374432e-01 -2.45196417e-01 -1.19311929e+00 -1.17938653e-01 -6.02691295e-03 +4.80420999e-02 -3.93970907e-01 +6.03784680e-01 +5.94663203e-01 -5.95964134e-01 +5.52305341e-01 -4.19430166e-01 -2.36270651e-01 +1.74334198e-01 -9.93310571e-01 +7.86986027e-04 +3.45464423e-02 +5.62217772e-01 -9.52424482e-02 -1.96647756e-02 -4.07148808e-01 +4.80036080e-01 -7.27726817e-01 +6.04766667e-01 +1.26954466e-01 +2.18813881e-01 +1.21914022e-01 -2.83776551e-01 -2.12104678e-01 -9.27326441e-01 +1.05153278e-01 +2.73889482e-01 -8.48117843e-02 -1.44709945e-01 -5.79927742e-01 +1.67084754e-01 +4.26575810e-01 +3.00278105e-02 +3.11201870e-01 +6.02219045e-01 +2.56109744e-01 +3.49807054e-01 +3.60191792e-01 -1.59441248e-01 -4.16274458e-01 +6.80444017e-02 -1.32386968e-01 +4.38186258e-01 +8.32889825e-02 +1.45645201e-01 +1.21453479e-01 +7.05555022e-01 -6.39204860e-01 -9.65207517e-02 +2.24514082e-01 +5.21247625e-01 -3.93768191e-01 +2.65682518e-01 +4.87193242e-02 -6.44899070e-01 +4.24220383e-01 +5.03080338e-02 +6.00753427e-01 -2.20678374e-01 -2.22515628e-01 -1.07963122e-01 +2.99503744e-01 -5.88624105e-02 +4.18185502e-01 +4.45804805e-01 +2.25292295e-01 +8.67499970e-03 +1.06949955e-01 +1.53974131e-01 -2.04588830e-01 -1.55258831e-02 -2.17173830e-01 +6.31452054e-02 +2.99828649e-01 +3.05315644e-01 +3.24883372e-01 +5.70065796e-01 +5.94163477e-01 -1.48984771e-02 -3.15468162e-01 +2.25042939e-01 +2.71648467e-02 +3.97193789e-01 -3.61160301e-02 -8.16588700e-02 +3.28938276e-01 -1.69540405e-01 +4.49046567e-02 +3.37598592e-01 -3.28312576e-01 +3.01401258e-01 -4.09389138e-01 +3.72323126e-01 +6.58406094e-02 -4.37720120e-01 +1.64531961e-01 +2.54309848e-02 +1.34112731e-01 +4.13044244e-02 -2.40355372e-01 +2.05097139e-01 +7.84501880e-02 -1.75709084e-01 +3.54461491e-01 -1.03467464e-01 +6.42945290e-01 -2.85943091e-01 +1.13748148e-01 -4.22439963e-01 +5.97723834e-02 -6.77049533e-02 -2.87254632e-01 +6.92571700e-02 +3.92391458e-02 +4.33875799e-01 -8.43513310e-02 +1.15548387e-01 +5.99881858e-02 +1.95563346e-01 +2.88947940e-01 +2.29206398e-01 -6.44943953e-01 +4.47670370e-01 -1.18173465e-01 -5.81537560e-02 +6.58608556e-01 +6.99187219e-01 +1.23959742e-01 +1.31827546e-02 +2.60273486e-01 -2.32282758e-01 -9.39867973e-01 +6.55735135e-01 -6.93619847e-01 -4.28342283e-01 +1.68396577e-01 +8.66020143e-01 +7.12432265e-02 +3.72073799e-01 +2.88600147e-01 -2.31136054e-01 -7.82229677e-02 +9.54525173e-02 +4.22840208e-01 -1.29148081e-01 +6.26842976e-01 +3.61833334e-01 +1.41026556e-01 -8.52477700e-02 -4.58932891e-02 -5.18100917e-01 +2.52886891e-01 +3.83217126e-01 +1.75895449e-02 +1.34068206e-01 +1.13564342e-01 -9.86578763e-02 -1.09416209e-01 -1.14631671e-02 -6.79891288e-01 +4.61308435e-02 +2.93621048e-03 -1.11359310e+00 -1.15812413e-01 -1.83006331e-01 +4.85756248e-01 +7.22946180e-03 -1.73169285e-01 -1.28823578e-01 +1.77450582e-01 -2.31270976e-02 +2.88465302e-02 -8.52976590e-02 -2.51073897e-01 -1.61692463e-02 +6.46173432e-02 -2.25251734e-01 -4.98559140e-03 -1.05822630e-01 +1.27869947e-02 -2.08696812e-01 +5.46407811e-02 +8.30633491e-02 -7.55719915e-02 -1.24200881e-01 +2.98651844e-01 -2.87283901e-02 -9.14385766e-02 -3.97721455e-02 -1.08367745e-02 +4.90556099e-02 -5.91403991e-02 +7.01100305e-02 -1.23028420e-01 +7.34440908e-02 +3.34620655e-01 +3.42763700e-02 -5.99241853e-02 +1.01197049e-01 -1.60329938e-01 +2.03439385e-01 +6.89286888e-02 +9.17038321e-02 +1.58417951e-02 -1.18512638e-01 +1.55808017e-01 -4.88700010e-02 -8.29209983e-01 +1.89117771e-02 -1.52131990e-01 -1.27853513e-01 +4.39073667e-02 -2.33927608e-01 +1.23165913e-01 -1.36238337e-02 -1.08346501e-02 -2.60192696e-02 -1.82535410e-01 -4.71104831e-02 +9.34626982e-02 -6.95860758e-02 +1.67428285e-01 +2.37777755e-01 +6.95602596e-02 +1.85463428e-01 -4.95554805e-02 +1.70009822e-01 -7.37168789e-02 -3.51211950e-02 +6.41589090e-02 -4.97383505e-01 -1.74347252e-01 +1.03397816e-01 -4.43762094e-02 +6.54851794e-02 +1.33447602e-01 -1.38378873e-01 +4.15381901e-02 +3.46807875e-02 +1.55799404e-01 -1.81046575e-02 -6.87763244e-02 -1.18380286e-01 +2.22533550e-02 -3.62342238e-01 -1.18969403e-01 -1.33811925e-02 +8.12537447e-02 +5.44793233e-02 -1.37953326e-01 -2.13782229e-02 -1.57195896e-01 +1.04637615e-01 +7.71820366e-01 -8.53918493e-03 +3.84491742e-01 -3.48367065e-01 +4.71653752e-02 -5.56974053e-01 -8.07032455e-03 -9.20321643e-02 +2.95523256e-02 -2.98547950e-02 +1.54052585e-01 +3.83755192e-02 +8.53993148e-02 -4.49408777e-03 -4.01193239e-02 +4.64660581e-03 -2.99118236e-02 +1.00264892e-01 -2.21860483e-01 -1.74178127e-02 +7.37964660e-02 +1.16689093e-01 -8.15029591e-02 -1.38751134e-01 -1.32637635e-01 -1.68906927e-01 +2.14655340e-01 -4.81675193e-02 -5.96276894e-02 -4.90869850e-01 -7.18080774e-02 +1.27500147e-01 -1.33881584e-01 -2.59824935e-02 +2.59240299e-01 +1.70049667e-01 +3.72229554e-02 +7.84495324e-02 -8.11384022e-02 -2.45919481e-01 +3.32821339e-01 +5.46927936e-02 +6.87184259e-02 -3.79202515e-01 +9.45414603e-02 -1.05498403e-01 +1.17241174e-01 -1.47014350e-01 -4.93950635e-01 +7.12623298e-02 +1.98572665e-01 -6.09675124e-02 +5.43120615e-02 +8.54466781e-02 -2.36749090e-02 -1.28486738e-01 -2.50046924e-02 -1.98312566e-01 +6.04526140e-02 +7.40813762e-02 +5.53561263e-02 -9.23636034e-02 -2.97066987e-01 +5.52043140e-01 -2.43378170e-02 +1.48805663e-01 -9.84944403e-02 -2.32564136e-02 +1.02167904e-01 -4.38400775e-01 -1.80245310e-01 +4.31797206e-02 +6.65594786e-02 +1.41476482e-01 +8.36053044e-02 -6.28191113e-01 -4.10175860e-01 +8.45683143e-02 -3.64493579e-02 -3.58575173e-02 -2.40540206e-01 +3.95133197e-02 +5.33771925e-02 -3.21336910e-02 +1.17550522e-01 -3.90175819e-01 -8.65374655e-02 +1.67563066e-01 -1.15669794e-01 +1.22683048e-01 +7.22004846e-02 +7.26261362e-02 +2.47904599e-01 +3.84581983e-02 -1.44828837e-02 -7.92168975e-02 +8.79138529e-01 +3.02553684e-01 -3.17224026e-01 -1.30011225e-02 -1.19248062e-01 -5.38835645e-01 -3.55865210e-01 +1.20072939e-01 -1.48470119e-01 -6.69764876e-02 -6.83690012e-02 -6.51494414e-03 +2.41798405e-02 +1.66283250e-01 -7.53790932e-03 +3.78643245e-01 -1.50964841e-01 +2.07032058e-02 +4.47922088e-02 -1.36093959e-01 -1.94294646e-01 +1.22929541e-02 -1.23333978e-02 -8.07272922e-03 -1.47814840e-01 -7.32334927e-02 +1.83578789e-01 -3.33543830e-02 -9.10858437e-02 -2.81121191e-02 -2.98702806e-01 -4.48666923e-02 -5.60020171e-02 +5.15455864e-02 +6.66045547e-02 +6.38695061e-02 -7.90446773e-02 -1.34880677e-01 +3.03688901e-03 +9.36043262e-02 +1.69239089e-01 +5.60252555e-02 +2.62598157e-01 +1.68906599e-02 -3.37249152e-02 +9.55195054e-02 +1.46650076e-01 +7.44165108e-02 -4.31441516e-02 -6.62406534e-02 -1.30760238e-01 -1.47961140e-01 +9.54316854e-02 -7.69846886e-03 -2.39535272e-02 -2.36179724e-01 -4.36832421e-02 +9.80213583e-02 +7.68212378e-02 -1.30625054e-01 +2.21580252e-01 +7.49178156e-02 +1.37488887e-01 -4.22867909e-02 -3.70844454e-02 -2.04801112e-01 +5.79200722e-02 +8.28800723e-02 +1.16788924e-01 -2.02923998e-01 -1.05658369e-02 +1.18674956e-01 +1.50865048e-01 -8.68752301e-02 -1.21411830e-01 -2.89645530e-02 -7.01369867e-02 +1.09264359e-01 +5.63077256e-02 -2.87061632e-02 -2.32188210e-01 +2.61819735e-02 +1.54024810e-02 -1.30071282e-01 -3.31061296e-02 +1.07013740e-01 +4.74895649e-02 -1.56220660e-01 +1.52758971e-01 -8.54241103e-02 +1.46402985e-01 -9.61859152e-02 -2.52947956e-02 +4.99225734e-03 -3.94866057e-02 -9.22395810e-02 +5.42590208e-02 -1.62253976e-01 -9.97835472e-02 -1.40072912e-01 -3.30575079e-01 -2.50438005e-02 +1.23523362e-01 -5.71766011e-02 +2.94063911e-02 -1.75493717e-01 -3.38560715e-02 +4.70871292e-02 +5.87930670e-03 +2.33861916e-02 -1.81222051e-01 +2.29912475e-02 +1.96025483e-02 +1.03378758e-01 +3.37948017e-02 +2.56239604e-02 -2.58747358e-02 +1.12000242e-01 +1.90489039e-01 +1.41647413e-01 -2.35359415e-01 -1.93250328e-02 -1.12834666e-02 -7.78856501e-02 +1.61886185e-01 -2.67805066e-02 -5.64813539e-02 +9.04012918e-02 -2.59435952e-01 +8.50511566e-02 -8.37532878e-02 +8.03736448e-01 +5.13282558e-03 +2.49211863e-01 -7.21525699e-02 -8.03839713e-02 +7.42748054e-03 -8.78022313e-02 -5.21363430e-02 -9.51275229e-02 -3.98656540e-02 +7.60975331e-02 -1.46494240e-01 +1.60981089e-01 +1.46928325e-01 -1.89227685e-02 -5.69119044e-02 -7.39479810e-03 +6.27381504e-02 -2.59311408e-01 -1.20173199e-02 -1.82628185e-01 +2.98571199e-01 +4.15204436e-01 -5.23906238e-02 -1.42394649e-02 +2.01877147e-01 +1.70222789e-01 -7.01689050e-02 -3.11027169e-02 -1.37032688e-01 +3.91640335e-01 -2.08998024e-01 +1.61153942e-01 -8.77907202e-02 -2.47453302e-01 +1.20326072e-01 +4.76255752e-02 +8.59977852e-04 -1.57455504e-01 -7.26739466e-02 +1.50166333e-01 -4.46809828e-02 -1.22161910e-01 -2.18699038e-01 +2.86950767e-01 +1.26805022e-01 +1.22741491e-01 -9.44842547e-02 +1.09080859e-01 -1.32993311e-01 +9.39966887e-02 +2.84095377e-01 +7.96387419e-02 +1.11548565e-01 -1.29052550e-01 +1.44006625e-01 +6.03058599e-02 -1.15167961e-01 +9.92118940e-03 -1.01727791e-01 +2.48258516e-01 +4.82880808e-02 +5.30392051e-01 +3.93629111e-02 +1.48882404e-01 +6.62080050e-01 +6.61619231e-02 -5.32127731e-02 +2.28425283e-02 +2.17572466e-01 +2.77417153e-01 +1.56917796e-01 +8.42176750e-02 -4.54299198e-03 -1.71196148e-01 -6.08368032e-03 -7.16810077e-02 +1.15879051e-01 +1.61074489e-01 -7.55897984e-02 +2.07107484e-01 -5.22540748e-01 +9.65922177e-02 +1.47501975e-01 -9.17073488e-02 +2.22766697e-01 -4.78253104e-02 +2.46350579e-02 +1.59008235e-01 +9.94759127e-02 +2.19396859e-01 +2.40486320e-02 +2.16846094e-01 -1.95127487e-01 +1.19765446e-01 +2.57794112e-01 +3.92141968e-01 +1.46501392e-01 +2.38747999e-01 +4.23297472e-03 +6.69364333e-02 -1.79306388e-01 +1.64031133e-01 +1.29123911e-01 -1.05126865e-01 +4.20411453e-02 +1.05429627e-03 -1.98403582e-01 -2.39378706e-01 -1.18817218e-01 -7.27562368e-01 +3.00952196e-02 -5.24862250e-03 -1.40795752e-01 +1.61730409e-01 -5.46779037e-02 +3.29699010e-01 -1.02055997e-01 -1.64580211e-01 +2.77656503e-02 +7.73310512e-02 +1.05355009e-02 +7.85554349e-02 +9.17102098e-02 -5.71039990e-02 -4.62057084e-01 +1.58465225e-02 +6.25468269e-02 +2.70632744e-01 -1.64095357e-01 +2.25479100e-02 -6.03343220e-03 +1.62278116e-01 +2.40184367e-02 +3.16779688e-02 -1.15677670e-01 +9.40228626e-02 +1.35508001e-01 +2.01420840e-02 -1.72772661e-01 -9.17320251e-02 +1.30887087e-02 +2.41506293e-01 -1.48765847e-01 +8.67374092e-02 +6.00700267e-02 +4.42726351e-02 -5.07619716e-02 -1.33510366e-01 +1.56044304e-01 +2.73184124e-02 -3.90049368e-01 -4.96334881e-02 +1.35856330e-01 -4.98919887e-03 +2.66239733e-01 -2.17049979e-02 +1.35054111e-01 +8.65760669e-02 +8.78432617e-02 -1.10987626e-01 +2.58426853e-02 -1.07145734e-01 -1.76223796e-02 -4.77187410e-02 -1.52484044e-01 +5.17860316e-02 +1.94808543e-01 -8.20683539e-02 -9.45521425e-03 -1.88873753e-01 +3.00415069e-01 -1.59981117e-01 +5.04851080e-02 -7.98152015e-03 +1.75854072e-01 +5.33089712e-02 -9.80867371e-02 -1.87649995e-01 -8.47439766e-02 +9.60710719e-02 +1.14685200e-01 +4.32564020e-02 +2.14327462e-02 +7.00074807e-02 -1.54617652e-01 +4.48720381e-02 +2.03796089e-01 -2.27389947e-01 -1.23771407e-01 +1.53816000e-01 -1.76665597e-02 +9.23181027e-02 +1.89832658e-01 -5.71124889e-02 -1.40333310e-01 +3.15598026e-02 -2.11278692e-01 -2.94765811e-02 +1.19234689e-01 +3.50003064e-01 -3.20901386e-02 -3.10584188e-01 -1.61680430e-01 -2.28683203e-02 -4.16900031e-02 -7.40985051e-02 +1.58119991e-01 +2.11371891e-02 -1.60672247e-01 -1.48190349e-01 +1.51203945e-01 -3.21433932e-01 +1.15234651e-01 -1.22833088e-01 -2.76750535e-01 -3.91511880e-02 -1.35892347e-01 +6.29025400e-01 -4.77681123e-02 +2.38114104e-01 -2.28694394e-01 +1.65526360e-01 -2.17922002e-01 +2.33378068e-01 -2.03464121e-01 -1.46098658e-01 -1.59928929e-02 -6.75429031e-02 -5.89230545e-02 +2.41503626e-01 +2.63084948e-01 -1.60404574e-02 -2.41842195e-01 -8.50745514e-02 +2.04777330e-01 -3.67286839e-02 -2.17676848e-01 +4.11714703e-01 +2.10202232e-01 +8.30715820e-02 -9.47917476e-02 +6.83922842e-02 -3.36901210e-02 +1.06422484e-01 +7.04119354e-02 -7.74376243e-02 +1.45807758e-01 +4.47841845e-02 -2.99855899e-02 -1.64510943e-02 +2.47948080e-01 -8.06580707e-02 +6.37563765e-02 -3.08178455e-01 +3.18843573e-01 -5.43503501e-02 -1.04790062e-01 -3.89969051e-01 +1.98552117e-01 -2.49744300e-02 -2.44091257e-01 -7.65969381e-02 +2.62578260e-02 -1.15388215e-01 -7.79249445e-02 -1.49951831e-01 -1.66276038e-01 -1.85481869e-02 -5.49569055e-02 -1.27047479e-01 +8.54496881e-02 +1.58897743e-01 -2.93835223e-01 -1.49844959e-01 +1.90243334e-01 +9.79334190e-02 +1.78856313e-01 +4.48020473e-02 +2.45967545e-02 +2.20112413e-01 -1.25609338e-01 -2.48259097e-01 +1.02426633e-01 -2.33409442e-02 +1.05120637e-01 -3.24951150e-02 +4.12456878e-02 -7.02496544e-02 -8.12009200e-02 +2.50836145e-02 +8.50104094e-02 +8.52269828e-02 -1.03614062e-01 +1.09520495e-01 +1.39807582e-01 +1.41628189e-02 +2.37277001e-02 -6.37090802e-02 +3.00382692e-02 -3.08599509e-02 -9.53573361e-02 +1.39308259e-01 -1.45159319e-01 -8.35942551e-02 -7.03174761e-03 +8.09541941e-02 -1.90478295e-01 -5.34607992e-02 -1.88501626e-01 +8.46426561e-02 +8.38600025e-02 -4.21765521e-02 -1.66064724e-02 +2.93109030e-01 -9.34298411e-02 +9.75997001e-02 -1.41771823e-01 +9.22368020e-02 +1.80877149e-01 +1.27920872e-02 +1.18621141e-01 +5.18274419e-02 +2.42190868e-01 +1.34816542e-02 -2.34093540e-03 +3.00668534e-02 -1.29446134e-01 -1.95567384e-02 -3.74824814e-02 +7.15453103e-02 -2.07573753e-02 -8.64007398e-02 -8.99912566e-02 -2.36133914e-02 +1.74813658e-01 -3.49258222e-02 -6.93996474e-02 +3.78895067e-02 +1.90487176e-01 -7.53587335e-02 +8.34337473e-02 +4.18271385e-02 -2.90391445e-02 +7.60255978e-02 -2.41606869e-02 +3.01683806e-02 -1.51088640e-01 -1.37944624e-01 +1.23188779e-01 +9.72071011e-03 -1.38629436e-01 +1.71841621e-01 +6.01575673e-02 +2.42934123e-01 -4.59460244e-02 +5.19538336e-02 +1.82016015e-01 -6.79930598e-02 -1.35426790e-01 +1.20051980e-01 +1.59446016e-01 +5.19932881e-02 +1.78680047e-01 -2.10427478e-01 -1.57513335e-01 -3.65246646e-02 +7.08541945e-02 -6.18468411e-02 +6.04941547e-02 +1.37910157e-01 +7.28637651e-02 +1.07648656e-01 +1.71738878e-01 +8.17833394e-02 +9.53464508e-02 -3.22076768e-01 +1.74787059e-01 -4.23697680e-01 +3.89052480e-02 -5.05415760e-02 -2.25435756e-02 -6.10325113e-02 +5.42830899e-02 -1.51990846e-01 +1.10858656e-01 +2.48970296e-02 -1.25679672e-01 +2.23867763e-02 +1.16056308e-01 +5.02897054e-02 -1.45505920e-01 +3.72095481e-02 +6.04024332e-04 -4.22057472e-02 -1.14777565e-01 -3.60518461e-03 -6.39066547e-02 -8.77587795e-02 +4.75528128e-02 +9.64902714e-02 -1.04589440e-01 -1.75599754e-01 +1.67586222e-01 +4.86048448e-05 +8.06864947e-02 +1.20151509e-03 +1.31648839e-01 +5.90440165e-03 +1.13524906e-01 -4.38860767e-02 +3.60300131e-02 -1.06404945e-01 +7.59788677e-02 -1.17549881e-01 +5.07463515e-02 -1.27494827e-01 +3.98388021e-02 +7.00482950e-02 +8.81033614e-02 +1.33849502e-01 -1.55703470e-01 +3.05562243e-02 +1.51471242e-01 -1.58528015e-01 +4.42929333e-03 +1.32366493e-01 +1.41615018e-01 +7.24729598e-02 -7.55658820e-02 -5.67327999e-02 -1.20036557e-01 +4.58449237e-02 -1.66263908e-01 +9.83050317e-02 -7.55876675e-02 +6.96700215e-02 -5.07090725e-02 +1.67868868e-01 +2.19293926e-02 -2.34590117e-02 +1.37218401e-01 -5.13043292e-02 -2.44643584e-01 +1.00226521e-01 +9.97674838e-02 +1.25031978e-01 -4.89799939e-02 -9.06910151e-02 -2.65764520e-02 -4.66476455e-02 -7.38460124e-02 +9.77763310e-02 -6.62181005e-02 +1.49101466e-01 +6.58555701e-02 +4.69406310e-04 -3.51021513e-02 -1.75036624e-01 +4.43658652e-03 +6.34025633e-02 +1.01714998e-01 -2.76738442e-02 -8.03375151e-04 +2.66464144e-01 +1.21579520e-01 +7.25748092e-02 -3.65976989e-02 -4.53666411e-02 +1.03138842e-01 +4.60432023e-02 -7.72220790e-02 -2.32169218e-02 +8.89486521e-02 -1.19295798e-01 -1.08201548e-01 -1.61310341e-02 -6.41857386e-02 -3.80976163e-02 +2.49322444e-01 -1.87542468e-01 -2.11177722e-01 -1.84876814e-01 -2.72361413e-02 +1.52660012e-01 -1.26386702e-01 -4.82579172e-02 -4.89200391e-02 +1.11357234e-01 -5.90598397e-02 -2.03594372e-01 -9.21842307e-02 -1.73926950e-01 -1.79074526e-01 -1.47171646e-01 +1.96788669e-01 +7.38668144e-02 +9.24162567e-03 +4.81738709e-02 -1.46381006e-01 +6.08004108e-02 -2.82752234e-02 -8.27140063e-02 -9.20529887e-02 -1.98743969e-01 -1.58626646e-01 +2.37003699e-01 +3.16588022e-02 -2.07318678e-01 +1.00611366e-01 -1.37579024e-01 -1.20704934e-01 -1.32918134e-01 +1.70178860e-01 -2.53864348e-01 +2.53246967e-02 -1.82718709e-02 -8.99105668e-02 +4.34164852e-02 +1.31622944e-02 +5.71113080e-02 -1.63151711e-01 +5.61929755e-02 +1.86927482e-01 +3.78064737e-02 -1.85412720e-01 -3.94168459e-02 -1.99499905e-01 -1.55154601e-01 +4.14063260e-02 +1.49837077e-01 +6.70415908e-02 