#Parameter# /MlpAttender-94fab862/_0 {128,128} 262145 ZERO_GRAD
-2.10347008e-02 -7.96984956e-02 -2.97817402e-02 +1.03212833e-01 -2.16896981e-01 -1.19195431e-01 +4.45885696e-02 +1.81361705e-01 +1.36649191e-01 -9.32040960e-02 -8.49804059e-02 +2.81029996e-02 +2.15555847e-01 -1.42234951e-01 +8.07377622e-02 +7.92335272e-02 -1.11971691e-01 +1.08378448e-01 -4.29331362e-02 +6.00727461e-02 +1.58857837e-01 +8.28725472e-02 +5.75513579e-02 -5.69120236e-03 +1.69847645e-02 -6.62187710e-02 +8.75116810e-02 +1.46043658e-01 -3.42901871e-02 +5.48705272e-02 -2.30130535e-02 -1.09213998e-03 +2.18527894e-02 +3.69084701e-02 +4.72048633e-02 +1.33725300e-01 +6.91145509e-02 -1.56393811e-01 -8.81475657e-02 -1.69569269e-01 -9.80425850e-02 -5.46842851e-02 -6.60982430e-02 +6.87477514e-02 -1.50501937e-01 +2.34952658e-01 +3.23687531e-02 -2.27781355e-01 +5.76256365e-02 +1.82783052e-01 +5.84170297e-02 -1.73382953e-01 -1.30218148e-01 -1.76004171e-02 -9.16888192e-02 -1.07850917e-01 -3.13496590e-02 +1.06795728e-01 +3.76489572e-02 +3.80893238e-02 +1.71703801e-01 -1.19087040e-01 +9.81213823e-02 +5.44713922e-02 +1.32428542e-01 -2.57320851e-01 -7.88029134e-02 +1.63382381e-01 +1.82753295e-01 +1.32576153e-01 -3.49026197e-03 +4.85546961e-02 -2.43909191e-02 +1.73386469e-01 +7.56943300e-02 -5.45176491e-02 -1.14408135e-01 -1.07874125e-02 -9.24930423e-02 -1.58352349e-02 -7.27068111e-02 -1.17943250e-01 -3.16587649e-02 +3.44241261e-02 +1.77929729e-01 -8.04353803e-02 -1.77774280e-01 +7.92806149e-02 -8.98844600e-02 +1.15931258e-01 -1.24375038e-01 +4.75143045e-02 +2.17077858e-03 +9.78464857e-02 +1.26317382e-01 +4.91729900e-02 -8.04341063e-02 -8.90069008e-02 -7.44249523e-02 -1.16497003e-01 -7.79458787e-03 -6.30474761e-02 -1.01073369e-01 -9.90327261e-03 -2.25882024e-01 +2.54665744e-02 -1.40915155e-01 -4.94174659e-02 +9.82583240e-02 +1.11777529e-01 +1.81275293e-01 -1.48751840e-01 +1.40268415e-01 +6.93942532e-02 -4.31012288e-02 +7.39731118e-02 -1.93393245e-01 -1.42490789e-01 +3.73779461e-02 +6.03990369e-02 +7.22904280e-02 +1.72662660e-01 +1.10940196e-01 +1.63609281e-01 -1.62927270e-01 +2.84663849e-02 -1.37039840e-01 +1.97539523e-01 +9.21039730e-02 +8.20352361e-02 -1.08615123e-01 +1.94167361e-01 -2.47476414e-01 -9.12148319e-03 +1.95122913e-01 -2.74585545e-01 -1.10877238e-01 +4.73884270e-02 +4.21068259e-02 +1.54747844e-01 +2.55465750e-02 +4.82841209e-03 -1.58463791e-02 -2.43314877e-02 -1.16537429e-01 -1.79240152e-01 -1.17072919e-02 -1.66684002e-01 -1.66321754e-01 -3.54566146e-03 +8.25444236e-02 -1.89072773e-01 +1.57485098e-01 +2.55239666e-01 +8.26833770e-02 -1.59099266e-01 -4.17513922e-02 -1.28671423e-01 +1.65413812e-01 +1.90907836e-01 +2.08634421e-01 -4.41504940e-02 +2.65584558e-01 -9.32995677e-02 -1.35166287e-01 +1.61989853e-01 -4.00253236e-02 +2.82472670e-02 +3.52407917e-02 -5.36262207e-02 +4.12599668e-02 -2.37061501e-01 +6.91625401e-02 +6.49035256e-03 +8.66744015e-03 -7.95997754e-02 +1.39960334e-01 -1.40965700e-01 +9.55484807e-02 -1.53803542e-01 -1.91375822e-01 +2.16687858e-01 +2.16948047e-01 +1.55208096e-01 +1.73273265e-01 +1.88574150e-01 -8.72532800e-02 +2.00264715e-02 -1.39723822e-01 -8.98911282e-02 +2.09550485e-02 -2.54028365e-02 -1.67778775e-01 -1.33792117e-01 +4.89253961e-02 -1.27805218e-01 -4.57853600e-02 -4.74122539e-02 -9.27514508e-02 -2.35301673e-01 +8.24325439e-03 -8.70743245e-02 +1.14919104e-01 +1.41250361e-02 -1.91925108e-01 +1.09303303e-01 -1.49618521e-01 +1.37193009e-01 -6.52243644e-02 +1.27355456e-01 -3.21142301e-02 -1.40294239e-01 +1.09370567e-01 +1.23005293e-01 -7.88376480e-02 +1.40564551e-03 +1.77551508e-01 -1.84912458e-01 -2.29290158e-01 +2.56253574e-02 -1.55672714e-01 +1.61118084e-03 +2.58626044e-01 -2.28636175e-01 -2.49591842e-01 +2.17309147e-01 -3.17375995e-02 -1.36730075e-01 -1.82233229e-01 -3.41260917e-02 -5.73327616e-02 -2.02057064e-01 -8.93976241e-02 +6.69286624e-02 -7.63474181e-02 -2.60813087e-01 +1.66374639e-01 +5.38731180e-03 +1.60691850e-02 -2.60063857e-01 -1.48329968e-02 -8.67164135e-03 -2.63050497e-02 -5.76287508e-03 -2.82276534e-02 -4.82387654e-02 -1.30791456e-01 +3.36146094e-02 -2.87591629e-02 -8.00705999e-02 -4.82326932e-02 -8.76395851e-02 +2.07637429e-01 -2.13327184e-02 +6.99532330e-02 -2.37130597e-01 +1.17214277e-01 +2.41648760e-02 -1.87047347e-02 +1.52359769e-01 +7.43814781e-02 +9.51402485e-02 +1.33470803e-01 -8.47437158e-02 -1.34964019e-01 -5.08944876e-03 -8.18454176e-02 +1.27975136e-01 +2.66973302e-02 -8.45078900e-02 -1.70456730e-02 -2.88934410e-02 +3.28473784e-02 -9.13144276e-02 +1.96815524e-02 -1.86437264e-01 +1.86188102e-01 -2.71609630e-02 +1.37781665e-01 +5.34852408e-02 +3.19026522e-02 -2.42308415e-02 +1.33120641e-01 -1.72125056e-01 -1.45244807e-01 -2.92135887e-02 -8.01510140e-02 +1.46208584e-01 +1.00858480e-01 +8.33859965e-02 -8.85574147e-02 -9.34689343e-02 -1.59366459e-01 -1.60557386e-02 +4.57749218e-02 +2.71187276e-01 -1.07487060e-01 -1.98264733e-01 -6.13991320e-02 +7.01612011e-02 +5.80156979e-04 +4.10692720e-03 -8.31577927e-02 -3.49190116e-01 -1.80325076e-01 -6.81112260e-02 -2.58756012e-01 +5.44459000e-02 -1.60708144e-01 +3.24912257e-02 -1.09643340e-02 -1.79286107e-01 +1.94318265e-01 -2.09277787e-04 -7.37530589e-02 -1.07349241e-02 +2.13362366e-01 +9.88760442e-02 -6.97536692e-02 -3.52932662e-02 -2.77791321e-01 -2.68065661e-01 -7.75345415e-03 +5.35982549e-02 +1.24966584e-01 +1.83703050e-01 +9.33485031e-02 +2.85224132e-02 -4.39073658e-03 +9.82610211e-02 -1.03510581e-01 -5.79922684e-02 -1.67889565e-01 +3.02690774e-01 -2.09822133e-01 -2.71863416e-02 +1.75013654e-02 +4.00511324e-02 -1.06764145e-01 -1.58008248e-01 -1.12219758e-01 +1.60490528e-01 +1.86102509e-01 +1.74356326e-01 +6.21853545e-02 -6.03315607e-03 -6.48570880e-02 +2.51826882e-01 +5.22565544e-02 -1.13417558e-01 +7.64431655e-02 +1.28220230e-01 +9.07190368e-02 -1.51554510e-01 -1.25537038e-01 +5.23769632e-02 +5.36177680e-02 -4.23115678e-02 -2.33158216e-01 -3.47101018e-02 -5.30395731e-02 +1.88128978e-01 -2.40172371e-01 -6.97871204e-03 -1.18028596e-01 +1.37803942e-01 +5.39501309e-02 +1.35356067e-02 -3.08776069e-02 -1.43129453e-01 -1.41687244e-01 +2.70742744e-01 -1.64211784e-02 -5.01039475e-02 -1.78765744e-01 +2.53560215e-01 +1.07181691e-01 +5.85351214e-02 +3.05621997e-02 -2.51226202e-02 +9.71572101e-02 -1.11108765e-01 -6.46912009e-02 -7.80861303e-02 +9.99372918e-03 +8.86189565e-02 +6.73622172e-03 -6.83166385e-02 +3.22781364e-03 +4.70538065e-02 +1.45450398e-01 +1.12823412e-01 -4.95571122e-02 +1.06666543e-01 -7.02377548e-03 -1.16940759e-01 +9.47798043e-02 -3.59988362e-01 +8.78251623e-03 +2.56689340e-01 +7.83696175e-02 -1.40528426e-01 -1.38877537e-02 -1.26377717e-01 +3.52479867e-03 -8.63325298e-02 +1.08196296e-01 +2.83430398e-01 +2.07232952e-01 -2.16049626e-01 +1.50548518e-01 -1.59200877e-01 +1.06656879e-01 -2.12920606e-01 +1.87289104e-01 -2.35205591e-01 -4.01194215e-01 +1.19677573e-01 +1.33273736e-01 +8.94880071e-02 -4.05311063e-02 +1.56953000e-02 -5.84177561e-02 -5.43850362e-02 -1.76950768e-01 -2.02479020e-01 +1.01445086e-01 -1.97575949e-02 +3.37244421e-02 -2.35865250e-01 +1.39794216e-01 -2.55270842e-02 -3.57437469e-02 +1.27629682e-01 +1.98331609e-01 +1.27123669e-01 +5.93585372e-02 -1.66138962e-01 +1.43764876e-02 +1.73901558e-01 +1.38774961e-01 +2.27561742e-01 -3.62867750e-02 +8.70258883e-02 -3.10547110e-02 -3.35999555e-03 -5.91635145e-02 -9.07278210e-02 -5.09820394e-02 -1.07743964e-01 -5.06278768e-04 +1.39056846e-01 +3.89677286e-02 +1.67710483e-01 +3.30355734e-01 +1.11489289e-01 -1.47026584e-01 +1.45950228e-01 +8.63867775e-02 -3.98223884e-02 -1.02934748e-01 -5.64475283e-02 +3.55302036e-01 -1.18823282e-01 +1.60791561e-01 -3.47941130e-01 -1.49551734e-01 -2.59409785e-01 +1.47726327e-01 +2.16505546e-02 +7.13279173e-02 +7.56346583e-02 -1.46333026e-02 +1.38103347e-02 -1.94999024e-01 -7.08391145e-02 -4.72064279e-02 -3.83281820e-02 +1.13605253e-01 -8.51521790e-02 -4.39027846e-02 -3.37680846e-01 -1.11558892e-01 -4.55235019e-02 -9.38610584e-02 +3.40015143e-01 -3.27312462e-02 +9.86521021e-02 +2.44925395e-02 -2.94823021e-01 -9.22847837e-02 +1.15828656e-01 -1.79104169e-03 +1.01938836e-01 +1.16460495e-01 -3.91774215e-02 +7.00071380e-02 +2.44348943e-02 +1.58935025e-01 +1.73934951e-01 +1.48172043e-02 +1.05256163e-01 +1.69871435e-01 -3.77588421e-02 -5.99018252e-03 -4.40577678e-02 -9.38288048e-02 +2.02890769e-01 +1.40132871e-03 +1.06489174e-01 -3.28902930e-01 +6.63800240e-02 +1.12669133e-01 +1.19936436e-01 -8.95383656e-02 +2.86825988e-02 -1.63451299e-01 +3.54009867e-02 +3.43651362e-02 +8.60185921e-02 +1.57238334e-01 -3.42552713e-03 +2.06798315e-02 +1.67983502e-01 +6.76478818e-02 -3.27843368e-01 +1.00013356e-04 +4.60124463e-02 -2.47472689e-01 -6.75289109e-02 +1.26925543e-01 -4.06720005e-02 -1.01174019e-01 -1.41223744e-01 -3.03100973e-01 +1.72181696e-01 +3.23260427e-02 +1.70508042e-01 +2.33202398e-01 -4.13168557e-02 -1.17386393e-01 -1.32189766e-02 +1.56847462e-01 -1.38502270e-02 -3.90658855e-01 +7.46478364e-02 +1.12647220e-01 +8.47883970e-02 -4.71129045e-02 +1.44704565e-01 -1.86688423e-01 -2.38824233e-01 +1.60702780e-01 -3.38543981e-01 -9.19653028e-02 +3.16855535e-02 +1.65662825e-01 +2.68147551e-02 +5.51203787e-02 -1.40432447e-01 +2.22883865e-01 -8.96589532e-02 +1.95552921e-03 -2.04546958e-01 +1.56407669e-01 -3.91761400e-02 +8.84819776e-02 -1.59324899e-01 +1.10480599e-01 +1.66483968e-01 +4.64606099e-02 -1.27816662e-01 -1.52358785e-01 +1.54722948e-02 -1.82433248e-01 -1.33111045e-01 -6.05117418e-02 +4.91904505e-02 +2.58461326e-01 +2.14301974e-01 +2.82958895e-01 +3.78064401e-02 +2.54171461e-01 +9.03289393e-03 -1.36419684e-01 +3.84776860e-01 +2.39426978e-02 -2.10196182e-01 +1.27367629e-02 +1.72513183e-02 +1.08943433e-01 -2.96087540e-03 +7.65766054e-02 -9.89819840e-02 +3.25945094e-02 -1.76724181e-01 -1.04539074e-01 -5.51765710e-02 -1.07146583e-01 +1.18351422e-01 -1.05189368e-01 -1.87149078e-01 -2.51639873e-01 +1.21311173e-02 -5.82141690e-02 +5.68607263e-02 +2.60006368e-01 -1.69803262e-01 +5.84860891e-02 +1.01273261e-01 -7.58818164e-02 +1.52314410e-01 +1.94271564e-01 +3.45732659e-01 -2.67901480e-01 -1.27756149e-01 -1.46896079e-01 -1.92525178e-01 +4.84013110e-02 -2.83195246e-02 +1.87240571e-01 +5.81011511e-02 +7.47273043e-02 +1.36940762e-01 -2.29784590e-03 -2.38949843e-02 +8.77880678e-02 -8.79460573e-02 +4.11318243e-02 +2.55195722e-02 +3.39124985e-02 -5.07918410e-02 -2.26132900e-01 +3.15993249e-01 -6.96577653e-02 +2.93877751e-01 +8.39071535e-03 -8.94803330e-02 -1.31279469e-01 -2.65033990e-01 -1.33657038e-01 -1.30599767e-01 -1.70050427e-01 -6.35833740e-02 +1.23756357e-01 +4.09357138e-02 -8.47679097e-03 -8.89435876e-03 -5.86403683e-02 -2.21689921e-02 +3.02039474e-01 +1.42936453e-01 -5.69763519e-02 +3.09847593e-01 +1.81303844e-02 +1.83209315e-01 +4.94635329e-02 +1.06524684e-01 -1.83977857e-02 +1.75677404e-01 +1.52341396e-01 -1.14249185e-01 +5.98673522e-03 -1.14489481e-01 +7.29243532e-02 +6.80450201e-02 -1.83757499e-01 +2.52271324e-01 +1.94069579e-01 +2.11568668e-01 -2.23225906e-01 -1.83652446e-01 +1.03281617e-01 +1.18521489e-01 -2.89786726e-01 +2.72582192e-02 -1.32720560e-01 +4.49422114e-02 +2.64381748e-02 -4.86426195e-03 -1.09058291e-01 +4.34030704e-02 +2.16352344e-01 -9.71463099e-02 -3.26320827e-02 -9.01471898e-02 -1.00623399e-01 -2.54431516e-01 -1.91587284e-01 +1.28272459e-01 -4.46845591e-02 +1.80996701e-01 -1.13330312e-01 +5.00403717e-02 -1.30537704e-01 -8.80786479e-02 -6.63440898e-02 +6.24635555e-02 -8.39226544e-02 +3.39542627e-02 +2.48783961e-01 +1.45344242e-01 -6.62071258e-02 -5.29743172e-02 -3.45507413e-02 +1.40104592e-01 +3.93066835e-03 -3.56088668e-01 +2.94319093e-01 +2.63421059e-01 -5.78881279e-02 +2.88014654e-02 +7.36917257e-02 -9.71106533e-03 -9.58694518e-02 +3.73477079e-02 -1.02079757e-01 +8.39537755e-02 -1.10623024e-01 -1.08100697e-01 -2.74157792e-01 -1.48772240e-01 +1.01414278e-01 +9.24134701e-02 -7.48484656e-02 +8.07204098e-02 -3.37030560e-01 -7.49625638e-02 -1.07262403e-01 +9.36357602e-02 +7.55104646e-02 -1.83208525e-01 +1.29611164e-01 +1.03975497e-01 -6.44612312e-02 +3.66357490e-02 -3.65889631e-02 -1.04214296e-01 +6.16715141e-02 +1.40252307e-01 -2.33456790e-02 -1.21081196e-01 +3.29370499e-02 -1.18225046e-01 -2.63204098e-01 -8.65634009e-02 -1.46962613e-01 -2.46077441e-02 -2.32720941e-01 -1.66425779e-01 +4.17126752e-02 +1.20914616e-01 -1.58500776e-01 -1.41558414e-02 -8.02081153e-02 -1.21982200e-02 +1.83256529e-02 -1.34786412e-01 -4.43097055e-02 -2.25456562e-02 +2.06058426e-03 +8.24400857e-02 +1.68760315e-01 -4.02789295e-01 +9.53568220e-02 +1.37193874e-01 +2.31748447e-01 +2.36073267e-02 +6.59912303e-02 -2.68687308e-01 +7.24043548e-02 -3.44795734e-02 +3.24639082e-02 +1.90957472e-01 -1.01105617e-02 -1.16394371e-01 -9.51358452e-02 +1.65631875e-01 -9.16956440e-02 -1.73531607e-01 -1.08016700e-01 -1.12077184e-01 +2.10378051e-01 +2.17151016e-01 -1.47882532e-02 -1.15456566e-01 -9.54524800e-02 -1.50817022e-01 -1.93179458e-01 -8.97979066e-02 -1.50992379e-01 +2.65761822e-01 +1.32033497e-01 +9.84394737e-03 -5.38714379e-02 -1.93771362e-01 -2.56716441e-02 +8.81111920e-02 +8.00549015e-02 -2.08809048e-01 -6.97992519e-02 +1.74901649e-01 +7.28049353e-02 +4.17151153e-02 -1.35538220e-01 -5.41378371e-02 +3.70209143e-02 +4.89886887e-02 +2.27607321e-02 +1.57914430e-01 -1.33360445e-01 -1.23917133e-01 +2.28356019e-01 -2.71539271e-01 -9.71114114e-02 -2.93848012e-02 +1.61971703e-01 -1.16998814e-02 -5.54508530e-02 -3.37431729e-02 -1.16439894e-01 -1.10144578e-01 -1.81710318e-01 -1.39565215e-01 +4.65589315e-02 +3.09732426e-02 -4.97653000e-02 -2.58407950e-01 -7.52343014e-02 -1.24175847e-01 -3.19714583e-02 +1.27913300e-02 -7.33004361e-02 +3.43687125e-02 -1.82643503e-01 +2.59590417e-01 -1.18385844e-01 -1.08539902e-01 -2.14423299e-01 -1.56472221e-01 -3.37717012e-02 +5.04649431e-02 -7.10482802e-03 -1.12812802e-01 -3.40992957e-03 -1.30045470e-02 -1.75990332e-02 +4.01690863e-02 -2.84190439e-02 +8.57264176e-03 -1.85744539e-02 -1.17279150e-01 +2.06116036e-01 +2.00324237e-01 +2.93540448e-01 -2.37393841e-01 -3.29973586e-02 -3.27749103e-02 +1.46591604e-01 +5.32147549e-02 -5.95587939e-02 -2.77741859e-03 +8.82587954e-02 -2.45212480e-01 +7.77572468e-02 -8.51900652e-02 +1.19707752e-02 -1.60348296e-01 -5.13976254e-03 +2.20177639e-02 +2.40209233e-02 -1.26016930e-01 -1.03583023e-01 -1.46980017e-01 +5.16631864e-02 +1.72531694e-01 -5.09079024e-02 +5.03750816e-02 +2.95458771e-02 +6.28249794e-02 -1.42612383e-01 +6.36086054e-03 -8.84861872e-03 +7.74426833e-02 +1.69998005e-01 +2.03562379e-01 -1.96725950e-01 -8.14287886e-02 -2.63768524e-01 +1.97176397e-01 -2.67798424e-01 -1.45365223e-01 +2.22903229e-02 +1.98455378e-01 -2.53356081e-02 -5.63837774e-02 +1.55017838e-01 +1.03372581e-01 -3.74724865e-02 -3.15448120e-02 -4.93639000e-02 +2.16375530e-01 -8.89925957e-02 -1.69312656e-01 -1.37901962e-01 +1.50200158e-01 -1.35897711e-01 -1.04520805e-01 -1.83703512e-01 -3.20887178e-01 +1.75235912e-01 -1.03906527e-01 -3.18340361e-02 -8.46513361e-02 +7.85762370e-02 -1.95648193e-01 -1.10921338e-01 -1.52460560e-01 +4.88400608e-02 +9.91892591e-02 -3.73318605e-02 -2.15071484e-01 +2.65200585e-01 -1.84911881e-02 -6.38546199e-02 -3.78987193e-01 +1.15177464e-02 +1.98338479e-01 +1.45363167e-01 +3.70203890e-02 +3.18124086e-01 +5.26282154e-02 -8.67496282e-02 +1.94285467e-01 -1.38266459e-01 +1.42999724e-01 -2.46484783e-02 -1.62791282e-01 -6.51171282e-02 -1.34484515e-01 +1.84764042e-02 +9.94709413e-03 +3.50572616e-02 +9.39104781e-02 +1.37454733e-01 -1.32586092e-01 -2.50038188e-02 +4.57419232e-02 +9.59962159e-02 +1.49942726e-01 -1.01944851e-02 +1.29594743e-01 +1.74629197e-01 +2.17612773e-01 +2.86422223e-01 -8.48549977e-02 -1.60234779e-01 +6.66240677e-02 +9.68530849e-02 -2.22548559e-01 -5.18880188e-02 -2.02821583e-01 +5.95026724e-02 -6.79592863e-02 -1.49163291e-01 -2.51860847e-03 -1.74345136e-01 -3.86466309e-02 -1.64704829e-01 +1.09563604e-01 +1.93502948e-01 -2.12177917e-01 -5.63866310e-02 -1.59512207e-01 -1.70627654e-01 -1.46942750e-01 +2.85728246e-01 +9.00573358e-02 +1.38062537e-01 -1.48233369e-01 +3.99432927e-02 +8.21633935e-02 +5.76622970e-02 -7.20428750e-02 +1.13703817e-01 -2.27510139e-01 -1.87411919e-01 -1.46529721e-02 -8.30636546e-02 -1.35201752e-01 +6.23407997e-02 -1.81911618e-01 -2.06288889e-01 +1.82151616e-01 -9.05023888e-02 +2.03154655e-03 -9.97603522e-04 -1.34298019e-02 -1.52484596e-01 -7.48121589e-02 +2.61594743e-01 +6.05240054e-02 +2.24073514e-01 -1.63853213e-01 +3.83491479e-02 +1.96167469e-01 -9.83940661e-02 -3.58367525e-02 +1.26389921e-01 -5.00234365e-02 +1.93955749e-01 +5.55023216e-02 +1.84284791e-01 +1.01184035e-02 -4.19038460e-02 +6.20606244e-02 -1.88664328e-02 +7.74533674e-02 -2.34644413e-01 +3.82764846e-01 +2.58604497e-01 -9.51259658e-02 -3.36198866e-01 -2.73568202e-02 -1.26152083e-01 -2.77898967e-01 -5.41680679e-02 -9.08306614e-02 +1.02866605e-01 -2.80690975e-02 -9.76994261e-02 +3.03118825e-01 +4.63919081e-02 -7.73146525e-02 -8.29175413e-02 +3.38171095e-01 -4.92878258e-03 +1.69047922e-01 +5.30376881e-02 -6.47767484e-02 -1.05157858e-02 -3.33878621e-02 +8.41304883e-02 +1.40306368e-01 +3.74792740e-02 -1.78997189e-01 -1.16384819e-01 -6.98189735e-02 +3.84331867e-02 +1.23125821e-01 -1.40438467e-01 +1.49264783e-01 +3.67030203e-02 +1.96334556e-01 -1.91477776e-01 -1.60479397e-01 -8.80785361e-02 -8.90628621e-02 +1.22902298e-03 -7.53966570e-02 -1.25424206e-01 -1.12109199e-01 +4.00064662e-02 -1.89291328e-01 +1.99752629e-01 +3.20818603e-01 +1.46560878e-01 +3.00281532e-02 +5.65722808e-02 +1.27654970e-01 +1.83765724e-01 -1.11036256e-01 -9.26736146e-02 +1.48630559e-01 -1.17679052e-01 -2.01641917e-01 -3.50978971e-02 -4.60774377e-02 +2.73095295e-02 -8.20488408e-02 -1.82384580e-01 -2.57582396e-01 -1.75420403e-01 +4.41447049e-02 +6.48312047e-02 -1.16172336e-01 +7.11605474e-02 +1.59234703e-01 -1.15691267e-01 +1.04192644e-01 -1.01237118e-01 +1.04090469e-02 +9.58665982e-02 +8.00738260e-02 +9.65413824e-02 -9.25108492e-02 -4.96494174e-02 +1.68872431e-01 -4.01583761e-02 -9.14868116e-02 +1.33179531e-01 -1.62227541e-01 -4.69071418e-02 -2.33102575e-01 -5.80093190e-02 -1.46988764e-01 +6.50292411e-02 +5.56614846e-02 -1.70897856e-01 +4.76406552e-02 -2.24325389e-01 +1.98286846e-01 +1.22274011e-01 +3.11104208e-02 +2.19770849e-01 -1.79071024e-01 +1.49829790e-01 -6.24614246e-02 -1.06273837e-01 -4.18129303e-02 +1.21517524e-01 +3.99986245e-02 +2.92719305e-01 +1.12410128e-01 -7.11886361e-02 +3.66267823e-02 +2.23679785e-02 -1.46854948e-02 -1.20465392e-02 +6.80251122e-02 +3.47956386e-03 -7.11837485e-02 +7.35809952e-02 +7.42060766e-02 +7.51131624e-02 -9.21037570e-02 -1.46143600e-01 -2.72674835e-03 -9.70906839e-02 -6.06583990e-02 +7.19156936e-02 -1.52210379e-02 -8.76623020e-02 +2.49521490e-02 -2.74725050e-01 +7.17522437e-03 -4.10626195e-02 -7.06979539e-03 +2.25294214e-02 +2.23673105e-01 +2.02865914e-01 -7.52147660e-02 +6.93502724e-02 -2.40367204e-02 +5.44669442e-02 -1.71840280e-01 +2.34530374e-01 -1.40576512e-01 +9.59711447e-02 -1.85018137e-01 +1.05212435e-01 -1.22165367e-01 +2.77079910e-01 -2.92115416e-02 -3.42465490e-02 +3.13452572e-01 -8.06919783e-02 -2.86254287e-01 +4.69567105e-02 -2.72838492e-02 +5.41658215e-02 +9.91981849e-02 +1.55191913e-01 +1.33846387e-01 +1.45733625e-01 -1.98220193e-01 -2.01056287e-01 +1.81176722e-01 -3.34985495e-01 -7.33961537e-02 +1.70562506e-01 +9.71020609e-02 -1.39486343e-01 +1.06192864e-01 +1.62967071e-01 -8.59517679e-02 -2.49576375e-01 +2.35667489e-02 +4.07603607e-02 -2.14545548e-01 +9.43222716e-02 +6.45319074e-02 +1.05595991e-01 +2.43358135e-01 +2.64869303e-01 +1.99522704e-01 -1.78875849e-01 -2.76798531e-02 +1.74675155e-02 -2.28457954e-02 -2.36502394e-01 +1.41460001e-01 -2.11641997e-01 +1.17989518e-01 +1.26779377e-01 +3.69076547e-03 -2.98154936e-03 +4.64744046e-02 +8.20770562e-02 -1.88662112e-01 +1.19431563e-01 +2.67564449e-02 +4.44586836e-02 +2.50129431e-01 +1.39834583e-01 +2.20176637e-01 +9.72448811e-02 +1.76364183e-01 -2.87485480e-01 -9.76604968e-02 +7.18211383e-02 +1.05286557e-02 -3.58327597e-01 -2.53237095e-02 +1.13035358e-01 -6.33544922e-02 -1.78448081e-01 +6.87331036e-02 -8.47648755e-02 +4.80595091e-03 -3.28159332e-01 -6.32844493e-02 -1.59415349e-01 -4.15357808e-03 +1.48848772e-01 +8.06480087e-03 -2.14997992e-01 +1.74840670e-02 -3.05349141e-01 -1.99390545e-01 -1.03357241e-01 -7.28607085e-03 +2.93826252e-01 -9.91410539e-02 -1.01091214e-01 +3.83180417e-02 -4.67341654e-02 +1.16624705e-01 -1.42430654e-02 -7.93696791e-02 +2.72209458e-02 +8.35028514e-02 -5.93243353e-02 -3.14446747e-01 +1.79496318e-01 -2.43051365e-01 -4.10126671e-02 +2.10145950e-01 -7.13431364e-05 -1.47301387e-02 -1.40284002e-01 -2.48336922e-02 -5.18429987e-02 -2.30868347e-02 +8.29886738e-03 +9.80556086e-02 +1.20971441e-01 -8.26571286e-02 -4.93368581e-02 -1.65145956e-02 +7.80485943e-02 +1.83632717e-01 +1.59089684e-01 -2.35162020e-01 +1.05758145e-01 -3.84791434e-01 +4.99560647e-02 +2.37604138e-02 +1.50070578e-01 +1.22414075e-01 -1.30879149e-01 -7.77140036e-02 +3.53753828e-02 +1.76703068e-03 +1.46314595e-02 +1.83953680e-02 -5.23290522e-02 +8.69363695e-02 +2.41784856e-01 +3.98168638e-02 -3.04279234e-02 +1.62165225e-01 +1.33739203e-01 -1.99224666e-01 -1.17539905e-01 +1.68075204e-01 +6.40077842e-03 -1.66903913e-01 +1.12939984e-01 +1.84895247e-01 +5.14923967e-03 +2.02203482e-01 -1.39083430e-01 -2.68259905e-02 +9.74932909e-02 +6.35847151e-02 -1.89667195e-02 -8.08059499e-02 -8.17370936e-02 +9.78828073e-02 -1.61599547e-01 +2.32107490e-01 -1.53305605e-02 +3.95125672e-02 -1.84753269e-01 +1.48330390e-01 -1.41595259e-01 -1.06536232e-01 +1.16660148e-01 +6.34216890e-03 -1.05084004e-02 +7.48832449e-02 -1.00487396e-01 +9.35555026e-02 -5.39809279e-03 +8.14458281e-02 +4.66339178e-02 -3.69890667e-02 -1.57132015e-01 -3.43449935e-02 +7.15960860e-02 +1.16553150e-01 -7.15804622e-02 -7.53718391e-02 +2.67390143e-02 +1.20900840e-01 +6.34526461e-02 -1.25346407e-02 +3.11854724e-02 +5.40165678e-02 -1.55534633e-02 -1.42274462e-02 -3.46950744e-03 -1.26460820e-01 -1.28575861e-01 -1.55193487e-03 +5.95452785e-02 +7.93146417e-02 -1.20940069e-02 -6.70220554e-02 -1.86104849e-01 +1.52879104e-01 +1.87119633e-01 -1.59150198e-01 -4.01554555e-02 -6.84233528e-05 +1.19458087e-01 -1.05454542e-01 -2.89038062e-01 +5.20544164e-02 +6.26186980e-03 +1.34531394e-01 +4.21947166e-02 +1.38861313e-01 -4.69538346e-02 +8.46370235e-02 -1.26374677e-01 -4.74789552e-02 +1.52931176e-02 +1.65260389e-01 +2.96582114e-02 -1.59758002e-01 +8.01286995e-02 -2.11511582e-01 -2.38537118e-01 +1.23188399e-01 +2.00539425e-01 -2.32094333e-01 -6.03357516e-02 +2.05036208e-01 -3.96469608e-02 -1.01203278e-01 -1.31216228e-01 -1.10862747e-01 +4.93976809e-02 +6.84467703e-02 -6.79112077e-02 +3.63984108e-02 -7.87235051e-02 +4.89479937e-02 -5.44471927e-02 -3.42815369e-02 -1.87387183e-01 +1.30892619e-01 +9.85564440e-02 -1.44901875e-04 +3.27848569e-02 -1.41028643e-01 +2.32240707e-02 -5.71777672e-02 -6.74561709e-02 +1.25647113e-01 +1.23340912e-01 +6.22427203e-02 -1.17072530e-01 -4.05213423e-02 +1.46669894e-01 +1.17449865e-01 +1.00556817e-02 -1.00311138e-01 +1.17970549e-01 +2.86461711e-01 +8.75539109e-02 +1.37058616e-01 -2.02243514e-02 +2.88898766e-01 +1.24932729e-01 +1.58960268e-01 -2.92719062e-02 +1.59287006e-01 -2.64513761e-01 -1.88991539e-02 +1.66888773e-01 -1.85486320e-02 -2.38885656e-01 -4.66046669e-02 +3.85603309e-02 +2.28147656e-01 -8.03383440e-02 -2.08102435e-01 -1.99848190e-01 +9.81635507e-03 +5.71416738e-03 +8.17750916e-02 -7.20626041e-02 -7.74195045e-02 -2.20751300e-01 -1.91154599e-01 +4.85955924e-02 -4.79447134e-02 -1.61096498e-01 +2.04125762e-01 +9.62898210e-02 +1.62825987e-01 +2.47933403e-01 -3.21754776e-02 -6.40454814e-02 -2.11088285e-01 +9.87838507e-02 +9.79850963e-02 +4.68234457e-02 -3.71744577e-03 +1.84546605e-01 -9.68151465e-02 -2.28509773e-02 +6.77978471e-02 +1.80817023e-01 +1.74625944e-02 +1.43247545e-01 -1.50443926e-01 +8.78123119e-02 -3.38806093e-01 -1.78548872e-01 +1.93585396e-01 -6.12292141e-02 +1.45824570e-02 -1.56410560e-01 -2.24228442e-01 -2.01402172e-01 -7.86482394e-02 -2.18155030e-02 -1.56361908e-01 -8.89699236e-02 +7.33442828e-02 +1.01790681e-01 +8.45420584e-02 +9.43225622e-02 -7.86024481e-02 -5.68366162e-02 -8.50388706e-02 -1.83039933e-01 +7.39832297e-02 +6.25741109e-02 -2.28097051e-01 -5.75755127e-02 -1.82043150e-01 +1.60072744e-01 -5.17924391e-02 -9.96090770e-02 +1.32819209e-02 -6.84797466e-02 -1.13072284e-01 -1.86860144e-01 +4.30920608e-02 -1.73724413e-01 +7.39045814e-03 +4.36515994e-02 -1.40758336e-01 +1.03685401e-01 -5.92187457e-02 +4.63293232e-02 +4.92798090e-02 -2.52226442e-01 -1.58930585e-01 -2.55658954e-01 +6.71502054e-02 -4.31275927e-02 -9.93622616e-02 +1.24014482e-01 -1.69225708e-01 -2.20791399e-02 -2.00206757e-01 -2.76038572e-02 +7.07180426e-02 +3.32679927e-01 +2.46221181e-02 +2.36180469e-01 -3.49687487e-02 +2.74336785e-01 +6.80967420e-02 +9.53681245e-02 +5.83585305e-03 +1.78517804e-01 -7.08235651e-02 +2.65695900e-02 +3.16564329e-02 +9.05168522e-03 -1.08506843e-01 -4.18563038e-01 +1.28048703e-01 -2.16105029e-01 -4.69322056e-02 +2.97678351e-01 +2.92538136e-01 -1.91121977e-02 -2.13996485e-01 +2.32760936e-01 +2.60506481e-01 -1.28443375e-01 -5.39917685e-02 -1.64548248e-01 +6.61671953e-03 -1.05000742e-01 +2.13885829e-01 -2.50908464e-01 +2.66708702e-01 -3.06559891e-01 +2.20481642e-02 -5.21247536e-02 -2.55560160e-01 +8.18496272e-02 +2.54687548e-01 -1.22865058e-01 -3.23673412e-02 +8.58203173e-02 +7.87240565e-02 -2.20787600e-01 +6.64673746e-02 -6.29199147e-02 +4.32399750e-01 +2.58094609e-01 -7.36861676e-02 +4.53562796e-01 -8.17213804e-02 -1.27109960e-01 -3.20028722e-01 +7.24632442e-02 -1.17328666e-01 -3.41644347e-01 +1.25343636e-01 +4.37916189e-01 +9.30561423e-02 +1.23937905e-01 +1.64759248e-01 -9.58458632e-02 -2.15805277e-01 -2.28162229e-01 -4.61910069e-01 -4.55555290e-01 -1.87431052e-02 -3.67018133e-02 -1.26424640e-01 -5.29665537e-02 -4.17945273e-02 +2.85109103e-01 -9.80506837e-02 +1.20522499e-01 -9.07807350e-02 -1.93198845e-01 +2.09637713e-02 -6.91013783e-02 -5.99542372e-02 -1.84253678e-02 +4.05927479e-01 +3.58718773e-03 -1.63300395e-01 -1.16306417e-01 -5.72477058e-02 -2.79352248e-01 -1.75437585e-01 -5.80587275e-02 -2.02608392e-01 +2.14058310e-01 +5.02015948e-01 -3.19266990e-02 -6.75802678e-02 +2.81103700e-01 +4.69097868e-02 -7.05685914e-02 +1.87808111e-01 +4.43818718e-02 -1.05300704e-02 -1.26271904e-01 +1.71281964e-01 +2.49173328e-01 -1.46884331e-02 +5.01197018e-02 -1.90532982e-01 -1.35139993e-03 -1.13868741e-02 +2.12277040e-01 +1.21839501e-01 +1.34987608e-01 +8.19559246e-02 -1.98864900e-02 +2.28774734e-02 -2.55570918e-01 +1.43819943e-01 -5.29223010e-02 -4.85184565e-02 +4.30385679e-01 -1.80006579e-01 -2.17089370e-01 +3.53925228e-02 -1.61850341e-02 -5.50035648e-02 -1.55019417e-01 +4.46054280e-01 -9.68186855e-02 +7.27889836e-02 +2.15507001e-02 -3.29107434e-01 +1.24964371e-01 +2.44066697e-02 +1.73965469e-01 +2.67122984e-01 +9.40621123e-02 -5.76008186e-02 +4.35107313e-02 +1.41241878e-01 +1.53229777e-02 +1.14209585e-01 +6.90910518e-02 +9.29757431e-02 +1.01114064e-01 -9.16937366e-03 -1.77328408e-01 +3.01842064e-01 -2.37082675e-01 +4.31884110e-01 +1.76602781e-01 -1.10694123e-02 -1.68041900e-01 -2.26336926e-01 +1.11436091e-01 +1.65405214e-01 +1.14031071e-02 -1.07240425e-02 -2.27511466e-01 -7.05791786e-02 +1.42330509e-02 -3.11876703e-02 -7.62840435e-02 -1.17780529e-01 -8.98199901e-02 -1.65622994e-01 -7.09391311e-02 +7.55059347e-02 +8.33083242e-02 +9.31210071e-02 +4.17655185e-02 -1.19940586e-01 -1.91590205e-01 -1.96965873e-01 -1.92835137e-01 -6.93085939e-02 -9.86787528e-02 +1.03108585e-01 +1.89484298e-01 -1.88077375e-01 +6.46291748e-02 -6.06395788e-02 +7.12860078e-02 -1.03623964e-01 +8.10555294e-02 -2.14555282e-02 +2.63269603e-01 -1.53039634e-01 +5.81897981e-02 +2.11706571e-03 +1.05245069e-01 +3.62245226e-03 +1.01936951e-01 -9.52588543e-02 -1.66744933e-01 -3.75283733e-02 -2.29025725e-02 +1.35930479e-01 +7.66532719e-02 -8.32738578e-02 -3.55155207e-03 +1.43925205e-01 -6.75394684e-02 -1.00366287e-01 -1.38613256e-03 -5.11007085e-02 -1.45781813e-02 +2.63709396e-01 -9.16254614e-03 +1.36205703e-01 +6.52611479e-02 -3.41854729e-02 +9.15005058e-02 +2.04836905e-01 -2.63949987e-02 -9.55475345e-02 -5.88180460e-02 +6.12787046e-02 +1.46208331e-01 -5.85400388e-02 -1.13825053e-01 -7.33905360e-02 -3.14816773e-01 -9.04794484e-02 -1.13463812e-01 +3.50930206e-02 +4.15654518e-02 -2.11322129e-01 -1.00594454e-01 -5.69946482e-04 -1.24179721e-01 +1.40452027e-01 +1.41534463e-01 +7.58450925e-02 +1.67250782e-01 +2.00825483e-01 +4.82591055e-02 +6.15276732e-02 +9.89368707e-02 +1.78151019e-02 +1.09945126e-01 +6.93525225e-02 +3.77092622e-02 +1.16786115e-01 +7.38778245e-03 +9.64775309e-02 +5.05039804e-02 -2.12480798e-01 +1.80583283e-01 +6.33439198e-02 -1.71020836e-01 -1.31055359e-02 -2.08065137e-01 -9.72395688e-02 +5.42207733e-02 -1.69021301e-02 -5.33558093e-02 +2.48202741e-01 +1.68117002e-01 -1.55110613e-01 +1.40950993e-01 -8.66583511e-02 -4.06107306e-02 -3.22178937e-02 -1.42883137e-01 +1.15806572e-01 +1.22638702e-01 +1.18462980e-01 -1.64727215e-02 +1.45692989e-01 +4.87894714e-02 +7.85734057e-02 +9.15727690e-02 -1.19271003e-01 +2.43221626e-01 -1.92377627e-01 -2.32414920e-02 +3.65197845e-02 +1.06711254e-01 -1.47441939e-01 +1.08364522e-01 +1.07361618e-02 -2.95293570e-01 -2.98556626e-01 -1.86490212e-02 -6.43418580e-02 +5.95814735e-02 -1.55832067e-01 -5.85217588e-02 +1.28487200e-01 +1.84319373e-02 -6.46895077e-03 +1.03301488e-01 +1.35987520e-01 +1.91855416e-01 +2.54756361e-01 -1.63571045e-01 -3.81683931e-02 -5.55207022e-02 +2.17053235e-01 +3.37926969e-02 -1.36470105e-02 +1.98652998e-01 +8.68053809e-02 -6.70393556e-02 -1.88785568e-01 -9.27596465e-02 +1.57999769e-01 -1.37326851e-01 +4.05490212e-02 +3.59117873e-02 +2.14309558e-01 -2.91690141e-01 -1.46466549e-02 -5.74655347e-02 -9.63743776e-02 -5.80463409e-02 -2.01258883e-02 -4.65665944e-02 -1.45018488e-01 +7.88108110e-02 -2.02787563e-01 +1.43778980e-01 +1.18970886e-01 +2.01908544e-01 +1.31733179e-01 -2.38583907e-01 -1.45892743e-02 +9.06469449e-02 +8.84742942e-03 -2.09092394e-01 +2.62978643e-01 +5.87996915e-02 +4.12041247e-02 +3.16381991e-01 -1.23373093e-02 -1.58974767e-01 -2.63907923e-03 -9.20802169e-03 -7.59917796e-02 -1.80811249e-02 +9.63064190e-03 +2.18168780e-01 +1.44389376e-01 +5.32438755e-02 +8.20824429e-02 -8.64890218e-02 +4.02636617e-01 -1.36785313e-01 -1.30208626e-01 +2.50460774e-01 +6.33573830e-02 -1.43869013e-01 +6.10945374e-03 +6.53376877e-02 -5.05416282e-02 -2.19017103e-01 +2.63439119e-01 +1.78988650e-01 -4.54507433e-02 +3.25909182e-02 -1.10019937e-01 -1.15512215e-01 +2.57818788e-01 +4.63523641e-02 +1.31744951e-01 -1.11512512e-01 -1.36596993e-01 -1.29353166e-01 -2.98202366e-01 -9.64115858e-02 +3.84425558e-02 +3.87952507e-01 -3.08590904e-02 +8.32192302e-02 +1.06616072e-01 -1.46589905e-01 +1.94504440e-01 +2.22884759e-01 +9.15190279e-02 -2.70990394e-02 +2.10663080e-01 -3.89348492e-02 +5.20387702e-02 +1.80566125e-02 +2.21091695e-02 +8.05946290e-02 +2.00806871e-01 -1.52946040e-01 -1.62478518e-02 +1.74638271e-01 -5.54541200e-02 -1.00735888e-01 -1.24538042e-01 -1.75375223e-01 +9.22810361e-02 +1.01264983e-01 -1.42769873e-01 -1.38226539e-01 -1.00669069e-02 +1.28384620e-01 +6.48900345e-02 -4.06742655e-02 +4.36158478e-03 +4.96500283e-02 -1.20227493e-01 -1.02686830e-01 -1.31338820e-01 +3.52973402e-01 +1.18926086e-01 +2.57283896e-01 +1.63666382e-01 +2.23757401e-01 -6.93732426e-02 -1.50998548e-01 -1.99908912e-01 -4.09454145e-02 -1.57138616e-01 -8.02703574e-02 -2.19864607e-01 -1.30913362e-01 -2.34139234e-01 +1.54488072e-01 +8.08155630e-03 -1.34743229e-01 +8.73112530e-02 +1.51460186e-01 -8.38721171e-03 +2.40626391e-02 +3.77171338e-02 +2.18402684e-01 +7.51350354e-03 +4.15075645e-02 +1.77326798e-01 +4.68155928e-02 -2.12256357e-01 +1.16951987e-01 +4.86901700e-02 +1.11576365e-02 +1.61065180e-02 +1.86372898e-03 -5.12195192e-02 -4.73501608e-02 +8.51129070e-02 +1.70346841e-01 -2.20243424e-01 +1.73149511e-01 -5.14175594e-02 +1.62764192e-01 +6.73442632e-02 -1.53846771e-01 -1.89895332e-01 +1.23272933e-01 +2.61865079e-01 -2.38109723e-01 +3.65504948e-03 -1.89378429e-02 +1.78935692e-01 -4.91183661e-02 +2.14047581e-01 -1.16866551e-01 +2.77710348e-01 -1.37959465e-01 -7.98718780e-02 -7.30788261e-02 -1.79212037e-02 -1.46955356e-01 +1.76850647e-01 +9.87993926e-03 -1.24450438e-02 +1.20351166e-01 -1.28263226e-02 +2.38254610e-02 +9.64757577e-02 +1.01745315e-01 -1.15850061e-01 -2.39860460e-01 +8.56916830e-02 -1.19083375e-01 +2.45343432e-01 -4.49442938e-02 +1.87761456e-01 +5.58608212e-02 +8.05162713e-02 +1.36754801e-03 +1.70392483e-01 +1.16616897e-01 -1.63750082e-01 +2.06103727e-01 +1.32834792e-01 +1.02469996e-01 -4.53425236e-02 +1.53169427e-02 +1.14999346e-01 +1.24154612e-02 -1.66686535e-01 -6.22757636e-02 -2.74207860e-01 +7.10154101e-02 +1.51725546e-01 +6.73331739e-03 +4.12480123e-02 -5.37803955e-02 +2.07057577e-02 +4.04709503e-02 -4.96706031e-02 -5.44786975e-02 +1.88367695e-01 -3.67593542e-02 -1.67935565e-01 +1.12101711e-01 -5.09629287e-02 +9.57208052e-02 +1.19209453e-01 -8.21855292e-02 -7.04972669e-02 +5.53213842e-02 +1.37230292e-01 +7.24217221e-02 -2.03410462e-01 +2.72696596e-02 +1.62769407e-01 -8.39805529e-02 +8.49800259e-02 -2.01391816e-01 +1.83395609e-01 -1.14957958e-01 -8.09803084e-02 -1.50906229e-02 +2.32107550e-01 -1.95356775e-02 -6.96750209e-02 +1.86528176e-01 +2.09160730e-01 -1.01162449e-01 -2.26309374e-01 -2.15223745e-01 +8.40210319e-02 -5.07749952e-02 +6.42548576e-02 +1.35820314e-01 +2.32951203e-03 +1.00199528e-01 +2.36759298e-02 -9.03166309e-02 +1.18927151e-01 +8.62249807e-02 +1.46462433e-02 +1.33068478e-02 -1.47212043e-01 -7.37281470e-03 -2.21693993e-01 +6.55265385e-03 -1.07360832e-01 +2.50487626e-01 -9.99592319e-02 +1.23687133e-01 +6.69075549e-02 +2.10834071e-01 -5.10573164e-02 +1.83396801e-01 -1.47048324e-01 +1.43733293e-01 -1.07490733e-01 +1.10294461e-01 +2.05618486e-01 +1.52169541e-01 +8.31375737e-03 -1.74500421e-01 +3.87413800e-03 +1.44261159e-02 +5.21203130e-02 +8.16931501e-02 -7.14187101e-02 +1.75391525e-01 -3.12397443e-02 +1.18056059e-01 +8.94573480e-02 -9.63067189e-02 -4.69104433e-03 +1.41904041e-01 +6.93387315e-02 -1.92533925e-01 -3.58302742e-02 +2.45074123e-01 -4.80750427e-02 -1.62805468e-01 +1.84665099e-01 -9.89282206e-02 +1.18407436e-01 -3.82139832e-02 -2.91413926e-02 +7.88801610e-02 -3.43219787e-02 +9.77468304e-03 +3.13164033e-02 -1.22411177e-01 -4.03405130e-02 -4.40204665e-02 -8.45994949e-02 -1.52602226e-01 +1.90147519e-01 +6.16989918e-02 +5.46430647e-02 +2.59306729e-02 +6.86534941e-02 -7.73784965e-02 +1.02940790e-01 -2.17802346e-01 +5.64061068e-02 +1.53440451e-02 -8.95781517e-02 +2.58486103e-02 -1.20500233e-02 +1.28197625e-01 -8.05296972e-02 -1.98405787e-01 -4.01004031e-02 -3.74753624e-02 +1.49148211e-01 +7.62107521e-02 +1.66962102e-01 -1.06661804e-01 -9.84036475e-02 -7.95359537e-02 -3.31806056e-02 +3.24827209e-02 -2.41850652e-02 -1.19339019e-01 -5.83333224e-02 -7.70070776e-02 +2.86551341e-02 +1.16009593e-01 +2.07606137e-01 +8.13633855e-03 -7.10439160e-02 +6.37431592e-02 -6.68949112e-02 +1.83224559e-01 +4.43330221e-02 +9.68445987e-02 +1.28643930e-01 -1.44221634e-01 +8.72604921e-02 -1.26356527e-01 +2.85057604e-01 -6.96363524e-02 -1.87829137e-01 +2.05265462e-01 +1.84319109e-01 -7.02319741e-02 +6.77025989e-02 -2.71453317e-02 -1.11767553e-01 +2.86443979e-02 -9.72982943e-02 -4.56772335e-02 +1.20971180e-01 -8.96174312e-02 +2.93610722e-01 -7.53901005e-02 +2.31142249e-02 -4.52603996e-02 -4.11635684e-03 +5.27088828e-02 +1.94956213e-01 +1.33329764e-01 +6.21562488e-02 -7.27814585e-02 +2.54627377e-01 +1.07179619e-01 +1.40512273e-01 +1.56704932e-01 -2.14064699e-02 +1.64726570e-01 +1.10057972e-01 -2.08104327e-01 -1.02075323e-01 -1.30491719e-01 -4.01846766e-01 +8.24417397e-02 +7.04815388e-02 -2.64222890e-01 -1.81129277e-01 +8.54899809e-02 -4.08922173e-02 -2.66271532e-01 -2.08430707e-01 -2.05456719e-01 +2.03479324e-02 +8.47623944e-02 +9.74453911e-02 +3.63937348e-01 -1.05490394e-01 -2.87639916e-01 -3.18331063e-01 +2.06304178e-01 +2.73038950e-02 -4.79671210e-02 +8.09381381e-02 +9.42541584e-02 +3.63851994e-01 +2.38351617e-02 +3.71703118e-01 -1.45644933e-01 +1.32048234e-01 -1.81331351e-01 -6.09215945e-02 -3.25976193e-01 -2.36407056e-01 +3.50135356e-01 -1.05219021e-01 -3.69771540e-01 +1.11596771e-01 +3.62391442e-01 -1.82582915e-01 +1.44093111e-01 -1.25190154e-01 -2.43552923e-01 +3.45484316e-02 +2.54345059e-01 +1.78060517e-01 +9.78251919e-02 +3.03301543e-01 +2.41125613e-01 -7.99287558e-02 -3.38888854e-01 -2.83759534e-01 +7.65778571e-02 -2.75257170e-01 +3.60136554e-02 -1.80305704e-01 +3.60030025e-01 +2.62223452e-01 -1.51195481e-01 -2.42561951e-01 +4.50465642e-02 -3.06243092e-01 -2.77176797e-01 +3.37161779e-01 +1.87266871e-01 -2.26769447e-01 +2.89295912e-02 +1.89180914e-02 +3.31120975e-02 -1.25291068e-02 +4.34060723e-01 -8.45996737e-02 +7.81591684e-02 -1.93629980e-01 -3.14070769e-02 +3.39709520e-01 +3.19094658e-01 +3.45575124e-01 +1.46010503e-01 -3.03418607e-01 -2.84023911e-01 +3.02265406e-01 -1.07601925e-03 -2.29948014e-01 -4.98483190e-03 -2.39274144e-01 -2.67807543e-01 -1.96790114e-01 +1.08934091e-02 -9.66943875e-02 +1.01916142e-01 +1.98271513e-01 -2.05374569e-01 -1.69161722e-01 -1.19052557e-02 -4.96301763e-02 +2.55574763e-01 -2.85340399e-01 +1.49038523e-01 +2.31853679e-01 +5.09544760e-02 -3.24019305e-02 -1.05613425e-01 +1.37937173e-01 -1.70080498e-01 +2.92848229e-01 +1.88812569e-01 +1.02156259e-01 -2.84995794e-01 -2.92689323e-01 -2.29997829e-01 +1.41933233e-01 -1.90385878e-01 +4.50587690e-01 +2.54205018e-01 +6.54917583e-02 -3.08828771e-01 -1.61929995e-01 +4.20015484e-01 +5.13917841e-02 +1.81640223e-01 +2.36745596e-01 -2.23153919e-01 +2.74911791e-01 +2.57359836e-02 +1.67966679e-01 -7.63345808e-02 +2.06075117e-01 -4.33239609e-01 -2.34908119e-01 -2.84323841e-01 -4.08015221e-01 +2.58850217e-01 -1.57302603e-01 -1.49448030e-02 -1.34783730e-01 +2.08614971e-02 -2.27783453e-02 -2.28221968e-01 -2.20127136e-01 -9.21675097e-03 +1.14404373e-01 +1.11933477e-01 -1.95198655e-02 +5.53065181e-01 +2.00949125e-02 -3.09829623e-01 -3.79671127e-01 +3.26820552e-01 -7.07574263e-02 -3.80203091e-02 +3.14624533e-02 +4.89049554e-01 +3.01906526e-01 +1.26271948e-01 +2.42436320e-01 -9.24913734e-02 -1.17517887e-02 +2.10825782e-02 -1.67029247e-01 -2.60531038e-01 -2.11564675e-01 +2.46382952e-01 -6.77020507e-05 -2.24940985e-01 +2.42029220e-01 +2.54764020e-01 -1.98328435e-01 +2.45852813e-01 -1.95561543e-01 -1.36505574e-01 -3.41369025e-02 +9.43988785e-02 +1.46669507e-01 -8.18406120e-02 +1.98499247e-01 +1.14011332e-01 -2.75990456e-01 -2.04792112e-01 -3.80593240e-01 -6.51236922e-02 -1.05824038e-01 -1.45384416e-01 -5.47616959e-01 +3.13724846e-01 +4.72035110e-01 -1.88100472e-01 -2.89748222e-01 -1.41793238e-02 -3.19649130e-01 -3.71218741e-01 +1.20988719e-01 +3.13734829e-01 -4.28971410e-01 -1.32173806e-01 -9.07734130e-03 +1.25646412e-01 +4.81658503e-02 +9.41850245e-02 -9.85669419e-02 -1.26030501e-02 -7.10149333e-02 +8.63809064e-02 +2.14831784e-01 +2.89146662e-01 -1.76277291e-02 -6.68615475e-02 -2.69712716e-01 -3.32743436e-01 +3.92296761e-01 -7.95094669e-02 -2.13411227e-01 +2.23590836e-01 -2.26176336e-01 -1.68025777e-01 +1.10299654e-01 -1.50298968e-01 -2.48384207e-01 +1.37232125e-01 +2.01529413e-01 -2.01010451e-01 +1.90257102e-01 +1.78690001e-01 +4.11668569e-02 +3.16845447e-01 -2.84661591e-01 +2.52244830e-01 +1.33385107e-01 -1.84042901e-02 +1.65774405e-01 +9.43654776e-02 +1.64439201e-01 -1.20033950e-01 +3.62369120e-01 +2.18971550e-01 +1.54756129e-01 -2.27318197e-01 -2.65226990e-01 -2.25009382e-01 +1.90122753e-01 -3.28968853e-01 +5.71141422e-01 +1.94109991e-01 -1.22712091e-01 -5.20839572e-01 -3.09188426e-01 -2.59635299e-02 -1.01372443e-01 -1.21310353e-01 +1.25761062e-01 +7.48676211e-02 -8.71416356e-04 -4.65164892e-02 -1.15181066e-01 -6.06623711e-03 -2.14060247e-01 +1.26553357e-01 -1.50229499e-01 -1.41744092e-01 -5.57910316e-02 -1.05637878e-01 -8.12068433e-02 -2.47115307e-02 -5.71888988e-04 -5.90497181e-02 +5.56782708e-02 -2.96953321e-02 +2.07134306e-01 -1.76415339e-01 +7.85728320e-02 +8.37426484e-02 -8.31314325e-02 +6.96059614e-02 +5.30691743e-02 -8.28013048e-02 +1.31248748e-02 -1.65870696e-01 -5.71069196e-02 +4.01885472e-02 +1.17908068e-01 +1.22888219e-02 -4.15074155e-02 -6.06156550e-02 +1.03520058e-01 -4.87077869e-02 +2.30813753e-02 +8.76074061e-02 -1.84259832e-01 +3.16720344e-02 -9.49243754e-02 -9.53848101e-03 +2.32756548e-02 -8.60491022e-02 -7.78170153e-02 -2.20209569e-01 +7.44791850e-02 -1.42895296e-01 -2.23825388e-02 -9.30819362e-02 -1.37821799e-02 +1.78059228e-02 +1.18230944e-02 -1.03193773e-02 +1.22003041e-01 +6.40118495e-02 +1.02135889e-01 +4.07216586e-02 -3.62336785e-02 +7.33008757e-02 +1.89756319e-01 -1.95771754e-02 -7.53078610e-02 +1.75620213e-01 -3.67533676e-02 -4.23891768e-02 +7.00937435e-02 +5.49087748e-02 +8.62676054e-02 +1.14145570e-01 +6.33048490e-02 -8.75799824e-03 +1.14520043e-01 -2.13744149e-01 +3.68462279e-02 +5.53816557e-02 +7.49088228e-02 +2.45758668e-01 -1.00069590e-01 +9.30275992e-02 -6.18475750e-02 -6.46306723e-02 +9.02936384e-02 +7.05554262e-02 +8.71410072e-02 -7.27261901e-02 +1.30909860e-01 -2.03579351e-01 -3.44499424e-02 -1.20906532e-01 +5.12634814e-02 +2.75436528e-02 +1.24895632e-01 +1.35927662e-01 -1.97509244e-01 +2.19565481e-01 -6.97076544e-02 +1.23988584e-01 +1.96914300e-01 -2.28133816e-02 +1.84953421e-01 +1.46590069e-01 -5.89303449e-02 -1.18533410e-01 -1.40569165e-01 -1.38279274e-01 +1.24915831e-01 -1.65229172e-01 -1.14986282e-02 +1.35700136e-01 -5.02561033e-02 -9.88793671e-02 +9.78425667e-02 +8.69437680e-02 +1.49822682e-01 -1.62552044e-01 +2.81967930e-02 +1.21614292e-01 -4.24206890e-02 +1.47269472e-01 +1.01153515e-01 -7.93368369e-03 -6.80777952e-02 -1.28996804e-01 +1.74303606e-01 -6.17294386e-02 +7.67604187e-02 -1.69670179e-01 +3.26931983e-01 -1.21294290e-01 +2.31695041e-01 +3.27589624e-02 +1.75629079e-01 -2.52017647e-01 +6.82936534e-02 -3.46209913e-01 +1.49829015e-01 -2.75859714e-01 -4.76439446e-01 +2.25904152e-01 +1.15314409e-01 -1.61014542e-01 +8.47570226e-02 -5.54797016e-02 -5.12543954e-02 -1.18257307e-01 -2.90982425e-01 -2.95084536e-01 +5.80403030e-01 +1.74935341e-01 +1.96645200e-01 +3.50560039e-01 -4.90479767e-02 -3.33897799e-01 -9.37790871e-02 +2.99710184e-01 -9.01780352e-02 -1.70450285e-01 -1.17539503e-01 +4.68123227e-01 +1.52050629e-01 -1.31386057e-01 +2.81310439e-01 -3.28941047e-01 -6.19154759e-02 -1.68934479e-01 -2.57055312e-01 -1.21918119e-01 -2.14033514e-01 +3.47217262e-01 +3.89119573e-02 -2.22681612e-01 -1.01742163e-01 +2.35737965e-01 -2.60531634e-01 +9.12385434e-02 -1.44213110e-01 -1.46010950e-01 +9.10223573e-02 -1.67312220e-01 +8.96596834e-02 +2.31124163e-02 +2.41482183e-01 -8.46737921e-02 -2.09877029e-01 -1.38207316e-01 -3.24892364e-02 -1.43067583e-01 -4.23497319e-01 -9.05767605e-02 -1.64175645e-01 +3.17854792e-01 +1.89546540e-01 -7.83663020e-02 -2.61873096e-01 +1.74625531e-01 -3.78469050e-01 -2.22420529e-01 +4.74633038e-01 +3.96321595e-01 -8.30529630e-02 -1.12392623e-02 +4.68911640e-02 +3.86861444e-01 -1.68937713e-01 -7.75622278e-02 -6.22922555e-02 -1.83796689e-01 -3.93807650e-01 +6.54243231e-02 +1.53078049e-01 +3.23829949e-02 +3.51356864e-02 -1.55655500e-02 -3.03761840e-01 -4.62096661e-01 +1.97275832e-01 +1.51241928e-01 +1.49251316e-02 -1.05682099e-02 -2.60758817e-01 -2.12841466e-01 -1.01298630e-01 +9.26633105e-02 -5.46273813e-02 +6.95989951e-02 +2.93762326e-01 -1.63449109e-01 +1.82508212e-02 +5.87674268e-02 -1.38791457e-01 +7.48886988e-02 -2.72721648e-01 +2.26467237e-01 +1.78138033e-01 +5.89649566e-02 -4.49943058e-02 +1.88154951e-01 -1.13760240e-01 +5.50907478e-02 -4.67163101e-02 +2.82528311e-01 -1.67858481e-01 -1.49829686e-01 -1.61839172e-01 -1.85713843e-01 +4.44125326e-04 -5.15005626e-02 +3.98839206e-01 +1.94231644e-01 +3.18041086e-01 -3.22143435e-01 -1.70437112e-01 -2.45678902e-01 -1.13334380e-01 -1.88757434e-01 +9.69538838e-03 +1.94709942e-01 +7.76446844e-03 -4.05556485e-02 +1.76559821e-01 -4.20137774e-03 -1.14405520e-01 +2.28134412e-02 +2.41823748e-01 -1.88158140e-01 +2.18453612e-02 +1.70447499e-01 +1.32041529e-01 -7.74516538e-02 +8.02336633e-02 -8.89274999e-02 +6.96585104e-02 -1.73849255e-01 +1.14433877e-01 -2.60277182e-01 -1.57576472e-01 -4.78952415e-02 +2.96166480e-01 +1.53893866e-02 +4.76977453e-02 -1.72668248e-01 +9.45906118e-02 -4.14915457e-02 -1.41630799e-01 -2.82556564e-02 +4.94579114e-02 -1.99698135e-01 +8.92342702e-02 -1.25072166e-01 +1.28112167e-01 +5.86650483e-02 -2.34663919e-01 +1.18535943e-01 +2.16899931e-01 +3.67585532e-02 -1.03679590e-01 +7.58616328e-02 -6.48061782e-02 +5.72241955e-02 -1.92324281e-01 +1.81109041e-01 -1.28908768e-01 -4.08896767e-02 -2.37096414e-01 -3.30597498e-02 -1.39672965e-01 -7.44348317e-02 -1.13865621e-01 -9.73873660e-02 +3.23001295e-02 -2.07443237e-01 -1.21996865e-01 +4.76278998e-02 +1.83250860e-03 +1.17304072e-01 -1.80238098e-01 -1.55615151e-01 +5.46650253e-02 +9.06692296e-02 -5.21788970e-02 +2.43138880e-01 -1.22270450e-01 -3.16506289e-02 -8.21131468e-03 -1.08962655e-01 -1.66671071e-02 +8.78125355e-02 +1.66732129e-02 +4.56762128e-02 -2.47340813e-01 +9.26869269e-03 -1.21146053e-01 -1.50308847e-01 -2.34604821e-01 +1.04674108e-01 -9.84549969e-02 -1.31454989e-01 +8.73684511e-02 -2.73827612e-02 +1.69189781e-01 +9.63358879e-02 -1.39005437e-01 -6.32227063e-02 +4.13331576e-02 +8.69794935e-02 +1.41736045e-01 -6.69713467e-02 +3.31159905e-02 -2.08221599e-02 -3.52702029e-02 +1.15539029e-01 +3.53003331e-02 -9.65926722e-02 +1.00540236e-01 +5.39585799e-02 -2.21182600e-01 -1.50188878e-01 -1.94758877e-01 +1.28090575e-01 -8.70864019e-02 -3.18503678e-02 +1.67276897e-02 +1.69963405e-01 -4.57454026e-02 -1.23513797e-02 -1.50644600e-01 +3.63968983e-02 -3.28951590e-02 +1.20670609e-01 -4.41958345e-02 -1.87472895e-01 -9.99274403e-02 -2.42100656e-01 +1.19822703e-01 -5.84941581e-02 +1.47388533e-01 -7.16424286e-02 +3.44732180e-02 +8.95368457e-02 -1.17588155e-01 -1.11089118e-01 -1.38491958e-01 -2.31165633e-01 -1.84944291e-02 +2.03922346e-01 -1.20165490e-01 +1.07949026e-01 +1.00243494e-01 +1.49369478e-01 -2.20850393e-01 +3.04088276e-02 +1.41391665e-01 +2.49452248e-01 -3.95216346e-02 -2.04421625e-01 +8.02159607e-02 +1.83898777e-01 +1.48861527e-01 -4.03644852e-02 +2.63419777e-01 +1.71960033e-02 -6.59929067e-02 +9.80787650e-02 -6.17941469e-02 +8.36549550e-02 +1.07058667e-01 -1.27693610e-02 +7.26471692e-02 +5.98936342e-02 +3.97616215e-02 -9.43446755e-02 -2.35586111e-02 -6.08561821e-02 +8.74229148e-02 -2.43476089e-02 -2.58581907e-01 -1.55425340e-01 +5.47660468e-03 +2.58511811e-01 -1.74352795e-01 +1.02874547e-01 +7.68582076e-02 +1.02689914e-01 +1.04833402e-01 -1.73344895e-01 -4.08169702e-02 +2.30675027e-01 -2.81501915e-02 -1.84104562e-01 +2.78970122e-01 -1.09861400e-02 +1.72665536e-01 +2.57725656e-01 +9.39399973e-02 -1.04190789e-01 -3.76667194e-02 -1.90034389e-01 +3.90179567e-02 +1.38135413e-02 +1.50949985e-01 +2.48166099e-02 -3.33551541e-02 -6.79005831e-02 +2.31531143e-01 +5.30574983e-03 +2.68330425e-01 -1.59862354e-01 -2.07136512e-01 +2.66790301e-01 +2.42198128e-02 -6.17111474e-02 +2.74786465e-02 +2.07741205e-02 +8.81194472e-02 -2.13439524e-01 +1.90539539e-01 +8.90356377e-02 -9.22331139e-02 -2.32206993e-02 +3.93198133e-02 -3.47371519e-01 -1.92575797e-03 -8.53156298e-02 +8.44249427e-02 -6.61832318e-02 -2.20207661e-01 -3.45759988e-01 -1.39858097e-01 +8.07086602e-02 -3.01505369e-03 +6.98993579e-02 -2.75573432e-01 +1.43817112e-01 -7.39872679e-02 +1.95038915e-01 +1.01282716e-01 +7.19499439e-02 +3.25772725e-02 +2.55023211e-01 +9.02112722e-02 -9.12441164e-02 +2.47061148e-01 +9.27022994e-02 -5.56906238e-02 -5.69075607e-02 -1.75633550e-01 -1.12386733e-01 -3.08584198e-02 -1.19991764e-01 -2.51099586e-01 -1.49590135e-01 -1.76920637e-01 -7.38662854e-02 +8.04949328e-02 -2.81952247e-02 -1.75649807e-01 -2.58038938e-01 -1.16058670e-01 +2.42531732e-01 +1.27875432e-01 -2.67423559e-02 +8.17372203e-02 +2.38396600e-01 -1.05441540e-01 -1.02505147e-01 -1.63668275e-01 +8.47932994e-02 -2.12217271e-02 -2.24258378e-01 -3.64494592e-01 -3.52053232e-02 -8.28836858e-02 +7.79908076e-02 -1.97704956e-01 -1.44812558e-03 -1.50360286e-01 +2.07124561e-01 -6.40064478e-02 -5.62329069e-02 -4.30873111e-02 +5.73781915e-02 +1.33643463e-01 -2.70309836e-01 -2.61146128e-01 -9.42902360e-03 +2.20351025e-01 -9.49135274e-02 -1.50486808e-02 +6.90923631e-02 +1.67450458e-01 +9.02278274e-02 -4.43540007e-01 -2.08131611e-01 -7.73016810e-02 -2.33648792e-01 -1.32952966e-02 +2.76011854e-01 +7.73395449e-02 -1.48750722e-01 +2.91308075e-01 +3.11000437e-01 -1.76445618e-01 -5.81912026e-02 -1.26780540e-01 -3.85551117e-02 -5.99072464e-02 +2.51292765e-01 +1.33808628e-01 +1.33916482e-01 +2.32330292e-01 +1.11769505e-01 +1.69726238e-01 -2.22180709e-01 +7.26298913e-02 +9.86319780e-02 -6.02090992e-02 +2.90559996e-02 +3.47509906e-02 -4.49987538e-02 +1.78953633e-01 +2.53784418e-01 -6.44398257e-02 +3.81117500e-02 -1.51026577e-01 +5.62931299e-02 -3.53035033e-01 +8.30220804e-02 +4.80061024e-02 +1.75078094e-01 +9.83170345e-02 +1.29259229e-01 +9.46237147e-02 +3.22466418e-02 +2.20281720e-01 -6.86185136e-02 +4.61348658e-03 +3.36662121e-02 +1.72339559e-01 -2.54033417e-01 +1.64232388e-01 +2.05466658e-01 -3.93668145e-01 -1.41953588e-01 +1.71422899e-01 +1.24823824e-01 -1.15759246e-01 -2.78732121e-01 -6.94523286e-03 -3.97047959e-02 +1.78804338e-01 -6.88086003e-02 +3.44254255e-01 -1.25861047e-02 -2.95372933e-01 -6.44510910e-02 -1.96425259e-01 +1.82323501e-01 +1.36016950e-01 +3.79039735e-01 -8.20068344e-02 -1.49832249e-01 +1.23212188e-01 -3.54164355e-02 +1.87246054e-01 +1.15022242e-01 +2.51724064e-01 -2.07078069e-01 -1.23473495e-01 +2.17237592e-01 -3.63938600e-01 +2.53267139e-01 +6.71921372e-02 +7.81697333e-02 +2.81946778e-01 -8.81775543e-02 +4.09152508e-02 +6.02931604e-02 -2.64224023e-01 -2.08914652e-01 -3.51855047e-02 +1.62833318e-01 +1.56474620e-01 -1.17090337e-01 +1.03124548e-02 -1.89612091e-01 -1.17158011e-01 +2.51541704e-01 +6.98144883e-02 -7.80426338e-02 +1.67140868e-02 -5.95319122e-02 -1.58042997e-01 -2.77009994e-01 -7.58609101e-02 +6.71811476e-02 +3.33073944e-01 +1.39880717e-01 -3.45951058e-02 +2.24282295e-02 -6.21789582e-02 -1.50268763e-01 +1.55346319e-01 +8.85226429e-02 -1.07086942e-01 -1.01368926e-01 -1.07016750e-01 -8.36473107e-02 -6.22917078e-02 -2.23958299e-01 +1.85667992e-01 -5.78482486e-02 +1.13160484e-01 +1.07511386e-01 -5.28051816e-02 -8.92339349e-02 -1.89643577e-01 +5.18453233e-02 -1.75277457e-01 -5.05327098e-02 +4.07599583e-02 +8.39167461e-02 +3.10143605e-02 -9.45793018e-02 -1.09041624e-01 -8.31032917e-02 -2.13588223e-01 +1.62467435e-01 -1.83261037e-02 -1.35905698e-01 +1.91554278e-02 +2.22203601e-02 +9.95714590e-02 -1.89947728e-02 +7.02064037e-02 +1.40533019e-02 -7.21368045e-02 -1.38136134e-01 -1.49468094e-01 +5.78426868e-02 -1.00770853e-02 +9.50284973e-02 -2.00324267e-01 -7.13126210e-04 -3.72864641e-02 +3.60258631e-02 -1.33107007e-01 -1.56862468e-01 -7.36330375e-02 -4.36146706e-02 -6.11684136e-02 +1.78099260e-01 -1.10449426e-01 +1.73369497e-01 -3.35001014e-02 -8.96230713e-02 -1.40799051e-02 -2.94121709e-02 -7.73055106e-02 -4.74852137e-02 -8.13220162e-03 +7.14285970e-02 +5.50596341e-02 +1.01962715e-01 -1.00959748e-01 -1.21367738e-01 +3.13816704e-02 +4.34813313e-02 -5.22829480e-02 -1.63597435e-01 +9.23119187e-02 +1.04561247e-01 -1.61605388e-01 -1.75541863e-01 +8.10131151e-03 +1.32399738e-01 -3.03339381e-02 -1.11207314e-01 +1.19408714e-02 +1.27113223e-01 -2.08979353e-01 +1.29861012e-01 +2.46700674e-01 +1.52908534e-01 +4.91878018e-03 -2.58384347e-02 +5.84602430e-02 -2.37755645e-02 -1.03906989e-01 +4.26142141e-02 -5.04747853e-02 +1.42915696e-01 -1.92232192e-01 +2.36445144e-02 -1.12750314e-01 -7.22810701e-02 -2.37680793e-01 -7.10430890e-02 -2.91985646e-02 +1.97300280e-04 +1.49820819e-01 -8.68957788e-02 -3.08868103e-02 -6.78955391e-02 -1.14715863e-02 -1.22991338e-01 +6.50097057e-02 +9.98404175e-02 +4.15898673e-03 +1.47292912e-01 +9.73583460e-02 -4.56322804e-02 -2.93642227e-02 +1.13335168e-02 +1.11580417e-01 +4.03855694e-03 -2.22118292e-02 +2.08606988e-01 -1.58629999e-01 -9.13043246e-02 -1.73049510e-01 +4.55127656e-02 -7.19787106e-02 +8.08208138e-02 -1.94228157e-01 -1.28116146e-01 +8.57614875e-02 -1.22479787e-02 +6.65226057e-02 +1.37664095e-01 +4.23059836e-02 -2.19559655e-01 -8.37031901e-02 +1.45165324e-01 -1.42039940e-01 -5.04191816e-02 +1.51005909e-01 +7.23382682e-02 -1.51190877e-01 -7.77255073e-02 -1.72063127e-01 +1.30651385e-01 -2.19565537e-02 -3.31291445e-02 +1.34419471e-01 +1.65330246e-02 -5.09815440e-02 -1.94788948e-01 -1.18267417e-01 +4.26885150e-02 +1.09426178e-01 +2.75678426e-01 +1.40236422e-01 -9.55483764e-02 -1.17990591e-01 +9.85994861e-02 +7.30083734e-02 -1.39245810e-02 -1.24421656e-01 +1.28744394e-01 -7.83694461e-02 +2.34081671e-01 +8.96564797e-02 -1.13036089e-01 +1.42801669e-03 +1.41690969e-01 -1.54672205e-01 -2.74980254e-02 -6.30744174e-02 -2.10442647e-01 -5.07360250e-02 -3.32051106e-02 +6.44133985e-02 -1.23184957e-01 +3.08793262e-02 -3.98511589e-02 +1.23337671e-01 +7.17852488e-02 +9.37835202e-02 +5.03219292e-03 +9.88958776e-02 -5.45722898e-03 +2.92819161e-02 -7.22863004e-02 +4.43166792e-02 +1.81750916e-02 -1.04313105e-01 +2.99674645e-02 +1.04044169e-01 +3.39478366e-02 -1.09090425e-01 -4.75920811e-02 -1.08380191e-01 +1.33907229e-01 +8.18896890e-02 -1.05082296e-01 +1.55535236e-01 +2.86810156e-02 +6.53253496e-02 -1.53058738e-01 +8.20769072e-02 -8.63875598e-02 -5.28407022e-02 -8.51060525e-02 -2.59791128e-02 +5.12030125e-02 +2.33166426e-01 +7.06550032e-02 -4.97655980e-02 -8.09152126e-02 +6.45603612e-02 -1.58357725e-01 +1.57943442e-01 +6.44874275e-02 +7.37883225e-02 +7.27724358e-02 +6.90154582e-02 +1.50641158e-01 +1.28396317e-01 -3.35416123e-02 +1.50396153e-01 +1.98093131e-01 +1.05554432e-01 -8.95714909e-02 +1.72191218e-01 +2.65361052e-02 +1.46174833e-01 -1.33409813e-01 +1.03670441e-01 +2.28747749e-03 +4.69182320e-02 -1.22549497e-01 -5.53474352e-02 +4.85105067e-03 +3.18121240e-02 +1.62915602e-01 +2.04107091e-01 +1.39841661e-01 -2.81196296e-01 +3.04182060e-02 +1.52144030e-01 -1.09481297e-01 -3.86052728e-02 -5.56042828e-02 +3.92233692e-02 -4.85105142e-02 +5.57979308e-02 -2.44127419e-02 +1.66204855e-01 +1.50234550e-01 +3.01540811e-02 -6.50756881e-02 +1.64342746e-02 -2.29083657e-01 -3.35071720e-02 +1.42963147e-02 +1.16650447e-01 -2.16274932e-01 +7.88476095e-02 +4.56337482e-02 +2.45290950e-01 +1.24680825e-01 +1.19868189e-01 +6.43588379e-02 -8.14074576e-02 -1.17374346e-01 +2.84664392e-01 -4.35393453e-02 -1.21603705e-01 -1.38972029e-01 +5.30173853e-02 -1.42189339e-01 +1.65097564e-02 -1.19253762e-01 -1.90104738e-01 -1.58148393e-01 -3.04527432e-01 -3.81079391e-02 +2.56715238e-01 -2.79810697e-01 +1.96108773e-01 -1.85626239e-01 +1.32160127e-01 -2.50710342e-02 -4.80353832e-02 -1.19188376e-01 -1.08703934e-01 -1.33799583e-01 -9.61930975e-02 +1.16019227e-01 +3.02754361e-02 +2.06728335e-02 +1.59517303e-02 +8.08330253e-02 +4.80341576e-02 +1.75049752e-02 -5.29305004e-02 +1.64945677e-01 +1.66632831e-01 +2.61340174e-04 +2.74127312e-02 +8.59952420e-02 +6.09970354e-02 +1.52594060e-01 -8.70595500e-02 +6.29812032e-02 -4.82398551e-03 +2.56310832e-02 +1.21049836e-01 +4.99051251e-02 -6.40835837e-02 -1.32129014e-01 -2.57998519e-02 +1.33752488e-02 +5.47055230e-02 +3.15406695e-02 -1.04940511e-01 -1.86904669e-01 +1.84272170e-01 +7.90124610e-02 -2.28472739e-01 +1.47798881e-01 -1.28622219e-01 +6.59666434e-02 -2.02355728e-01 -1.45951405e-01 -1.36483282e-01 -3.40334997e-02 -1.82097375e-01 -2.19202667e-01 +1.89722270e-01 +8.36789235e-02 -6.32924438e-02 -8.81022364e-02 +1.92575585e-02 -5.06937020e-02 -4.00960781e-02 +5.83427809e-02 +1.43589318e-01 -1.23797111e-01 +1.82015955e-01 -4.86656539e-02 -3.02931517e-02 +3.78249143e-03 -5.40480614e-02 +4.43838462e-02 +1.94635332e-01 +7.30900317e-02 -2.11620137e-01 -1.54053703e-01 +1.52820975e-01 +9.18924138e-02 +6.44268543e-02 +1.43059820e-01 +7.63039887e-02 -5.52029535e-02 -2.14497820e-01 -1.63727462e-01 +9.11265537e-02 +1.48704201e-01 -8.66313726e-02 +9.40722451e-02 +1.40119702e-01 +5.61837805e-03 +1.23040929e-01 -6.79375455e-02 +1.16238207e-01 -7.88240135e-02 -1.40722618e-01 +5.84053844e-02 +6.40081316e-02 -1.11607760e-01 -2.39090145e-01 +4.38456982e-02 -6.45690598e-04 +1.03743687e-01 -3.82861823e-01 +2.33140867e-02 -8.63185301e-02 +2.90737063e-01 -2.02868670e-01 +3.93973798e-01 +7.64275640e-02 +8.17094743e-02 -2.92991344e-02 +4.91345488e-02 +7.37007260e-02 -1.42711215e-02 -8.85277800e-03 -6.87850788e-02 +1.38223693e-01 -2.15887967e-02 -1.23185866e-01 -1.84775263e-01 -2.46261537e-01 -1.50575146e-01 -1.28357694e-01 +5.95753342e-02 -7.26669282e-02 +1.53681606e-01 -2.72862613e-02 -2.38443427e-02 +6.00498356e-03 +3.44830379e-02 -4.15209800e-01 +6.74022287e-02 +1.70742542e-01 +4.13066745e-01 +1.50439367e-01 +7.15951473e-02 -2.49471977e-01 -2.62733679e-02 -4.43689413e-02 +2.94665962e-01 -2.12546766e-01 +2.34959096e-01 +9.83543694e-02 +7.82842189e-02 -6.37967065e-02 -7.34749436e-02 +2.69310791e-02 -8.66376683e-02 -1.21954381e-01 -1.72529042e-01 -3.43494043e-02 -1.01512693e-01 +1.19482316e-01 -3.69996503e-02 +7.92601109e-02 +1.20834699e-02 -4.68611941e-02 +1.08788237e-01 +6.42950414e-03 -6.56123981e-02 -1.12220250e-01 -8.97507370e-03 -6.54104799e-02 +8.42422470e-02 +4.45635989e-02 -4.50380612e-03 -3.39275673e-02 -7.46697709e-02 -7.83432126e-02 +1.06884770e-01 -8.48679319e-02 +1.22109510e-01 -3.15212995e-01 -7.34155625e-02 +4.02239472e-01 -1.27390459e-01 -1.88047532e-02 -1.20100349e-01 -1.50847599e-01 +1.02564581e-01 -3.33767235e-01 +3.99717763e-02 +1.02179229e-01 -2.59165555e-01 +6.15748689e-02 -2.30520800e-01 +1.21634975e-01 -1.32816134e-03 +2.33506151e-02 -8.30450580e-02 -1.41129792e-01 +6.69926107e-02 +1.11341804e-01 -1.20965607e-01 +5.73240817e-02 +2.43776087e-02 -1.66478068e-01 -2.44865671e-01 +1.52028546e-01 +2.95514520e-02 +1.26561930e-03 +2.16897249e-01 +1.64870974e-02 -7.67195299e-02 +7.43750855e-02 +6.55012131e-02 +5.18961959e-02 -3.31775732e-02 -1.18373036e-01 +1.59786507e-01 -2.00812742e-01 -9.41723585e-02 -6.27717301e-02 +6.80627748e-02 +1.36882350e-01 -1.70547143e-02 +5.91630228e-02 +1.03128098e-01 +1.31198568e-02 -9.32880268e-02 +1.15553714e-01 -6.87578246e-02 +3.91981870e-01 -5.43115810e-02 -8.61844122e-02 -1.25946209e-01 -7.45268017e-02 -1.02945030e-01 +6.50261790e-02 +1.53981503e-02 +3.23503405e-01 +1.13792069e-01 +2.61779595e-02 -1.80410147e-01 -1.06530629e-01 +8.92381296e-02 -2.48624831e-02 -7.15147406e-02 +1.22704469e-01 -3.37415189e-02 +2.40760028e-01 -9.51964334e-02 -5.56225851e-02 -4.18625250e-02 -8.38681087e-02 -5.57086915e-02 +1.49372742e-01 -1.64913386e-01 -6.86458871e-02 +6.92729130e-02 -8.41369703e-02 -1.98204264e-01 -1.17386915e-01 +2.10049599e-02 -2.50753835e-02 -1.30615517e-01 -1.87165111e-01 -1.80016272e-02 -8.38682503e-02 +2.00413074e-02 -6.12948351e-02 +4.06904481e-02 -5.96567951e-02 -3.68711241e-02 -4.50366214e-02 +3.82887423e-02 -1.48091957e-01 -7.02560460e-03 +5.63423783e-02 -7.85025433e-02 +4.91876081e-02 -1.71242096e-02 +2.35415742e-01 +4.30914015e-02 +2.22368509e-01 +5.64107411e-02 -1.48136750e-01 -1.32882863e-01 -1.84700310e-01 +2.67958105e-01 -7.76500851e-02 -7.62758851e-02 +1.53968725e-02 -3.78822349e-02 -1.59828156e-01 +1.25090733e-01 -4.68657091e-02 -6.68857396e-02 -1.21713676e-01 -4.62260796e-03 -7.63922930e-02 +1.33492470e-01 +1.91602148e-02 -6.48217648e-02 -2.37425104e-01 -3.83735299e-02 -5.77601679e-02 +1.27303243e-01 -2.04557013e-02 -1.14384130e-01 -1.93193346e-01 -3.81076597e-02 +1.74509495e-01 -3.14003713e-02 -1.23895898e-01 +1.07299566e-01 -1.75716132e-01 -2.51443297e-01 +7.91797489e-02 +1.40043840e-01 -2.64633715e-01 -5.51858954e-02 +1.80052239e-02 +1.33025661e-01 -1.31262109e-01 +2.05953896e-01 -1.41339839e-01 -8.95819664e-02 -1.80557817e-01 -2.84383707e-02 +2.19277993e-01 +1.13514625e-01 +1.03784494e-01 +2.64335275e-02 -1.71132192e-01 -2.41991580e-01 +1.08854115e-01 +4.92794365e-02 +8.98885578e-02 +4.94426489e-02 -1.81565106e-01 -4.72107641e-02 -4.72207665e-02 -1.72839269e-01 +1.22671105e-01 -1.92763582e-01 -1.46906540e-01 -8.94855484e-02 +4.23841290e-02 +1.86642054e-02 +1.53410928e-02 +1.06741793e-01 +2.41667731e-03 -3.65374517e-03 +7.49161690e-02 -8.49141181e-02 +4.75555360e-02 -1.43221289e-01 +7.62416795e-02 -1.13312393e-01 +9.97029841e-02 +8.55539069e-02 +1.54482350e-01 -1.07604623e-01 -5.59891462e-02 +5.09532057e-02 -8.77699628e-02 +3.84738110e-02 -1.34066418e-01 +1.10090010e-01 +8.14869627e-02 +8.44914019e-02 -2.02887341e-01 -2.37085670e-01 +2.57830527e-02 +3.40815894e-02 -1.13168105e-01 +6.05879426e-02 -1.62027627e-01 -2.05883637e-01 -3.80137324e-01 +1.66508481e-01 +9.63027123e-03 +2.83240497e-01 -5.96422981e-03 +1.41261190e-01 +2.20634356e-01 +5.37815355e-02 -9.42930952e-02 +8.55643824e-02 -2.25832745e-01 -6.55446351e-02 -1.82089120e-01 +1.76039726e-01 +3.94538464e-03 +8.00629109e-02 -9.18986462e-03 +3.68771702e-02 +1.08798198e-01 -3.55252326e-01 -6.39266754e-03 +1.18495174e-01 +2.11479187e-01 -9.12721157e-02 -4.56375442e-02 +1.20866202e-01 -4.65612225e-02 -3.11523527e-01 -8.18543583e-02 -1.05597049e-01 -3.45168337e-02 -1.57449227e-02 +2.67507911e-01 -5.44975884e-02 +8.11483487e-02 +2.99357325e-01 -3.75897437e-02 -1.94419041e-01 +1.08541772e-02 -1.94756538e-01 +1.09495334e-01 +1.33024463e-02 +1.77883089e-01 +4.15669344e-02 +1.29909828e-01 -6.30027205e-02 +3.32119688e-02 -4.05138507e-02 -2.75002681e-02 +1.04256101e-01 -2.88504660e-01 +1.00139439e-01 +2.16595769e-01 +2.45256331e-02 +5.09777255e-02 +8.82989913e-02 +2.44756877e-01 +1.15545034e-01 +1.38801113e-01 -1.25825256e-01 -2.67488569e-01 -7.29510374e-03 +1.94662660e-01 -2.79084504e-01 +1.16943702e-01 +2.02393532e-03 +1.90002285e-02 +7.65134096e-02 +1.37416705e-01 +7.26188198e-02 +8.01914632e-02 -3.06621164e-01 +1.28682494e-01 +2.29107603e-01 +1.19687706e-01 -6.12571575e-02 -5.60462661e-02 -1.52894512e-01 -3.05368919e-02 +1.92537665e-01 -2.05361135e-02 +3.89638270e-04 +1.49786383e-01 +1.01225369e-01 -1.35021135e-01 +1.55182436e-01 -6.86946809e-02 -2.97448874e-01 +2.02754050e-01 +1.84049103e-02 +6.56265579e-03 -4.74493019e-02 +1.57401904e-01 -1.20685354e-01 -1.54643014e-01 +2.32089967e-01 -1.01623319e-01 +1.61695406e-01 +1.38916701e-01 -9.22073200e-02 -8.59222189e-02 -1.89058304e-01 -1.04649581e-01 -1.45810127e-01 -1.70248677e-03 +5.73702082e-02 -9.48746428e-02 +7.94487298e-02 -1.95700765e-01 +7.62338936e-03 +2.04801545e-01 -1.35835871e-01 -9.57849342e-03 +2.44798109e-01 -1.63081318e-01 +2.54677087e-01 -2.44946763e-01 -5.92058785e-02 +7.80440047e-02 +2.48188645e-01 -2.89477669e-02 +2.79625691e-02 -2.18570054e-01 +2.02075695e-03 -2.09120110e-01 +1.56653941e-01 -2.29673058e-01 +1.32683456e-01 +1.72856167e-01 +1.32962808e-01 -2.67280135e-02 -1.52136637e-02 +1.83842614e-01 +7.60648847e-02 +1.45426378e-01 -1.89598411e-01 -9.20845270e-02 -6.72450615e-03 +1.85923100e-01 -9.91859436e-02 +1.56527057e-01 +3.47061865e-02 +7.94769963e-04 +1.24225192e-01 -5.66802807e-02 -1.57620743e-01 +1.35967597e-01 +1.82537176e-02 -4.04222943e-02 +8.61267149e-02 +3.80323455e-02 -1.36224777e-01 +3.31759788e-02 +2.88422763e-01 -5.91104105e-02 -1.15684457e-01 -1.72082201e-01 -8.57366845e-02 -1.38403505e-01 +1.22294910e-01 +1.33783380e-02 +1.97519556e-01 +2.29847245e-02 -1.29071116e-01 -2.38272939e-02 -2.12558582e-01 +1.03467330e-01 +1.74559467e-02 -1.16574004e-01 -2.07391575e-01 +3.87160219e-02 -6.74326494e-02 -1.20896965e-01 +1.16856741e-02 -1.17510997e-01 -4.61459048e-02 -1.81386113e-01 -1.45888403e-01 +1.50275454e-02 -1.50425747e-01 +1.13010086e-01 +1.25616610e-01 +1.47531390e-01 +8.59093890e-02 -6.66059256e-02 -1.38664857e-01 +2.14143167e-03 -9.36440974e-02 -2.97441008e-03 +1.33983806e-01 +1.91478759e-01 -2.09102780e-01 +1.16790645e-01 +2.33898789e-01 -2.00381160e-01 +5.49416915e-02 +1.49492785e-01 +3.07206154e-01 -9.37546268e-02 -1.59024641e-01 -8.69989470e-02 -1.61507621e-01 +2.19993144e-01 -3.71283665e-02 +7.83055797e-02 +9.74081084e-03 +3.40026803e-02 -1.86418034e-02 -1.77721336e-01 +3.26374546e-02 +6.19445145e-02 +1.85276061e-01 -1.44761041e-01 -3.37736271e-02 +3.42399674e-03 -1.27199441e-01 -7.72134354e-03 -5.04173599e-02 +1.35919169e-01 +1.43627793e-01 +1.14021368e-01 -4.11248915e-02 -2.22854391e-01 -8.74663889e-02 +1.84847340e-02 +7.90836141e-02 -2.89849136e-02 +3.51429475e-03 +5.19483425e-02 -1.42499786e-02 -2.27399915e-02 -1.71259865e-01 -1.31147161e-01 -1.02614574e-01 +1.16309598e-01 -5.92679996e-03 -2.12532654e-01 -3.86653468e-02 +3.98238339e-02 +3.03517655e-02 +1.69522822e-01 -8.23050961e-02 -5.17244302e-02 +2.07722466e-02 -1.10937178e-01 -2.69262731e-01 -2.20662177e-01 +9.68802646e-02 +9.72549692e-02 -2.00071976e-01 -2.47960500e-02 +5.19776866e-02 -1.95803791e-01 -1.21063190e-02 +8.51985812e-02 +3.25857401e-02 -1.04416527e-01 +1.16367629e-02 -3.37202288e-02 +1.85688958e-02 -9.37485322e-02 +2.22208992e-01 +1.87604144e-01 -1.97222322e-01 -9.23535973e-02 +3.53527218e-02 +2.02646740e-02 -1.05206840e-01 -2.10289598e-01 -3.58658135e-02 +1.01177618e-01 +1.86951771e-01 -5.86648248e-02 +2.82619540e-02 -7.81050771e-02 -2.07620695e-01 -7.75259361e-02 +8.44164118e-02 +1.67562634e-01 -1.13373443e-01 +1.90228939e-01 +2.27507189e-01 -1.81007147e-01 -3.83276008e-02 -1.34263441e-01 -1.86707959e-01 -6.37215897e-02 +4.56132032e-02 +1.38687506e-01 +1.47472501e-01 +2.01788843e-01 +1.25022009e-01 +1.90423414e-01 -1.06402807e-01 +5.60003472e-03 +2.13393927e-01 +8.37288201e-02 -5.68341613e-02 -1.19193859e-01 +1.00425623e-01 +1.91515654e-01 +1.36204399e-02 -4.99278679e-02 +2.76660663e-03 -1.05788797e-01 +8.30646008e-02 -1.76653281e-01 +4.27980050e-02 -2.98963417e-03 +1.48150340e-01 -1.45546660e-01 +1.89873666e-01 -2.18433253e-02 +2.38970621e-03 +3.05153370e-01 -6.19822592e-02 +4.92841657e-03 -5.37877232e-02 -1.98099483e-02 -2.05695376e-01 +2.04814985e-01 +2.52533071e-02 -2.64654607e-01 -4.61785905e-02 +4.48676310e-02 +3.29531848e-01 -1.49508640e-01 -1.22812890e-01 +1.36184797e-01 -2.79430271e-04 +1.13417111e-01 +1.85800213e-02 +3.32659513e-01 -7.90552944e-02 -1.65874436e-01 +9.68796574e-03 -3.20260346e-01 +9.28710178e-02 -3.42254005e-02 +1.65792793e-01 -2.25916117e-01 -3.25151049e-02 +1.23620830e-01 -8.21911171e-02 -2.84656398e-02 +1.21586561e-01 +1.33921355e-01 -1.48490101e-01 +5.69467107e-03 +3.22289206e-02 -1.46337792e-01 -7.37896040e-02 -1.05225623e-01 +8.68059918e-02 +2.03453660e-01 -2.28794888e-02 +1.48071766e-01 +5.86526617e-02 -7.38148615e-02 -2.84217566e-01 -1.46102875e-01 +1.64564904e-02 -5.89482300e-02 +2.75410339e-02 -3.12045902e-01 +1.03569545e-01 +3.73213273e-03 +1.36475787e-01 -1.46321163e-01 -6.55388236e-02 -2.21466884e-01 -3.05288192e-02 -1.48932606e-01 -1.72477111e-01 -2.34818086e-01 +1.87755376e-01 +1.53113484e-01 +2.59811014e-01 +6.48364574e-02 +1.59587145e-01 +1.58025548e-01 -5.10818623e-02 +2.74446271e-02 +6.11652844e-02 -1.16232686e-01 +5.77139407e-02 -9.71500389e-03 +4.50753756e-02 -1.05657637e-01 -1.06991500e-01 -1.74016103e-01 +1.85515523e-01 -2.70276926e-02 +6.22465648e-02 -5.66760413e-02 +6.32596016e-02 -1.99170485e-02 +1.01790309e-01 -6.19516559e-02 +1.12228263e-02 -8.10305551e-02 +1.82118922e-01 -1.65119901e-01 +5.40459193e-02 -1.34225339e-01 +3.83753446e-03 -2.30794325e-01 -7.53573030e-02 -1.22460738e-01 +7.97469839e-02 +1.45358711e-01 +8.55100378e-02 +2.66414392e-03 -6.90284297e-02 +4.93197292e-02 -1.28689241e-02 +2.11870983e-01 +8.70200247e-02 -7.87748024e-03 -4.15119231e-02 +4.73837890e-02 -5.70159368e-02 -3.69674377e-02 -1.80501461e-01 -2.68045515e-02 +1.23897873e-01 -1.44447595e-01 -5.85712790e-02 -9.31730345e-02 -2.74438083e-01 +8.76966193e-02 +1.65754166e-02 +1.43245429e-01 +1.42115140e-02 +8.35748985e-02 +1.17022641e-01 -5.45255505e-02 -5.18868640e-02 +8.62754211e-02 -9.88941342e-02 -4.04231297e-03 -1.40763059e-01 -2.21111119e-01 +1.41674489e-01 -8.11351836e-03 +2.09573470e-02 +8.99650678e-02 -7.96496347e-02 -1.52377442e-01 -1.25521004e-01 +5.97024597e-02 +9.88054499e-02 -1.45192087e-01 -2.18093783e-01 +1.16044469e-01 -7.72945434e-02 -1.40048265e-01 +1.64851725e-01 -7.51311630e-02 -3.31267738e-03 -2.75502987e-02 +1.15658045e-01 +2.06806399e-02 +2.20778491e-02 +2.25758199e-02 +4.13080528e-02 -4.06213328e-02 -1.41291961e-01 +2.31477261e-01 -7.57311732e-02 +4.26645530e-03 -1.87968593e-02 +2.06862614e-02 +1.63584165e-02 +2.00822484e-02 +8.58615115e-02 -8.47293660e-02 -5.68819093e-03 +3.20050046e-02 -5.07098548e-02 -3.27036195e-02 +6.57729059e-02 +6.57727569e-02 -6.25167713e-02 -1.34428963e-01 +1.06028505e-01 -7.59309381e-02 +1.06418423e-01 -5.72768897e-02 -1.43301964e-01 -3.49761732e-02 -6.60176873e-02 +1.99863166e-01 -5.52547425e-02 -4.75662164e-02 +6.38096556e-02 -5.05684204e-02 -1.16327345e-01 +2.21754983e-01 +4.29335646e-02 +1.78095281e-01 -3.49656492e-02 +4.06562164e-02 -3.49410027e-01 +1.68204661e-02 +8.49647522e-02 -2.64620106e-03 +4.55982760e-02 +6.18622117e-02 +6.53337911e-02 +1.52918175e-01 +2.53732596e-02 +2.39239171e-01 +1.27032800e-02 +1.17181651e-01 -1.45662427e-01 +6.40519559e-02 -4.59993482e-02 -2.21304774e-01 +1.45460501e-01 -2.87438780e-01 -1.44320309e-01 +1.52643416e-02 -9.38651860e-02 -8.39329585e-02 -1.06764533e-01 -2.74327956e-02 -4.75880429e-02 -1.15087830e-01 -1.04939707e-01 +1.23886675e-01 +1.05452970e-01 -8.73439163e-02 -1.85694709e-01 +9.75731686e-02 +1.71844393e-01 +3.00301731e-01 -1.71345414e-03 +1.22755073e-01 -4.86646444e-02 +1.69947937e-01 -3.44567224e-02 +2.50517368e-01 -1.59111410e-01 +1.15264475e-01 +7.35240579e-02 +1.69820711e-01 -2.95308203e-01 -6.31822050e-02 +2.02599347e-01 -1.04820900e-01 -6.01873212e-02 +1.65119283e-02 +2.54201770e-01 -2.52721518e-01 +1.48281336e-01 +7.51635572e-03 -1.45387203e-01 -1.62234411e-01 +4.37239595e-02 -1.13573514e-01 +2.82284524e-02 +4.52784337e-02 -2.31062360e-02 -1.74710229e-01 -2.59236395e-01 -1.69799820e-01 -1.12034678e-01 -1.01657142e-03 +1.29447237e-01 -6.48010289e-03 +2.26906016e-02 +2.17215344e-01 -1.64642677e-01 -1.42466173e-01 -2.15720117e-01 -8.01145732e-02 -1.49820387e-01 +1.56332254e-02 +2.62633741e-01 -1.98526397e-01 +1.30614853e-02 -1.11753017e-01 -5.76178432e-02 +5.69242574e-02 -3.94078624e-03 -4.65528518e-02 +6.97782710e-02 -1.37644678e-01 -1.53827861e-01 +8.70385319e-02 +2.12039396e-01 -6.71799481e-02 -1.28556825e-02 -5.30695133e-02 -1.43907800e-01 -4.01106142e-02 +9.60730314e-02 +4.07380871e-02 -1.78297102e-01 -2.09052876e-01 -5.67154167e-03 +1.69604778e-01 -2.73535788e-01 -1.63108885e-01 +2.19826311e-01 -1.58056840e-01 -1.96467519e-01 -9.52332988e-02 -2.44550426e-02 +2.39631683e-01 +1.32208779e-01 -1.39956493e-02 +1.33751377e-01 +1.58722773e-01 +2.72641391e-01 +1.99463874e-01 -1.75550748e-02 -7.68999681e-02 +1.49347022e-01 -6.10436946e-02 -3.56167108e-02 +7.12846071e-02 +3.14188823e-02 -2.97931045e-01 -2.01932371e-01 +1.37000948e-01 -1.72978058e-01 +2.38098264e-01 +2.29010135e-01 +1.64452344e-01 -7.37806689e-03 -4.44692895e-02 -7.48777166e-02 -4.51027006e-02 -8.42156559e-02 -1.04531907e-02 +6.42588958e-02 +8.86129681e-04 -2.65850008e-01 +1.91662222e-01 +2.28108704e-01 -9.75965559e-02 +2.33630285e-01 +2.25619841e-02 +5.11148609e-02 +1.04986466e-01 -2.61128455e-01 -5.12737297e-02 +2.18900263e-01 +7.78860673e-02 +1.13467291e-01 +1.61929280e-01 +3.58863175e-02 -1.23803563e-01 -1.33391604e-01 -1.05480969e-01 -9.14986655e-02 -8.58314484e-02 -1.20994069e-01 +2.11090654e-01 +2.10673109e-01 +2.82193303e-01 -1.81356847e-01 -1.06247284e-01 +6.13020211e-02 +1.85085580e-01 -1.52269393e-01 +2.29977593e-02 +9.92705747e-02 +2.56709531e-02 +2.39948332e-01 -1.54208720e-01 +2.31753979e-02 +2.64826506e-01 +1.61260203e-01 +1.98595360e-01 -7.46600479e-02 -6.11137822e-02 +2.74527311e-01 -1.52755693e-01 -1.11570604e-01 +9.46604239e-04 -2.96520963e-02 +1.12702176e-01 +9.68327895e-02 -7.19789369e-03 +3.70914377e-02 -1.02734409e-01 +7.39968270e-02 -1.23561226e-01 -5.05965613e-02 -3.67604010e-02 +2.64396638e-01 +3.90012413e-02 -3.40395272e-02 +1.61821797e-01 +6.17426783e-02 +3.39329094e-01 -1.07128061e-01 -1.68669775e-01 +1.46049380e-01 +9.75669622e-02 -1.64088815e-01 +2.31821939e-01 +1.30953923e-01 -1.35003492e-01 -1.69733316e-01 +2.34679490e-01 +7.17387423e-02 -1.91796347e-02 -3.63477021e-02 +1.39845297e-01 -2.18366787e-01 +6.96614534e-02 -1.90173075e-01 +1.59682602e-01 -2.11483240e-01 -1.37736216e-01 -1.87830269e-01 -2.68081456e-01 -2.18447298e-02 +1.74234703e-01 +8.34158137e-02 -3.91815864e-02 -3.43704298e-02 -4.23486345e-02 +9.83441696e-02 +1.66887164e-01 +2.43931189e-01 +1.24761708e-01 -1.37965456e-01 +5.57210818e-02 +2.08842412e-01 -4.30879407e-02 +3.25488061e-01 -4.95366901e-02 -5.31694777e-02 +1.13876954e-01 +1.49531930e-03 +2.07951427e-01 -1.47193372e-01 -9.92952064e-02 +2.46437103e-01 +6.99809119e-02 +7.83799887e-02 -1.02021143e-01 +8.77713338e-02 -1.27221331e-01 -1.60454214e-01 -1.47919610e-01 +1.04961246e-01 +1.38495192e-01 -1.31877869e-01 +1.49429724e-01 +1.18743576e-01 -2.14726374e-01 -6.21095523e-02 -4.55243774e-02 +2.94150919e-01 -8.17655120e-03 +1.50140986e-01 +1.59711987e-01 +3.91097255e-02 +2.82912198e-02 -1.36913285e-01 -2.46527735e-02 +1.27054363e-01 -1.52387127e-01 -1.93877351e-02 -9.23037454e-02 -1.14275858e-01 -1.17282555e-01 -1.96896284e-03 -1.97801754e-01 -1.87619776e-01 +2.93143153e-01 -7.33031556e-02 +1.04513511e-01 +3.54354605e-02 -1.15049139e-01 +1.27005503e-01 -4.51189280e-02 +2.73072302e-01 -6.11111522e-03 +1.08663321e-01 -2.22039416e-01 +8.13294947e-02 -7.46747404e-02 -3.13403606e-02 +5.41518070e-02 -9.29728076e-02 +1.25780731e-01 +9.17758867e-02 +5.48863299e-02 +1.09500386e-01 -1.55250162e-01 +5.13151586e-02 -4.96041812e-02 +8.97955894e-03 -5.72079327e-03 -7.71495551e-02 -2.23862857e-01 -9.71308500e-02 -3.35370935e-02 +2.78187208e-02 +4.37549837e-02 -1.93396918e-02 +1.85365319e-01 -9.97624844e-02 -1.08029373e-01 +5.94938500e-03 +1.84884071e-01 +3.23826857e-02 -2.33274549e-02 -1.19020171e-01 -1.29700065e-01 -4.86587249e-02 +1.21863745e-01 -3.24729681e-02 -1.22027822e-01 +8.01982433e-02 -9.55489948e-02 +1.37069449e-02 +9.16651189e-02 +4.99787182e-02 -1.70233488e-01 -9.20884088e-02 +9.22203958e-02 -1.43505558e-02 +8.28134865e-02 +5.01067154e-02 +1.22189485e-02 +1.81600973e-01 -9.51613709e-02 -2.37656366e-02 +1.65184096e-01 -6.85784966e-02 +2.77217418e-01 +2.91523427e-01 -6.92688599e-02 +2.68929034e-01 +4.97592241e-02 +1.03061683e-02 +1.05774432e-01 +1.22867614e-01 -7.70973042e-02 +8.79335329e-02 -3.46321650e-02 -2.18652803e-02 -5.72946444e-02 -1.05037011e-01 +9.14784819e-02 -1.25011027e-01 -7.60149956e-02 +3.34893286e-01 -7.72578735e-03 +7.39773363e-02 +1.43107459e-01 +2.13014204e-02 +8.15988705e-02 +1.51843518e-01 +2.37818703e-01 +4.11567092e-02 +2.43321419e-01 +4.75796722e-02 -1.51639193e-01 +5.04614376e-02 -1.53990820e-01 -1.07963227e-01 -3.71132791e-02 -1.42299861e-01 +1.63539290e-01 +5.09706885e-02 +3.33982438e-01 -4.88951616e-02 +2.02479601e-01 +1.35094533e-02 +1.87156517e-02 -4.10532318e-02 -1.09301209e-01 +2.24664528e-02 -1.58195764e-01 -1.53306630e-02 +2.20864177e-01 -6.02460355e-02 -1.71147496e-01 +9.51560885e-02 +2.07442567e-01 +4.70814109e-02 +4.41059358e-02 +1.51125208e-01 -1.25966340e-01 -8.14582556e-02 -1.01076514e-01 -8.58006030e-02 -2.78610945e-01 -9.72352326e-02 -3.66759330e-01 +1.03023835e-01 +2.33018175e-02 +2.50202596e-01 +1.04978748e-01 -3.11396450e-01 +1.13741510e-01 +1.55025899e-01 +1.28904358e-01 -4.87896726e-02 +1.20671235e-01 +2.01516613e-01 +1.82103574e-01 +2.19382942e-01 +4.10161726e-02 +1.10151082e-01 -1.49547487e-01 -2.20222428e-01 +2.16090351e-01 +2.07514346e-01 -7.30367899e-02 -3.26980241e-02 -1.59789369e-01 +1.42299995e-01 +5.48831560e-02 -1.44493788e-01 -2.89506853e-01 -2.07932312e-02 -2.81979274e-02 +1.60430506e-01 +6.36182204e-02 +7.33099282e-02 +1.30417794e-01 +2.76222080e-01 +2.68370330e-01 -3.42021227e-01 -5.63332662e-02 +3.10323257e-02 -5.14935553e-02 -8.48065242e-02 +1.47018597e-01 -2.08122164e-01 +1.58529337e-02 -9.01645124e-02 +1.61194563e-01 -2.15397358e-01 -1.69515386e-01 -1.98993415e-01 +5.20867109e-02 -1.12046152e-01 +3.30868289e-02 +1.04110107e-01 +7.39389807e-02 +2.00808212e-01 +1.20365754e-01 -1.00712841e-02 +9.22480747e-02 -2.46157218e-02 -6.35503978e-02 +1.66749060e-01 +9.90062654e-02 -1.02739446e-02 +1.52691096e-01 +2.68429279e-01 +3.10351024e-03 -1.18612126e-01 +1.98792651e-01 +6.53624386e-02 +8.99338946e-02 +1.71797164e-02 +9.11140591e-02 -9.61312428e-02 -4.22442406e-02 -9.75242108e-02 +1.68061525e-01 -3.72606218e-02 -1.28854126e-01 -5.69609925e-02 -1.14749279e-02 +7.68432468e-02 +1.05833001e-01 +5.11926077e-02 -6.32707924e-02 +1.32238977e-02 -2.62843370e-02 +3.37806642e-02 +2.54411697e-01 +5.12800850e-02 +5.51275946e-02 -4.99365479e-02 -6.68190345e-02 -5.77413179e-02 +5.08344360e-02 +1.43054485e-01 +5.12022749e-02 -2.23591715e-01 +1.48602977e-01 -2.13487297e-01 +8.75700265e-02 -2.74619788e-01 +4.40987153e-03 -2.33830258e-01 +2.93789860e-02 +5.77220321e-03 -6.76655993e-02 +6.10059910e-02 -1.69557840e-01 -1.03293076e-01 -1.18912257e-01 +7.89328516e-02 +2.17538819e-01 +3.26763242e-01 -1.93380207e-01 +3.46643686e-01 -1.27235249e-01 -3.43142390e-01 -2.07934514e-01 -4.66142930e-02 +3.23233485e-01 -9.73059088e-02 +4.69916239e-02 +1.52836936e-02 +9.97479707e-02 +6.34365007e-02 -2.45126113e-02 -2.90822275e-02 -4.25754003e-02 +5.27123250e-02 -1.36242151e-01 +2.25643560e-01 +2.01117828e-01 -2.47294195e-02 +1.71167940e-01 -4.55478281e-02 +4.25802991e-02 -1.41446888e-01 -8.28849822e-02 -6.94902390e-02 -1.70949534e-01 -2.59047318e-02 +1.56690110e-03 -1.49604023e-01 +5.95601499e-02 +4.00785692e-02 +8.57417732e-02 -2.85966516e-01 -2.18282282e-01 +3.92534770e-02 +3.26585248e-02 +1.77505277e-02 +7.45260864e-02 +2.80748792e-02 +7.48075545e-02 -2.22528338e-01 +9.98548344e-02 -1.71001375e-01 -1.77955896e-01 -4.33700271e-02 +8.51842538e-02 +1.51658971e-02 +1.77365229e-01 +1.02664098e-01 +1.50377497e-01 +2.27949992e-02 +2.25232411e-02 -3.46420966e-02 -7.03773424e-02 -2.30675727e-01 +3.87534760e-02 +4.57870848e-02 -7.23094866e-02 -1.38818324e-01 +2.04123661e-01 +1.40059769e-01 +4.62893806e-02 +1.20621838e-01 -1.81709826e-01 +9.76935402e-02 +8.74825120e-02 -3.28390598e-02 +9.28417444e-02 +6.34797215e-02 -6.90255314e-02 +7.81933889e-02 +1.41555279e-01 -1.44565925e-01 -2.04406232e-01 -1.59587711e-02 +6.45596012e-02 -1.77228361e-01 -1.05786465e-01 +8.31720829e-02 +4.14501615e-02 +8.37931931e-02 +1.08771212e-01 -1.08234614e-01 -7.20852241e-02 -9.78223309e-02 -2.56993175e-01 +2.06865277e-02 +7.28418604e-02 +5.77814281e-02 -9.64740515e-02 -1.25097670e-02 +1.87856689e-01 +1.58912405e-01 -9.19672567e-03 +5.07924221e-02 -1.25472799e-01 +1.16356410e-01 -1.55826464e-01 +1.25948146e-01 -2.32937843e-01 -2.29169413e-01 +1.25726953e-01 -7.39457756e-02 -7.16045573e-02 +1.30701259e-01 +1.80446476e-01 -1.77225158e-01 -4.19036038e-02 -9.48861912e-02 +1.14435293e-02 +6.31785169e-02 +1.55672997e-01 +4.99412492e-02 -4.79819663e-02 -1.65356621e-01 +6.98786899e-02 -2.89064080e-01 -1.13863088e-01 -1.93091244e-01 -6.66788518e-02 -6.76044598e-02 +5.77935465e-02 -2.20320020e-02 +1.99547440e-01 +4.31153327e-02 +4.54578809e-02 +2.31386393e-01 -2.49707446e-01 +4.06845845e-03 -5.73097914e-02 -1.17128998e-01 -1.10127041e-02 +1.79574668e-01 -9.54252556e-02 +3.30267772e-02 -2.28548169e-01 -2.26678867e-02 -3.12109049e-02 -9.86075923e-02 -5.80683760e-02 -1.43752649e-01 +1.85517162e-01 +2.71109968e-01 -1.42786577e-01 -1.23598278e-01 -2.16851488e-01 +1.16912290e-01 -1.68015853e-01 -1.05027996e-01 -1.00038290e-01 +1.03875317e-01 -2.85443850e-02 +6.44447729e-02 +3.06986459e-02 +6.43060207e-02 +7.26627111e-02 -9.84700546e-02 -9.88489613e-02 +5.14020212e-02 -1.50121421e-01 +2.25427389e-01 +1.30905345e-01 +7.28531927e-02 -8.42399821e-02 +7.10134301e-03 +8.65775198e-02 +9.96730924e-02 +1.75538391e-01 +2.76976049e-01 -1.83204204e-01 -9.88941733e-03 +1.27191842e-01 +9.03499573e-02 +7.41558149e-02 -3.02424934e-02 -3.73545736e-02 -1.70577422e-01 +1.73633367e-01 +6.29805177e-02 -5.20852841e-02 +5.30328415e-02 +5.83364256e-02 -1.21192560e-01 +1.46978036e-01 -1.30332622e-03 +3.76423597e-02 +9.61780101e-02 -1.52580917e-01 +5.54535054e-02 -4.45453860e-02 -7.27011263e-02 +2.15136081e-01 -2.33904272e-02 +2.68784255e-01 +3.83604728e-02 -1.12777472e-01 -3.13393325e-02 +1.15834542e-01 +1.54497728e-01 -2.30701864e-01 -1.90236896e-01 +1.26636535e-01 +2.38396555e-01 -3.63498926e-02 -1.34173110e-01 -6.25175163e-02 -5.83510399e-02 -9.35785547e-02 -4.32705805e-02 -2.51686927e-02 +1.92433149e-02 -1.81472048e-01 -2.32368827e-01 +9.50547829e-02 -5.87373227e-02 -4.60412279e-02 -2.90614218e-02 +2.53603637e-01 -1.48458272e-01 -1.11378379e-01 -3.41837674e-01 -3.08590859e-01 -1.16513837e-02 +1.88936666e-01 +6.75779879e-02 -3.61525714e-02 -1.61704212e-01 -7.92059451e-02 +5.54830655e-02 -6.81409910e-02 +2.74700392e-02 +3.23219597e-02 -1.27060950e-01 -1.93648338e-01 +1.31493837e-01 -6.85120448e-02 -3.67316194e-02 -1.01244509e-01 +6.25012070e-02 -3.58832851e-02 -1.05204917e-01 -9.58660990e-03 -7.04799891e-02 -2.18263436e-02 +1.99256063e-01 -3.65784504e-02 -9.89930332e-02 +1.62400514e-01 +1.15137286e-02 +9.13337618e-02 -6.81889728e-02 -1.03570588e-01 -9.72100496e-02 +7.97755271e-03 -1.80733278e-01 +5.60529158e-02 +2.27881782e-02 +3.07831410e-02 -1.27692580e-01 -1.13364354e-01 -9.97109860e-02 +1.39160976e-01 -1.01802252e-01 -1.19303487e-01 +2.19779268e-01 -5.44041917e-02 +2.39097357e-01 +1.32277250e-01 -3.23177911e-02 -9.10254940e-02 +1.28351763e-01 -8.33226368e-02 +1.75445497e-01 +7.08126202e-02 +1.38309211e-01 +2.43197575e-01 +6.04014173e-02 -2.49319285e-01 +1.68216750e-01 -1.68784872e-01 +1.90260664e-01 -6.62643537e-02 +1.14384359e-02 -1.16481908e-01 +2.13794410e-01 +2.51766685e-02 -1.38629794e-01 -7.40899593e-02 +1.72899384e-02 -4.81071472e-02 -1.01857468e-01 +3.26296799e-02 +9.01044533e-02 -4.25652415e-02 +2.83449262e-01 +9.84130278e-02 -4.45693592e-03 +9.74498391e-02 +8.54017437e-02 -9.45884287e-02 -3.22600342e-02 +6.94032311e-02 -1.32695019e-01 +3.45121562e-01 +2.13116810e-01 +1.55101910e-01 -2.90337969e-02 -1.71623603e-01 -8.21907632e-03 +5.55554405e-02 -2.56339856e-03 -1.08021190e-02 -1.60252154e-01 +2.46087402e-01 -5.17641306e-02 +1.94771379e-01 +1.67615831e-01 +4.71739843e-02 +1.76186740e-01 -2.52805144e-01 +3.15982044e-01 -1.52926585e-02 -2.64207944e-02 -3.52472924e-02 +1.50557950e-01 -4.25652675e-02 +2.76506245e-01 +8.07417207e-04 -1.18297853e-01 -1.74647570e-01 -2.02851593e-01 +1.89222634e-01 -9.14390683e-02 +7.54892305e-02 -1.08236996e-02 -1.64015427e-01 +1.14622340e-01 -1.04856297e-01 +2.13298246e-01 -1.13931656e-01 -2.86801368e-01 +9.66645107e-02 +1.02599226e-01 +4.67082970e-02 +1.71977922e-01 -2.78734062e-02 +3.50382850e-02 +3.77925783e-02 -6.63133115e-02 -1.03312135e-01 -1.59347430e-01 -4.35448214e-02 +8.21612626e-02 +5.17363772e-02 -9.48961005e-02 -2.23746568e-01 -3.95594180e-01 +9.75719392e-02 +1.01632677e-01 +5.56590073e-02 -1.23480201e-01 -6.66301250e-02 -2.72434242e-02 -8.32550079e-02 +7.76531082e-03 +2.41175160e-01 +1.88674495e-01 +1.65549085e-01 +1.30098611e-02 +2.16679633e-01 -8.40964392e-02 +3.95693555e-02 +2.88511626e-02 -1.43732190e-01 +3.06081511e-02 +9.72545817e-02 +7.96749890e-02 -1.69741005e-01 +2.69114762e-03 -3.99420112e-02 +6.62647635e-02 +3.36782001e-02 -7.81909525e-02 -1.88825980e-01 +5.77319898e-02 -9.38286036e-02 +1.25333652e-01 +1.23374254e-01 +1.21882800e-02 +1.19327158e-01 -2.28050426e-01 -1.33468017e-01 +8.24556574e-02 +1.55438289e-01 +1.02849277e-02 +1.17836840e-04 +9.91447717e-02 -9.85244587e-02 -9.44624916e-02 +1.34829119e-01 +1.25807822e-01 +1.11550741e-01 +1.70539524e-02 -2.49910019e-02 -1.00483276e-01 -1.33899748e-01 -2.07836609e-02 +5.69480471e-02 -7.35069513e-02 +1.91286638e-01 -1.19800590e-01 +1.46326512e-01 +3.37577090e-02 +1.92975253e-01 +1.46287486e-01 -2.27254972e-01 -6.50440156e-02 -1.09954616e-02 +1.35245189e-01 +1.94349363e-01 -4.42058267e-03 -1.39321182e-02 -2.18229517e-02 -8.20820406e-02 +9.55772847e-02 +1.05733238e-01 -8.27233940e-02 -8.49627256e-02 +1.23619802e-01 +1.50554422e-02 +1.74674213e-01 -1.47990167e-01 -8.18485320e-02 -3.42538618e-02 +1.37312949e-01 +7.43094608e-02 -8.49838704e-02 +1.88573301e-01 +1.44715374e-02 -4.65235896e-02 -3.26456502e-04 +1.28910141e-02 +1.51485145e-01 +1.38175488e-01 +1.03754237e-01 +8.32919031e-02 +1.52400330e-01 -5.32908626e-02 +2.16759026e-01 +3.82614620e-02 +5.24969399e-02 +1.31537823e-03 +8.81246477e-02 +1.77907348e-02 -1.09008931e-01 +7.17058107e-02 +1.91267505e-01 +4.85667400e-02 +6.36254717e-03 -9.72919464e-02 +1.20712936e-01 -5.60419783e-02 -1.67827532e-01 +1.42951354e-01 +1.21179715e-01 -1.04491688e-01 +2.26672098e-01 -1.56350523e-01 +1.18372791e-01 -2.26092473e-01 -4.73534241e-02 +1.24736801e-01 -9.26179513e-02 -4.91661876e-02 +1.06471382e-01 -1.17993809e-01 -6.14289790e-02 +4.69132327e-02 +3.25233378e-02 +3.52888070e-02 +8.20314810e-02 +7.11780563e-02 +7.99112171e-02 -2.58982163e-02 -1.37574852e-01 -8.92050713e-02 -9.53707024e-02 +1.62218213e-01 -2.32665539e-02 +9.71463248e-02 -2.71060597e-02 -4.93643666e-03 -2.52275825e-01 +1.66575313e-01 +1.64869260e-02 -1.01090416e-01 +2.14212656e-01 -1.00018598e-01 +2.52462626e-01 +1.44349411e-01 +2.93913390e-02 -2.03310996e-02 +5.90373352e-02 -1.84560493e-01 +1.32425532e-01 +2.57427152e-02 +6.15046844e-02 -6.47357255e-02 -1.35588095e-01 -1.28799707e-01 -1.04109772e-01 -1.41258106e-01 +7.27125853e-02 +5.16142212e-02 -1.13614768e-01 +1.40636966e-01 +1.62714943e-01 -2.62298249e-02 +2.22433284e-02 -9.88154858e-02 +1.13241293e-01 +1.68785855e-01 -3.84185240e-02 +9.95847210e-02 -2.80340970e-01 +6.35346249e-02 +2.17195943e-01 +4.99060843e-06 -1.71070620e-01 +3.08313463e-02 -1.52762309e-01 +6.16929866e-02 +6.75390661e-02 -2.46448845e-01 +4.05014046e-02 -2.61326313e-01 +1.17082195e-02 +1.42261863e-01 -2.06473351e-01 -1.52303139e-02 -2.34283973e-02 +2.04764917e-01 +8.41900930e-02 +1.12976611e-01 +1.21534966e-01 -1.72658056e-01 -1.14469394e-01 +7.88560137e-02 +1.37731284e-01 -2.11708099e-01 -1.57670707e-01 +1.11129895e-01 -5.11563644e-02 +2.08122492e-01 +4.05155629e-01 +1.02572978e-01 -1.40621468e-01 +4.00149412e-02 +1.87375527e-02 +2.56531984e-02 +9.32712629e-02 -2.75029600e-01 +3.53973284e-02 -1.67529047e-01 -1.55262187e-01 +1.55335754e-01 +2.86232352e-01 -1.49430692e-01 +4.52189222e-02 -2.43045893e-02 -9.47452933e-02 +8.72809812e-02 +1.01045065e-01 +1.01365067e-01 +1.12644434e-01 -7.13687614e-02 +1.31017074e-01 -1.76753506e-01 +7.29560945e-03 -2.05919206e-01 +2.68145632e-02 -3.57685387e-02 +1.08723260e-01 -8.18418413e-02 +6.33928478e-02 -9.46990997e-02 +6.34146929e-02 -1.58921089e-02 -4.60769385e-02 -1.51980758e-01 -5.44326194e-02 +9.91570204e-02 -3.25806402e-02 -2.98962474e-01 +4.52651046e-02 -1.67785231e-02 -6.62871227e-02 +4.02810089e-02 -8.54093675e-03 -2.95133814e-02 -9.70319435e-02 -1.44015059e-01 -5.61430398e-03 +1.45522624e-01 -3.81168388e-02 -9.20989811e-02 -8.92139785e-03 -2.10627735e-01 +1.28049880e-01 +1.05183548e-03 +1.97179079e-01 +1.09539270e-01 -6.99388161e-02 -6.37671631e-03 +2.66176015e-02 -1.22915991e-01 +1.97503656e-01 -5.77246137e-02 +1.71241432e-01 -2.33720541e-02 -9.42188129e-02 -1.51306361e-01 +1.66005105e-01 +1.99197475e-02 +1.07833846e-02 +2.27307603e-02 +1.86957613e-01 +1.91321149e-01 +3.59403789e-01 +3.23207021e-01 -7.45732524e-03 +1.08457379e-01 +1.25134826e-01 -1.87631287e-02 +8.98656845e-02 +4.90738936e-02 -2.09001735e-01 -4.04835083e-02 -2.38803193e-01 +3.57593484e-02 -9.61913839e-02 +8.44242498e-02 +8.67617726e-02 +7.46661350e-02 +3.31341475e-02 -1.18665844e-01 +1.97590232e-01 -2.14358810e-02 +3.03391870e-02 +3.24226171e-02 -7.70950632e-04 -9.21587646e-02 +2.92379353e-02 +4.13462929e-02 +3.56801748e-02 -1.03591241e-01 +8.51173922e-02 +4.45581004e-02 +7.25021809e-02 -9.59201753e-02 -4.97718491e-02 -1.91285133e-01 +1.05907604e-01 -1.80866435e-01 -2.98736673e-02 -4.50939275e-02 +8.30118954e-02 +1.83133364e-01 -5.00542596e-02 -6.57853186e-02 -2.28908993e-02 -1.25698835e-01 -2.10740929e-03 -1.59447685e-01 +1.14384986e-01 -2.53142148e-01 +3.14842984e-02 +6.67172438e-03 -7.02789202e-02 -6.38658255e-02 +1.24348015e-01 -1.09325767e-01 -1.32554650e-01 +6.34663180e-02 +1.16013244e-01 +2.26134539e-01 +2.34860517e-02 -1.80936102e-02 -1.73616141e-01 -1.17627040e-01 +1.55758023e-01 -4.34277616e-02 -2.02846248e-02 -9.44274440e-02 -5.85535802e-02 +7.63922185e-02 -1.43030018e-01 +9.30485502e-02 -2.61657596e-01 +1.69285864e-01 -3.37534100e-02 +2.94737052e-02 +8.82520005e-02 +8.67191553e-02 +1.19845554e-01 +1.05283871e-01 +3.23310047e-02 +8.43554288e-02 -8.90773088e-02 -1.40054971e-01 +5.56827858e-02 -2.67888397e-01 +1.72125608e-01 +1.30993873e-01 -8.01332816e-02 +1.15147606e-01 -6.51861727e-02 +3.76417045e-03 -1.59907013e-01 +1.23006582e-01 +9.25960839e-02 -7.00446442e-02 -2.60270596e-01 +1.77506119e-01 -3.03863108e-01 +5.31433485e-02 +2.27174312e-02 +1.89405695e-01 +1.37573928e-01 -4.27693129e-02 -1.14311548e-02 -7.78448582e-02 +2.07940694e-02 +4.62509831e-03 +6.23861663e-02 +2.46220874e-03 -5.20371236e-02 +9.18987170e-02 +1.02930553e-01 -8.37887675e-02 -1.81550495e-02 +4.11633663e-02 +9.86835286e-02 -1.03043854e-01 -4.19982225e-02 -7.50414804e-02 +3.88594158e-02 +9.62698366e-03 -1.04848281e-01 +1.36195868e-01 +1.03316188e-01 +1.09184638e-01 -1.29456893e-01 +6.86853454e-02 -9.71355066e-02 -4.01229449e-02 -9.97904092e-02 -2.00565830e-01 +1.13645330e-01 -2.20075957e-02 +4.39513586e-02 +2.48926386e-01 +8.59273002e-02 -1.02870919e-01 -5.55010475e-02 +4.27057222e-02 +2.33584598e-01 -1.32120132e-01 -1.01712823e-01 -9.25069302e-02 +1.53646275e-01 -1.06337167e-01 -1.53217182e-01 -9.36109945e-02 -1.09134458e-01 +2.41758034e-01 -5.02312146e-02 +2.55645514e-02 +9.52603146e-02 -1.57023650e-02 +2.42710616e-02 +5.38184121e-02 -9.12232548e-02 -1.58186689e-01 +1.12118330e-02 -3.76981460e-02 +3.66139635e-02 +4.79187164e-03 -1.69634879e-01 -5.75069115e-02 -3.98800746e-02 -1.35256499e-01 -1.95137516e-01 +2.08272971e-02 +2.20921516e-01 +1.08295687e-01 +1.06146768e-01 +4.55667824e-01 +2.20170598e-02 -1.51684154e-02 -1.24493159e-01 -1.17037036e-01 +1.98947310e-01 +1.48894101e-01 -1.86023816e-01 -1.77607492e-01 +2.34930627e-02 -3.13525796e-02 +9.36954096e-02 -2.09519759e-01 +2.32820548e-02 -6.95081577e-02 +2.00132459e-01 -1.46350516e-02 -2.30901632e-02 -8.37350544e-03 +7.10743740e-02 +2.05101430e-01 -7.39270598e-02 +1.48143932e-01 -5.32045402e-03 +9.09869820e-02 -2.19211727e-01 +4.72225845e-02 -2.43378524e-02 +1.69009641e-01 -3.12716211e-03 +6.79083541e-02 +1.45117059e-01 -2.18358710e-02 +1.89358771e-01 +1.46603078e-01 +1.65941380e-02 +2.54504401e-02 +1.44243976e-02 -3.26459855e-02 -1.95645336e-02 +2.09613428e-01 +9.25674476e-03 +9.82022360e-02 -2.53818464e-03 -1.90092936e-01 -2.92544048e-02 +1.52764827e-01 +2.55539656e-01 +2.08289567e-02 +7.50179291e-02 +2.22821981e-01 -1.03300810e-01 +2.18468025e-01 -1.73623711e-02 +1.02084197e-01 +3.48716140e-01 +1.77361205e-01 +2.63723761e-01 +2.95869708e-02 -2.02362277e-02 -3.40347271e-03 +1.52398748e-02 -7.90683960e-04 -1.34993633e-02 -6.97542951e-02 -9.27114189e-02 -8.48638080e-03 -2.26464551e-02 -3.35847996e-02 -6.63543195e-02 +1.32189482e-01 +1.42870530e-01 +2.55704701e-01 -1.37662292e-02 -1.18382648e-01 +7.45912641e-02 -7.94412419e-02 -4.22238139e-03 +3.40272546e-01 -8.01057294e-02 +2.61330634e-01 +3.99538577e-02 -2.95168400e-01 -6.09555915e-02 -1.10033587e-01 -1.11901753e-01 -1.69910148e-01 -7.02577755e-02 +6.41729981e-02 +1.66584492e-01 +6.77600205e-02 -1.56757325e-01 +2.34379638e-02 +2.29903441e-02 -3.04360706e-02 +5.12296297e-02 +4.39424366e-02 +7.67881945e-02 +4.14329395e-02 +1.93390906e-01 -1.18844852e-01 -1.16648450e-01 -8.73820670e-03 -1.27257392e-01 +1.95964366e-01 -7.89687485e-02 -6.61625937e-02 +6.32565543e-02 +1.79438647e-02 +7.87439197e-02 -5.23329014e-03 +2.33759489e-02 -1.89257339e-02 -1.75222918e-01 -1.99877232e-01 +1.65202588e-01 +1.50003746e-01 -1.66706622e-01 -3.99035960e-02 -7.75764287e-02 -5.11320084e-02 -4.09128256e-02 +1.11062139e-01 +7.28387684e-02 -1.20529674e-01 -3.69510353e-02 -2.89050460e-01 -1.99648142e-02 -8.99495855e-02 -7.71514326e-02 +1.84738651e-01 +8.50791298e-03 -1.11978732e-01 -5.98614216e-02 -5.13018630e-02 -1.05488017e-01 -1.94672778e-01 -1.80024281e-02 -1.47201315e-01 +7.30460882e-02 -1.56301260e-01 -1.13569656e-02 +4.38291542e-02 +1.08043700e-01 -7.38942251e-02 +3.70459333e-02 -1.95038930e-01 +6.99053630e-02 -7.13942200e-02 +3.86864506e-02 +7.00809211e-02 -1.89094860e-02 -1.23866893e-01 +5.60251065e-02 +1.81154385e-01 -2.38676280e-01 +1.39672816e-01 -1.63192034e-01 -1.20587729e-01 -1.13843806e-01 -1.21838152e-01 -3.26600112e-02 -1.07160233e-01 -1.64383557e-02 -1.25731165e-02 +1.79201677e-01 +5.55393286e-02 -7.00860396e-02 +1.21215381e-01 -1.46469936e-01 -1.72761232e-01 +1.42206863e-01 -1.72024965e-01 +7.59652257e-02 -1.50964903e-02 -8.38298071e-03 +1.10815346e-01 +1.16558433e-01 -1.03449859e-01 +1.44986389e-02 +2.27877095e-01 -2.54744262e-01 +2.39068121e-01 -1.79113969e-02 +9.51277316e-02 -2.77463291e-02 -1.14610754e-02 +2.74486728e-02 -9.94356573e-02 -1.01743162e-01 -2.91623585e-02 -5.97422533e-02 +6.47895336e-02 +7.22510228e-03 +7.60723427e-02 -9.48510990e-02 -3.87273654e-02 -1.92594409e-01 -1.02330623e-02 -3.20028365e-02 +1.69173256e-01 -8.24910179e-02 -1.39831752e-03 +1.15213528e-01 +1.49731308e-01 -1.56478927e-01 +5.81833199e-02 +1.26646042e-01 -4.44706529e-02 +9.61757526e-02 -7.56719112e-02 -2.61572689e-01 +1.94513127e-02 -1.60496354e-01 +1.62135419e-02 -1.72680110e-01 +5.53028286e-02 +1.10543095e-01 +1.17825784e-01 -4.97839274e-03 +3.12706903e-02 -1.77112985e-02 -7.99639151e-02 +1.04014620e-01 -2.30073724e-02 -1.08373153e-03 -4.66693789e-02 +1.61038026e-01 +8.50551724e-02 +1.63677409e-02 +1.59780517e-01 -2.23988444e-02 +1.01189569e-01 -7.33302087e-02 +4.27570865e-02 +1.79742500e-01 +6.33488446e-02 -4.40120138e-02 -2.67072976e-01 -1.33606777e-01 -2.75345474e-01 -7.78977619e-03 -4.47994247e-02 +2.24484041e-01 +4.42933254e-02 +3.91242020e-02 +9.02239978e-02 -5.88812912e-03 -9.91825536e-02 -7.26380348e-02 -5.18845348e-03 -8.20988491e-02 -8.47889110e-02 +7.99197331e-02 +1.79903686e-01 +6.90750852e-02 -4.00127351e-01 -1.18531264e-01 +9.53603536e-02 -2.22293690e-01 +1.82635356e-02 -4.98531051e-02 +2.07496345e-01 -9.29530039e-02 +3.18061054e-01 +1.56725809e-01 -1.44822061e-01 +5.20900898e-02 +1.41551467e-02 +7.47075351e-03 -2.06670880e-01 +1.24824800e-01 +1.90556213e-01 +1.43032819e-01 -9.55339745e-02 +4.08778191e-02 +1.57493502e-02 -1.67404950e-01 +1.87418401e-01 +1.86418682e-01 +5.32308072e-02 +4.81823692e-03 +1.29266351e-01 +6.63920026e-03 +1.22372717e-01 +2.72387326e-01 +2.44337261e-01 +3.80979069e-02 -2.35651150e-01 +4.23826138e-03 +1.24738388e-01 +1.37713820e-01 +1.61660556e-02 -2.14341702e-03 +4.01306525e-02 +9.44778621e-02 +1.80519447e-01 -9.53021795e-02 +1.53249249e-01 -2.02500969e-01 -1.00434413e-02 -9.99678001e-02 -1.21416472e-01 -1.29813910e-01 +9.00733024e-02 +2.13713720e-01 -2.95830727e-01 -1.59738198e-01 +7.10768849e-02 +1.86527699e-01 -1.80674829e-02 -2.94084132e-01 +6.03210088e-03 +1.39075577e-01 +3.34418297e-01 +4.14818265e-02 +2.24106967e-01 +6.90044612e-02 +1.86359528e-02 -1.24302879e-02 -4.45555001e-02 -2.81095374e-02 +1.59390029e-02 +1.12373903e-01 +3.67125049e-02 -8.65360424e-02 -5.75237796e-02 -1.27498865e-01 +2.27129012e-01 +2.23155171e-02 +1.79973364e-01 -2.13288426e-01 +1.27924606e-01 -1.81509167e-01 -1.77621558e-01 +1.14762090e-01 +8.33856594e-03 -1.54802054e-01 +1.46550268e-01 -1.83172114e-02 -3.14994194e-02 +7.15028271e-02 +7.24453107e-02 -2.75669277e-01 -1.92698792e-01 +1.45847665e-03 -2.26741396e-02 +3.90934646e-02 +6.58776565e-03 +3.56796421e-02 +6.85953349e-02 +2.42696404e-01 -1.01632185e-01 +7.63384774e-02 -1.49981543e-01 +1.03493385e-01 -1.69498455e-02 -2.15749308e-01 -7.73855746e-02 +1.09229013e-01 +3.85001637e-02 +7.48139992e-02 +2.39744619e-01 -1.99318841e-01 -1.48725197e-01 -1.33675605e-01 -8.55509788e-02 -3.49697284e-03 +7.02528283e-02 -1.40933439e-01 +1.11554451e-01 +1.71705991e-01 -7.07509229e-03 +2.37339839e-01 +1.12004401e-02 -7.93549493e-02 -3.45693566e-02 +1.56705335e-01 -1.48429833e-02 +1.06460983e-02 -2.23798111e-01 +8.23029578e-02 +9.66786817e-02 +3.79723795e-02 +1.42956257e-01 +4.18223701e-02 -1.11961804e-01 -6.68139057e-03 -1.57780200e-02 -4.04505245e-02 +1.45017803e-01 -5.70683798e-04 -3.02848611e-02 -3.90385687e-02 +1.69228632e-02 -6.40530065e-02 -8.83523896e-02 +4.02243398e-02 +2.39364747e-02 -2.60493197e-02 +3.46600041e-02 +2.63479445e-02 -6.50259620e-03 -4.37002741e-02 +1.49909094e-01 -2.00765207e-01 +1.45776764e-01 +1.91479176e-01 +8.23483914e-02 -3.43180820e-02 -1.16512895e-01 -6.70146644e-02 +1.93853468e-01 +3.30003165e-02 +6.41239360e-02 -1.12048313e-01 -2.41129667e-01 +1.09748811e-01 -9.79780108e-02 +7.50218555e-02 +1.68841153e-01 +1.09270260e-01 -6.15784414e-02 +1.07366651e-01 +9.15220678e-02 -1.41457692e-01 +1.32426187e-01 +7.08044171e-02 +1.60137177e-01 -1.23821773e-01 +4.31655953e-03 +8.21995065e-02 -3.86124067e-02 +2.07927898e-01 +1.55356526e-01 -2.27000855e-04 +3.89847793e-02 +1.32841291e-03 +2.20842212e-01 +2.13149622e-01 +1.98964074e-01 +4.99758571e-02 -1.35241151e-01 +6.34924620e-02 -5.40010398e-03 +8.32521915e-02 +4.91661914e-02 +1.14198811e-01 +1.83781125e-02 -1.32996127e-01 +1.35469541e-01 +2.30354398e-01 +7.37661719e-02 -1.69641063e-01 +2.55238521e-03 +3.56047638e-02 -8.05864185e-02 +4.34716530e-02 +4.15243395e-02 +1.73699707e-02 -1.61290884e-01 +8.21157768e-02 +1.89162761e-01 -7.32960999e-02 +8.62940401e-02 -1.44534811e-01 -6.97015598e-02 -8.42728594e-04 +2.15545833e-01 -5.38855232e-02 +1.10419102e-01 -1.36284083e-01 -1.19234413e-01 -3.51227000e-02 +5.16754240e-02 -4.10808139e-02 +1.12264074e-01 +4.20823321e-02 -5.94433621e-02 -5.71850203e-02 +9.84648541e-02 -1.42020239e-02 +1.06710352e-01 +3.89204845e-02 +1.67052336e-02 -6.65043145e-02 -5.12778908e-02 -4.51226458e-02 +6.05176911e-02 -2.86640637e-02 +1.59308121e-01 -7.35489577e-02 +2.95241792e-02 +1.16083845e-01 -7.51732886e-02 -1.05193332e-01 +7.42400438e-02 +7.48599097e-02 -8.52919444e-02 +1.98679566e-01 +1.75652020e-02 +1.34863213e-01 -3.03151011e-02 -1.93190407e-02 -8.14486146e-02 -3.71846370e-02 +4.03532051e-02 +1.22748420e-01 +4.32586186e-02 -1.17683537e-01 +1.04310974e-01 +2.97528636e-02 -1.17590174e-01 +1.34152798e-02 -1.70326576e-01 -1.02582544e-01 +1.07168771e-01 +2.39005610e-02 +1.03568524e-01 -6.10199235e-02 +1.03964172e-01 -1.33750409e-01 -4.05555144e-02 -4.89716418e-02 -5.58757037e-02 +1.64138988e-01 -1.32479712e-01 -7.77374208e-02 +4.44317609e-02 +5.47172464e-02 -4.83622998e-02 +2.22727120e-01 +1.17878936e-01 -2.33546495e-02 +2.10604239e-02 -4.83835824e-02 +4.35188301e-02 +4.96254824e-02 +2.22451221e-02 -8.28059018e-02 +1.54080853e-01 +1.93451822e-01 +1.76324725e-01 +1.59404635e-01 +1.73800141e-01 -3.55422087e-02 +5.33565804e-02 +1.68852322e-03 +3.08824807e-01 -1.38949946e-01 -2.26347856e-02 +8.77946392e-02 +2.49072618e-04 +9.60465148e-02 -1.33076489e-01 +1.65177420e-01 -1.27490133e-01 -6.24364913e-02 -6.76368829e-03 -2.16903627e-01 -6.82793483e-02 -9.14804265e-02 +3.33844535e-02 +3.75012830e-02 +8.91172886e-03 -4.18570004e-02 -1.58661455e-01 -3.06892753e-01 +6.10789061e-02 -1.37440592e-01 +8.41887370e-02 -4.06643078e-02 +5.65786138e-02 +9.44094807e-02 -1.31223857e-01 -8.95435549e-03 +2.33327374e-02 -3.34595218e-02 -7.54238339e-03 -1.62593007e-01 +1.22625217e-01 +7.27560818e-02 -7.37999976e-02 -4.86363396e-02 +1.06805250e-01 -3.63757387e-02 +9.79957264e-03 -7.03361109e-02 +1.11139558e-01 +2.13361651e-01 -4.69973721e-02 -8.91633928e-02 +2.18831636e-02 -1.51836455e-01 -4.66171391e-02 -1.53662935e-01 -7.72220865e-02 +1.61343574e-04 +9.13774297e-02 +1.87571734e-01 +1.30021453e-01 -7.53220543e-02 -1.38331592e-01 +7.47354999e-02 +9.95588154e-02 -1.10590339e-01 +1.58639029e-02 +1.38587743e-01 -1.86106097e-02 +8.63505304e-02 +1.63471773e-01 -7.34068006e-02 +1.50701299e-01 -1.37250513e-01 -1.51535332e-01 -2.00233236e-02 +1.21882737e-01 +2.50463337e-01 +1.95224077e-01 +8.27799365e-02 +1.07285313e-01 -1.91218972e-01 +1.86816096e-01 +1.66986421e-01 +1.23415021e-02 +2.46838666e-02 +3.78023572e-02 +1.71015188e-02 -9.28599015e-02 -1.31640211e-01 -7.28644133e-02 +1.03305921e-01 -1.93073198e-01 -1.45367429e-01 -1.28924474e-01 +8.75418037e-02 -1.17164515e-01 -7.77739361e-02 -1.80537671e-01 +4.29944731e-02 -1.83876365e-01 +7.70788044e-02 -1.12932779e-01 +3.27916354e-01 -2.26284832e-01 +5.28992377e-02 -3.58989209e-01 +9.35701057e-02 +1.04313485e-01 +1.77920297e-01 -1.49149477e-01 +8.62636417e-02 -7.20368326e-02 -1.16631680e-03 +3.67646255e-02 +4.03799005e-02 +1.71466187e-01 +9.60806832e-02 -3.65552716e-02 -1.49642989e-01 -1.43335192e-02 +4.26496267e-02 +2.60093529e-02 -3.47689986e-02 -1.21069469e-01 +3.73643376e-02 +2.66036615e-02 -1.07301861e-01 -7.09476508e-03 -2.55646378e-01 +1.35068744e-01 +2.29108006e-01 +2.16073081e-01 +1.88054159e-01 +3.74968201e-02 +1.19914740e-01 -2.96318799e-01 +2.36269068e-02 +1.11700725e-02 +3.22516821e-02 -2.89565533e-01 -9.57925841e-02 -3.43785346e-01 +1.85974777e-01 +1.15545325e-01 -2.29168430e-01 -1.50893390e-01 -4.68837917e-02 -1.20049998e-01 +4.81009707e-02 -1.00243568e-01 +2.01301813e-01 -1.52437717e-01 -2.87019104e-01 +1.23380862e-01 -1.44209683e-01 -1.46978498e-01 +1.42638505e-01 -7.93197751e-02 +3.69144045e-02 -1.45266548e-01 -1.66110277e-01 +1.25134960e-01 +8.05769339e-02 -4.17211354e-02 -1.90823331e-01 +1.33546221e-03 -1.12784848e-01 +1.53084829e-01 -1.16225004e-01 -1.77810654e-01 +1.04779609e-01 +4.95317131e-02 -2.77819008e-01 +6.95143044e-02 -1.31353587e-02 +7.48455822e-02 +6.89273477e-02 -8.86221752e-02 