#Parameter# /UniLSTMSeqTransducer-1fc2bba8/_0 {256,300} 1228801 ZERO_GRAD
-2.78742611e-01 -4.84121405e-02 -1.10626824e-01 -8.27819631e-02 +6.65429160e-02 -8.63068178e-02 -2.30112508e-01 -2.68474966e-01 -1.78589262e-02 -1.03356279e-02 +1.37782633e-01 +3.69038954e-02 -1.34125769e-01 -1.69375062e-01 -1.26099631e-01 -2.83053238e-02 -1.98655829e-01 +7.01741278e-02 -4.79117744e-02 +4.70576948e-03 +1.86298788e-01 +1.72630668e-01 -8.08034390e-02 +8.78059417e-02 -2.15587183e-03 -8.67301878e-03 +1.16462797e-01 +1.90987796e-01 -3.15641969e-01 -1.86293393e-01 -1.11918092e-01 -3.69689651e-02 -4.84198600e-01 -1.28420234e-01 -5.36322743e-02 +1.34395203e-02 +4.48489636e-02 +1.81819184e-03 -2.75913496e-02 -3.99076417e-02 -1.04634903e-01 -1.25385717e-01 -1.19182661e-01 +3.78036648e-02 +2.46048868e-02 -2.17907857e-02 -1.56805739e-01 -1.54864341e-01 -1.19069114e-01 -6.57408684e-02 -1.68700442e-01 -1.20724849e-02 -9.33317095e-02 -4.91247475e-02 -6.01202250e-02 +1.32109031e-01 -9.92511027e-03 -1.55620826e-02 -4.26981807e-01 -6.55793250e-02 -9.03199539e-02 +4.70298976e-02 +1.04560502e-01 +4.01923694e-02 -3.07107925e-01 -1.25592902e-01 -1.94864377e-01 +2.25226253e-01 +1.01851085e-02 -1.96456268e-01 -3.66711579e-02 -1.95510179e-01 -6.03531301e-02 -4.36266977e-03 -2.90772356e-02 -2.62584865e-01 +1.17278606e-01 +2.79624108e-02 +2.00579360e-01 -1.21210404e-02 +1.21755362e-01 -1.97058879e-02 -5.95826004e-03 +1.96394119e-02 -4.42711741e-01 +1.48935821e-02 -1.24793738e-01 +1.66898131e-01 -2.36484110e-02 +1.01489015e-01 -1.58176169e-01 +1.00799479e-01 -5.67483842e-01 -3.44023734e-01 +1.13899998e-01 -3.09436530e-01 -5.85098386e-01 -1.30482256e-01 +3.43767181e-02 +1.02732278e-01 +4.33181264e-02 -3.24903727e-01 -1.11260992e-02 -4.21382040e-01 -1.62140042e-01 +1.11909755e-01 +3.92768532e-02 -1.46527570e-02 +7.80711249e-02 -2.15103373e-01 -2.00476632e-01 -7.30631426e-02 -2.07610413e-01 -2.37713769e-01 -2.26619601e-01 +1.76236972e-01 -1.95002362e-01 -3.22258800e-01 -1.85792834e-01 -2.17834692e-02 +6.38363287e-02 +5.57712689e-02 -6.25053883e-01 -5.24254590e-02 -3.24198157e-02 +1.58393458e-01 +3.28715086e-01 +1.38851404e-01 -1.35463655e-01 -3.24679255e-01 +5.09177782e-02 -7.40211979e-02 -2.76997238e-02 -1.69728681e-01 -8.68539438e-02 -6.83174878e-02 -7.33308941e-02 +2.79534589e-02 +2.55877614e-01 -2.57409722e-01 -9.46763381e-02 -1.43075541e-01 -4.63780053e-02 +7.36263692e-02 -2.33522803e-02 +2.69142836e-01 -1.41726494e-01 +1.90258518e-01 +4.10917625e-02 +1.31506085e-01 -2.55933702e-01 -2.17610467e-02 -1.42604202e-01 +2.21959688e-02 +2.90760435e-02 +3.15983117e-01 -4.09894407e-01 -8.92640650e-02 -9.41055827e-04 +2.12080762e-01 -3.59845608e-01 -2.73756266e-01 -8.70091468e-02 +1.48797750e-01 +2.69294735e-02 -3.27553093e-01 -2.50469506e-01 -2.24529773e-01 -3.98670770e-02 -7.11367745e-03 +1.25993133e-01 -2.25705892e-01 -1.46141618e-01 -1.53978050e-01 -3.01464438e-01 +4.69054878e-02 -4.23538237e-04 -8.48239511e-02 -3.04471422e-02 +1.90733403e-01 -1.32998019e-01 -1.24013223e-01 -1.82753563e-01 +1.36334777e-01 +1.32524118e-01 -8.16795230e-02 -4.29749578e-01 +9.66870487e-02 -2.84382671e-01 +2.32365355e-01 +1.71644270e-01 +5.30578680e-02 +3.22488211e-02 +2.12528378e-01 -1.36780709e-01 +5.67711852e-02 +3.38562578e-01 +5.14238179e-02 -4.06724364e-02 +1.21140003e-01 -9.69425961e-02 -1.33971140e-01 -3.76897119e-02 -5.63802458e-02 -1.07454555e-02 -2.49834135e-02 +4.83588921e-03 +3.84075046e-02 -1.04979396e-01 -8.05894509e-02 +1.16143860e-01 -1.67197585e-02 +3.15475225e-01 +7.81981871e-02 +1.33988811e-02 +1.59327522e-01 +1.02223121e-01 -2.26562560e-01 +1.00246854e-01 -1.18979558e-01 -2.14501187e-01 +2.25879010e-02 +2.20897943e-01 +1.67169973e-01 -1.39204443e-01 -1.61423415e-01 -1.53245544e-02 -1.37306765e-01 -2.06356019e-01 -1.15162479e-02 -2.42044753e-03 -1.62983149e-01 -5.22564305e-03 +1.90173253e-01 -1.52335569e-01 +1.47165343e-01 +2.21386597e-01 +1.07698888e-01 +1.51290167e-02 +2.78049856e-01 -1.72655225e-01 +3.44585001e-01 -5.85437156e-02 -3.19243968e-01 -6.86032027e-02 +2.51830630e-02 -5.92310615e-02 +1.03705227e-02 +3.97881642e-02 -1.32791147e-01 -1.24050207e-01 -4.25129682e-02 +1.18205674e-01 -2.72594422e-01 +3.53302926e-01 +1.92430466e-01 -8.15819149e-05 +1.27807498e-01 +1.46131426e-01 +1.20503232e-01 -3.98240685e-02 +1.35786414e-01 +3.23904097e-01 +8.22702423e-02 +9.75765213e-02 +9.53619406e-02 +1.13499895e-01 +2.74556577e-01 +1.56784609e-01 +1.86351791e-01 -1.20238453e-01 +1.10744782e-01 -6.62533417e-02 -1.20444700e-01 +1.00386865e-01 -6.46234378e-02 -1.94063842e-01 +5.06853573e-02 +1.86803415e-01 +2.25532204e-02 -5.24965972e-02 +8.34027231e-02 -7.77397528e-02 +3.61611918e-02 -4.15066592e-02 +1.82539687e-01 +2.31855344e-02 -5.16141517e-05 +4.05178107e-02 +1.07933246e-01 +2.28068426e-01 -1.37837082e-01 +1.16145894e-01 -2.85840966e-02 +1.61263064e-01 -5.36140390e-02 +3.17626609e-03 -1.66298077e-01 +1.52760819e-01 +1.73401535e-01 +7.06944019e-02 +5.48011921e-02 -1.51043400e-01 -3.13936663e-03 +1.79728448e-01 +5.49359657e-02 +2.02386260e-01 -5.04407845e-02 +1.74968287e-01 +9.41741243e-02 +1.68161869e-01 +1.34132802e-01 +8.49402919e-02 +3.78847076e-03 +4.84309830e-02 +5.33169359e-02 +1.52702510e-01 -1.04581630e-02 +4.48405854e-02 -8.22089426e-03 -4.55499291e-02 +2.67641783e-01 +2.78742194e-01 -5.99126481e-02 +9.82233733e-02 +1.63463369e-01 +5.04622519e-01 +1.12098947e-01 -1.60225898e-01 -5.19226380e-02 -1.23468727e-01 +3.50757718e-01 +1.16767481e-01 +2.82770008e-01 -8.04012790e-02 +4.57636058e-01 +1.66971967e-01 +7.38053396e-02 +1.82748377e-01 +2.07884982e-01 +8.57977197e-02 +7.10616633e-02 +2.05094770e-01 +4.48560603e-02 +2.29853034e-01 +2.72325814e-01 -2.59516150e-01 +5.42218946e-02 +2.32372403e-01 +3.61887991e-01 +3.72317992e-02 +8.02591592e-02 -5.69991767e-03 +3.87802035e-01 +3.46204549e-01 +1.06821850e-01 +2.49594867e-01 +4.61970299e-01 +2.96320796e-01 -8.50417186e-03 +1.13499500e-01 -2.61684824e-02 -3.48129272e-02 +1.27519116e-01 -1.40670715e-02 +2.55539209e-01 -3.35367061e-02 +1.03689089e-01 +2.67867684e-01 +4.61730622e-02 +3.15994054e-01 +1.37206085e-03 +1.32489040e-01 +1.47416383e-01 +3.04110318e-01 +1.30741764e-02 +2.67446727e-01 +4.55774181e-02 +7.60644581e-03 +2.12330714e-01 +2.21049234e-01 +3.14325392e-01 +2.14439984e-02 +2.82740980e-01 +1.85261354e-01 +1.79664776e-01 +4.30659831e-01 +1.34989426e-01 +1.72535911e-01 +5.32609336e-02 +6.08211637e-01 +4.43535447e-01 -2.34974459e-01 +4.72613983e-03 +1.02772318e-01 +2.02620968e-01 +1.21768907e-01 +4.13743526e-01 +4.43980768e-02 +4.04514790e-01 +2.32686251e-02 +8.17887783e-02 +4.26457167e-01 +1.96714878e-01 +1.74185470e-01 -1.11873046e-01 +3.63100410e-01 +6.06573522e-02 +1.42277882e-01 +1.26041099e-01 -6.79015927e-03 -5.70022054e-02 +3.26097190e-01 +4.45205003e-01 +3.11821282e-01 +4.07284722e-02 +2.29015723e-01 +4.22756523e-01 +2.08734632e-01 +9.03456062e-02 +1.39759943e-01 +8.84910151e-02 +4.39876199e-01 -1.71021037e-02 +4.08676326e-01 +1.80003673e-01 +7.91846141e-02 +1.35892659e-01 +3.40359993e-02 +9.66739133e-02 -1.56121403e-01 +1.79111645e-01 +2.29397923e-01 +2.27054328e-01 +2.23642543e-01 +2.34343007e-01 +2.96688318e-01 +3.13703232e-02 +3.29259783e-01 +1.15549915e-01 +2.94194520e-01 +2.50999957e-01 +1.60769626e-01 +6.31277338e-02 +3.23860496e-01 +3.78893226e-01 +3.50326896e-01 +2.30399281e-01 -8.79729614e-02 -6.37638867e-02 +1.49571180e-01 -2.17275128e-01 -2.96190023e-01 +1.77932128e-01 -2.44925857e-01 -2.07509279e-01 +1.70246258e-01 +5.73797300e-02 +1.71075091e-02 +1.84106573e-01 +2.64938354e-01 +3.37526292e-01 -1.09305806e-01 +4.12015393e-02 -8.29799287e-03 -1.66261151e-01 -2.27598563e-01 +2.65606549e-02 +4.06972319e-03 -2.02394113e-01 -1.01655625e-01 -1.00672178e-01 -2.40884006e-01 +6.59973770e-02 -2.30606809e-01 +2.01204792e-01 +2.11451367e-01 -2.59004712e-01 -1.41390324e-01 -1.67103693e-01 +2.57587373e-01 +2.15248093e-01 -2.90008366e-01 +1.29248604e-01 +1.37089491e-01 +2.42472365e-01 +2.54598916e-01 +2.00312421e-01 +1.81898639e-01 -1.44641772e-01 +1.70726925e-02 -1.23761989e-01 -2.07139589e-02 +1.74165025e-01 -8.16414356e-02 -4.94669266e-02 +3.53392929e-01 +8.54897350e-02 +4.73246872e-02 +3.06755230e-02 +2.94965267e-01 -2.11825252e-01 +1.31322324e-01 -2.33432651e-02 +3.25528920e-01 -2.04211660e-02 +2.33663857e-01 -2.09008530e-01 -1.30768463e-01 -1.08126789e-01 +1.37259047e-02 +1.09182283e-01 -8.54682103e-02 -7.64426291e-02 -2.24359962e-03 +6.92242465e-04 +2.97317524e-02 -4.01777215e-02 -3.98760363e-02 -6.16410896e-02 -9.97422710e-02 -9.79429483e-02 -1.43168762e-01 +1.05830885e-01 -2.35311925e-01 -1.53475285e-01 +7.13545904e-02 +1.31111473e-01 -6.54526129e-02 -2.51471728e-01 +7.60028586e-02 +5.93661815e-02 -3.15754488e-02 +3.93916517e-02 +1.35807514e-01 -3.94080468e-02 +8.13443884e-02 +2.35854223e-01 +2.76346821e-02 -9.33739617e-02 -1.52121097e-01 +7.56853493e-03 -7.91372135e-02 +4.66155168e-03 +2.34357771e-02 -3.47652212e-02 -1.87545449e-01 -1.29565075e-01 +6.24974519e-02 +7.32206926e-02 -1.36596352e-01 +1.11427240e-01 -9.22844838e-03 +7.12473541e-02 -6.53389469e-03 +1.88895105e-03 -9.82480198e-02 +3.21243331e-02 +1.06575757e-01 -6.13414496e-02 +1.64464056e-01 +5.96511178e-02 -1.76290393e-01 +8.16147923e-02 -5.45792878e-02 -1.06095664e-01 -4.10312526e-02 -7.26846419e-03 -1.06731080e-01 -1.61636062e-02 -1.56258211e-01 +1.18580632e-01 +5.61881661e-02 +6.83222860e-02 -8.10291320e-02 +3.19942310e-02 -2.21036270e-01 -8.42145458e-02 -3.78906950e-02 +1.02354780e-01 -2.39643455e-02 +1.03544993e-02 -2.49053672e-01 -1.56889111e-01 +1.38646141e-01 -9.27064121e-02 -1.74534336e-01 +3.14690471e-02 +1.27915919e-01 -8.63074884e-02 +2.42195390e-02 -2.17022359e-01 -4.96446416e-02 -2.25355387e-01 -1.39246061e-01 -4.38019894e-02 -6.12555981e-01 +5.80328703e-02 -9.87333357e-02 +1.00636490e-01 -5.28816413e-03 +2.22384557e-01 -3.30702543e-01 -2.73660338e-03 -2.90288627e-01 -1.75078198e-01 +6.26589078e-03 -2.80771673e-01 -4.81004596e-01 -2.99204975e-01 -2.60822743e-01 +6.25248924e-02 +9.83509198e-02 -1.77496642e-01 -2.92681307e-01 -1.64988682e-01 -4.79096882e-02 +6.61768019e-02 -7.26411566e-02 -1.19713135e-01 +8.38128403e-02 -2.39013076e-01 -2.60732740e-01 +1.09252468e-01 -1.03734164e-04 -6.40480295e-02 -1.80514097e-01 +6.89886883e-02 -1.16600022e-01 -3.71045977e-01 -7.34373257e-02 -2.11553082e-01 -1.79921091e-01 +2.97937710e-02 -1.15793303e-01 -1.31761461e-01 -2.98214406e-01 -6.04459941e-02 +1.46385670e-01 +6.00946583e-02 -3.61032002e-02 +4.16588373e-02 +6.87687173e-02 -6.05995841e-02 +2.27630615e-01 +3.88562717e-02 +1.75444141e-01 +9.11349505e-02 -2.83865891e-02 -2.42675379e-01 -7.08290702e-03 +1.54805928e-01 -1.04707874e-01 -1.29252687e-01 +7.94075802e-02 +3.88344973e-02 +4.17634100e-02 +2.31863216e-01 -1.51244747e-02 +1.65498257e-01 -1.92998536e-02 +2.11459901e-02 -5.23664504e-02 -4.71463650e-02 -3.61334197e-02 -1.10266861e-02 +1.63634699e-02 -1.10157706e-01 +3.33857425e-02 +9.72847268e-02 -1.49362639e-01 +1.43728197e-01 +6.83218613e-02 +1.05850779e-01 -7.60895088e-02 -3.67183518e-03 +4.62779328e-02 -3.93080302e-02 +8.88640955e-02 +3.78058143e-02 +4.68887612e-02 +1.95003256e-01 -1.73910320e-01 -1.62652731e-01 +2.92898923e-01 -1.04380190e-01 +5.41297309e-02 -6.97987229e-02 +3.13562810e-01 +4.70774099e-02 -9.50036421e-02 +4.92290873e-03 -2.18890473e-01 +1.29287601e-01 +1.28193110e-01 -2.55424023e-01 +1.42151825e-02 -1.29032359e-01 +1.43653512e-01 +4.53076102e-02 +1.91888034e-01 +1.30613402e-01 +9.68928188e-02 +3.69312316e-02 +6.24057055e-02 +1.27717808e-01 +8.06783885e-02 -9.59702656e-02 +8.39514658e-02 -7.41841495e-02 +1.02549642e-02 +6.72445744e-02 -5.31179160e-02 +2.24585831e-02 +2.59986758e-01 -1.61725298e-01 -7.76163116e-02 +3.21499370e-02 -7.72486553e-02 +5.68115264e-02 -8.76074657e-02 +1.47387579e-01 +2.59384010e-02 +3.45338546e-02 +5.08192599e-01 +5.63665144e-02 +6.82348683e-02 -1.16849497e-01 +6.27587214e-02 +1.20278262e-01 -1.82377666e-01 +2.03260094e-01 -2.18939409e-01 +7.09021240e-02 -9.26719904e-02 -4.55618314e-02 -1.17018642e-02 +1.11902110e-01 +1.59707814e-01 +2.29418054e-02 -1.22376624e-02 -1.99894130e-01 -1.53738052e-01 +1.22385278e-01 +4.61890623e-02 +8.58479291e-02 +8.84251371e-02 +3.80571447e-02 -1.29150087e-02 -1.14749074e-01 +1.06047533e-01 -1.24044642e-01 +9.32516456e-02 +1.30132988e-01 +5.37413806e-02 -7.41024390e-02 -9.71416458e-02 +7.00373054e-02 -7.90256634e-02 -3.95971149e-01 -1.35222003e-01 -1.02180257e-01 +5.90957403e-02 -5.63463233e-02 +4.12827432e-02 +1.85223565e-01 +3.71712297e-02 -1.87593158e-02 +9.51998532e-02 +6.61132038e-02 +5.47886007e-02 -2.18986310e-02 -6.07581623e-02 -1.47748232e-01 +3.46834175e-02 +1.30568594e-01 -1.50698339e-04 +2.16530375e-02 -3.35558541e-02 -1.96231216e-01 +2.60522693e-01 -4.07366157e-02 -3.29177105e-03 -1.87487930e-01 -5.54391518e-02 -1.43871531e-01 +1.66740432e-01 -6.76708966e-02 +4.05899957e-02 +3.62969711e-02 +2.18025595e-02 -1.87179938e-01 +1.69868618e-02 -3.15703541e-01 -1.60988493e-04 -2.87321191e-02 +9.20746624e-02 +1.68625191e-02 -1.32625416e-01 -8.21432918e-02 +1.73553780e-01 -1.04644634e-01 -8.98093283e-02 -3.83476950e-02 +4.10038456e-02 -5.83186634e-02 -1.11217484e-01 +2.56432686e-02 -1.16804458e-01 -1.09163977e-01 -8.89649838e-02 -1.41597912e-01 +4.17208634e-02 -6.54145284e-03 -2.17347126e-02 -1.72399908e-01 +2.45095566e-02 -1.61386013e-01 +1.03843987e-01 -1.85380369e-01 -2.19615459e-01 -2.54483610e-01 -9.02616382e-02 +1.16740108e-01 +3.03710047e-02 +5.86188063e-02 +4.72867638e-02 +9.32982890e-04 +3.24464664e-02 -5.40594794e-02 -7.09580928e-02 -3.79712790e-01 -4.27055359e-02 +6.76457733e-02 -1.25321090e-01 +7.47363735e-03 -3.81030398e-03 -7.03842342e-02 +1.56098276e-01 +2.41903320e-01 -2.25542709e-02 -1.07880920e-01 +4.30759750e-02 -2.32191116e-01 -1.83935940e-01 -1.39205426e-01 -8.82159993e-02 -1.24121517e-01 -1.07980967e-01 -1.86466500e-01 +3.05880904e-01 -1.22408822e-01 +3.22935313e-01 +1.88972399e-01 +2.11376071e-01 -7.99087584e-02 -3.00505906e-02 -1.91807240e-01 +3.12618375e-01 +1.78858992e-02 +2.11865813e-01 +2.88459212e-02 -4.62808423e-02 -1.61199927e-01 +3.02284330e-01 +8.37293454e-03 +5.92048354e-02 -1.04563013e-01 -1.25064477e-01 -2.65116785e-02 +3.43481265e-02 -8.24403390e-02 -9.26740691e-02 +8.67465958e-02 +1.20576665e-01 -1.42350316e-01 +6.15896694e-02 -1.61374107e-01 -1.80241495e-01 -2.45050807e-02 +2.48547271e-02 -2.38364518e-01 -2.69826744e-02 +8.08408931e-02 -4.67268564e-02 -2.61616558e-01 -1.53090218e-02 +1.34909719e-01 +1.40687570e-01 -3.44189964e-02 +1.34589374e-01 +7.76406974e-02 -8.39473680e-02 -1.10899247e-01 +5.86263053e-02 -3.20516169e-01 -5.58761843e-02 +6.35510907e-02 -9.50824842e-02 -5.67378961e-02 -1.81999043e-01 -3.40860963e-01 -1.04189746e-01 -2.07792550e-01 -2.63527364e-01 -4.88848835e-02 +5.38083240e-02 -1.32684007e-01 -1.91595294e-02 +4.66202535e-02 -1.93231970e-01 -2.69435465e-01 -2.89562464e-01 -2.59291619e-01 +6.12008385e-02 -1.14011809e-01 +1.02012135e-01 -6.49134070e-02 +8.50010589e-02 +5.61021455e-02 -1.54722005e-01 +4.72330004e-02 +3.95046659e-02 -4.83088680e-02 -1.41639203e-01 +3.42696756e-02 +2.88657755e-01 -4.27699149e-01 -1.05086632e-01 +7.21205920e-02 -1.75716758e-01 -1.61828995e-01 -5.17830290e-02 -2.00961500e-01 +7.23589137e-02 -1.80728823e-01 -1.82759330e-01 -5.16273940e-05 +2.86562648e-02 -1.98389515e-01 -2.79895604e-01 -3.08045566e-01 -1.52970880e-01 -3.15913856e-02 -1.28757581e-01 -2.12384805e-01 +4.55794856e-02 -2.23458827e-01 -3.02509934e-01 -2.78934002e-01 +8.69156495e-02 +1.92952454e-02 -1.02028497e-01 -1.99617334e-02 -1.34321004e-01 -1.91478148e-01 -1.56187296e-01 -2.53921419e-01 -4.02081795e-02 -2.28884757e-01 -6.01456091e-02 +8.44515786e-02 -3.04028746e-02 +2.29505509e-01 -1.72352009e-02 -1.62062988e-01 +1.18027411e-01 -8.96764770e-02 -1.00445308e-01 +1.27504510e-03 -2.19646588e-01 -1.31972939e-01 +7.84318224e-02 -7.47160912e-02 +5.49205318e-02 -1.31666334e-02 -1.51072785e-01 +3.03990543e-02 +5.31101041e-02 -1.69220984e-01 -1.66718274e-01 +1.36290252e-01 -5.46920188e-02 +4.01750237e-01 -8.63753259e-03 -9.21164602e-02 +1.31600440e-01 -6.73430860e-02 -6.12593666e-02 +1.35882944e-01 +1.56551808e-01 -4.85551693e-02 -4.54167537e-02 +6.59023896e-02 +4.00977880e-02 -5.39056249e-02 -3.02289054e-03 +5.87897450e-02 +2.02381592e-02 -1.60765216e-01 -9.30954888e-03 -5.06655499e-03 -2.44102832e-02 +2.44503975e-01 +1.25047669e-01 -1.28286213e-01 +4.37052734e-02 +1.69844866e-01 -1.60356358e-01 +5.32494709e-02 -1.95017401e-02 -3.22218724e-02 -3.77429724e-02 +1.50195301e-01 +3.76713611e-02 +3.82344782e-01 +1.12986952e-01 +6.72194138e-02 -3.38544283e-04 +5.77228740e-02 +7.93937147e-02 +4.09149155e-02 +2.91261915e-02 +2.29906544e-01 +1.60864100e-01 -8.52242485e-02 +1.06473170e-01 +2.21834287e-01 +1.24199189e-01 +1.38955977e-04 -8.33074227e-02 +2.31894590e-02 +1.33123621e-01 +8.16050991e-02 -1.10972196e-01 +1.25322387e-01 -1.96354672e-01 +6.53374046e-02 -7.38136470e-02 +2.07288470e-02 +1.69727579e-02 -2.46724769e-01 -3.26147601e-02 -7.56151751e-02 -2.89601743e-01 +8.42372030e-02 -7.19008744e-02 +9.63941664e-02 +1.41588032e-01 +7.56647363e-02 +8.42342749e-02 +1.20493043e-02 -1.12861097e-01 -2.09798943e-02 +1.18252330e-01 -2.06296682e-01 +1.21088207e-01 +1.76815521e-02 +3.78438011e-02 +1.65199712e-01 +1.81361943e-01 +9.42391977e-02 -1.04622401e-01 +5.09518422e-02 +6.93604499e-02 +1.98537484e-01 +4.55072150e-02 +5.85317016e-02 +1.08722679e-01 +4.97476980e-02 -5.32715432e-02 -9.06905681e-02 +1.50892511e-01 -2.73948759e-01 +4.83386517e-02 +4.08546716e-01 +1.22433290e-01 -4.51443829e-02 +2.77742539e-02 -2.46220101e-02 -1.11068591e-01 +1.43180043e-01 -5.24085760e-02 +5.19062690e-02 -3.51013690e-02 -7.29578212e-02 +5.29989861e-02 +1.96369112e-01 +1.18643522e-01 -1.04983672e-02 +5.76955602e-02 +1.77708380e-02 -6.98998645e-02 +5.78302331e-02 -5.08772545e-02 +1.00031495e-01 +4.74050157e-02 -5.46779968e-02 +2.52192188e-02 +9.49587673e-02 +1.84288800e-01 +9.10993591e-02 +2.27862615e-02 -1.39390469e-01 +1.16892740e-01 -6.09358288e-02 -2.47373149e-01 -5.44282272e-02 +8.43824223e-02 -6.94009885e-02 -6.78442642e-02 -2.35126503e-02 +8.40157829e-03 +5.28387688e-02 -1.39710411e-01 +2.97418889e-02 +8.88785645e-02 +5.89011125e-02 -1.29533336e-01 +2.48485982e-01 +3.46258059e-02 -7.68456161e-02 -7.30555132e-02 -5.21098897e-02 +4.23884802e-02 +1.42592281e-01 -1.02043219e-01 +9.60593745e-02 +1.11323558e-01 -3.61796618e-02 -1.74972489e-02 +1.28715143e-01 +1.43819988e-01 +1.20787360e-01 +1.20138332e-01 -4.37299386e-02 +6.28406778e-02 +3.09977502e-01 +1.01242647e-01 +6.57504350e-02 +4.12654094e-02 +7.04636052e-02 +7.32819065e-02 -1.85328886e-01 -2.72374392e-01 +1.03273891e-01 +1.71847954e-01 -6.68015927e-02 -1.88250363e-01 +1.83777958e-02 -2.08951861e-01 +1.92596704e-01 +1.74694091e-01 -1.54091008e-02 +1.20864496e-01 +7.17830360e-02 +1.32619822e-03 +1.62598372e-01 -3.24677452e-02 +1.02448381e-01 +3.99520874e-01 +4.92892675e-02 -3.75928581e-02 +9.15141329e-02 +9.01555941e-02 +2.38845587e-01 +1.56213716e-01 -7.76068401e-03 +4.22409624e-02 +1.19497277e-01 -6.80050924e-02 +1.92350700e-01 -2.55590916e-01 -2.36247536e-02 +9.49865058e-02 +1.73377275e-01 +1.10690452e-01 +6.62075430e-02 -8.30308422e-02 -1.24661319e-01 +2.11633459e-01 +1.70810372e-01 -1.16775930e-01 +1.10587506e-02 +7.23910332e-03 +3.92628275e-03 +1.58511356e-01 +1.13668121e-01 +8.40737373e-02 +9.15352106e-02 +5.86995520e-02 +9.93845463e-02 +6.84563667e-02 +2.85040528e-01 -1.38013303e-01 +2.26658538e-01 +4.16341782e-01 +1.33201823e-01 +2.73326874e-01 -2.20935252e-02 +9.63614732e-02 +9.15011913e-02 +3.50267030e-02 -1.01131283e-01 +1.73321292e-01 +2.54924119e-01 +1.87759027e-01 -8.43342841e-02 -3.36376168e-02 +2.25848034e-01 +2.53316611e-01 +4.68397187e-03 +5.05673103e-02 -4.31576893e-02 -9.38086957e-02 -1.14960574e-01 +9.79508460e-03 +2.82883383e-02 +8.95036012e-02 -1.22440234e-01 +7.84594417e-02 -1.18577339e-01 +7.80738592e-02 -1.81709286e-02 +7.09975958e-02 -6.10574372e-02 +1.54042885e-01 +3.94362025e-02 -1.95472375e-01 -3.59588377e-02 -3.71587016e-02 -8.94444138e-02 +1.64549090e-02 +2.05181032e-01 -9.82037093e-03 -4.25678082e-02 -1.28605574e-01 -8.03229678e-03 -1.36582583e-01 -2.12343529e-01 -4.52526845e-02 +1.77315578e-01 -9.00663510e-02 -4.37602447e-03 -8.05996954e-02 +3.29939090e-02 -1.14005625e-01 -7.01507926e-03 -6.73939958e-02 -1.29034370e-01 +4.04159836e-02 +1.94841236e-01 +3.54650468e-02 +5.30557670e-02 -4.93268222e-02 -3.05836406e-02 -1.24245159e-01 -2.04597026e-01 +9.82204974e-02 -1.06410980e-01 -2.46417820e-01 +2.19780393e-03 -4.29457799e-02 -1.19954772e-01 -6.24557352e-03 -1.26417801e-01 -1.62182581e-02 +1.16652258e-01 -1.17984273e-01 +7.20842257e-02 +8.55421349e-02 +3.20262462e-02 -2.28817359e-01 -8.35051686e-02 +5.93140721e-02 -1.10387646e-01 +1.69819728e-01 +2.76585549e-01 -5.76165244e-02 -3.57915089e-02 +4.34830151e-02 -6.61559179e-02 +7.84655362e-02 +1.38303131e-01 -6.64700270e-02 +2.25500204e-03 +5.74671440e-02 -3.49834450e-02 +3.78897905e-01 -1.30027300e-02 -2.02359315e-02 +1.59621090e-02 +9.01635066e-02 +7.12206541e-03 -1.85009986e-02 -2.01079994e-01 -1.49176732e-01 -1.58262238e-01 +6.88284934e-02 +3.29116918e-02 +5.48024960e-02 +9.60984975e-02 -1.90899596e-02 +7.37314597e-02 -9.19600949e-02 -2.34251213e-03 +2.29654551e-01 -5.52279092e-02 -1.42701156e-02 -6.92895874e-02 -1.03343613e-01 +6.03651181e-02 +5.94246201e-03 +4.11989391e-02 +9.87166092e-02 +4.55380492e-02 +1.76585212e-01 +8.85838494e-02 +9.32790712e-02 -8.98267701e-02 -8.46137479e-02 +5.98117476e-03 +1.39534444e-01 +4.95267436e-02 +7.90467337e-02 +6.39298931e-02 -5.34613170e-02 -6.23139553e-02 -1.06319580e-02 -2.03019474e-02 +3.57706845e-02 -1.81980252e-01 +5.51534891e-02 +1.07480839e-01 -1.28119634e-02 +9.31845084e-02 -1.15382232e-01 +1.80532888e-01 +1.43346325e-01 -1.93599835e-01 -2.47186050e-02 -2.40295436e-02 +1.29940659e-02 -2.49084961e-02 +1.32733524e-01 -1.02659523e-01 -8.88357610e-02 -1.52937964e-01 +4.17617038e-02 +6.57820627e-02 +6.85688928e-02 +3.36896293e-02 +1.48351714e-01 -1.53771751e-02 +1.18315257e-01 +2.08983142e-02 +1.53351519e-02 +3.44608612e-02 +1.43836200e-01 -7.34332576e-03 -5.37626557e-02 -7.88165703e-02 +1.35392100e-01 +1.35204807e-01 +3.34164262e-01 +5.72432242e-02 +1.75933868e-01 -1.90042734e-01 +1.27498239e-01 +2.10360214e-01 +1.26968905e-01 +2.01136414e-02 +1.55506954e-01 -1.53500929e-01 +2.13533305e-02 +2.98576802e-01 +2.66716421e-01 +1.98680893e-01 +6.19264431e-02 -2.13316247e-01 +8.34403485e-02 +4.45379205e-02 +1.45539753e-02 +1.19410351e-01 +1.61449239e-01 -7.88340047e-02 -4.49231267e-02 +2.97858939e-02 +8.57166424e-02 +1.05360545e-01 +9.10501629e-02 -1.24985024e-01 +1.45788282e-01 +3.11818540e-01 +2.96848387e-01 +4.61429171e-02 +1.89638406e-01 +2.42042467e-01 +9.36509147e-02 +3.80476058e-01 +2.67125610e-02 -1.10605575e-01 +2.15912104e-01 +2.86624264e-02 +5.30249588e-02 +9.17512774e-02 +1.41074568e-01 +1.03439629e-01 +3.86314206e-02 +8.61273706e-02 -9.91094336e-02 +2.07192600e-01 -5.95282912e-02 +4.34882194e-03 -1.25957131e-01 -1.58452272e-01 +1.68193713e-01 +1.89239625e-02 +4.27323133e-02 +2.03824237e-01 -1.25101358e-01 +1.31618470e-01 +7.20516816e-02 -2.14865375e-02 -3.76758464e-02 -2.47765973e-01 +5.92184030e-02 +2.31192693e-01 -1.32980406e-01 +1.96276888e-01 -7.55126327e-02 +1.74275488e-01 -6.74617365e-02 -4.89662215e-02 +4.73342016e-02 +4.31343652e-02 -8.35993215e-02 -3.44577767e-02 -1.63439512e-02 -7.73764253e-02 -1.11638233e-01 +5.37549816e-02 +1.36159658e-01 +1.56572461e-01 +1.39241621e-01 +6.80300221e-02 -7.63539895e-02 +2.39016134e-02 -1.05757773e-01 +3.50710601e-02 +3.75574492e-02 +9.21065584e-02 +1.54534042e-01 -1.09519279e-02 +2.55312562e-01 +1.12659767e-01 -9.38419774e-02 -3.80991474e-02 +1.66336522e-01 +9.72990096e-02 +2.09961832e-01 +1.94142133e-01 -1.12677105e-02 +2.48964410e-02 -1.32970661e-01 +1.48779765e-01 +2.09958274e-02 -9.65876803e-02 -6.60697743e-02 -3.20119336e-02 +1.01520851e-01 -8.86588916e-02 -3.67545262e-02 -1.03259623e-01 +1.10511445e-01 +9.09803621e-03 +3.96290831e-02 -1.34942055e-01 +2.77289655e-02 -9.05470401e-02 +5.66548631e-02 -2.72284690e-02 -2.52074301e-01 +1.39569893e-01 +8.83666277e-02 -4.26753163e-02 -1.06447920e-01 -1.12364337e-01 +1.03712529e-01 +7.48663247e-02 -5.95339388e-02 -6.06548935e-02 -1.90624610e-01 +1.11609124e-01 +1.03089310e-01 +3.41045074e-02 +1.12274460e-01 +2.18025912e-02 +1.90158069e-01 -1.10843308e-01 +1.17894329e-01 -2.75517814e-02 +1.45221755e-01 -4.56954576e-02 -6.80857077e-02 -4.70779613e-02 -4.62586135e-02 -1.90051347e-02 -2.88429018e-02 +1.14866011e-01 -6.32781535e-02 +6.41003326e-02 +1.16792150e-01 -1.30586289e-02 -5.07546822e-03 +1.99881126e-03 -4.15780060e-02 -8.95755962e-02 +2.27063373e-02 +2.37562787e-02 +1.78867802e-02 -1.05692826e-01 +8.91100615e-02 -9.18155313e-02 -1.32128960e-02 -5.10564111e-02 -1.13926589e-01 +2.22305268e-01 +2.13931105e-03 -9.03047621e-02 +7.44978432e-03 +7.28504732e-02 -1.35921016e-01 +5.07472046e-02 -7.89830983e-02 -7.28617013e-02 -1.30315647e-01 +6.98663890e-02 +1.54998243e-01 -8.33093226e-02 -6.15499020e-02 +9.01951417e-02 -5.70329651e-02 +2.63302308e-02 -1.24199696e-01 -1.70185298e-01 +1.03997856e-01 -5.39598018e-02 +1.70817465e-01 +2.44955830e-02 +1.75504610e-02 +2.36987751e-02 -2.42188629e-02 +1.83088288e-01 +1.08559772e-01 +6.51262188e-03 +2.65054554e-01 +5.97583354e-02 -4.29173000e-02 -1.84580442e-02 +6.62220344e-02 -5.81751764e-02 +1.24702685e-01 +1.16354585e-01 -1.12339295e-01 +3.84960137e-02 +2.33635470e-01 +1.95034117e-01 +9.00350325e-03 +4.12451960e-02 -3.25157605e-02 -6.31991848e-02 -8.99826139e-02 +1.14043027e-01 -4.58764471e-02 +3.46479900e-02 -2.25364068e-03 -6.27908902e-03 +5.24369255e-02 +5.18052354e-02 +5.79206422e-02 -2.75078248e-02 +8.65444094e-02 -8.89775455e-02 -9.12296623e-02 +2.42284387e-01 +9.64155346e-02 -2.59560980e-02 -1.73778251e-01 +5.72128855e-02 -8.29483345e-02 +5.65459132e-02 -3.24900486e-02 -8.49556550e-02 +1.34958550e-01 +1.50159091e-01 +1.09881826e-01 -7.35323280e-02 +2.26157829e-01 -3.67614999e-02 -1.25794327e-02 +3.68345007e-02 +6.34881407e-02 +1.49834067e-01 +5.71577363e-02 +4.61866818e-02 -3.40322964e-02 +3.12333349e-02 +4.47351187e-02 +8.74262676e-02 -1.81754395e-01 +1.73946589e-01 -1.12723783e-01 -1.04768619e-01 -7.77196437e-02 +8.02577808e-02 -2.72441089e-01 -8.26712251e-02 +1.13402113e-01 -7.07255676e-02 -4.16565361e-03 -1.13192625e-01 +3.22907865e-01 -5.42069860e-02 +6.30003884e-02 +2.86411326e-02 +3.69806617e-01 -4.89360057e-02 -1.39597893e-01 -8.48721191e-02 -1.34194540e-02 -9.04933512e-02 +3.27979028e-02 -1.45204708e-01 +3.75250131e-02 +1.70642678e-02 +8.82447809e-02 +8.74850303e-02 +2.21010065e-03 +1.51015893e-01 +5.26483208e-02 -2.86007095e-02 +2.40204521e-02 -6.26828615e-03 +2.26568617e-02 +1.82680935e-01 +1.10333949e-01 +8.42288285e-02 -2.77384110e-02 -2.03850403e-01 +9.49279033e-03 -7.00551942e-02 +1.18948124e-01 +2.16921896e-01 -2.26026699e-02 -2.02463120e-01 -4.33736034e-02 +1.10618174e-01 +1.42658457e-01 +1.28465191e-01 +9.48633477e-02 -6.97653964e-02 +1.28594026e-01 +6.54922277e-02 -1.57259062e-01 -5.12260720e-02 -1.02950647e-01 +7.98314717e-03 +6.82720216e-03 -1.22111842e-01 -1.00722000e-01 +7.65167698e-02 -2.04903841e-01 +4.91773989e-03 +1.74332724e-03 -1.45344511e-01 +4.57048863e-02 -1.29580319e-01 -4.88881692e-02 +3.68005149e-02 +7.41244778e-02 -5.67820705e-02 -1.39665276e-01 +9.42788795e-02 +1.31155238e-01 +1.67896003e-01 -6.24742806e-02 -2.49770246e-02 +6.13088794e-02 +2.67989412e-02 +2.09874272e-01 -5.11128232e-02 +4.32465449e-02 -6.56569749e-02 +2.03351542e-01 +8.56522471e-02 -4.17030640e-02 -1.86046083e-02 -9.23323482e-02 +9.42562819e-02 +4.24524061e-02 -6.84689656e-02 -2.25264803e-02 +4.24163090e-03 +3.34281810e-02 +6.36484995e-02 +2.71944255e-01 -3.47320922e-02 -2.69398540e-01 +8.57924968e-02 +6.09099418e-02 +5.97171159e-03 -2.69487854e-02 +1.40140697e-01 -1.34653106e-01 -5.55270761e-02 -1.70558602e-01 -8.25541392e-02 -1.74575463e-01 +2.20865548e-01 -2.83918134e-03 +2.53987424e-02 +3.92285213e-02 -3.38390321e-02 -1.82718575e-01 +1.01242371e-01 +2.56541763e-02 -3.00137475e-02 -1.37984112e-01 +6.44327179e-02 +2.10000407e-02 +1.79306835e-01 -1.09240621e-01 +5.93922660e-02 -2.77171633e-03 +1.44029349e-01 +2.12014932e-02 -1.01871751e-01 -2.77554570e-03 +5.54481819e-02 +5.33022843e-02 -8.49630684e-02 +7.39970943e-03 +1.17211798e-02 +6.70901239e-02 -1.15772374e-01 +7.67314732e-02 -4.46028225e-02 -6.20080754e-02 -1.35768443e-01 -4.83537205e-02 +7.41515607e-02 +6.38139099e-02 -1.37573302e-01 +1.35807768e-01 +9.38884690e-02 -1.89961761e-03 -2.44974773e-02 -1.63868424e-02 +8.10897648e-02 -9.52507649e-03 -5.98812960e-02 +1.87358037e-01 +8.60995352e-02 +6.83606192e-02 -2.25472990e-02 +1.00793839e-01 +4.69292793e-03 +2.80027241e-02 -1.08599693e-01 -1.62449643e-01 +3.39834616e-02 -1.26800910e-01 +8.31844583e-02 -2.62783952e-02 +1.74875662e-01 -2.76379026e-02 +1.99345827e-01 +7.34680146e-02 -1.16399549e-01 -2.89745294e-02 -1.04269184e-01 +8.96753836e-03 +5.20229898e-02 -6.00613356e-02 +1.43094137e-01 +4.10209447e-02 -1.01465937e-02 -5.78717589e-02 -1.53947055e-01 +1.36374220e-01 -9.78349298e-02 -5.16560562e-02 +2.34274760e-01 +3.82344872e-02 -8.64084587e-02 +4.35172506e-02 -9.84270498e-02 -7.17418566e-02 +9.32426527e-02 -2.32655257e-01 -2.05157042e-01 -4.62816469e-03 +4.54180613e-02 +1.52834449e-02 +5.39667457e-02 +1.10843070e-01 +1.72427878e-01 +1.74059182e-01 -2.05572303e-02 -4.46530469e-02 +1.08061649e-01 -7.49067217e-02 +8.95262733e-02 +4.89500389e-02 -1.59692556e-01 -8.69433396e-03 -3.86835486e-02 +1.31669506e-01 -2.66114268e-02 +1.99165002e-01 +8.78627077e-02 -4.11815017e-01 +1.96410298e-01 +1.57853793e-02 -1.37595028e-01 +9.68522057e-02 -6.05431795e-02 -1.89990163e-01 +4.17678282e-02 +1.68925494e-01 +8.87445509e-02 +1.58631966e-01 +5.17416652e-03 -2.40308344e-01 -1.24098256e-01 +1.36451513e-01 -2.84260157e-02 +4.11529467e-02 +5.31918481e-02 -4.93192375e-02 +1.06867095e-02 +3.88928130e-03 +5.64293154e-02 -4.13810350e-02 +8.62865299e-02 -6.51254728e-02 -1.87486455e-01 +5.88035351e-03 -2.81825312e-03 +1.18811689e-01 +1.98442355e-01 +1.03077933e-01 +1.31341815e-01 -3.54488334e-03 +9.50103160e-03 -1.49572775e-01 -3.70077528e-02 +5.26861986e-03 +3.33169252e-02 -1.07219175e-01 -2.02350840e-02 -2.56774247e-01 -1.43605158e-01 -2.31429160e-01 -2.73533434e-01 -2.12568685e-01 -1.57815129e-01 +5.19546606e-02 +4.15931642e-02 +1.71226412e-01 -1.08873099e-01 -1.52370095e-01 -3.77925813e-01 -7.23161921e-02 +1.91329762e-01 -2.19012231e-01 -1.35108668e-04 -3.63653488e-02 -2.02448666e-01 -2.48083230e-02 +1.10040251e-02 -2.12273270e-01 +9.56771597e-02 +5.79617172e-02 -5.18534929e-02 +1.55513555e-01 -2.86837161e-01 +7.97063559e-02 -1.13996513e-01 -2.78810382e-01 -1.25335574e-01 +1.09652124e-01 -1.39896441e-02 +1.21385112e-01 +2.94300169e-02 +4.30744737e-02 +2.50754114e-02 +2.44171917e-01 -4.72773500e-02 +1.55134103e-03 -9.44432691e-02 -6.45605847e-02 +3.15176360e-02 -2.14673281e-01 -2.33308047e-01 -2.21222043e-01 +1.06783867e-01 +4.14192351e-03 -3.13468575e-01 -5.47993407e-02 -1.53408170e-01 -1.44941732e-01 -1.56501427e-01 -1.17411070e-01 -5.80459535e-02 -1.57341108e-01 -3.06750089e-01 -4.92727607e-02 -1.66513965e-01 +8.45880136e-02 +1.93633027e-02 -1.26301870e-01 -5.81653863e-02 +1.41676255e-02 -5.32792434e-02 -1.70159519e-01 -1.70569211e-01 -2.26000771e-01 -2.70182192e-01 -2.28415906e-01 -8.02812539e-03 +1.01170719e-01 -4.12017740e-02 -1.04599312e-01 +1.00303993e-01 -1.60333112e-01 -2.40652263e-01 -6.07802533e-02 +1.26955658e-01 -8.49267691e-02 -1.82957128e-01 -6.62900554e-03 -1.80538863e-01 +1.71887241e-02 +9.59143788e-02 +2.22233925e-02 -2.72636980e-01 +1.87707618e-01 +7.95645788e-02 -7.22374022e-02 -1.04373306e-01 +4.81286831e-02 +6.05042800e-02 -6.03055619e-02 -2.28742495e-01 -2.50457585e-01 +1.33623689e-01 +1.99802265e-01 -8.71457979e-02 -6.04705662e-02 -1.27387479e-01 -1.24695346e-01 -2.37824872e-01 -5.75262457e-02 +1.26112849e-01 -5.03402501e-02 -1.03664458e-01 -6.91383630e-02 -1.67489454e-01 -7.27281421e-02 +5.14603443e-02 -1.60521984e-01 +1.36065567e-02 -6.46754876e-02 -8.23766664e-02 -4.56921272e-02 -1.49969622e-01 +7.13214129e-02 +1.91194694e-02 +1.44618209e-02 +9.86528322e-02 -1.83973797e-02 -2.06031520e-02 -8.30877759e-03 +1.01835933e-02 +1.10672109e-01 -1.63977623e-01 +8.42875242e-02 +2.15151701e-02 +1.12197667e-01 +9.53014567e-02 +2.72348940e-01 +7.49480948e-02 +2.00067148e-01 -9.86705869e-02 -1.85870901e-02 +7.34856799e-02 +1.16320424e-01 +1.65879130e-01 -9.05966088e-02 +1.37748361e-01 +1.06293015e-01 +6.76365048e-02 +2.08523929e-01 +1.40506995e-03 -1.41472980e-01 -1.92857057e-01 +6.37871027e-02 +5.08514345e-02 -2.32906535e-01 +5.48208766e-02 +2.88382638e-02 -8.11277423e-03 +8.47198665e-02 +1.65537242e-02 -2.91652996e-02 +4.36623506e-02 -4.39587347e-02 -1.43880239e-02 +1.47562819e-02 -7.92433843e-02 +6.85327826e-03 +9.75528616e-04 -2.33654268e-02 +9.80954766e-02 -8.71081576e-02 -1.86970875e-01 -1.53824463e-01 -9.49560180e-02 -2.78563835e-02 +4.53341007e-02 +3.51277590e-02 -2.94250753e-02 +8.10037926e-02 +1.27810434e-01 -3.94324064e-02 -4.77798954e-02 -8.60158727e-02 +5.10056913e-02 -7.33027905e-02 -2.43725199e-02 -6.59732074e-02 -7.60153830e-02 +3.60640027e-02 +2.59916812e-01 -2.42152270e-02 -1.20000273e-01 +8.39576870e-02 -2.65842509e-02 +1.02777191e-01 +1.14908166e-01 +1.47350207e-01 +1.53150279e-02 +7.35876635e-02 +7.31324777e-02 -2.37963665e-02 -1.69597566e-02 -9.43068229e-03 +6.50811289e-03 -1.06964752e-01 +1.84253957e-02 +3.65870930e-02 -1.21322043e-01 -1.17689162e-01 +6.74131466e-03 -1.17451318e-01 -6.86235502e-02 -4.12212946e-02 -8.20820332e-02 -2.02224813e-02 +5.45080565e-02 -9.49404314e-02 +2.85688527e-02 -2.16900051e-01 -2.53359955e-02 -4.76924591e-02 +6.79416060e-02 +2.18195483e-01 -2.47075543e-01 -1.59068406e-01 -4.45336811e-02 +7.45157897e-02 +1.10407859e-01 +1.14589140e-01 +9.32973623e-02 -2.13293597e-01 +9.62898210e-02 -1.00742336e-02 +1.11279920e-01 +1.52709574e-01 +6.12957738e-02 -2.44873554e-01 -1.86828807e-01 +3.46396193e-02 +9.52944532e-02 -3.48430220e-03 -3.50058824e-01 -1.50791600e-01 +1.46341309e-01 +9.93103683e-02 -1.23117141e-01 -8.86546001e-02 -1.70968980e-01 -1.63706496e-01 +5.54212928e-02 -1.07366927e-01 +6.60832971e-02 -3.38816307e-02 -7.28595331e-02 -1.56714525e-02 +2.01824963e-01 -1.11983031e-01 +3.87527980e-02 -7.80091137e-02 +1.11848570e-01 -4.74589057e-02 +9.01153982e-02 -2.95568723e-02 +1.77364573e-01 +2.69248515e-01 +1.22907117e-01 +2.31900051e-01 -1.13145940e-01 +6.15123771e-02 +8.55497122e-02 -8.02094936e-02 -1.13476768e-01 -7.91786313e-02 +2.66816556e-01 +1.34102821e-01 +5.97017184e-02 +1.25297189e-01 +1.71776321e-02 -3.17722335e-02 +2.02433057e-02 -3.05341125e-01 +3.12276185e-03 -2.15834044e-02 -1.07911907e-01 -1.48799643e-01 +1.01534079e-03 -1.21477246e-01 +5.61981164e-02 +3.89273535e-03 +1.03641979e-01 -7.94112608e-02 +6.59925789e-02 -7.44246468e-02 -7.58281425e-02 -1.57471821e-01 +2.70311516e-02 -2.30848067e-03 -1.47775225e-02 -2.47676864e-01 -1.01747714e-01 -8.73415545e-03 -9.15876776e-02 +6.98392317e-02 +1.66544449e-02 -3.51044796e-02 +3.15639794e-01 -1.25674475e-02 -1.33031100e-01 -7.41471816e-03 +7.51843601e-02 +9.16195512e-02 +7.73244128e-02 +2.41334036e-01 +7.63264894e-02 +4.12850231e-02 -5.16926423e-02 -1.38364047e-01 +6.44724742e-02 -1.30643606e-01 -8.30200762e-02 +3.51704583e-02 -3.95688303e-02 +2.00750038e-01 -1.58754766e-01 -1.16407380e-01 +2.49564252e-03 +1.37857959e-01 +1.47388265e-01 +3.87263507e-01 +2.52296299e-01 +3.43219861e-02 +1.79470852e-02 +3.68345678e-02 +5.83875887e-02 +7.75953308e-02 -1.68148592e-01 -1.27655894e-01 +2.96718031e-01 +1.81964904e-01 +5.12062013e-02 -7.35299885e-02 -2.21367050e-02 +8.37821215e-02 -3.83978747e-02 -6.44903705e-02 -1.23139657e-01 -5.65049145e-03 +1.03046857e-01 +1.25231087e-01 +9.55605730e-02 -2.02385202e-01 +1.00278752e-02 +1.59130126e-01 +9.08593461e-02 +2.31125094e-02 -2.06659436e-01 -4.90161106e-02 +1.65859222e-01 +1.36529714e-01 +1.57767087e-01 +1.95530400e-01 +4.99405451e-02 -8.35837796e-02 +6.47847876e-02 +9.47415903e-02 -1.38897553e-01 +6.56454265e-02 -3.27784680e-02 +1.11542672e-01 -6.26616552e-02 -1.59371446e-03 +4.91843857e-02 +4.29711118e-03 -1.23439729e-02 +1.15224019e-01 -1.70809805e-01 +1.14905007e-01 +1.72513962e-01 +5.49949519e-02 +5.76955713e-02 +1.74315766e-01 -1.65237263e-01 +9.33480076e-03 +2.45906003e-02 +4.96098287e-02 +7.42770433e-02 +8.33312646e-02 -1.09891511e-01 -1.09487019e-01 -5.50538301e-02 +9.34369788e-02 -8.73505026e-02 +3.32588032e-02 +1.13586135e-01 -1.21741928e-01 -3.37345228e-02 +6.15912825e-02 -9.09105688e-02 -9.05302092e-02 +4.42366153e-02 +1.81227084e-02 -6.12056069e-02 +5.63173257e-02 +3.57805230e-02 -6.16264157e-02 -6.11628890e-02 -1.04536794e-01 +6.91554323e-03 +1.57693326e-01 -7.56488591e-02 +1.72231272e-01 +1.97815940e-01 -6.22175112e-02 -4.03644890e-02 -2.41305798e-01 +5.24792112e-02 -5.96105084e-02 +1.36271631e-02 +8.45005587e-02 +1.53092280e-01 -1.10896148e-01 -8.38579610e-02 -1.30903035e-01 -8.13832656e-02 -5.87478206e-02 +8.07561725e-02 +1.29482569e-02 +8.97711813e-02 +1.04586206e-01 -5.40429093e-02 +1.26223549e-01 -2.72491947e-02 +1.12767387e-02 +1.94425005e-02 +5.80423102e-02 +1.04743257e-01 -2.66164839e-02 +8.12778473e-02 -2.43156459e-02 +7.33933672e-02 +3.78428102e-02 -8.80828872e-02 -1.06863506e-01 -3.32690985e-03 -1.60006750e-02 +1.38425753e-01 -1.39367133e-01 -1.78104807e-02 +4.22626175e-02 +1.58474639e-01 +7.30814785e-02 -5.91393150e-02 +1.14958175e-02 -1.30805857e-02 +2.03752890e-02 +9.87361521e-02 -3.62954259e-01 -1.90207168e-01 -2.02669892e-02 -1.01588778e-01 -1.02184407e-01 +2.83978600e-02 -5.09707034e-02 -6.52484298e-02 -2.41833236e-02 +1.37023583e-01 +1.65929094e-01 -6.30408525e-02 -6.33166432e-02 +1.89099237e-02 -9.88178253e-02 -3.51019293e-01 +1.22150265e-01 -5.79973273e-02 +6.30300790e-02 -1.79998368e-01 +9.85596627e-02 -4.30062078e-02 -7.90518448e-02 +5.45413746e-03 +6.16773888e-02 -8.12041014e-02 -6.95589036e-02 -1.23040780e-01 -2.39117533e-01 +6.84485659e-02 +1.42666981e-01 +1.60795264e-02 +5.32675125e-02 -9.23184752e-02 -7.28753209e-02 -5.13609983e-02 -2.26434261e-01 -9.50944126e-02 -3.36023420e-02 +7.19182715e-02 +5.04883341e-02 +9.80185252e-03 -4.78768907e-02 -1.12659760e-01 +4.64960299e-02 -9.95509550e-02 +7.59429857e-02 -9.60827395e-02 +8.70957002e-02 -5.05628325e-02 +1.80801898e-01 +4.22853865e-02 -2.33229231e-02 -8.09491128e-02 -9.47070867e-02 -1.46475002e-01 +1.22862039e-02 -3.98592763e-02 -9.53915268e-02 +1.49469137e-01 -2.22860634e-01 -5.16622625e-02 -1.34303987e-01 +6.53935000e-02 +6.00928441e-02 -2.60649323e-02 +7.20101073e-02 -2.36779302e-01 -2.89192915e-01 -3.23234126e-02 -2.43992105e-01 -3.19959164e-01 +5.33695072e-02 -2.52534270e-01 +1.94851562e-01 -1.14320785e-01 -2.24913925e-01 -4.48010266e-02 +1.22975809e-02 +2.18096711e-02 -4.20611463e-02 -5.19256234e-01 -2.08887964e-01 -1.08641334e-01 +1.71412677e-02 +1.76814944e-02 -3.60154249e-02 -3.84990454e-01 +9.15843621e-02 -1.65667132e-01 -1.81948736e-01 -1.13924004e-01 -5.18913474e-03 -2.34425798e-01 +1.37133319e-02 +6.96804225e-02 -5.01581095e-02 -1.97669044e-01 +1.53915823e-01 -3.34572643e-02 -1.90682381e-01 -1.97625816e-01 -6.16679937e-02 -2.04203308e-01 -1.06616788e-01 -1.40911698e-01 -1.96101889e-01 -2.43658815e-02 -1.47532910e-01 -4.20427680e-01 +1.08289897e-01 -9.92797092e-02 -2.16621742e-01 -1.79441884e-01 +2.85138100e-01 -2.31084466e-01 -1.72122605e-02 -2.99211353e-01 -1.59288481e-01 -2.02228829e-01 +1.09313786e-01 +9.12249163e-02 -6.67266594e-03 -3.00258100e-01 -1.50581956e-01 +5.49447276e-02 -3.64990309e-02 +1.86759427e-01 -1.30162761e-01 -3.46461833e-01 -6.59275800e-02 +8.02138969e-02 +7.47496262e-02 -4.76360396e-02 -2.79722409e-03 -1.01750515e-01 -4.04663950e-01 -1.18778624e-01 +3.94466817e-02 -1.68116093e-02 -1.01383470e-01 -3.81921679e-01 -1.62717551e-01 -4.00899678e-01 +9.47987810e-02 -4.93405834e-02 -1.60376221e-01 -4.04434532e-01 +2.02998109e-02 -1.47029757e-01 -3.46754164e-01 -2.29882553e-01 +8.47025067e-02 +1.83519959e-01 +3.02756554e-04 -2.43413925e-01 -2.55614072e-01 -1.62709896e-02 +2.59891182e-01 -8.78009722e-02 -1.22177303e-01 -1.47377551e-01 -1.16728269e-01 -3.49435180e-01 -4.72086705e-02 -6.35588467e-02 +2.71805618e-02 -5.23023531e-02 -5.12409247e-02 -5.78387175e-03 -1.75379664e-01 -5.49819060e-02 -1.93050101e-01 -1.58093378e-01 -9.44880545e-02 -2.23525226e-01 -1.71104163e-01 -2.33377665e-01 +5.17087802e-02 -2.48414874e-01 +1.54667318e-01 -1.91766039e-01 -7.83995390e-02 -1.98071152e-01 -4.12232615e-02 -6.70924485e-02 -6.12383820e-02 -4.90500070e-02 -7.51900394e-03 +1.34171218e-01 -4.43346892e-03 +5.18978164e-02 -7.40226284e-02 -1.04644120e-01 +1.55172899e-01 -5.45174330e-02 +7.82514140e-02 +2.95809470e-03 -6.94259480e-02 +8.42337161e-02 -9.59568098e-02 +1.42432556e-01 -2.72433111e-03 -4.18827944e-02 -9.63554829e-02 +9.20983404e-02 +2.43037827e-02 -4.03812453e-02 +8.29269588e-02 -1.80099122e-02 -2.87290752e-01 -8.15735906e-02 +1.24124885e-01 -1.05192587e-01 +5.70947379e-02 +1.13122165e-01 +8.53847042e-02 +3.98388319e-03 +7.06820488e-02 -4.01715748e-02 +1.28149614e-01 -3.37182507e-02 +1.20910376e-01 -4.10690904e-02 +5.85575439e-02 +6.35033995e-02 +1.06297620e-01 +3.72903310e-02 +4.60334495e-02 +1.47015844e-02 -1.79084931e-02 -5.53519689e-02 -1.16466694e-01 -7.03366240e-03 +8.92822519e-02 +1.40847310e-01 -6.31631315e-02 +1.11399479e-01 +1.30649567e-01 +6.39793053e-02 -8.49462599e-02 +6.23311214e-02 -1.81084722e-02 +2.38903798e-02 +1.17852993e-01 +2.17554688e-01 -1.73948810e-01 +7.61460327e-03 +3.19846421e-02 -1.24995701e-01 +1.80999991e-02 -1.05010353e-01 +1.50014937e-01 +6.30552247e-02 -1.76221672e-02 -9.88397896e-02 -3.11449528e-01 +9.97152254e-02 -2.45283116e-02 -6.19253889e-02 -2.03388304e-01 -1.55119658e-01 +6.69476837e-02 +1.23529412e-01 +1.26090229e-01 -1.35066435e-01 -2.03110069e-01 -9.84694809e-03 +9.43648517e-02 +7.85898417e-04 +1.10613303e-02 +1.05200380e-01 -4.32117246e-02 +8.22582245e-02 -2.17320144e-01 +3.88580635e-02 +4.52279560e-02 +1.48870824e-02 +2.03396708e-01 -2.37695016e-02 +6.61131591e-02 -5.35421306e-04 +9.77304280e-02 -1.66744888e-01 -1.40206575e-01 +2.60366891e-02 -5.78109361e-02 -3.05833900e-03 -9.39126611e-02 -2.99858656e-02 +1.74580179e-02 -6.96807876e-02 -5.76487407e-02 -6.62720129e-02 +4.35658246e-02 -9.16986689e-02 -8.38653743e-02 -1.71074346e-01 -1.31751463e-01 +2.21222818e-01 -6.91230372e-02 -4.08385769e-02 -6.12009410e-03 +4.92060743e-02 -1.34513199e-01 +7.37306774e-02 -5.19438535e-02 +1.20726474e-01 -1.26226053e-01 +2.94482205e-02 -2.92071432e-01 +1.65903449e-01 +2.36951951e-02 -1.18620791e-01 +6.86968938e-02 -3.47785167e-02 +1.04913712e-02 +4.27899323e-02 -1.64888069e-01 -2.12002113e-01 -1.03451768e-02 -1.29466489e-01 -9.01598111e-02 +1.16628520e-01 +8.26109201e-02 +1.51603878e-01 +1.79634675e-01 -4.74547669e-02 -5.23320101e-02 -1.36171654e-02 -2.48468563e-01 -3.71476379e-03 -4.94451165e-01 -3.87130715e-02 -1.62482917e-01 +1.33946225e-01 +1.05556604e-02 +7.45276436e-02 -1.25243604e-01 +8.62315968e-02 +8.40709265e-03 -1.91271529e-02 -5.37527865e-03 -5.92706911e-02 +9.18447413e-03 +5.88288866e-02 +7.01263221e-03 +1.15723178e-01 +2.00007744e-02 -1.26915082e-01 +2.12913845e-02 -2.73164988e-01 -1.88545942e-01 -4.10663569e-03 -1.35380626e-01 +2.64945775e-02 -8.63979384e-02 +1.11821527e-02 -1.31180972e-01 -2.05114651e-02 -2.47225598e-01 -1.52088985e-01 -7.39694089e-02 +4.28280719e-02 -1.58629958e-02 -9.23513770e-02 -2.70831287e-01 -1.28645629e-01 -5.51299006e-02 -9.96752828e-03 -3.01052988e-01 -1.14455201e-01 -2.54992489e-02 +2.56980658e-01 -1.65653542e-01 +1.51599854e-01 +2.58119237e-02 -5.67048043e-02 +1.08640119e-01 -8.81815702e-02 +1.47383288e-01 -6.19069077e-02 +5.29315658e-02 -4.46621125e-04 -2.37140581e-01 +1.15487482e-02 +5.77830002e-02 +1.72340274e-02 -3.52384225e-02 -7.32054114e-02 -3.15731065e-03 +9.68414638e-03 +3.80604640e-02 +5.57304583e-02 +6.50462285e-02 -5.14380634e-02 -1.48267031e-01 -1.22781262e-01 -1.02740027e-01 +1.50345236e-01 -1.14987353e-02 +8.80623385e-02 -1.65436238e-01 -6.40885159e-02 -3.44911069e-02 +9.78093073e-02 +7.29927793e-03 +8.48222300e-02 -2.13265494e-02 -1.01892278e-01 +7.33393505e-02 -1.41143352e-01 -1.14882328e-01 +3.66797275e-03 +1.01568839e-02 -1.58451900e-01 -6.93952218e-02 +4.24965890e-03 -1.49456680e-01 -1.05636672e-03 +1.75534952e-02 +4.23999168e-02 +7.87493214e-03 +4.13767844e-02 -6.35495409e-02 -1.03596456e-01 +6.49834648e-02 -4.31386158e-02 -1.72480792e-01 +8.30021352e-02 +6.65575862e-02 -9.65364128e-02 +1.05604313e-01 +4.15376760e-02 +1.03689879e-01 -8.33355114e-02 +1.13827020e-01 +6.09055385e-02 +3.26146409e-02 -7.65505731e-02 +2.41599772e-02 -4.63002436e-02 -1.30621552e-01 -3.24537717e-02 -8.07157382e-02 -4.33628634e-02 +1.17392816e-01 -7.47609437e-02 -2.04446912e-01 +7.29522854e-02 +2.57759511e-01 -3.60416844e-02 +7.52872601e-02 -4.48701251e-03 -1.55191019e-01 +9.80794728e-02 +1.66783318e-01 +1.81911319e-01 -5.96242249e-02 -3.95605788e-02 +3.40843707e-01 -1.11339711e-01 -1.26575753e-01 -2.35037599e-02 -7.56826997e-02 -1.04468949e-01 -3.13725322e-02 -3.72960232e-02 -1.95481926e-02 -5.78999985e-03 -5.56004457e-02 -2.06029508e-03 +3.95613350e-02 +5.22023812e-02 +3.74572314e-02 -9.09663085e-03 -7.77157247e-02 +6.95997998e-02 +1.45602882e-01 -2.91442145e-02 +5.25816604e-02 +1.21638857e-01 +1.06306568e-01 -4.75814007e-02 +1.82995703e-02 -8.68205726e-02 -2.50167549e-02 +9.38258246e-02 -5.39671630e-03 +2.12682351e-01 +2.26145405e-02 -1.31841376e-01 -6.39424324e-02 +9.27445441e-02 +2.25233957e-02 -1.48040950e-01 +9.90052298e-02 +1.06343769e-01 -1.34848906e-02 -3.36262919e-02 +1.17786452e-01 -1.50481567e-01 +6.95099458e-02 +8.91361311e-02 -6.79261144e-03 +6.97057694e-02 +7.45712593e-02 -2.62979478e-01 -2.56153524e-01 -5.14837913e-02 +8.20004642e-02 +1.92702357e-02 -2.57718228e-02 +7.71977333e-03 -7.78191611e-02 -1.00316636e-01 +1.38459682e-01 -9.78120714e-02 +1.24518434e-02 -1.27388775e-01 -1.36803752e-02 +4.02784757e-02 -1.65140525e-01 -1.35935724e-01 +4.23055515e-02 -2.25058258e-01 +8.84126276e-02 -1.81272343e-01 +3.73473801e-02 -1.54184490e-01 -1.92423195e-01 +2.13081352e-02 -3.38946208e-02 -1.34857759e-01 -8.24231803e-02 -1.65678766e-02 -9.25280526e-02 -8.77879858e-02 -7.55468011e-02 -9.17091146e-02 -1.68984815e-01 +5.51299304e-02 +1.52655756e-02 -3.63508463e-02 -8.15165713e-02 -2.51254469e-01 -1.50755583e-03 -2.05450952e-01 -1.32207766e-01 -7.79698193e-02 +5.42096272e-02 -4.15426642e-02 -6.59181923e-02 +7.59452507e-02 +1.26246214e-01 -3.41321796e-01 +7.45950565e-02 +5.30472538e-03 -6.27640411e-02 -2.34560534e-01 +1.57214463e-01 -5.71503825e-02 +6.54396042e-02 -2.72366754e-03 +5.85637428e-02 -4.23897803e-02 -2.18315870e-01 -1.22465000e-01 -1.13592505e-01 -4.43173125e-02 -9.16902497e-02 -8.30435678e-02 -1.55327946e-01 +6.35291040e-02 -1.80069566e-01 -6.97135255e-02 -1.68774024e-01 -1.19621828e-01 -4.27120179e-02 -1.30503118e-01 -2.92804688e-01 -2.27935836e-01 -1.29751995e-01 -3.43359970e-02 +3.07405442e-02 +1.36369422e-01 -2.26219073e-01 -3.76406237e-02 -1.20871015e-01 +8.12027231e-03 +1.39389727e-02 -9.92485508e-02 +1.81220070e-01 +8.43960121e-02 -2.13034377e-01 +1.06149845e-01 +2.92592496e-02 +1.07136592e-01 -1.12103280e-02 -1.29030481e-01 +4.31154184e-02 -1.24509288e-02 -1.06378101e-01 -3.60333733e-02 -8.07168409e-02 -8.26575756e-02 +4.97760922e-02 +1.21981837e-01 -2.55135186e-02 -1.15649380e-01 +5.29680848e-02 +4.14525419e-02 +4.46659736e-02 +4.96715158e-02 +1.47265032e-01 +9.71974805e-02 -1.77249461e-02 -3.00972492e-01 -2.11808279e-01 -1.12743944e-01 -6.62966222e-02 -1.31794646e-01 -8.70567411e-02 +9.13310796e-03 -1.13564998e-01 -1.37134209e-01 -1.90526336e-01 -1.20875269e-01 -1.91224828e-01 -1.63222745e-01 -3.11076552e-01 +4.84282523e-02 -4.40594591e-02 +6.51007593e-02 -2.65958071e-01 -1.82182476e-01 -9.94657651e-02 -3.18233781e-02 -2.00619802e-01 -1.12010531e-01 -2.62775242e-01 -1.33537516e-01 +4.69545014e-02 -9.58166793e-02 -6.92896247e-02 -2.75523096e-01 +1.12533737e-02 -2.18891039e-01 -3.75042707e-02 -1.93639293e-01 +6.72579482e-02 -1.06147416e-01 +1.20024376e-01 +9.15788487e-03 +1.20432638e-01 -1.45821452e-01 -2.61208080e-02 -1.41453460e-01 -2.58395344e-01 -3.26696634e-02 -1.52998418e-01 -1.34647831e-01 -3.71596031e-02 +1.44862374e-02 -1.58186957e-01 -1.46888599e-01 -2.14601681e-01 -6.61692545e-02 -5.51758558e-02 -1.95335314e-01 -1.61899820e-01 -6.35717660e-02 -1.60609320e-01 -3.80712122e-01 +6.06683679e-02 -9.76868346e-02 -3.58159602e-01 -1.20679447e-02 -5.13303317e-02 +4.38437890e-03 -2.82648295e-01 -8.02331567e-02 -3.44264023e-02 -2.42435411e-01 -1.89069211e-01 -2.19432920e-01 -2.15748996e-01 -1.66642308e-01 -9.28590354e-03 -1.65389068e-02 -7.05387071e-02 -1.43379290e-02 -2.22862646e-01 -1.25486374e-01 -2.08088294e-01 -2.17500135e-01 -1.07104359e-02 +7.50966743e-02 -1.53816175e-02 +6.96187094e-02 -1.40408397e-01 -1.01947330e-01 -1.40868230e-02 -9.14961100e-02 +1.43355012e-01 +1.93244100e-01 +2.36464620e-01 +7.71477446e-02 +6.69462085e-02 +2.00469658e-01 -2.37776682e-01 -9.48679373e-02 +4.44316827e-02 -1.15543574e-01 -1.10889331e-01 +7.39459880e-03 +3.78581621e-02 -2.53212780e-01 +1.08365357e-01 -7.28851333e-02 +4.08798605e-02 -1.09053310e-02 -3.14784110e-01 +1.13213770e-01 +1.11094490e-01 +9.84597392e-03 +1.82694348e-03 -3.44671048e-02 +7.12725297e-02 +1.46980941e-01 -5.08751944e-02 +7.34261572e-02 +1.15991943e-01 -2.01566651e-01 +3.73125486e-02 +9.81849432e-02 +2.71436144e-02 -2.58272827e-01 -6.79730326e-02 -3.15752300e-03 -2.53286175e-02 -6.17303178e-02 +8.48981217e-02 -7.11462751e-04 -1.07500352e-01 -3.67622524e-02 +1.96080804e-01 +6.41287863e-02 +1.92420319e-01 +1.97472679e-03 -1.05172265e-02 -1.17673256e-01 +8.13661441e-02 +1.67951778e-01 -1.05658941e-01 -1.01084307e-01 -1.43930484e-02 -3.46117187e-03 -6.90532103e-02 -2.44555637e-01 +2.91102640e-02 -4.54905964e-02 -1.08012617e-01 +1.65447176e-01 -6.02570511e-02 -5.65196276e-02 +3.43016163e-02 -5.51135987e-02 +3.03993106e-01 +1.64068714e-01 -1.20193269e-02 -3.46784480e-02 -2.22310990e-01 +7.12631419e-02 -2.17793941e-01 -2.44885460e-01 -1.71959221e-01 +4.30170223e-02 -1.52078286e-01 -2.41919793e-02 -2.06296369e-02 +4.40077623e-03 -7.49122500e-02 +1.96567208e-01 -7.16255456e-02 -4.30950411e-02 -3.01412363e-02 +3.35060917e-02 +6.59850910e-02 +1.37163714e-01 +4.17357534e-02 -1.71297476e-01 -6.92444146e-02 +1.06893808e-01 -3.25214453e-02 +3.88956107e-02 +9.51176584e-02 -6.99915811e-02 -2.18758345e-01 -6.03712164e-02 -1.33038789e-01 +6.51525930e-02 +1.40366033e-01 +2.24367250e-02 -1.22924283e-01 -2.29882121e-01 +6.96165934e-02 -6.35336190e-02 -2.17825044e-02 -2.19300672e-01 +1.06121674e-02 -1.41610265e-01 +7.46197328e-02 -3.25757042e-02 +3.93336974e-02 +7.56740719e-02 -1.83685005e-01 +3.47048156e-02 +1.32575794e-03 -2.01561481e-01 +3.97418402e-02 -2.64181793e-01 +1.17270365e-01 -8.89165327e-02 +5.99716157e-02 +1.14760116e-01 +2.10756231e-02 -1.46001369e-01 +1.93368450e-01 +8.86652619e-02 +1.13741711e-01 +3.95919662e-03 +7.60432407e-02 +6.56169802e-02 +3.96023303e-01 -6.80152774e-02 -8.85942951e-02 -3.11496691e-03 +2.08618436e-02 -2.51794875e-01 +4.02281359e-02 +6.20293841e-02 -5.06535731e-02 -6.15331568e-02 +4.96456593e-01 +9.50325727e-02 -9.29618776e-02 +1.70717582e-01 -4.66472842e-02 +2.27837145e-01 -7.91837275e-03 +2.21567899e-01 +5.38759418e-02 +9.91203934e-02 +1.75819367e-01 +5.15834928e-01 -2.45791906e-03 -5.50115965e-02 -1.56183019e-02 +1.02197966e-02 +6.69206865e-03 -1.24108538e-01 +7.45577142e-02 +1.86969548e-01 -7.12911338e-02 -1.59711186e-02 -1.43023401e-01 +2.52219811e-02 -3.62553783e-02 -5.17623909e-02 +1.09165780e-01 +9.42120254e-02 +1.59745160e-02 +5.53770661e-01 +3.12853493e-02 +5.65560386e-02 +1.52877131e-02 -3.74313071e-02 +6.69814646e-02 +4.08756107e-01 -2.23112218e-02 -2.76942402e-02 +1.04546947e-02 +1.59414098e-01 -1.12309925e-01 -1.24943204e-01 -1.34373158e-01 +1.78496763e-02 -1.13663096e-02 -1.20495148e-01 -1.11877829e-01 -9.68765374e-03 -1.62366003e-01 -5.29312342e-02 -4.92912121e-02 -2.51731724e-01 +7.03974664e-01 +1.41213030e-01 +7.95671940e-02 -9.98029187e-02 -1.69633165e-01 +1.50544629e-01 -1.59728289e-01 -2.08850011e-01 +5.44702038e-02 +7.80721530e-02 -7.24876150e-02 -4.20678891e-02 +1.14420176e-01 +2.04222381e-01 -1.28529638e-01 +9.63576287e-02 -1.46859154e-01 -1.34454861e-01 +1.14927374e-01 +2.13041753e-01 +3.69307678e-03 -8.54505375e-02 +2.10332379e-01 +1.22045195e-02 -1.04723731e-02 +3.79104465e-02 -8.83162245e-02 -6.83464333e-02 +1.37608737e-01 +1.00611530e-01 -4.93681151e-03 +1.30126283e-01 -8.94578025e-02 +1.57928139e-01 +1.00874295e-02 +4.94790971e-02 +2.32194290e-01 +2.83448994e-02 +1.60292417e-01 +8.77119154e-02 -1.74049363e-01 -6.59174323e-02 -7.33945742e-02 -4.66428399e-02 -1.35647645e-02 +2.27164738e-02 +2.05652460e-01 +3.87712508e-01 -1.48322344e-01 +7.78349815e-03 -1.31006092e-01 +7.73173478e-03 +4.44053188e-02 -3.42132747e-01 -1.69641286e-01 -1.89994976e-01 +1.02799647e-01 +1.09546311e-01 +4.74072713e-03 -1.77518755e-01 -5.42016290e-02 +4.64632772e-02 +5.30352555e-02 -7.84545019e-02 -5.28537780e-02 -9.54448953e-02 -1.96510896e-01 -2.96098925e-02 +2.03107018e-02 -1.19468845e-01 +7.54788071e-02 -1.63677678e-01 -4.93107475e-02 -7.18652606e-02 -1.64599314e-01 -3.70172635e-02 -3.90004098e-01 +1.96991935e-01 -2.86863148e-02 +4.83292826e-02 +5.75026758e-02 -4.86036949e-03 -5.84883057e-02 +4.11838107e-02 +8.65015835e-02 -9.07949358e-02 +1.22998729e-02 -1.45987079e-01 -8.10779631e-02 +8.42085704e-02 -3.83744622e-03 -7.27603510e-02 -9.20132175e-02 -8.28717351e-02 -1.11583516e-01 -6.45779148e-02 -1.00416735e-01 -7.22433850e-02 -3.28322500e-02 +6.70779124e-02 -4.54768986e-02 -1.23354174e-01 +8.99424404e-02 +3.55077647e-02 -3.80023266e-03 -1.44556314e-01 -1.03135720e-01 +1.87417656e-01 +4.06397581e-02 +2.04584505e-02 +3.45655307e-02 +9.36318785e-02 +4.40272130e-02 +1.09154331e-02 +1.50228694e-01 +2.61391774e-02 -2.00545359e-02 +4.28023726e-01 -9.56158638e-02 -2.92388666e-02 +1.36935040e-01 +5.34512363e-02 -6.70591593e-02 +1.54897094e-01 -5.48994094e-02 +1.34972245e-01 -1.97082236e-02 +4.75209206e-02 -1.28237531e-01 -1.35990838e-02 -1.45330587e-02 +1.44226804e-01 +9.17258263e-02 +6.66858454e-04 +7.19783679e-02 +5.90638332e-02 -1.09973773e-01 -3.48963588e-01 +3.71875800e-02 +1.50179565e-01 -9.83393490e-02 +6.19716123e-02 +1.01586804e-01 -6.36862367e-02 +8.28921497e-02 +2.21628383e-01 +1.22557528e-01 -6.95521533e-02 +2.34122742e-02 +1.37963235e-01 -1.89575180e-01 -7.56753311e-02 +7.77855143e-02 +6.12168051e-02 -6.50033876e-02 +1.53342098e-01 +8.78088474e-02 +4.76754978e-02 +8.45660120e-02 -5.17582148e-02 -5.96466288e-02 +1.03165068e-01 +1.66473761e-02 -6.97263926e-02 +1.20132208e-01 -1.12225823e-01 +5.05192131e-02 +9.99423787e-02 +1.57441929e-01 -1.74035076e-02 -1.55690730e-01 +2.71362454e-01 +1.03575207e-01 +2.57117972e-02 -1.31425587e-02 -1.05718322e-01 -8.79571438e-02 -1.21627450e-01 +1.11401640e-01 -1.27199024e-01 -1.03928693e-01 +4.77598459e-02 -1.05821781e-01 +6.22154921e-02 +1.62560225e-01 +2.23673172e-02 -8.92262533e-03 +6.61798045e-02 +3.25523354e-02 +4.92566153e-02 -1.85873896e-01 +4.48345244e-02 +1.98374510e-01 +6.74034134e-02 +7.23275244e-02 +1.18646264e-01 +4.58009988e-02 +2.20408477e-02 +1.04522824e-01 +5.91186136e-02 +1.57444313e-01 -4.08084393e-01 -1.28329560e-01 +9.53510869e-03 -7.30846301e-02 +6.61937520e-02 -1.42179072e-01 +5.29464073e-02 -8.02308414e-03 +2.40933537e-01 -2.76200473e-01 -3.98383103e-02 +1.93530917e-01 -5.53321727e-02 +4.63648625e-02 +3.67912948e-01 +5.64609356e-02 -1.36944711e-01 +7.26885498e-02 -8.36746618e-02 +1.26057133e-01 -1.39081344e-01 -4.63460311e-02 +2.64424443e-01 -9.01455879e-02 +9.79973823e-02 +1.11187860e-01 +4.34416113e-03 +4.91240807e-02 -4.58789710e-03 -6.85636401e-02 -1.12846971e-01 +3.81743796e-02 +5.38148522e-01 -3.76135409e-02 -1.65484637e-01 +6.11332059e-02 -1.06167808e-01 -8.96559283e-02 +6.81248009e-02 -2.23407716e-01 -3.69282067e-02 +1.76044345e-01 -2.47326512e-02 -2.12400272e-01 -1.88776702e-01 +8.64782110e-02 +1.04423486e-01 +7.86477551e-02 +8.10735300e-02 +1.04906008e-01 +3.07953480e-04 +1.92287937e-02 +1.32249454e-02 +1.21099837e-01 -7.68284202e-02 +4.02155519e-01 -5.97817414e-02 +4.86706942e-02 +1.30121678e-01 -2.70769466e-02 +1.21633366e-01 +3.96592319e-02 +4.24964800e-02 +9.94544290e-03 +1.30703241e-01 -5.33996373e-02 +1.73695281e-01 -1.10168934e-01 +5.94648942e-02 -2.59373300e-02 +7.25736618e-02 +2.23420486e-01 +6.38366630e-03 +9.20266509e-02 +2.89406478e-02 +2.54112571e-01 -4.49107289e-02 +2.31257975e-02 +1.70106292e-01 +1.03739344e-01 +1.17066309e-01 +2.14683801e-01 -4.37518954e-02 -2.36094580e-03 +1.40062422e-01 +1.45587385e-01 +1.33993313e-01 +2.29333416e-01 +2.15706900e-01 -9.60725767e-04 -1.56585630e-02 +5.51061630e-01 +1.36680514e-01 +1.76404238e-01 +9.38193277e-02 +3.04899752e-01 +9.97237489e-02 +4.24326882e-02 +1.36778563e-01 +1.02360450e-01 +1.13083407e-01 +1.29620016e-01 -5.14318086e-02 -1.68180466e-02 +1.10044003e-01 +1.01316124e-01 +1.74184851e-02 +1.74534731e-02 -2.80303415e-02 +6.19761460e-02 +2.36619890e-05 +2.13070679e-03 -2.36379262e-02 +1.05947472e-01 -1.38713628e-01 -7.48690143e-02 +4.43601869e-02 +1.12429380e-01 +1.18449211e-01 -3.30405720e-02 -8.15166086e-02 -1.06402948e-01 +1.20509930e-01 -2.22688075e-02 -7.69368708e-02 -4.33172174e-02 -9.34068039e-02 -9.26070511e-02 +1.65088475e-01 -1.06542958e-02 +1.49573207e-01 +7.66821876e-02 -3.43741365e-02 -1.14546239e-01 -1.10164613e-01 +3.67985629e-02 +1.40546978e-01 -7.88944364e-02 -1.64180472e-01 +1.51024923e-01 -4.54787314e-02 +1.32490084e-01 -2.73679453e-03 -8.26016217e-02 +6.75867945e-02 -1.14060864e-01 +7.16018751e-02 -5.47350310e-02 +3.48106846e-02 +1.18536755e-01 +6.61136955e-02 -9.95117147e-03 -2.65858084e-01 +8.73840153e-02 -1.23009130e-01 -2.03263611e-01 -8.59130770e-02 -9.72577929e-02 +3.43700424e-02 -3.70609830e-03 -1.24424137e-01 +4.38912921e-02 +2.75997043e-01 -3.31915682e-03 -3.18571106e-02 -4.17924263e-02 +1.60595804e-01 -1.54945314e-01 +8.32594559e-02 +9.43367481e-02 +2.09161669e-01 +3.50575373e-02 +1.03111677e-01 -6.16121106e-02 -7.63541162e-02 -4.50857207e-02 +1.63982481e-01 +1.46606669e-01 -1.66830212e-01 +1.44370109e-01 -6.09235875e-02 +1.15538463e-01 +6.81360513e-02 -1.58553645e-01 +1.21430005e-03 +7.42140040e-02 -7.77584910e-02 +5.65045662e-02 -8.64497200e-02 -1.55464575e-01 +8.19130391e-02 +2.18114972e-01 -1.59145147e-02 +1.31057084e-01 +9.10796374e-02 +2.09995940e-01 -8.67934451e-02 +3.17557715e-02 -1.24160675e-02 -1.24997683e-02 +5.65517470e-02 +1.58165097e-01 -4.05451171e-02 +1.44200653e-01 +1.00407511e-01 -4.02036449e-03 +1.32723525e-01 +8.14949572e-02 +1.45568475e-01 +6.35011569e-02 -5.54038994e-02 +4.66109402e-02 +1.19182877e-02 +6.14689896e-03 +2.03216553e-01 +1.09579258e-01 -7.36250952e-02 -1.16448589e-02 +2.46847514e-02 +4.44417074e-02 +8.05059373e-02 +2.60242373e-02 -3.67333554e-02 +9.28444415e-02 -1.27799734e-01 +1.49258569e-01 -5.32336794e-02 +2.74423566e-02 -1.01560526e-01 -1.24782152e-01 +3.34413983e-02 -4.37551271e-03 -1.92827489e-02 +1.19600244e-01 +2.86694378e-01 +2.18271036e-02 +8.94392356e-02 -2.05347776e-01 +3.57094146e-02 -5.83612658e-02 -1.14570610e-01 -1.22889601e-01 +1.02351531e-01 -1.09298624e-01 -1.11154184e-01 -8.18311498e-02 -1.56147958e-04 -2.64144856e-02 -1.61721125e-01 -1.65861234e-01 +9.95569900e-02 +6.48770295e-03 +1.52115047e-01 -7.10777566e-02 -4.86554131e-02 -1.14791095e-01 -3.03856403e-01 -1.80743307e-01 +1.72851533e-02 -2.70023078e-01 +1.84386987e-02 +5.88774681e-02 -3.31142060e-02 -4.91415448e-02 -1.11522563e-01 -1.88151300e-01 -1.28901169e-01 -5.81199937e-02 -1.61529016e-02 +3.78156044e-02 -9.23736915e-02 -2.87908372e-02 +5.06922305e-02 -2.02189744e-01 +1.08112305e-01 +1.19307436e-01 -2.49957323e-01 +1.66301221e-01 -1.09558851e-01 -1.04534492e-01 +2.40185354e-02 -2.21486893e-02 +3.95166129e-02 -9.23112631e-02 +4.57806885e-02 -1.63790718e-01 -9.59095210e-02 -1.69363335e-01 -3.58172804e-01 -9.90750715e-02 -5.63779585e-02 -1.97195932e-01 -2.49318004e-01 -2.29654372e-01 -2.08698828e-02 -4.92872894e-02 -1.28283069e-01 -1.39369443e-01 -1.32594749e-01 -1.23572417e-01 +3.67244193e-03 +1.67039946e-01 -5.30871376e-02 -5.44506758e-02 -8.28371570e-02 -1.61661163e-01 -2.77612299e-01 +1.59674898e-01 +4.69462350e-02 -1.17195153e-03 +4.17110100e-02 -5.52730523e-02 -1.48400208e-02 -5.31268381e-02 +1.37560174e-01 +8.95061642e-02 +7.40020275e-02 -1.45231700e-03 +5.03516160e-02 -2.84770876e-03 -5.43498844e-02 -7.21510649e-02 -1.21924371e-01 +3.59895527e-02 -1.68673664e-01 -1.06943905e-01 -1.95690215e-01 +1.16333559e-01 -3.57789621e-02 +2.11825874e-02 -2.29485616e-01 +1.58658355e-01 -8.14649835e-03 -2.18832314e-01 +6.18980126e-03 +1.20474800e-01 -2.91171726e-02 -8.20643678e-02 -7.54044428e-02 -2.26913393e-01 +1.84689881e-03 +8.74253809e-02 +9.47689451e-03 -3.05119790e-02 -6.49110004e-02 -1.55891404e-01 -9.40663144e-02 +8.54071081e-02 +1.95411697e-01 +2.40680911e-02 -3.13137807e-02 +1.05253316e-01 -2.15661407e-01 -1.09789185e-01 -1.43409640e-01 +7.10333884e-02 -1.71332303e-02 -1.72142148e-01 -7.94424191e-02 -1.71234389e-03 +1.05459187e-02 -4.49643135e-02 -5.79446405e-02 +1.06639363e-01 +4.89803553e-02 +6.40265495e-02 +2.24963296e-02 -1.31188840e-01 -1.76727027e-02 +8.05907696e-02 -5.19065782e-02 +3.78567763e-02 +1.23343714e-01 -5.69435470e-02 +1.10729754e-01 +1.04301445e-01 +1.35110021e-01 +2.91059781e-02 -1.64441429e-02 -3.45554538e-02 +9.69642624e-02 +1.04959913e-01 -4.37716804e-02 +3.27152796e-02 +1.16945006e-01 +1.36631489e-01 -9.60303172e-02 +2.09142596e-01 +7.94967636e-02 -8.37986171e-03 +1.88273583e-02 -7.61097968e-02 -1.50564075e-01 +6.28754273e-02 +1.14425927e-01 -4.18936387e-02 +1.65788233e-02 -2.29390729e-02 +1.09996848e-01 +7.59962425e-02 +1.15727320e-01 -6.52393550e-02 +2.29238924e-02 +4.70914692e-02 -1.04711853e-01 +8.26353803e-02 +7.62227401e-02 -5.96360900e-02 +8.05634186e-02 +1.68270141e-01 -1.21630110e-01 +1.45295663e-02 -8.26230049e-02 -9.54513848e-02 +5.24432287e-02 -1.49459451e-01 +1.43474460e-01 +7.09210411e-02 +8.86811316e-02 -7.25082085e-02 -2.21157345e-04 -1.31446170e-02 -1.29988462e-01 +7.53058940e-02 +1.29632324e-01 -8.53315890e-02 -1.48146525e-01 +4.73578013e-02 -3.14800069e-02 -7.77942478e-05 +3.52050625e-02 +1.22113556e-01 +8.37954879e-02 -8.47204998e-02 -8.85503143e-02 -2.22639591e-01 -7.16936886e-02 +8.69036615e-02 +2.95266155e-02 +1.16554774e-01 +1.94348115e-02 -2.13651136e-02 -1.24847397e-01 +1.76120326e-02 +8.22132379e-02 -9.52022001e-02 -8.54425207e-02 -2.28844419e-01 +1.77992120e-01 +1.63631439e-01 -1.23690508e-01 -1.36000216e-01 -1.90996051e-01 -5.38308695e-02 -3.15989256e-01 -1.66619927e-01 -7.25529045e-02 -1.95961773e-01 -2.20769882e-01 -9.40363407e-02 +6.94751367e-02 -6.18171506e-03 -6.85951337e-02 +3.38438191e-02 +4.55060229e-02 -6.40129671e-02 -2.50253119e-02 +2.93337330e-02 +1.09635726e-01 -5.30147867e-04 -1.25101373e-01 +8.15134961e-03 -1.47142917e-01 -1.78248391e-01 -1.14737429e-01 -1.09823696e-01 -6.19775020e-02 -1.89425796e-01 -6.86225072e-02 -6.55130520e-02 -2.13030830e-01 +1.57582521e-01 -5.56326091e-01 -1.78379878e-01 +3.35390531e-02 +8.79261792e-02 -2.15114187e-02 +2.84849871e-02 -8.39240775e-02 -1.37150288e-01 -2.67041862e-01 +1.24455564e-01 +4.32651974e-02 -9.77345090e-03 -2.17973754e-01 +2.46611442e-02 -1.24420673e-01 +4.66806293e-02 +7.49567151e-02 +1.74588114e-02 +3.11387870e-02 -1.25193998e-01 +2.03776628e-01 -1.06538244e-01 +6.08115308e-02 +4.83742915e-02 -7.06128925e-02 -1.23968676e-01 -2.10996315e-01 -2.62567550e-02 -1.08250514e-01 +4.96944524e-02 +1.47365689e-01 +2.87815511e-01 -1.78908259e-02 +2.45983019e-01 +1.78215742e-01 -7.20934197e-02 +1.77146848e-02 -5.67855798e-02 +2.68274695e-02 +9.24413428e-02 -8.76600295e-02 -2.49494929e-02 +2.64400598e-02 +2.68055797e-01 -2.96471208e-01 -1.41444281e-01 +1.79105043e-01 +8.52387697e-02 -8.96599591e-02 +2.27420721e-02 +3.43868099e-02 -9.83237661e-03 -8.21087137e-02 -1.52013585e-01 +3.51085588e-02 +1.84416637e-01 -1.75429955e-01 -9.19487923e-02 -1.27829388e-01 +4.96779755e-02 +8.67089331e-02 -1.59284454e-02 -2.18030974e-01 -5.51472902e-02 +3.17985229e-02 -3.85200754e-02 +3.82528082e-02 +3.88498083e-02 +2.55545795e-01 +1.10437356e-01 +4.31148615e-03 -1.08054154e-01 -8.11181590e-02 +1.18354946e-01 -9.99409258e-02 +1.22857369e-01 -5.64063489e-02 -1.81972429e-01 -1.48556620e-01 -1.02687903e-01 -8.47293884e-02 -1.31518766e-01 -1.43611372e-01 +1.47415204e-02 -9.17860344e-02 -6.12712055e-02 +8.54754727e-03 -5.95798194e-02 -2.33177125e-01 -3.02236360e-02 -9.32834018e-03 -5.01012430e-02 -2.88605690e-01 -8.22294727e-02 -9.89026800e-02 +7.09921047e-02 -1.94499359e-01 +7.90849850e-02 +5.61820194e-02 -5.61392196e-02 -1.97253004e-01 -2.02260469e-03 +4.00679128e-04 +4.66624759e-02 +1.14918120e-01 -1.50531963e-01 +2.14172285e-02 +1.36997309e-02 -2.36894533e-01 -1.43165007e-01 +1.47164473e-02 -1.54736131e-01 -1.29033282e-01 -2.93362718e-02 -3.95933613e-02 -1.85103908e-01 -6.76006600e-02 -1.94875136e-01 -1.67173326e-01 +1.38968989e-01 -2.15422973e-01 -3.94948661e-01 -2.97865681e-02 -5.52778039e-03 -5.28068803e-02 -2.37196416e-01 -4.89457250e-02 -6.38643801e-02 -7.85003304e-02 -1.71556994e-01 -1.87650807e-02 +1.60406362e-02 +5.71568757e-02 +2.04526372e-02 -9.39709693e-02 -1.60429999e-01 -1.49334714e-01 +1.90288406e-02 +3.37796379e-03 +5.17560868e-03 -2.26211995e-02 -1.01107113e-01 -1.13336198e-01 +2.46405648e-03 +1.59612671e-01 +1.80902570e-01 -1.51946306e-01 +5.94772324e-02 -9.68501344e-02 +2.41766140e-01 +7.05364272e-02 -1.20985776e-01 -2.98781227e-02 -1.59755547e-03 +1.91619486e-01 +1.74167119e-02 +6.54510558e-02 -1.01090543e-01 -3.99990529e-02 -1.14027411e-01 -3.62402424e-02 -1.33906394e-01 +7.72603452e-02 +1.41768483e-02 +4.27094251e-02 +1.16305850e-01 -1.88469827e-01 +4.29710895e-02 -9.12104994e-02 -1.04307055e-01 -1.14286449e-02 +1.40280396e-01 -6.48973137e-02 +7.85804689e-02 +7.20054284e-02 -3.67546529e-02 -7.81146735e-02 +6.42520860e-02 -1.66421220e-01 +5.84947504e-02 +1.20641209e-01 -7.68187493e-02 +6.22184426e-02 -1.70202658e-01 +1.48878619e-01 +3.08472216e-01 -1.00047894e-01 +8.39783028e-02 -3.04353470e-03 -3.34765613e-02 +1.33941367e-01 +1.55348912e-01 -3.33065420e-01 +3.98914032e-02 -1.17087223e-01 +1.19140722e-01 +1.96888119e-01 -8.52448195e-02 +7.70946220e-02 -4.88894992e-02 +4.27805223e-02 -1.21624745e-01 -1.76155671e-01 +2.44225468e-02 +6.64917519e-03 +5.63028716e-02 +8.39241669e-02 -1.36931404e-01 +1.51628628e-01 +1.79016560e-01 +1.32103145e-01 -1.62498787e-01 +1.35510013e-01 +3.19052339e-01 -1.34269772e-02 +3.42735462e-02 +1.07082181e-01 -6.11173995e-02 -1.36646628e-01 -5.18370718e-02 -1.26135098e-02 +1.49894774e-01 +1.75792158e-01 +1.19659103e-01 -1.02039678e-02 +1.00171631e-02 -3.90358195e-02 +1.49441704e-01 +1.67150602e-01 -3.28445733e-02 +2.98546962e-02 +7.43962005e-02 +9.53326300e-02 +6.87461942e-02 +6.60681203e-02 +1.17667411e-02 +1.35435285e-02 -8.58467147e-02 +6.15376569e-02 -4.17699888e-02 +1.64448366e-01 +1.17904834e-01 -8.50360617e-02 -1.37852386e-01 -6.20483281e-03 +9.35949106e-03 +3.58141065e-02 -3.29623409e-02 +5.04642315e-02 +2.08769776e-02 -4.02000267e-04 +2.32042506e-01 +1.50199294e-01 +4.04795408e-02 +4.87685204e-02 +7.92638138e-02 -1.29284170e-02 +2.09070772e-01 +1.18299447e-01 -4.41136695e-02 -2.78991461e-03 -9.12248790e-02 -3.12121771e-03 -6.01958223e-02 +1.64203152e-01 +5.50255477e-02 -2.65740436e-02 +4.73782122e-02 -3.15115042e-02 +4.07106057e-02 -3.65563333e-02 -7.77664259e-02 -6.11068010e-02 +1.49224652e-02 +2.81755447e-01 -1.10044777e-01 +1.68934271e-01 +1.40130907e-01 +1.41931266e-01 +2.04205420e-03 -5.67070255e-03 +1.14064381e-01 +2.12164730e-01 +1.38376936e-01 +3.86798196e-02 +3.24577391e-02 +1.62877992e-01 +1.39341488e-01 -5.95055930e-02 -1.04085870e-01 -1.96219385e-02 +1.61798373e-02 -6.97096363e-02 -8.09551701e-02 +1.62581816e-01 -1.56987831e-01 -2.88106799e-02 +1.85785070e-01 +2.10520983e-01 -1.33008212e-01 +1.39891639e-01 -6.33718148e-02 -9.01979133e-02 +1.56857982e-01 +1.68446098e-02 +2.11665213e-01 +5.47730960e-02 +2.62350678e-01 +4.08868082e-02 +1.95821151e-01 +8.97918791e-02 +3.00782640e-03 +4.57005017e-02 -5.16373664e-02 -1.43590897e-01 -4.46503460e-02 +5.00070788e-02 +9.97454226e-02 +2.30607003e-01 +3.98924435e-03 -3.77102941e-02 +3.09691336e-02 +3.91495302e-02 +5.85191660e-02 -1.89325944e-01 -4.24536318e-02 +1.72834054e-01 +7.76683539e-02 +1.49405403e-02 +1.86001062e-01 +3.95726040e-02 -1.48195192e-01 -2.74707284e-02 +1.43178225e-01 +7.78380781e-02 +5.73041588e-02 +9.04338062e-02 +1.70161381e-01 +3.17869723e-01 +3.23791951e-02 +2.21909564e-02 +5.66319108e-01 +5.51905371e-02 +5.57517633e-02 +1.33442760e-01 -1.18127815e-01 +2.35133126e-01 +5.22852391e-02 +4.56154626e-03 +3.34473699e-02 +3.57763767e-01 +1.80669233e-01 +1.96507722e-01 -6.16146885e-02 -8.66106227e-02 +4.36200481e-03 +3.43333706e-02 +8.99276733e-02 +3.71187404e-02 +6.15075044e-02 +1.36742562e-01 +1.59041181e-01 +1.25740603e-01 -1.41209513e-01 -1.02220774e-02 +1.35031939e-01 +4.96084010e-03 +2.13040337e-01 +9.96454731e-02 +1.69297025e-01 +2.25628912e-01 +1.55518472e-01 +4.17304300e-02 +1.28188521e-01 +1.82947606e-01 -1.31250441e-01 +3.38727422e-02 +1.05277956e-01 +1.12890869e-01 +8.45129937e-02 +1.71026006e-01 +1.41598910e-01 -6.96911011e-04 +1.46037906e-01 +9.43737943e-03 +2.17503041e-01 +1.56216592e-01 +1.41374543e-01 -2.88936585e-01 +7.87885562e-02 +5.64019941e-02 -2.40060482e-02 +5.20514436e-02 +2.33508483e-01 -1.57075636e-02 +3.15509476e-02 +2.11788230e-02 -8.31180736e-02 -9.16276872e-02 -4.08239514e-02 -1.57249138e-01 -2.99392883e-02 +4.01255004e-02 -6.60013482e-02 -8.01352337e-02 +7.47060999e-02 +2.80806664e-02 -1.47132069e-01 +1.05481103e-01 -7.24382931e-03 -5.58298528e-02 -6.60025030e-02 +5.55633940e-03 +8.60575140e-02 -4.61834073e-02 -9.51667354e-02 +6.05083071e-02 -1.01150833e-02 -2.22174108e-01 -6.91429600e-02 -1.06600210e-01 +9.61775705e-02 +4.83566374e-02 +8.29279721e-02 +9.68023092e-02 +3.79927829e-02 +1.04399472e-01 -3.28764953e-02 +8.52164775e-02 +1.01501912e-01 -2.58533806e-02 -1.37211010e-01 +1.40266761e-01 -3.18649001e-02 -5.51838875e-02 +4.82947566e-02 +2.05577519e-02 -6.24724887e-02 -1.29167631e-01 +1.34646520e-01 +3.95939052e-02 -2.40931258e-01 -4.76296581e-02 +4.85954210e-02 -1.09419800e-01 +8.39125291e-02 +5.68324178e-02 -8.80089402e-02 +1.51908159e-01 +3.01272813e-02 +7.81374425e-02 -5.31099401e-02 +8.19993243e-02 +8.01643450e-03 +1.20505944e-01 -1.43923936e-02 -3.92885618e-02 +6.17860965e-02 -5.74427657e-02 -6.79574767e-03 -1.80194676e-01 -1.69692501e-01 -6.85414746e-02 -6.11630082e-02 +1.45335784e-02 -3.36902849e-02 -4.62876298e-02 -3.72833498e-02 -8.39542896e-02 -6.56849891e-02 -6.89994767e-02 +7.50242621e-02 -4.78384160e-02 +1.51215959e-02 -8.89336988e-02 -2.63810698e-02 +1.61054581e-02 +2.23878413e-01 +2.37625495e-01 +3.91775742e-02 +7.04214871e-02 +4.23291884e-02 +2.21011043e-01 -4.27087657e-02 +2.00145945e-01 -9.75570157e-02 +1.38160378e-01 -1.00148536e-01 +2.21766621e-01 -1.23075284e-01 -1.88249163e-02 +3.03060889e-01 +1.08628616e-01 +2.54850108e-02 -1.77303225e-01 -2.00947329e-01 +5.90777844e-02 -2.96885893e-03 -1.27240002e-01 +1.90865844e-02 -2.86263358e-02 -1.34903952e-01 +1.25816405e-01 +2.71169841e-01 -7.59802014e-02 -9.35360265e-04 +6.00701943e-02 -1.00043923e-01 +6.14516065e-02 -7.69593492e-02 +1.01014771e-01 +1.36325970e-01 +7.32449964e-02 +1.19570605e-02 -2.11334676e-02 -1.40774727e-01 +1.55340061e-01 -9.81289819e-02 -9.57339108e-02 -1.61578238e-01 +2.88643181e-01 -1.42148912e-01 +1.59597605e-01 -3.75816189e-02 -7.30433920e-03 -1.17722720e-01 +6.07684627e-02 +7.48685673e-02 +6.27573282e-02 -1.73288107e-01 +8.34490657e-02 -1.49477765e-01 -5.03233373e-02 +1.05227612e-01 +9.30578560e-02 -4.98421602e-02 +9.02876407e-02 -6.52842075e-02 +1.12995893e-01 -1.10289067e-01 +5.69094811e-03 -4.52093445e-02 +1.57590304e-02 -1.15101360e-01 +3.21852230e-02 -2.58106261e-01 -8.37284103e-02 -7.50378743e-02 -1.20461881e-01 +6.65778220e-02 -4.28412817e-02 -2.42772505e-01 -1.56425536e-01 -6.19165674e-02 -2.98539735e-02 -3.23822349e-01 -1.60635367e-01 -7.53048062e-02 -2.22269949e-02 -8.96163732e-02 +2.99285296e-02 -1.70410201e-01 +7.30058178e-02 -8.34356714e-03 +6.65945485e-02 -1.57611877e-01 +1.37004973e-02 -1.73696399e-01 -4.03447896e-02 -8.85690004e-02 +9.10711735e-02 -4.47709635e-02 +3.01971436e-02 -2.01165646e-01 -2.39895970e-01 -2.65226606e-02 +1.03191167e-01 -1.89111158e-02 -7.09068868e-03 -1.21436745e-01 -1.65733278e-01 -5.26092723e-02 -9.15396959e-02 -1.06159210e-01 -5.99313192e-02 -8.57690126e-02 -2.02165451e-02 -3.16735387e-01 -2.58501321e-01 +2.14347113e-02 -1.74211547e-01 -5.35237379e-02 +1.00779749e-01 -1.18636221e-01 +1.73662394e-01 -8.70736316e-02 +6.51436374e-02 +2.26755813e-02 +3.25261325e-01 +2.62392126e-02 -3.73111479e-02 +6.91463500e-02 +7.74525478e-02 -5.36801703e-02 -1.06816731e-01 +6.71740472e-02 +2.35968322e-01 -1.05375053e-04 -1.42188475e-01 -2.11474717e-01 -1.14118069e-01 -1.94949895e-01 +2.44719371e-01 -1.30988210e-01 -9.55985337e-02 -9.39337760e-02 +9.02308747e-02 -1.50125265e-01 -9.16322507e-03 -1.06840201e-01 -1.10675141e-01 +1.98056996e-02 +5.77152446e-02 -1.20628186e-01 +2.86731213e-01 +4.04101983e-02 +5.25133051e-02 -1.68203011e-01 -1.53972721e-02 +5.29383030e-03 +9.32410732e-02 +9.68868211e-02 -5.86725064e-02 -1.98217541e-01 -2.49345955e-02 +4.10033576e-03 +1.30605072e-01 +7.95062631e-02 -1.15325870e-02 +1.94812655e-01 +1.34794191e-01 +7.67390430e-02 -1.02886632e-01 -1.66777939e-01 -2.73372978e-01 +2.47284006e-02 -1.15638494e-01 -2.51713898e-02 -5.54827042e-02 +8.48965570e-02 +3.22071277e-02 +1.16612509e-01 +8.01999941e-02 +1.30917192e-01 -1.42110102e-02 +1.52566107e-02 +4.65208925e-02 +1.84371658e-02 -1.31508380e-01 +1.24075644e-01 +5.57340197e-02 -1.92881301e-01 +9.76087153e-03 -6.42876774e-02 -1.25105321e-01 -2.86661629e-02 -1.30989943e-02 -1.80085208e-02 +1.44869937e-02 +2.26984441e-01 -6.99898303e-02 +5.14960214e-02 -1.60391375e-01 +2.36487966e-02 -8.69692490e-02 -4.49014939e-02 +1.71695333e-02 -8.00307170e-02 -1.25569209e-01 +8.39968771e-02 +2.07038261e-02 -1.17020488e-01 +3.83495465e-02 +3.60017419e-02 +1.02706075e-01 -2.17921510e-02 -4.33870684e-03 +1.03885956e-01 -1.84875384e-01 -1.09476842e-01 +2.88526583e-02 -7.04668835e-02 -2.91572511e-02 -5.36445938e-02 +5.80022521e-02 +4.21032310e-02 +1.67153239e-01 +9.93733257e-02 -6.13587797e-02 +2.59474982e-02 +1.46166931e-05 -2.30210572e-01 +3.51481497e-01 -1.59844443e-01 -2.46805474e-01 +4.06579413e-02 +1.47507027e-01 -2.12641358e-01 -2.05523074e-01 -1.14875212e-01 -1.71425998e-01 -1.90177873e-01 -8.91259760e-02 +1.56088874e-01 -2.20818475e-01 -9.87923890e-02 +1.44083366e-01 -1.87977195e-01 -8.80369395e-02 +2.33726799e-02 +8.02660733e-02 -9.73705724e-02 -5.30950427e-02 -1.54811516e-01 -1.16573349e-01 -1.53285846e-01 -6.30933493e-02 +7.63467550e-02 -1.83515057e-01 +9.55417529e-02 -1.02027148e-01 -7.00762421e-02 -3.35174017e-02 -5.88527843e-02 +8.60025510e-02 -1.60066187e-01 +6.25513941e-02 -4.83265556e-02 +4.51446548e-02 -8.03111270e-02 +4.72222455e-02 -4.66604903e-02 +3.71930772e-04 -1.06823489e-01 +4.02235650e-02 -4.58692499e-02 -1.30731285e-01 +1.65360704e-01 +5.21450676e-02 -3.43356878e-02 +8.37687403e-02 -1.65537059e-01 -1.21653773e-01 -8.27835202e-02 -7.77008012e-02 -8.09995010e-02 -1.10686556e-01 -2.14604989e-01 -1.87452748e-01 -2.61471812e-02 -9.64823365e-03 +1.74481589e-02 -9.98776853e-02 -5.15565574e-02 -2.14394882e-01 -3.13459128e-01 -5.59643432e-02 +1.32239638e-02 +1.00711649e-02 -1.29872695e-01 -1.47091612e-01 -1.83788225e-01 -5.49618416e-02 -6.49186298e-02 -3.35246883e-02 +9.48657840e-02 -1.82477552e-02 -8.08416456e-02 -4.17020440e-01 -1.49812609e-01 -5.94132878e-02 +2.04040166e-02 -1.64099425e-01 +1.22436704e-02 +1.44726470e-01 +1.59766711e-02 -2.07040291e-02 -1.08458318e-01 -2.23523915e-01 -4.39008921e-02 +7.82953054e-02 +1.33319512e-01 -1.12046793e-01 +1.19362056e-01 +8.97669494e-02 -2.15570703e-02 +4.64555947e-03 -9.84710753e-02 +2.85153955e-01 -1.97703928e-01 +8.94799083e-02 +1.13542110e-01 +1.21776111e-01 -4.41345647e-02 +9.45829153e-02 +8.05676728e-02 -1.25236794e-01 +2.21520469e-01 +1.49704427e-01 +5.01575321e-02 -3.98635156e-02 -8.92113671e-02 -1.47508740e-01 -2.29215205e-01 -1.04886219e-01 -1.76002998e-02 +9.96265113e-02 +1.19254462e-01 -1.24100357e-01 -8.03403482e-02 -7.70708993e-02 -1.96651280e-01 +2.04084441e-01 +7.15870112e-02 +3.51883173e-02 -4.43928838e-02 -5.71612380e-02 -5.65636158e-02 +2.97328345e-02 -8.50424841e-02 -1.98055238e-01 -1.06365815e-01 +1.07209489e-01 -6.47188351e-02 +1.29058018e-01 -1.51728213e-01 +1.12247087e-01 +5.71936294e-02 -2.48532407e-02 -6.43806756e-02 +7.24554360e-02 -1.55289203e-01 +1.66715100e-01 +1.90177888e-01 -1.38436437e-01 -2.73452342e-01 -1.86225861e-01 -6.01765476e-02 +5.06054657e-03 +2.58260630e-02 -5.08879758e-02 -5.59205040e-02 -1.85245901e-01 -1.56258881e-01 -1.03678025e-01 +1.90034956e-01 -1.34174466e-01 +6.69770613e-02 -4.02685925e-02 +2.58069262e-02 -6.45582145e-03 +8.61165524e-02 -1.20522007e-01 -1.19246520e-01 -1.98120967e-01 -1.23273514e-01 +1.19414993e-01 -1.29524931e-01 +1.55377463e-01 -1.33440122e-01 +1.16643300e-02 -5.59845157e-02 +1.43865168e-01 -3.12996417e-01 -2.27218509e-01 +7.56541789e-02 -2.69961208e-01 -1.36217982e-01 +4.39131074e-02 -2.49482572e-01 +1.34008944e-01 +1.04894735e-01 -1.87126979e-01 -2.01203838e-01 -2.73854792e-01 -3.26910652e-02 +1.02016702e-01 +9.92339924e-02 +3.36837620e-02 -4.22065519e-02 -7.52744600e-02 -2.58335471e-01 +4.80256937e-02 -2.34068781e-01 -2.18115807e-01 +7.46574029e-02 +1.97657034e-01 -1.50792941e-01 -2.65302986e-01 -2.63119042e-01 +1.45491585e-01 -1.50355101e-01 -3.80974002e-02 -2.24580556e-01 -1.26184449e-01 -1.61837384e-01 -1.92248628e-01 +1.85908630e-01 -5.88732027e-02 -4.36365083e-02 -6.82868287e-02 -3.11668050e-02 +1.63561374e-01 +2.16768786e-01 -1.72170669e-01 -2.73103528e-02 +6.88004196e-02 -2.08250865e-01 -2.86160260e-01 -6.33000433e-02 +3.37082165e-05 +1.01267941e-01 +1.69592816e-02 +8.63442943e-02 -1.21452533e-01 -1.20008811e-01 -8.65115374e-02 +8.00079778e-02 -2.61542678e-01 -1.69367656e-01 +3.09209879e-02 +1.52517771e-02 +2.03216925e-01 -3.18531729e-02 -1.65401287e-02 +2.62058705e-01 -2.99670666e-01 +4.92237601e-03 +1.48149893e-01 -1.09207645e-01 +2.17060164e-01 +9.04323831e-02 -7.66966268e-02 +1.14109464e-01 -3.36145520e-01 -2.08204210e-01 -1.46311626e-01 -1.36080831e-01 -9.26980451e-02 -1.41422510e-01 +1.95184633e-01 -2.40380824e-01 +1.97565332e-01 +1.28382102e-01 +1.42154042e-02 +1.65015489e-01 +8.85462165e-02 +4.82049473e-02 +1.31368116e-01 -1.66773815e-02 +5.30849695e-02 -4.37852070e-02 +5.51664233e-02 -9.98206344e-03 +1.17933735e-01 -4.17505503e-02 -8.22402071e-03 +5.70651814e-02 -4.02763486e-02 +1.10883243e-01 -1.07803650e-01 +1.55196622e-01 +3.23807225e-02 +3.02910730e-02 -6.66621849e-02 +3.34232710e-02 +4.31234054e-02 -1.26278460e-01 -5.50968722e-02 +4.66139764e-02 +6.80285767e-02 -4.47084755e-02 +7.07218610e-03 +1.57490075e-01 -7.08604902e-02 +4.81856465e-02 -2.79252157e-02 +2.56771985e-02 +2.68557481e-02 -1.47905543e-01 -1.85459390e-01 +2.32008874e-01 -1.26412313e-03 -2.47621000e-01 +6.33842952e-04 +6.48282021e-02 -1.32808425e-02 -3.37007679e-02 +5.84223531e-02 +1.00096531e-01 -8.86465907e-02 +1.41246587e-01 -4.18788455e-02 -7.35509694e-02 -7.45866895e-02 -6.91723675e-02 +6.22790828e-02 +1.90067627e-02 -3.41397710e-02 +6.00062683e-02 +7.34923631e-02 +3.60033065e-02 -1.01121545e-01 +1.18345886e-01 -2.39977166e-01 +5.59873022e-02 -1.78915963e-01 -3.61185670e-02 -3.25955115e-02 -1.25087887e-01 -1.70499295e-01 +3.73063795e-02 +3.41311400e-03 +1.60523131e-01 -5.08551151e-02 +5.88306598e-02 -7.81907812e-02 +1.47340611e-01 +9.74055901e-02 +4.05279435e-02 +9.24218073e-03 +1.19326971e-01 -9.86572728e-02 +3.60892601e-02 +1.44822955e-01 +5.14862575e-02 -1.35510534e-01 +1.10892698e-01 +2.02920735e-01 +2.32449606e-01 -5.71364015e-02 +9.93111432e-02 +1.28137365e-01 +2.68106073e-01 +2.08025575e-01 -3.05601954e-02 +1.43645167e-01 -1.31320938e-01 +8.27669278e-02 -8.12954232e-02 +4.52958308e-02 -6.94132149e-02 +2.31054947e-01 +1.03133999e-01 -2.10200161e-01 +8.48615319e-02 +4.29790542e-02 -1.17851384e-01 -1.04577951e-01 +2.26497412e-01 -7.63245821e-02 +1.40530854e-01 +1.99312177e-02 +2.33387146e-02 +1.75952226e-01 +9.44746584e-02 +2.56764472e-01 +2.32216157e-02 +3.12945223e-03 +5.29472344e-03 +3.20700109e-01 +1.05730288e-01 +1.73930183e-01 +6.13520741e-02 +4.36585136e-02 +6.03961125e-02 +9.97830704e-02 +1.68876439e-01 -2.44580097e-02 +5.75672090e-03 +9.42670461e-03 +7.82017186e-02 -1.75695643e-02 +6.42420053e-02 +3.16945091e-02 +9.01653394e-02 +1.71398371e-01 +6.77296296e-02 -4.35689390e-02 +1.37959078e-01 +3.13449234e-01 +2.71620482e-01 -6.12538792e-02 +7.62190344e-03 +2.11146343e-02 +8.24492797e-02 +2.01945633e-01 +6.38270602e-02 +2.29937196e-01 +1.83401912e-01 +4.37708497e-02 -5.44498786e-02 +1.67313814e-01 +1.79573640e-01 +1.42079383e-01 -3.52471229e-03 -3.43594626e-02 +1.21530503e-01 +3.10815722e-01 -2.36366272e-01 -1.56159088e-01 -7.33242482e-02 +3.07134382e-04 +1.52536243e-01 +5.15083596e-02 +1.66687578e-01 +1.09826468e-01 -8.55271071e-02 -8.51643682e-02 +2.80739367e-01 -3.86340953e-02 +3.22580040e-01 +1.34223267e-01 +1.76337883e-01 -1.25682540e-02 +2.30858430e-01 +7.48853460e-02 +1.58609822e-01 +9.33928788e-02 +8.63145813e-02 +9.75765958e-02 -1.86489224e-02 +1.15875304e-02 +1.09973595e-01 +6.08295500e-02 -7.41662309e-02 +5.43694161e-02 +1.58083528e-01 +2.48180274e-02 +6.65122196e-02 +2.46459432e-03 +1.13297112e-01 +9.24250484e-02 +1.51646852e-01 +1.40949026e-01 -1.73298001e-01 +8.32471997e-02 -1.25212938e-01 +1.54287189e-01 +7.50487074e-02 +1.07139058e-01 -9.96212754e-03 +8.56745243e-02 +1.31038263e-01 +3.50064039e-02 +1.56368196e-01 +1.62935972e-01 +7.59968907e-02 -1.77085865e-02 +6.66171834e-02 +1.89336836e-01 +2.58542836e-01 +2.18429163e-01 +2.46793926e-02 +1.95920736e-01 -1.00088723e-01 -2.01990470e-01 +1.20410055e-01 -1.09802008e-01 -1.56424671e-01 +1.90606758e-01 -2.16709808e-01 -2.19756275e-01 +1.56952202e-01 -6.97995946e-02 +1.39127210e-01 +2.04616085e-01 +5.11769541e-02 +2.77416557e-01 +1.03544928e-01 -1.38665969e-02 -1.70140833e-01 -1.28575601e-02 -1.48947075e-01 -1.15551865e-02 +1.52121261e-01 -1.71047047e-01 +2.11502891e-02 -1.12140171e-01 -2.50484914e-01 +5.81207238e-02 -4.03074101e-02 +1.20638214e-01 +1.33891940e-01 -2.06068426e-01 -4.89240959e-02 +7.91447908e-02 +2.93535478e-02 +1.92213625e-01 -7.86176994e-02 +1.28082633e-01 +1.19902112e-01 +1.59510911e-01 +7.86186531e-02 +2.46625230e-01 +1.26465157e-01 -1.35832965e-01 +1.27493218e-01 +2.63970941e-02 +1.02338843e-01 +7.17693195e-02 +1.21650502e-01 +2.90887207e-02 +1.48802325e-01 -2.51713842e-01 +2.68339515e-01 +1.01051405e-01 +1.40593499e-01 -4.77446057e-02 +2.59129882e-01 -9.91066247e-02 +1.78156868e-01 +2.06656098e-01 -3.61450687e-02 -1.13462456e-01 -3.03738508e-02 +5.27800098e-02 -9.42339189e-03 -5.93019463e-02 -5.88698722e-02 -7.85905272e-02 -1.02779113e-01 +4.28328812e-02 +1.90005098e-02 +9.49679688e-03 -1.89378455e-01 +2.34774407e-03 -1.78109109e-01 +1.25433221e-01 +1.47224158e-01 -2.05924779e-01 -1.19622722e-01 -1.73208602e-02 -1.02252521e-01 -1.28921762e-01 -2.74454594e-01 -1.36057228e-01 -1.27592072e-01 +1.08807227e-02 +4.91744168e-02 +8.33560452e-02 -9.69199166e-02 +4.72270884e-02 -1.44954219e-01 +4.14700061e-02 +5.17338049e-03 +7.67383128e-02 -8.87434557e-02 +6.97062835e-02 -2.64292717e-01 -3.46059501e-01 -1.43632725e-01 +2.04406064e-02 -9.03316140e-02 +2.63290498e-02 +8.77115950e-02 -1.45520210e-01 -1.13354988e-01 +5.86323515e-02 -1.59947112e-01 +1.01586416e-01 +1.17668636e-01 -1.12051805e-02 -1.41474962e-01 -1.63832530e-01 -3.58844250e-02 -1.36748493e-01 -6.58266023e-02 -3.43637675e-01 -1.34814307e-02 -6.63511381e-02 -7.06425086e-02 -2.03860039e-03 -5.60044050e-02 -8.62731487e-02 -3.13100994e-01 -6.70713559e-02 -2.32920259e-01 -2.15852559e-01 -4.63991873e-02 -8.70822594e-02 -1.82190873e-02 -1.17719181e-01 -1.26354381e-01 +4.32688333e-02 -2.32306585e-01 -9.39994305e-03 -7.03338385e-02 -2.85769343e-01 -1.39313042e-01 +8.73036459e-02 -3.77629101e-02 -1.48311272e-01 +2.81506747e-01 -2.18886063e-01 +6.05035480e-03 -2.68725395e-01 +1.33637846e-01 -2.18536898e-01 -1.49073333e-01 -1.17602490e-01 -8.71258676e-02 -9.62736234e-02 +2.33159512e-01 +9.68120294e-04 -6.73641413e-02 +1.01230286e-01 -1.56647235e-01 -2.65102088e-02 +9.69304964e-02 -9.32441428e-02 -3.17228436e-01 -1.78194940e-01 +1.73579186e-01 +2.96863675e-01 -1.62058726e-01 -1.97352618e-01 -4.05740440e-02 -1.53377026e-01 -1.13355918e-02 -8.52081850e-02 -8.93909186e-02 -3.08372289e-01 -1.41066546e-02 -8.88845846e-02 -1.20110556e-01 -8.23665336e-02 +3.63069214e-02 -3.63436311e-01 -2.53238410e-01 -1.16175354e-01 +9.48534980e-02 +1.03419758e-01 -2.01262847e-01 -1.29703864e-01 -9.02218074e-02 -2.75950879e-01 -1.68998584e-01 +3.84587765e-01 -3.54522794e-01 -1.41445488e-01 +3.97955067e-02 -2.36818150e-01 -7.14744478e-02 -1.17713258e-01 -2.51945155e-03 +2.99129933e-02 -1.08139664e-02 -1.03355320e-02 +1.08879507e-01 -1.66795939e-01 -7.45300129e-02 -1.00379080e-01 -1.07016854e-01 -1.41180083e-01 +6.74483702e-02 +1.63413887e-03 +1.87164992e-01 -1.11096665e-01 -1.27738956e-02 -1.15461893e-01 -2.09969610e-01 -2.16800347e-01 -2.06050500e-01 -8.99926573e-02 -1.25973120e-01 +1.09511480e-01 -2.39685014e-01 +1.44858658e-01 -3.28703880e-01 -7.31306374e-02 -1.66747794e-01 -1.54272959e-01 +1.72483087e-01 -5.77340126e-02 +9.40625221e-02 -1.69437811e-01 -5.04679047e-02 -9.35641024e-03 +3.83978225e-02 -1.74365014e-01 +5.71816154e-02 -6.13706335e-02 -5.45872264e-02 -3.36914212e-02 -1.61293879e-01 +1.10210210e-01 -1.40304640e-01 +1.96555436e-01 -1.28226981e-01 +2.84460117e-03 +1.81683064e-01 -6.93030953e-02 +4.74426784e-02 -3.69566344e-02 +1.12847172e-01 -9.02555510e-02 +1.23952702e-02 -5.42148165e-02 -1.04149096e-02 +7.07761496e-02 +1.45730257e-01 +1.02269880e-01 -8.60207602e-02 +6.68953955e-02 +3.48428227e-02 -2.56988525e-01 -2.04945840e-02 -3.50415289e-01 +4.88893427e-02 -9.81090814e-02 +6.23276867e-02 +8.19708779e-02 -1.36592448e-01 +1.32847294e-01 +9.56181735e-02 -1.65718406e-01 +6.60673762e-03 -2.73799971e-02 -2.22880751e-01 -1.33122593e-01 -4.07290637e-01 -3.09349298e-01 -1.69255547e-02 -3.02654296e-01 +1.47807807e-01 -1.31264970e-01 -2.44578332e-01 +1.68106541e-01 +1.05012119e-01 -1.45043477e-01 -4.46189791e-01 +3.88050199e-01 +1.01406962e-01 +2.80437171e-01 +3.28301154e-02 -1.08741876e-02 +3.07919264e-01 -2.86073178e-01 -1.81556195e-01 +4.94622961e-02 +1.54125974e-01 -4.26914729e-02 -1.10462233e-01 -1.65079478e-02 +6.88390881e-02 -2.73524463e-01 -3.13683778e-01 -1.78159535e-01 -2.36930892e-01 -2.67483711e-01 -2.08075210e-01 +3.14633459e-01 -1.74392581e-01 +2.42170379e-01 +1.95303336e-01 -1.37366682e-01 +2.23186404e-01 +2.22563818e-01 -1.82704732e-01 -7.97660127e-02 -1.50135785e-01 +2.36888640e-02 -1.85298488e-01 +2.34440655e-01 -4.76336703e-02 +3.03036302e-01 -9.19189230e-02 -1.72257066e-01 -1.47603869e-01 +2.68432468e-01 +1.39474273e-01 +1.84024498e-01 +1.56041786e-01 +1.91878051e-01 -1.20983779e-01 +9.33969840e-02 -4.69495775e-03 +8.72052610e-02 +7.27779940e-02 +1.18153065e-01 -9.46342424e-02 +1.86119959e-01 -8.09805691e-02 +7.73129240e-03 -3.51800881e-02 +6.76076189e-02 +1.59591883e-02 +1.34257346e-01 -9.55173895e-02 +3.61341983e-01 +1.80986717e-01 -8.42928216e-02 +1.53252423e-01 +5.22691607e-02 +2.92379349e-01 -5.25844283e-02 +1.47795931e-01 -2.97243278e-02 +2.27109328e-01 +3.82712781e-02 +3.13629448e-01 +1.43901974e-01 -4.72274870e-02 +5.42392693e-02 -6.56094924e-02 +1.32993430e-01 +1.05169021e-01 +2.58918237e-02 -5.53270429e-02 +7.76846781e-02 +1.35075361e-01 -1.37312934e-01 +3.32788713e-02 +6.62501901e-03 -7.64604434e-02 +1.69770926e-01 +1.53020293e-01 +2.37871081e-01 +1.35698751e-01 +1.98954239e-01 +1.23616919e-01 +8.19661766e-02 -4.44784947e-02 +3.14526498e-01 -2.99731120e-02 +1.65914834e-01 +1.87079728e-01 -2.74844393e-02 -6.58718050e-02 +1.21755138e-01 +7.52918422e-02 +3.07002570e-02 +5.53390943e-03 +3.33540946e-01 -1.15768015e-01 -1.00086117e-02 +1.51188135e-01 +4.76923697e-02 +9.96127054e-02 +4.26189303e-02 +5.27431965e-02 +1.51997441e-02 +7.69932270e-02 +3.87700833e-02 -9.12641454e-03 -8.98211170e-03 +1.59606915e-02 -2.07084026e-02 -9.38324332e-02 +3.35398495e-01 +7.04155713e-02 +9.54288319e-02 -2.87793316e-02 +3.29269469e-01 -1.62048623e-01 -9.03424695e-02 -7.40956366e-02 +1.22465186e-01 -4.76674199e-01 -2.00542510e-01 +1.36548877e-01 +1.10587262e-01 +2.96001226e-01 +9.46526378e-02 -2.63095796e-01 -1.38537824e-01 +3.64763349e-01 +2.16289282e-01 -1.30052939e-01 -1.67842627e-01 +1.93474162e-02 +1.11186065e-01 +4.33053076e-02 +1.86687499e-01 +9.17752683e-02 +1.90169260e-01 +3.61316860e-01 +2.93078154e-01 +2.08579302e-01 +2.43330877e-02 +2.01146794e-03 -2.66073854e-04 -1.69993728e-01 +2.43877918e-01 -9.17124301e-02 -7.04617181e-04 -6.09158166e-02 -7.77144507e-02 +2.55427718e-01 +6.33255318e-02 +6.87523186e-02 +3.46999496e-01 +1.66021809e-01 -2.26860687e-01 +1.59033183e-02 +3.37660849e-01 +2.90426224e-01 +1.48798674e-01 -7.42256045e-02 +2.59125024e-01 +6.61773160e-02 -7.44182616e-02 +2.45779365e-01 +5.09490706e-02 +4.17717457e-01 +3.36708605e-01 +2.64857467e-02 +5.83769381e-02 +2.63752550e-01 +8.06454346e-02 +1.16076702e-02 +8.65662098e-02 -6.78475797e-02 +1.34566069e-01 +2.34087154e-01 +2.94691205e-01 +8.54123533e-02 +3.20035189e-01 -1.30322099e-01 -5.27282543e-02 +1.75954789e-01 +6.61775172e-02 +2.74220072e-02 -3.45005207e-02 +3.85612816e-01 -6.11133724e-02 +1.22249410e-01 +6.16321415e-02 -5.54028638e-02 -1.40091345e-01 +2.49399960e-01 +2.75205433e-01 -8.21008235e-02 +1.59333989e-01 +1.36057198e-01 +2.35591114e-01 +3.02286129e-02 +2.21264884e-01 +1.48074970e-01 +7.90481120e-02 +3.73699963e-01 +2.00903952e-01 +1.39985681e-01 +2.10299805e-01 +1.85028285e-01 +5.80412708e-02 -2.38884650e-02 +9.87107828e-02 -9.78066102e-02 +1.57565162e-01 +2.52217501e-01 +1.10535331e-01 +2.42994294e-01 +3.94838810e-01 +2.97549129e-01 +1.13889612e-01 +1.73045486e-01 -1.21633619e-01 +1.37696996e-01 +1.77667975e-01 +7.32896402e-02 +1.81932092e-01 -6.40280917e-03 +2.51430541e-01 +3.63117903e-01 +1.85522124e-01 -1.25537679e-01 +1.29134461e-01 -7.59152230e-03 +1.15541615e-01 -6.02407865e-02 +4.73146737e-02 +8.15543309e-02 +7.23104700e-02 -2.26728991e-01 -2.06452310e-01 +3.08946908e-01 +2.88518280e-01 +3.69038135e-01 +1.40340209e-01 -1.25544235e-01 +2.41893113e-01 +2.81627089e-01 +1.30705945e-02 +4.09628190e-02 +3.78125384e-02 +2.33894408e-01 -1.89108729e-01 -3.96662503e-02 -7.48557970e-02 -7.78197870e-02 -1.94863882e-02 -9.51244980e-02 +4.88224588e-02 +7.38647580e-02 -1.19450063e-01 +6.16765069e-03 +2.60911167e-01 -2.65638554e-03 +5.95495179e-02 +1.25652313e-01 +4.14923206e-02 -2.94601023e-02 -4.46482785e-02 +1.23120084e-01 -8.64753872e-03 -5.37106246e-02 -1.68335557e-01 -8.63300115e-02 +2.95427199e-02 -1.77180380e-01 +2.28193998e-01 -6.51717559e-02 +3.13635617e-02 -1.67201445e-01 +2.11112007e-01 +6.13533705e-02 -1.85302258e-01 -1.01655414e-02 -8.93589556e-02 +4.02378552e-02 -2.23156571e-01 +1.12454310e-01 -1.39417583e-02 +2.84907408e-02 -3.67255867e-01 -8.13117772e-02 -2.08157629e-01 -1.59607232e-01 +1.84789915e-02 -7.47625232e-02 +1.27799571e-01 -3.95411253e-02 -2.67190132e-02 +1.17184460e-01 -7.93100148e-02 -2.09966928e-01 -7.29239807e-02 -1.90519571e-01 +1.46273151e-02 -7.88335279e-02 -1.40293613e-01 +7.03029186e-02 -1.41630366e-01 -3.13876927e-01 +1.03872001e-01 -7.82162324e-02 +1.80840716e-01 +1.15128659e-01 +1.33758441e-01 +2.81216204e-02 -1.07618749e-01 -1.99407823e-02 -8.96254107e-02 -1.73652619e-01 +5.65629229e-02 +1.67883798e-01 +1.38573647e-01 -1.42229095e-01 +1.14880651e-01 -1.61743194e-01 -2.02800617e-01 -1.30317494e-01 -1.59847185e-01 -9.04279724e-02 -1.53088734e-01 +1.64799038e-02 -2.57295102e-01 +9.12868381e-02 -1.06133213e-02 -6.64218888e-02 -2.39252653e-02 +1.55947320e-02 -4.92571443e-02 -7.15561658e-02 -1.89899608e-01 +1.57067645e-02 -1.45996675e-01 +5.06065749e-02 -1.29852876e-01 -3.21048275e-02 -9.22893360e-02 -1.28204629e-01 -1.05155781e-01 +8.39922205e-02 +3.67928692e-03 -2.19153121e-01 +8.84706974e-02 +1.76322237e-01 +1.09073155e-01 -4.62662727e-02 +9.75400954e-03 +6.34705881e-04 -1.53673396e-01 -8.06904584e-02 -2.36721814e-01 -1.19405441e-01 +3.57467346e-02 +6.11272529e-02 -1.09392270e-01 -1.32635012e-01 +1.42054446e-02 +3.14020365e-01 -1.11322008e-01 +1.63600057e-01 -1.87876672e-01 -8.85554329e-02 +1.53448097e-02 -1.44740596e-01 -2.40969226e-01 -1.77307561e-01 -1.83207721e-01 +1.47611335e-01 -2.15784848e-01 -1.13979124e-01 -1.70985371e-01 +1.11608922e-01 -2.17009842e-01 -1.64678380e-01 +9.47567355e-03 -1.88711762e-01 -1.25313714e-01 +1.52681425e-01 +5.54767288e-02 +9.88531485e-02 -2.09104910e-01 +1.22992970e-01 +5.43985441e-02 -1.73496559e-01 -1.45390378e-02 +1.83372218e-02 -2.30084136e-01 +2.06935287e-01 -1.46700442e-01 -1.56578573e-03 -1.05104774e-01 -4.04556692e-02 -1.76139459e-01 -9.68212932e-02 -1.51415452e-01 -3.52861971e-01 +3.95660736e-02 -1.20163545e-01 -1.46480694e-01 -4.72223386e-03 -3.35812047e-02 -1.18110135e-01 -1.26776606e-01 -6.54684678e-02 +4.17962670e-02 -1.33375019e-01 -5.14356941e-02 +1.71351865e-01 -3.47937763e-01 +1.13762608e-02 +1.51951626e-01 +5.01432940e-02 -1.00144602e-01 -1.21549278e-01 +9.24014822e-02 +1.19438462e-01 -1.55859202e-01 -7.14636073e-02 -1.91495448e-01 +2.79367398e-02 -8.50925595e-03 +2.02316884e-02 +1.21951643e-02 -1.64604187e-01 -2.06739426e-01 -2.28191763e-01 -6.24574237e-02 -1.55006796e-01 +1.02983095e-01 -3.85751516e-01 +1.55736106e-02 +9.14224088e-02 -1.16825916e-01 -1.79033261e-02 -2.08496526e-01 -7.02865720e-02 -1.06369883e-01 -1.18725456e-01 -1.49219915e-01 -5.13296388e-02 -2.30880529e-01 -1.47473767e-01 -1.30803406e-01 -4.68575023e-02 -8.26112852e-02 -9.86254811e-02 +1.05038606e-01 +7.27400035e-02 -1.95439681e-01 +7.71221295e-02 -1.57220095e-01 +1.95557922e-01 -1.30499396e-02 +1.26237243e-01 +3.38881947e-02 -7.25843571e-03 -7.46095181e-02 +9.60072875e-02 +7.23302551e-03 -2.19621494e-01 -5.51493391e-02 -1.44389123e-01 -9.51029174e-03 +7.44564310e-02 -1.76925108e-01 -1.00862615e-01 -1.61322236e-01 +8.73939693e-03 -1.16422921e-01 -1.10892504e-01 +5.46623692e-02 +3.08744367e-02 -1.39375761e-01 -1.92308053e-01 -4.82194908e-02 +3.25138383e-02 -2.36198187e-01 +5.74893504e-02 +6.68820366e-02 -1.71016529e-01 +2.39127502e-01 +4.08737898e-01 -1.70112655e-01 +1.68556616e-01 +6.54227883e-02 -2.64908671e-01 -2.81868368e-01 -2.40284562e-01 -5.74181117e-02 +1.03097260e-01 -2.48751283e-01 +1.78711027e-01 +1.52360246e-01 +2.58026402e-02 +3.70709449e-02 -4.54056412e-02 -1.15503818e-01 +1.11270688e-01 +3.28881927e-02 +1.67794541e-01 +5.69695905e-02 +1.13169461e-01 -2.96200663e-01 +1.35723129e-01 +9.31424424e-02 -6.52564391e-02 +6.37302697e-02 +1.26636207e-01 +2.81611174e-01 +1.73156261e-02 -2.61392266e-01 +1.76159519e-04 -1.03108764e-01 -2.30304971e-01 -1.63114473e-01 -2.90540922e-02 -1.88280851e-01 -8.27244893e-02 +2.25035265e-01 +7.03411996e-02 +1.05365124e-02 +1.47344312e-02 +7.71150216e-02 +1.69701338e-01 +1.78875089e-01 -1.93629622e-01 +3.52090567e-01 -2.32742161e-01 -1.06353402e-01 -2.45061100e-01 +1.50816143e-01 -3.46523598e-02 +1.38185114e-01 -1.64082527e-01 -2.80234870e-02 -2.96785235e-01 +9.33472291e-02 +2.41659597e-01 -2.82701999e-01 -4.08889949e-02 +2.12414980e-01 +6.08419348e-03 +5.45352092e-03 +9.35156569e-02 -6.17420562e-02 +7.97875151e-02 -9.12125502e-03 +3.00785117e-02 +7.49367401e-02 -8.94773602e-02 +7.45729879e-02 -1.24531455e-01 -1.13441393e-01 -2.06762210e-01 -1.65679261e-01 -1.23448759e-01 +6.88515306e-02 +5.20285144e-02 +3.26104015e-01 -1.34518847e-01 -1.06661506e-01 -2.66870379e-01 -1.77982122e-01 +3.50462683e-02 +9.80760306e-02 -7.66246617e-02 +5.42784780e-02 -2.59047747e-01 +7.26840049e-02 -3.81995961e-02 +1.86085645e-02 -3.96479666e-02 -5.01523875e-02 -1.34485215e-01 +6.03040420e-02 -9.95444134e-02 +5.91032580e-02 +7.36743808e-02 +3.85437459e-02 -1.40478298e-01 -9.39950049e-02 +4.91767786e-02 -4.41093184e-02 -6.61408678e-02 -3.87659036e-02 -3.28923948e-02 -3.54190767e-02 -1.51773736e-01 -4.46937382e-02 -3.87886353e-02 -2.40671441e-01 -5.70745058e-02 -1.45233899e-01 +1.14142284e-01 +4.41504121e-02 +2.04959605e-02 -1.48566425e-01 -1.10440724e-01 -1.21637151e-01 -1.51254609e-01 -4.39969860e-02 -6.60859123e-02 -3.77738833e-01 -1.84691206e-01 +4.36796062e-02 -3.65283340e-02 -4.70774770e-02 -4.16879877e-02 +5.84977604e-02 +1.18816338e-01 +2.05981266e-02 +1.62355408e-01 +1.99568663e-02 +1.82125166e-01 +1.48235187e-01 +1.33660808e-01 +1.04454547e-01 +2.24466637e-01 -1.18812047e-01 +1.69956610e-01 -5.49894199e-02 -7.00822324e-02 +4.11479682e-01 -7.20214425e-03 +3.37009095e-02 +6.72138482e-02 +1.89178124e-01 -1.24641351e-01 +1.13584986e-02 -1.59236014e-01 -1.55474126e-01 -6.92277029e-02 +1.15115322e-01 -8.69848281e-02 -1.71740890e-01 +2.59807389e-02 +2.36197989e-02 -2.17271209e-01 -4.85738926e-02 +1.82276353e-01 +4.79422733e-02 -2.55871128e-04 +1.65707909e-03 +1.32004008e-01 -7.54312649e-02 +7.04398230e-02 -5.12246862e-02 +6.98182806e-02 +8.32531974e-02 +4.40038107e-02 -1.20971039e-01 +7.35552460e-02 +8.00143648e-03 -1.18537709e-01 +2.26425886e-01 +1.51014328e-01 +1.46860080e-02 -8.51595774e-03 +8.94488171e-02 -2.03900307e-01 +1.83613583e-01 +1.83324188e-01 +7.64269382e-02 -2.07263917e-01 -7.91849568e-02 +2.25560926e-02 +1.17052928e-01 +4.73167337e-02 +1.15301065e-01 -7.36426190e-02 -4.06808853e-02 +5.69236763e-02 -2.80011088e-01 -6.01829328e-02 -1.48803517e-01 +1.16595946e-01 +1.45416766e-01 +1.34345263e-01 +3.25959802e-01 +1.05218828e-01 +1.73270196e-01 +2.07008310e-02 +4.46157902e-02 -8.21876079e-02 +6.03603870e-02 +2.19896913e-01 +6.54152751e-01 +6.76792488e-02 -2.03371838e-01 +2.65800161e-03 -1.04275219e-01 -4.51829024e-02 -1.21955182e-02 -1.50374815e-01 -7.36183375e-02 -1.26120999e-01 +2.51991540e-01 -1.52701035e-03 +7.49197006e-02 -2.67690122e-02 -2.12051459e-02 +5.78433126e-02 +1.01725377e-01 +6.84532821e-02 -2.31472328e-02 -6.97123557e-02 +9.15669724e-02 +1.09434333e-02 -4.72337343e-02 -2.18834281e-02 +1.50979599e-02 +2.17218492e-02 -1.06066614e-01 +5.72728924e-03 +1.55559406e-02 +6.29842579e-02 -4.17271368e-02 +3.29427607e-02 -1.78504616e-01 +5.71715944e-02 +2.59769801e-02 +3.26275220e-03 -8.44505504e-02 -1.71310470e-01 -1.62323073e-01 +2.27024615e-01 +9.68616083e-02 -1.50513455e-01 -1.34284958e-01 +2.01870069e-01 -1.09854817e-01 -5.47204837e-02 -1.01088189e-01 +1.60118386e-01 -3.51167098e-02 +7.49671012e-02 -8.42510350e-03 -8.76687840e-02 -1.17603928e-01 +3.14208791e-02 -4.33414690e-02 +6.19022958e-02 +1.06191099e-01 +1.43023551e-01 +9.91653278e-02 +2.96144448e-02 +4.23187390e-02 -6.15701191e-02 +1.14405230e-01 +6.09072633e-02 -1.17806867e-01 +1.02940075e-01 -1.54089406e-01 +2.73249626e-01 -1.34125248e-01 -5.53743318e-02 -1.34707997e-02 +4.06651944e-02 -1.25330565e-02 +1.88167673e-02 +1.32814080e-01 -1.78741682e-02 +8.84322152e-02 -1.30161732e-01 -5.09310439e-02 -2.73633599e-02 -3.64277489e-03 -3.14109996e-02 +7.76982633e-03 +1.08829387e-01 -1.81810394e-01 -7.37742409e-02 -6.40907064e-02 +8.45902413e-02 +4.12799530e-02 -3.68878841e-02 +1.09363399e-01 +9.33588371e-02 +2.71244999e-02 +8.95532742e-02 -5.80176786e-02 -1.86582413e-02 +3.85255255e-02 +1.59108825e-02 -8.91904756e-02 +1.08022643e-02 +9.50697511e-02 -7.24965557e-02 +4.39665727e-02 -4.78192046e-02 -3.70207913e-02 -9.90533754e-02 -2.67455373e-02 -7.68440515e-02 -1.48107454e-01 +8.31463709e-02 +1.10992618e-01 -2.55288631e-01 -1.64635256e-01 -1.40676573e-01 -1.64010972e-02 +1.35213661e-03 -2.36325607e-01 -7.18468800e-02 -4.92470525e-03 -1.24961250e-02 -7.99245387e-02 -1.43134162e-01 +4.86313477e-02 +4.93712425e-02 -1.45251542e-01 +3.62862311e-02 -2.97518581e-01 -2.66344935e-01 -1.02358423e-01 -2.26789877e-01 -1.30121708e-01 +2.41850436e-01 +5.68972677e-02 -3.14541720e-02 +8.59200805e-02 +1.42149046e-01 -5.38364612e-02 +2.38658041e-01 -1.27955854e-01 -2.18757212e-01 -1.26214936e-01 +1.03017557e-02 -7.90530667e-02 -1.79342106e-01 -1.53848067e-01 -2.16725647e-01 -6.62804097e-02 -1.91185921e-02 +3.06590702e-02 -3.02409291e-01 -1.33572757e-01 +2.45185234e-02 -3.99632119e-02 +1.87064737e-01 -9.64655578e-02 -2.70633221e-01 -3.53907049e-01 -1.87653646e-01 -3.25620532e-01 -1.55353367e-01 -1.39268674e-02 -4.56737652e-02 -1.63639411e-01 -2.48749629e-01 -2.55588323e-01 -2.01639161e-01 +6.62014037e-02 -2.55750507e-01 -2.07184225e-01 -8.38556364e-02 -2.61710286e-01 -1.38875604e-01 +1.82486832e-01 +5.42628840e-02 -2.65267283e-01 -1.84289470e-01 -6.93083927e-02 -1.99101940e-01 +4.39399928e-02 -2.90394753e-01 -2.09220856e-01 -2.14096904e-01 -2.88819969e-01 -1.38833761e-01 -1.10212959e-01 +3.68101090e-01 -3.27807546e-01 +3.04944795e-02 -1.03329681e-01 +1.88952416e-01 -2.70777851e-01 -1.27279714e-01 -2.05749661e-01 -6.28621597e-03 -8.44498426e-02 +1.54638469e-01 +2.69428939e-01 -1.83367535e-01 +7.89689496e-02 -1.60702974e-01 -2.11893111e-01 +9.06593129e-02 +2.52501275e-02 -2.09831253e-01 -1.18965626e-01 +2.65293390e-01 -2.74978727e-01 -2.23961979e-01 -1.83969084e-02 -2.22545892e-01 +6.10615835e-02 -5.05876206e-02 