#Parameter# /UniLSTMSeqTransducer-bef1e995/_0 {256,300} 1228801 ZERO_GRAD
+2.44686022e-01 +5.45396954e-02 +9.33066979e-02 +1.76458046e-01 -6.93658516e-02 +3.94057147e-02 -8.79133046e-02 +8.69355276e-02 +1.05314746e-01 +1.55028313e-01 +1.48910031e-01 +1.27246156e-01 +1.52964309e-01 +1.37277171e-01 +2.93036342e-01 -4.16094288e-02 +1.06554143e-01 +1.24434881e-01 +1.65238693e-01 +1.96709391e-02 +6.75882921e-02 -2.10245937e-01 +1.36959091e-01 +1.71915844e-01 +6.17660806e-02 +1.34416461e-01 +1.88283455e-02 +6.86527118e-02 +9.17280018e-02 -1.06980629e-01 +5.90854138e-02 +3.33011672e-02 +3.16708207e-01 +1.83665231e-01 +1.95944998e-02 +8.13188553e-02 -1.66149121e-02 -4.27972004e-02 +4.13501896e-02 +1.57485664e-01 +3.21934551e-01 +8.81696790e-02 +3.75299677e-02 +5.47034703e-02 +2.48218894e-01 +9.06797647e-02 +2.37623572e-01 +2.08894119e-01 +1.38775855e-01 -8.02217275e-02 -1.11541457e-01 +1.67908877e-01 -5.60848713e-02 +1.70943066e-01 +7.01258406e-02 +9.37339738e-02 -2.85233906e-03 +9.58900806e-03 +2.84250062e-02 -2.03352212e-03 +7.95806050e-02 -9.03630108e-02 +3.55994143e-02 -2.23895133e-01 +1.50124669e-01 -5.24134003e-02 +1.76546484e-01 -8.83831531e-02 +6.58381656e-02 -5.83287776e-02 -1.11287422e-01 +3.19765620e-02 +6.01759478e-02 -5.54997697e-02 +1.48836698e-05 -2.62639835e-03 -1.60114618e-03 -1.07105196e-01 +1.23456724e-01 -1.25486493e-01 +1.25539238e-02 +6.44878373e-02 -6.22516647e-02 +1.04431495e-01 +1.89478323e-02 -4.64735404e-02 +1.26617491e-01 +1.14477575e-01 +4.81656268e-02 -1.32449359e-01 -2.22046569e-01 +9.64558646e-02 +2.03462601e-01 +7.84626603e-02 -7.36875981e-02 -2.56984103e-02 +4.15176116e-02 +8.24152753e-02 -2.54679844e-02 +1.07331716e-01 +1.47090435e-01 +2.52896845e-02 +1.55596226e-01 -4.57063783e-03 -2.17942044e-01 -3.91303867e-01 +2.02485666e-01 +2.07308054e-01 +3.63280773e-02 +7.01496005e-02 +1.97996616e-01 +1.39619544e-01 +2.43891422e-02 +2.33738162e-02 +5.72911873e-02 -1.19637407e-01 +1.16990745e-01 +4.17594910e-02 -2.17322692e-01 +8.39017145e-03 -8.54172409e-02 +7.23793283e-02 +1.74251676e-01 +3.98884952e-01 +3.66020715e-03 +1.00318752e-01 +1.84194878e-01 -1.19956322e-01 -4.29577790e-02 -6.94913566e-02 +1.00456163e-01 +1.20267659e-01 +2.59764347e-04 +2.94399541e-02 -4.01457474e-02 +6.05847873e-02 +1.70678154e-01 -1.40500858e-01 +1.02812119e-01 +1.43781662e-01 -3.70558091e-02 +8.19120109e-02 +1.70908436e-01 +1.41916335e-01 +7.74233937e-02 +1.75967887e-01 +2.20868662e-01 -5.84229417e-02 -2.01153785e-01 +3.17208506e-02 +3.19533497e-01 -1.78499430e-01 +1.94613501e-01 +1.21702500e-01 -1.81704327e-01 +7.92750418e-02 +2.13504240e-01 +4.68372367e-02 +2.83572972e-02 +1.72649011e-01 +1.07756250e-01 +5.34391738e-02 +1.71223190e-02 +2.16761380e-01 +4.94191535e-02 +2.47736245e-01 +1.74642056e-01 +2.93399058e-02 -9.79742631e-02 +1.08260691e-01 +1.05758533e-01 +6.65896386e-02 +7.81416427e-03 -5.32880239e-02 +6.97997659e-02 +1.27808765e-01 -6.73412830e-02 +5.97085319e-02 -4.10499685e-02 -2.20518615e-02 -6.35680556e-02 +9.96676553e-03 -5.41400462e-02 +2.77794152e-01 -3.56640741e-02 +1.97461128e-01 +1.91410929e-01 +1.75830990e-01 +1.05641693e-01 +1.17140450e-01 +1.66012794e-01 +2.57520154e-02 +1.84879273e-01 -1.47150621e-01 -2.78232217e-01 +1.80662453e-01 +2.24500820e-01 +1.63425758e-01 +1.54496115e-02 -2.00239327e-02 -9.92267653e-02 +3.04656401e-02 +1.35479316e-01 -2.09666967e-01 -1.13356397e-01 +8.90692845e-02 +2.78102517e-01 -3.06053460e-02 +1.48025021e-01 -2.33414471e-01 -2.06581980e-01 -2.41998494e-01 +6.27778247e-02 +5.16146086e-02 +9.37089995e-02 -1.23498164e-01 -1.47623792e-01 +2.14853480e-01 -2.24505991e-01 +3.86701822e-02 -3.52327116e-02 +6.39911518e-02 +1.40657961e-01 +6.66418076e-02 -5.63033260e-02 -3.15905333e-01 +9.64088291e-02 -4.46210690e-02 +1.29028022e-01 +3.35764959e-02 +3.63435559e-02 -1.62391961e-02 +1.97029665e-01 +3.89517039e-01 -1.28078789e-01 -6.30980730e-02 +9.08314660e-02 +2.40934461e-01 +9.76138115e-02 -1.49815485e-01 -5.28139174e-01 +6.26141727e-02 +1.66103929e-01 -1.99791133e-01 +1.50288761e-01 -2.97533814e-02 -1.25024736e-01 +1.35551780e-01 +2.17545033e-01 -2.24013492e-01 -8.00043568e-02 +2.29875162e-01 +2.12951064e-01 +1.50220826e-01 +1.59812003e-01 +2.40335137e-01 -3.92760158e-01 -3.43540400e-01 -5.40291034e-02 -5.67066073e-01 -2.08554536e-01 -2.59737134e-01 -1.86704978e-01 -3.91245782e-01 -3.50377262e-01 -5.90867400e-01 -1.99945167e-01 -3.69767517e-01 -4.11830425e-01 -5.34229159e-01 -5.11314631e-01 -6.45642400e-01 -4.50035125e-01 -1.73709691e-01 -1.28865033e-01 -3.95915866e-01 -4.64712560e-01 -1.80182323e-01 -3.72897357e-01 -1.56855300e-01 -5.27657092e-01 -3.14946800e-01 -3.04048240e-01 -4.10394102e-01 -4.89852488e-01 +1.07568474e-02 -2.88168937e-01 -2.36021072e-01 -2.45403256e-02 -1.46401763e-01 -4.89426315e-01 -4.67466116e-01 -3.40783030e-01 -2.21701264e-01 -3.39470059e-01 -3.72193485e-01 -3.20590436e-01 -3.07834446e-01 -2.61443287e-01 -2.98788190e-01 -3.51231158e-01 -1.63455531e-01 -3.45861495e-01 -3.09770197e-01 -3.54109019e-01 -9.67009887e-02 -1.80050895e-01 -3.82362008e-01 -2.59336889e-01 -1.12795778e-01 -2.45626956e-01 -4.21708852e-01 -3.74996483e-01 -3.63025725e-01 +3.01826932e-02 -1.36759862e-01 -3.05943973e-02 -3.65079939e-02 -2.96793729e-01 -2.15297028e-01 +1.63747668e-01 +3.17961484e-01 +2.03880429e-01 +1.96435466e-01 +1.36275113e-01 +9.79124680e-02 +5.24005413e-01 +2.53416061e-01 +9.84995067e-02 +2.28230804e-01 +7.93208927e-02 +1.90046862e-01 +1.68552294e-01 +4.65712287e-02 +9.13442951e-03 +2.94533044e-01 -6.77524582e-02 +3.45393717e-01 +2.52700329e-01 +2.02790216e-01 +1.83087841e-01 +1.58749539e-02 +1.40666470e-01 +2.87274241e-01 +9.63293537e-02 +2.91976154e-01 +1.79532230e-01 +3.37735146e-01 +2.27980614e-01 +2.06016243e-01 +3.55967611e-01 +3.62923265e-01 +1.28798202e-01 +1.39860809e-01 -1.25891924e-01 -3.95766124e-02 +2.24488288e-01 +1.85936719e-01 +2.65830398e-01 +3.26691300e-01 +2.20826954e-01 +2.77922273e-01 +1.39403224e-01 +5.91141917e-02 +2.26731658e-01 +3.84968609e-01 -7.49116763e-02 +3.53811383e-01 +1.90073490e-01 +3.26319993e-01 +2.60288298e-01 +1.09370500e-01 +2.61409312e-01 +3.31329763e-01 +1.29971966e-01 +1.80379257e-01 +3.13571215e-01 +5.69009595e-02 +3.04765105e-01 +5.01114950e-02 +3.63249898e-01 +3.94178718e-01 +7.37952301e-03 +3.58962268e-01 -1.72494769e-01 +8.70975405e-02 +3.03747892e-01 -1.53918505e-01 +9.10406783e-02 -2.49663517e-01 +2.03952834e-01 -1.44772723e-01 -8.91649649e-02 -1.85880393e-01 -1.21557452e-01 +9.48790237e-02 -8.48393887e-02 +6.30671680e-02 -1.47770151e-01 -3.48245427e-02 -6.36180863e-02 -1.48603961e-01 -1.53484484e-02 -1.17035948e-01 +3.81310135e-02 -2.59580582e-01 -1.75032839e-01 +1.25902608e-01 -2.22562864e-01 +8.53726417e-02 -2.64722086e-03 -4.83888015e-02 -1.70331672e-02 +6.06009439e-02 -2.01417044e-01 +1.12998359e-01 -5.63932136e-02 -4.53567766e-02 -1.21364549e-01 -1.83548450e-01 +6.69734329e-02 +1.07687809e-01 +5.67102758e-03 -3.57825197e-02 +2.19758004e-01 +2.83467829e-01 +6.70392886e-02 -7.98926726e-02 +3.13429862e-01 +8.50941837e-02 -8.06376413e-02 +6.00471441e-03 +8.62305760e-02 -1.27512366e-01 -1.47212148e-01 +1.03253879e-01 +2.44785532e-01 +1.72898229e-02 -1.31293654e-01 -3.17957968e-01 -9.90799963e-02 -1.36308163e-01 +9.86195505e-02 -6.91697896e-02 +2.84020126e-01 +5.38527891e-02 -2.01659411e-01 -2.02770725e-01 -1.15361586e-01 -1.26684397e-01 -2.64886111e-01 +2.71116979e-02 +9.49101377e-05 -6.10886551e-02 -1.31837815e-01 -1.84538774e-02 +8.62767696e-02 -1.34873420e-01 -1.22605925e-02 -8.48242640e-02 -6.49994388e-02 +2.57844955e-01 +1.12821197e-03 -7.17114285e-02 -4.06541042e-02 -8.73518363e-02 -9.72562432e-02 -2.69967198e-01 +1.67023242e-02 -1.91026300e-01 -1.33925647e-01 -5.89831285e-02 +6.62192181e-02 -3.45238410e-02 +1.11338459e-02 +2.06460077e-02 +1.20752417e-01 -1.18685231e-01 -1.78530142e-01 -6.16790727e-02 -6.41176626e-02 -1.57140836e-01 -1.49241433e-01 +2.40344033e-01 -9.18406341e-03 -1.58809379e-01 +2.64457110e-02 +7.44123710e-03 +1.43870354e-01 +1.33708329e-03 +6.52158037e-02 +6.38707429e-02 +2.03918189e-01 +1.17086209e-02 +1.02037124e-01 +1.73240632e-01 +4.98517975e-02 -2.42224261e-02 -3.62449326e-02 -3.24622132e-02 +2.05207899e-01 -3.99867594e-02 -3.36599052e-02 +1.07509224e-02 -8.93256068e-02 -3.99423875e-02 -5.03265783e-02 +1.35442317e-01 -1.56526938e-01 -1.15596302e-01 +1.33499905e-01 +8.59259889e-02 +3.77390474e-01 +1.61155092e-03 +1.17871076e-01 +4.62457649e-02 +2.45608762e-01 +9.35751796e-02 +4.66093749e-01 +2.45951116e-01 +9.07693245e-03 -9.32076424e-02 +1.68903004e-02 -1.18789278e-01 -8.07105899e-02 +1.30907506e-01 +2.74384469e-01 +2.53934473e-01 +1.37569159e-01 +4.26813096e-01 +1.68977723e-01 +1.06870960e-02 +7.56317675e-02 +7.41451010e-02 +2.21979707e-01 +3.33205938e-01 +3.24159972e-02 +2.01532602e-01 +2.80227154e-01 +3.43861245e-02 +1.64682671e-01 +1.44679993e-01 +6.18090704e-02 +1.00004137e-01 +1.25650659e-01 +7.50875100e-02 +4.71575707e-01 -1.11543454e-01 -2.03798618e-02 +2.42890507e-01 +3.79054338e-01 +3.29223812e-01 +2.72698730e-01 +1.26580328e-01 +4.82111275e-02 +2.77215570e-01 +2.36119419e-01 +3.60674635e-02 +4.08312716e-02 +2.82848686e-01 +1.15774907e-01 +3.11723471e-01 +2.93801188e-01 +3.42617244e-01 +6.76368922e-02 +1.62341356e-01 +2.07063258e-01 +1.32934347e-01 +2.35754880e-04 +6.54562935e-02 +1.92754313e-01 -7.41517916e-02 +1.40852362e-01 +1.39950663e-01 +1.31000906e-01 +1.33163124e-01 +2.42024641e-02 -2.21707895e-01 -1.07799850e-01 -4.13898528e-02 -2.99583882e-01 -1.35515824e-01 -1.11630172e-01 -2.09704429e-01 -3.11012771e-02 -3.62502694e-01 -2.58377910e-01 -4.27001640e-02 -1.69659808e-01 -3.24316084e-01 -2.73437142e-01 -1.87104225e-01 -3.89184594e-01 -2.03544736e-01 -2.81998217e-01 -9.22165811e-02 -1.07294336e-01 -1.26406565e-01 -2.36403227e-01 -3.12219188e-02 -1.83916554e-01 -2.67940402e-01 -7.41105601e-02 -3.69120359e-01 -9.78011191e-02 +2.32960477e-01 -4.43099700e-02 -1.52571291e-01 -1.46616757e-01 -2.10623980e-01 -4.08574313e-01 -2.58071870e-01 -2.66222388e-01 +1.88494176e-01 -7.78382048e-02 +1.11244574e-01 -3.38301025e-02 -4.19113487e-01 -1.50769010e-01 -1.75090671e-01 -2.50017524e-01 -1.03831232e-01 -1.20916337e-01 -2.81468987e-01 -3.39661688e-01 -1.67612940e-01 -1.19688769e-03 -2.12436333e-01 -1.95346355e-01 -3.51546332e-02 -1.45493791e-01 -3.78921977e-03 -2.83138871e-01 -1.69126809e-01 -1.10898472e-01 -3.51331264e-01 -1.87209964e-01 +1.13821449e-02 +2.55405903e-02 -1.73711270e-01 +1.16400301e-01 -3.43189120e-01 -4.80942614e-03 -8.93585682e-02 -8.46053660e-02 +6.49132282e-02 +5.41628040e-02 -8.77201110e-02 +9.23918153e-04 -3.10580939e-01 -2.61228770e-01 -5.39168119e-02 -2.23415986e-01 -3.10063958e-01 -2.35495549e-02 +1.67018324e-02 -2.94034928e-01 +1.27346050e-02 -8.12371727e-03 -9.77411121e-02 -1.66608736e-01 -1.85748324e-01 +2.68355161e-02 -4.80385199e-02 -1.18421108e-01 -7.55414739e-02 -6.33691549e-02 -8.74824002e-02 -5.44486754e-02 +1.61590189e-01 -3.67807895e-02 -8.91242456e-03 -1.33570865e-01 +4.67626862e-02 -3.09154559e-02 -1.80554941e-01 -3.50561365e-02 +1.65007576e-01 +9.98465940e-02 +7.25052282e-02 -2.45571822e-01 -1.47944301e-01 -4.54339236e-02 -1.24306060e-01 -2.17408493e-01 -1.82991087e-01 -2.40544397e-02 -2.13638246e-01 -2.38398746e-01 +9.58188400e-02 +9.08590779e-02 -1.89022198e-01 -2.75829703e-01 -7.78262615e-02 +5.23718446e-03 -9.01857018e-02 -6.55650571e-02 -8.80312175e-02 -6.32568300e-02 -1.74680561e-01 -2.98543721e-01 +1.44624665e-01 +1.87955365e-01 +1.21690053e-02 +5.00947237e-02 +1.18389644e-01 -5.21493077e-01 -2.36376636e-02 +1.90455943e-01 -1.28253356e-01 -8.21805522e-02 -8.74499753e-02 -1.37513280e-01 -1.28632123e-02 +6.78001121e-02 -8.00961256e-02 +1.34881347e-01 +1.57454625e-01 +1.66386858e-01 +2.26173341e-01 +4.61504683e-02 +1.10674977e-01 -1.94293689e-02 -2.31056914e-01 +1.56199262e-01 -1.46343857e-01 +2.35055271e-03 +6.28111884e-02 -3.63338031e-02 +1.96024906e-02 -4.00584675e-02 +4.69582230e-02 -1.72557473e-01 -2.99301237e-01 +5.99852502e-02 +2.57413954e-01 -1.31861586e-03 +7.18165711e-02 -8.87964815e-02 +3.00645739e-01 +1.85218483e-01 -3.67311835e-01 +1.67640343e-01 +1.22240700e-01 -1.29299816e-02 +3.01159788e-02 -4.98670310e-01 +6.74171448e-02 +4.93946746e-02 +3.59650850e-02 +4.68527153e-02 -1.77855343e-01 +2.66496360e-01 -1.30285561e-01 +1.13669343e-01 -2.11499080e-01 -4.92772385e-02 +2.73853153e-01 +7.80331641e-02 -2.63499413e-02 +7.47420192e-02 +1.93839774e-01 -9.40339267e-02 +1.46366432e-02 -3.99861336e-02 -1.79319471e-01 +7.28139877e-02 +1.11790136e-01 -8.26714039e-02 +1.14937454e-01 +4.50639799e-02 -4.20050584e-02 +5.69704175e-02 +2.15795234e-01 -1.10168137e-01 -7.22553730e-02 +7.56619722e-02 +6.32806942e-02 -1.02956556e-01 +1.58321857e-01 +2.85516083e-01 +1.16892986e-01 +4.85495999e-02 -1.95563316e-01 -4.53798585e-02 -1.45071134e-01 +7.55002648e-02 +1.61637459e-02 +2.31063887e-02 -1.37123123e-01 -1.32735878e-01 +5.28164469e-02 +4.16148938e-02 +6.02411991e-03 -2.75777802e-02 -3.80368054e-01 -5.70523776e-02 +5.82433678e-02 -1.33750603e-01 +1.57872699e-02 -1.72861978e-01 -4.83632982e-02 -2.89872766e-01 +9.03615132e-02 -1.19495638e-01 -6.94078282e-02 +2.77514849e-02 +1.59782954e-02 +3.86463627e-02 -3.08416367e-01 +4.11767513e-02 -8.88879299e-02 -1.14503510e-01 +1.04404531e-01 -2.48486295e-01 -1.30865956e-02 +1.80139691e-01 -7.73819908e-02 -1.80161521e-01 +6.00647293e-02 -7.75630847e-02 +1.53576329e-01 +1.30691957e-02 +7.26596490e-02 +4.96428944e-02 -1.17844425e-01 -6.43978566e-02 -3.64686572e-03 -5.46478219e-02 -6.20035566e-02 -1.47233754e-01 -2.67462641e-01 -4.81860787e-02 -3.88938114e-02 +9.98862982e-02 -1.70335934e-01 +6.31885231e-02 -2.49884911e-02 -1.33745864e-01 -1.84449047e-01 +1.71321169e-01 +4.95192548e-03 +1.25802219e-01 +1.56360283e-01 +2.34301791e-01 -4.68903221e-02 +4.86406162e-02 -1.44226894e-01 -4.63432865e-03 +5.27469069e-02 -5.70136309e-03 +2.87622899e-01 -6.83928654e-02 +2.56790042e-01 +3.63715738e-02 -1.80159777e-01 +1.73881173e-01 +2.88619041e-01 -9.71569121e-02 -9.51574445e-02 -2.61250257e-01 -1.55125454e-01 -8.20086300e-02 +3.70630413e-01 +2.13023752e-01 -8.13719910e-03 +7.99805596e-02 +1.11816727e-01 -4.79343161e-02 -1.88019007e-01 -2.45474149e-02 -1.41023383e-01 +2.06285819e-01 -3.09535656e-02 +7.71437585e-02 +3.15159075e-02 +4.43992263e-04 -2.79303104e-01 +1.26359342e-02 +1.82658760e-03 -1.42374620e-01 -3.14566970e-01 -3.26880068e-02 +2.93186218e-01 +8.58610868e-02 -4.96249981e-02 -1.09551892e-01 -1.63824067e-01 -8.25250074e-02 +3.00175473e-02 +2.82579986e-03 +1.14046581e-01 +2.33817428e-01 -2.96902716e-01 -6.10217005e-02 -2.17000902e-01 +7.06179887e-02 -6.30875155e-02 +1.18050538e-01 +1.00159027e-01 +5.19259460e-02 +3.49574313e-02 -6.03868514e-02 -1.06494196e-01 +1.40755445e-01 +2.98043758e-01 +3.44351791e-02 +1.10253736e-01 +2.10940093e-01 +1.80042163e-01 +5.02093695e-03 -1.37419283e-01 -2.85028592e-02 -6.28243238e-02 +1.48541178e-03 +2.23219350e-01 +1.77132681e-01 +2.56390214e-01 +7.82913491e-02 -6.60087392e-02 +1.51783615e-01 +1.82738110e-01 +6.38472363e-02 -5.93223516e-03 -1.56584010e-02 -1.18376106e-01 +1.20725118e-01 +2.12274745e-01 -1.66595466e-02 -7.07803592e-02 +1.36174813e-01 +3.22470032e-02 +1.62227929e-01 -1.08354665e-01 +1.56629588e-02 +3.44240814e-02 +2.72683740e-01 -1.62277237e-01 -9.12601827e-04 +1.40213594e-01 -1.33288711e-01 +6.20944537e-02 +1.03901826e-01 -5.59740476e-02 +1.32819965e-01 -3.62169415e-01 +3.80645096e-02 +2.33891606e-01 -1.10832542e-01 +9.95522514e-02 -2.49032360e-02 -6.10946640e-02 -1.81435347e-01 +1.15131140e-01 +8.00792128e-02 +3.02419104e-02 +2.12337509e-01 -2.45246261e-01 -1.77598149e-01 -1.50837675e-01 -2.08355874e-01 +1.00904843e-02 +1.16885332e-02 +1.31354213e-01 -8.44873711e-02 -9.54818204e-02 -3.39886993e-01 +1.10700108e-01 +1.28385782e-01 +2.16459394e-01 +8.90912861e-02 +3.64737138e-02 -2.12624446e-01 -5.82364313e-02 -1.16381042e-01 +6.73162565e-02 +2.07185164e-01 -1.01147577e-01 +8.44077468e-02 -1.03702769e-01 -7.81575292e-02 -5.95891364e-02 -1.86372593e-01 -2.77614519e-02 +1.54930323e-01 -1.18324034e-01 +2.50562467e-02 -3.51450853e-02 +2.81146556e-01 +1.43411115e-01 +4.35024910e-02 +7.36413300e-02 +2.15627477e-01 +2.02825785e-01 -1.83589935e-01 -1.57968163e-01 -1.07667506e-01 +3.32999617e-01 -2.96694994e-01 +9.16286334e-02 +2.71604151e-01 +3.36211115e-01 +1.31014839e-01 +1.51312679e-01 -1.17299788e-01 +2.49431357e-01 -2.22391129e-01 +1.44839704e-01 +1.08178481e-01 +1.65741578e-01 -8.01439583e-02 +1.29996240e-01 +9.68380123e-02 +4.73608114e-02 -6.70707971e-02 -8.61711875e-02 -2.15234794e-02 -4.63347323e-03 +1.29516006e-01 +5.35807014e-02 -2.88838834e-01 -7.12947622e-02 +6.18935861e-02 +9.93149057e-02 +2.42865518e-01 +5.86409867e-02 -2.61098389e-02 +2.29532495e-01 +2.22043544e-01 -1.32826995e-03 +2.65624136e-01 +1.22744747e-01 -5.77794276e-02 -1.93907902e-01 +3.14445615e-01 -1.56449273e-01 +3.62857692e-02 +2.48463482e-01 +1.03707768e-01 +3.26720238e-01 +1.93847120e-01 +2.55587935e-01 +2.54863977e-01 +1.69647299e-02 +1.24428250e-01 +1.25629203e-02 +9.72108021e-02 +3.23376358e-01 -2.70483010e-02 +3.65359604e-01 +3.12889129e-01 +1.89798683e-01 +1.67811021e-01 +7.38247037e-02 +4.22793418e-01 +5.44797368e-02 +4.10495549e-02 -5.58881387e-02 +1.30542248e-01 -4.96111587e-02 +5.77977533e-03 +8.56228545e-02 +1.17870577e-01 +1.42578572e-01 -2.22998671e-02 +2.54929334e-01 +1.54912472e-01 -1.19468652e-01 +1.18077159e-01 +2.55311042e-01 +3.65904048e-02 +3.69413495e-01 +3.28518182e-01 +2.12535352e-01 +1.91153541e-01 +5.51385842e-02 +6.41595423e-02 +1.73175097e-01 +1.41941696e-01 +2.08324224e-01 +8.85095149e-02 -1.36808366e-01 +7.61664584e-02 -2.19507925e-02 +9.89353005e-03 +1.96946725e-01 +2.26777792e-01 +1.70012251e-01 +2.89811790e-02 -2.20712006e-01 -1.35999816e-02 -3.31047997e-02 -2.83968657e-01 -7.33497217e-02 +2.58647650e-01 +1.11448638e-01 -2.04034865e-01 -1.21128388e-01 -2.11307239e-02 -2.97739506e-01 -1.34696111e-01 -2.37178206e-01 -9.71646458e-02 -2.82888450e-02 -2.47377694e-01 -1.88676760e-01 +7.18806311e-02 -1.47348046e-01 -2.25751270e-02 -2.82118935e-02 -1.18553154e-01 +6.65687621e-02 -1.35777712e-01 -2.46130452e-01 +1.20981388e-01 +7.17168823e-02 -7.99302980e-02 +1.04865372e-01 +2.16011316e-01 +7.87444115e-02 +2.06474587e-02 -3.39918315e-01 -2.54276156e-01 -1.69316411e-01 -2.10344300e-01 -5.93845500e-03 +1.66041851e-01 +2.61279613e-01 -3.76953483e-01 -3.82296592e-02 -3.46947461e-02 -2.92110205e-01 -4.05891500e-02 +1.94309372e-02 -1.54924467e-01 -1.06065877e-01 -2.42209300e-01 -1.13626748e-01 +9.40399896e-03 -5.58203869e-02 -2.90256411e-01 +9.08206180e-02 -4.96961698e-02 +8.88866489e-05 +2.47552581e-02 -1.76748559e-01 -4.77189049e-02 -2.08584577e-01 -3.93418334e-02 +4.47174497e-02 +9.11488198e-03 -5.65747134e-02 +8.42711926e-02 -1.36881500e-01 -3.81723382e-02 +3.23411152e-02 -1.06340334e-01 -2.63975888e-01 -1.29645273e-01 +2.46678010e-01 -1.93632007e-01 -1.15593173e-01 -7.31422007e-02 -5.87652735e-02 -2.13734344e-01 -2.65024126e-01 -5.73328882e-02 -3.26608233e-02 -1.25465840e-01 -6.13324232e-02 +1.17036097e-01 +8.84904638e-02 -2.37346180e-02 +9.13342983e-02 -1.36608750e-01 +2.66415268e-01 -1.18595026e-01 -2.71573395e-01 +2.29414389e-01 +1.87429443e-01 -1.74823418e-01 +3.01473945e-01 +1.92765728e-01 -1.20763391e-01 +6.94668218e-02 -1.20455600e-01 -1.65946171e-01 -2.29862943e-01 -1.40865326e-01 +9.76658165e-02 +9.07559693e-03 +3.31723541e-01 -3.44013155e-01 +6.20471723e-02 +3.97087894e-02 -1.73855901e-01 -2.32220441e-01 -6.89374730e-02 -2.24096507e-01 -2.44591668e-01 -2.19124869e-01 +1.01509511e-01 +1.68071911e-01 -1.63972765e-01 -8.55418593e-02 +1.00597776e-01 -6.09547235e-02 -8.58857408e-02 +1.26537919e-01 -1.95530981e-01 +2.04540804e-01 -1.24532066e-01 -9.04780328e-02 -7.85773396e-02 +6.20607287e-02 +1.30310014e-01 -1.64177969e-01 -2.04871129e-03 -7.67165124e-02 -1.56150516e-02 +2.96583652e-01 -2.65508264e-01 -4.57937151e-01 +1.98652267e-01 -1.64816193e-02 -3.19997668e-01 +1.78943768e-01 +1.85134187e-01 +1.29925862e-01 +1.08520068e-01 -4.89813946e-02 -1.70766965e-01 +2.40403041e-01 +7.26170242e-02 +2.11872518e-01 -3.68677646e-01 +1.60078049e-01 +6.41915947e-02 -1.65966913e-01 +9.65922847e-02 -6.29869178e-02 -8.75664577e-02 +2.27915779e-01 +1.15837865e-01 +9.53254700e-02 -7.34317154e-02 +7.93375000e-02 +2.78647691e-01 +1.87538996e-01 +4.21384960e-01 -4.23171418e-03 +1.54018968e-01 -1.25709131e-01 -3.91674280e-01 -1.97123483e-01 -1.27282634e-01 +2.05374613e-01 -2.76538730e-01 -1.86633825e-01 +3.33809629e-02 +3.81055661e-02 +1.09673641e-03 -2.44086199e-02 -1.82117932e-02 +2.19399214e-01 -2.78018355e-01 +1.14549518e-01 -1.15842521e-01 +2.41747305e-01 +2.20020652e-01 +1.39929876e-01 -1.09885924e-01 +5.42515935e-03 +2.04885975e-01 -1.82657778e-01 -8.99489298e-02 +8.49199854e-03 -3.51903647e-01 -1.43912256e-01 -1.87387124e-01 -5.56227677e-02 +5.53376153e-02 +9.66113582e-02 -4.22112904e-02 -5.41118868e-02 -7.99847245e-02 -2.74941087e-01 +1.15659371e-01 -1.13998115e-01 -1.26076251e-01 -5.21577857e-02 -1.43676355e-01 +1.31084442e-01 -1.32692978e-01 +8.72798846e-04 -2.40794271e-01 -4.82401997e-02 -1.00341097e-01 +1.06564179e-01 -2.10187230e-02 -2.39749923e-01 -7.91577175e-02 -2.89214075e-01 -2.41727531e-01 +1.60763681e-01 -3.48957121e-01 +5.46851009e-02 +3.04888148e-04 +1.67614818e-02 +4.94608544e-02 -4.59181657e-03 -1.22954041e-01 -5.22755422e-02 -2.72651553e-01 -6.21035993e-02 +3.61167043e-02 -9.70331803e-02 -8.57305601e-02 -8.58346373e-02 -2.29681619e-02 -2.44240299e-01 -6.76663741e-02 +6.80129677e-02 -1.41634539e-01 -4.64564025e-01 -2.16141835e-01 -2.73857862e-01 -4.59394574e-01 -1.52724698e-01 -6.21415600e-02 -5.21519184e-02 -1.11057602e-01 -2.82064259e-01 -2.37637922e-01 +2.08759215e-03 -1.36950577e-03 -1.30200252e-01 -7.14400038e-02 -1.15344100e-01 +1.04383767e-01 -2.41149023e-01 -1.73725598e-02 +6.44406825e-02 -6.82771429e-02 +3.79639685e-01 +3.96387190e-01 +1.57918096e-01 +2.67375052e-01 +2.08586022e-01 +3.12065095e-01 +2.79019415e-01 +3.33492160e-01 +3.92817199e-01 +2.86527604e-01 +1.17807813e-01 +1.81032449e-01 +2.26266146e-01 +3.83180022e-01 +3.31628770e-01 +7.11347535e-02 +3.93234819e-01 +3.12417537e-01 +2.65192747e-01 +1.87380746e-01 +3.80336195e-01 +1.26545280e-01 +4.12972808e-01 +2.29710117e-01 +3.15136939e-01 +2.74400264e-01 +2.35291719e-01 +3.68654907e-01 +4.28964853e-01 +3.61164123e-01 +4.17938828e-01 +4.60790128e-01 +2.78273255e-01 -3.50978039e-02 +3.03663820e-01 +3.48246574e-01 +1.13846146e-01 +1.81303278e-01 +3.36495697e-01 +2.89025098e-01 +1.55783951e-01 +2.31833920e-01 +3.60506386e-01 +2.24088728e-01 +3.35078776e-01 +2.02137262e-01 +3.13477933e-01 +1.81001529e-01 +5.47512472e-01 +3.67023766e-01 +2.29732618e-01 +1.80705264e-01 +2.58488804e-01 +2.69650280e-01 +3.83784801e-01 +1.02104947e-01 +2.75709987e-01 +3.35915178e-01 +1.92548484e-01 +5.62898934e-01 +2.68678606e-01 +5.76131046e-01 +5.26920140e-01 +1.62408352e-01 +3.39589685e-01 +2.25704089e-01 +2.30395898e-01 +3.57058018e-01 +1.38614818e-01 +2.29176357e-01 +1.81228712e-01 +2.75277585e-01 +2.77794182e-01 +2.06840515e-01 +2.64108211e-01 +2.84884304e-01 +3.66916150e-01 +2.22526848e-01 +3.85814697e-01 +1.02609172e-01 +1.94560871e-01 +2.35839859e-01 +3.09623361e-01 +2.13451758e-01 +2.14110389e-02 +3.21041167e-01 +2.41627380e-01 +1.19434915e-01 +3.50210041e-01 +3.02559853e-01 +3.27648997e-01 +2.26033777e-01 +5.45934498e-01 +1.91382140e-01 +2.44196430e-01 +3.77169102e-01 +1.97937697e-01 +2.24709168e-01 +2.59544253e-01 +1.23407073e-01 +2.92362273e-01 +1.94372535e-01 +3.01006049e-01 +1.71711907e-01 -1.26790211e-01 +3.84021461e-01 +1.57322198e-01 +2.72461444e-01 +2.09811896e-01 +3.11014801e-01 +1.72402576e-01 +8.36709738e-02 +3.02594036e-01 +2.45371267e-01 +1.94591925e-01 +1.64561093e-01 +1.87553689e-01 +2.85906315e-01 +2.97331035e-01 +2.18172356e-01 +1.35087103e-01 +4.37974542e-01 +1.65191352e-01 +3.40241522e-01 +2.25780785e-01 +2.17496946e-01 +3.07217777e-01 +1.97315529e-01 +2.25958213e-01 -1.07613392e-01 +7.59331658e-02 -5.34240268e-02 -1.53913364e-01 +1.49181560e-01 -1.79319475e-02 -1.06438622e-01 -2.99273641e-03 -8.57509673e-02 +2.45015342e-02 -3.77961732e-02 +1.44216657e-01 -6.14089426e-03 -6.43618703e-02 -5.42717040e-01 +6.09975643e-02 +5.51022738e-02 -3.94449681e-02 -9.69038811e-03 -9.36628506e-02 +1.05299868e-01 -2.12545499e-01 +1.46352634e-01 +6.51272684e-02 -1.28623948e-01 +2.44988233e-01 +1.53809607e-01 +1.49727464e-01 +5.05795442e-02 +9.60161835e-02 -1.15258113e-01 +4.55315299e-02 +1.66804522e-01 +2.32528280e-02 -8.76382142e-02 -3.17805916e-01 +1.27162725e-01 +1.76136449e-01 -6.59595728e-02 -7.22234463e-03 -3.12805414e-01 +9.07975584e-02 -3.60089809e-01 +9.82825011e-02 -2.14911569e-02 -8.80390257e-02 -1.95370335e-03 +1.74905017e-01 +2.17731344e-03 +6.79805055e-02 +1.05747968e-01 +2.49522012e-02 +2.26510033e-01 +2.46812508e-01 +1.84881821e-01 -2.92029560e-01 -1.20814957e-01 -3.52097489e-02 -9.77665037e-02 -1.50673270e-01 -1.35526568e-01 -1.27012685e-01 -8.95999521e-02 -1.31978825e-01 -2.18486719e-04 +4.95478809e-02 +1.05081916e-01 -4.70652431e-02 -1.20308138e-01 +8.51956978e-02 -3.00929070e-01 +4.62670214e-02 +7.62577951e-02 -3.65839601e-02 +4.88510802e-02 +1.20323047e-01 -7.15886056e-02 -1.58303052e-01 -1.81154385e-01 -5.22189140e-02 -3.48442435e-01 -6.82216287e-02 -1.02863558e-01 -6.70733824e-02 +1.96919963e-01 -1.03073694e-01 -1.51677012e-01 +9.14688557e-02 +7.28690401e-02 -1.47565082e-01 -1.25352800e-01 +9.08784717e-02 +3.64841633e-02 -7.24243447e-02 +9.91644338e-02 +2.70585157e-02 -1.04440659e-01 -1.27202466e-01 +2.23094001e-02 -6.43770956e-03 -3.92516293e-02 -1.87768057e-01 +3.39032859e-02 +3.81732509e-02 -2.26900145e-01 -2.77745374e-03 +8.37174430e-02 +1.03859301e-03 -7.35575706e-02 +1.01561405e-01 +2.02622145e-01 -8.32268447e-02 -1.34561524e-01 +5.28814718e-02 -9.90316197e-02 -5.55159077e-02 -3.41568552e-02 -1.11357294e-01 +3.99658680e-02 -4.23309542e-02 +1.91358030e-02 +3.70681733e-02 +4.95946184e-02 -7.57066533e-02 -9.93341357e-02 +3.88840847e-02 +4.01004292e-02 +4.68675941e-02 +9.07712504e-02 -3.96557599e-02 +2.25764722e-01 +2.54147887e-01 +8.99622962e-02 +3.15143615e-01 +9.12101474e-03 +5.61900377e-01 +2.05019280e-01 +2.93048203e-01 -1.96498968e-02 +1.07800543e-01 +5.91772258e-01 +2.82786131e-01 +8.44705552e-02 +1.36400089e-01 +1.41942710e-01 +1.27522200e-01 +2.05180898e-01 +5.53928278e-02 +2.69785106e-01 +3.50904793e-01 +1.58832207e-01 +2.59356022e-01 +3.41990739e-01 +7.47301131e-02 -2.35541686e-02 +1.60737693e-01 -2.20477069e-03 +2.34864503e-01 +3.36097986e-01 +3.14096689e-01 +3.05765569e-01 +2.56577998e-01 +3.40475678e-01 +4.61963028e-01 +6.76782653e-02 +5.55239655e-02 -8.26330259e-02 +3.97382453e-02 +3.65498722e-01 +1.59209464e-02 +2.46836290e-01 +3.89877737e-01 +1.52497441e-01 +3.47992815e-02 +3.96733969e-01 +9.19281989e-02 +1.59222275e-01 +1.63089484e-01 +1.29237562e-01 +1.07312903e-01 +5.04370891e-02 -4.14577052e-02 -3.46991643e-02 -6.63858950e-02 +3.44219893e-01 +3.13241243e-01 -6.95674568e-02 +1.56047434e-01 +8.68296847e-02 +4.65893671e-02 +9.35268849e-02 +1.40302718e-01 +2.56802857e-01 +1.63409382e-01 +2.47555107e-01 +4.39647958e-02 +2.74912119e-01 +1.44641027e-01 -6.44801036e-02 +2.34903082e-01 +2.60720551e-01 +1.35846972e-01 +1.99472085e-01 +2.50617921e-01 +3.75860065e-01 +1.76024005e-01 +2.24739671e-01 +2.09828854e-01 +7.89993331e-02 +1.46651581e-01 +2.18696073e-01 +1.30885363e-01 +3.04706901e-01 +4.15752269e-02 -1.17183074e-01 +3.59294355e-01 +3.18786323e-01 +2.53268570e-01 +1.22913890e-01 +3.30851406e-01 +2.08845749e-01 +4.82776463e-02 +1.46634817e-01 +2.03682154e-01 +1.87035188e-01 +2.78804898e-01 +2.97029853e-01 +1.74109042e-01 +1.02561757e-01 -6.78743944e-02 -5.60003184e-02 +1.76824376e-01 +1.33223817e-01 +3.13706636e-01 +4.24673796e-01 +1.47532284e-01 +3.83047491e-01 +2.98084140e-01 +3.46936256e-01 +2.27878079e-01 +2.39910722e-01 +2.76569929e-02 -5.20866476e-02 +1.80184662e-01 +1.03855014e-01 +2.51639515e-01 +5.21705532e-03 +2.19643816e-01 +2.49613523e-01 +1.50749162e-01 +8.30560997e-02 +6.59030154e-02 +3.49782258e-01 +2.41892055e-01 -6.82819858e-02 -1.86319038e-01 +3.90131295e-01 +2.47112527e-01 -2.33572423e-01 -1.82818025e-01 +4.60103573e-03 -7.10733905e-02 -5.28935194e-02 -1.87424198e-01 -4.09850515e-02 -1.22002319e-01 -2.56866604e-01 -6.98668137e-03 +3.78848426e-02 -6.60523474e-02 +8.19798931e-03 -4.76506144e-01 +1.54257566e-01 -6.16577081e-02 +1.97496489e-01 -1.59109488e-01 +3.56798880e-02 -9.43194553e-02 +1.14340477e-01 +3.28555214e-03 -1.67864248e-01 -1.85497865e-01 -1.70766622e-01 -1.41093386e-02 +1.99607164e-01 +3.00345663e-02 +1.56465024e-01 -2.13732779e-01 -3.65277886e-01 -1.11472644e-01 +9.53130275e-02 +1.14114881e-01 +3.29925358e-01 -2.89972126e-01 +2.32802570e-01 +1.77979857e-01 -1.44682735e-01 +1.11667931e-01 +2.06958875e-01 +3.38975452e-02 +2.63832092e-01 -4.79017422e-02 -2.23378465e-01 +1.18082881e-01 +2.81558130e-02 -8.97171274e-02 +7.29625896e-02 -8.82475227e-02 +1.20535344e-01 -1.31097063e-01 -2.96721887e-02 +1.97733983e-01 +5.92574030e-02 -1.88492388e-01 +3.65422666e-02 -2.57121623e-01 +1.12172469e-01 +2.21408438e-02 -4.49829362e-02 +3.00340027e-01 +1.13797218e-01 +2.16740727e-01 +2.51028925e-01 +6.19754009e-02 -7.84151927e-02 +8.71593505e-02 -4.45486940e-02 -5.57624102e-02 +9.15341303e-02 +4.80442047e-02 +1.94867998e-02 +1.02680095e-01 +6.30327538e-02 +9.06401947e-02 +8.70652720e-02 +1.17743805e-01 +4.07720655e-02 +1.82351783e-01 +6.44873157e-02 +1.36675581e-01 +1.15244605e-01 +1.05250806e-01 +3.43711339e-02 -6.08516783e-02 -1.19747795e-01 +1.27791138e-02 +3.01585309e-02 +2.13857681e-01 +2.58885264e-01 +1.52004644e-01 +5.93741871e-02 +5.08712139e-03 +1.90769479e-01 +2.22414732e-03 +9.34691653e-02 +1.32780463e-01 +1.34337634e-01 +6.94400817e-02 +6.86621740e-02 +4.76165712e-02 +1.38699576e-01 +8.26698691e-02 +1.82204321e-01 +2.80334055e-01 +1.27698898e-01 +1.68621689e-01 +1.81271076e-01 +2.48653531e-01 -1.36457114e-02 +2.62178272e-01 +1.28913775e-01 +1.60978392e-01 +6.22400409e-03 -5.19908071e-02 -9.58592892e-02 -4.48794216e-02 +5.73750101e-02 +1.02702066e-01 +1.28425136e-01 +1.27966613e-01 +9.27949920e-02 +2.79408246e-01 +4.20708470e-02 +5.07649630e-02 -7.42584616e-02 +1.43993562e-02 -1.62465528e-01 -2.78811783e-01 -6.32009581e-02 -9.92951691e-02 -2.35869408e-01 +8.06961805e-02 -1.67186797e-01 -3.00362408e-01 -7.54845217e-02 -3.32992896e-02 -3.09467856e-02 -3.63986157e-02 -1.70271434e-02 -2.41054937e-01 -2.37719923e-01 -6.28032610e-02 +2.79155821e-02 -1.77948982e-01 +3.72149609e-02 -5.93767129e-02 +7.13578239e-03 -2.80705065e-01 -3.26952279e-01 -1.53410107e-01 -1.58748791e-01 +2.12268941e-02 +2.73675714e-02 +1.06610954e-01 -1.28013834e-01 -1.69631958e-01 -1.18271992e-01 -2.88871706e-01 -8.36743489e-02 +1.00255720e-01 -1.86346263e-01 -2.76018605e-02 -5.22174910e-02 -2.85466671e-01 +2.18312889e-02 -1.85991436e-01 -2.06732601e-01 -3.56606990e-01 -6.30234485e-04 +1.25234053e-01 -3.64406779e-02 -2.43231758e-01 -7.84730762e-02 -1.36704788e-01 -2.00253323e-01 +7.44482875e-02 -2.50509918e-01 -4.26326185e-01 -5.06292912e-04 -1.11714117e-01 -2.58317649e-01 +4.48463149e-02 -1.36838689e-01 -6.90810382e-02 -3.18286061e-01 -4.30657268e-02 -9.30858850e-02 -1.32284999e-01 -3.19821239e-01 -4.48592193e-02 -3.08084954e-02 -2.66847432e-01 -9.44685712e-02 -8.01016986e-02 -1.10756040e-01 -8.11304450e-02 +3.85793522e-02 -1.77261531e-01 -1.54835254e-01 -1.31828994e-01 -9.85398889e-02 -2.29901940e-01 -1.27449036e-01 -1.38840213e-01 -2.02571049e-01 -2.25729160e-02 -3.65736842e-01 -8.01719651e-02 -2.50596970e-01 +1.07987933e-02 -2.06770878e-02 -2.87023395e-01 -2.18757480e-01 -7.63256550e-02 -5.57429669e-03 -6.96042776e-02 -7.51896179e-04 -1.10705256e-01 -1.02145180e-01 -2.74400592e-01 -3.59891392e-02 -1.52226865e-01 -6.79237619e-02 -4.14901040e-02 -8.14427286e-02 -8.40594471e-02 -1.00771878e-02 -1.77738182e-02 -1.40236914e-01 -9.01739895e-02 +8.40473697e-02 -2.92090118e-01 -2.09920123e-01 -3.13490890e-02 -1.84981897e-01 -2.50069886e-01 -9.18930024e-02 -1.13594525e-01 -7.48121440e-02 -9.70529299e-03 -1.17510557e-01 -2.39379212e-01 -8.59427452e-02 -1.64335817e-01 -1.07294276e-01 +1.75662767e-02 -1.01735093e-01 -1.92777634e-01 -2.25843787e-01 -1.53352432e-02 -1.74304645e-04 +1.61260083e-01 +2.46280313e-01 -6.36918694e-02 -1.27462342e-01 +2.78588414e-01 -2.60449171e-01 -1.89297870e-02 -3.08909342e-02 +2.08126344e-02 -1.68407083e-01 -7.00919554e-02 -1.48413047e-01 +4.16449755e-02 +1.56006932e-01 -1.28388226e-01 +1.24777406e-01 -3.92169952e-01 +1.42452762e-01 +1.12680897e-01 +2.49002784e-01 +2.30255976e-01 -1.29899919e-01 +4.85705510e-02 -1.09652095e-01 +9.18282419e-02 +1.27481669e-01 -1.80618271e-01 -1.93512887e-01 -2.02393293e-01 -1.57270789e-01 +1.07614703e-01 -1.29924104e-01 +3.62515181e-01 +9.61392447e-02 -2.56776422e-01 +2.68502891e-01 +3.11240464e-01 +1.00352593e-01 +1.35900810e-01 -7.88985752e-03 +4.17766690e-01 +6.44353358e-03 +1.88112155e-01 -1.74398556e-01 -2.12547943e-01 +2.77129948e-01 -1.59982726e-01 +1.24222413e-02 +1.19562149e-01 +1.85539782e-01 +2.61832952e-01 -6.40550209e-03 -1.42816380e-01 -2.23674059e-01 -3.07000905e-01 +3.11499741e-02 +9.90835354e-02 +2.47506201e-02 -6.96212873e-02 +2.17523295e-02 +3.08373481e-01 +1.22069560e-01 -6.83097765e-02 +1.47497907e-01 +2.29067907e-01 +3.75253446e-02 -1.15317270e-01 +2.38933668e-01 +1.37677953e-01 -1.10500455e-01 +5.35563603e-02 +1.57077774e-01 -3.14910747e-02 -4.61589433e-02 +1.56575426e-01 -2.93253865e-02 -6.30873488e-04 +2.47165024e-01 +1.76083654e-01 +1.46915406e-01 +1.70765057e-01 +1.88972101e-01 +1.70209274e-01 +7.23250434e-02 +2.91327620e-03 +1.22995682e-01 +1.66754723e-01 +1.90864742e-01 +1.04919381e-01 +1.62097409e-01 +2.80599177e-01 +8.45212564e-02 +1.18704237e-01 +1.69404626e-01 +4.49659258e-01 +1.95004776e-01 +1.36908755e-01 +2.82364171e-02 +2.62796134e-01 +1.04367524e-01 +1.70152709e-01 +1.57318175e-01 +2.39185065e-01 +2.22180024e-01 +2.20650691e-05 +2.81197548e-01 +1.98153630e-01 -2.94114109e-02 -8.45115110e-02 +4.51486558e-04 +8.34590346e-02 +2.42900476e-01 +1.78903252e-01 +2.91780420e-02 +2.05920830e-01 +1.44325912e-01 -6.08649757e-03 +1.82999149e-01 +1.73991442e-01 +2.94519891e-03 -8.34822729e-02 +2.67515868e-01 +8.67306143e-02 +2.27966905e-01 +2.44179770e-01 +1.48052089e-02 -1.90987289e-02 -1.39908642e-01 -3.30161273e-01 -2.17632890e-01 -3.11185539e-01 -2.26208732e-01 -9.34831649e-02 -1.52653217e-01 -5.11815488e-01 -4.06880438e-01 -1.40590757e-01 -2.97364980e-01 -1.24581970e-01 -1.67235717e-01 -1.48689136e-01 -1.58133164e-01 -1.01444639e-01 -1.11196347e-01 -2.39336744e-01 -2.27404013e-01 -1.78408608e-01 -2.27862790e-01 -5.00334799e-02 -1.64129347e-01 -3.30501258e-01 -1.77714899e-01 -3.18505883e-01 -4.73408073e-01 -1.90918833e-01 -2.08709314e-01 -1.71879232e-01 -9.55075026e-02 -3.53085726e-01 -2.37887070e-01 -2.63681293e-01 -3.31707776e-01 -1.20367087e-01 -1.44210085e-01 -2.80301571e-01 +4.33878899e-02 -2.63608664e-01 -1.74713701e-01 -2.90364474e-01 -2.98782319e-01 -1.06182843e-01 -3.20061564e-01 -2.85675377e-01 -3.35709929e-01 -2.42252618e-01 -3.43079656e-01 -1.75856918e-01 -5.16962111e-01 -1.81731299e-01 -1.02251984e-01 -1.58972472e-01 -7.05477521e-02 -1.85390815e-01 -1.22593321e-01 -2.42564276e-01 -1.91189691e-01 -4.08097774e-01 -2.96636939e-01 -3.64154279e-01 -3.79116446e-01 -3.49127620e-01 -2.28413954e-01 -1.60087645e-01 -2.21237391e-01 -5.10792375e-01 -7.41017386e-02 -3.30374628e-01 -2.11088389e-01 -2.47334272e-01 -7.89885074e-02 -1.50378034e-01 -1.63646489e-01 -2.03042015e-01 -3.36233020e-01 -1.31679967e-01 -3.51654500e-01 -2.60671258e-01 -2.10490316e-01 -2.87041098e-01 -1.26927182e-01 +2.32625287e-03 -5.31173125e-02 -8.97667632e-02 -4.71972637e-02 -1.57951981e-01 -1.03985935e-01 -3.29794377e-01 -3.81888360e-01 -1.10091530e-01 -2.55533338e-01 -3.09737086e-01 +4.41547222e-02 -2.20086187e-01 -1.30127519e-01 -1.81223840e-01 -1.77055284e-01 -2.48976320e-01 -1.69683367e-01 -3.47538620e-01 +8.62563774e-02 -4.21848074e-02 -1.71984404e-01 -3.41296583e-01 -4.78958368e-01 -2.03395680e-01 -4.07606155e-01 -3.71974736e-01 -2.08144560e-01 -3.00992519e-01 -3.06309938e-01 -2.84791887e-01 -1.29084200e-01 -1.17815897e-01 -2.05090359e-01 -4.04790074e-01 -1.99315965e-01 -3.12554300e-01 -2.17294797e-01 -1.23761520e-01 -2.46936008e-01 -2.94329107e-01 -1.62015438e-01 -3.10488582e-01 -4.09249991e-01 -6.81777447e-02 -2.79796481e-01 +3.65306288e-02 +2.03045413e-01 -5.86687401e-03 -5.90633228e-02 +2.69627333e-01 -1.69879440e-02 +2.18823347e-02 +4.64701578e-02 -8.78831297e-02 +2.15958823e-02 +1.54386207e-01 +2.12589055e-01 +7.57956551e-03 -1.48871705e-01 -6.46130219e-02 -1.60283089e-01 +2.91014105e-01 -1.09457396e-01 +1.99448779e-01 -3.90847325e-01 -1.53724821e-02 +5.57630956e-02 -7.48620369e-04 -2.82087829e-02 +1.39625758e-01 -1.26206920e-01 +1.07067764e-01 +3.09153140e-01 -1.95939109e-01 -1.89483669e-02 +3.53253819e-02 +1.72952905e-01 +3.85193899e-03 +1.20765477e-01 +5.85102774e-02 +3.51993814e-02 -2.45923293e-03 -2.12475389e-01 +1.56646043e-01 +2.04268331e-03 -1.51894540e-01 +3.89398396e-01 +5.51280640e-02 -1.67029500e-01 +1.20090216e-01 +2.40331233e-01 -4.64550331e-02 +9.59479287e-02 -2.91262686e-01 +1.04128778e-01 +7.24673048e-02 -1.22171678e-01 -1.34644300e-01 +2.11527601e-01 -6.48585707e-02 -9.31183398e-02 -1.32947117e-01 +9.71385911e-02 +1.59433603e-01 +4.44885492e-01 +2.27306858e-01 +1.30416647e-01 +1.09975152e-01 +1.42164558e-01 +3.11642528e-01 +1.06664419e-01 +1.67880267e-01 +2.63386905e-01 +1.99221238e-01 +2.63218969e-01 +1.15703873e-01 +2.21695691e-01 +1.07926369e-01 +5.60303807e-01 +3.73917341e-01 +9.03776810e-02 +4.86565351e-01 +3.60684454e-01 +4.15769190e-01 +4.01320666e-01 +7.02984110e-02 +7.57199079e-02 +2.40022555e-01 +2.59355634e-01 +3.63123417e-01 +1.00490563e-01 +1.44861594e-01 +9.07044634e-02 +3.34516704e-01 +2.44392499e-01 +2.71845698e-01 +3.78707647e-01 +2.10653171e-01 +1.76132061e-02 +2.95103431e-01 +2.76238233e-01 +2.27314159e-01 +9.36383009e-02 +3.05584699e-01 +2.14039609e-01 +2.26859555e-01 +2.16825724e-01 +5.95424436e-02 +1.58966288e-01 +3.53363007e-01 -4.03852784e-04 +2.26585776e-01 +3.68750185e-01 +4.47890252e-01 +7.43883997e-02 +1.23526692e-01 +2.42020532e-01 +1.82781816e-01 +2.40990873e-02 +2.67602891e-01 +2.02788919e-01 +2.88580209e-01 +3.26275736e-01 +1.73400283e-01 +2.31327504e-01 +2.25192383e-01 +3.36441517e-01 +2.87751248e-03 +1.03493817e-01 +2.54589587e-01 +1.71205610e-01 +3.98711190e-02 +1.20628096e-01 -2.77689040e-01 -7.63259828e-02 -3.25866759e-01 -2.57670701e-01 -6.45144135e-02 -1.22607209e-01 -3.65947813e-01 -3.08164239e-01 -1.45809293e-01 -2.18403250e-01 -3.30113858e-01 -3.54106486e-01 -3.69134784e-01 -4.67197388e-01 -2.43510827e-01 -5.22996724e-01 -3.14225823e-01 -9.76708531e-03 -2.48070538e-01 -2.03647092e-01 -2.56656826e-01 -6.75455853e-02 -2.60990500e-01 -2.69092202e-01 -6.53602332e-02 -2.73383349e-01 -2.52585560e-01 -1.70054868e-01 -3.11770111e-01 -2.16783658e-01 -2.77848691e-01 -1.00584708e-01 -4.53154147e-01 -1.06568992e-01 -9.83252600e-02 -3.26490611e-01 -5.28588712e-01 -2.29108378e-01 -1.35995612e-01 -3.69067878e-01 -6.23583458e-02 -3.55239749e-01 -2.53288954e-01 -2.99509883e-01 -1.91576719e-01 -3.04659009e-01 -9.27221701e-02 -8.96519423e-02 -2.13792488e-01 -3.24916422e-01 -2.56633013e-01 -2.06967130e-01 -2.65731364e-01 +5.11283278e-02 -7.00369179e-02 -1.53104439e-01 -2.90535003e-01 -1.30196467e-01 -4.04958844e-01 -2.27988884e-01 -3.53688896e-01 -1.78360373e-01 -7.04522943e-03 -1.91416815e-01 -5.64677678e-02 -4.52874869e-01 -1.39746115e-01 -2.82116055e-01 -1.62871629e-01 -1.08454742e-01 -1.21706165e-01 +1.25575950e-02 -1.96974739e-01 -4.82677482e-02 -2.06377089e-01 -5.02570987e-01 -2.93157160e-01 -3.34396183e-01 -1.57581761e-01 -2.86709279e-01 -4.77825493e-01 +4.97780889e-02 -1.69144973e-01 -2.65151352e-01 -2.52061576e-01 -1.23023599e-01 -4.74390611e-02 -1.83362544e-01 -4.00985986e-01 -3.48810971e-01 -2.40355432e-01 -5.14405444e-02 -1.89022645e-01 -1.04681596e-01 +6.10478818e-02 -1.52932271e-01 -2.12880701e-01 -2.47372970e-01 -1.83552533e-01 -1.70667216e-01 -4.93555926e-02 -2.17460006e-01 -1.21958889e-02 -2.82382034e-03 -2.23465130e-01 -5.77863514e-01 -3.54636401e-01 -3.23071361e-01 -3.84675443e-01 -2.64162600e-01 -3.48720759e-01 -3.14894259e-01 -3.41722697e-01 +8.10669288e-02 -1.05660029e-01 -2.96703368e-01 -5.40586710e-01 -9.52786878e-02 +1.35581242e-02 -1.55851707e-01 -2.04310119e-01 -1.81040749e-01 -2.08033249e-01 -3.77943277e-01 -4.58827615e-01 -1.44505352e-01 +4.66753729e-02 +5.07614203e-03 -1.79128181e-02 -1.87941715e-02 -6.79915324e-02 -1.59814969e-01 -2.35965833e-01 +9.54154134e-02 +1.04986414e-01 -1.46038592e-01 +8.06394033e-03 +3.06334589e-02 +1.18810080e-01 -2.59302825e-01 -1.31535977e-01 -3.92827578e-02 -3.27975266e-02 -7.59110004e-02 +9.85099226e-02 +1.63317621e-01 -3.92752700e-02 +8.06210488e-02 -3.48725647e-01 -5.61201051e-02 -1.49342388e-01 -1.65354446e-01 -1.64097309e-01 -6.62683174e-02 +1.05074182e-01 +2.36985475e-01 +3.41276675e-02 +1.92611232e-01 +3.30202542e-02 -9.69697759e-02 +1.94761172e-01 +1.02325603e-01 -9.63367596e-02 -2.17638850e-01 -1.88966140e-01 -6.62065521e-02 -1.68990299e-01 +1.97969183e-01 -2.30103582e-01 -2.17604786e-01 -2.46962324e-01 -2.83766296e-02 +2.88222820e-01 +4.17625979e-02 +1.16996646e-01 +1.73180923e-01 +2.51766354e-01 +2.16548160e-01 +7.39206374e-02 +4.44357842e-02 +1.50994495e-01 +2.73051947e-01 -8.70254710e-02 +6.65242821e-02 +6.76509887e-02 +5.87252714e-03 +9.55212340e-02 -3.25568058e-02 +2.99758017e-01 -1.45252228e-01 +5.10613434e-02 +2.28289608e-02 +9.24274176e-02 +2.12627053e-01 -1.11577645e-01 +2.31682375e-01 +4.51043434e-02 -2.57117093e-01 +1.73470542e-01 +1.84497148e-01 +1.79391399e-01 -1.36404291e-01 +9.24708545e-02 +2.42780950e-02 -2.05075398e-01 -9.08268020e-02 +2.07220405e-01 +1.43558547e-01 +1.58183441e-01 +5.30024022e-02 -6.40404820e-02 +6.74353391e-02 +5.27695119e-02 +2.12894268e-02 +1.03480086e-01 -3.95016149e-02 +1.78849861e-01 -1.68411031e-01 +1.04252696e-01 +1.14694342e-01 -8.20552707e-02 -6.56360239e-02 +2.31033843e-02 +8.37441683e-02 -8.86658803e-02 -1.17393257e-02 +8.10970515e-02 +3.58160175e-02 -1.70548521e-02 -4.42233421e-02 +1.16534516e-01 +1.41986609e-01 +1.70745149e-01 -9.23919305e-02 -1.82031468e-01 +2.52748966e-01 +3.60013187e-01 +6.96977377e-02 -1.59327224e-01 -3.64253484e-02 +1.06779821e-01 +3.86277549e-02 +2.16328025e-01 +6.58254549e-02 -1.17829859e-01 -9.78578553e-02 +6.05727360e-02 +3.69201079e-02 +2.05151394e-01 -6.07609823e-02 +1.31786376e-01 -7.29764774e-02 -2.32555680e-02 -3.80149223e-02 +2.13463366e-01 +3.69786769e-01 -1.79360673e-01 -5.05679063e-02 -3.57074052e-01 -5.01297899e-02 -2.42116079e-01 -1.04164205e-01 +1.98149160e-02 +1.39367273e-02 -2.18569875e-01 -1.78734094e-01 -3.23546797e-01 -1.57699957e-01 -2.20351815e-01 -2.27836251e-01 -1.82582095e-01 -1.30409375e-01 -1.39159605e-01 -5.39084710e-02 -2.29150802e-01 -2.61462480e-01 +3.23871756e-03 -3.22130501e-01 +2.16430724e-02 +7.78211206e-02 -1.96548387e-01 +4.77811135e-02 -1.19817376e-01 -1.38134629e-01 -2.40287736e-01 -1.76231310e-01 -1.65831283e-01 -9.54496562e-02 +4.88335751e-02 -1.52940720e-01 -3.19087088e-01 -1.14274442e-01 -1.90823987e-01 -2.60560364e-01 -9.66125131e-02 +3.62514555e-02 -3.63187671e-01 -1.13309182e-01 -3.30124199e-01 -2.16761813e-01 -3.42453390e-01 -1.62064448e-01 -6.83635399e-02 -7.15582445e-02 -4.04707760e-01 -8.51861853e-03 -1.14288919e-01 -9.54142772e-03 -8.67905244e-02 -1.42764807e-01 +1.07226789e-01 -9.56460461e-02 -3.10847849e-01 -1.64926216e-01 -5.55787198e-02 -1.43630207e-01 +4.93403748e-02 -1.22787900e-01 -1.05070718e-01 +1.67097166e-01 -2.72288173e-01 -1.05201632e-01 -2.88220793e-01 -2.67728418e-01 -1.71908215e-01 -4.23373610e-01 -1.49367899e-01 -2.25913554e-01 -2.48836637e-01 -2.82902241e-01 -2.94888467e-01 -2.69482695e-02 -1.34381413e-01 -4.37114328e-01 -1.50945395e-01 -1.46885067e-01 -2.32744262e-01 -3.15123260e-01 -1.85656950e-01 -1.98727727e-01 -2.25099474e-01 -4.29609179e-01 -3.37117761e-01 -4.61626984e-02 -2.55309105e-01 -1.49690360e-01 -9.50631276e-02 -5.55227958e-02 -9.03791785e-02 -3.21232885e-01 -1.66500479e-01 -8.68961439e-02 -1.54589593e-01 -3.82264525e-01 -2.86813617e-01 -2.34170243e-01 -2.15901911e-01 -2.58032322e-01 -3.16032797e-01 -6.58068284e-02 -3.07639629e-01 -7.98132867e-02 -4.46012735e-01 -1.99041277e-01 -3.08580220e-01 -9.56554487e-02 -1.43871963e-01 -3.12278628e-01 -3.18513840e-01 -2.10506111e-01 -2.30993330e-01 -3.17818761e-01 -2.42045581e-01 -1.96602866e-01 -4.97550517e-02 -9.52669382e-02 -1.77517578e-01 -3.92328024e-01 +8.58002715e-03 -2.04179481e-01 -1.79476634e-01 -2.80760556e-01 -1.85898378e-01 -5.35658859e-02 -1.49270058e-01 +1.31824166e-01 +9.67096761e-02 -1.08492315e-01 -3.14612687e-02 -8.25391561e-02 -3.27387124e-01 -7.38954693e-02 +2.25672886e-01 -1.36365667e-01 +8.14993903e-02 +6.94709644e-03 +9.39867198e-02 -1.53281227e-01 +1.48191646e-01 -2.88174421e-01 +2.63463140e-01 -1.52421430e-01 -4.03442606e-02 +1.53327748e-01 +1.22737519e-01 +9.50301886e-02 -5.66826090e-02 -3.06128599e-02 -3.30136627e-01 +2.91094072e-02 +1.63937151e-01 -2.85405725e-01 +8.01317468e-02 +9.07179490e-02 +9.79326665e-02 +1.36143222e-01 -9.03296769e-02 +3.18171710e-01 +3.64952564e-01 -1.78086326e-01 -3.44447076e-01 +2.29664505e-01 -9.66740027e-03 +6.18987158e-02 +3.16082001e-01 -4.53323722e-01 +1.29485995e-01 -1.66733459e-01 +8.48065764e-02 +1.84138641e-01 -1.66548043e-01 +4.93727058e-01 -2.63604913e-02 -4.18187901e-02 +5.39826835e-03 +7.48249218e-02 +5.11458777e-02 +1.45624340e-01 +1.99391786e-02 +3.83020006e-02 +1.14265248e-01 +1.39240444e-01 -1.61950544e-01 -1.80185676e-01 -4.36673224e-01 -2.03744277e-01 -2.91631430e-01 -1.29630744e-01 -2.48024225e-01 -2.00440705e-01 -4.78071049e-02 -1.82667136e-01 -6.38594404e-02 +8.89065396e-03 -1.84352949e-01 +1.46042472e-02 -1.75332427e-01 -7.34659433e-02 -1.48483217e-01 -2.05180585e-01 -9.84717831e-02 -2.59708703e-01 -2.75080591e-01 -9.32184011e-02 +1.10127136e-01 -1.84479341e-01 -1.30081410e-02 -1.41409978e-01 -1.26745373e-01 -1.41663149e-01 -9.44491550e-02 -2.44156662e-02 +7.30496552e-03 -3.29653025e-01 -4.29143995e-01 -1.24293931e-01 +1.10064447e-02 -1.20190725e-01 -1.89318642e-01 -3.26667130e-01 -4.90825474e-01 -2.14124054e-01 -3.94217640e-01 -9.42349210e-02 -1.44561663e-01 -1.40035385e-02 -1.87736169e-01 -1.23416394e-01 -1.01148345e-01 -3.98906738e-01 -1.50814027e-01 -6.13961816e-02 -1.63240597e-01 -8.44244510e-02 -2.25308672e-01 -1.68708816e-01 -2.69579649e-01 -1.18958957e-01 -2.58257449e-01 -2.37081304e-01 -3.90978843e-01 -3.10655177e-01 -3.20766121e-01 -2.30908953e-02 -3.72428335e-02 -1.81461260e-01 -1.35064989e-01 -2.96312332e-01 -4.76407051e-01 -7.13965520e-02 -6.21668771e-02 +8.12192541e-03 +2.97924578e-01 +3.13720345e-01 -1.10205002e-01 +6.52485788e-02 +2.35705376e-01 -5.22479266e-02 +1.06703870e-01 +1.45401791e-01 +1.32538319e-01 +2.66685635e-01 +2.21992821e-01 -1.12120554e-01 +1.44958347e-01 +1.24552198e-01 +1.87413871e-01 +3.19161028e-01 +4.07020092e-01 +1.76604301e-01 -7.63838813e-02 +1.82113051e-01 +1.29642814e-01 +9.68090072e-02 +1.23048574e-01 +5.53999543e-02 +1.74486533e-01 +1.35327592e-01 -1.93145812e-01 +2.13888615e-01 +1.77367344e-01 -3.09552439e-02 +1.44718736e-01 -1.22734241e-01 +2.82869369e-01 +9.64213759e-02 +1.41366705e-01 +2.45444745e-01 +2.04734951e-01 -1.94726028e-02 +5.84887452e-02 +2.44184971e-01 +2.57184684e-01 +4.14187402e-01 -4.07552905e-02 -9.78611503e-03 -4.79985029e-02 -1.38794646e-01 -4.68648411e-03 +1.65189102e-01 +1.10592328e-01 +1.98407382e-01 -1.41455635e-01 -1.15900718e-01 +1.49671361e-01 +1.73113514e-02 +8.94308165e-02 +2.06059456e-01 +3.24864179e-01 -7.63279498e-02 +5.17808907e-02 +3.75614204e-02 +2.32189417e-01 -2.78112087e-02 +3.04580238e-02 +1.91037521e-01 +1.46340162e-01 +1.78156272e-01 -3.02961748e-02 -3.21101360e-02 +9.64328498e-02 -7.12978467e-02 +1.34750441e-01 +1.79688185e-01 -6.75907806e-02 +1.33657277e-01 +2.93200046e-01 -2.09085226e-01 +1.27193794e-01 -4.99401838e-02 +2.27356125e-02 -4.60265242e-02 +3.11069936e-01 -9.30840597e-02 +1.36913031e-01 +8.98582563e-02 +3.52819115e-02 -2.16678530e-01 +7.45297372e-02 +2.61424094e-01 +2.43545160e-01 +7.55676255e-02 -9.69603956e-02 +8.07997286e-02 +2.71087736e-01 -1.55190840e-01 +1.34805918e-01 -2.33973339e-01 +1.43778145e-01 +2.62280721e-02 +7.59884268e-02 -8.37393627e-02 +6.58045337e-02 -9.70589593e-02 +2.87136286e-01 -4.81946990e-02 +5.70641197e-02 -4.99785319e-02 -7.08174631e-02 +6.96274266e-02 +7.98378438e-02 -3.75689194e-02 +1.86121706e-02 +1.32521346e-01 +1.34007394e-01 -5.49476556e-02 -1.03981748e-01 +8.50958377e-02 -1.21536583e-01 +1.20155588e-01 +7.65848299e-03 +1.47827446e-01 +1.06881581e-01 -6.98903203e-02 -1.29230678e-01 -1.13097869e-01 +4.95239943e-02 -2.00712994e-01 -2.09270403e-01 -9.00181457e-02 -1.13258764e-01 -3.91020775e-01 +3.41364622e-01 +1.49726421e-01 -2.40235943e-02 +2.36609980e-01 +4.00259625e-03 -7.97663908e-03 +1.55022293e-01 -3.07947919e-02 +1.78483874e-01 -1.20122984e-01 -1.53804764e-01 -1.22068211e-01 -9.22732204e-02 -8.69297758e-02 -1.49103627e-01 -6.32598475e-02 +2.00750902e-02 +7.10381985e-01 +9.26519930e-02 +9.53134671e-02 +2.29023114e-01 -1.53970435e-01 +8.91312733e-02 +3.99510443e-01 -4.45122868e-01 -9.23376754e-02 -2.03339368e-01 +1.97803631e-01 +1.10357672e-01 -2.27092430e-01 -2.72272438e-01 +3.62906605e-02 -1.95924535e-01 -1.20530702e-01 -2.63007104e-01 +2.62675434e-01 -1.00917146e-01 +3.02660116e-03 -2.08812028e-01 -2.47926414e-01 +2.80358046e-01 +3.44079896e-03 -1.13639235e-01 -6.11424707e-02 +2.70351730e-02 +2.92379409e-01 +2.10731756e-02 -9.68646705e-02 -1.32745773e-01 +6.12227738e-01 -3.65931779e-01 -1.15266137e-01 -1.35255709e-01 +1.52060419e-01 +1.03660179e-02 +2.74381012e-01 +1.84376881e-01 -1.61421224e-01 -2.44513601e-01 -4.26530875e-02 +1.71932682e-01 +5.21095768e-02 +1.01941973e-01 -1.48685277e-01 -1.40537962e-01 -4.69425619e-02 -6.75138012e-02 +1.45670339e-01 -1.12943955e-01 -6.50133714e-02 +1.23170977e-02 -1.20443575e-01 -1.76640287e-01 -1.43420026e-01 -4.72640395e-02 +1.18156485e-01 -7.42357522e-02 +1.75210238e-01 -7.55329430e-02 +3.20133083e-02 +4.36437093e-02 -2.07055092e-01 -1.85438156e-01 +2.18149759e-02 -1.27712563e-01 -6.43082410e-02 +6.92316964e-02 +3.28210220e-02 -1.32458787e-02 +1.32881792e-03 -3.46275307e-02 -1.27231479e-01 -2.83087492e-02 -9.61187929e-02 +6.13919534e-02 +7.60393515e-02 -1.24789640e-01 -1.46938413e-01 +1.26504377e-01 -2.15809628e-01 -3.45969461e-02 -1.81965426e-01 -1.39647767e-01 +6.40533194e-02 +2.40715612e-02 +2.09403131e-02 -3.45749199e-01 -8.82499591e-02 +1.52084380e-01 -3.99692729e-02 +1.09854981e-03 +1.09094851e-01 +1.03683420e-01 -2.36744374e-01 -2.07562596e-01 +4.16769423e-02 -6.60526603e-02 -5.77908270e-02 +1.34500802e-01 +9.11562741e-02 +1.33504882e-01 +1.94690704e-01 -1.71191797e-01 +7.77592212e-02 +1.18543804e-01 +6.19249940e-02 +2.02099502e-01 -5.45586459e-03 +1.00662485e-01 +1.51350811e-01 -3.03655099e-02 +2.71491796e-01 +4.20154631e-02 +1.97173163e-01 +1.03917578e-02 +4.44470681e-02 +1.39942735e-01 -4.51686345e-02 +2.09381245e-02 +1.75182801e-02 -9.88243613e-03 +1.53692737e-01 +3.23476255e-01 +8.45698938e-02 -3.66648808e-02 +2.22387895e-01 -8.06343649e-03 +2.09754512e-01 -8.45208988e-02 +6.76405355e-02 +2.62228876e-01 -1.03000946e-01 +2.38855988e-01 +2.97342718e-01 +2.14102209e-01 +3.86736035e-01 +2.63402285e-03 +1.34083271e-01 +1.96496814e-01 +8.31989944e-02 +3.46779048e-01 +7.24442750e-02 +9.68764350e-02 +3.30842823e-01 +2.09711805e-01 +3.96069854e-01 +1.06775403e-01 -9.40918997e-02 +3.06748033e-01 +6.80767894e-02 +2.54428655e-01 +2.08588943e-01 +1.35412812e-01 +1.93507969e-01 -5.39239943e-02 +5.72381504e-02 +1.93905085e-01 +3.55641216e-01 +1.76717639e-01 +2.37978533e-01 +3.92917812e-01 -2.28629354e-02 +1.91274583e-01 +3.86292562e-02 +3.44328843e-02 +3.69812071e-01 +1.77593112e-01 +4.02939469e-01 +2.42348179e-01 +3.57007325e-01 +7.70540237e-02 +2.60682166e-01 +1.15257084e-01 +2.42371470e-01 +1.89693823e-01 +2.33711675e-01 -9.19781700e-02 +8.99909958e-02 +9.87204760e-02 +9.00862440e-02 +2.93279558e-01 +9.75871608e-02 +9.68313292e-02 +3.33388448e-01 +2.20094193e-02 +2.32398927e-01 +3.17864835e-01 +1.34347096e-01 +2.53641099e-01 +2.20871091e-01 -2.47628670e-02 +3.23267549e-01 +1.59314856e-01 +1.83290556e-01 +1.40436679e-01 +1.28140360e-01 +2.36271292e-01 +2.74197847e-01 +1.51298568e-01 +1.54035106e-01 +9.27644148e-02 +1.12352654e-01 +2.82330096e-01 +1.35899037e-01 +8.96704346e-02 +1.93296760e-01 +2.39278331e-01 +2.44051024e-01 +2.24054113e-01 +2.09113017e-01 +5.82980849e-02 +1.27988115e-01 +2.31943265e-01 +7.72679299e-02 +3.91727626e-01 +2.13658065e-01 +2.63434350e-01 +2.97790289e-01 +8.50438997e-02 -1.85596664e-02 +1.61064297e-01 +1.06292121e-01 +2.85740465e-01 +1.39626905e-01 +1.05659358e-01 +2.10074216e-01 +1.40573964e-01 +2.25426838e-01 +1.35713920e-01 +1.15843073e-01 +2.03986853e-01 +5.45041859e-02 +1.86567038e-01 +3.11305493e-01 +1.04298361e-01 -1.91304684e-01 +4.25903872e-03 +1.79923326e-01 +3.24498676e-02 +2.60106921e-01 +1.81929916e-02 -1.95343912e-01 -4.36339565e-02 -1.68704279e-02 +4.42734808e-02 +2.63909787e-01 +2.24016577e-01 -8.93421646e-04 -1.08861513e-01 -4.62028943e-02 +9.92338508e-02 -1.93475634e-01 -2.02166177e-02 -5.31889722e-02 +4.43734601e-02 +7.72517771e-02 -3.07757151e-03 -3.80596407e-02 +1.10459544e-01 +9.45687592e-02 -1.23374790e-01 -3.61754298e-02 +3.08894478e-02 -3.78519863e-01 -7.23645464e-02 -2.70208716e-01 -6.79479092e-02 +1.57119915e-01 -4.03138064e-02 +1.45745620e-01 +1.11515313e-01 -2.08362103e-01 +1.35416374e-01 -2.95134962e-01 -1.80130363e-01 +1.25317231e-01 -6.60993084e-02 +7.16890469e-02 -1.01177737e-01 -2.49977514e-01 +2.87845463e-01 -2.41401815e-03 -1.01655245e-01 -4.90907766e-02 -9.47020724e-02 +5.35220318e-02 -2.97017157e-01 +2.41413683e-01 +4.71372940e-02 +3.81251611e-02 -2.62647867e-01 +3.41017800e-03 +2.63567418e-01 +2.82283902e-01 -1.94160104e-01 -2.04926088e-01 -4.83572148e-02 -7.10468665e-02 +2.24909887e-01 +1.70512244e-01 -8.42131302e-02 -1.19089417e-01 +7.41002411e-02 -1.04684740e-01 +1.96877375e-01 +2.20688418e-01 +2.00951081e-02 -1.19821727e-01 +3.53060551e-02 -3.99427302e-02 +6.59789518e-02 +1.62592337e-01 -1.54752508e-02 +1.09382287e-01 +5.97788952e-02 +2.25251615e-01 +1.99990660e-01 +1.74400117e-02 +8.49760175e-02 -2.67199497e-03 +1.35997748e-02 +1.58742577e-01 +8.00509080e-02 +3.65278691e-01 +3.68825167e-01 +1.49614543e-01 +1.42628863e-01 -9.15168375e-02 +8.58067870e-02 +9.50381532e-02 +1.87570870e-01 -9.26242620e-02 +1.78118914e-01 -5.61860763e-03 +1.11527536e-02 -5.00765331e-02 +1.52943209e-01 +1.88610211e-01 +1.26424655e-01 +1.47796094e-01 -5.75812235e-02 +2.63705775e-02 +1.31360546e-01 -1.92978159e-02 +1.57483190e-01 +3.40037078e-01 +1.82633623e-01 +2.26910397e-01 +1.83410794e-01 +1.56569839e-01 +4.54549529e-02 +1.05116002e-01 +2.81608105e-01 +3.01491227e-02 +4.28524949e-02 +4.93296720e-02 +1.51243955e-01 +2.31195703e-01 -3.35131697e-02 +2.91011453e-01 -4.90016416e-02 -5.41273318e-02 -5.90466708e-02 -2.54323810e-01 -2.50830740e-01 -1.27332538e-01 -2.38640979e-01 -1.26714543e-01 +1.25951096e-01 +4.03982848e-02 -8.31058547e-02 -1.07788332e-02 -2.34877735e-01 -1.91489264e-01 -1.76347017e-01 -2.98973173e-01 -3.08355004e-01 -2.93266982e-01 -2.34418716e-02 -1.78010464e-01 -1.30739272e-01 -2.05292210e-01 -1.33554056e-01 -7.72973374e-02 -2.64482677e-01 -4.02936563e-02 -3.05112898e-01 -3.48956078e-01 -5.74227422e-02 -2.48862430e-02 -2.17784777e-01 +7.19192326e-02 +1.27664596e-01 -1.05042934e-01 -5.50829880e-02 -1.70211270e-01 -3.08164090e-01 -4.03593957e-01 -1.23997204e-01 -1.79590452e-02 -6.15155287e-02 +2.74837285e-01 -1.78344026e-01 -1.09486215e-01 -2.55873829e-01 +3.11716460e-02 -2.25001425e-01 +5.61536364e-02 -3.28458428e-01 +5.69406189e-02 -1.73229754e-01 -5.42011932e-02 -6.29233420e-02 -3.01819801e-01 -2.06594229e-01 +5.44248596e-02 +2.02536192e-02 -7.49862753e-03 -6.11580387e-02 -1.05956405e-01 +1.07895143e-01 -1.39160499e-01 -3.22320670e-01 -9.24654678e-02 -2.76272714e-01 -7.61891380e-02 -5.80940768e-02 -6.30933046e-02 -1.68833017e-01 -1.32586807e-01 -9.64993611e-02 -2.08768740e-01 -1.55215517e-01 -5.61110005e-02 -3.60437632e-01 +2.71161366e-03 -2.77020216e-01 -1.22617364e-01 -1.11792363e-01 -2.74652988e-01 -3.43753606e-01 -2.96435058e-01 -8.41598213e-02 -7.63084143e-02 -2.60023959e-02 -1.35283381e-01 +1.03401653e-01 -6.78709224e-02 -2.26597771e-01 -4.85278033e-02 -3.74352813e-01 -2.02346787e-01 +1.61487207e-01 -1.89019427e-01 -2.17664301e-01 +1.43742502e-01 +1.37607515e-01 -8.83722901e-02 +2.63333842e-02 -1.67723387e-01 -1.05916008e-01 -1.44244492e-01 -2.60898083e-01 +6.93550110e-02 +9.42750946e-02 +2.03102440e-01 -8.45688060e-02 -2.83699892e-02 -1.69462845e-01 -9.00351703e-02 -2.91204304e-01 -1.24353366e-02 -2.09671631e-01 -4.12980141e-03 -2.55891740e-01 -1.58226505e-01 +1.05061091e-01 -7.29271248e-02 -1.20484442e-01 -1.23695903e-01 +7.25081116e-02 -3.55279408e-02 -1.52741671e-01 -1.19739160e-01 -1.98609456e-02 -2.08815113e-01 -4.02416825e-01 -7.07503483e-02 -9.04843509e-02 +4.80795987e-02 +1.27920762e-01 +6.34674355e-02 -6.25862554e-02 -4.84388582e-02 +2.12528259e-01 -1.62879810e-01 -1.45516038e-01 -1.21072553e-01 -3.31894904e-01 -2.20239144e-02 -1.03055350e-01 -1.35272056e-01 +1.66345850e-01 +4.47653860e-01 -2.89844304e-01 -1.94114268e-01 -4.76221219e-02 -8.39201435e-02 +1.06556088e-01 -2.29427114e-01 +1.66739851e-01 -1.11943536e-01 -1.54667959e-01 +1.95910484e-01 +3.97350401e-01 +5.40115684e-02 +2.78874729e-02 -1.33092567e-01 +4.02644947e-02 -1.84329808e-01 +1.32960483e-01 -1.71864167e-01 +8.75646062e-03 +1.37556359e-01 -2.79046714e-01 +4.66672808e-01 -2.65681390e-02 -7.37026185e-02 -9.12328511e-02 -3.35807830e-01 +2.02186823e-01 +1.98519960e-01 -1.12106241e-01 +2.51744092e-01 +4.71505001e-02 +1.81732208e-01 +1.06948346e-01 -2.34176174e-01 +3.55890915e-02 -2.14369878e-01 +2.67688721e-01 -1.37783259e-01 +9.75954309e-02 +2.23334312e-01 +1.30473852e-01 -8.33981857e-02 -3.08202118e-01 +2.01665387e-01 -2.23212153e-01 -1.28991911e-02 -2.96532512e-02 -2.90019751e-01 +2.97829062e-01 -9.64473262e-02 +3.10961008e-01 +3.08523417e-01 +1.08990997e-01 +1.36862844e-01 +2.84291267e-01 +3.03917557e-01 +1.10725179e-01 +1.99549705e-01 +2.04949826e-01 +3.17805231e-01 +3.15765291e-01 +1.00961275e-01 +1.45093396e-01 +5.09772301e-01 +2.12727964e-01 +2.83796847e-01 +3.36865366e-01 +1.56024069e-01 +2.37259850e-01 +3.46814841e-01 +1.33582979e-01 +2.73995101e-01 +2.61705667e-01 +6.86514378e-02 +3.83374363e-01 +4.86108154e-01 +2.28625819e-01 +1.65995181e-01 +2.74739504e-01 +1.21866859e-01 +1.52254194e-01 +4.93329406e-01 +1.80237561e-01 +1.37517154e-01 +5.81228919e-02 +4.63299274e-01 +3.70225638e-01 +1.10451914e-01 +2.55952090e-01 +2.93592542e-01 +1.70177236e-01 +4.13063496e-01 +1.07069485e-01 +1.88561350e-01 +5.24315119e-01 +1.85462087e-02 +5.55631101e-01 +3.29638243e-01 +2.54180908e-01 +1.20887615e-01 +3.56458545e-01 +2.18981162e-01 +2.00775966e-01 +9.65200365e-02 +1.02671348e-01 +2.58592099e-01 +3.24353456e-01 +1.93229824e-01 +3.34005922e-01 +3.04720491e-01 +3.93757910e-01 +3.98100689e-02 +2.95331925e-01 -1.91911831e-02 -4.11577761e-01 -2.14315921e-01 -3.41043442e-01 -2.26079479e-01 -3.22568268e-01 -4.47933591e-04 -1.35012314e-01 -2.11351603e-01 -6.04718849e-02 -2.00256541e-01 -5.52828312e-02 -3.45865101e-01 -1.02517717e-01 +6.76512998e-03 -1.11816861e-01 -2.27050364e-01 -2.52187312e-01 -5.98404229e-01 -1.39007181e-01 -5.02879024e-01 -1.71097174e-01 -1.03585884e-01 -1.66820854e-01 -5.05796790e-01 -2.10032091e-01 -1.49243891e-01 -2.76117563e-01 -3.27888280e-01 -3.49593520e-01 -4.67494875e-01 -3.67626190e-01 -3.86644840e-01 -4.72406775e-01 -1.37100056e-01 -4.70451981e-01 -2.50242427e-02 -3.22045714e-01 -3.15507561e-01 -2.44278088e-01 -4.14905846e-01 -2.72663146e-01 -2.78339416e-01 -4.43019092e-01 -1.72263056e-01 -3.32893342e-01 -1.07285686e-01 -9.57219377e-02 -1.82266787e-01 -5.93858302e-01 -3.42716873e-01 -2.04261422e-01 -4.56446975e-01 -2.12215617e-01 -2.85304934e-01 -3.49461704e-01 -2.94319361e-01 -2.76664943e-01 -1.29360393e-01 -3.62439990e-01 -5.10475576e-01 -4.08219844e-01 -2.60382354e-01 -3.54795694e-01 -4.86095637e-01 -2.26476654e-01 -1.03088483e-01 -1.59753054e-01 -2.56131500e-01 -3.49674016e-01 +7.04314734e-04 -3.30116898e-01 -3.88511159e-02 +5.40654287e-02 -5.71087487e-02 -7.25273192e-02 -3.32586974e-01 +2.68157069e-02 -1.96355686e-01 -1.73925888e-02 -2.23548234e-01 -1.03283413e-01 -1.09186023e-01 +1.38479456e-01 -2.56474495e-01 -2.04061404e-01 -1.12567708e-01 -6.99569583e-02 -1.30667090e-01 -4.33556251e-02 -2.61080354e-01 -2.89860368e-01 -1.69024825e-01 -3.26153070e-01 -2.61810601e-01 -1.58945501e-01 -2.92140186e-01 -1.06480658e-01 -1.94984511e-01 -1.24909699e-01 +5.44461049e-02 -2.53164202e-01 -8.58772770e-02 -9.19366106e-02 -1.40950516e-01 -3.07133824e-01 -1.83556706e-01 -3.71252447e-01 -2.22851764e-02 -3.99107218e-01 -3.29244643e-01 -1.48095146e-01 -1.72477484e-01 -2.01064274e-01 -1.40089855e-01 -8.58139172e-02 -2.99965799e-01 -2.56559491e-01 -3.21273953e-01 -3.01014818e-02 -4.68351804e-02 -9.24995616e-02 -2.32923552e-02 -1.13297299e-01 -2.77788788e-01 -3.21440309e-01 -1.56845897e-01 -5.65571571e-03 -2.49701157e-01 +8.23755413e-02 +1.41287610e-01 +1.79828897e-01 +8.03677365e-02 +4.44769748e-02 -1.18799239e-01 +8.35001692e-02 -8.97323266e-02 +1.16208993e-01 -8.09142590e-02 -5.46011776e-02 -2.24783882e-01 +2.97151536e-01 +1.28939888e-02 +4.02063392e-02 +3.94933760e-01 -2.56243587e-01 +2.47179821e-01 +1.08771883e-01 +1.58559889e-01 -8.01884085e-02 -3.34862284e-02 -1.15954727e-01 -2.21014962e-01 -1.71749979e-01 -3.82062001e-03 -1.22740015e-01 -1.90842211e-01 +1.03576198e-01 -5.77606112e-02 +6.91052824e-02 +2.29696892e-02 +1.60082161e-01 -5.01782969e-02 -1.84345052e-01 -5.32802939e-02 +1.25134900e-01 -1.08652607e-01 +1.53845325e-01 +1.51082933e-01 -1.83505595e-01 -1.08622231e-01 -1.06214002e-01 +2.18470454e-01 +1.18060663e-01 -2.68681925e-02 +1.36545887e-02 +1.40670970e-01 +1.57661624e-02 +1.42038018e-01 +1.87168807e-01 -1.34505287e-01 +2.07520127e-01 +1.82561055e-01 -3.84463444e-02 -2.21334592e-01 +8.21003877e-03 -1.23351805e-01 +6.88461065e-02 -8.82779881e-02 +2.45242789e-01 -1.21792275e-02 +1.07074408e-02 +1.35976041e-03 -7.80824348e-02 -6.47942722e-02 -2.93392614e-02 -2.91581213e-01 -1.53711796e-01 +2.49360994e-01 -3.86604697e-01 -2.09152669e-01 -1.02357589e-01 +1.18365869e-01 -4.20318730e-02 +1.39701679e-01 -8.41131136e-02 -2.77129173e-01 -2.20754534e-01 -2.72134215e-01 -1.28320798e-01 -2.97660410e-01 +4.77158884e-03 -1.19413272e-01 -4.16269749e-02 -1.10067770e-01 -1.25459239e-01 -2.62969285e-01 +5.68261109e-02 -2.19504178e-01 -3.77819031e-01 -3.88607204e-01 -1.76194578e-01 -4.57417555e-02 -2.77437210e-01 -1.63483381e-01 +3.55021171e-02 -3.84046733e-02 -2.17833787e-01 +8.75119306e-03 +1.03736080e-01 -1.49583563e-01 -3.64036322e-01 -3.45364302e-01 +1.12538524e-01 -3.51640582e-01 -4.81140874e-02 -1.87404156e-01 -1.77007809e-01 -4.56176177e-02 -6.80462196e-02 -1.74713820e-01 -1.85917273e-01 -3.03559482e-01 -1.69828057e-01 -3.56409609e-01 -2.58465677e-01 -1.59694523e-01 -1.57611713e-01 +3.57474089e-02 -2.14376330e-01 -8.52967277e-02 -1.54179573e-01 -1.34362519e-01 +1.87634587e-01 -1.06895790e-01 -4.98829000e-02 -3.85388315e-01 -2.08830789e-01 +4.24132913e-01 +1.35233790e-01 -6.74803788e-03 +2.17642725e-01 +2.74007589e-01 -1.46596432e-01 -2.07590953e-01 -5.48655726e-02 +2.35465899e-01 +3.72622222e-01 +2.55364895e-01 +3.63231629e-01 +2.99077511e-01 -8.35867226e-02 +3.45190503e-02 +4.40307297e-02 +1.41476527e-01 +4.56132330e-02 +2.39236787e-01 +5.23785017e-02 +2.76427660e-02 +6.16445132e-02 -1.76306367e-01 +1.94392115e-01 +1.38537332e-01 +7.74948969e-02 +7.35695437e-02 -6.51810616e-02 -8.50000605e-02 -1.42728642e-01 +1.45794928e-01 +2.20363304e-01 +3.45968336e-01 +1.89609304e-01 +4.94888991e-01 +3.50851774e-01 +3.60825993e-02 -1.01282075e-01 -1.49395287e-01 +2.59088933e-01 +4.94895190e-01 +2.04528168e-01 +3.00931372e-02 +3.70161623e-01 -1.46202952e-01 +2.54460692e-01 +2.14960605e-01 +2.91755468e-01 +2.26017326e-01 +8.05530921e-02 +1.25459120e-01 +1.07437178e-01 -2.65151978e-01 +5.25960922e-02 +9.40580145e-02 -1.57833826e-02 -5.50329126e-02 +6.47386238e-02 +3.62453222e-01 +2.65378982e-01 -1.13303356e-01 -1.62137046e-01 -9.81757790e-03 -3.74018657e-03 +1.70737788e-01 +2.20721096e-01 +1.72108542e-02 +2.04271805e-02 +1.60117358e-01 +6.60563335e-02 -1.42403692e-01 +7.48656243e-02 +2.59510696e-01 +3.26384246e-01 +1.38651609e-01 +1.58831969e-01 +1.67888850e-01 -3.49976383e-02 -1.10569023e-01 +6.43980550e-03 +3.48344222e-02 -5.55862933e-02 +1.35699203e-02 +1.65536165e-01 +2.07505777e-01 -3.15091163e-02 +4.77505438e-02 +3.92100811e-02 +2.12188765e-01 -6.96969852e-02 +5.24311960e-02 +6.10386692e-02 -6.47144988e-02 -3.70712094e-02 +1.36551857e-01 +1.09264255e-02 -5.25095277e-02 +1.30411580e-01 +7.25209489e-02 +1.75264731e-01 -2.15102062e-01 -8.80510956e-02 -9.52151492e-02 +2.82957584e-01 +9.31793973e-02 -3.83385504e-03 +1.10357240e-01 +4.21689659e-01 +1.21010534e-01 +1.31044388e-01 +2.31718615e-01 +1.52437389e-01 +4.71559092e-02 -9.71064866e-02 +8.20049867e-02 +1.36588022e-01 -5.90015166e-02 +3.31973098e-02 +4.12330851e-02 +1.00287059e-02 +1.95712760e-01 +1.05072282e-01 +1.24566760e-02 +3.84048700e-01 -1.40791103e-01 -1.46628827e-01 +1.65071581e-02 +1.17793810e-02 +1.61615259e-03 +1.25356674e-01 +1.04030468e-01 -2.04052433e-01 +4.33256209e-01 +1.62661418e-01 -6.03820011e-02 +3.60451192e-01 +3.41108978e-01 +6.23665191e-02 -1.83238864e-01 -1.52289823e-01 -3.54399592e-01 +1.31609634e-01 +1.76597923e-01 -2.55147815e-01 -2.74731696e-01 -2.08954960e-01 +2.31284834e-03 +1.07470661e-01 +5.76247983e-02 +2.30309457e-01 -2.44724140e-01 -4.44940738e-02 -1.38232201e-01 -2.96446681e-01 +8.13259631e-02 -1.44950703e-01 +7.71108195e-02 -6.81627914e-02 -2.00761497e-01 -2.69669950e-01 -5.59162199e-01 -1.76299974e-01 -1.38619184e-01 +2.80090496e-02 +9.19667557e-02 +7.54866451e-02 +1.08112134e-01 -7.15572461e-02 +6.32215664e-02 -1.90278627e-02 +3.52371149e-02 -1.04206435e-01 +1.46246478e-02 +1.80726156e-01 -1.90363407e-01 -3.79622549e-01 +2.75292564e-02 -7.41319684e-03 +1.38288066e-01 -2.13991180e-01 -9.68225226e-02 +8.54689330e-02 +2.93919981e-01 +3.63676809e-02 -4.85363416e-02 +6.41400814e-02 +1.21562771e-01 +2.24063247e-02 +3.06413651e-01 -5.16055077e-02 +8.40284582e-03 +4.53619100e-02 +2.04842627e-01 -4.24195789e-02 +1.91479519e-01 +9.55302455e-03 +2.29379479e-02 +8.98067132e-02 +1.33383796e-01 +7.88621083e-02 +5.93414195e-02 +2.49415398e-01 +4.22105789e-01 +3.55911478e-02 +5.00012100e-01 +2.62475848e-01 +4.33776349e-01 +2.25827530e-01 +2.97234714e-01 -6.08998537e-02 +1.14167668e-01 +1.36784568e-01 +2.28720177e-02 +7.70465657e-02 +3.01806748e-01 +4.69987094e-02 +4.04929310e-01 +2.96266168e-01 -8.32668319e-03 -6.28539324e-02 +4.06830274e-02 +2.61052191e-01 +1.11973763e-01 +2.98077911e-01 +2.52960861e-01 +2.81907350e-01 +1.60845406e-02 +2.24818766e-01 +1.96894675e-01 +1.15693048e-01 +1.50599733e-01 +1.84958920e-01 +1.19036786e-01 +1.73385754e-01 +1.83584660e-01 +1.78243145e-01 +2.03109786e-01 +1.73680127e-01 +3.30209970e-01 +1.39010444e-01 +2.47967765e-02 +3.37273091e-01 +2.36608341e-01 +3.68583530e-01 +1.69280946e-01 +1.71187207e-01 +3.73193994e-02 +3.04182759e-04 +4.69598174e-02 +6.30248934e-02 +1.18780993e-01 +3.65693808e-01 -9.72035993e-03 +7.47416615e-02 -1.78316519e-01 -2.04678386e-01 +7.20924735e-02 -1.97758436e-01 -2.48781800e-01 -2.90322751e-01 -1.55457690e-01 -1.06868647e-01 -1.35557070e-01 -8.91617462e-02 -2.43343115e-01 -1.47028744e-01 +7.60994107e-02 -2.01144531e-01 -1.00921184e-01 -1.61312431e-01 -2.67765224e-02 -9.99737978e-02 -1.76791593e-01 -2.41026819e-01 -3.10967803e-01 -1.93416774e-02 -1.19393162e-01 -1.59149960e-01 -2.58446962e-01 -1.59678772e-01 +1.38071328e-01 -1.89399794e-02 -1.43350542e-01 -2.47841850e-01 -1.89832479e-01 +3.04955803e-03 -7.59655461e-02 +2.04055924e-02 -1.91097453e-01 -1.03983745e-01 -6.82271793e-02 -1.10100806e-01 -2.28349417e-01 -2.05729604e-01 -3.45429108e-02 -3.39606375e-01 -4.13002700e-01 -2.54949600e-01 -2.36252755e-01 -7.18013570e-02 -2.34489754e-01 -5.14672743e-03 -2.26255171e-02 +6.63876766e-03 -1.62705094e-01 -2.60708272e-01 -4.71980460e-02 -4.80221584e-02 +2.19125450e-01 -1.22399054e-01 -2.41334185e-01 -2.99135804e-01 -2.08895907e-01 -1.52909055e-01 +5.88725992e-02 +1.58532634e-02 -2.21069619e-01 -2.73775846e-01 -3.45806420e-01 -7.08182007e-02 +6.35384470e-02 +7.38713443e-02 -1.80246294e-01 -2.74621278e-01 +5.91766983e-02 -1.37724698e-01 +1.15101837e-01 +1.65913925e-01 -5.33897504e-02 -8.98521915e-02 +4.68163900e-02 -2.30047405e-01 +1.22789303e-02 +4.64687012e-02 -3.48888114e-02 +1.16557097e-02 +2.23213017e-01 -2.00529933e-01 -1.33551776e-01 -4.47003543e-02 -2.23536342e-01 +1.84252877e-02 -9.87870470e-02 -9.28436518e-02 +4.45532091e-02 +2.21614957e-01 -9.31767002e-02 -2.78395683e-01 +2.05910653e-01 -1.10130094e-01 -1.30775705e-01 +6.56731278e-02 -9.63666961e-02 -1.92685202e-01 +2.01844331e-02 -3.06685239e-01 -5.11854840e-03 +1.73957795e-02 +2.87544411e-02 -2.40724742e-01 -1.50850534e-01 -2.16032211e-02 +1.05482917e-02 -3.94382514e-02 -3.89633216e-02 +4.21993956e-02 -1.29054010e-01 -3.10138725e-02 -7.97966793e-02 -4.97313999e-02 -2.26335987e-01 +9.56788138e-02 -3.25137451e-02 -1.55616716e-01 -1.19780757e-01 -2.36033812e-01 -1.13399275e-01 +5.42373881e-02 +1.34683877e-01 -6.89886287e-02 -1.87941827e-03 +6.90061972e-02 -1.48885682e-01 -4.35474403e-02 -2.18001590e-03 -3.55621487e-01 -1.83375347e-02 +1.02085888e-01 -2.36637682e-01 -1.27754942e-01 -1.19233364e-02 +1.24187870e-02 -7.77986199e-02 +1.32695705e-01 -1.90942418e-02 +7.65048712e-02 +3.74294072e-02 +6.23872653e-02 +1.74879823e-02 +1.66819207e-02 +4.58099088e-03 -1.98379438e-02 -2.85222799e-01 -9.17722806e-02 -6.55153170e-02 -1.12054668e-01 +2.39711776e-02 +1.52995095e-01 -2.96175748e-01 +1.76653102e-01 -8.37601051e-02 +2.90418714e-01 -2.49446884e-01 +4.84578349e-02 +8.28426033e-02 -6.14066236e-02 +9.75653902e-02 -4.37366404e-02 -7.59231821e-02 -2.66800135e-01 -1.52055129e-01 -8.91374275e-02 -1.37572721e-01 +2.77052168e-02 +4.70379740e-01 -3.42890203e-01 +8.49317238e-02 -1.89158931e-01 +1.82783142e-01 -6.87654093e-02 -5.32377604e-03 +2.29334056e-01 +4.53671813e-02 +2.43360132e-01 -7.54132196e-02 -2.09794477e-01 +3.27016622e-01 +1.52553931e-01 -5.80723695e-02 +3.72401392e-03 -4.96789813e-02 -2.04176903e-01 +2.94119030e-01 -2.24898696e-01 -2.11189047e-01 -3.90810445e-02 +6.48505539e-02 +1.00178411e-02 +2.05411762e-01 +1.84431762e-01 -2.04542447e-02 -2.08036285e-02 +1.02045812e-01 -1.50143290e-02 -6.61778525e-02 +2.54038535e-02 +6.57482147e-02 +4.82869148e-01 +1.14515804e-01 +1.89609192e-02 +2.59406984e-01 -8.39853734e-02 +8.25424939e-02 -4.65026461e-02 +4.45075817e-02 -8.96980688e-02 +2.45816097e-01 +7.14637265e-02 +1.63411483e-01 +2.50123829e-01 +1.73299462e-02 +2.33474314e-01 +2.61442526e-03 -1.85138464e-01 -6.54994622e-02 +1.79467946e-02 +2.40763146e-02 +5.42344265e-02 -5.83318993e-02 +2.49778070e-02 +2.37302274e-01 -9.12693590e-02 +5.40542677e-02 +3.27316701e-01 +9.55471769e-02 +1.97868943e-02 +8.48681107e-02 -1.14471689e-01 -1.03094755e-02 +2.36821384e-03 +1.95920706e-01 +2.94003904e-01 +1.35893628e-01 -3.36743779e-02 -4.17935885e-02 +9.68941599e-02 +3.64937857e-02 +3.56695503e-02 +4.02223878e-02 +7.19400272e-02 +1.49182260e-01 -5.79862036e-02 -5.95981032e-02 -5.79349510e-02 +1.17962018e-01 +2.34441221e-01 +1.66823119e-01 +1.94430351e-01 +1.17799513e-01 +1.03212200e-01 -9.59032774e-02 -8.35265443e-02 -1.68312341e-01 +1.26310170e-01 -1.77327082e-01 -3.06217000e-02 -1.88826874e-01 -3.41863364e-01 -5.98820113e-02 -2.56824661e-02 -7.00123087e-02 -1.02175094e-01 -1.04088917e-01 -1.56492710e-01 -2.65118331e-01 -1.37420535e-01 -2.99368352e-01 -8.81774276e-02 -2.62448639e-01 -2.90580064e-01 +6.33335784e-02 -2.53783226e-01 -1.30203798e-01 +9.82421190e-02 -1.16880886e-01 -1.85031876e-01 +3.40961032e-02 -4.31259483e-01 -3.07651550e-01 +2.99982764e-02 +8.94944766e-04 -2.43315652e-01 -2.78178930e-01 +8.04266557e-02 +9.06572565e-02 -1.18012249e-01 -1.41045138e-01 -1.50344804e-01 +3.91034223e-02 -2.77778327e-01 -1.88627675e-01 -1.51929095e-01 -1.09248802e-01 +5.91700636e-02 -1.29366532e-01 -3.52909490e-02 -8.64742175e-02 -2.42493749e-01 -5.01144789e-02 +2.62936490e-04 -4.92254365e-03 -4.10232455e-01 -1.43454283e-01 -2.36001909e-01 -4.75440733e-02 -1.81915522e-01 +8.41020374e-05 -7.57906362e-02 -2.30367362e-01 -1.07778154e-01 -1.76451087e-01 -1.23317257e-01 -9.55747906e-03 -3.18813697e-02 -1.76089436e-01 -1.17236406e-01 -1.14141554e-01 +1.51879713e-01 -1.82654411e-01 -2.32622698e-01 -7.98880160e-02 -2.11235955e-01 -1.45415664e-01 +1.11159407e-01 -1.86783403e-01 -1.58239175e-02 -2.65856266e-01 -3.70718129e-02 -2.50416636e-01 -2.08298028e-01 -3.22425336e-01 -3.61006796e-01 -2.39737630e-01 -1.91459626e-01 +9.79282111e-02 -2.57859468e-01 -9.67610031e-02 +8.09516087e-02 -2.26787806e-01 -1.26024216e-01 -1.12894639e-01 -1.94352657e-01 -1.51083171e-01 -1.98910192e-01 -4.41084094e-02 +5.68450280e-02 +1.04148030e-01 -7.93497488e-02 -1.35835215e-01 -1.49839014e-01 -1.67126641e-01 -6.32310361e-02 -1.88158192e-02 -2.34882087e-01 -1.64002836e-01 -5.61406165e-02 -7.07186013e-02 -1.18168838e-01 -1.36765480e-01 +7.90429562e-02 -3.72155905e-02 -2.88481593e-01 +9.44679379e-02 -1.32249907e-01 -6.27380386e-02 -3.69332545e-02 -1.94037586e-01 -2.98324853e-01 -2.78478652e-01 +2.71458668e-03 +3.59632832e-05 -3.36895771e-02 -2.15783089e-01 +1.28007516e-01 -2.55524814e-02 -1.37692541e-01 -3.69994603e-02 -1.00577854e-01 -1.83119640e-01 -2.08193004e-01 +6.77119941e-02 -5.96795529e-02 +3.73610146e-02 -6.93989620e-02 +2.08580792e-01 +1.26181617e-01 -1.15868161e-02 +7.59357587e-02 +2.82459229e-01 +1.46764725e-01 -2.52308659e-02 +2.99582407e-02 -2.92680174e-01 -3.24126817e-02 -1.00435801e-01 -7.18266740e-02 +5.94967604e-02 +1.35846153e-01 +5.06955028e-01 -6.53835982e-02 +1.38090149e-01 +1.94679230e-01 -8.85792226e-02 +5.89652285e-02 +1.45756334e-01 -3.12241614e-01 +2.11123470e-02 +1.60789669e-01 -5.72057860e-03 -2.23343715e-01 -2.42854834e-01 -5.14857955e-02 -1.82530299e-01 +2.21671343e-01 -2.32651576e-01 -1.68202713e-01 +2.14355215e-01 -2.12468510e-03 +1.58198044e-01 -6.40556887e-02 +1.22095264e-01 +6.01906106e-02 +4.50247750e-02 -1.46050200e-01 -2.28644356e-01 -1.59702688e-01 +2.19992772e-02 +2.39084959e-01 -8.34218413e-02 -2.69288003e-01 +2.45885581e-01 -3.24365020e-01 -1.95558500e-02 +4.29515578e-02 +8.80879238e-02 -7.64942244e-02 +5.81024811e-02 +1.73575729e-01 -2.21844763e-01 +1.46397188e-01 +5.60789779e-02 +1.15211330e-01 +1.46438196e-01 -1.07339740e-01 -2.29890212e-01 -2.28054002e-01 -2.24898383e-01 -1.11917295e-02 +3.45572606e-02 -1.25989273e-01 -4.55150567e-02 -3.85752581e-02 -2.92889267e-01 -3.50161254e-01 -4.01565619e-02 -2.05157071e-01 -1.57239094e-01 -5.06533459e-02 -1.97888687e-01 -2.04384811e-02 -1.80445582e-01 -2.22611114e-01 -3.74180973e-02 -2.77559757e-01 -3.78264636e-02 -8.97159874e-02 -2.53686070e-01 +3.56379487e-02 -2.32494056e-01 -2.38144979e-01 -2.11555734e-01 -2.13746116e-01 -1.84346661e-01 -4.63057488e-01 -2.37675190e-01 -2.15114743e-01 -3.31509858e-02 -5.63143287e-03 -1.66556165e-01 -2.98379540e-01 -5.65388128e-02 -1.80416420e-01 -1.10400841e-01 -9.61419269e-02 -3.27280372e-01 -2.62644887e-01 -3.78983825e-01 -4.23325188e-02 -3.52823064e-02 -8.09796751e-02 -3.04668188e-01 -3.23424131e-01 -9.57415923e-02 -1.95211366e-01 -1.89034730e-01 -1.77174166e-01 -2.04646081e-01 -1.25767335e-01 -1.35430038e-01 -2.30071440e-01 -2.48410091e-01 -2.97876328e-01 -4.67006147e-01 +4.55341898e-02 -1.09553710e-01 -2.07519293e-01 -2.05899432e-01 -3.62805277e-01 -4.09621187e-02 +4.30008695e-02 +4.59202752e-02 -8.95037428e-02 +6.79549351e-02 -2.01612309e-01 -3.54508787e-01 +1.17292635e-01 +1.69475991e-02 +6.20436408e-02 -9.69719514e-02 +4.76896167e-02 +1.91714168e-01 -1.04081677e-02 -1.22670017e-01 -8.72041360e-02 +2.46876441e-02 -7.52126053e-02 -1.54365391e-01 -1.85316011e-01 +1.10830277e-01 -5.02325408e-02 -6.08336926e-02 +5.80847524e-02 -3.55870314e-02 -1.05703168e-01 -1.27358437e-01 -2.01580584e-01 -7.53036365e-02 -3.96448821e-02 +1.92355942e-02 -1.75960772e-02 -1.38537869e-01 -1.63593948e-01 +1.38595209e-01 -1.98110446e-01 -1.20548293e-01 -2.67906368e-01 -2.09386498e-01 +1.44381747e-01 +2.41896123e-01 +5.71523793e-02 +8.63089710e-02 -1.53458212e-02 -1.83352783e-01 +1.29308671e-01 +6.11783646e-04 +2.78737158e-01 -2.14379206e-01 -4.38461006e-01 -2.09142148e-01 -1.91791594e-01 -3.56377542e-01 -1.08547419e-01 -1.46974176e-01 -8.31979513e-03 +3.69181996e-03 -1.58043846e-01 -2.48955876e-01 +1.18494838e-01 -1.10050268e-01 -2.17976734e-01 +2.96263461e-04 -1.31974548e-01 +7.14379251e-02 +4.39398959e-02 -1.71888024e-01 +1.39800042e-01 +1.04258962e-01 +1.02606816e-02 -1.67802989e-01 +1.59973860e-01 +2.50898778e-01 +1.76335573e-01 +8.66238922e-02 -1.25551894e-01 +6.97519705e-02 -7.42325187e-02 -1.69663489e-01 +2.14323729e-01 -1.60411581e-01 -1.92766979e-01 +5.86312488e-02 -3.49667631e-02 +1.87220678e-01 +9.08009559e-02 -3.65946889e-02 +2.52019316e-01 +1.67617112e-01 -1.80988282e-01 -3.51173207e-02 -2.20567003e-01 +4.32994589e-02 -1.99653227e-02 -2.27412641e-01 +1.57367848e-02 -9.65278503e-03 -1.06093884e-02 +3.99628654e-02 -3.25012766e-03 +1.53162941e-01 -1.33738592e-01 -3.91304828e-02 +2.00352252e-01 +3.41178656e-01 -1.54369041e-01 +1.12392619e-01 +5.71819656e-02 -9.25172679e-03 +9.92587581e-02 +8.59792065e-03 +1.43240631e-01 -1.71557516e-01 -2.71345019e-01 +1.01814698e-02 -5.35670891e-02 -1.28215030e-01 -9.14216638e-02 -9.63806435e-02 +8.74881521e-02 +7.02419803e-02 -2.63908207e-01 -9.12024900e-02 +1.65232509e-01 -5.93417287e-02 -4.01192233e-02 +1.87013611e-01 -7.01076090e-02 -6.97771087e-02 +2.02402979e-01 +3.27683277e-02 +2.21924558e-01 -8.91145901e-05 -1.05365165e-01 +6.44018725e-02 -2.06514388e-01 -3.25613320e-02 -7.42510613e-03 -8.01510178e-03 -1.03271849e-01 +2.57214934e-01 -3.17058489e-02 +9.53383073e-02 +9.90336239e-02 -1.71013385e-01 -9.39545780e-03 +5.05125038e-02 -1.22946382e-01 -3.86817873e-01 -1.02691293e-01 -2.02293292e-01 +4.99646552e-02 +3.32629949e-01 -1.75841853e-01 +3.48249190e-02 +4.27311361e-02 +1.97081700e-01 +1.12862393e-01 +6.68378770e-02 +1.44346617e-02 +1.32511422e-01 -2.45429710e-01 +1.41593799e-01 +1.02622490e-02 +1.64966658e-01 -2.33474776e-01 +1.62791669e-01 +1.88683391e-01 -5.08885831e-02 +1.70549918e-02 +2.95060098e-01 +8.83410871e-02 +2.14044705e-01 +8.99064988e-02 -1.28531894e-02 +6.24991357e-02 +9.36138853e-02 -6.10407218e-02 +5.08913577e-01 +2.09425405e-01 -1.54484197e-01 -1.69218346e-01 -3.79443467e-02 +1.74582765e-01 +1.82735488e-01 -2.20546480e-02 -1.00747369e-01 -1.91694219e-02 -3.10359728e-02 +2.15870798e-01 +9.46720019e-02 -2.21756756e-01 -2.38757133e-01 -1.50847614e-01 -1.17531046e-01 -2.00444177e-01 -3.43907207e-01 -1.44282877e-01 -1.30479842e-01 -2.60071337e-01 -3.06131899e-01 -2.85191298e-01 -1.77687764e-01 -2.95621037e-01 -5.20898342e-01 -3.71303231e-01 -1.97833300e-01 -1.60415232e-01 -1.14350177e-01 -8.56585875e-02 -4.25277472e-01 -8.40141177e-02 -1.88732609e-01 -3.14334154e-01 -9.93018821e-02 -3.25009555e-01 -2.37770543e-01 -2.84039140e-01 -1.74819946e-01 -1.41527250e-01 -7.96066299e-02 -1.65871307e-01 -1.75332710e-01 -7.02023655e-02 -1.36012927e-01 -2.22665772e-01 -3.05652320e-01 -2.59625226e-01 -2.15927914e-01 +3.90501097e-02 -2.58304924e-01 -3.20564002e-01 -2.09128037e-01 -1.50433972e-01 -3.42062473e-01 -2.85003930e-01 -9.70683694e-02 -1.13205895e-01 -2.35364512e-01 -3.98374796e-01 -3.14479955e-02 -2.37721086e-01 -2.00816214e-01 -1.21266849e-01 +4.30088043e-02 -1.49999112e-01 -2.67078280e-01 -4.95647732e-03 -1.95838928e-01 +2.70266156e-03 -2.44502872e-01 -2.99810052e-01 +4.10725502e-03 -2.80358881e-01 -2.85415977e-01 +4.60487485e-01 +1.81851536e-02 +1.02693170e-01 +2.05289319e-01 +3.06189448e-01 +1.33866489e-01 +2.07449824e-01 +2.49576390e-01 +2.93278486e-01 +2.96967417e-01 -1.60144307e-02 +2.26611659e-01 +4.26720619e-01 +1.70928389e-01 +3.45709436e-02 +4.51332510e-01 +1.93222493e-01 +1.21555209e-01 +1.41234919e-01 +2.75507152e-01 +2.78543442e-01 +1.00346752e-01 +1.58269033e-01 +4.44482893e-01 +4.35539009e-03 +1.78082302e-01 +4.43021476e-01 +5.33712745e-01 +3.48912835e-01 +3.28782797e-01 +2.93712884e-01 +1.04264282e-01 +1.67843029e-01 +2.58590162e-01 +9.53542367e-02 +1.28139779e-01 +4.74205732e-01 +2.42047116e-01 +3.03932369e-01 +3.05982709e-01 +2.68832713e-01 +2.62353927e-01 +1.31097898e-01 +1.75859362e-01 +1.00310646e-01 +5.26197970e-01 +7.14429244e-02 +1.88929468e-01 +1.97683036e-01 +1.26496851e-01 +3.69737655e-01 +2.43522823e-01 +2.53025502e-01 +4.83026415e-01 +3.61456186e-01 +2.43789881e-01 +2.38681734e-01 +3.13170373e-01 +1.77419528e-01 +3.36567797e-02 +2.35285714e-01 +1.24719672e-01 +1.14200480e-01 +2.80711740e-01 +2.06691802e-01 +1.67190894e-01 +2.84070849e-01 +1.43699855e-01 +2.04124480e-01 +1.29547894e-01 +1.04381517e-02 +3.80452126e-02 +5.57810850e-02 +4.56350483e-02 +1.61010459e-01 +2.31532037e-01 -7.26191886e-03 +2.14220956e-01 -7.15737883e-03 +2.71585554e-01 +1.33551657e-01 -1.99861508e-02 -1.14834949e-01 -7.68058281e-03 +2.29058102e-01 -2.04425212e-02 +1.84395373e-01 +1.94856897e-01 -4.41418812e-02 +2.18581557e-01 +9.52549502e-02 +2.03083202e-01 +3.23841572e-01 +1.35095417e-01 -1.31361350e-01 +2.44798288e-01 +7.29430243e-02 +3.03674042e-02 +1.85344189e-01 +1.28500819e-01 -6.15579002e-02 +2.19211265e-01 +1.48224607e-01 +6.72767386e-02 +1.07081175e-01 +2.83105403e-01 +2.90641904e-01 +1.01271294e-01 +2.56320536e-01 +2.67705262e-01 +1.85418293e-01 +1.49789438e-01 +2.82365773e-02 +1.53957382e-01 +2.19182856e-02 +1.01504803e-01 +3.43897164e-01 +9.99270827e-02 +1.87428221e-02 -1.64535061e-01 +1.24554813e-01 -9.08964276e-02 +4.85348590e-02 +6.68453202e-02 +6.17902949e-02 +1.20472908e-01 -7.45616257e-02 -2.18205348e-01 +8.76978934e-02 +5.00149652e-03 -1.11245982e-01 +3.16363424e-02 -3.59996855e-01 +6.67091832e-02 +8.68374854e-02 -7.83210397e-02 -2.68225875e-02 +1.62695035e-01 -2.36088395e-01 -9.45342332e-02 +1.49140945e-02 +2.81347763e-02 -2.13498652e-01 -2.00662941e-01 -1.99571718e-02 -8.57320130e-02 -2.70058900e-01 -1.55047551e-02 -1.88176319e-01 -1.51055843e-01 -1.16979042e-02 +1.49969682e-01 +1.77870348e-01 -2.25847036e-01 -1.06974514e-02 -1.94812804e-01 -2.71169655e-02 +1.41186863e-01 -4.90755588e-02 +3.26669626e-02 -9.44608003e-02 -1.38823852e-01 -7.31061101e-02 +1.12598687e-02 +2.37345293e-01 +7.71162957e-02 +1.24967791e-01 +5.73204979e-02 -5.37440404e-02 +6.05967874e-03 +1.14788488e-01 +2.23750379e-02 -2.14748263e-01 -1.63455367e-01 +8.91228169e-02 -3.06805640e-01 +4.58562300e-02 -2.11249754e-01 +2.07355350e-01 -1.24498762e-01 -2.77918540e-02 +1.30744189e-01 -1.03881158e-01 +1.03327088e-01 -4.31345999e-02 -4.49521318e-02 -1.63703747e-02 +1.80073023e-01 -6.72469437e-02 -1.02085292e-01 -6.30581528e-02 -2.37304531e-03 +8.21427256e-02 +9.60762724e-02 +1.00671597e-01 +8.44447389e-02 +3.54628146e-01 +1.77013094e-03 +6.56381324e-02 +1.80104733e-01 +1.66433603e-01 +8.02614912e-02 +2.43206501e-01 -5.99900186e-02 +3.00049812e-01 +3.89878869e-01 +1.93812296e-01 +2.71596491e-01 +1.91203356e-01 +3.09749898e-02 +5.24562523e-02 +1.71410725e-01 +1.99642435e-01 +2.26424575e-01 +1.70538604e-01 +2.37168763e-02 +2.42799312e-01 +2.61450768e-01 +4.63413060e-01 +2.78617591e-01 +1.53148770e-01 +1.27133861e-01 +1.34069562e-01 +1.25316873e-01 +5.49038723e-02 -1.07971959e-01 +2.86151618e-01 +1.28715321e-01 +9.42412950e-03 +6.76270872e-02 +9.18387100e-02 +2.75774449e-01 +1.04530714e-01 -3.74384504e-03 +1.14315070e-01 +1.23323172e-01 -6.46264553e-02 -4.67783883e-02 +1.18807472e-01 +3.55631858e-01 +2.37077147e-01 +3.16939726e-02 +7.24118799e-02 +4.66785803e-02 +3.46742496e-02 +1.36169061e-01 +2.34277129e-01 +4.64845113e-02 -1.85758639e-02 +3.04870129e-01 +2.16657072e-02 +2.23771289e-01 +5.05866706e-02 +2.58776378e-02 +2.30992362e-01 -1.37925237e-01 -6.10131212e-02 -4.06323045e-01 -1.87629163e-01 -2.55290985e-01 -3.04184020e-01 +3.52582708e-02 -6.11620620e-02 -4.70772497e-02 -4.73357104e-02 -9.87662375e-02 -3.43175799e-01 -1.53229371e-01 -1.15586936e-01 -9.26036611e-02 -3.19905430e-02 -1.97775573e-01 -2.36271828e-01 +9.28134620e-02 +1.04798684e-02 -1.27577558e-01 -1.64126694e-01 -1.44874901e-01 -1.34822428e-01 -1.77693322e-01 -8.86088908e-02 -7.29402304e-02 +6.79427087e-02 -1.17377080e-01 -3.51311155e-02 +4.41287160e-02 -2.08417729e-01 -5.22361360e-02 -2.62336954e-02 -2.48046666e-01 -2.40051746e-02 -2.41077691e-02 -1.44802198e-01 -2.39225030e-01 -8.95736217e-02 +8.19504708e-02 -4.05318327e-02 -1.36333928e-01 -4.24419120e-02 -3.81043702e-02 -2.03743905e-01 -1.76090062e-01 -1.26910791e-01 -3.48027907e-02 -1.44326091e-01 -1.24421306e-01 -2.45591208e-01 +1.35651276e-01 +1.01222642e-01 -1.47050828e-01 +1.19246535e-01 +1.36186993e-02 -6.05554320e-02 -1.57532111e-01 -1.73054829e-01 +2.34240934e-01 -3.33052762e-02 -1.63105894e-02 -2.59676483e-03 -1.01316564e-01 -4.60568219e-02 -1.79230869e-01 -6.57299012e-02 -1.40180707e-01 -3.54284525e-01 +1.11937806e-01 -8.76060724e-02 +1.05422623e-01 +5.28007671e-02 -2.62878165e-02 +8.23314413e-02 -1.22587070e-01 -1.05022900e-01 +1.73182064e-03 +2.22171739e-01 -1.15812764e-01 -1.76270097e-01 +8.07943791e-02 +1.22032590e-01 +1.15737483e-01 -1.71135664e-01 +3.87123376e-01 -1.19756125e-01 +4.54144999e-02 -2.60461234e-02 -6.14952706e-02 +2.39546657e-01 -1.16755843e-01 -1.31078526e-01 +3.45037691e-02 -1.09066643e-01 -6.24061786e-02 +1.18446574e-01 -2.71710068e-01 +1.96588822e-02 +4.86074947e-02 -7.81931682e-04 +1.72048192e-02 +2.51454096e-02 +1.63166478e-01 -2.69674450e-01 -2.67022729e-01 -4.94417548e-02 +4.13028188e-02 -1.46067291e-01 -3.41912895e-01 -8.33364725e-02 -2.20086992e-01 -1.76727578e-01 +8.07151124e-02 -1.61984488e-01 +1.69387683e-01 -1.79316610e-01 -5.70959970e-02 +3.12785923e-01 +1.91435903e-01 +1.58354983e-01 -4.69579622e-02 -1.10078745e-01 -2.03972049e-02 -2.21801605e-02 -1.53033644e-01 -1.63601056e-01 -1.08523987e-01 -8.26105103e-02 -2.24143982e-01 -2.26757854e-01 -1.01172209e-01 +9.97686163e-02 -6.85751736e-02 +5.51378122e-03 +6.21419661e-02 -2.08478302e-01 +5.81881329e-02 +1.20432295e-01 +8.25435668e-02 -8.53490680e-02 -3.45829986e-02 +1.58092678e-01 -1.46172225e-01 -1.12547837e-01 +1.24831654e-01 -1.35224164e-01 -4.58165377e-01 +4.53893766e-02 +1.56420439e-01 -1.33297995e-01 +1.34782910e-01 -1.57966882e-01 -4.54666615e-01 +3.99168044e-01 -1.09731853e-01 +3.98945481e-01 -2.42647063e-02 +1.61513746e-01 +2.83421427e-01 +8.97023529e-02 +2.68988937e-01 +9.52922553e-02 +8.79063606e-02 -1.58813089e-01 -1.61106363e-01 -2.33225659e-01 -2.69119471e-01 +3.38241994e-01 -3.18723917e-01 -2.52757847e-01 +5.61047681e-02 +3.05533856e-02 -1.63198978e-01 +7.55607635e-02 -1.07695200e-01 -1.36792749e-01 -1.45179391e-01 +1.65433332e-01 -3.27981174e-01 +6.84305057e-02 +1.86122864e-01 -3.70645225e-02 +1.81455892e-02 -9.43856537e-02 -1.92345574e-01 -9.19401739e-03 +1.56893417e-01 -3.52938563e-01 -2.31580168e-01 -1.99689180e-01 +7.23005682e-02 -3.15351039e-01 -1.29817531e-01 -7.84440413e-02 -2.54375249e-01 -2.25667387e-01 -2.45265260e-01 +1.25578657e-01 -4.73838121e-01 -1.16980225e-01 -2.03150541e-01 +9.11216885e-02 +6.63555935e-02 -3.66857611e-02 -6.89215586e-02 -3.62228334e-01 +2.38837227e-02 -1.38919324e-01 -7.79766738e-02 -1.25622436e-01 -8.55244622e-02 -1.25087172e-01 +7.69175515e-02 -1.39574081e-01 -1.80791125e-01 -9.69485566e-02 +5.38869090e-02 -2.48330310e-01 -1.00152060e-01 -2.88902014e-01 -2.45234996e-01 -1.47195652e-01 -4.59649041e-03 -2.11453885e-02 +8.40256438e-02 -2.15194732e-01 -1.92811772e-01 +4.88550924e-02 -2.20252007e-01 -1.72686055e-01 -1.47427797e-01 +4.76944819e-02 -3.03251624e-01 -1.42488644e-01 -1.48163224e-02 +1.95775554e-01 -2.25587651e-01 +2.13089362e-01 -3.70299779e-02 -2.62441218e-01 -1.26491133e-02 -1.47418723e-01 -4.93922345e-02 +1.13932148e-01 +4.17624116e-02 -2.19816193e-01 +1.64238587e-02 -2.87379742e-01 -6.80646449e-02 -1.51053995e-01 -1.28515393e-01 -2.67888047e-02 -1.25919387e-01 -3.36006314e-01 -8.44602734e-02 -2.81750828e-01 -4.03174572e-02 +2.25686971e-02 -1.29703000e-01 +2.46359527e-01 -1.50515109e-01 +1.47145569e-01 -2.05905780e-01 +1.57672659e-01 +2.51231696e-02 -5.39593697e-02 +8.21730867e-02 +9.97176990e-02 +1.73123240e-01 -1.07722968e-01 -8.61547068e-02 -1.67014636e-02 -2.87484080e-02 +7.54439384e-02 -6.11574240e-02 +1.32968009e-01 +3.28801051e-02 -3.65335867e-03 -2.69121379e-02 +1.49491236e-01 +1.46898046e-01 -3.34701955e-01 -7.63312504e-02 +3.51686729e-03 -5.42202815e-02 +1.88277441e-03 +1.14256665e-01 -1.07034585e-02 +1.97659373e-01 -8.00584927e-02 +2.67101675e-01 +1.91386342e-02 -4.87752557e-02 -1.34398594e-01 -3.98295879e-01 +1.84260234e-01 +1.18596099e-01 -2.28508726e-01 -1.14224285e-01 +9.60987583e-02 +1.29965518e-03 +9.34509635e-02 -2.48854551e-02 +1.01337135e-01 -2.36449018e-01 -4.61769029e-02 -1.92039743e-01 +8.90409425e-02 -1.71328545e-01 -2.50424951e-01 +7.11886287e-02 -2.23555285e-02 +1.04752958e-01 -1.12700365e-01 -3.61407787e-01 -2.47456990e-02 -5.68664111e-02 -2.72276372e-01 -2.48110026e-01 -2.72367567e-01 +2.08326466e-02 +1.03703946e-01 -1.21088780e-01 +3.07724357e-01 -2.54196614e-01 +2.01071650e-01 -5.74813604e-01 -5.46803959e-02 -2.17737436e-01 +1.11096829e-01 +9.66704041e-02 -5.13614565e-02 -2.82072462e-02 -3.95894498e-02 -1.14920534e-01 -7.34482855e-02 -1.80155694e-01 -2.29122281e-01 -1.20868996e-01 -2.89684571e-02 -2.67600089e-01 -1.34322613e-01 -1.31160080e-01 +1.33808210e-01 +2.43407741e-01 -5.25774062e-01 -1.28448844e-01 -1.91681221e-01 -2.06282269e-02 -2.34635755e-01 +2.07409821e-02 -9.80971754e-02 -8.16281065e-02 -6.59091352e-03 +1.20326377e-01 -1.30361328e-02 -1.77777946e-01 -3.38571101e-01 -2.14378640e-01 +1.38909847e-01 +7.15196952e-02 +1.78045668e-02 -2.31295582e-02 +7.90047124e-02 -1.44368097e-01 +6.36238977e-02 +1.65873561e-02 -1.05753343e-03 -8.90569612e-02 -1.73006013e-01 -3.42108786e-01 -1.89048215e-03 -3.22781086e-01 -3.91231179e-01 -2.20507696e-01 -2.49305844e-01 -1.62341252e-01 -9.25551951e-02 -2.27010936e-01 +7.57817701e-02 -4.53182943e-02 -1.48201898e-01 -2.20790520e-01 -2.80912787e-01 -1.51333719e-01 +6.08956441e-02 +2.02528805e-01 -1.06706232e-01 -1.79061800e-01 -1.95621058e-01 -8.58418122e-02 -3.39923203e-01 -1.36069149e-01 +6.53991178e-02 -1.92790464e-01 +1.70549572e-01 +1.73921660e-01 -1.04391336e-01 +3.87986273e-01 +9.38000903e-02 -1.67172343e-01 -2.66834404e-02 -1.07611723e-01 -3.45514938e-02 -2.90774137e-01 -1.27963707e-01 +2.18291238e-01 -1.07470326e-01 -5.72886690e-02 -2.72604913e-01 +9.11367759e-02 +1.59356534e-01 +1.82846278e-01 -7.09210634e-02 +2.30699569e-01 +1.01986453e-01 -2.69030392e-01 -1.75983667e-01 +2.34983340e-01 +1.32518202e-01 +1.58406779e-01 -1.45682052e-01 -1.56694967e-02 +2.84446239e-01 +1.78236067e-01 -1.01528667e-01 +1.87873736e-01 +2.10600019e-01 -1.20802090e-01 +1.40141353e-01 -2.41030939e-03 -1.52725413e-01 -6.93879277e-02 -2.02739790e-01 +1.69698775e-01 +8.75747725e-02 -8.65808800e-02 -2.12626774e-02 -3.44602913e-02 +2.56312042e-02 +2.34044179e-01 -3.05374544e-02 +2.02386186e-01 +3.25523704e-01 -6.86682910e-02 +2.01704130e-01 -6.10017031e-03 -2.13833787e-02 +1.99718401e-01 -8.17570761e-02 -4.86867614e-02 +5.51680103e-02 +1.60093084e-01 +3.15528214e-02 +1.93135627e-02 +2.35635936e-01 +1.16897203e-01 +2.68052459e-01 +2.82833040e-01 -3.54031217e-03 +5.08294106e-01 +5.43190166e-02 -9.81836915e-02 +2.20589980e-01 +1.00222282e-01 -1.06544502e-01 -1.28705762e-02 +9.26183686e-02 -1.57585815e-01 +2.47609138e-01 +8.62630308e-02 +4.99268472e-02 +2.97025621e-01 +1.25704899e-01 +1.11634694e-02 -9.10030529e-02 +6.21894635e-02 +9.37227085e-02 +1.62322178e-01 -2.37215143e-02 +8.33179429e-02 +1.73374146e-01 +9.21331123e-02 +1.50947452e-01 +1.70049910e-02 +6.74630469e-03 -1.23148687e-01 +1.79867581e-01 +2.53577590e-01 +5.82306609e-02 -1.63237900e-01 +2.53789753e-01 +4.01351973e-03 +1.96233958e-01 +2.45400041e-01 +2.53857493e-01 -5.07456576e-03 -5.10011753e-03 +6.05465882e-02 +2.69882768e-01 +2.37149104e-01 +4.71475758e-02 -5.97735262e-03 -4.00325842e-02 +3.51109833e-01 +3.65501381e-02 +3.39864343e-01 +1.72662750e-01 +1.29511639e-01 -7.65822129e-03 -3.35370600e-02 -2.42701933e-01 -7.87607953e-02 -1.93962872e-01 -3.16627473e-01 -4.64757234e-02 -9.35041159e-02 -4.60974097e-01 -9.21291485e-02 -3.08006387e-02 -6.38639778e-02 -8.28854814e-02 +9.07366257e-03 -1.08615711e-01 -6.65451810e-02 -8.67247656e-02 -5.45329571e-01 -3.14785302e-01 -1.60881892e-01 -1.85972154e-01 +6.60681445e-03 -1.79298043e-01 -1.01910077e-01 +7.35753253e-02 -4.99709398e-01 -3.49741429e-01 -5.83234290e-03 -2.03976221e-02 -4.12727267e-01 -3.27111214e-01 -1.89738661e-01 -4.87671882e-01 -3.18160266e-01 -4.04235274e-01 -1.52979761e-01 -1.76860690e-01 +3.81458588e-02 -4.61584240e-01 -1.01781137e-01 -2.45239809e-01 -1.76517531e-01 -1.03797570e-01 -3.26780349e-01 -4.30485681e-02 -8.29000697e-02 -5.31469621e-02 -5.24496257e-01 -1.35659292e-01 -1.59816578e-01 -2.23928854e-01 -4.37283814e-01 -2.32721686e-01 +8.11231956e-02 -2.63215631e-01 -1.82778910e-02 +5.43513373e-02 -3.10976863e-01 -2.99926281e-01 -8.17002356e-02 -1.71972319e-01 +2.94320043e-02 +8.66886824e-02 -2.67731994e-01 -1.52642488e-01 -2.56222725e-01 -1.04139571e-03 -3.13866101e-02 -1.90375745e-01 -2.29304805e-01 -3.42395976e-02 +3.59079354e-02 -2.30067641e-01 -1.54206693e-01 +9.88966972e-02 +1.00107200e-01 -1.41177461e-01 -1.21385358e-01 -2.96779666e-02 +1.13985859e-01 +4.10099030e-02 -3.97714764e-01 -1.19839288e-01 +2.53500223e-01 -7.70097449e-02 -1.59995705e-01 -1.62473470e-01 +1.17091022e-01 -7.04173744e-02 -2.92618215e-01 +1.29175093e-03 +9.48031899e-03 -2.02665880e-01 -1.16885722e-01 -9.89611000e-02 +3.23566236e-02 -3.21828753e-01 -2.29303643e-01 -1.83634296e-01 -5.26046976e-02 -9.30536315e-02 +7.14382306e-02 -1.38515383e-01 +7.22773895e-02 -1.26668587e-01 -4.77547683e-02 -3.90781537e-02 -2.65778601e-01 -1.02888413e-01 -9.76402014e-02 -1.48896873e-01 -4.23413247e-01 -6.41062334e-02 -1.84260383e-01 -2.64306039e-01 +3.04533932e-02 -1.88719198e-01 -8.66691619e-02 -1.47810161e-01 +4.84472141e-02 +2.00093254e-01 -9.10929069e-02 -1.86954409e-01 -6.01425134e-02 -3.00256401e-01 +1.80851147e-01 +6.55328631e-02 -4.02362756e-02 -6.99946806e-02 -2.22548395e-01 -4.37140130e-02 -6.42888770e-02 -1.43153369e-01 +1.57619029e-01 +3.30043286e-02 -9.76367369e-02 +1.85727142e-02 -1.19296737e-01 +1.55923665e-02 -1.00240745e-01 +7.25812018e-02 +1.16217248e-02 +1.94656085e-02 +3.49006318e-02 -1.27327919e-01 -1.22935943e-01 +2.74597127e-02 +1.15063200e-02 +9.15252417e-03 -1.67214826e-01 -2.06857696e-02 +2.23298538e-02 -1.86880201e-01 -3.18027884e-02 -1.31816640e-01 -2.80359954e-01 +2.67579734e-01 -2.58326560e-01 +3.22761416e-01 +2.41396412e-01 -7.92513043e-02 +2.37413779e-01 +3.98504212e-02 +3.14067453e-02 -1.17269315e-01 -2.20011130e-01 -3.09572518e-01 +3.25179577e-01 -2.61902958e-01 +7.80781657e-02 +1.75014094e-01 +3.20215374e-01 -2.58873433e-01 +1.38608187e-01 -8.24954063e-02 -8.81099403e-02 -9.29067060e-02 -3.33313122e-02 -1.46896578e-03 +2.43841544e-01 +4.11911532e-02 -1.35540441e-01 -1.35394469e-01 +2.32278213e-01 +4.61441325e-03 -1.42004490e-01 +8.06389600e-02 -8.08607042e-02 -1.68380484e-01 +3.37678522e-01 -1.94268599e-01 +1.24213725e-01 -1.46474121e-02 +3.64998244e-02 +8.25076327e-02 +6.40263259e-02 +1.00155875e-01 +5.18058650e-02 +1.61655340e-03 +5.23490123e-02 -2.08267152e-01 +8.10991321e-03 -3.78527194e-02 -9.40250382e-02 +6.66727424e-02 -2.01486737e-01 -4.40876782e-02 -1.05894528e-01 +6.09367751e-02 -1.22884899e-01 +1.39199376e-01 +9.80722383e-02 +3.61714177e-02 -1.76719561e-01 -1.86285637e-02 -6.46553859e-02 -1.57177281e-02 +9.26360935e-02 +4.63589886e-03 -1.68772012e-01 -2.84738898e-01 +1.07537456e-01 -1.52726442e-01 -1.78619280e-01 +6.27629310e-02 +1.41637167e-03 +2.05902874e-01 +1.33010328e-01 +8.29036832e-02 +4.61136997e-02 -1.23142332e-01 -1.08730726e-01 +1.78571716e-02 -1.59541219e-01 +1.45012289e-01 +2.84876935e-02 +6.36930391e-02 +5.22354282e-02 -1.12035841e-01 -5.01821041e-02 +3.54983285e-02 +1.30631447e-01 -8.84364545e-03 -7.53028551e-03 -8.85651559e-02 -3.29555944e-02 -1.46986753e-01 -6.02168255e-02 +7.86436126e-02 -2.31034011e-02 -1.35750085e-01 +1.99919105e-01 -3.51864919e-02 +1.27567887e-01 +2.04853155e-02 -1.09269500e-01 -1.19746864e-01 -9.94184054e-03 +1.18831791e-01 +2.13036817e-02 -2.68658429e-01 -1.21733323e-02 -2.29642838e-02 -9.19589475e-02 -1.51060671e-01 +2.15859730e-02 -2.51310825e-01 -2.73440510e-01 -3.95200811e-02 -8.88753608e-02 -7.54192844e-02 -1.13816857e-01 -6.82886764e-02 -9.23061296e-02 -8.85562450e-02 -1.62561789e-01 -1.36147320e-01 +4.44690250e-02 +7.41390325e-03 +8.47749263e-02 -1.73486307e-01 -2.99915612e-01 -1.12957031e-01 -1.72543213e-01 -2.72219360e-01 -8.21489319e-02 +4.41606380e-02 -3.26766819e-01 -2.95901626e-01 -2.23844588e-01 -1.25839889e-01 +9.80814546e-02 -2.20810786e-01 -8.37091058e-02 -1.59456730e-01 -3.71742278e-01 -1.42702712e-02 -8.75853449e-02 -3.56810838e-02 -4.03174698e-01 -6.45041838e-02 +3.06641050e-02 -1.29474655e-01 -1.14481924e-02 -3.19839388e-01 -1.21355161e-01 -1.62066780e-02 -1.87110081e-01 -2.87959754e-01 -9.53544825e-02 -1.51133686e-01 -5.76493442e-02 -3.27921271e-01 -5.99129796e-02 -1.15142919e-01 -2.20000669e-01 -6.39951751e-02 +2.92524844e-01 -2.52447873e-01 -1.59664154e-01 +2.52628047e-02 +1.20772384e-01 -5.93682230e-02 -1.55611381e-01 -2.72829264e-01 -7.18832910e-02 -2.93326735e-01 -2.08982136e-02 -2.92810827e-01 -1.10825405e-01 -2.24594846e-01 -1.87798560e-01 -7.64840022e-02 -2.05639169e-01 -1.44723117e-01 -1.47342667e-01 -5.78238256e-02 -1.22004777e-01 +1.25866309e-02 -1.00173093e-01 -8.45275000e-02 -1.44814715e-01 +5.67549132e-02 -3.48731071e-01 -1.29276305e-01 -1.34793475e-01 -2.07386270e-01 -1.94758743e-01 -3.66113901e-01 -5.92720211e-02 -3.22386444e-01 -2.57740855e-01 +1.26331765e-02 +2.04776432e-02 -1.39980063e-01 -1.45612419e-01 -2.19222203e-01 -1.61754891e-01 -3.86828214e-01 -3.87501985e-01 -9.11744032e-03 -3.51749092e-01 -1.37478560e-01 -3.13658148e-01 -2.94411272e-01 -1.84462920e-01 -2.94893831e-01 -3.22622806e-01 -2.05024913e-01 -2.69269347e-01 -2.73099926e-04 -3.61289680e-01 -3.56423229e-01 -3.06631178e-01 -2.09280923e-01 -1.54188693e-01 -3.27259362e-01 -2.73795635e-01 -3.33921671e-01 -6.80446103e-02 -2.19188020e-01 -2.72238236e-02 -1.22953191e-01 -3.15764427e-01 -2.83862352e-01 -1.78123221e-01 +6.82926401e-02 -3.52210611e-01 +6.68819845e-02 +1.87875241e-01 -4.90897754e-03 +9.94336680e-02 +7.07948953e-02 -1.40114456e-01 +2.42339820e-01 -6.70977868e-03 -3.51401754e-02 +1.87712267e-01 +1.94779411e-01 -2.58227080e-01 +1.88517079e-01 +4.31345880e-01 +1.94347978e-01 -3.58978570e-01 +3.71917076e-02 +3.27036887e-01 -1.19223170e-01 +1.45810852e-02 +3.94111395e-01 -2.37289499e-02 +9.14705172e-02 +9.74604040e-02 -4.30170268e-01 -1.15489773e-01 -2.24625349e-01 -2.47920770e-02 -2.45292529e-01 -1.71653181e-01 -9.06254426e-02 -4.03078824e-01 +1.94576934e-01 +5.70991561e-02 +3.84476036e-01 -9.93129052e-03 +1.76601425e-01 -1.06570544e-02 -3.55335057e-01 +2.95055062e-01 -1.35270119e-01 +2.07782492e-01 -9.04835835e-02 -2.10935324e-01 -2.16364153e-02 -1.48215503e-01 -5.70614398e-01 -1.20989159e-01 +5.19777052e-02 +2.71480501e-01 -2.02205226e-01 -5.49829006e-03 -1.36132792e-01 +4.90268245e-02 +7.60531127e-02 -1.02997646e-01 +1.41126767e-01 +2.24330425e-02 +2.40695700e-01 -2.98867431e-02 -3.13533880e-02 +6.21891394e-02 -1.21849142e-01 -1.96872860e-01 -2.68044412e-01 +5.63273914e-02 +2.10800901e-01 -3.60200591e-02 -8.40458721e-02 +1.13569088e-01 -2.05787316e-01 -2.23252848e-01 -1.89329579e-01 -4.57857773e-02 -1.97405964e-01 -1.84310719e-01 -1.91131048e-02 -5.73631339e-02 -1.20011002e-01 +1.70998082e-01 -1.27296075e-01 -1.86568976e-03 -2.88630784e-01 -3.47322598e-02 -5.22038676e-02 -8.35487843e-02 -3.71623874e-01 +6.48779944e-02 +2.67802812e-02 -9.94877368e-02 -1.31802484e-01 +3.95408943e-02 -2.73449600e-01 -3.50815594e-01 -7.48693347e-02 -1.69145942e-01 -1.06416129e-01 -5.59645407e-02 -1.72389537e-01 +2.48711146e-02 +2.24446971e-02 -3.22424807e-02 +5.58364317e-02 -1.44639060e-01 -4.34646383e-02 -9.37880725e-02 -1.67560607e-01 -7.25582987e-02 -1.55353859e-01 -2.04445198e-01 -2.76517302e-01 +8.04493204e-02 -4.98371199e-02 -1.08013451e-01 -1.41002908e-01 -2.99779922e-01 -1.71904802e-01 -8.29387605e-02 -2.19707474e-01 +7.88732152e-03 -2.56384667e-02 -2.78829098e-01 -6.77460283e-02 -2.39500910e-01 -1.59788489e-01 -2.69181337e-02 -7.23669156e-02 -1.39742121e-01 +2.46515006e-01 -7.29099065e-02 -3.65355462e-02 +3.12392712e-02 -1.20755531e-01 -1.93012267e-01 -2.94844899e-03 -3.64939794e-02 +1.21505391e-02 +1.73265621e-01 -1.26411274e-01 +1.47362530e-01 -7.60700777e-02 +2.16139220e-02 -1.40426099e-01 -2.42732003e-01 +4.84820716e-02 -7.52698490e-03 -2.64764935e-01 +1.66758448e-01 -2.20404387e-01 -6.00599386e-02 -1.09416880e-01 -1.82238877e-01 -1.02224723e-01 -2.46881366e-01 +4.75531556e-02 -1.00983880e-01 -1.71425328e-01 -4.15847957e-01 -4.76096839e-01 -9.24992468e-03 -1.05424926e-01 +1.00323044e-01 -2.38831460e-01 