#Parameter# /UniLSTMSeqTransducer-882412e2/_0 {512,256} 2097153 ZERO_GRAD
-2.07614303e-02 -1.28147453e-01 -2.42658164e-02 +9.49284509e-02 -2.05455199e-02 +2.20390290e-01 +2.24211782e-01 -3.89536582e-02 +1.86593514e-02 +1.16514392e-01 +6.15939908e-02 +1.52501643e-01 +4.61560115e-03 +2.44355783e-01 +1.44998115e-02 +5.48671931e-02 -5.91414720e-02 +3.33781064e-01 -1.12483263e-01 +1.85197040e-01 +1.00821882e-01 -2.79047012e-01 +2.03729719e-01 +1.17848918e-01 +1.08150594e-01 -7.57902488e-02 +9.97463167e-02 -5.86527539e-03 +1.71821296e-01 +5.93624637e-02 +6.74588606e-02 +1.84585422e-01 -4.30809297e-02 +6.46473542e-02 -1.03464961e-01 +1.63948983e-01 -1.32385924e-01 +5.56475222e-02 -1.08093753e-01 -4.23773099e-03 -5.19307889e-02 +3.11859436e-02 +2.80662596e-01 -1.10750251e-01 -2.06104778e-02 +1.25822434e-02 +2.81394809e-01 -1.63231626e-01 +5.00196218e-02 +7.28333369e-02 -1.27592281e-01 +2.28724014e-02 -2.01162964e-01 -1.97907463e-02 +3.39105017e-02 +6.90803826e-02 +1.00589143e-02 +9.84239578e-02 +1.24453552e-01 -1.82747260e-01 -1.02267098e-02 +9.26201418e-02 -5.54974452e-02 +3.03505105e-03 +6.68694600e-02 +1.03020273e-01 -6.53753951e-02 -7.70475790e-02 -1.28822140e-02 -7.71977380e-02 +7.59228468e-02 +2.00256094e-01 +2.04348356e-01 -7.13660568e-02 +1.73497632e-01 +2.66836196e-01 +1.61068529e-01 +2.74847336e-02 +2.65815929e-02 -6.49884194e-02 +4.15752262e-01 -1.59490049e-01 -1.11558631e-01 -2.28509322e-01 -1.31611913e-01 +4.95966487e-02 -8.25131610e-02 -2.13562816e-01 -2.04042152e-01 -3.52292240e-01 -5.78081608e-02 -1.47978395e-01 -1.51019096e-01 +4.93686199e-02 -1.40144527e-01 -1.77523475e-02 +1.58820208e-02 +3.10982496e-01 -1.67140737e-02 +8.38415883e-03 +2.35271886e-01 +9.41861495e-02 +1.63435683e-01 +9.01063010e-02 +1.01985909e-01 -9.81749296e-02 -1.85882412e-02 -5.88862365e-03 +6.85829297e-02 -2.65109502e-02 +1.45214815e-02 -8.53672102e-02 -7.23096803e-02 -9.02849138e-02 -9.03001353e-02 +1.41125739e-01 -8.33076313e-02 -1.35666624e-01 +1.43091992e-01 +1.18785642e-01 +4.15736018e-03 -5.82712889e-02 +8.65998268e-02 +2.97066625e-02 -2.46637892e-02 -5.31347021e-02 +2.89058447e-01 +6.52200729e-02 -1.48933142e-01 -9.06419456e-02 +3.26249003e-02 -7.10955784e-02 +1.90386012e-01 -3.93525884e-02 +1.04071923e-01 -4.76056412e-02 -2.29525976e-02 +9.85693336e-02 +1.09974630e-01 -9.96483192e-02 +3.23283598e-02 -2.64901333e-02 +1.73924014e-01 -4.31912802e-02 -1.29628405e-01 -4.73053567e-02 -1.36747047e-01 -7.79322237e-02 -8.71948078e-02 -3.50117803e-01 -2.21242160e-02 +2.06045344e-01 +1.61501437e-01 -8.90774876e-02 +7.55988881e-02 -3.07814628e-02 +1.60554573e-01 +4.66470458e-02 +9.39475780e-04 +1.12655036e-01 -1.58370007e-02 +3.03393751e-02 +3.00661894e-03 +4.17397730e-02 -7.16943666e-02 +5.33673801e-02 +5.11569269e-02 -6.95286170e-02 +2.84152329e-02 +8.36191475e-02 -2.44798921e-02 +2.86418404e-02 -7.09310398e-02 +2.68414849e-04 +2.08552092e-01 +4.94505353e-02 +9.43870321e-02 -2.86753252e-02 -7.34806806e-02 -5.90577722e-02 -2.08928883e-01 -6.06457949e-01 +1.33192793e-01 +4.18157578e-02 +6.01217197e-03 +1.36878073e-01 -1.20277002e-01 -1.36155277e-01 +4.32037599e-02 -7.85255581e-02 -5.15452847e-02 +1.23561092e-01 -3.73054552e-03 +5.47062904e-02 -9.22117755e-02 +9.27765667e-02 -1.52232930e-01 +6.59538731e-02 +1.28672808e-01 -8.16616192e-02 +1.51831746e-01 -8.73667188e-03 +1.33568108e-01 -6.65349662e-02 -3.01495809e-02 -2.31100395e-01 -1.51338428e-01 +4.44274582e-02 +3.06070864e-01 -1.43859880e-02 -1.20758638e-01 -1.28364101e-01 +1.03656925e-01 +9.30670798e-02 +1.85883325e-02 -1.69682950e-01 -2.80905217e-02 +2.40733847e-01 +3.51635590e-02 -1.70680493e-01 -1.04456153e-02 +1.20637171e-01 -6.88474476e-02 -7.22677410e-02 +1.79460108e-01 +1.64624512e-01 -9.51366946e-02 +2.74482369e-02 +3.16862538e-02 -1.16069533e-01 +2.04754323e-01 +8.78959447e-02 +1.27125829e-01 +1.79068968e-01 -3.26237939e-02 +3.74913625e-02 +1.09204814e-01 -9.19374228e-02 +1.14436530e-01 -3.18830222e-01 +5.35108265e-04 +1.60457775e-01 +4.15826142e-02 +2.34460235e-01 +4.39271331e-02 +1.56600475e-01 -2.45721807e-04 +8.33602063e-03 -3.49401943e-02 -5.71961738e-02 +5.43242972e-03 -1.00859411e-01 +2.33046226e-02 +4.56964411e-03 -1.05715841e-01 +2.54616104e-02 -3.67972627e-02 +2.59857684e-01 -1.38985708e-01 -2.67631590e-01 +1.05202861e-01 -3.75467278e-02 -2.35479370e-01 +2.58174926e-01 +5.52297235e-01 -2.48166956e-02 -4.83114868e-01 +1.45710364e-01 +1.33138925e-01 +1.46990836e-01 +2.65500814e-01 +2.31641516e-01 -1.44554749e-02 +1.25757158e-01 +2.45175734e-01 +1.75822333e-01 +3.35177928e-01 -7.66983092e-01 +4.59652573e-01 -5.21500468e-01 -3.51622254e-02 -2.97693968e-01 -4.10912544e-01 +5.52790947e-02 +3.62928323e-02 +7.08303526e-02 +3.47513646e-01 +3.77846546e-02 -1.00642540e-01 +2.36126240e-02 +1.52825177e-01 -7.63718858e-02 -4.28314894e-01 -1.40912399e-01 -2.67713424e-02 -2.09667444e-01 +1.54491976e-01 -2.10521087e-01 +5.29457569e-01 -2.71152835e-02 +6.49613664e-02 -2.85868764e-01 -1.29893161e-02 +2.30668020e-02 +5.98701596e-01 -4.23494503e-02 +3.39138210e-02 +1.63964301e-01 -4.38181341e-01 -2.72497814e-02 -1.20027572e-01 -4.04444262e-02 -1.17438957e-01 -2.00668424e-02 -4.66735065e-01 -4.93091106e-01 -1.13214746e-01 +7.59235144e-01 +7.71750361e-02 -6.36863336e-02 -1.63538158e-01 +1.19515270e-01 -6.62572384e-01 +3.02136749e-01 -4.08506900e-01 -6.78049773e-02 +3.59264970e-01 -9.52567235e-02 +6.97764084e-02 -4.96554464e-01 +4.40369360e-02 +1.39040515e-01 +1.13716222e-01 -1.64115340e-01 -2.36120328e-01 +3.90501142e-01 +2.47007921e-01 +3.24600756e-01 +3.90568115e-02 -5.18427253e-01 -1.54782102e-01 -1.87689573e-01 +8.94840285e-02 +1.97838888e-01 -2.80595701e-02 +5.76420454e-03 -2.49566287e-01 -1.44508302e-01 -3.89435631e-03 +1.09113507e-01 -4.68414366e-01 +1.61342263e-01 +3.54208767e-01 -3.62333775e-01 +3.14625531e-01 +1.03840791e-02 -7.27382779e-01 +4.43887822e-02 +8.53249878e-02 +2.59664655e-01 +2.02905551e-01 +1.06299527e-01 -4.55294013e-01 +3.23906317e-02 +3.19003642e-01 +5.01040593e-02 -1.68013483e-01 -5.12394786e-01 -6.17925776e-03 +1.38225123e-01 +1.33803964e-01 -5.65769851e-01 +1.64661594e-02 +9.08848345e-02 -1.12557195e-01 -7.29639903e-02 +5.56854941e-02 -5.36330581e-01 -1.64891869e-01 +5.31913564e-02 -3.53185833e-01 -3.60278726e-01 +1.14486806e-01 +3.58193278e-01 +6.32724538e-02 -6.07597781e-03 -1.06708959e-01 +5.46002425e-02 -1.33409753e-01 +3.15187648e-02 -8.58237520e-02 -9.63283405e-02 -1.05288006e-01 -2.82613523e-02 +3.90956402e-02 +2.24757940e-01 -6.63629919e-02 +1.60056382e-01 +1.05835691e-01 +1.26174456e-02 +1.02608092e-02 +5.80638707e-01 -1.62566841e-01 +6.62512183e-02 -3.69301774e-02 +2.79015243e-01 -1.28116310e-01 -3.91167141e-02 +1.18600905e-01 -3.84665132e-02 -7.26697221e-02 -6.04416579e-02 +1.01566598e-01 +4.80795540e-02 -2.65787356e-02 -6.10496774e-02 +1.02837764e-01 +5.33227436e-02 +8.33403021e-02 +1.24141939e-01 +1.91165917e-02 +1.08771799e-02 +1.01306386e-01 +1.36167929e-01 +1.29340798e-01 -1.03760652e-01 +1.14343222e-02 -2.19677053e-02 +7.29934871e-02 -2.71004699e-02 +4.55894291e-01 +1.92647547e-01 -1.84507202e-02 +1.19330540e-01 +3.79643403e-02 -7.35387653e-02 -1.15835674e-01 -9.07725245e-02 +7.65129998e-02 +2.97883302e-02 +2.19124276e-02 -1.22554317e-01 +5.25251590e-03 +3.22782509e-02 +4.37365510e-02 +1.02347573e-02 +7.64239505e-02 -5.06724119e-02 +1.33608863e-01 +1.47963896e-01 -3.30374140e-04 -4.51345965e-02 +1.28065050e-01 -1.37708202e-01 +1.12894289e-01 -2.39689127e-01 -2.26385351e-02 +3.53585742e-02 -1.40520796e-01 +1.64094940e-01 -5.02023883e-02 +1.73165470e-01 -2.73036808e-01 -1.44706339e-01 -1.04894996e-01 +9.96842980e-02 +4.57188711e-02 -1.19072191e-01 +1.89662233e-01 +2.45591532e-03 -9.55784023e-02 +2.52630979e-01 -2.42124069e-02 +4.03144777e-01 +6.51285723e-02 +3.95685062e-02 +5.90162985e-02 +7.69498721e-02 -2.39870828e-02 +4.75460067e-02 -9.24800932e-02 -2.72429269e-02 +1.04670180e-02 -1.32631823e-01 -6.56234697e-02 -1.67531967e-02 -5.78262173e-02 +1.73236996e-01 -1.26703307e-01 -1.61246967e-03 +6.28315136e-02 -3.17506157e-02 +1.70351956e-02 -3.63934301e-02 -3.42836566e-02 +1.76459998e-01 +1.06766842e-01 -1.42047718e-01 -6.33626804e-02 -9.05290619e-02 -1.18212946e-01 +4.73748073e-02 +2.19222275e-03 +2.77914554e-01 -3.94037366e-03 -2.00915197e-03 -5.93592934e-02 -8.41941386e-02 -6.56355619e-02 -7.73438364e-02 +8.76454040e-02 -3.62023115e-02 +1.26785874e-01 -1.28587872e-01 -9.88587365e-02 +3.96887749e-01 +3.45555716e-03 +1.97252333e-01 +1.80740759e-01 +1.08304948e-01 +3.30752075e-01 -6.52816670e-04 +6.84644356e-02 +9.13199708e-02 -3.68402787e-02 -2.73052305e-01 +3.98839042e-02 -6.78924704e-03 +2.09402796e-02 +1.59877576e-02 +1.36477584e-02 +6.84993416e-02 -7.45205656e-02 -9.48403217e-03 -1.78770170e-01 -1.35094404e-01 -1.64048523e-01 +8.17594454e-02 +2.59139866e-01 -3.25661711e-02 +5.81417345e-02 +5.72451912e-02 +8.74164607e-03 +8.84224698e-02 +1.98884428e-01 -5.15427478e-02 -2.42534596e-02 -1.05871685e-01 -5.16347028e-02 +1.96579039e-01 -5.06860130e-02 +4.28836010e-02 +1.88822560e-02 +6.62367977e-03 -1.61740799e-02 +1.46077231e-01 -2.94799991e-02 +6.18625693e-02 -1.52000869e-02 -1.68390229e-01 +3.05953640e-02 -1.65417492e-01 -2.58871634e-02 +1.05106123e-02 +6.94000442e-03 +1.61758170e-01 -6.84556440e-02 -4.40049991e-02 -7.07517415e-02 +8.71458873e-02 +1.38117671e-02 +1.40649453e-01 -1.19817168e-01 -1.53574556e-01 +1.13322347e-01 +8.62285271e-02 -5.39699830e-02 -1.96414337e-01 +9.88852978e-02 +2.95212716e-02 -5.29256538e-02 +1.54601067e-01 -6.84131235e-02 +8.64104778e-02 -1.26382560e-01 +9.62030813e-02 -3.56040485e-02 +2.60002285e-01 +3.21721792e-01 -1.15387112e-01 -3.70771326e-02 -3.84358242e-02 -1.16601728e-01 +1.03959717e-01 -5.85411154e-02 +1.85280293e-01 +1.25979394e-01 -9.60621610e-03 -1.42185688e-01 +6.03586212e-02 -1.13906473e-01 +1.14787489e-01 +1.14087753e-01 -8.20774119e-03 -9.89332646e-02 +1.24529272e-01 +2.93564927e-02 -1.08264461e-01 +9.01848450e-02 +1.56729281e-01 -2.03599095e-01 +2.87052542e-01 +1.75635323e-01 -1.17706217e-01 +1.01548903e-01 -2.60598101e-02 +1.08652093e-01 -1.57958552e-01 +6.87973872e-02 +4.08499967e-03 +1.14969937e-02 -1.41752481e-01 +1.81356311e-01 +3.42177451e-02 +3.70818675e-02 +6.66123331e-02 -4.48409170e-02 +1.30951613e-01 -7.01385513e-02 +2.16264009e-01 -1.09618977e-01 -3.41230109e-02 +1.34621991e-03 +7.03806430e-02 -4.05366719e-02 -5.36966510e-02 -1.49769381e-01 +9.81858745e-02 -2.24303335e-01 -5.17884046e-02 -2.81955618e-02 +2.94901319e-02 +2.68679317e-02 -1.28303189e-02 +1.80370793e-01 +3.77545916e-02 +1.02374293e-02 +8.88711363e-02 +8.26967508e-02 +6.87151030e-02 +1.44020349e-01 -1.03253730e-01 -1.82410106e-01 -1.62765369e-01 -8.25673342e-02 -1.11426041e-02 +1.58738140e-02 +3.32525134e-01 -6.85734674e-02 -1.77774966e-01 -4.03062906e-03 +5.39261401e-02 +4.96663190e-02 -1.76842242e-01 +3.08724809e-02 +4.95429523e-02 -8.89044348e-03 +1.10904418e-01 -1.13180384e-01 -6.64067194e-02 -1.01645879e-01 -1.65457919e-01 -4.37374488e-02 +2.64654309e-02 +5.62963784e-02 -1.73764173e-02 -1.30888164e-01 -5.20571694e-03 +6.00941218e-02 +6.26791688e-03 -2.11985689e-02 +2.30882481e-01 -7.88614228e-02 -1.19093910e-01 +3.63848433e-02 +7.27751851e-02 -9.45054889e-02 -2.81431116e-02 -2.41218358e-02 +1.52763531e-01 -4.86264983e-03 +3.28464918e-02 -3.34353037e-02 +6.77702278e-02 -8.20807815e-02 +7.53436610e-03 +1.64663374e-01 -1.17921241e-01 -7.93639198e-02 +4.61003445e-02 -9.85047668e-02 -8.01449642e-02 -1.13396294e-01 +1.14829376e-01 +1.53555023e-02 -4.49673943e-02 -5.69191426e-02 -7.03679770e-02 -1.89636126e-01 -6.37743026e-02 -4.11816016e-02 -2.88438797e-01 -1.67495355e-01 -1.27652124e-01 +1.56868380e-02 -3.22138578e-01 +2.89488882e-02 +1.08618168e-02 +1.11469507e-01 -9.11307707e-02 -3.34152132e-01 -7.41465241e-02 -6.07175454e-02 +1.23088248e-02 -3.98147218e-02 +9.90217179e-02 -1.14653908e-01 -2.74019632e-02 +1.23108134e-01 -1.28464237e-01 -3.73733006e-02 -1.11997416e-02 +2.96907257e-02 +4.52845059e-02 -2.72059664e-02 +7.96586424e-02 +8.66282426e-05 -1.13997527e-03 +6.50161654e-02 -6.43437952e-02 +2.39003748e-02 +3.24025750e-02 -1.51561752e-01 +1.27135381e-01 -4.43796404e-02 +8.10706429e-03 +5.56351133e-02 +1.11150846e-01 -4.48994711e-02 -1.43239275e-01 -2.74389654e-01 +4.49788570e-01 -3.58678959e-02 -1.30505249e-01 +1.04741350e-01 -6.00070953e-02 +2.59170402e-02 -1.79815702e-02 -6.90317666e-03 -1.90321505e-02 -1.98469684e-01 +1.97142623e-02 +7.52250254e-02 -7.26853013e-02 -2.39078235e-02 -1.22830132e-02 -2.72764321e-02 +1.58303976e-01 -2.43138045e-01 -5.97284496e-01 -2.62018591e-01 -3.64677086e-02 -1.02944881e-01 -2.44170874e-01 +7.24645853e-01 +4.50682938e-02 +1.80932805e-01 +1.23659587e-02 +2.45669246e-01 -7.73639604e-02 +1.41015932e-01 -1.62110493e-01 +6.86638877e-02 -2.55153835e-01 +2.14672145e-02 -1.16348021e-01 -2.61574686e-01 -5.04972577e-01 -1.01521954e-01 +5.20728469e-01 -6.16075218e-01 +7.06237435e-01 -5.83178550e-02 +1.97931617e-01 +1.16085082e-01 +6.50183856e-02 +2.00374797e-03 -1.75399348e-01 +7.50836372e-01 +4.33016233e-02 +7.04019785e-01 +1.50366630e-02 +4.39195454e-01 -1.32375181e-01 +5.04795671e-01 +2.99516261e-01 -5.12440354e-02 +7.22585976e-01 -1.89806744e-01 -7.11892080e-03 -3.70536596e-01 -5.33076346e-01 -1.02242902e-01 +2.10059375e-01 -1.02242962e-01 -1.88929178e-02 -2.32471064e-01 +2.41472851e-02 -6.61375523e-02 -2.76998758e-01 +4.46965516e-01 +2.69507915e-01 +1.25778779e-01 -1.88824445e-01 -2.11824492e-01 -7.18123838e-02 -4.53798681e-01 -3.11400574e-02 -2.30518579e-01 -2.74010956e-01 -4.15694714e-01 +7.28416860e-01 +7.12281883e-01 -1.58024907e-01 +3.05455685e-01 -1.78724334e-01 +2.00072601e-01 -3.18034530e-01 -4.31354314e-01 -1.45401090e-01 -1.61505803e-01 +2.47006923e-01 -4.49697971e-02 -5.34384847e-02 +6.41574681e-01 +1.39728397e-01 +3.27348650e-01 +4.11832899e-01 -3.92594263e-02 +2.46701300e-01 -2.82627970e-01 +1.68846488e-01 +9.11813900e-02 +7.20205665e-01 -4.81880218e-01 +2.04563327e-02 -8.11401680e-02 -9.60929692e-02 +6.01784326e-02 +5.62689781e-01 -5.11048794e-01 -4.19268385e-02 +2.63959646e-01 +7.81160593e-03 +2.99025234e-02 +3.19776684e-01 -8.10269535e-01 +9.39620197e-01 +4.80439752e-01 -8.49105604e-03 +1.38156921e-01 -1.52809948e-01 +1.51768669e-01 +1.04566440e-01 +1.52759209e-01 -6.26834556e-02 -2.75890201e-01 -9.85701904e-02 +2.55135030e-01 +4.08073485e-01 +3.91605288e-01 +2.02928632e-01 +4.05628495e-02 +4.76096183e-01 -1.76176354e-01 -8.98345485e-02 +3.28295007e-02 +4.89159487e-02 -3.42529863e-01 +3.74319822e-01 +5.91003954e-01 +1.36607155e-01 +7.84355104e-02 -4.97243293e-02 -4.18879353e-02 -4.24521446e-01 -1.82336122e-01 +3.31839584e-02 -1.43971786e-01 -1.16319671e-01 -4.58431356e-02 +1.20149031e-02 -1.08374067e-01 -6.24149404e-02 -1.55493300e-02 +1.47510916e-01 -7.49212354e-02 -4.14238051e-02 +1.77166834e-01 +1.81883246e-01 +7.09336773e-02 +3.60897854e-02 -1.27749965e-01 -2.78717279e-01 -4.38095741e-02 +9.36745405e-02 -2.20613405e-01 -4.74364385e-02 -6.37145042e-02 -9.74162817e-02 -5.13907149e-02 -7.29175806e-02 -8.34931135e-02 +5.99636789e-03 +1.19289912e-01 -1.43332839e-01 +2.02164575e-01 -3.49446759e-02 +1.00763381e-01 -1.05314620e-01 +1.77653488e-02 +3.25100899e-01 -5.03308624e-02 -7.17940778e-02 +2.69807547e-01 -2.11023148e-02 +1.14250749e-01 -1.59725584e-02 -4.53754738e-02 -1.82631388e-01 -1.52875148e-02 +9.01881084e-02 -3.83935183e-01 +1.59697637e-01 -8.21109861e-02 -5.87884486e-02 -1.07967466e-01 -1.88100133e-02 -7.41963536e-02 -4.01719928e-01 +8.42524320e-02 -3.88074704e-02 +1.56975880e-01 +1.05179541e-01 +9.91393551e-02 -9.51612666e-02 -1.44961377e-04 -5.49140759e-02 -6.60886914e-02 -5.06440587e-02 +1.21396452e-01 -1.45426750e-01 +1.06374331e-01 -9.63484421e-02 +9.64450017e-02 -1.00643240e-01 +1.75566882e-01 +3.72942984e-02 +1.03606028e-03 +7.83572271e-02 -2.64897346e-02 -3.97194594e-01 +2.44967900e-02 +6.79156482e-02 +2.63877250e-02 -3.23118158e-02 -2.07053218e-03 -1.06273130e-01 +2.42880493e-01 -5.33424169e-02 -1.36154564e-02 +9.90350842e-02 +7.29943588e-02 +1.90429743e-02 -9.20333713e-02 +3.41214873e-02 +3.76609014e-03 +1.62719771e-01 -3.22216116e-02 +5.74429035e-02 -7.47926682e-02 +1.49180546e-01 +1.11128554e-01 +6.67300299e-02 +1.06525078e-01 +4.20963741e-04 -8.08381438e-02 -2.94996891e-02 +6.31173700e-02 +6.21462893e-03 +4.46335711e-02 +6.35140315e-02 -5.04056439e-02 -3.04506663e-02 -1.26695111e-01 +4.69963439e-02 +2.25305241e-02 -7.39440918e-02 +3.37798260e-02 -1.31012797e-01 -2.86638349e-01 -1.15450799e-01 -2.31570169e-01 +1.84179753e-01 +1.19084962e-01 -1.39071599e-01 -1.15202948e-01 -2.52043596e-03 -1.41396284e-01 -1.18119173e-01 +1.14305563e-01 +5.51149063e-02 +4.32939455e-03 +1.26407266e-01 +4.47707437e-02 +1.70485213e-01 +6.34738356e-02 -1.15006618e-01 -2.41603687e-01 -1.01286903e-01 +4.53213118e-02 -3.30071375e-02 -1.08886376e-01 +1.70704931e-01 -2.87734568e-02 +4.32550870e-02 -7.19738007e-02 -4.77928258e-02 +3.42975855e-01 -1.39160544e-01 +1.37733206e-01 -1.16890475e-01 -4.10462078e-03 +4.38932031e-02 +9.64603350e-02 +6.25166623e-03 +3.84637085e-03 +3.89274925e-01 +5.47638424e-02 +2.98407614e-01 -1.52321607e-01 -1.61075103e-03 +5.28269112e-02 +1.97948188e-01 +5.53054959e-02 -6.07776549e-03 -2.50611573e-01 +1.73581690e-01 +1.72575697e-01 +2.66800821e-01 -1.70688197e-01 +8.21814239e-02 +1.62230477e-01 +5.58124669e-02 +9.23085511e-02 +1.15827911e-01 -1.26454696e-01 -1.02615155e-01 +2.05270693e-01 +1.32760137e-01 -9.00209323e-02 -1.46851331e-01 +5.85130416e-02 +1.21786989e-01 +2.70030890e-02 +1.17075257e-01 +1.03861503e-01 +1.71953082e-01 +1.01860754e-01 +1.32796094e-01 +1.87713608e-01 +1.16801426e-01 +1.03136957e-01 +3.13319229e-02 +1.92549765e-01 +6.00389503e-02 -4.70481589e-02 +1.39777511e-01 +1.70016900e-01 +1.79838106e-01 +9.05328616e-02 +3.29274759e-02 +5.21345548e-02 +1.30134812e-02 +6.95315748e-02 +1.87762767e-01 +3.37665877e-03 -1.11730389e-01 +1.77651197e-02 -2.27673456e-01 -1.74955890e-01 -1.24822609e-01 +1.51376382e-01 -1.07072212e-01 -1.05726393e-02 -3.52536708e-01 +3.22470188e-01 +5.67208380e-02 -1.66947931e-01 -3.00981570e-02 -1.68913007e-01 -4.29279022e-02 -1.14665732e-01 -8.12204033e-02 -6.55115768e-02 -8.03332776e-03 +1.25098586e-01 -1.17178019e-02 +1.58268698e-02 +8.17231312e-02 -2.63585180e-01 -9.93456915e-02 -3.00643872e-02 +1.32984757e-01 +6.73895841e-03 +1.98918402e-01 +3.77418965e-01 -7.24862218e-02 -2.17743561e-01 +5.01157530e-02 +1.53471613e-02 +1.75597996e-01 +2.35337354e-02 +2.41189860e-02 -1.88102186e-01 +2.33015791e-01 +2.55350620e-02 -3.66941333e-01 +8.89061168e-02 +2.34876141e-01 -5.09415306e-02 -1.79440354e-03 -5.40744290e-02 -7.17270896e-02 -9.26412940e-02 -2.09490377e-02 +7.02349693e-02 +1.41293809e-01 +2.24748880e-01 -7.34593496e-02 +3.63333434e-01 -1.07073270e-01 +7.26105720e-02 +5.99556714e-02 -4.90999520e-02 -1.92000329e-01 +1.69458225e-01 +1.02578402e-01 -1.76416337e-02 +3.40804383e-02 -8.90101790e-02 +2.15482309e-01 -8.71029645e-02 +6.24180399e-02 +5.99623434e-02 -1.22009702e-02 +5.49263835e-01 +7.58849606e-02 -1.64678827e-01 +2.81669736e-01 +1.58508077e-01 +2.84017269e-02 -8.39241967e-02 -1.33785367e-01 -8.05069692e-03 +2.30705023e-01 -1.20948449e-01 +1.76754907e-01 -8.28323141e-02 -2.28104606e-01 +8.65181237e-02 +1.91042777e-02 +6.66928887e-02 +1.39697716e-01 +1.00023560e-02 -8.50382000e-02 -8.94682482e-02 -2.34320343e-01 -3.64265554e-02 +9.32244733e-02 -2.45462537e-01 -1.48250103e-01 +6.06711721e-03 -1.63687930e-01 +1.09969579e-01 -1.51801044e-02 -1.69788897e-02 +7.51417726e-02 +4.42519754e-01 +7.07660988e-03 +1.30653819e-02 +7.47232735e-02 -1.50513560e-01 +1.70457020e-01 +3.26343998e-02 +6.76894933e-02 +7.33310729e-02 +6.35023117e-02 -1.66554257e-01 +2.82448269e-02 +2.27396905e-01 +5.99374622e-03 +6.29505292e-02 -5.38509078e-02 +5.15031181e-02 +7.87074119e-02 +1.19810561e-02 +1.03523338e-03 -1.89426228e-01 +3.98120321e-02 -8.36331397e-02 +4.64646332e-02 -3.20113823e-02 +2.74643242e-01 +2.75164843e-01 +1.05186820e-01 +2.46142954e-01 -1.52166843e-01 +2.27598362e-02 -4.41394784e-02 -2.26900935e-01 +6.18548431e-02 +1.47833481e-01 -5.38120508e-01 +1.27900079e-01 +1.64638907e-01 +1.52599245e-01 +1.08590797e-01 +1.98781773e-01 -2.10663341e-02 -1.28065050e-01 +1.64945319e-01 -8.53847861e-02 +1.10878661e-01 +5.78070320e-02 -3.58013734e-02 +1.01308629e-01 -1.75178155e-01 -2.51123041e-01 -1.66195452e-01 +1.36302844e-01 +7.88595825e-02 -4.17107344e-02 +1.27239004e-01 +2.98910469e-01 +7.53585473e-02 -1.17663555e-01 -7.34421536e-02 -3.84563245e-02 +2.10424494e-02 -3.10845934e-02 -8.70675221e-02 -1.41471595e-01 -5.23918867e-01 -5.46945399e-03 -3.20097864e-01 -3.21407802e-02 +1.60095021e-01 -1.61167949e-01 +2.10958466e-01 +1.27254516e-01 +1.03510499e-01 -4.87666242e-02 -1.48443133e-01 -2.34350055e-01 +4.28212024e-02 -1.31047472e-01 +7.78627843e-02 +1.26393750e-01 -5.22627346e-02 +3.91234487e-01 +2.98090577e-01 -4.48756926e-02 -5.50271332e-01 -7.07989410e-02 +6.53670877e-02 -5.63945293e-01 -4.53700647e-02 -2.07707714e-02 +1.84269890e-01 -1.64102972e-01 -4.20919731e-02 +2.33330637e-01 +4.16257158e-02 +5.46883583e-01 +7.66529217e-02 -1.10951126e-01 -7.50972256e-02 +5.17410994e-01 +5.76524794e-01 +5.69917262e-01 -7.74688363e-01 +6.43943548e-01 -1.56232297e-01 +3.80414754e-01 +1.43259302e-01 -1.57811061e-01 +4.71905172e-01 +2.02891245e-01 +5.72420098e-02 -3.94653708e-01 +1.66323066e-01 -5.72109342e-01 +5.46754152e-03 -4.99675035e-01 +1.49903357e-01 -1.59539491e-01 -9.62817669e-02 -6.47514015e-02 -6.55772567e-01 +1.19627468e-01 +2.51568139e-01 +5.64332962e-01 +4.77459073e-01 +3.56238514e-01 -5.39121544e-03 +3.06924153e-03 -1.79809943e-01 +4.66117889e-01 +1.03613205e-01 +5.57163715e-01 +3.44402313e-01 -3.26033592e-01 -1.83746636e-01 -2.62016565e-01 +6.75276592e-02 +1.45928472e-01 -1.63135812e-01 +1.05394414e-02 -7.27672130e-02 +5.04957318e-01 +4.43569511e-01 -3.70335095e-02 -7.19606951e-02 -1.57082662e-01 +1.91293836e-01 -6.77421391e-01 +3.72009248e-01 +3.00950587e-01 +3.61564487e-01 +3.06880206e-01 +2.25570038e-01 +1.33433282e-01 -4.44972724e-01 +1.03743896e-02 -1.06143963e-03 -1.81557551e-01 +2.68163532e-01 +1.75617725e-01 -3.31250399e-01 -3.02713335e-01 -3.61725897e-01 +1.42090395e-01 -1.41521886e-01 +7.71639794e-02 -2.28298739e-01 +2.41551712e-01 +6.67069107e-02 -1.07348435e-01 -1.42371550e-01 -2.17380106e-01 -2.38584921e-01 +6.92072362e-02 +7.59022236e-02 -1.55738011e-01 +2.86357403e-02 +1.99282002e-02 -5.35180807e-01 +8.67241502e-01 -2.21856251e-01 -4.38300401e-01 +3.82160326e-03 -6.62399642e-03 -2.62849517e-02 -2.62863755e-01 +1.42367765e-01 -2.60683864e-01 +4.09256101e-01 +4.69038457e-01 +2.51202285e-01 -2.11341277e-01 -5.49885891e-02 -3.40957284e-01 -1.93908572e-01 +4.51677106e-02 -1.34578168e-01 +5.45615852e-01 +1.32181153e-01 -2.28768125e-01 -1.37518376e-01 -1.91634804e-01 -5.17067909e-02 -4.00588900e-01 -1.48214713e-01 +4.47510369e-02 +6.47765398e-02 +4.40691449e-02 +3.08000833e-01 +2.35356808e-01 +4.29700203e-02 -1.21029280e-01 +3.54874581e-02 -2.24245891e-01 +5.61417863e-02 +3.18136774e-02 -3.56155448e-02 -1.21928275e-01 +9.26944800e-03 +3.10151894e-02 +1.75014734e-01 -1.17459491e-01 -1.13445841e-01 +8.74696206e-03 +7.84172043e-02 +2.59666890e-01 +6.31511331e-01 -2.04273194e-01 +1.39828593e-01 -1.39235720e-01 +1.44476742e-01 -1.61337733e-01 -1.08348437e-01 +1.36556000e-01 -8.91777128e-03 +1.13210052e-01 -1.29665479e-01 +1.33221895e-01 -4.68681008e-02 -4.80088331e-02 -2.84426808e-01 -1.19293369e-02 +1.13048606e-01 +6.50646389e-02 -2.71045387e-01 +7.75661692e-02 -1.63337588e-01 -1.18746772e-01 +1.52684376e-01 -1.57295153e-01 -5.94971292e-02 -1.16109259e-01 -3.60507425e-03 -6.84140548e-02 +5.96563108e-02 +3.38425219e-01 -1.32151425e-01 -2.58569479e-01 -1.48532353e-02 +6.41405359e-02 -3.59863229e-02 +4.83189411e-02 +2.30193377e-01 +5.92653155e-02 -1.19167402e-01 +4.43213172e-02 -2.96878248e-01 +1.13197982e-01 +1.07089445e-01 +8.21787491e-02 -6.14592507e-02 -1.71019107e-01 +1.58099666e-01 +1.19581938e-01 -5.04896119e-02 +7.46718980e-03 -1.56636789e-01 -9.11012068e-02 -5.02613410e-02 +1.60674825e-01 +1.21127248e-01 -2.73401618e-01 +1.14921123e-01 +1.70775279e-02 -3.37423652e-01 -3.01508047e-02 -9.64534096e-03 +1.64431632e-01 -2.22860314e-02 -1.21014565e-01 -5.11358798e-01 -1.20331561e-02 -4.28695381e-02 +3.73959810e-01 +1.89486910e-02 +1.11617468e-01 +2.31707484e-01 -4.29248400e-02 -5.30880168e-02 +5.93649112e-02 +6.73758462e-02 -1.95811123e-01 -2.17857920e-02 -7.91871995e-02 -2.39981994e-01 +4.68837880e-02 -2.20963452e-02 +2.87337691e-01 -2.15807348e-01 -4.11643088e-02 +1.38799503e-01 -3.79924886e-02 +5.40723018e-02 +1.25707358e-01 +1.10782109e-01 -6.16505854e-02 -1.52046740e-01 +1.15542650e-01 -1.56495012e-02 +1.86332643e-01 +1.89516082e-01 +3.21855806e-02 -1.72256351e-01 -5.44693880e-02 -1.31918848e-01 +2.03536779e-01 +3.00708618e-02 -4.17415574e-02 -6.96993023e-02 +1.78958848e-01 +9.13248491e-03 +5.65213971e-02 -6.42358661e-02 -1.19208954e-01 +3.09689306e-02 -1.27689272e-01 +1.46373501e-02 -1.25262719e-02 +5.33568673e-02 -4.44522873e-02 -2.07053661e-01 +9.10932943e-02 +1.81347683e-01 +1.65817097e-01 -1.71431020e-01 -1.07860923e-01 -1.15603559e-01 +2.32951954e-01 -1.25411570e-01 -8.33173916e-02 +1.08625256e-01 +3.70236099e-01 -4.74647693e-02 +9.57520381e-02 +4.90243919e-02 +1.00348517e-02 +5.90188876e-02 +7.67901763e-02 -6.32323772e-02 +1.01309545e-01 +1.08618945e-01 +1.63484365e-01 -4.59121652e-02 +4.54124771e-02 +1.55974418e-01 -1.72630399e-02 +1.01041652e-01 -1.23155573e-02 -7.98936784e-02 -5.60758822e-02 +1.00123167e-01 +1.01776093e-01 +6.81146383e-02 -4.34255749e-02 -5.86918481e-02 +1.16572872e-01 -1.05530046e-01 +1.26385763e-01 +1.72403842e-01 +1.16092987e-01 -6.00398593e-02 +3.38618830e-02 -5.82454205e-02 +1.57352954e-01 +3.63127068e-02 -1.67900845e-01 +1.94125816e-01 -7.37977922e-02 -8.87215436e-02 +2.26822406e-01 +3.11579376e-01 +4.67155688e-02 -9.06703845e-02 +6.30087256e-02 +1.58123389e-01 -1.17286824e-01 +1.49494901e-01 -6.52862340e-02 +5.24431989e-02 +2.55345460e-02 -1.53644666e-01 +4.66460697e-02 -2.17587247e-01 +1.06340103e-01 -6.81375489e-02 -4.37829606e-02 -5.23264483e-02 +1.56621829e-01 +8.72013718e-02 +1.88357070e-01 -1.10034114e-02 -1.45329952e-01 +3.72672640e-02 -8.83528814e-02 +1.03540793e-01 +7.31396973e-02 +6.68735430e-02 -1.37563378e-01 +1.23351812e-01 +5.02318889e-02 +9.48310718e-02 -9.79188532e-02 -1.04543850e-01 +3.69244888e-02 +9.23633873e-02 +1.60140350e-01 +2.74885558e-02 -8.56029838e-02 +7.35844076e-02 +1.47617012e-01 -1.69629559e-01 +5.97089864e-02 +1.17577665e-01 -5.74125014e-02 -1.27978578e-01 -2.26251911e-02 +1.15095548e-01 +2.26549238e-01 +1.45589232e-01 -6.25978947e-01 +1.37394369e-01 +4.51596379e-02 +8.77036601e-02 +3.73534672e-02 +5.52025735e-02 +2.10231349e-01 +1.61489155e-02 +2.53250934e-02 +2.04045042e-01 +1.52387423e-02 +1.65973276e-01 -1.30038947e-01 +3.89594287e-02 +1.60870090e-01 +9.41381976e-02 -1.65693700e-01 +4.48925421e-03 +1.30491257e-01 -7.36716092e-02 -8.40345994e-02 +5.95793650e-02 +1.96510315e-01 +7.01116323e-02 +1.38433203e-01 +1.75135992e-02 +2.04031840e-02 +3.61297764e-02 +7.87049346e-03 -1.23436980e-01 +4.70572002e-02 -8.02694187e-02 +6.51562139e-02 +7.49369636e-02 +5.37187867e-02 +9.50759649e-02 +3.61211076e-02 +6.99011907e-02 +4.97241765e-02 +3.44032317e-01 -7.57594556e-02 +1.63654226e-03 -7.07029253e-02 -1.58942640e-01 +1.84372753e-01 +5.66559583e-02 +1.30088687e-01 +1.97753727e-01 +7.72937164e-02 +6.08806945e-02 -3.74267227e-04 -9.80969295e-02 -1.19551020e-02 +8.52341279e-02 -7.58191273e-02 +1.20776318e-01 -3.15337293e-02 -2.94308458e-02 +6.73805252e-02 +6.42983392e-02 -5.20813316e-02 -2.83203363e-01 +4.88161705e-02 +1.06783090e-02 +3.87413912e-02 +2.26988941e-02 -1.06596351e-02 +2.39788275e-02 +6.68283999e-02 +1.41106173e-03 -5.25145940e-02 -5.90736233e-02 +6.16703629e-02 +4.86478098e-02 +5.58089092e-02 +1.26796942e-02 +3.65833603e-02 +5.44214509e-02 +3.34321707e-02 +2.27324799e-01 -7.40125924e-02 +1.30026504e-01 +1.24007367e-01 +3.02122086e-02 +1.51835769e-01 +9.24516544e-02 +2.55690776e-02 +1.04887828e-01 +1.90892536e-02 -6.41678125e-02 -3.80922258e-02 +2.96519578e-01 +2.61459589e-01 -3.87306046e-03 -3.10687479e-02 -1.45464335e-02 +7.44077638e-02 -1.43829346e-01 -6.42258748e-02 +1.49647444e-01 -8.87684375e-02 +9.97741893e-02 +2.66959183e-02 -1.16919642e-02 -1.08055808e-01 +9.28580016e-02 -2.68413484e-01 -2.21681625e-01 +9.28234383e-02 +2.70007670e-01 -1.86966807e-02 +4.99833487e-02 +7.19740987e-02 -7.20644090e-03 +1.76071808e-01 -6.07285835e-02 -1.08421370e-01 -3.99308875e-02 -1.57438610e-02 -2.84808632e-02 +1.07662402e-01 +1.07268076e-02 -3.70564312e-01 +1.66334063e-01 -1.00614935e-01 -9.31518003e-02 +8.51005390e-02 -6.18017241e-02 -3.16234604e-02 -3.16033624e-02 -1.35327816e-01 +1.58146933e-01 -2.78906021e-02 +1.64533302e-01 -3.92274559e-02 +7.17991441e-02 +4.15849924e-01 +3.56124520e-01 +1.05486937e-01 -3.13734382e-01 +3.25758457e-02 +1.19967863e-01 -7.20499232e-02 +3.78966071e-02 -8.28530118e-02 -2.48087049e-02 -1.30580608e-02 -1.81083884e-02 -2.36153528e-01 +2.12314148e-02 -4.35824692e-02 +8.04152861e-02 +3.97943825e-01 +1.76146440e-02 +3.87265056e-01 +3.50562304e-01 +3.46360467e-02 +6.08462453e-01 -9.95158553e-02 +1.64819598e-01 -4.12212402e-01 -2.70775944e-01 -5.13563991e-01 +1.25732109e-01 +3.14249903e-01 +3.15863073e-01 -3.39251667e-01 +5.84594533e-03 +2.70267837e-02 -5.12151539e-01 -8.05836618e-02 -2.16971282e-02 -2.10528716e-01 +1.02532518e+00 -2.71304965e-01 +4.75515038e-01 -1.98054448e-01 +3.69170517e-01 +3.40053648e-01 +2.88188487e-01 +9.13096189e-01 -4.72804517e-01 +1.23393476e-01 -4.54630004e-03 -7.45490849e-01 -1.88227564e-01 -1.44109383e-01 -1.17441736e-01 -4.08142000e-01 +3.26048046e-01 +1.45424902e-01 +3.11955899e-01 +1.02569006e-01 -4.58653361e-01 -1.30818903e-01 -1.48787066e-01 -4.23570693e-01 +6.13748193e-01 -6.59811422e-02 +2.19551235e-01 +9.01611000e-02 -2.47322410e-01 -4.94975507e-01 +1.98651835e-01 +3.43259811e-01 -4.01595414e-01 +2.99126416e-01 -2.06291363e-01 -1.67615548e-01 +5.45470417e-01 +2.06006691e-02 +3.38419974e-01 +8.11461866e-01 +5.69973588e-01 +5.98306179e-01 -2.67330945e-01 +2.53770202e-02 -8.05742860e-01 -2.18058556e-01 +3.78225520e-02 +4.00803447e-01 -6.15214407e-02 +4.61306781e-01 +1.12077288e-01 -6.65924028e-02 +1.31358072e-01 -1.02017485e-01 +3.01911592e-01 +2.71017142e-02 -1.68818220e-01 -6.14234149e-01 -2.80519277e-01 -8.72969627e-02 -4.03833687e-01 -1.65077299e-01 -1.83648348e-01 +5.31220101e-02 +3.51963222e-01 -1.15931250e-01 -2.74706602e-01 +5.21661818e-01 -6.99027404e-02 +3.65752250e-01 -1.62833799e-02 +1.78402886e-01 -6.83263168e-02 +4.10824567e-01 +5.62386811e-02 +4.89242226e-01 -1.98688939e-01 -3.98143053e-01 +2.50260532e-01 +7.84491524e-02 -7.06980348e-01 +4.08361740e-02 -3.63718629e-01 +2.22403318e-01 -1.81036256e-02 -4.99502718e-01 -1.30506814e-01 +5.28809249e-01 +8.40107054e-02 -5.55512786e-01 -1.42847886e-03 +5.60576200e-01 +3.01349550e-01 -1.91873029e-01 -1.38917938e-01 +8.43464881e-02 +2.66037613e-01 +1.78525776e-01 +1.08264007e-01 -1.92455351e-01 -1.68608531e-01 +1.88827857e-01 +2.32329741e-01 -6.46547079e-01 -3.08867961e-01 +2.45972738e-01 +6.90162480e-02 +1.43447131e-01 -1.77321777e-01 +6.34571537e-02 +5.23561239e-02 -1.74714506e-01 -1.15472615e-01 -1.76047802e-01 +7.04732090e-02 -1.03401639e-01 -3.88607010e-02 -5.74426167e-03 +4.63982411e-02 +1.28446326e-01 -2.48330250e-01 +9.37461779e-02 -1.96305275e-01 -2.36403700e-02 -2.57078372e-02 +1.35339787e-02 -1.65150851e-01 -8.42059925e-02 +9.68595892e-02 +5.42780682e-02 -1.03019856e-01 +8.52323547e-02 -4.24706712e-02 +1.28271198e-02 +1.37046934e-03 +2.44939346e-02 -1.69315599e-02 +1.55630797e-01 -2.87574865e-02 +1.25256196e-01 +4.18628268e-02 +4.32040282e-02 -1.29687533e-01 -7.78967142e-02 -2.30871081e-01 -1.97454333e-01 -1.10551871e-01 +1.23143390e-01 -2.94862259e-02 +1.26712486e-01 +7.86286667e-02 -1.19440250e-04 -2.47789524e-03 +7.87292123e-02 +1.13030411e-01 -2.92670466e-02 +1.08542748e-01 -1.80800840e-01 -1.12177454e-01 -4.06069718e-02 -4.11464646e-02 +5.29153086e-02 -4.02791589e-01 -3.95214632e-02 -3.36402655e-02 -3.81026417e-02 -1.10062055e-01 +2.70891301e-02 -1.11240782e-01 -5.33279330e-02 -2.02361774e-02 -4.65029255e-02 -9.31155384e-02 -1.20544247e-01 -1.84925094e-01 -4.09676507e-02 -1.19605325e-01 +1.24958806e-01 -4.38919254e-02 +4.33175825e-02 -8.07535127e-02 -6.80794148e-03 -7.37093911e-02 +8.61219689e-03 -7.95294046e-02 -2.40928680e-02 +1.72850993e-02 +1.73456164e-03 -1.03922643e-01 -1.37519076e-01 -3.63189280e-02 +3.82258222e-02 -1.10594399e-01 +9.80897620e-02 +4.62655239e-02 +9.92446616e-02 +2.60274708e-01 -1.21484265e-01 +5.20761684e-02 -8.52513835e-02 -8.38244893e-03 +3.21243182e-02 +1.06902719e-01 -3.58163007e-02 -7.43496716e-02 +8.38886648e-02 +3.44208553e-02 -6.93153441e-02 +8.60553235e-02 -2.12609395e-02 +3.09694977e-03 +1.10553369e-01 -6.31797165e-02 -3.86257097e-02 +1.68166161e-01 -8.26523826e-02 -7.22376108e-02 +4.41750176e-02 +1.34764193e-02 -2.50866294e-01 -3.06056976e-01 +4.64807041e-02 +1.12638302e-01 +5.51663972e-02 -8.36884081e-02 +6.19616918e-02 -2.05719501e-01 +1.39978424e-01 -2.99122006e-01 -2.73961797e-02 +7.77855217e-02 -1.64814177e-03 -7.45572895e-02 -9.88696143e-02 -5.78342751e-02 +2.56984770e-01 +6.76314440e-03 -4.57155518e-02 +9.52038690e-02 +2.21821498e-02 -1.35248303e-01 -7.76811764e-02 -1.69896055e-02 +1.31541491e-01 -1.36825278e-01 +3.22311744e-02 +1.86513409e-01 -2.49740630e-02 -3.61869708e-02 +1.19324423e-01 -1.98476732e-01 +2.07005888e-01 -6.63555041e-02 +9.48995501e-02 -5.55709004e-03 +7.00285733e-02 -9.75839272e-02 +1.18235752e-01 +6.88574836e-02 +3.23928110e-02 -1.27507865e-01 +1.47799745e-01 +2.67770410e-01 -1.06721334e-01 +2.12925732e-01 +7.88255930e-02 +6.82651699e-02 +9.53522697e-02 +8.14490616e-02 -9.25860479e-02 +2.24676982e-01 +1.95187777e-01 -1.40814716e-02 +6.30547106e-02 +1.25192642e-01 +3.19006264e-01 -7.48035386e-02 +1.16801551e-02 +3.37336510e-01 -2.09262922e-01 -1.38281554e-01 +1.70705449e-02 +4.43264097e-02 +2.75265872e-01 -2.04698592e-01 -6.34556962e-03 +2.36598492e-01 +4.17666100e-02 -1.18762515e-01 +2.39572302e-02 -2.41853744e-01 +1.34794176e-01 +9.25295986e-03 +2.08829731e-01 -6.97024465e-02 +4.63665687e-02 -7.83644523e-03 +1.14447817e-01 -1.47591338e-01 +1.41063854e-02 +1.03906371e-01 +1.58251956e-01 -5.37775382e-02 +6.16582185e-02 +1.06561378e-01 +2.59423368e-02 +4.60517853e-02 +1.21388853e-01 -2.93332815e-01 +1.86142686e-03 -7.43226260e-02 -1.68903202e-01 +3.38684469e-01 -6.42135739e-02 +2.39094034e-01 -7.76892900e-02 +7.25375256e-03 -1.08432129e-01 +3.52423489e-01 +5.69798611e-02 +1.06287263e-01 +1.66288227e-01 -2.47083362e-02 +1.20454412e-02 +7.67161623e-02 +5.89741245e-02 +9.65234935e-02 -1.41390249e-01 +3.14535648e-02 +1.00783736e-01 -1.34251028e-01 +1.59998938e-01 +8.51226598e-02 -1.22520223e-01 -1.70286879e-01 -2.71362960e-02 +2.21417502e-01 +3.84908654e-02 +2.44646609e-01 -1.66389972e-01 +7.00105960e-03 -1.34534806e-01 +8.17463398e-02 +1.62102908e-01 -9.76252183e-02 -3.55820470e-02 +1.28656402e-01 -1.68574855e-01 -6.88317493e-02 +7.17734024e-02 +4.27217990e-01 +2.24383637e-01 -5.94696105e-02 -1.42205685e-01 +5.18584251e-02 -2.02529877e-01 -1.19289504e-02 -1.23488931e-02 -1.75665170e-02 -1.79770157e-01 +8.51966534e-03 +2.77016181e-02 -9.45371836e-02 -8.80718455e-02 +9.84895378e-02 -7.66790239e-03 +1.42363291e-02 +7.31870756e-02 -1.34487316e-01 +6.34843409e-02 -3.04104183e-02 -1.10309802e-01 -7.40038604e-02 +5.34247570e-02 +1.36320964e-02 +8.60069543e-02 -1.86297297e-01 -1.28692329e-01 +3.57216932e-02 -1.38359740e-01 -4.77616936e-02 -7.16073588e-02 -6.42891586e-01 +1.92699060e-01 +2.86623705e-02 +2.12277975e-02 +1.12436391e-01 +4.91962358e-02 -1.16577893e-02 -7.52600189e-03 +2.32896566e-01 +9.14209709e-02 +6.98556900e-02 +9.36087407e-03 +2.45522439e-01 +1.77722424e-01 +4.81708385e-02 -2.81966589e-02 -1.35747775e-01 -1.31947741e-01 +2.84032702e-01 -6.85102716e-02 +4.38926518e-02 +3.83489430e-02 +1.12459585e-02 -8.31863210e-02 -9.75477621e-02 -1.64986894e-01 -6.13423670e-03 +6.35074899e-02 -5.45703173e-02 -5.36544621e-02 +8.35360289e-02 +3.75777707e-02 +7.78758079e-02 -7.18360469e-02 +3.84640023e-02 -1.03831321e-01 +1.29175708e-01 -2.84592398e-02 +1.20016083e-01 +8.97061601e-02 +1.92255639e-02 +4.00894806e-02 -3.53746908e-03 +1.44636200e-03 +1.96584806e-01 +1.63846642e-01 +1.56446290e-03 -7.28520080e-02 -1.31033972e-01 +7.66374245e-02 -6.20539300e-02 -1.18918806e-01 +3.71627063e-02 +4.13296297e-02 +3.01645957e-02 +3.95367220e-02 +1.75516784e-01 -7.98740685e-02 -1.83624938e-01 +5.56872152e-02 +9.99971032e-02 +1.37042642e-01 +1.26095638e-01 +2.78990273e-03 +7.26134032e-02 +1.17542773e-01 +7.84634873e-02 +1.46416396e-01 -2.62517594e-02 +6.07782044e-03 +5.76000214e-02 +4.66473363e-02 +1.17984094e-01 -6.81030080e-02 -1.20827053e-02 -1.92655474e-02 -1.41398892e-01 -7.83691853e-02 +1.06259100e-02 -1.20317496e-01 -5.49292974e-02 +1.22213803e-01 -4.96644825e-02 -7.84656629e-02 +2.55759746e-01 -2.30076581e-01 +3.45989913e-02 -1.30472794e-01 +7.01921061e-02 +1.50334179e-01 +2.89427936e-02 -6.76736161e-02 -1.68928802e-02 +1.32892683e-01 +2.37894416e-01 -8.63467604e-02 -1.60703555e-01 -1.44221336e-01 +9.07981470e-02 -1.74913213e-01 -9.22826901e-02 +5.47246337e-02 +1.24927990e-01 +9.62290987e-02 -6.48246631e-02 -1.00174986e-01 -7.55548179e-02 +2.24312898e-02 +1.65615901e-01 +1.37530729e-01 -3.46463509e-02 -2.63566732e-01 -3.13764900e-01 +1.84878215e-01 +6.96101189e-01 +7.47889429e-02 -1.15471542e-01 +2.13002846e-01 +2.70768493e-01 +3.01425159e-01 +8.79871175e-02 -1.22668378e-01 +3.98584679e-02 +9.94419158e-02 -2.01482728e-01 -1.58632293e-01 -3.55070010e-02 +1.44483689e-02 -1.39367089e-01 -4.30738419e-01 -2.18141332e-01 -4.61324751e-01 +7.63897359e-01 -3.90220344e-01 +7.67263055e-01 +1.27812967e-01 -4.34279591e-02 +1.70568198e-01 -1.16492912e-01 -1.11508235e-01 -9.61653702e-03 +1.28670961e-01 -1.26098782e-01 +5.42070329e-01 +1.33056417e-01 +4.18584257e-01 -6.85162470e-02 +7.59057164e-01 +3.12495112e-01 -1.23225883e-01 +4.92922440e-02 -1.03273608e-01 +1.74885169e-01 -2.45514587e-01 -1.03448614e-01 +1.73616782e-01 -1.67156503e-01 +1.00169659e-01 +8.59549269e-03 -2.91572899e-01 -8.76545310e-02 -2.20495850e-01 -2.65481442e-01 +3.84809136e-01 -1.15786463e-01 +3.50490421e-01 -7.73836002e-02 -4.04284596e-02 -1.38432637e-01 +5.62351234e-02 +2.04477608e-01 -8.29305574e-02 -5.07990837e-01 +1.59168690e-01 +4.23588157e-02 +4.18547481e-01 -5.60435057e-02 +9.45203483e-01 -5.35397649e-01 +6.81953952e-02 -4.35343295e-01 +8.93446803e-02 +8.53525922e-02 -3.60349417e-01 +6.65693700e-01 -2.52177179e-01 -6.40767664e-02 +4.34867442e-01 -2.99770217e-02 -4.81743105e-02 +3.64928603e-01 +2.82098025e-01 +4.38179344e-01 -4.41207558e-01 +5.16572110e-02 -6.41882345e-02 +2.60775059e-01 -1.03869982e-01 -1.38202935e-01 -6.03503212e-02 +1.58903867e-01 +4.09685791e-01 +2.89565653e-01 -2.32673362e-01 -1.94454268e-01 +1.18755333e-01 -1.31652027e-01 +2.40826815e-01 +4.20031607e-01 -4.52681631e-01 +4.38047014e-02 +2.30182782e-01 +2.56009281e-01 -5.73968217e-02 +2.68397445e-04 +2.94279128e-01 -4.22981307e-02 +1.73210874e-01 +3.73651236e-01 -3.41979355e-01 +1.78635091e-01 +2.96978831e-01 +1.66175395e-01 +8.25060830e-02 +6.71334714e-02 +3.83180976e-02 +2.78406590e-01 -4.77477044e-01 -1.07286565e-01 +3.03642333e-01 +7.49526247e-02 +3.88876535e-02 +4.01573092e-01 -3.22096609e-02 +1.18408047e-01 +7.16708004e-02 +3.23903799e-01 -5.75624518e-02 -1.79101005e-01 +1.14875048e-01 -5.94160594e-02 -1.14072554e-01 -1.41793797e-02 -8.03062990e-02 -7.42860213e-02 -3.44428979e-02 +5.61844110e-02 -7.92724174e-03 +4.95002344e-02 +1.07177064e-01 -1.03623524e-01 -7.32138194e-03 +1.90188035e-01 +1.09625906e-01 +6.73328936e-02 +1.29247725e-01 -2.77219236e-01 +4.40090708e-02 +2.37525627e-02 -7.29426667e-02 -3.99378613e-02 -4.97859009e-02 +4.60565165e-02 +5.35426587e-02 -1.08571434e-02 -5.42950854e-02 -9.23376530e-02 +5.47297858e-03 -1.11057781e-01 -5.42558953e-02 -4.58150618e-02 -1.11831702e-01 -1.17151253e-01 +1.23043589e-01 +1.72938347e-01 -4.92694005e-02 -4.42099385e-03 +1.14027202e-01 +7.38588795e-02 +1.37593728e-04 -4.29934673e-02 -5.80441058e-02 +2.67570466e-02 +3.67577225e-02 -4.26809629e-03 -3.65608074e-02 +8.86618942e-02 -1.28423303e-01 +2.09629219e-02 -3.85550894e-02 +7.59634599e-02 +1.06927723e-01 -1.09897777e-01 +6.76405579e-02 -8.89710058e-03 -1.37362992e-02 -2.18639269e-01 +1.09096400e-01 +7.39414245e-02 +6.10779002e-02 -1.93677291e-01 +4.24955189e-02 +6.31627217e-02 +1.12162326e-02 -2.90439948e-02 -5.93409352e-02 +5.99974655e-02 -7.99011365e-02 -8.58905464e-02 +7.29882196e-02 +1.56710856e-02 -1.64232001e-01 +1.28912926e-01 -8.77464563e-02 +1.22840852e-01 -1.63626492e-01 -1.08897999e-01 +8.69883671e-02 -2.46839393e-02 +2.46144757e-02 +1.70471638e-01 -2.00341865e-02 -3.63296531e-02 +1.80814132e-01 -2.40760632e-02 +8.87651518e-02 +1.18370332e-01 -2.05404297e-01 -3.15551817e-01 -4.15187329e-03 -9.46181417e-02 +1.40410550e-02 -6.23367727e-02 +6.76082447e-02 -4.27283682e-02 -4.09756377e-02 +6.95071667e-02 +1.94460884e-01 +9.50465072e-03 +2.05535386e-02 -2.67744102e-02 +9.77910385e-02 +1.02065630e-01 +9.72208753e-02 +3.72477882e-02 +1.04182892e-01 -1.03964210e-01 +7.06000626e-02 +3.56439985e-02 +8.59227479e-02 +1.27366170e-01 -2.27803923e-02 -1.30944410e-02 +8.71484205e-02 -1.71081901e-01 +2.27966495e-02 -3.07905376e-02 -4.02226336e-02 -1.19938813e-01 +1.92709710e-03 +2.67730337e-02 +1.20748945e-01 -1.37027968e-02 -3.74058895e-02 +1.06302038e-01 +1.39581859e-02 +5.74752502e-02 -1.04635827e-01 -1.67389899e-01 -1.21656939e-01 -1.93317294e-01 -6.73588067e-02 -1.54445162e-02 -6.70598671e-02 +1.96369849e-02 +1.02840759e-01 -6.65444881e-02 -1.88266374e-02 +3.17889303e-02 -5.82187511e-02 +5.19496500e-02 +1.67801499e-01 -1.18427172e-01 +9.32080895e-02 +9.53029767e-02 +3.93201783e-02 -6.24051951e-02 -3.36405411e-02 -1.03747591e-01 +4.93605025e-02 -1.30549952e-01 +8.73040501e-03 +9.33720842e-02 -5.36549576e-02 -1.21492267e-01 +2.10375324e-01 +5.07554337e-02 +1.40627757e-01 -3.87319773e-02 -4.98144813e-02 +1.05186261e-01 +1.11768976e-01 +5.98343946e-02 -9.05120894e-02 +8.60653296e-02 +4.35568672e-03 +3.42949033e-02 -1.89613014e-01 +3.93974558e-02 -6.95382506e-02 -4.53679226e-02 -4.36697938e-02 -1.68359473e-01 +1.72246307e-01 -1.13828123e-01 +1.31752208e-01 -6.46733418e-02 -6.67876154e-02 +4.11898866e-02 -1.11963794e-01 -1.53010279e-01 +5.18896207e-02 -6.91427439e-02 +5.26019260e-02 +4.90656607e-02 +1.75783589e-01 -2.55525827e-01 +8.49052966e-02 +2.13496685e-01 -9.36640576e-02 +6.53611496e-02 +5.81712238e-02 +1.69570819e-01 -7.67759457e-02 +1.36485144e-01 +6.99408203e-02 +7.81437308e-02 -2.98834872e-02 +1.93287563e-02 -1.53500121e-02 -2.75926404e-02 +1.96013391e-01 +4.93442407e-03 -1.36258649e-02 -2.14611907e-02 -6.42857328e-02 -2.67772824e-02 +3.10652286e-01 -1.44304752e-01 +2.54534874e-02 -2.16908142e-01 +3.84199955e-02 +7.23844767e-03 +1.06676318e-01 +1.66935444e-01 -1.42354965e-01 -8.93042237e-02 -6.69378489e-02 +5.00860885e-02 +1.01695485e-01 -1.15077049e-01 -2.68490110e-02 -1.20064251e-01 -3.85479592e-02 +1.08193956e-01 +7.88717810e-03 +1.34049982e-01 -7.80581683e-02 +8.86192173e-02 +2.29198396e-01 +1.34056872e-02 +1.82157066e-02 -1.65351853e-02 +1.41040515e-02 +3.11941514e-03 -6.82954537e-03 -5.90741448e-02 -1.97311699e-01 -1.80029243e-01 -6.21105134e-02 -4.85103726e-01 -8.48918855e-02 +4.38498259e-02 +1.44408047e-02 -2.13283539e-01 -5.60378134e-02 +8.98281485e-02 -8.21116939e-02 +1.43395867e-02 +2.16001511e-01 +1.83661003e-02 -9.38666016e-02 -9.07823890e-02 -9.41133797e-02 -3.40725854e-02 +1.13567583e-01 +5.45083694e-02 -7.20003620e-02 -5.50096333e-02 -2.09320281e-02 +3.73115353e-02 +3.72214764e-02 +1.44679084e-01 -1.43704280e-01 -1.21138189e-02 -1.40634906e-02 -9.18359831e-02 +1.28377214e-01 -2.57770419e-01 +2.06034973e-01 -3.96484770e-02 -3.32335122e-02 +9.22225937e-02 -2.11259653e-03 -7.53396302e-02 -3.05170529e-02 -4.45141345e-02 +1.87560953e-02 +5.33642359e-02 +2.02154107e-02 +9.60994326e-03 -8.34596828e-02 -1.47289291e-01 -1.21073432e-01 -3.82617824e-02 +2.22494267e-02 +2.10874036e-01 +1.36614785e-01 -5.57849044e-03 -9.08955708e-02 +1.24403216e-01 -4.84249219e-02 +1.35802969e-01 -1.63103312e-01 +2.46107131e-02 -1.39264643e-01 -1.10861741e-01 +1.00770257e-01 -4.45210226e-02 -1.16778918e-01 +2.46069413e-02 +2.85438359e-01 -3.94823775e-02 -1.34527341e-01 -8.85316581e-02 +6.59569055e-02 +6.39054701e-02 -2.01361731e-01 +5.52631170e-02 +1.29429549e-01 +9.65224430e-02 +3.90774347e-02 -2.00074390e-02 +1.13367215e-01 -3.20406169e-01 +9.63296071e-02 +1.65227905e-01 -4.83448654e-02 -1.26457233e-02 -4.26066900e-03 -2.62052506e-01 +1.17095642e-01 +6.85392618e-02 -7.62791336e-02 +1.11764655e-01 -7.94534385e-03 -1.60584807e-01 +2.93858200e-01 +9.83884335e-02 +1.93578094e-01 +7.35259876e-02 -8.80382583e-03 +7.67934024e-02 +2.86889404e-01 -9.70069878e-03 +2.69346863e-01 -5.29348776e-02 +3.75188850e-02 -1.58996508e-01 +7.88836405e-02 +7.02532381e-02 +3.06197051e-02 +8.58767256e-02 +8.30140635e-02 +2.08991021e-01 +2.78441422e-02 +7.62906447e-02 +1.81725398e-02 -1.49390437e-02 +7.32316449e-02 -9.42034423e-02 +1.71076998e-01 +2.76636720e-01 -4.92651341e-03 +6.29206747e-02 -2.12057550e-02 -5.05793793e-03 +4.67016459e-01 +1.03579715e-01 +1.44282550e-01 -2.26544701e-02 +1.72930816e-03 -1.59580126e-01 -5.47444224e-02 +1.45651419e-02 +1.20368280e-01 -2.04361171e-01 -1.61999725e-02 -1.36799023e-01 -9.05145109e-02 +7.21823499e-02 -2.13828087e-02 +3.78041029e-01 +1.46776870e-01 +9.66006294e-02 -1.29312826e-02 +1.88021120e-02 +2.27515385e-01 -8.17278326e-02 -2.75470354e-02 -1.80390880e-01 -1.35594547e-01 -5.86264692e-02 -1.93396911e-01 +2.87682284e-03 -3.65826011e-01 -5.06913140e-02 +1.27765745e-01 +4.28906828e-01 -1.66395113e-01 +1.96283564e-01 +3.84468526e-01 -2.71808028e-01 -5.64188242e-01 +5.06813675e-02 +1.23142846e-01 +9.63733867e-02 -1.22335382e-01 -2.47616344e-03 +1.94439381e-01 -1.36750966e-01 +1.26867995e-01 -1.67222589e-01 +3.95080596e-01 -2.17431396e-01 +1.95806563e-01 -5.86328208e-01 -3.06073815e-01 -3.56366754e-01 -2.66991645e-01 +1.89870849e-01 +1.73806548e-01 -1.42733574e-01 +6.70491219e-01 +2.73988903e-01 -1.97519645e-01 -1.02368154e-01 +3.52894455e-01 -3.76672834e-01 -3.75987828e-01 -3.68565097e-02 -1.39830962e-01 +1.82096362e-01 +2.45546326e-01 -1.25960827e-01 +6.03565514e-01 +2.43714735e-01 +1.34727836e-01 -3.93060565e-01 +7.45592266e-02 -2.61003543e-02 +1.26954868e-01 -1.07490487e-01 -4.36669558e-01 +1.76247269e-01 -3.42369854e-01 -6.82177320e-02 -2.09300950e-01 +2.14815453e-01 -3.93658653e-02 +3.85935187e-01 -1.59181729e-01 -5.58436394e-01 -2.62552708e-01 +8.88393462e-01 -2.69908011e-01 -9.80626093e-04 +3.57549727e-01 -5.19100092e-02 -3.60681385e-01 +4.30843204e-01 -4.85537827e-01 -1.35085983e-02 +2.81300962e-01 -7.41729280e-03 +2.21276030e-01 -2.19047129e-01 +1.35555625e-01 +2.15403304e-01 +3.24698806e-01 +4.73161265e-02 -1.46725252e-01 +4.01289523e-01 +1.63973987e-01 +2.25789174e-01 +3.04533303e-01 -3.21702540e-01 +1.57308772e-01 -1.43621624e-01 +2.16438979e-01 +1.07086234e-01 -1.20996218e-03 -7.12907836e-02 -1.37840360e-01 +2.57061243e-01 +2.42110714e-01 -4.43320870e-02 -3.40638429e-01 -5.02991788e-02 +5.26490092e-01 -2.53286839e-01 +5.17223626e-02 +1.28922358e-01 -6.48235559e-01 +9.27201360e-02 -3.19953449e-03 +6.07239679e-02 +1.60782993e-01 +1.73838511e-01 -6.82964444e-01 -2.88779616e-01 +9.22201648e-02 +1.10716000e-02 -2.32192442e-01 -7.49159813e-01 +3.01200390e-01 +1.49951324e-01 -1.24752581e-01 -5.54911971e-01 -2.51316607e-01 +3.03634140e-03 -1.72091976e-01 +1.71562746e-01 +2.20471770e-01 -4.59096223e-01 -1.03319846e-01 -2.57526990e-02 -3.09551656e-01 -4.39530253e-01 +8.22634920e-02 -4.97960597e-02 +3.23322229e-02 +8.23366642e-02 -4.73064519e-02 +1.18061662e-01 -1.46907002e-01 +2.24554203e-02 -5.21679483e-02 +4.52558585e-02 -1.06868312e-01 -2.05847815e-01 +3.13096819e-03 +4.15263414e-01 -9.22374502e-02 +4.74425435e-01 +1.54539913e-01 -8.45475122e-02 +1.93326503e-01 +3.78636986e-01 -1.88699678e-01 +1.57267898e-01 +5.14896028e-02 +2.54746199e-01 -2.43988171e-01 -2.60505304e-02 +1.19853340e-01 -1.34828791e-01 +2.20839195e-02 -8.68068188e-02 +7.52396062e-02 +6.57213256e-02 +1.39108181e-01 -2.36708820e-01 -1.43197790e-01 +1.65061176e-01 +7.54297897e-02 +6.83142006e-01 +6.98105320e-02 -1.50883391e-01 -4.02717516e-02 +3.05366106e-02 +7.02444762e-02 -5.09178340e-02 +3.15078460e-02 -6.24107867e-02 +1.41332164e-01 +1.64109620e-03 +2.45602116e-01 -7.42427707e-02 -2.57006846e-02 +4.19112854e-03 -3.26495543e-02 +1.31079033e-01 -4.28941101e-02 -1.26104563e-01 +6.50850609e-02 -1.58225019e-02 -1.42223716e-01 -2.54690766e-01 +1.32090673e-01 +6.25026077e-02 -4.38691303e-02 -1.23791449e-01 -7.03841448e-02 +1.91573463e-02 +5.99681996e-02 +9.37577561e-02 +1.05482504e-01 +7.51473978e-02 -5.59071451e-03 -9.16244462e-02 -3.62651683e-02 +1.35485828e-01 -9.77109224e-02 +1.45834126e-02 +7.44001493e-02 -4.49766628e-02 -6.09247237e-02 -1.61332771e-01 -3.41216415e-01 -8.86919275e-02 +6.73583057e-03 +6.81557283e-02 +1.19508160e-02 -2.87458468e-02 +2.01623484e-01 +1.20058894e-01 +2.37978846e-01 +1.70908988e-01 +9.78877652e-04 +3.40453029e-01 +1.58003137e-01 -2.92452588e-03 -1.24544784e-01 +6.47188723e-03 +8.84699598e-02 -2.07229242e-01 +3.03925760e-02 -6.77348394e-03 +7.62552470e-02 -8.63606408e-02 -1.74397200e-01 +1.80530712e-01 +4.82012704e-02 -5.58092520e-02 +1.00328952e-01 +1.46972075e-01 +1.29783079e-01 -1.96348634e-02 +1.59113586e-01 +9.30876732e-02 +1.50683507e-01 +1.66453809e-01 +1.06150165e-01 -7.18836561e-02 +1.20693691e-01 -1.20060705e-01 +1.18253976e-01 +1.24217048e-01 -2.71654576e-02 +2.31223777e-01 +9.16791409e-02 +1.90754250e-01 +5.14988136e-03 -1.00201763e-01 -5.16940318e-02 -6.73742667e-02 -2.24106938e-01 +2.90579032e-02 +9.02961195e-02 -9.31396410e-02 -1.10477693e-01 -8.14669505e-02 +5.99697009e-02 +7.85245225e-02 -6.89240620e-02 +6.77894205e-02 +3.35023180e-02 -1.66309491e-01 +7.85761923e-02 -1.21992834e-01 -1.49502233e-01 -6.32917369e-03 +1.44846410e-01 -6.18010052e-02 +1.48483375e-02 -5.24098463e-02 -2.98063904e-02 +5.17632179e-02 -8.01212117e-02 -6.55375570e-02 -8.58948454e-02 +1.56934932e-01 -2.55341887e-01 +6.94747269e-02 +3.43049057e-02 -7.84543827e-02 +1.10069305e-01 -2.06073239e-01 +1.05122559e-01 -7.93305263e-02 +7.49675184e-02 +9.54257920e-02 +4.91843149e-02 -1.76026464e-01 +3.94094316e-03 +1.44171819e-01 +9.13759395e-02 +1.84738681e-01 +5.74920792e-03 +1.15819372e-01 +1.49063058e-02 -7.33162388e-02 +8.98877010e-02 -9.29670315e-03 +4.12695147e-02 +1.06944069e-01 +8.66672248e-02 -1.77363381e-02 +1.44191653e-01 -6.70356676e-03 +5.06009981e-02 +1.97016060e-01 +2.38932166e-02 +3.27359214e-02 +4.01379950e-02 -7.57380724e-02 -2.68943254e-02 +1.25641674e-02 -8.75378847e-02 -1.27961859e-02 -1.38830677e-01 -5.34354486e-02 +6.71220571e-02 -2.75965005e-01 +1.08421054e-02 +3.44286188e-02 -7.74146765e-02 +8.04724172e-02 -1.52865812e-01 -7.31340721e-02 -4.40439060e-02 -4.31415252e-02 -1.91842392e-01 +9.15706009e-02 +1.59123510e-01 -6.48261234e-02 +1.98971719e-01 -1.05456121e-01 -3.24892327e-02 +2.99536344e-02 -1.01196416e-01 +8.27754140e-02 -5.86244352e-02 +1.65101960e-01 -1.26306161e-01 -9.96325314e-02 +1.93671435e-01 +2.96897411e-01 +5.75637780e-02 -1.16154574e-01 -6.97170198e-02 +1.26096979e-01 +9.24738497e-02 +2.19218321e-02 -1.10619523e-01 +7.67244771e-02 -1.24606043e-01 +2.22235069e-01 -1.96081158e-02 +2.07740497e-02 -9.69125479e-02 +7.47068040e-03 +1.51867107e-01 -2.97965318e-01 +1.38304412e-01 +2.11301516e-03 +8.72809291e-02 -7.98758585e-03 +1.63134798e-01 +8.77893493e-02 +7.05672503e-02 -1.13837495e-01 +3.07766292e-02 -5.08125359e-03 +1.08042896e-01 +7.85978958e-02 -3.47784683e-02 +9.94376838e-02 -1.06222436e-01 +1.11743078e-01 -4.33097742e-02 +8.85682330e-02 -6.55124411e-02 +4.95178141e-02 +1.39943706e-02 +1.37544209e-02 -6.29188195e-02 +1.58929855e-01 +8.34480003e-02 -2.55280398e-02 -1.55063495e-01 -1.02673635e-01 -7.90767819e-02 +7.92042837e-02 +3.65379490e-02 +2.74877697e-01 +1.03497989e-02 -1.30678192e-01 -1.25310764e-01 +1.01336777e-01 +1.66995645e-01 -9.27326605e-02 -1.29418429e-02 -3.32852423e-01 -3.95523496e-02 -1.16949156e-01 +7.18917623e-02 -8.74434710e-02 +1.03182919e-01 +7.02615827e-02 +1.48056105e-01 +4.16522697e-02 -7.61260316e-02 -3.29604140e-03 +6.28279001e-02 +2.36378074e-01 +1.80139598e-02 -1.40318245e-01 +2.02255081e-02 +1.27140224e-01 -5.54517284e-03 -1.45359874e-01 +1.13623299e-01 +2.81360094e-02 +5.27261794e-02 -5.41609861e-02 +2.15646215e-02 -4.24158722e-02 +8.59803632e-02 +5.82215451e-02 +1.30085945e-01 -2.08854116e-02 -5.45115992e-02 +1.03245750e-01 -2.65725404e-01 -3.06151831e-03 +1.78765148e-01 +1.30148843e-01 +3.25815678e-02 +1.33078381e-01 +5.07578850e-02 -4.83161248e-02 -1.69464515e-03 -5.43856323e-02 -1.42025441e-01 +1.82813108e-01 +7.00868070e-02 -1.55614004e-01 -1.83975305e-02 -9.24248397e-02 -1.14268795e-01 -1.04038538e-02 +9.62582082e-02 +1.59198157e-02 +3.70089971e-02 -3.32871042e-02 +3.21478434e-02 +1.23767078e-01 -3.89591493e-02 +1.27070218e-01 +6.01490326e-02 -1.83800384e-01 +6.91607967e-02 +5.69029897e-02 +8.28630701e-02 +5.62962331e-02 -9.88000184e-02 +1.01716131e-01 +1.03313960e-01 +1.18032560e-01 -1.09855436e-01 +1.22486383e-01 -2.40688130e-01 -6.38402179e-02 +6.93940222e-02 +2.83722281e-01 +2.99301706e-02 +7.92428181e-02 -3.98690999e-02 -5.16122952e-03 +1.41007960e-01 -1.00327007e-01 +2.32677441e-02 +1.46554723e-01 +9.03585702e-02 +1.03600040e-01 -2.48120949e-02 +6.76518157e-02 -5.12062060e-03 -1.24647498e-01 +7.83772953e-03 -1.41835466e-01 +8.38181525e-02 +1.85306799e-02 -9.95138586e-02 -7.59306177e-02 -2.68301368e-01 +1.21652991e-01 +5.23858666e-02 -3.60474586e-01 +4.22852561e-02 -1.51953893e-02 -8.49681906e-03 +1.37324572e-01 +2.18683444e-02 -1.47720248e-01 -2.18540849e-03 +1.10132650e-01 +1.80758581e-01 +3.64640385e-01 -1.09197818e-01 +5.60611784e-02 +1.45726940e-02 -1.78522877e-02 +7.65228152e-01 +2.27537245e-01 +3.83934557e-01 -7.63761222e-01 +3.02359089e-02 -5.30901372e-01 +2.25454988e-03 -2.70333052e-01 -4.89959538e-01 +9.07709748e-02 +8.00826669e-01 +5.26362471e-02 -8.97408798e-02 +1.92882195e-01 +2.34428659e-01 +1.78025901e-01 -4.53749448e-01 +1.33665681e-01 +2.08750084e-01 +3.09368491e-01 -6.74691573e-02 -1.87929720e-01 +5.60453415e-01 -9.98318791e-02 +3.22153151e-01 +1.46841660e-01 +5.27299464e-01 +3.17468643e-02 +1.68657258e-01 -8.03587511e-02 -1.47860393e-01 -3.60338353e-02 -5.04220128e-01 +4.55355681e-02 -1.58416435e-01 -1.60909981e-01 -1.98143959e-01 +8.14536214e-02 -1.51332662e-01 -5.50067186e-01 -2.89554596e-01 +5.36124408e-01 -2.35481930e-04 -7.44330660e-02 +3.93100053e-01 +3.45612735e-01 -1.42041534e-01 -4.05767083e-01 +3.29823017e-01 -1.86511338e-01 +8.21444988e-01 +3.65187198e-01 -1.45644471e-01 -1.81238074e-02 -6.26381338e-02 -1.01352714e-01 +2.39593759e-02 -7.70653188e-01 +1.65211856e-01 +5.81189692e-01 +2.19752952e-01 -2.76182711e-01 +3.50002974e-01 -4.90395091e-02 -4.53881532e-01 -1.03847221e-01 -5.19009411e-01 +2.81995177e-01 +4.08222944e-01 +2.70392090e-01 +1.07445210e-01 -1.13185935e-01 -8.21020380e-02 +1.92738473e-02 -1.15481935e-01 -3.31125855e-01 -1.82165593e-01 +3.03511500e-01 +5.44274569e-01 -2.05738947e-01 -1.90016478e-01 -1.88229963e-01 -1.47915240e-02 +3.75948727e-01 +7.17984065e-02 +2.98956126e-01 -4.51009154e-01 -1.24101900e-01 +2.11194277e-01 +6.28060475e-02 -6.93177506e-02 -4.45289770e-03 -1.90882742e-01 +5.38635664e-02 +3.15852106e-01 -2.24938378e-01 -5.59710085e-01 -3.82108331e-01 +1.78272486e-01 +8.86739492e-02 +2.78083414e-01 +2.23151952e-01 -2.25023879e-03 +1.25976950e-01 -2.32506201e-01 +7.66631067e-02 +4.11099792e-01 +4.84684050e-01 +2.05613285e-01 -1.43134356e-01 -2.72950619e-01 +3.04727435e-01 +3.71696889e-01 -1.46307930e-01 +8.55167881e-02 +1.38307944e-01 +6.43341005e-01 +1.52811423e-01 +1.77609399e-01 -5.85468151e-02 -6.15159392e-01 +5.76933958e-02 +2.96342939e-01 +2.23629132e-01 +2.58200526e-01 +6.88441813e-01 +3.15228850e-02 +6.33590400e-01 -3.82376239e-02 +1.86407864e-01 +9.84201282e-02 +6.79755211e-02 +2.06785664e-01 +1.21101446e-01 -1.87230739e-03 -6.37011826e-02 -4.59714420e-02 -8.04102700e-03 +2.85478514e-02 +1.11777738e-01 -1.75573766e-01 -7.03460455e-01 +1.92601204e-01 +1.18282624e-01 -6.61497414e-02 +2.95109957e-01 -1.89043537e-01 +2.25509163e-02 -1.19464837e-01 +1.25933096e-01 -1.37687236e-01 -7.37143308e-02 -1.11674689e-01 -1.37366921e-01 +4.89784516e-02 -7.02486411e-02 +3.34966213e-01 -1.86956167e-01 -1.41593870e-02 -7.22397491e-02 -1.81710601e-01 -5.31311519e-02 +2.73230430e-02 -2.11544469e-01 +3.42426635e-02 -1.03158638e-01 +5.94750866e-02 +4.71193306e-02 +9.39980149e-02 +8.75055119e-02 -6.93322271e-02 -2.33246908e-01 -3.38797807e-03 -3.96884494e-02 +2.68019736e-01 +8.66358057e-02 -7.42539391e-02 -2.13094324e-01 -4.60906215e-02 +1.50925413e-01 -2.12809592e-02 +3.89299099e-03 -6.01058193e-02 -5.40064573e-02 +1.64538845e-01 -1.95035830e-01 +2.00376436e-01 +2.08979137e-02 +5.85800149e-02 -2.37496018e-01 -1.71574622e-01 +8.26911256e-02 +9.73578393e-02 +8.05218369e-02 +5.73366545e-02 -1.99968442e-01 +2.39804108e-03 +3.85155492e-02 +7.49865025e-02 +1.19711518e-01 -7.42957443e-02 -1.03959575e-01 -3.05168014e-02 -3.22572105e-02 -8.40583742e-02 +1.11954145e-01 +7.79554844e-02 +6.71389466e-03 -6.99073523e-02 +7.22564533e-02 +2.18215778e-01 -1.47727534e-01 +1.44419983e-01 +8.17986578e-02 +1.85024366e-01 +1.78984255e-01 +3.27266604e-01 +6.44121096e-02 +5.25549352e-02 -1.61218625e-02 -8.69670287e-02 +1.06865264e-01 -2.20625177e-02 -1.47644907e-01 -9.87251699e-02 +3.40419821e-02 +1.30269945e-01 -1.17313094e-01 -1.22125395e-01 +7.96448514e-02 +5.53402789e-02 -1.86754063e-01 -1.93298049e-02 +5.60781024e-02 +1.35636300e-01 +9.56304744e-02 -2.29449254e-02 -1.96981579e-02 +1.08451381e-01 +2.80549377e-01 -4.96075163e-03 -1.15258977e-01 -1.12669975e-01 +6.71800151e-02 +6.30353466e-02 -1.29326224e-01 -2.64860466e-02 -1.05558477e-01 +9.42762122e-02 -5.11803366e-02 -2.70405225e-02 -9.67368558e-02 +1.65949818e-02 -5.43146096e-02 -1.59131810e-01 -4.36120369e-02 +5.27123250e-02 -9.89110023e-02 +1.07174721e-02 +1.23953924e-01 +1.00988507e-01 -2.36985773e-01 -8.06087404e-02 +5.44647537e-02 -5.40428162e-02 -7.10203275e-02 -8.47614780e-02 +2.48727962e-01 -1.05397124e-02 -7.32027590e-02 +8.61511648e-01 +1.37969092e-01 -1.92729533e-01 -1.44999893e-02 -7.84332380e-02 +1.09402098e-01 -3.32642277e-03 +9.95241851e-02 -2.99359523e-02 +2.21178025e-01 -1.88843548e-01 -1.11628838e-01 +3.00081074e-03 +7.00082257e-02 -4.18744534e-02 -4.33752052e-02 -1.23825453e-01 +8.60490277e-03 +1.18281923e-01 +6.48865923e-02 +4.17600945e-02 -2.45805997e-02 -3.94517839e-01 -3.95743269e-03 -2.21387312e-01 +8.41231048e-02 -8.68095532e-02 +2.80138612e-01 -4.44121622e-02 +5.91962561e-02 +2.78591439e-02 -1.61557011e-02 +6.20321222e-02 +9.81599763e-02 +7.70743713e-02 -4.97008907e-03 -5.27485348e-02 +1.54315889e-01 +1.73263475e-01 +3.27918023e-01 +2.49767695e-02 -1.90709665e-01 -1.18861444e-01 -2.00230435e-01 -2.26687863e-02 +1.98390543e-01 -1.03901640e-01 -1.27658233e-01 +6.54064268e-02 +1.34652689e-01 +3.74692380e-02 +1.84400067e-01 +5.45396656e-02 -9.07980874e-02 -6.56733615e-03 -1.17991455e-01 -2.15290397e-01 +1.52376160e-01 -1.10330999e-01 +2.72420645e-02 -4.45655361e-02 +2.76776329e-02 -2.07725111e-02 -1.36681497e-01 +1.14869110e-01 -1.73316211e-01 -2.50930011e-01 +1.55263111e-01 -6.45540431e-02 -1.98980980e-02 -3.06761771e-01 +6.20923676e-02 -1.63262021e-02 -2.49921665e-01 +9.24627185e-02 -6.44654930e-02 +6.84257001e-02 +1.82239395e-02 -3.10449377e-02 +9.95721519e-02 +9.63210166e-02 -3.18289660e-02 -3.40375751e-01 +1.11192390e-02 +2.52438597e-02 -1.07329730e-02 -1.59898371e-01 +4.81273644e-02 +3.09115827e-01 +2.22973138e-01 -2.07590591e-02 -1.35936260e-01 -9.16701257e-02 +5.47526106e-02 -9.64700952e-02 -1.71073005e-02 -2.13987052e-01 +9.93136764e-02 -1.71032008e-02 -4.22253132e-01 -1.24321274e-01 +1.79814234e-01 +1.06001914e-01 +1.64213985e-01 +2.16954462e-02 +1.50755003e-01 +3.43031576e-03 +2.54400400e-03 +4.03408818e-02 -1.64918900e-02 +2.35263500e-02 +1.51375085e-01 +4.76387590e-01 +2.07201112e-02 +1.16795346e-01 -1.28719762e-01 -3.57934125e-02 +8.30068290e-02 -8.98628235e-02 -1.19996853e-02 -1.93394348e-02 +4.81760949e-02 -1.66163489e-01 +1.40703112e-01 -2.12338343e-02 -5.40630035e-02 +3.13147642e-02 -2.85126835e-01 +5.56752205e-01 -7.71336332e-02 -1.10137142e-01 -5.58808267e-01 +9.40852240e-02 +5.71446046e-02 +8.85171443e-02 -2.74151942e-04 +7.01788515e-02 +1.52812630e-01 -2.95161065e-02 +5.64368442e-02 +3.44665609e-02 -7.80385956e-02 +8.73419642e-03 -4.52269465e-02 -3.81779224e-02 -4.86859903e-02 -1.35858119e-01 +8.50336552e-02 -1.10636212e-01 -3.87333959e-01 -9.67189446e-02 -3.01735103e-02 +9.36043188e-02 -1.17109098e-01 -4.01823968e-02 +7.93913826e-02 +9.67715457e-02 +3.84767801e-02 +6.20937087e-02 -8.47421587e-03 +1.20653979e-01 -4.42701066e-03 -4.17947136e-02 -3.97567339e-02 -5.28094880e-02 +1.22196406e-01 +9.00815651e-02 -1.25025839e-01 +1.45292714e-01 +4.97174971e-02 -1.68140456e-02 +7.17647299e-02 -1.45725712e-01 +2.33614240e-02 +7.17154071e-02 +4.71830517e-02 -1.10716619e-01 -2.12747082e-02 -1.04419641e-01 -3.38599347e-02 -5.79023696e-02 +3.50080989e-02 -8.25986937e-02 +4.89690490e-02 -4.25813533e-02 +5.45494892e-02 -9.96693075e-02 -1.79566797e-02 +1.76272482e-01 -1.42153233e-01 +5.60503788e-02 -2.56244950e-02 -1.92478538e-01 -2.10063592e-01 -5.89583099e-01 -4.40716833e-01 -1.98641010e-02 -1.74102709e-02 -3.52089964e-02 +3.60256694e-02 -1.47248477e-01 +9.83086303e-02 +5.12396824e-03 -1.98595732e-01 +1.63884033e-02 +1.22829027e-01 -3.35201062e-02 +2.21561082e-02 +1.15964390e-01 -2.67695524e-02 -2.83719629e-01 -7.49078533e-03 +6.63774163e-02 +3.75980139e-02 +2.64382903e-02 +7.49229714e-02 +1.35498554e-01 -1.23922475e-01 +1.89501923e-02 -1.50426850e-01 +4.78097275e-02 -8.83769989e-02 +6.98603541e-02 -7.66753927e-02 -1.06311969e-01 -3.44152600e-01 -1.03631802e-01 -8.37311447e-01 +3.03703453e-02 +1.28424868e-01 +1.97132975e-01 +1.96430802e-01 +1.18088529e-01 -1.96732953e-02 -1.49690941e-01 +1.53886974e-01 -2.52859712e-01 -3.03051353e-01 +1.02908537e-01 -1.22546583e-01 -1.31111845e-01 -1.91547051e-02 +5.51052570e-01 +1.73586816e-01 +4.37865257e-02 -3.09902012e-01 -2.79078782e-01 +1.31019592e-01 -4.01350498e-01 -9.48678628e-02 -3.58943418e-02 +2.07031909e-02 -1.27960637e-03 -2.99464077e-01 +2.41958812e-01 +4.74045202e-02 +1.95460752e-01 -1.63789630e-01 +5.33007607e-02 -2.61843055e-01 +6.74963176e-01 +3.15320402e-01 -4.14748909e-03 -4.29654777e-01 +7.29142189e-01 -4.80730563e-01 -1.21944562e-01 +1.39853030e-01 -1.49887145e-01 +3.61001521e-01 -2.21438818e-02 -1.72709003e-02 -8.53385627e-02 +3.69735122e-01 -5.24039149e-01 -1.08788542e-01 -1.83219045e-01 -2.56752461e-01 -3.92938197e-01 +2.20669672e-01 -1.43007129e-01 -4.70691711e-01 +1.34940639e-01 +3.70318331e-02 +1.81166947e-01 +4.05615658e-01 -6.58379272e-02 -8.76222700e-02 -1.79612294e-01 -2.89601952e-01 +4.09875751e-01 +1.68387026e-01 +3.90023738e-01 +1.05649896e-01 -1.72174871e-01 +9.93747562e-02 -4.88574117e-01 +3.06249619e-01 +2.52550632e-01 +1.16061263e-01 -2.82592606e-03 +3.34028378e-02 +3.18270713e-01 +1.69996589e-01 -9.41348895e-02 -2.46955514e-01 -3.72534484e-01 -1.75481021e-01 -3.09593260e-01 +1.71102941e-01 -2.49937624e-02 +3.88613999e-01 -8.79132375e-02 -6.93101287e-02 +1.92761630e-01 -2.46874541e-01 +1.11115560e-01 -3.27954113e-01 -2.80718744e-01 +3.14632684e-01 -1.18264034e-02 -1.37925237e-01 -3.16063136e-01 -5.30647099e-01 +2.77667522e-01 -4.40544933e-02 +1.55719638e-01 -3.37481886e-01 +5.49243331e-01 -1.25870466e-01 -2.85079535e-02 -1.17721856e-01 -2.29083508e-01 +1.10436708e-01 +4.23253149e-01 +2.59768832e-02 -1.63110331e-01 -6.86431602e-02 -6.75954819e-02 -4.83899593e-01 +5.45433462e-01 +1.34187028e-01 -3.57407212e-01 +6.26825616e-02 -6.65038079e-02 -1.22027554e-01 -2.93942213e-01 -2.41742600e-02 -2.53803074e-01 -1.52109206e-01 +4.38920975e-01 -5.92520475e-01 -2.25648329e-01 -1.10399880e-01 +6.28419667e-02 -2.92969823e-01 -4.68321145e-02 -3.53912562e-01 +2.77194649e-01 +1.36621203e-02 -1.73010360e-02 -3.61220956e-01 -1.59657393e-02 -2.88962454e-01 -1.80320799e-01 -9.34628397e-02 -5.14709800e-02 -9.40998122e-02 +7.61216879e-03 +5.66912852e-02 -1.08034201e-01 +1.17445715e-01 +3.80129516e-02 +1.76216487e-03 -7.22607225e-02 +1.13008879e-02 -4.32789996e-02 -6.35783821e-02 -8.70653689e-02 +6.97889701e-02 -6.69298619e-02 +3.70543152e-01 +1.34505630e-01 -1.34286255e-01 -7.20078796e-02 -1.04794197e-01 -4.79396656e-02 +5.40865064e-01 -3.51831540e-02 -2.93238610e-02 +7.64937401e-02 +1.28731757e-01 -1.77459773e-02 +1.19151838e-01 +7.52280205e-02 +2.26910785e-03 -1.53538495e-01 +2.67733186e-02 +6.75583184e-02 +4.30598557e-02 +8.29494074e-02 +1.00628212e-01 +4.88226768e-03 -4.58132774e-02 -1.88437495e-02 +1.62888527e-01 +1.66675955e-01 -3.35436761e-02 -4.32943553e-02 +5.66987693e-02 -7.42051080e-02 +5.80907688e-02 -3.18946503e-03 -3.27750891e-02 -5.48083484e-02 -6.12651259e-02 +5.26092909e-02 -4.30604406e-02 -4.00456376e-02 +4.83600311e-02 -1.00141928e-01 -1.58493459e-01 -1.82147119e-02 -3.33971083e-02 -2.44990550e-02 -6.32163659e-02 -9.64488611e-02 -2.81898249e-02 +6.87997863e-02 -1.13874398e-01 +7.23007545e-02 +9.02084187e-02 +1.22263104e-01 +2.06311382e-02 -1.70218810e-01 +3.17836255e-01 -4.07301188e-02 -5.81970662e-02 +3.77505273e-02 +1.47190243e-02 +5.83292097e-02 -1.34865254e-01 +4.95191962e-02 -9.26136151e-02 -1.42792299e-01 +2.20094398e-02 +1.31017745e-01 +1.29230171e-01 +3.02933902e-01 +1.17916390e-01 -6.24164157e-02 -1.79805249e-01 -7.17621893e-02 +1.04442321e-01 +1.19458688e-02 -1.11930244e-01 -1.16658606e-01 +1.63178638e-01 +1.26642048e-01 +3.28389943e-01 +7.50312209e-02 +7.07762837e-02 +7.77855143e-02 +1.16897598e-01 -4.03330363e-02 +1.34665193e-02 +5.78228347e-02 +6.16263635e-02 -1.65649187e-02 +5.26777059e-02 -6.69891313e-02 +6.73856661e-02 +4.21955697e-02 -5.29931448e-02 -4.69602942e-02 -1.21936403e-01 -5.55629618e-02 -1.32755619e-02 +5.99302277e-02 +7.74357617e-02 -1.01901451e-03 +6.44335970e-02 -1.52764544e-01 -2.05887452e-01 +8.79605860e-02 -6.70387149e-02 -2.03303881e-02 +6.73903897e-02 +2.55527496e-02 -2.21449956e-01 -4.00525145e-02 -9.58944857e-02 +9.55493003e-02 +6.59395233e-02 -6.41714707e-02 -2.31671799e-02 -1.77745312e-01 +9.44197252e-02 +1.33138701e-01 +1.39768735e-01 +1.99772492e-01 -2.23097280e-01 -1.28452152e-01 -1.53409109e-01 -1.34212216e-02 -5.03928736e-02 -2.46846214e-01 +7.57970884e-02 +1.09426409e-01 -9.82841402e-02 -1.21872768e-01 +1.66507840e-01 +4.27364945e-01 -2.42191687e-01 -2.90806927e-02 -2.87528008e-01 +2.11998895e-01 +7.32174963e-02 +3.87137011e-02 +2.41746008e-02 +6.94327280e-02 +3.40984493e-01 +1.89329550e-01 +8.49600732e-02 -1.58589140e-01 +1.25908256e-01 -1.11569203e-01 -2.95402016e-02 -1.51068926e-01 -1.80506319e-01 -5.12847789e-02 +2.67443080e-02 +2.26850823e-01 +2.03101709e-01 -1.71941370e-01 -1.16232760e-01 +1.15139760e-01 -5.05472898e-01 +4.61674109e-02 +9.48234275e-02 -1.48724839e-01 -1.75831676e-01 +1.48822963e-01 -9.10383910e-02 -1.68660387e-01 -7.82614872e-02 +2.67809611e-02 +2.08035871e-01 +1.81483909e-01 +1.04472183e-01 +2.17575863e-01 -3.66882324e-01 -2.31699124e-02 +8.00858513e-02 +1.14174590e-01 -1.25197649e-01 +8.40857625e-02 +4.13721539e-02 +2.11347654e-01 +1.00725539e-01 +5.46193756e-02 +1.82966381e-01 -5.96169755e-02 +4.40786064e-01 -4.26577218e-02 +1.87137797e-01 -3.84835601e-02 +1.10345539e-02 -6.24113716e-02 -1.03263155e-01 +1.39558092e-01 +1.23085886e-01 +1.98369082e-02 -6.25554845e-02 -2.78636813e-01 +5.92956319e-02 -1.82780530e-02 +4.13269699e-02 -4.84759122e-01 -1.88901588e-01 +1.74896359e-01 +2.17971742e-01 -1.24582827e-01 +2.39499569e-01 -7.40375146e-02 +1.84631795e-01 -7.27969930e-02 +2.79532243e-02 -1.03364691e-01 -1.86956730e-02 +2.41042331e-01 -1.33582011e-01 +1.73360020e-01 +2.55321283e-02 -1.97533146e-01 +5.46396933e-02 -8.41269735e-03 -1.56109467e-01 -6.14783056e-02 +1.41527861e-01 +3.59191209e-01 +1.62881255e-01 -1.43762201e-01 +6.27457276e-02 -1.70297883e-02 +1.35626465e-01 -9.65737551e-02 +7.89258182e-02 -1.75517336e-01 +6.68933317e-02 -1.03963889e-01 -2.18548521e-01 +4.38472256e-02 -8.72142464e-02 -2.86151227e-02 +1.23283580e-01 +1.00367196e-01 -3.47544402e-01 +4.07178998e-02 -5.08314259e-02 -1.29143506e-01 -8.88761058e-02 +3.40354927e-02 -6.57862574e-02 +1.63945779e-01 +1.31074905e-01 -2.56398506e-02 +3.50922458e-02 +9.11176950e-02 +9.98686627e-02 -1.17941514e-01 +1.39088616e-01 +9.95130278e-03 -1.48736179e-01 +9.60146785e-02 -2.58805342e-02 -7.83455446e-02 +4.30453479e-01 -6.26075342e-02 +2.66816113e-02 +4.33830619e-01 +6.82218745e-02 +3.51801813e-02 +9.31899622e-02 +7.63236582e-02 +6.48017973e-02 -1.00082882e-01 +4.57441397e-02 -1.47654507e-02 +1.02697320e-01 -3.69267166e-02 +1.45863578e-01 +7.60018155e-02 -5.49871512e-02 +1.97605923e-01 -7.84912407e-02 +1.29269436e-01 +1.44988328e-01 -4.00484204e-02 -1.88896999e-01 +7.99327716e-02 -6.32488206e-02 -5.88273890e-02 +6.65009543e-02 -2.28710905e-01 -2.33873591e-01 -1.06146492e-01 -1.77755773e-01 -1.70285478e-02 +3.54016051e-02 -8.30344260e-02 -1.49356559e-01 +5.06089985e-01 -1.55313700e-01 -6.23645112e-02 -9.97375026e-02 -8.90702903e-02 +1.20767958e-01 +3.35377693e-01 +4.85301346e-01 -4.95755188e-02 -1.23307211e-02 -6.12308681e-02 +2.28630286e-02 +5.46141043e-02 +5.09960949e-02 -7.11360648e-02 +7.47521445e-02 -2.42085140e-02 -9.80368908e-03 +1.63990662e-01 +2.30004296e-01 -1.01549618e-01 -3.22500952e-02 -1.44948419e-02 +7.72108808e-02 +1.19644754e-01 +9.13001180e-01 +2.59238362e-01 +1.58149213e-01 +8.88326243e-02 +4.07861881e-02 -1.17510453e-01 -4.25412087e-03 -3.51090908e-01 -8.62889364e-02 +8.09409171e-02 -5.27962029e-01 +1.10635243e-01 +4.44404691e-01 -4.31149416e-02 +1.02287307e-01 +9.22467858e-02 +7.79316807e-03 -2.85261795e-02 -3.34479839e-01 -1.02495104e-01 +1.44747384e-02 -6.90031797e-02 -1.09311109e-02 +1.83672860e-01 -1.38450816e-01 -2.78969377e-01 +1.26769140e-01 -1.87897161e-02 -1.39950141e-01 -8.16186219e-02 +1.79680273e-01 +2.18433723e-01 +1.09252267e-01 -6.18990771e-02 +4.61604819e-02 -1.47212997e-01 +7.26336613e-02 -9.98669192e-02 +7.88890794e-02 +2.43914053e-01 -3.59830141e-01 -1.28969207e-01 -2.62626916e-01 -1.76130496e-02 +1.70305654e-01 -6.40612096e-02 +3.11470926e-01 -8.12910870e-02 +1.95119128e-01 -4.59122844e-02 -7.91651905e-02 -3.84762347e-01 -2.84820702e-03 +8.30310490e-03 -1.78885266e-01 +1.35080025e-01 -2.51656342e-02 +4.99595016e-01 +1.43683419e-01 +2.32535690e-01 +1.24392137e-01 -1.01218015e-01 +3.73350233e-01 -1.26298261e+00 +2.34058917e-01 -6.05023354e-02 -6.85794204e-02 -5.85921466e-01 -8.05177912e-02 +3.92852157e-01 +1.54954597e-01 +6.04071282e-02 -3.37973796e-02 -2.20338225e-01 -9.76564288e-02 +2.57420868e-01 +5.24592757e-01 -5.50969355e-02 -2.26146057e-02 +4.55703527e-01 -2.82682240e-01 +3.83940816e-01 +1.64542705e-01 +1.54324085e-01 +6.32968485e-01 +4.53423187e-02 +5.53889498e-02 -8.86125684e-01 +2.21368089e-01 -7.03757465e-01 +1.03126340e-01 -8.65247846e-01 -1.00199036e-01 +1.95642412e-01 +9.33998749e-02 -1.82010159e-02 -9.40040231e-01 +2.07675874e-01 -4.02929038e-01 +4.85407323e-01 +7.23375499e-01 -2.43935376e-01 -4.63985741e-01 -6.03938811e-02 -1.51461303e-01 +6.56451732e-02 -3.65405291e-01 +1.24758303e-01 +1.05433956e-01 +8.15040246e-02 -9.18524861e-02 +2.97426522e-01 +2.66784549e-01 -1.47594903e-02 -8.23849961e-02 +5.08962929e-01 -5.76545745e-02 +6.86679900e-01 +1.63063362e-01 +3.65202576e-01 -4.77882236e-01 -4.16731477e-01 +2.22772256e-01 +7.31175005e-01 -8.68587866e-02 -6.24355450e-02 +1.57672629e-01 +5.75133145e-01 -3.49780433e-02 +9.46732014e-02 +3.22235435e-01 +2.02046290e-01 +5.15150607e-01 -4.98697400e-01 +4.35494214e-01 -4.47460324e-01 -3.64378750e-01 -3.84865820e-01 -5.03261387e-01 +1.20250896e-01 +1.78266466e-01 +6.77308589e-02 -5.36807418e-01 +5.83082795e-01 -1.34485081e-01 +1.87831491e-01 -8.93565044e-02 +3.36931318e-01 -1.58028752e-01 +3.84826958e-01 -2.01144554e-02 +1.83084141e-02 -2.37324655e-01 -1.02640264e-01 -4.30254668e-01 +3.66458952e-01 -5.22865117e-01 -4.46821868e-01 -5.16851425e-01 +1.53700328e-02 -2.49488149e-02 -1.86122313e-01 +1.59543604e-01 -5.37701428e-01 +2.17506021e-01 +1.01144053e-01 -1.58687010e-01 +8.82455613e-03 -4.76731360e-01 -1.01460373e+00 +1.07436031e-01 -3.10356487e-02 -5.58765829e-02 +1.36531621e-01 +1.83664739e-01 +3.38734627e-01 -2.63065010e-01 +3.48312408e-01 -2.69564502e-02 -8.88368607e-01 -3.35454732e-01 +1.63261723e-02 +6.84536099e-02 +7.58410767e-02 -4.40062210e-02 +2.16231614e-01 -1.94978788e-02 -3.07714920e-02 +6.59950972e-02 -3.20466012e-02 +1.50182769e-01 +3.70129384e-02 -5.55516742e-02 -9.35144126e-02 -2.07009524e-01 -1.13422014e-01 -1.58405341e-02 -2.33603209e-01 +1.87867388e-01 -2.03869212e-02 -1.29626706e-01 +1.86178356e-01 +4.93334830e-02 +1.05825156e-01 -1.90599822e-02 +4.83799316e-02 +9.39822197e-02 -8.95458832e-02 +1.55866906e-01 +1.54066399e-01 +7.66973272e-02 +4.94909324e-02 +1.01420127e-01 +9.45855211e-03 +1.60676256e-01 -4.40985337e-02 +2.28028968e-02 +2.76263040e-02 +1.83139518e-01 -1.49125218e-01 -3.96477968e-01 -9.41754356e-02 -1.38741493e-01 -1.84807360e-01 +1.30936369e-01 -2.64752626e-01 +3.32795903e-02 +1.94927737e-01 +8.35471004e-02 -1.06761985e-01 -4.95976359e-02 +3.71358037e-01 -2.10203022e-01 -6.70513585e-02 +6.15981184e-02 +2.31424972e-01 +4.69173379e-02 +1.57588441e-02 +3.58001053e-01 -4.17223275e-02 +2.80127246e-02 -1.24337301e-01 -1.69370174e-01 -1.28049910e-01 +1.28994107e-01 +1.78354010e-01 -4.14951518e-02 -7.97705874e-02 -1.52880356e-01 +8.81883800e-02 +1.45080030e-01 -1.50626320e-02 +1.63134068e-01 -1.90307558e-01 +5.66025674e-02 -1.37752682e-01 -2.61433721e-01 -1.63549379e-01 +1.04376651e-01 +1.66705027e-02 -2.29995891e-01 -1.08187005e-01 -2.44211152e-01 +3.08311313e-01 -1.10833440e-02 +3.16149205e-01 -5.92128634e-01 -1.53671220e-01 +7.26702735e-02 -2.80783977e-02 +5.94021529e-02 -2.78468672e-02 +2.80714259e-02 +5.73712401e-03 -4.38585043e-01 -9.17381048e-02 -2.58434176e-01 -2.43411642e-02 -1.16042115e-01 +4.97025028e-02 -2.07052141e-01 -6.78368211e-02 +4.11414467e-02 +6.64829388e-02 +1.85970202e-01 -6.44227257e-03 -1.33773878e-01 -6.06919006e-02 -2.63797715e-02 -1.69060715e-02 +1.36166856e-01 +1.30556837e-01 -1.79754183e-01 +2.74465948e-01 -1.66999772e-01 -1.16903163e-01 +3.23565692e-01 -6.13336973e-02 -1.40389130e-01 +2.40730911e-01 +1.80209771e-01 +2.82858461e-01 +1.61432490e-01 -9.68726911e-03 -1.43589467e-01 -1.46548981e-02 +8.74585286e-03 +3.28159332e-01 +1.39059499e-01 +2.47196648e-02 +3.43806222e-02 +7.57122785e-02 -5.80075905e-02 +1.43367290e-01 +5.22945262e-02 +6.92291707e-02 +4.54424247e-02 -2.93967873e-01 -4.67596650e-02 -3.46167162e-02 +1.07600965e-01 +3.03142704e-02 -6.00344799e-02 -1.52359297e-02 -1.48059815e-01 +8.92483741e-02 -9.76586342e-02 -4.11588013e-01 +9.71948579e-02 -3.41958366e-02 +3.16792838e-02 -1.43307999e-01 -1.03236236e-01 -1.00808620e-01 +4.48185988e-02 -3.65084559e-02 -1.56324625e-01 +4.33688499e-02 +1.23513818e-01 +1.85191333e-01 +7.96949491e-02 -5.27591966e-02 -1.78808913e-01 +1.10840976e-01 -4.07310687e-02 +2.11663231e-01 +2.03310847e-02 +1.64602175e-02 -1.78846270e-01 +3.83656412e-01 -2.30988972e-02 -1.58892035e-01 -1.85739413e-01 -8.23595375e-02 +3.03987749e-02 -1.25176668e-01 -2.35176738e-02 +4.98160683e-02 +6.19751140e-02 -1.75111681e-01 -3.18887651e-01 +2.03636780e-01 +7.74262026e-02 +1.35975659e-01 +1.07599972e-02 -4.16489318e-02 +1.00349709e-01 +6.86001182e-02 +1.43693378e-02 -5.87835871e-02 -1.10645764e-01 -1.46581173e-01 +1.01883844e-01 -1.30304582e-02 -1.76865056e-01 +1.22973211e-01 -1.82050586e-01 -4.34022509e-02 -1.94894284e-01 +1.92794144e-01 -1.32548558e-02 -3.46473120e-02 +2.18212660e-02 -1.01726070e-01 +1.01288565e-01 -1.66791856e-01 -6.22362942e-02 -5.52115589e-03 +3.32185715e-01 +3.24521586e-02 -8.05734172e-02 +7.37025514e-02 +1.23467274e-01 -1.28296241e-01 +3.68753016e-01 -1.66463181e-01 +2.11627081e-01 -1.41132558e-02 +1.92001499e-02 -1.51107669e-01 +1.30962022e-02 -3.20966750e-01 +1.37823969e-01 +1.24387294e-01 +1.93189904e-01 -1.63856279e-02 +1.09905072e-01 +2.13033274e-01 +7.87817240e-02 +2.94968128e-01 -2.55270302e-01 -2.40766153e-01 +1.45397231e-01 -7.60149257e-03 -2.54678309e-01 -6.54799044e-01 -6.30672395e-01 +1.08216710e-01 -2.47147563e-03 -2.80620139e-02 +1.79573104e-01 +1.67839259e-01 +1.21081598e-01 +1.97489798e-01 -2.03088261e-02 -9.13025066e-02 +5.08500814e-01 -2.33970750e-02 -2.51061082e-01 -4.90912162e-02 -1.20741993e-01 +3.46153602e-02 -1.62882060e-01 -4.66649197e-02 +1.00573581e-02 +1.91118419e-01 -3.16367187e-02 -6.66008797e-03 +1.47810960e-02 -4.21890795e-01 +9.38130468e-02 +3.66124767e-03 +4.65699360e-02 +3.61089408e-02 +8.95296633e-02 +2.51639098e-01 -5.11722378e-02 +1.09987125e-01 +5.60364639e-03 -3.45575884e-02 +3.70398127e-02 +1.51742145e-01 -2.79562116e-01 -2.77318209e-01 -4.62927669e-01 -6.82717741e-01 -1.30444065e-01 +1.67899609e-01 -1.19158082e-01 -1.81151092e-01 +6.75891002e-04 -2.96692885e-02 +1.69029951e-01 -3.13182175e-01 -1.37229487e-01 +1.77536085e-02 +4.50910367e-02 -1.20892212e-01 -3.44323777e-02 -1.08831041e-01 -1.64440200e-02 -7.67553672e-02 -9.50128809e-02 -9.54818800e-02 +5.87655269e-02 +3.45383286e-02 -1.53977931e-01 +1.26489893e-01 -5.18408194e-02 -3.62144858e-02 +2.15693824e-02 +8.69100690e-02 -8.31764564e-02 +3.32420394e-02 +9.28107798e-02 +9.31066871e-02 -8.75324234e-02 +9.26408246e-02 +1.56618908e-01 +6.42505363e-02 -6.04583435e-02 -1.28673688e-01 +6.69581965e-02 -3.04219173e-03 -2.09166020e-01 -4.70154248e-02 -3.02350484e-02 +2.21219156e-02 +3.07376776e-02 -1.27864718e-01 +1.12867624e-01 -1.10899881e-01 -6.95790946e-02 +1.13775149e-01 +6.38875365e-02 +1.23047661e-02 +1.28390621e-02 +1.55788824e-01 +1.04153171e-01 +8.98896530e-02 +2.30036527e-01 +1.60056412e-01 -6.08637333e-02 -1.79734915e-01 +7.16085583e-02 -4.98197705e-01 -5.10157943e-02 +3.84459123e-02 -1.98290929e-01 +6.01055399e-02 -4.96032834e-02 -2.38719583e-01 +2.76872635e-01 +7.98354000e-02 -4.49954905e-02 -9.25607383e-02 +1.92606866e-01 -9.37685445e-02 +1.51637718e-01 +2.43846014e-01 +2.09341243e-01 -1.25364915e-01 +9.58482027e-02 +1.07006162e-01 +1.38920154e-02 +1.00953775e-02 +7.78535903e-02 +2.99282204e-02 -1.33377060e-01 -1.55967459e-01 -4.03005891e-02 -2.61587221e-02 -1.81678191e-01 -6.13675773e-01 +3.52351993e-01 +1.42317489e-01 +2.81625807e-01 +1.13992713e-01 +1.46768037e-02 -3.62218507e-02 -2.31120307e-02 +2.47042906e-03 +4.25633550e-01 +8.74278788e-03 +3.17205161e-01 +3.51533778e-02 -4.35512736e-02 +8.42179060e-02 -3.90270293e-01 +1.58725411e-01 -3.72824892e-02 -4.47400175e-02 -7.53982738e-02 +3.42682064e-01 +1.24866731e-01 +7.46393204e-02 -2.25895382e-02 -6.01700507e-02 -1.25765018e-02 -3.16815704e-01 +4.94727902e-02 +3.99718285e-02 +7.63984248e-02 +2.03888342e-01 +1.88416019e-01 +8.68291557e-01 -2.42817700e-01 -4.11815137e-01 +1.38289295e-02 +4.24978226e-01 +2.02764288e-01 -2.90056854e-01 -1.56203285e-03 +1.22424789e-01 -2.81291604e-01 +3.03081563e-03 -1.77211553e-01 -3.95393848e-01 -3.19202274e-01 -3.84742916e-01 +4.70376104e-01 -9.51534986e-01 +9.03864145e-01 -1.70399606e-01 -2.89686620e-01 +2.09773436e-01 -7.10911334e-01 -9.15749872e-04 +4.93803807e-02 -4.11312401e-01 -3.71040791e-01 +5.63066244e-01 +9.80019644e-02 +2.16284841e-01 -1.25177488e-01 +1.92884266e-01 +1.72858778e-02 -1.18748471e-01 +5.84176898e-01 -2.41299048e-01 +1.04217470e-01 -4.40802723e-01 -1.89551368e-01 -4.95650172e-02 +2.83124238e-01 -3.14309597e-02 +1.73661172e-01 -1.34907573e-01 +1.79695208e-02 -1.12866536e-01 -1.01463482e-01 +2.06245184e-01 +1.38868049e-01 -8.86785686e-02 +2.45340720e-01 +7.25214854e-02 +2.51250733e-02 -7.29124621e-02 +5.08409202e-01 -3.19258422e-01 -7.46220052e-01 +7.42297396e-02 +2.31597811e-01 +1.89037800e-01 +3.06076389e-02 +8.95044208e-02 +1.22358695e-01 +1.81044653e-01 +4.72621232e-01 +6.46362454e-02 -3.47592384e-02 -3.99546593e-01 +3.30342025e-01 -1.69016078e-01 -2.52799124e-01 -1.31141888e-02 -5.60090542e-01 +3.73604894e-01 +2.20268190e-01 +2.69225866e-01 +2.85167545e-01 -3.96491379e-01 +1.37684746e-02 +7.22137839e-02 +6.02530718e-01 -2.23643348e-01 +7.70452470e-02 -6.03215769e-02 -4.40696180e-02 -4.57243435e-02 +1.00300267e-01 -2.99676716e-01 +6.66640839e-03 +2.92337507e-01 -2.15624303e-01 -4.48862836e-02 +2.61668056e-01 -5.60937762e-01 +4.86476332e-01 +8.29397976e-01 -2.39833161e-01 -2.37093106e-01 +1.24163332e-03 -9.62509960e-02 -7.56817637e-03 +9.37517643e-01 +3.56425107e-01 -6.23612046e-01 +2.37710714e-01 +2.47340947e-01 +4.58438128e-01 +6.52616397e-02 +1.82973459e-01 +1.11080492e-02 +2.10989133e-01 -2.01373026e-01 -1.63622126e-02 +2.06006970e-02 +1.40341148e-01 +1.48511589e-01 +3.43449712e-01 +4.83229280e-01 -2.24183500e-01 +3.09419990e-01 +8.85601342e-01 +1.30036876e-01 +2.02228948e-01 +4.39606942e-02 -5.57669178e-02 -7.21620098e-02 +8.43938999e-03 +1.83731899e-01 -1.10971108e-01 +1.64441809e-01 +5.67005016e-02 +1.89592615e-01 -3.87653746e-02 -1.08619057e-01 -1.60042763e-01 +1.80632308e-01 +8.48247930e-02 +2.61774636e-03 -4.59335856e-02 -9.01824236e-02 -6.32564366e-01 +1.60877973e-01 +1.61663629e-02 -4.65823971e-02 -2.78613389e-01 +8.09584337e-04 -1.03522286e-01 -3.48638967e-02 +2.21175440e-02 -1.59977123e-01 +9.53181460e-02 -4.09094766e-02 -7.13653117e-02 -4.71198969e-02 +1.65788263e-01 +2.43552332e-03 -2.17450149e-02 +1.58765819e-02 -1.49152488e-01 -2.43642122e-01 +1.53348610e-01 +3.85101438e-02 -2.05761924e-01 -2.29742490e-02 +2.37447508e-02 +9.70963538e-02 +1.48098245e-01 +3.53407077e-02 -1.18996985e-02 -4.95945007e-01 +9.91514772e-02 +7.74831921e-02 -4.71102186e-02 +1.27024084e-01 -1.13777623e-01 +2.98972409e-02 -1.86312005e-01 -2.12946776e-02 +1.09912939e-01 +5.48352711e-02 +1.68282583e-01 +3.12465057e-02 -1.09645739e-01 +2.76494734e-02 +8.41006543e-03 -1.26252668e-02 -1.45072415e-01 +2.75368728e-02 -1.48992553e-01 -2.31885269e-01 +1.16558440e-01 +4.01267735e-03 +1.04323566e-01 -1.44742727e-01 +2.10016176e-01 -6.59811422e-02 -2.32207730e-01 +2.10707754e-01 -1.44853704e-02 +1.09707519e-01 +9.24489349e-02 -4.22648400e-01 -9.45411772e-02 -4.89312053e-01 +4.05619353e-01 -1.16717085e-01 +7.74657652e-02 -7.47538358e-02 +4.05623093e-02 -1.46618158e-01 -7.12863877e-02 -1.84798181e-01 +9.96250212e-02 -1.40949205e-01 -1.11885533e-01 +1.25058979e-01 +4.22346219e-02 -9.15681049e-02 -7.23852664e-02 -7.27967620e-02 -2.83995848e-02 -1.13008007e-01 +1.21926054e-01 -4.87978533e-02 +5.94122754e-03 +7.47505575e-02 +2.43535385e-01 +2.89244205e-02 +1.28292575e-01 -2.09920794e-01 +2.29310375e-02 -8.98922514e-03 -1.93117801e-02 -1.02965944e-01 -1.58548519e-01 +1.11894449e-02 +1.48327127e-01 +9.91413966e-02 -4.60413508e-02 +1.52902678e-01 +1.93298951e-01 +1.29973218e-01 -1.60973087e-01 -1.84417978e-01 +5.09208515e-02 -2.39741132e-01 +3.26994210e-01 +5.02528399e-02 -3.38732079e-02 +1.23770103e-01 +9.38592330e-02 -1.29900113e-01 +8.53709225e-03 -2.60315333e-02 +6.11442290e-02 +8.08620304e-02 -1.06251009e-01 +1.27291352e-01 -2.07866523e-02 +3.46936435e-02 +8.74530524e-02 -4.53037582e-02 -3.52005847e-02 +8.89633000e-02 +2.56464690e-01 +1.72112331e-01 -9.26891938e-02 +4.71482389e-02 +2.44836062e-01 -1.34596676e-01 -7.85368010e-02 -9.91553068e-02 +1.34272546e-01 -6.86661247e-03 -1.51021229e-02 -8.05000961e-03 -9.78944972e-02 -6.99838027e-02 -3.80749628e-02 -3.87266949e-02 +3.16283219e-02 +3.45123187e-02 +1.74803779e-01 +1.74622480e-02 -1.03863530e-01 +6.83140457e-02 +5.32053299e-02 -4.88182642e-02 -1.05735138e-01 -3.24743465e-02 +8.53207782e-02 -1.15316920e-01 -1.04982190e-01 +1.10285461e-01 -4.22939956e-02 +1.40333146e-01 -7.43023753e-02 -2.18835752e-02 -4.41437624e-02 -4.94104959e-02 +2.30260659e-02 -9.18760151e-02 -6.43143132e-02 -6.22945800e-02 +1.52954891e-01 +2.61787754e-02 +3.60222603e-03 +3.89366858e-02 +1.20874822e-01 +1.01429857e-01 -5.73923886e-02 -7.95895532e-02 +2.71220747e-02 +1.06206037e-01 -9.88481119e-02 +6.09148815e-02 +2.41218165e-01 -5.21979630e-02 -1.19738318e-01 -9.90878046e-02 -5.01473658e-02 +4.99550290e-02 +2.73618728e-01 +4.65478636e-02 +2.09496841e-02 +1.89323619e-01 -6.81888610e-02 +9.03312564e-02 +7.25219725e-04 +1.11960329e-01 +7.90644959e-02 +3.27103287e-02 +6.22887984e-02 -1.48843393e-01 -2.18276903e-01 -1.36978462e-01 -1.18703641e-01 +3.10792662e-02 -1.32104922e-02 +1.41968936e-01 -1.33395746e-01 +8.95495191e-02 -2.35065203e-02 +3.89535800e-02 -1.52023524e-01 -2.35875234e-01 +1.20956019e-01 +9.95707810e-02 +1.10837787e-01 +3.47761139e-02 -4.89785075e-02 -1.28685474e-01 -2.10706681e-01 +6.51785374e-01 +1.62825212e-01 +1.08530447e-01 +1.62462499e-02 -4.37247753e-02 +8.53385478e-02 -2.89171515e-03 -5.58321690e-03 -1.35484144e-01 -2.84018664e-04 -1.12487841e-02 -3.81005526e-01 +6.16813004e-02 -5.16651757e-02 +1.51137844e-01 -3.02992985e-02 +1.26531914e-01 -7.85700604e-02 +1.52970657e-01 +4.86234352e-02 +2.66658485e-01 -2.04870015e-01 +1.41911525e-02 -1.04032792e-02 +2.16894835e-01 +2.93698367e-02 +3.78783327e-03 -1.28484264e-01 +5.45529425e-02 +6.59010261e-02 +1.15792593e-02 -3.39146405e-02 +2.89274435e-02 +7.79458508e-02 +7.55990818e-02 -8.77928808e-02 +8.89144540e-02 +1.67832106e-01 +1.89354662e-02 +2.86525898e-02 +4.01141465e-01 -2.16249451e-02 -1.37549236e-01 -6.58144593e-01 -1.21200942e-01 +1.07684679e-01 -8.87027755e-02 -4.93394025e-02 -5.99479116e-02 +9.68003348e-02 +1.21299841e-01 -1.11482196e-01 +1.36145860e-01 -2.26040352e-02 -8.34898949e-02 -3.78094949e-02 -9.07617137e-02 +1.65451646e-01 +8.98837298e-02 +1.75230518e-01 -2.17443965e-02 -6.85221255e-02 -1.41019583e-01 -1.32387698e-01 +7.25216791e-02 +2.34780058e-01 +1.98845357e-01 +1.41716510e-01 +6.49332479e-02 +7.60986954e-02 +1.38131157e-01 -5.33809625e-02 -4.51431036e-01 +1.69353485e-01 +2.81985164e-01 +1.87345967e-03 +4.01871577e-02 -2.48743724e-02 +1.29506607e-02 -3.96263331e-01 +7.16331378e-02 -2.23621801e-02 -2.51230001e-02 +9.81963892e-03 -8.90899003e-02 -8.53307247e-02 -6.21703975e-02 -1.14999726e-01 -1.36461109e-01 +1.14468774e-02 +8.84251371e-02 +7.39269331e-03 -2.64453739e-02 -7.26803467e-02 -1.64890345e-02 -9.15549770e-02 -2.53711641e-02 +1.19728379e-01 -3.81824076e-02 +1.36445854e-02 +2.38665089e-01 +2.30751604e-01 +2.90833917e-02 -1.27549663e-01 -1.24884970e-01 +6.56176209e-02 +4.91452515e-02 -1.27031028e-01 -4.07793671e-02 -2.37379730e-01 +4.72419225e-02 +6.43195445e-03 -5.50714657e-02 -7.51077011e-02 -5.40351197e-02 -2.68135313e-03 +5.61893657e-02 -1.07188046e-01 +1.03453383e-01 +1.01046585e-01 -6.00982504e-03 +1.63727850e-01 +8.10811743e-02 +6.37148842e-02 -4.94678915e-02 +2.86943349e-03 -3.74314301e-02 -2.25125514e-02 +8.06981683e-01 +1.24708980e-01 +1.26159579e-01 -4.65096086e-02 -1.15000398e-03 +3.65664177e-02 -3.92020307e-02 -9.96860415e-02 -5.58182076e-02 -4.43870485e-01 +1.20005645e-02 -1.31764293e-01 -2.48702615e-03 +1.17203504e-01 +5.42887952e-04 +3.51645529e-01 +8.16198736e-02 -3.46871987e-02 +7.10707754e-02 -1.41616315e-02 +1.29750267e-01 -2.32181102e-01 -9.63289216e-02 +6.09255694e-02 +1.85240582e-01 -1.02599999e-02 -9.55866948e-02 +2.16158569e-01 -5.08319736e-01 -2.04860106e-01 -2.34274287e-02 +4.27760839e-01 -1.77667275e-01 +8.21891576e-02 +2.45123684e-01 +1.81361914e-01 -3.27450991e-01 +2.27629058e-02 +2.94835605e-02 +2.39196166e-01 +1.57775894e-01 -2.54666626e-01 +5.13078928e-01 +1.71267971e-01 +1.26021087e-01 -3.22551966e-01 +8.35187063e-02 -4.78897661e-01 +3.83543521e-01 -4.14024532e-01 -2.68660486e-01 -2.36746788e-01 -6.86702490e-01 +8.15032274e-02 -1.22416273e-01 +7.80378580e-02 +6.36419356e-02 -6.35380819e-02 -1.83525532e-01 +1.01751916e-01 +2.28980765e-01 -8.26164559e-02 -3.16279709e-01 -4.77338016e-01 +1.14153728e-01 +6.03434928e-02 +2.31784254e-01 -1.42023817e-01 +4.04185683e-01 +3.43716532e-01 +2.26983498e-03 -5.38954139e-01 +1.46582931e-01 +4.84549776e-02 +5.99036694e-01 +4.42990214e-01 -3.40396255e-01 +1.45257473e-01 -3.86154681e-01 -2.82758325e-02 -2.33312324e-01 +3.12980324e-01 +7.63891786e-02 +4.50563133e-01 -7.51075923e-01 -4.37741250e-01 -3.43279779e-01 +4.21026558e-01 -4.30464745e-01 -1.97411075e-01 +1.84277594e-01 -1.28829822e-01 -1.07743822e-01 +4.26107347e-01 -6.10315263e-01 +1.86403170e-01 +1.45220682e-01 -4.28014807e-02 +2.96599984e-01 -1.96664110e-01 +2.60973483e-01 +1.94369256e-01 +2.11691231e-01 -2.09654406e-01 -1.72444329e-01 -1.29406329e-03 -1.16436563e-01 -2.44524494e-01 +3.95372123e-01 -5.25872409e-01 -1.56394043e-03 -1.74512595e-01 +2.97729343e-01 +2.89731454e-02 +8.41860175e-02 -2.05580845e-01 -7.23104179e-01 +4.21858467e-02 +1.61555782e-01 +9.32072848e-03 -4.67325211e-01 +1.69980615e-01 +4.07065719e-01 -2.21247897e-01 +4.25912142e-02 +8.53945315e-02 -4.83482182e-01 -3.16686660e-01 +7.44401664e-02 +1.22605197e-01 +3.15313637e-01 -7.72415996e-02 -6.31564021e-01 -1.73048601e-01 +5.28859317e-01 -2.56362617e-01 -1.81193858e-01 -3.42917085e-01 +7.30790803e-03 -1.14643954e-01 +1.75969392e-01 -5.68223238e-01 -1.44310325e-01 +2.38361850e-01 -1.40684575e-01 -1.68527633e-01 +5.05011141e-01 -3.77337009e-01 +3.23226526e-02 +8.45419094e-02 -4.38678592e-01 -6.10763848e-01 +3.64736021e-02 +2.24160403e-01 -9.54030734e-03 -6.40772432e-02 +7.89812729e-02 -1.52815124e-02 -3.19201261e-01 -1.07297152e-01 +1.36490881e-01 -7.36543611e-02 +1.67321339e-01 -1.56588122e-01 -1.08398451e-02 +4.49471660e-02 +3.78070254e-04 -2.03653541e-03 -2.37091452e-01 -5.74323442e-03 -1.47981197e-01 +3.67592990e-01 +6.16090186e-02 -2.46304780e-01 +8.45375583e-02 -5.33294715e-02 +1.17670484e-01 +7.53119066e-02 -1.04802102e-01 +6.74593300e-02 -1.92139134e-01 -5.67625985e-02 -1.46947965e-01 +2.23771334e-01 -1.00753091e-01 +2.72978842e-01 +2.49706939e-01 -1.41875893e-01 -5.73684685e-02 +4.86923456e-02 +7.65779167e-02 +1.82657227e-01 +3.52800898e-02 -2.26678610e-01 -7.45055228e-02 -6.11896031e-02 -1.02810197e-01 +1.25972405e-01 -1.04485042e-02 +1.16713941e-01 -3.70019823e-01 -6.44595176e-02 +9.92907863e-03 -5.15866168e-02 -3.73338051e-02 -1.99212998e-01 -7.96702951e-02 -9.06126499e-02 +1.16006263e-01 -2.67791096e-03 -2.27126852e-02 +1.31366655e-01 -1.20293997e-01 +1.08763948e-01 +2.93694697e-02 +7.76625797e-02 +1.30520299e-01 -7.79294148e-02 -2.00593859e-01 -9.81188342e-02 -2.63425114e-04 +1.02161234e-02 +1.26913339e-01 +5.69176348e-03 -5.78625277e-02 -1.34196460e-01 +5.22602238e-02 +1.33431749e-02 -2.27771439e-02 +2.01210752e-01 -2.42133513e-02 -1.48251340e-01 -1.26341030e-01 +1.12244510e-03 -1.62170887e-01 +2.70162880e-01 -1.58991247e-01 +1.64324418e-01 -4.29563299e-02 -6.01246394e-02 -5.22196479e-02 +6.95308223e-02 +6.98814020e-02 +3.09727579e-01 -1.81038454e-01 -1.30719915e-01 +4.15490754e-02 +1.67220131e-01 -1.04307726e-01 +2.63809979e-01 -1.14444811e-02 +6.15564920e-02 -1.78362921e-01 +1.35438859e-01 +7.74116889e-02 -6.99874759e-02 +5.15382132e-03 +1.09523647e-01 -4.27306145e-02 +1.26884699e-01 -6.83348700e-02 +1.12860547e-02 +5.91789298e-02 -1.05254784e-01 -2.53080167e-02 +3.69547158e-02 -8.99841338e-02 +1.14596650e-01 -1.22421265e-01 -5.29588349e-02 +5.97883947e-02 -6.03062324e-02 +9.69405323e-02 +5.47703840e-02 -2.34293133e-01 -1.37503549e-01 -2.93742836e-01 +9.45587233e-02 +4.99106906e-02 +1.59509718e-01 +8.80043656e-02 -3.18672955e-02 -3.05367149e-02 -1.64507195e-01 +6.93453550e-02 +1.24929301e-01 +2.49991059e-01 +9.91215855e-02 +1.58197716e-01 +8.49952996e-02 +8.23644549e-02 -9.97471735e-02 -2.16580508e-03 -4.86341864e-02 -2.71796230e-02 +5.09032756e-02 +1.39716476e-01 +1.86356694e-01 +1.33183494e-01 +1.10522434e-01 +1.60912767e-01 +3.33753489e-02 +5.89852920e-03 -8.10194761e-02 +1.12325750e-01 -4.91122901e-02 +1.93195678e-02 +1.18512046e-02 +7.48930722e-02 -8.32395107e-02 -3.16222720e-02 -1.14314303e-01 +4.76150922e-02 +7.60603696e-02 +1.60244070e-02 -6.80412874e-02 -2.09502075e-02 -1.44246712e-01 +8.60767514e-02 -3.02940235e-02 +6.32078666e-03 -1.96218677e-02 +2.75710803e-02 +4.28552069e-02 -5.29930182e-02 +1.09670557e-01 -5.50460629e-02 +6.54958412e-02 +1.42201081e-01 +2.38712624e-01 +6.80609718e-02 -4.67063673e-02 +8.47242214e-03 -2.85736304e-02 +1.31288514e-01 -5.78109026e-02 -3.58803384e-02 -1.09526187e-01 -1.98298946e-01 +1.24747261e-01 -1.96431100e-01 +1.85251124e-02 -4.05323617e-02 +9.05791894e-02 +7.48520046e-02 -1.05547011e-01 -2.10069805e-01 -1.90193266e-01 +1.97803140e-01 -6.11575469e-02 -1.50730222e-01 +3.41928303e-02 -1.18646733e-01 +3.04235607e-01 +6.99531659e-02 -9.45127290e-03 -1.54935658e-01 +6.62535205e-02 +4.71495353e-02 -1.28116131e-01 +9.63193327e-02 -1.98892895e-02 +2.58273371e-02 +3.68985981e-01 -1.54385105e-01 -1.03535898e-01 -1.39811620e-01 -6.68021068e-02 +1.39183596e-01 -3.69276106e-02 +1.39175713e-01 +1.93491146e-01 -2.65479106e-02 +1.37236752e-02 +1.13483761e-02 -3.73217016e-02 +1.38443485e-01 -5.61586767e-02 -1.76912043e-02 -1.11900836e-01 -3.86569537e-02 +9.77388248e-02 +3.47414427e-02 +1.39556546e-02 -2.15551063e-01 -7.82071874e-02 +8.48680735e-02 +4.09121327e-02 +1.87542558e-01 -8.09310377e-02 +9.96505767e-02 +3.99224311e-02 +3.21893245e-01 +1.43960521e-01 -4.30467613e-02 +4.76359606e-01 -8.90348200e-03 +1.35288835e-01 +5.44226095e-02 -1.53660581e-01 -2.79825535e-02 +1.20106883e-01 -1.11486418e-02 +1.59454837e-01 +1.21753566e-01 +6.17909692e-02 -6.58928677e-02 -7.30115101e-02 -4.01897609e-01 +6.57428708e-03 -9.25139636e-02 -1.35776788e-01 +1.35605969e-03 -1.17710464e-01 +7.17210248e-02 -1.46044984e-01 +1.16967503e-02 +1.00285346e-02 +2.27370728e-02 -1.07295334e-01 -7.60703161e-02 +1.61142703e-02 -2.63095886e-01 -2.69739330e-01 -6.67484820e-01 -7.17338249e-02 +1.97975687e-03 -6.00649416e-01 -1.58824865e-02 -8.28350112e-02 +7.35368431e-02 -3.49714719e-02 -1.28506720e-01 -1.87128425e-01 +1.08997198e-02 -1.45735994e-01 +6.88623711e-02 -5.74366143e-03 -2.22488061e-01 -1.24800690e-01 +2.89824679e-02 -2.19003215e-01 +1.56682417e-01 +8.37041512e-02 -4.77902144e-02 +1.97744936e-01 +1.91923708e-01 -1.76515162e-01 -3.23018022e-02 +1.13061227e-01 +6.52679726e-02 -4.52243499e-02 +8.90067667e-02 +7.76629224e-02 -3.44873033e-02 +1.32250637e-01 +8.69657919e-02 -4.10455763e-02 -2.74416000e-01 -2.37906910e-02 +1.34423956e-01 -1.61594912e-01 +1.15958177e-01 +1.53946310e-01 +4.06225584e-02 +8.86716917e-02 +1.30141238e-02 -1.42873183e-01 -4.43230830e-02 +8.07463899e-02 +1.58085339e-02 -5.21634631e-02 -6.86852559e-02 +8.63703862e-02 -5.13687357e-02 +7.72008225e-02 -1.53247807e-02 +2.33744029e-02 -9.49678291e-03 -8.49198177e-02 +1.67393640e-01 -5.86382985e-01 -1.44477367e-01 -7.14564174e-02 -1.61754325e-01 -3.67152750e-01 -9.45248008e-02 -1.52611598e-01 +2.85768777e-01 -7.45391995e-02 -2.27140322e-01 +2.26156607e-01 -1.02738544e-01 -1.36433229e-01 +5.05233975e-03 +1.19479515e-01 -9.01276916e-02 +1.82839081e-01 +1.50355697e-01 +1.44975096e-01 +1.26019537e-01 -1.19071834e-01 -4.75164428e-02 +3.97990011e-02 +1.23299994e-02 +6.45035356e-02 -2.01507241e-01 -2.09307179e-01 -1.64932564e-01 -2.72360332e-02 -6.36162758e-02 -7.19359964e-02 -5.76691866e-01 -4.96729612e-02 -2.43567526e-02 -1.38938248e-01 +4.21993062e-02 +6.47430494e-02 +6.78936169e-02 -5.10576963e-02 -5.61207943e-02 +3.60642970e-01 -9.04257316e-03 -3.41315329e-01 +8.21127146e-02 -2.11379975e-01 +9.63500142e-02 -1.33833587e-01 -6.33025542e-02 -1.09127916e-01 +2.12852042e-02 +1.09500982e-01 +2.00500190e-01 +2.18756586e-01 +6.56439736e-02 +1.39021665e-01 +1.95255309e-01 +1.06321119e-01 +2.74864677e-02 -4.80739176e-01 +7.26068974e-01 +1.48442425e-02 +2.22636789e-01 -1.01207161e+00 +2.64399409e-01 -6.82602031e-03 -2.46798217e-01 +3.50441015e-03 +4.81332958e-01 +9.16289687e-02 -2.15621784e-01 +9.76120606e-02 +1.28091753e-01 +4.76812184e-01 -8.03589940e-01 +2.85572023e-03 -5.00860214e-01 +2.60702133e-01 -2.07850412e-02 +1.89857140e-01 -1.43449932e-01 +3.14811349e-01 +3.49976420e-01 -1.31370118e-02 +2.09195554e-01 -1.10089846e-01 -6.52011111e-02 -1.73951015e-01 +5.21325111e-01 -1.75678238e-01 +2.56427974e-01 -4.06015143e-02 +3.62181187e-01 -9.06179845e-02 +4.67537135e-01 +1.55398786e-01 -8.57336670e-02 +1.50310159e-01 -2.82230139e-01 +5.09795487e-01 -4.25484031e-01 -2.94852778e-02 +5.06422162e-01 +3.24518055e-01 +8.12380612e-02 +2.17296258e-01 -1.35519862e-01 -2.47667298e-01 +4.50397730e-01 -1.66825987e-02 -3.46969403e-02 +9.05413851e-02 +2.39402405e-03 -5.19051135e-01 -1.27875477e-01 -4.22859460e-01 +2.10739821e-02 +4.10235465e-01 -2.05686808e-01 -2.69788653e-01 +3.94892603e-01 +2.47234315e-01 -5.36263585e-01 +3.34823541e-02 -2.69642085e-01 +8.00388232e-02 +4.99778837e-01 -3.30587536e-01 -2.35890951e-02 +1.36718741e-02 -1.63881227e-01 +4.36603352e-02 -5.59064653e-03 -2.37309828e-01 +9.71764848e-02 -2.66479701e-01 +2.17512161e-01 +3.41082551e-02 +4.20801193e-01 +4.02566016e-01 -2.12143689e-01 +2.91475564e-01 -1.83667034e-01 +1.58329487e-01 -1.73863262e-01 +3.03607658e-02 +3.03417593e-01 +3.56265455e-01 +5.09984255e-01 -4.87116754e-01 -4.49608415e-01 +3.51707377e-02 +7.19877958e-01 -1.28216431e-01 -1.38069168e-01 +7.83897862e-02 -3.36287022e-01 +1.52607605e-01 +3.39048564e-01 -1.42037228e-01 +1.23845655e-02 +1.40615657e-01 -1.97680116e-01 +1.85771212e-01 +7.85400927e-01 +9.36451495e-01 -6.44109666e-01 +8.93781364e-01 +2.16026485e-01 +2.78904766e-01 +3.94193411e-01 +9.74302962e-02 -1.05788723e-01 +2.81611353e-01 +1.94810659e-01 -1.81836009e-01 -1.77275151e-01 +2.73820251e-01 -7.33311057e-01 +1.02959938e-01 +1.17366776e-01 -7.44381994e-02 +6.90106526e-02 +7.89841413e-01 +1.12037130e-01 +4.31042016e-01 -2.14918345e-01 -2.31181532e-02 +8.36559292e-03 +8.52081403e-02 +1.72751024e-01 +9.78810638e-02 +5.74636869e-02 -7.67431781e-02 +1.24252751e-03 -2.53890231e-02 -4.31453362e-02 +2.84516439e-02 +1.99098736e-01 +1.66533619e-01 -8.55645612e-02 -1.44532770e-02 +1.57654993e-02 +2.58860230e-01 -9.11303535e-02 +1.23095803e-01 -4.67066318e-02 +3.42096090e-02 -1.03809433e-02 +1.18175084e-02 -2.92320978e-02 -4.48864140e-02 +1.14932649e-01 -1.21925130e-01 +9.99397784e-02 -1.56091943e-01 +1.00513101e-01 -1.49477154e-01 +6.15717880e-02 +3.77567373e-02 -2.90816687e-02 +2.65740901e-01 +1.65959855e-03 +9.63981450e-02 +2.25641236e-01 +1.52047187e-01 +1.33824036e-01 +4.64211665e-02 -1.42682940e-01 -1.66305751e-01 +1.61723774e-02 +7.19264299e-02 +3.23192239e-01 +8.20870772e-02 -5.22040017e-02 -1.32859677e-01 -1.96908802e-01 +1.62828758e-01 +9.45048928e-02 +2.33384907e-01 -9.32469442e-02 -5.45203611e-02 +4.66239192e-02 -4.39747125e-02 -4.03527953e-02 -1.43754736e-01 -4.29104306e-02 -1.04920700e-01 -1.31582886e-01 +3.22301388e-02 +2.27422453e-02 +8.24907143e-03 +7.08751082e-02 +7.01745376e-02 +9.25165415e-02 -1.37812123e-01 +1.06521592e-01 +5.62380433e-01 +3.83595824e-02 -5.68074882e-02 +9.64142382e-03 -2.65181065e-01 -1.15242399e-01 +1.61618024e-01 -1.55647397e-01 +1.27994195e-01 -3.36273372e-01 +2.78297275e-01 -3.03094778e-02 -1.39019772e-01 +1.23596236e-01 +1.24015570e-01 -1.02029247e-02 -6.87283203e-02 -4.71937051e-03 +2.91460246e-01 -8.51179287e-02 +2.00831279e-01 +5.28682284e-02 +5.59355319e-03 -8.51715282e-02 +2.30034143e-01 +6.29692599e-02 +7.55419284e-02 +3.56247760e-02 -3.07373516e-02 +1.29769472e-02 -1.70737831e-03 -2.17124850e-01 -6.71055391e-02 +1.40461743e-01 +3.00491713e-02 -1.11024512e-03 +9.39694792e-02 -4.93689477e-02 +3.99336889e-02 -1.10782590e-02 +1.12090364e-01 -3.14043537e-02 +8.43014866e-02 -1.42380893e-01 -1.62174642e-01 -2.39081997e-02 -8.84203706e-04 +7.23291263e-02 +1.70334876e-01 -2.54084580e-02 +4.36153971e-02 +5.95377684e-02 +2.10345834e-02 +1.39768387e-03 +3.20611186e-02 +7.35621676e-02 -4.15218659e-02 -1.21494971e-01 +3.81971784e-02 +1.35946661e-01 -7.96582997e-02 +2.50462562e-01 -7.66337067e-02 +5.01680709e-02 +2.19081834e-01 +1.12814598e-01 -6.41934201e-02 +9.51287299e-02 -3.66610754e-03 +2.14264728e-02 +1.04378887e-01 -1.17610164e-01 +2.26260293e-02 +1.40374184e-01 -3.14988941e-01 +6.17397875e-02 -1.11341756e-03 -1.03182420e-01 +4.54231128e-02 +8.40108190e-03 -1.16293589e-02 +8.95647928e-02 +1.03252552e-01 +5.21619618e-02 +9.68870297e-02 +2.95900196e-01 +3.14114653e-02 +1.48653477e-01 -7.89043307e-02 +1.09078430e-01 -9.28026587e-02 +2.46310830e-01 +6.33280352e-02 +1.53274730e-01 +1.57169610e-01 +1.18011564e-01 +1.01330094e-01 +1.28962547e-01 +2.42738724e-02 +1.31746799e-01 -3.45713645e-02 +1.25769675e-01 +3.25480336e-03 -2.16364056e-01 +8.61193612e-02 -2.34234333e-03 +6.10120245e-04 +9.79145169e-02 +1.61823466e-01 -1.71615645e-01 -1.33263990e-01 -1.40192620e-02 +1.51964724e-01 +1.43806368e-01 +1.14976102e-02 -1.17960796e-01 -1.60593867e-01 +1.25539467e-01 +7.12623149e-02 +4.54910770e-02 -4.58556004e-02 +3.15564424e-01 -5.98867051e-02 -6.72950642e-03 +1.70447826e-01 +8.30016583e-02 +7.91959614e-02 -8.44478533e-02 +2.41555914e-01 -1.89193413e-02 -1.21265955e-01 +1.78038746e-01 -2.21695796e-01 +1.13867894e-01 +1.30553041e-02 -8.20534974e-02 -4.32138816e-02 -1.76968902e-01 -3.82302910e-01 -6.41874745e-02 -2.26525903e-01 +2.92798519e-01 +3.97225209e-02 -5.17548574e-03 +5.97597193e-03 +3.57833564e-01 -1.78571895e-01 -4.33771461e-02 +5.28872237e-02 +5.38602471e-03 -1.91544741e-01 -7.63607025e-02 +1.81470305e-01 +1.33763239e-01 +1.79179296e-01 +9.94279236e-02 +2.83009022e-01 +8.44662040e-02 