#Parameter# /AuxNonLinear-264a98d3/_0 {300,256} 1228801 ZERO_GRAD
+1.71992868e-01 -5.35689332e-02 -5.04445173e-02 -1.62810236e-01 +2.74943888e-01 +5.24026036e-01 +2.64137965e-02 -1.75539330e-01 -1.11158647e-01 +1.60307258e-01 +5.25400974e-02 +1.31508082e-01 +1.34951741e-01 -1.00008950e-01 -5.54853491e-02 -4.29713838e-02 +3.26428749e-02 +2.97835261e-01 +3.47757302e-02 +8.40272531e-02 +4.73324060e-02 +3.28260213e-02 -2.75904983e-01 -3.03109795e-01 -3.71835157e-02 +2.69935399e-01 -4.06125993e-01 +4.00329828e-01 -2.20982894e-01 +1.96890175e-01 -1.66395605e-01 +1.97840989e-01 -1.70964181e-01 -3.87625210e-02 +7.21806064e-02 +1.90126047e-01 +1.47247426e-02 +3.61761868e-01 +1.30742610e-01 -3.88297550e-02 +5.24838507e-01 +1.04760982e-01 +5.89027926e-02 +2.71438092e-01 +7.19725760e-03 -2.89584398e-01 -3.28046978e-01 +1.63409531e-01 -1.41948238e-01 +3.48453149e-02 -1.41884401e-01 +3.41428310e-01 +1.39520735e-01 -1.63427472e-01 +1.05422281e-01 +3.66487563e-01 +4.25939001e-02 -1.23375192e-01 -2.09775627e-01 +6.90350905e-02 -4.67052788e-01 -8.18383023e-02 -2.04802319e-01 -3.06295305e-01 -2.47620896e-01 -9.30749699e-02 +1.52979672e-01 +4.39608186e-01 +3.56109515e-02 +2.26371344e-02 -2.23520666e-01 -1.41808078e-01 +5.90430126e-02 +3.40606794e-02 +1.60605367e-02 +3.92158590e-02 -1.05012782e-01 -2.58922074e-02 -1.65764853e-01 +2.39910670e-02 +2.18844637e-02 -2.34803230e-01 -1.46899819e-01 -1.67170852e-01 +4.90750745e-02 +3.15153778e-01 +1.03059471e-01 +2.56285787e-01 -2.03663528e-01 -1.73257254e-02 +1.52414665e-01 +3.36135998e-02 +6.19814172e-02 +4.13571764e-03 +1.38943642e-01 -4.30497043e-02 -5.88982739e-02 -5.97701780e-02 +1.19691819e-01 +7.90057778e-02 -2.40959860e-02 +6.76008090e-02 -1.08133249e-01 +5.28754033e-02 +9.80272442e-02 -2.24867333e-02 +2.41340101e-02 -3.60354893e-02 +2.87714181e-03 -1.51439607e-01 +1.23272330e-01 +3.03993016e-01 +1.21765375e-01 +1.00216009e-01 -1.03283465e-01 +4.03972762e-03 +3.80730890e-02 -1.12017371e-01 +4.11937945e-02 -3.39846611e-01 +1.89245954e-01 -6.66734651e-02 +1.17298506e-01 -1.08671419e-01 +2.62599736e-01 -2.80704070e-02 +1.93769783e-01 -1.49137199e-01 -3.88921499e-02 -4.88868617e-02 +2.97306985e-01 -1.29164562e-01 +6.09940179e-02 +1.08454391e-01 +4.97775488e-02 -7.41420239e-02 -5.17072007e-02 -1.20323384e-02 -4.93876599e-02 +5.00832349e-02 -5.20240515e-02 -2.48569576e-03 -3.22434343e-02 -6.90575182e-01 +3.29972990e-02 -4.02673364e-01 +4.43506017e-02 -6.87051639e-02 -1.69781938e-01 +2.68399883e-02 -1.00335881e-01 +1.32542355e-02 +1.99086554e-02 -2.65431643e-01 +1.61782414e-01 +3.84521261e-02 -5.41134290e-02 +9.37120989e-02 -1.24854064e-02 +3.00541352e-02 +1.47280991e-01 -1.41941588e-02 -2.23175138e-01 -2.22914830e-01 +2.70833187e-02 +2.14723468e-01 +2.72880737e-02 -6.99745715e-02 +1.65247306e-01 +8.87801796e-02 -1.99049234e-01 -1.43735006e-01 +5.71328215e-02 +8.20358321e-02 +6.66011646e-02 -8.50633755e-02 +4.59302142e-02 +2.18303472e-01 -1.29734039e-01 +6.42965063e-02 -4.98182550e-02 -1.94832578e-01 -2.09772766e-01 +1.06148981e-03 -1.61349803e-01 +1.39277384e-01 +1.05894767e-01 +1.43866464e-01 +1.24222919e-01 +5.07751592e-02 +4.27594781e-01 -2.13980339e-02 -2.87251193e-02 +1.67713806e-01 -1.17074989e-01 -9.54062417e-02 -7.30727520e-03 +5.52878022e-01 +1.41864046e-01 -1.48086902e-03 -1.03100404e-01 +2.40539700e-01 -1.91659909e-02 -1.11562021e-01 -2.46462733e-01 -2.56598860e-01 +1.28860220e-01 +8.27519782e-03 -1.87039241e-01 -1.29106939e-01 -1.65751785e-01 +1.47394631e-02 +2.47199479e-02 -3.30625544e-03 +1.45862205e-02 -4.65102673e-01 +8.64677280e-02 -6.15821816e-02 +7.70128146e-02 +5.21726795e-02 -1.76250413e-01 -4.14275900e-02 +1.11210003e-01 +1.48662031e-01 -5.13321385e-02 +1.72027752e-01 +3.28531355e-01 -8.83502215e-02 +1.11513875e-01 +1.92530394e-01 -6.44832924e-02 +8.90370831e-02 -4.08891514e-02 -4.14230339e-02 -1.64852172e-01 -8.96267146e-02 +1.54771611e-01 +1.45465046e-01 +9.45791751e-02 +5.74096739e-01 -2.12372735e-01 -7.60153309e-02 -3.33775461e-01 -7.25610405e-02 -2.08655030e-01 +8.38167071e-02 -5.08646443e-02 +3.25294398e-02 +6.09615333e-02 -3.90324071e-02 -3.93830128e-02 +2.95333918e-02 +4.71568815e-02 -2.26926710e-02 -3.56425971e-01 +2.58301169e-01 -4.07996401e-02 -2.87215747e-02 +3.11140686e-01 +1.41793534e-01 +1.21526057e-02 +5.22971690e-01 -2.58213580e-02 +3.01716267e-03 +1.82074436e-05 +3.00508171e-01 +3.20457146e-02 -3.68936397e-02 +4.77890074e-02 -2.65950710e-01 -4.91195209e-02 +5.90000041e-02 +4.36290830e-01 +2.30062127e-01 +2.23959349e-02 -1.59682795e-01 -4.11709063e-02 +2.08629072e-02 -1.86607689e-01 -5.13508683e-03 -1.34773284e-01 -7.01992810e-02 -3.58646736e-02 -7.54287690e-02 -2.12562513e-02 +5.07601313e-02 -2.12036848e-01 +2.53193285e-02 +1.37990177e-01 +2.39255074e-02 +1.36358827e-01 -1.26378536e-01 -1.66761968e-02 -1.53230220e-01 -2.06360385e-01 -3.96113582e-02 -9.04693976e-02 -1.06044903e-01 +6.21000044e-02 +1.48904752e-02 -3.16924453e-01 +1.38555974e-01 +1.33583888e-01 +8.13385993e-02 -1.73617005e-01 -4.23682295e-02 +9.86922085e-02 -2.24600852e-01 -1.21566214e-01 +2.34573428e-02 +9.12778452e-02 +1.21061265e-01 +1.35403186e-01 +3.16224545e-01 -1.44722883e-03 -1.57461971e-01 -8.24014749e-03 -4.72511530e-01 +3.33385974e-01 -2.93714125e-02 -8.49642083e-02 +1.33585930e-01 +1.03537753e-01 +8.37461501e-02 -1.83940113e-01 -3.16977412e-01 +3.20069999e-01 -2.83539683e-01 -1.01725727e-01 +2.15013608e-01 +1.28810868e-01 +2.30686039e-01 -2.49875709e-02 -1.67324081e-01 -1.19914198e-02 -2.03844070e-01 +1.49003491e-01 -2.72822678e-01 +3.05337965e-01 +1.87874824e-01 -1.99572787e-01 +2.49405988e-02 +1.40058741e-01 +8.38268548e-02 -9.04972851e-02 +2.34346882e-01 -9.82699320e-02 +7.10453987e-02 +9.10685882e-02 +6.57512248e-02 -7.68750384e-02 -1.59097001e-01 -2.65183538e-01 +2.19186872e-01 +7.36260638e-02 -7.33929649e-02 -4.31206316e-01 +2.12347925e-01 +2.24912912e-01 -2.99455561e-02 -2.56327409e-02 -1.48320068e-02 +3.72845680e-01 +3.56400073e-01 +2.13730931e-01 -6.36519790e-02 +3.64764929e-01 -1.79502696e-01 -7.87352119e-03 +2.99378365e-01 +2.17797026e-01 -8.83856565e-02 -3.13005224e-02 -1.53035954e-01 +8.13282356e-02 +4.82191220e-02 -2.55453020e-01 -1.93849236e-01 -1.71325043e-01 -2.30493844e-01 +2.13634565e-01 +1.91511497e-01 -8.25274885e-02 +2.64351726e-01 +1.16873734e-01 -3.17640975e-02 +1.17150679e-01 +4.25263457e-02 +2.44237304e-01 -4.58749324e-01 -1.07519247e-01 +5.98250516e-02 +1.09894522e-01 +9.53738168e-02 +1.20746866e-01 +3.02213337e-02 +9.64935347e-02 -2.60267220e-02 +2.35011548e-01 +3.33940163e-02 +1.81776881e-01 +1.08795024e-01 +3.26018184e-01 -5.11885472e-02 +3.10432483e-02 +1.86745465e-01 +1.78370792e-02 +1.06969595e-01 -1.98705271e-01 +1.52740434e-01 -1.83694325e-02 +1.04034819e-01 -5.87015688e-01 -5.78933172e-02 -9.67663154e-02 +2.37767287e-02 -1.58267794e-03 +2.54775472e-02 +2.78657973e-01 -1.00930586e-01 +3.73456597e-01 +1.26227945e-01 -3.61473918e-01 -2.64163822e-01 -3.13028805e-02 +6.27819332e-04 +9.87419561e-02 +2.03416735e-01 -2.05779493e-01 +2.79757261e-01 +2.21630275e-01 +2.29735523e-01 +1.26206979e-01 -4.93834261e-03 -1.14071101e-03 -1.38731539e-01 -2.13140458e-01 +5.91453314e-01 -6.52613118e-02 +1.72543764e-01 +8.44367519e-02 -1.25295952e-01 +3.17476355e-02 +7.98710659e-02 -1.81814238e-01 +7.67346993e-02 +2.84296393e-01 +1.93763852e-01 +9.31190625e-02 +1.75474614e-01 +2.53700316e-01 -4.10699956e-02 +2.12091222e-01 +2.31969386e-01 +8.85994881e-02 +8.95815045e-02 -2.43071452e-01 +1.50852770e-01 +2.14629829e-01 +2.53860474e-01 -1.16797380e-01 -8.92520994e-02 -1.44971773e-01 -9.70808640e-02 -1.05053239e-01 -4.70130950e-01 -2.49287561e-01 +2.59558797e-01 +1.42645478e-01 -1.08636022e-01 +3.55104953e-02 -4.93258536e-02 +1.20159671e-01 -1.03044538e-02 -3.98207977e-02 -4.57694009e-02 -1.41955003e-01 -2.55706221e-01 -3.74512048e-03 -1.68534234e-01 -1.73348889e-01 -1.74471825e-01 +1.33275673e-01 +3.33111286e-01 +2.19148934e-01 -1.63641497e-01 -1.53423790e-02 +6.30587712e-02 +5.73492348e-02 +1.88478529e-02 +1.21926732e-01 -1.66983739e-01 -1.10562742e-02 +4.12846804e-02 +1.21938564e-01 +3.83109510e-01 -2.94233799e-01 -1.97352767e-01 +1.39323369e-01 +3.24428678e-01 +2.22291902e-01 -4.63057101e-01 +4.42473590e-02 -7.68052265e-02 +4.51048017e-01 +3.23171407e-01 -1.09083697e-01 +1.71163172e-01 +1.81470513e-01 +2.96752632e-01 +7.61074796e-02 -6.75350474e-03 -3.66806500e-02 -8.23599547e-02 -3.03414259e-02 +1.59374788e-01 +2.73741126e-01 -1.42482251e-01 +8.81900936e-02 +6.79230019e-02 -5.49959131e-02 -5.95172830e-02 +1.73873708e-01 +3.43867093e-01 -8.90941918e-02 -8.23822021e-02 -4.08283472e-01 +4.94830171e-03 +1.26269594e-01 -1.24166265e-01 -5.14598042e-02 -2.91919619e-01 +1.60097346e-01 +2.53174566e-02 -1.69588342e-01 -3.48365586e-03 +2.92061508e-01 +2.81237364e-01 -2.15075493e-01 -3.35591249e-02 -2.86616296e-01 -2.77165085e-01 +1.87041670e-01 +8.77813101e-02 +3.04261714e-01 -2.54050612e-01 +7.81233795e-03 +2.05939293e-01 +1.42717704e-01 +3.21627632e-02 -1.48026878e-02 -3.21119428e-01 -3.01833212e-01 +1.24045424e-01 +1.27950519e-01 -3.59570295e-01 -1.30464673e-01 -3.35882120e-02 -2.74185568e-01 -1.44708976e-02 +3.30014288e-01 -1.31308615e-01 -9.41814482e-02 +2.75193527e-02 -1.57250732e-01 +1.81908645e-02 +1.46810785e-01 +3.76902036e-02 +1.11060128e-01 -2.82461166e-01 +9.56818983e-02 +1.12380363e-01 -1.71226356e-02 +3.12370490e-02 +1.70924574e-01 -1.28500089e-01 -9.35684051e-03 +7.18818977e-02 -1.17077380e-01 -3.25328380e-01 -2.52468467e-01 +1.30251542e-01 +2.17715234e-01 +2.72216108e-02 +2.85502281e-02 +2.23466635e-01 -3.25078994e-01 -7.25226924e-02 +2.60410700e-02 +2.75693178e-01 +3.59722793e-01 +6.71661273e-02 -3.01613003e-01 +1.74185142e-01 +1.43192679e-01 +1.88584313e-01 +1.23734795e-01 +1.46496385e-01 -8.23636279e-02 -3.62754427e-02 +9.51693803e-02 +3.69963609e-02 -1.33835763e-01 -1.34804457e-01 -1.38857469e-01 -8.34522992e-02 +1.18625890e-02 +6.48814812e-02 -7.03490153e-02 -9.26927179e-02 -7.18968734e-02 +1.94013685e-01 +1.34985670e-01 -6.25021709e-03 -4.18340266e-02 -4.10675146e-02 -3.23678032e-02 +1.37646630e-01 -6.68172091e-02 -7.89695308e-02 +1.12450693e-03 +6.25434844e-03 +9.85233113e-02 +5.33350967e-02 -9.30580962e-03 +3.68428975e-02 -1.15885705e-01 -8.85896534e-02 -1.20608166e-01 -7.15319812e-03 +1.13050990e-01 -2.36088529e-01 +1.08305290e-01 +1.11667283e-01 -1.73779011e-01 -1.64003938e-01 -8.94706231e-04 +1.17621541e-01 -4.74961996e-02 -1.59043968e-02 +3.82806621e-02 -9.44365859e-02 +6.82127252e-02 -2.59912401e-01 +9.88351833e-03 -2.33314056e-02 -1.48789044e-02 +6.82358444e-03 +1.03503473e-01 -4.05163884e-01 +7.38467202e-02 -2.17966586e-02 -7.12220371e-02 +1.95148459e-03 +3.52076143e-02 +3.12566049e-02 +2.01689050e-01 +1.01404890e-01 -5.13218623e-03 +1.19911797e-01 +1.91272110e-01 +3.63988370e-01 +6.59278929e-02 +8.63969326e-02 -2.29576066e-01 +7.09408149e-03 -1.93501160e-01 -4.83742580e-02 -5.07925972e-02 +7.94129595e-02 +2.16555610e-01 +1.07150711e-01 -4.33591455e-02 +3.16578001e-01 -1.46464556e-01 -7.18255807e-03 +2.20890656e-01 +2.12422341e-01 -1.09104522e-01 -8.56795982e-02 -6.80909008e-02 +7.60588944e-02 +2.80696005e-01 -1.81134301e-03 +1.15930162e-01 -1.14908911e-01 -1.30495625e-02 +1.54673636e-01 +2.03728914e-01 +2.58822497e-02 -4.06328551e-02 -1.65047701e-02 +3.13225612e-02 +2.63500996e-02 -5.25962748e-02 +3.05834990e-02 +5.54717109e-02 -1.05909407e-01 +6.42517675e-03 +1.22694284e-01 -1.60384685e-01 -6.02273755e-02 +8.86410847e-02 -4.20197099e-02 +8.09200183e-02 -1.32485136e-01 +8.68771449e-02 -1.91431474e-02 +2.45490335e-02 +2.64205694e-01 +1.54030278e-01 -1.56733930e-01 +2.06271753e-01 -1.59572635e-03 +6.05766326e-02 +3.95542264e-01 +5.34000471e-02 -6.35387897e-02 -1.54442936e-01 +1.07975170e-01 -3.27448845e-02 +5.40427387e-01 +2.13904008e-01 +1.21535938e-02 -4.92206514e-01 -7.45869875e-02 +4.98847896e-03 -9.93925035e-02 +2.09457636e-01 -1.94595650e-01 +3.11201550e-02 -1.71302166e-02 -3.55259776e-02 -8.90994892e-02 -4.13391739e-03 +8.37069005e-03 +2.17511412e-02 -3.39606367e-02 -1.07792191e-01 -1.35576487e-01 -1.77024633e-01 +1.04900062e-01 -1.76273007e-02 +6.04751348e-01 -1.11489885e-01 -7.69939423e-02 +6.12225756e-02 -1.72402844e-01 -1.09579049e-01 -1.31731415e-02 +1.93398207e-01 +1.15612909e-01 -1.88265014e-02 -1.00353369e-02 -1.51031809e-02 +3.52367871e-02 -1.08885609e-01 +1.29874066e-01 +1.91781409e-02 +1.33927418e-02 +1.70802087e-01 -4.22054417e-02 +4.82137084e-01 +1.86328858e-01 -7.53202662e-03 +1.20228834e-01 +1.94789439e-01 -4.82960910e-01 -1.89692512e-01 -1.13861479e-01 +2.54794121e-01 -1.24806255e-01 -6.67524636e-02 -1.31016091e-01 -3.06235608e-02 +1.40048057e-01 +1.80453047e-01 +8.13420415e-02 -1.73468292e-02 -8.56464729e-03 -1.06147595e-01 +1.86139897e-01 +1.22460850e-01 -6.66262433e-02 -3.21380831e-02 -2.62558967e-01 -6.04167059e-02 -3.24130766e-02 -1.08410060e-01 -1.93734164e-03 -4.58696812e-01 +1.07041217e-01 +1.14236586e-01 +5.80278225e-02 -3.85616794e-02 +1.35629892e-01 +2.45309487e-01 +2.82789916e-02 +1.31011665e-01 -1.31428242e-01 +2.05447245e-02 +1.13139592e-01 -6.23145737e-02 +1.22040361e-02 -1.21967800e-01 -1.89954966e-01 +9.58966464e-02 -6.14516959e-02 +2.26674467e-01 -1.88895002e-01 -5.85894994e-02 +1.43586785e-01 -2.84821913e-02 -1.14520498e-01 -5.31063974e-02 +9.07389671e-02 -1.16983369e-01 -7.82776028e-02 +1.28574327e-01 +3.40728275e-02 -5.29095978e-02 +1.10918708e-01 -1.23181477e-01 +4.85924408e-02 +7.88008049e-02 -1.33431784e-03 +1.63006350e-01 +6.36099651e-02 -8.25169086e-02 -3.70603174e-01 -4.83664759e-02 -1.70475498e-01 +3.38387638e-02 +5.39490543e-02 +1.58470109e-01 -7.64239505e-02 -7.21348673e-02 -3.33964944e-01 +7.17264190e-02 -1.36635125e-01 -7.69911148e-03 -2.60367570e-03 +1.96208894e-01 +5.99662364e-02 +6.13667779e-02 -4.35206927e-02 +2.97540486e-01 +8.48720782e-03 +9.32971239e-02 +1.32488742e-01 -2.53318413e-03 -2.84474015e-01 +2.41917327e-01 -7.66543895e-02 -9.17428955e-02 -6.83213165e-03 +2.06807807e-01 +4.35408391e-02 +1.18949361e-01 -3.04420829e-01 -2.36662984e-01 +5.50074950e-02 +1.53811723e-01 +3.71919684e-02 +1.32990301e-01 +1.95247188e-01 -1.42935649e-01 +2.21083779e-02 +1.52809294e-02 +6.39040247e-02 +3.95313539e-02 -1.03105232e-01 -4.87646550e-01 -3.18565555e-02 +1.56425416e-01 +1.16216034e-01 +1.38930067e-01 +1.27199337e-01 +1.02708101e-01 +1.38248041e-01 +1.34844109e-02 -1.45822108e-01 -7.48368800e-02 -1.14716001e-01 +9.75500569e-02 -1.78149194e-01 +1.49008006e-01 +7.44580254e-02 +6.48854673e-02 +1.37436628e-01 -5.12191467e-02 +4.95837741e-02 +6.70682862e-02 -1.25323460e-01 -5.67105114e-02 -2.44786099e-01 +8.78411531e-02 -1.84437037e-01 +1.01092681e-01 +8.37121159e-02 -9.29395407e-02 +1.51958754e-02 +2.54702777e-01 +5.64858429e-02 -8.84841383e-02 -1.02484532e-01 +2.98673779e-01 -1.30886123e-01 +1.66832745e-01 +1.34042919e-01 +5.89208752e-02 +4.14997190e-01 -1.53671103e-02 +2.06176534e-01 +6.07165135e-02 +1.85814381e-01 +3.03814001e-02 -4.10535932e-01 +2.25715190e-01 -8.92820135e-02 -2.34857976e-01 +1.05473042e-01 -4.69159037e-02 +7.26716816e-02 -6.51602773e-03 -1.42387673e-01 +3.60963792e-01 -1.54215634e-01 +1.15149744e-01 +1.90106854e-02 -1.71207830e-01 +1.94528446e-01 -3.33325386e-01 +6.29728809e-02 -1.03360265e-01 -6.57565221e-02 +1.96296304e-01 -1.43714808e-02 +2.32973039e-01 +2.11480081e-01 -2.94759333e-01 +7.53241219e-03 -1.78149670e-01 +3.16271514e-01 -1.11461021e-01 -2.70195398e-02 -1.04869358e-01 +1.81222662e-01 +5.93210571e-02 +1.71791334e-02 -7.18828589e-02 -2.76710123e-01 -3.64830755e-02 +3.13562661e-01 -1.47841811e-01 -1.56394273e-01 -6.00877523e-01 +2.78823435e-01 +1.10331953e-01 -1.00470245e-01 +1.12662941e-01 +1.12773679e-01 +1.99918881e-01 +3.57398748e-01 +3.05884272e-01 -5.95538840e-02 +4.29546028e-01 +1.36110172e-01 +5.78581169e-02 +1.24938130e-01 -1.86783001e-01 -1.46951899e-01 -3.37915048e-02 -4.46216822e-01 +4.30109017e-02 +7.63182119e-02 -2.93192029e-01 -6.24664664e-01 -8.90548993e-03 -7.40020424e-02 +2.13942081e-01 +8.58669430e-02 +8.63567963e-02 +1.07251823e-01 +2.02109590e-01 -1.37130231e-01 -3.06980759e-02 +9.23703238e-03 +1.79586589e-01 -2.78951496e-01 +7.00883865e-02 -3.30218337e-02 +4.88042273e-02 -1.40489861e-02 +3.51607017e-02 -2.30651498e-02 -3.04175556e-01 +1.14039198e-01 +5.73440433e-01 -8.08795616e-02 +7.46615976e-02 -2.35636462e-03 +8.54151621e-02 +1.28235057e-01 +1.43863425e-01 +5.60790114e-02 +5.84166311e-02 -1.34753346e-01 -2.53013641e-01 +2.22786576e-01 -1.59335420e-01 +7.27024600e-02 -6.54314220e-01 -1.55937329e-01 -1.00051478e-01 -8.48890543e-02 +2.06655890e-01 +2.14418858e-01 +7.58300126e-02 -1.03723705e-01 +4.26318258e-01 +5.19629680e-02 -6.51925445e-01 -3.73520166e-01 +1.51691571e-01 +2.99733505e-02 -5.09906886e-03 -3.24909249e-03 -5.89548983e-02 +3.58388394e-01 +7.51028657e-02 +1.80326998e-01 +4.92083356e-02 +1.79471165e-01 +1.39265269e-01 -1.37855202e-01 +4.02269326e-02 +6.78835154e-01 -5.02784662e-02 +1.91278294e-01 +6.45535886e-02 -1.23047546e-01 +6.49855435e-02 -9.13231298e-02 -1.97074056e-01 +1.56860828e-01 +3.99240330e-02 +2.28058830e-01 +6.44065887e-02 +8.58055726e-02 +8.03230628e-02 -3.98210771e-02 -1.05449751e-01 +3.24902773e-01 +5.55559322e-02 -5.82689866e-02 -2.44250923e-01 +5.72611131e-02 +1.07329056e-01 +1.38856158e-01 +1.07606851e-01 -2.52410639e-02 -6.27462864e-01 -3.22922349e-01 +1.06096104e-01 -2.83187747e-01 -5.00686049e-01 +5.46037257e-01 +4.16326076e-01 -1.78067252e-01 +7.89822936e-02 +1.80141348e-03 +3.81771959e-02 +1.14821367e-01 -1.95995688e-01 -4.98554856e-02 -1.66574851e-01 -4.93243694e-01 -9.64208692e-02 -1.34797141e-01 +8.68888125e-02 -8.36250931e-02 -8.66152812e-03 +6.37562096e-01 +1.33911148e-01 -2.29906708e-01 -5.31808101e-02 +1.28872991e-01 +2.15819642e-01 -5.19675948e-02 +1.29608348e-01 +9.08151343e-02 -1.51415646e-01 +6.09583408e-02 +1.66602358e-01 +3.90959889e-01 -7.23563433e-01 +5.92897311e-02 +1.81182653e-01 -1.66954666e-01 -8.63725916e-02 -4.80536669e-01 +8.64611492e-02 -2.80304193e-01 +3.04824412e-01 +4.28302765e-01 +1.67629749e-01 +6.27633631e-02 +1.95036933e-01 -1.18785277e-01 +6.60222843e-02 -5.37479296e-03 -4.98207435e-02 +6.46100789e-02 -3.87889184e-02 +2.88060933e-01 -6.00219741e-02 +4.61320579e-02 -1.28579810e-01 +2.75943398e-01 -3.17377567e-01 -2.21613303e-01 +1.55755043e-01 +1.96959227e-01 -3.50039788e-02 +1.12580962e-01 -3.48145902e-01 +6.36269450e-02 +2.33542055e-01 -3.33944350e-01 -2.24135555e-02 +2.27575880e-02 -2.13346317e-01 -4.22984600e-01 -2.51717091e-01 -4.30846289e-02 +1.90913782e-01 +3.50490272e-01 -1.44497752e-01 +1.54499367e-01 -2.08294019e-01 -3.30688536e-01 -3.80755328e-02 -1.75929237e-02 +1.89098239e-01 -4.56402570e-01 -2.39955544e-01 +4.71817851e-02 -1.66959353e-02 +2.44208813e-01 -3.51594985e-01 +5.11654057e-02 -3.48014355e-01 +2.19466582e-01 +1.21993326e-01 -3.39137644e-01 -3.73194158e-01 -2.53354937e-01 -8.48230794e-02 +2.63580799e-01 +5.71536303e-01 -3.14081103e-01 -1.85853168e-01 -2.28764620e-02 -1.23745181e-01 +5.89946210e-02 +2.10741282e-01 -8.03696662e-02 +3.76967490e-02 -6.62077144e-02 +4.45872657e-02 +7.28512406e-02 +7.97851160e-02 +2.62593657e-01 +2.23759800e-01 -1.52002573e-01 +4.60521132e-01 -1.04681626e-01 +6.60381988e-02 -3.39121461e-01 +7.27491006e-02 +2.60772705e-01 +1.09513536e-01 +5.09420820e-02 +8.66066590e-02 +2.80995518e-01 -1.66113615e-01 -8.14199522e-02 -2.14251220e-01 +1.24966435e-01 +2.28497580e-01 +4.63419035e-02 +8.00528601e-02 -1.30073503e-01 +3.50972950e-01 +4.30313140e-01 -3.37242261e-02 -2.90823281e-01 +6.09878153e-02 -4.79701394e-03 +2.73604304e-01 -2.06504688e-01 -1.63553461e-01 -1.17951430e-01 +4.01865005e-01 +6.52746975e-01 -7.17117861e-02 -9.30993110e-02 -1.76097482e-01 +3.27019244e-01 -1.20388255e-01 +1.94177404e-01 -9.56044123e-02 -7.25282654e-02 -2.62253344e-01 -1.56766310e-01 -6.79935366e-02 +3.81972611e-01 -3.59626561e-02 +2.22957879e-01 -3.51579301e-02 -1.69709146e-01 -1.55949146e-01 -2.46676475e-01 +4.57112819e-01 +5.28566658e-01 -1.99875802e-01 +5.98636568e-01 -2.62392849e-01 +3.67508940e-02 -8.45500007e-02 +6.84128478e-02 -1.63995683e-01 +4.69978601e-02 +1.01799391e-01 +1.25695989e-01 +1.41610667e-01 +5.61301649e-01 +8.49262923e-02 +1.71492863e-02 +3.95278007e-01 +9.88081768e-02 -2.23657489e-02 +1.87377110e-02 +4.71068211e-02 -2.38505647e-01 -2.56076735e-02 -2.35250875e-01 -1.86610013e-01 +4.74138893e-02 -1.52613400e-02 +5.76334357e-01 +2.16654181e-01 -2.68163234e-01 -1.24525912e-01 +4.53335643e-01 -6.49505556e-02 -1.92451850e-01 -2.63465434e-01 -1.40793562e-01 -3.97998452e-01 +6.67451546e-02 -2.04891220e-01 -6.23010814e-01 -1.74598634e-01 +1.12619877e-01 +4.60603312e-02 +3.04870427e-01 +2.64998883e-01 -2.66261458e-01 -4.57783788e-01 +2.85973758e-01 -7.29403645e-02 +1.28555477e-01 -1.00517526e-01 -9.26599130e-02 -1.36039495e-01 -3.91623005e-02 +1.23479947e-01 -4.61466312e-02 -1.03701107e-01 -3.45855653e-01 -1.50963083e-01 +1.46848904e-02 -3.44274461e-01 -3.15994099e-02 -1.03284180e-01 +8.48849267e-02 -3.34450454e-01 +2.39188328e-01 +9.75012928e-02 +7.01680854e-02 -9.23670754e-02 +2.01174185e-01 -6.84711412e-02 -4.69531901e-02 +1.53755173e-01 -4.26684581e-02 -1.31878793e-01 -5.09204194e-02 -1.99785829e-01 -2.01191455e-01 -2.45558217e-01 -5.23701459e-02 -1.88625813e-01 -3.32383513e-02 -1.03046648e-01 -1.74227074e-01 +1.33370580e-02 -2.83223242e-01 -4.62997071e-02 +2.68793315e-01 +1.78585514e-01 +4.40932475e-02 -3.82619910e-03 -1.03330620e-01 +1.40123203e-01 -4.63061519e-02 +9.52805877e-02 -8.30606967e-02 -2.52544470e-02 -1.31211609e-01 +1.70719668e-01 -1.61318883e-01 +1.90310761e-01 +9.56988111e-02 -8.51011649e-03 -2.45718718e-01 -5.45986928e-02 -1.23161443e-01 +4.31276374e-02 -1.82642266e-01 +1.96564253e-02 +3.57343107e-02 +2.20670197e-02 +1.03926942e-01 +1.80162534e-01 -1.92577347e-01 -4.62637469e-02 -1.32503837e-01 +8.04782733e-02 +1.32063786e-02 -5.85087389e-03 -5.90784311e-01 +1.47604883e-01 -1.36126608e-01 -2.09950715e-01 -8.52067992e-02 +3.90840322e-02 -4.22437675e-02 -2.94660151e-01 +5.39276488e-02 -1.50197089e-01 -6.98498368e-01 -1.19443253e-01 +3.83676612e-03 -7.29511008e-02 -2.19991162e-01 +8.31841528e-02 +1.59144085e-02 -1.18472062e-01 -1.05041653e-01 -5.15306890e-02 -2.28597209e-01 +1.47629688e-02 +4.83763844e-01 -9.61704701e-02 -5.83521239e-02 +4.09233607e-02 -1.56630427e-01 -2.87131041e-01 -7.76130822e-04 +1.52613461e-01 -1.36615142e-01 +4.19482253e-02 -8.94865021e-02 +1.29349634e-01 +1.68289527e-01 -1.51075646e-01 +3.91392887e-01 +1.44932017e-01 +3.05558555e-02 -2.35011369e-01 +2.97413170e-02 -1.75040811e-01 +3.02642167e-01 +1.78746805e-02 +1.37361690e-01 +1.05508216e-01 +2.08682433e-01 +2.62127906e-01 +3.95189598e-02 -9.41027179e-02 -8.78559053e-02 -1.89197227e-01 -4.26663190e-01 +9.26883593e-02 +5.66971898e-01 +9.37989056e-02 -1.26023972e-02 -1.64689675e-01 +2.50612974e-01 +6.47118613e-02 +6.49009943e-02 -2.29947284e-01 -4.22760211e-02 +4.86537218e-02 -1.47386819e-01 -4.94688153e-02 -2.08056852e-01 +9.66739804e-02 +2.56297529e-01 +1.05516657e-01 -1.07882075e-01 +4.19648141e-02 -4.06916291e-01 +2.42202114e-02 +1.29123673e-01 +1.96111470e-01 +2.67989367e-01 +2.54432857e-02 -1.72168598e-01 +7.35664964e-02 +5.89920841e-02 +3.45127098e-02 -1.42803714e-01 +5.23640335e-01 +1.86408907e-02 +1.86790332e-01 -4.95375842e-02 +5.12813739e-02 +1.61821663e-01 -6.14915369e-03 -1.37451679e-01 -3.42171565e-02 -6.58196807e-02 -1.43878937e-01 -1.21642411e-01 +7.66743347e-03 +5.40100634e-01 +1.49358720e-01 -1.33441448e-01 -4.29473579e-01 -1.96620390e-01 -4.79584754e-01 +8.35667476e-02 -7.53142089e-02 +6.82243612e-03 -2.42914762e-02 +4.81373034e-02 -6.47647753e-02 +1.62212655e-01 +5.28697297e-02 -7.11186156e-02 -2.37791404e-01 +3.03921819e-01 -2.05978751e-01 +4.68109585e-02 +5.22640288e-01 +1.77634135e-01 -4.75882404e-02 +4.47057456e-01 +9.30168084e-04 +2.65046079e-02 +5.10814898e-02 +1.27153009e-01 -1.64485887e-01 -1.70514081e-02 -2.12071002e-01 +1.35063753e-01 -4.47814725e-02 -1.00409962e-01 +1.81988955e-01 +2.59577781e-01 +1.72673091e-01 +9.56670195e-02 -3.67346182e-02 +1.20477468e-01 -8.39356035e-02 +1.74717411e-01 +1.32529795e-01 -9.36121121e-02 -3.17884356e-01 +1.37964800e-01 +3.44814152e-01 -1.91432804e-01 +2.07940221e-01 -2.32477169e-02 -4.46386561e-02 -9.36143473e-02 -7.08660930e-02 -1.51169924e-02 +3.47803473e-01 -5.08015305e-02 -4.88384992e-01 +7.58342594e-02 -1.61370724e-01 +6.66953102e-02 +2.75729954e-01 +3.17148827e-02 -1.15359858e-01 -3.81757282e-02 -9.29826647e-02 -6.77789748e-02 +4.18117009e-02 +7.49211432e-03 +1.13286324e-01 +6.75207451e-02 +3.74282226e-02 -1.60504319e-02 -5.91750182e-02 +1.22791780e-02 +1.68217358e-03 +8.73365104e-02 +2.97230668e-02 -1.15076974e-02 -5.79305477e-02 +1.28731802e-01 -8.36944953e-02 +7.53632411e-02 +8.58771950e-02 -1.19009770e-01 -4.49837893e-02 -1.38489464e-02 +1.62861526e-01 +4.47254851e-02 +1.64260212e-02 +1.22391343e-01 -1.61956429e-01 -2.87561640e-02 -1.50175244e-01 +3.24255079e-02 -1.00633927e-01 +1.57377608e-02 +1.18807897e-01 +1.38498470e-01 +5.66480272e-02 -2.11744402e-02 +2.30881184e-01 -7.23774210e-02 +1.38924941e-01 -8.12551305e-02 +4.20935079e-02 +1.65834483e-02 +1.40710071e-01 +4.26021405e-02 -1.17814280e-02 -4.92238589e-02 -3.90768088e-02 +1.94706380e-01 +7.92169422e-02 -5.40642664e-02 +1.47610739e-01 -1.94543079e-01 -1.09332159e-01 +1.28292590e-01 -1.42189842e-02 +3.72512708e-03 +1.30919619e-02 +7.65170157e-02 -3.16303000e-02 -7.09583983e-02 -1.11763947e-01 -6.16039783e-02 +4.07882147e-02 -3.03692687e-02 +6.82755858e-02 -6.83190003e-02 +1.72106966e-01 -1.73148930e-01 +8.57664421e-02 -5.91978207e-02 +1.02349129e-02 +2.63653528e-02 -6.07616156e-02 -1.88199151e-03 -1.01369523e-01 -2.06436947e-01 +1.62223831e-03 -7.54846707e-02 +6.95582926e-02 -6.25208095e-02 -4.97013107e-02 -1.23949073e-01 +1.58756934e-02 +3.69263031e-02 -9.63484794e-02 +1.04416907e-01 -8.64386708e-02 +4.96633574e-02 -1.78945273e-01 +8.52413625e-02 -6.29760250e-02 -1.89203322e-02 -1.63070440e-01 +1.25814810e-01 +2.07239781e-02 +2.50795856e-02 -1.12843784e-02 +3.52227911e-02 +1.30420662e-02 -2.88088098e-02 +5.99121600e-02 +9.16916057e-02 +2.14778259e-02 +2.94793863e-02 -1.24479413e-01 -1.52954057e-01 -2.04359144e-01 -4.68983240e-02 -1.69127565e-02 -2.18677316e-02 +7.00297356e-02 -4.40307222e-02 +2.98058074e-02 -2.45028958e-02 -8.82314742e-02 -3.20454873e-02 -7.36370012e-02 +9.95134115e-02 +7.66037479e-02 -2.17711225e-01 +1.05944529e-01 -1.38860986e-01 +4.22765650e-02 -4.90821972e-02 +1.28778413e-01 -2.26595894e-01 -3.52909602e-02 +1.16123848e-01 +1.25013709e-01 -2.02447936e-01 +7.88958222e-02 -2.82285690e-01 +2.40388617e-01 +7.13779554e-02 +1.25455797e-01 +9.56528485e-02 -1.03084080e-01 -2.19316691e-01 +9.61202197e-03 -1.67603016e-01 -2.41680760e-02 -8.15324932e-02 +1.19695842e-01 +5.07635809e-03 +4.66532484e-02 +1.13343902e-01 +6.21157289e-02 -2.73578823e-01 +1.78282883e-03 +8.81887674e-02 +6.13971427e-02 -2.40536425e-02 -5.21166511e-02 -4.08911668e-02 +2.51100101e-02 +8.28022510e-03 +7.62163550e-02 +1.21570624e-01 +1.61941685e-02 -4.18242291e-02 -7.00610578e-02 -1.10277571e-01 -4.56773229e-02 +1.50077641e-01 +3.16241421e-02 +1.52135462e-01 +1.06979087e-01 -2.50832081e-01 +2.58272178e-02 -9.47956648e-03 -1.63909211e-03 -1.32160351e-01 -6.61533400e-02 -3.97673585e-02 +1.83191180e-01 +4.37745750e-02 +7.71179050e-02 -5.86912297e-02 +8.00518245e-02 +1.71406850e-01 +5.18403202e-03 +4.75444533e-02 +3.44391353e-02 +3.07054520e-02 +1.30652443e-01 -9.90356728e-02 -7.16942549e-02 -1.61345959e-01 +1.07693523e-01 +1.15230819e-02 -6.99956389e-03 -1.39999092e-02 -1.10916734e-01 -5.50419353e-02 +1.12232016e-02 +4.49218489e-02 +1.14273794e-01 -5.58564067e-03 -1.02367260e-01 +1.06104254e-03 +6.16867989e-02 +9.24002156e-02 +7.09020421e-02 +1.28949538e-01 +4.98939231e-02 -2.87296977e-02 -1.96496234e-03 +1.24152295e-01 -8.30653757e-02 +8.50751698e-02 -6.01771958e-02 +1.31877229e-01 +4.23603915e-02 -3.63791659e-02 -1.00251153e-01 -5.65300323e-03 -1.20875753e-01 -6.76125586e-02 -2.39385795e-02 -1.40239820e-01 +1.29316509e-01 +8.35332498e-02 +1.75076962e-01 +1.33223876e-01 -5.78557216e-02 +1.06107229e-02 +1.00617178e-01 +8.34115446e-02 +5.08738309e-03 +1.63882032e-01 +8.94985273e-02 -6.11400977e-02 +1.02073908e-01 -6.59091696e-02 -9.35527757e-02 +3.54390517e-02 -3.34155038e-02 -1.02532178e-01 -5.75177632e-02 +2.62925699e-02 -4.81373305e-03 -1.15503646e-01 -6.72886670e-02 +1.96016729e-01 +1.32840946e-01 -1.62223846e-01 -4.64090221e-02 -6.42669573e-02 +1.34929895e-01 -4.23054174e-02 -1.13508143e-01 -7.26290569e-02 +1.21234454e-01 -3.43120024e-02 +1.88480131e-02 -1.46760372e-02 +1.50884807e-01 +1.67920053e-01 -7.75271580e-02 -3.13437171e-02 -5.92436045e-02 +1.12297416e-01 +1.47982374e-01 +3.74553688e-02 -3.19096707e-02 -2.12496202e-02 -1.08528882e-01 -4.30356571e-03 +9.18293595e-02 +8.75440799e-03 +9.66800004e-02 -9.76094231e-02 +8.30188915e-02 +3.20099518e-02 -1.70832351e-01 +5.25578782e-02 -2.87502650e-02 -2.01996472e-02 +8.24437663e-03 +1.86438978e-01 -1.64878681e-01 -3.45924236e-02 +2.60032177e-01 +1.01538576e-01 +7.34352544e-02 +2.03901785e-03 +5.26284100e-03 +1.11572474e-01 +1.24662779e-02 +1.13094218e-01 +2.12184623e-01 +7.44498102e-03 +1.17088944e-01 +2.22456679e-02 -1.08613461e-01 +4.17402424e-02 +2.85543408e-02 +7.46153072e-02 +1.02097400e-01 -1.57087222e-01 -4.28952500e-02 -1.74356967e-01 -3.80377397e-02 -9.60103273e-02 -4.23026010e-02 -2.56012201e-01 -2.68160462e-01 -1.09112104e-02 -1.37968659e-01 +1.24548301e-01 +1.79388553e-01 +1.01599328e-01 -1.58512574e-02 -2.08203182e-01 -2.00056627e-01 -1.17303580e-01 -2.90295761e-02 +1.32558271e-01 +7.51745179e-02 -6.32003695e-02 -1.53538883e-01 -5.45473956e-02 +1.14441700e-01 -6.01685606e-02 +4.31727096e-02 +1.11669682e-01 -3.14152151e-01 +2.55874187e-01 +1.21557258e-01 +1.33620635e-01 -3.02871633e-02 +2.59298533e-02 +1.34719238e-02 +2.30344221e-01 +1.94629714e-01 +2.64184326e-01 +4.80450541e-01 -8.52954462e-02 +1.29564658e-01 -1.31035298e-01 +1.24314442e-01 +2.33128026e-01 +1.40788496e-01 -9.58915576e-02 -8.06398615e-02 +1.92078859e-01 -2.12425485e-01 +6.39920756e-02 -5.89717664e-02 +1.77409537e-02 -1.00262240e-01 -7.54233301e-02 -2.58571625e-01 +5.79049848e-02 -2.60055333e-01 +9.10106674e-02 -2.39143334e-02 -5.88550931e-03 +9.89851579e-02 -2.15150952e-01 -2.30073761e-02 +7.18903244e-02 -1.09109558e-01 -8.07155147e-02 +2.15885520e-01 -3.04912608e-02 +2.45191455e-01 +2.50315428e-01 +5.93633913e-02 -2.47994997e-02 +2.00936452e-01 +5.39808441e-03 +4.97538112e-02 +8.21623057e-02 -3.72254550e-01 -2.16342974e-02 -8.45203921e-02 -1.46704599e-01 +1.26388501e-02 -1.03932843e-02 -2.87243202e-02 -1.84200898e-01 -3.40080485e-02 -1.42978311e-01 -1.26592234e-01 +2.55085588e-01 +9.19005945e-02 -2.42296621e-01 -2.54667997e-01 +1.38970003e-01 +1.30091310e-01 -6.32102638e-02 +5.45203090e-02 +3.10900784e-03 +3.15898597e-01 +6.74980804e-02 -1.53088644e-01 -7.27549568e-03 -2.11244434e-01 +1.10062711e-01 +1.59573495e-01 -6.99254572e-02 -1.86311156e-02 +1.91228256e-01 -7.14779049e-02 -8.14035628e-03 +1.78073511e-01 -2.27892455e-02 +1.55727321e-03 +3.16994548e-01 -1.17000125e-01 +9.52906013e-02 -9.45722163e-02 -8.35003182e-02 -2.92008575e-02 +1.67761624e-01 +3.07142645e-01 -2.22928584e-01 -3.89432386e-02 +2.86236741e-02 -5.13476180e-03 -2.07803056e-01 +5.39427251e-02 -2.30471998e-01 -1.04170432e-02 -2.50650734e-01 +6.79876506e-02 +9.70434994e-02 +2.13855073e-01 -2.15033188e-01 -4.20313105e-02 -4.54553328e-02 +9.50851515e-02 +8.38772357e-02 +1.73703209e-01 +1.85810655e-01 +1.46718785e-01 -7.13621899e-02 -1.57706976e-01 -6.68505803e-02 -1.05845138e-01 +3.83679569e-02 -3.08209583e-02 -1.34723902e-01 -5.30951694e-02 +1.24049410e-01 +2.41834261e-02 -2.78858483e-01 -5.99432588e-02 +2.36971587e-01 -6.73860759e-02 -1.49308920e-01 -2.06696004e-01 -2.10468277e-01 +1.31997719e-01 +9.34271738e-02 -8.47143754e-02 -8.87478143e-02 +4.27058600e-02 +1.60662398e-01 +1.16379559e-01 +9.13616095e-05 +1.00853465e-01 -2.93702092e-02 +9.18644741e-02 +9.73586515e-02 +6.38331771e-02 -1.70734972e-01 +1.17275171e-01 +9.35125872e-02 +5.79984635e-02 +9.78896469e-02 -5.46971783e-02 -2.65970584e-02 +1.17571233e-02 +3.62632684e-02 -2.26272002e-01 +1.28886178e-01 +1.44008711e-01 -1.92156896e-01 -1.63120002e-01 +1.52897134e-01 +2.90600248e-02 +6.14350177e-02 -9.61574167e-02 -1.63265869e-01 -2.21559092e-01 -2.27210857e-02 +2.60477886e-02 +8.52921978e-02 -1.43970856e-02 +1.16763629e-01 +4.08012047e-02 -3.54488045e-02 -7.23734200e-02 +1.41017258e-01 +5.41641712e-01 +5.44136614e-02 -2.26081703e-02 -1.75156184e-02 -4.75811353e-03 +2.42281020e-01 +2.00853154e-01 +4.67796661e-02 +3.45707242e-03 +9.21908170e-02 -1.52490288e-01 -2.37045720e-01 -1.19213700e-01 +2.79804617e-01 +3.08053643e-02 -4.87950109e-02 +1.15386933e-01 -2.34874655e-02 +2.70565838e-01 -1.23351477e-01 -1.90746069e-01 -2.15193946e-02 -1.51410773e-01 +5.29808365e-02 -7.92043135e-02 +1.78460822e-01 +9.61649045e-02 +7.68976137e-02 +1.25323161e-01 -3.37327123e-02 +1.25947982e-01 +1.11768804e-01 +4.65078503e-02 -3.24784070e-02 +2.47222692e-01 +1.98216885e-01 -2.16011599e-01 +1.19965784e-01 +2.57531375e-01 +8.05310011e-02 +1.36109442e-01 -3.75759937e-02 -1.86566517e-01 -9.51753482e-02 -4.41142209e-02 -6.78274408e-02 -1.63853452e-01 -1.69179633e-01 +8.25195573e-03 +1.65194669e-03 +2.51851678e-01 -4.44965297e-03 +1.70880750e-01 -2.44762003e-01 -1.85877696e-01 -6.24187961e-02 +1.30956724e-01 -1.24659903e-01 -9.84779932e-03 +2.34484114e-02 +5.70385978e-02 -1.44904638e-02 +1.82386622e-01 +1.22740068e-01 -5.70145734e-02 -8.46238621e-03 +1.67077109e-01 -3.73629391e-01 -3.76684405e-02 -2.98159253e-02 -9.53655466e-02 -8.38507265e-02 -5.34434244e-02 +1.44372985e-01 +5.52678816e-02 -8.56627747e-02 -4.78299260e-02 +7.60700852e-02 +1.05034806e-01 +2.43144587e-01 -1.29229590e-01 -2.26783931e-01 -7.53640682e-02 +4.53794189e-03 -5.65063953e-02 +4.01085652e-02 +3.40421736e-01 +1.16392754e-01 +4.56515029e-02 -1.54661432e-01 +2.00912729e-02 +4.48107086e-02 +1.99265286e-01 +1.55815586e-01 +9.22395512e-02 -4.35940847e-02 -2.52599180e-01 +7.85424560e-02 -1.11929454e-01 +1.36188760e-01 -2.04176921e-03 +4.34634909e-02 -1.19019359e-01 +2.34372333e-01 +8.96812230e-02 +4.29916121e-02 -2.27226734e-01 -5.51658809e-01 +8.91476795e-02 +1.83339357e-01 +2.02031240e-01 -1.94087654e-01 -2.02536248e-02 -1.11548036e-01 -4.54564095e-02 -1.11135893e-01 +7.42669031e-02 -2.25098226e-02 -6.99243415e-03 -4.71565425e-01 +1.19104989e-01 +1.05689792e-02 +5.92036955e-02 +9.41549614e-02 +6.99292868e-02 +4.56023574e-01 -2.30863377e-01 -4.63943005e-01 +2.14590415e-01 -4.13881153e-01 +1.31556422e-01 -1.32104471e-01 -7.56148398e-02 -6.65922537e-02 +1.56247690e-01 +2.07334965e-01 +6.68419674e-02 -3.75151724e-01 -3.23211327e-02 -2.87647694e-01 -7.50058964e-02 -8.68413821e-02 -4.87690568e-01 +3.91041152e-02 +1.82442129e-01 -9.73470286e-02 -9.79771093e-02 +4.04555142e-01 -3.74177247e-02 +2.30780523e-02 +1.17110118e-01 -2.42026635e-02 +1.28605127e-01 -4.09857571e-01 +1.10770389e-02 +3.73912156e-01 +2.60837793e-01 -2.69233108e-01 +8.15833434e-02 +1.22300833e-01 +2.53331721e-01 -2.70813005e-03 +2.06485197e-01 -1.00262165e-01 +4.98270452e-01 +3.95115674e-01 +2.11255237e-01 -1.80739582e-01 -8.67986679e-02 -3.51498246e-01 -4.95108783e-01 +1.73233509e-01 +1.69988960e-01 -2.63363451e-01 -3.72616109e-04 -7.42827132e-02 -1.04399659e-01 +1.82914734e-01 +2.23372906e-01 -4.12683450e-02 -2.68634766e-01 +3.82966250e-02 +1.23482846e-01 +4.08903450e-01 +1.27661869e-01 -3.47880390e-03 +1.81962088e-01 -6.31882399e-02 +1.81470662e-02 -1.76267892e-01 +2.11782694e-01 +2.62400955e-02 +2.01616753e-02 +4.26367298e-02 -1.17158340e-02 -1.91674083e-01 -4.85599339e-02 +7.53468797e-02 -1.15315154e-01 -2.67710566e-05 +5.04658185e-03 +6.68793693e-02 +9.72608551e-02 +1.40736802e-02 +2.17922449e-01 +8.57449174e-02 +2.34434292e-01 -1.78358749e-01 +5.17121330e-02 +1.24481641e-01 -9.39340666e-02 +2.10576817e-01 +4.52663749e-02 -2.19191894e-01 -2.38839135e-01 +1.89042032e-01 -5.78987971e-02 -1.23423114e-02 -4.14540917e-02 +1.57103930e-02 -1.96329594e-01 +2.17430353e-01 -1.14676386e-01 -8.23410451e-02 -2.72338420e-01 +1.38646841e-01 -1.90761775e-01 -5.09162694e-02 -3.64236087e-02 +4.36811268e-01 +5.00040390e-02 +1.13450035e-01 -1.99056007e-02 +1.03247225e-01 -1.08980335e-01 -6.79752231e-02 -1.14363283e-01 +1.07282244e-01 -1.88818246e-01 +2.61307657e-01 -4.32137288e-02 +8.77506845e-03 -1.95176199e-01 +1.58129949e-02 +7.35565126e-02 +6.45688117e-01 +3.58040184e-02 +1.83054134e-01 +2.69445807e-01 -1.47910714e-01 -3.89895104e-02 -3.28261219e-02 +2.49184206e-01 -1.67421270e-02 +1.13946922e-01 +4.62355345e-01 +1.83122922e-02 -1.07330769e-01 -1.47928605e-02 +1.05479598e-01 -5.68031371e-02 -1.35467067e-01 +2.51741886e-01 +5.06238937e-02 +1.88952878e-01 +2.12084711e-01 -2.44350228e-02 -2.75828212e-01 +1.12497889e-01 +2.31500249e-02 +1.09587856e-01 +6.23423490e-04 +1.55344844e-01 +6.55777985e-03 -7.58529752e-02 +1.36610240e-01 -1.67672157e-01 +1.17562652e-01 -6.02875799e-02 -9.22548547e-02 +1.80818439e-01 -2.88695451e-02 -1.70393080e-01 +5.38001880e-02 +3.60277772e-01 -2.09148806e-02 +2.70128191e-01 -1.79970801e-01 +2.51313206e-02 +6.71513975e-02 -2.93437950e-02 -6.73323944e-02 -3.31664413e-01 -4.70294803e-02 -2.46066786e-02 -1.12165352e-02 +2.61976153e-01 +3.31627786e-01 -2.26105988e-01 -5.89949012e-01 -3.34903598e-01 -1.91299602e-01 +1.37208745e-01 -8.28026459e-02 -7.15210214e-02 +6.07975014e-02 +3.19144428e-01 +2.74130255e-01 -5.20239696e-02 +1.90841913e-01 +2.49107853e-01 +3.95617843e-01 -1.76655263e-01 -5.52677102e-02 -2.05383226e-01 +1.15215909e-02 +1.07416725e-02 +2.75217623e-01 -1.20438471e-01 -6.99372403e-03 -2.25632474e-01 -2.18362927e-01 +3.04032546e-02 +9.17923823e-02 +2.85157133e-02 -9.62677505e-03 -5.55819757e-02 +7.25662410e-02 -4.46479470e-01 +1.65397972e-02 -4.90609817e-02 -1.55922204e-01 +1.02778412e-01 -2.79688627e-01 -1.41114499e-02 -2.28345841e-02 +2.99407303e-01 -1.48246914e-01 +2.45927736e-01 -1.45089209e-01 +1.27063274e-01 -4.32000279e-01 -1.80372536e-01 +2.86486536e-01 +3.31819296e-01 +1.81111991e-02 +3.83165121e-01 -3.47109325e-02 +2.43566453e-01 +3.48742795e-03 +1.20166913e-01 +7.79961944e-02 +1.16599649e-01 -3.71907577e-02 -1.99284405e-01 +5.31365164e-02 +3.33011627e-01 -5.63351214e-01 +5.20583317e-02 +1.62902027e-01 -3.86688799e-01 +3.62840928e-02 +1.00391842e-02 -2.78890312e-01 +8.28597173e-02 -3.69211175e-02 -4.17854302e-02 -2.51654327e-01 +1.93132862e-01 +1.36134133e-01 +2.93890417e-01 -2.39265114e-01 -3.54799442e-02 +1.29031911e-01 -3.38368177e-01 -1.47032872e-01 +9.90931690e-02 +4.34552208e-02 -7.63160735e-02 -1.45684749e-01 +1.00540956e-02 -1.97453484e-01 -1.54077262e-01 -3.66611704e-02 +3.11169147e-01 -3.34732741e-01 -2.31247202e-01 -1.38370013e-02 +5.92502952e-02 +4.49482314e-02 -5.18633351e-02 +7.57706836e-02 +7.72776827e-02 -1.31542921e-01 -2.50510931e-01 +1.22767994e-02 +3.90731514e-01 -6.85804486e-02 +1.43417463e-01 +6.86544627e-02 +2.12109815e-02 -6.40381128e-02 -2.29127929e-01 +1.62489861e-02 -1.15668990e-01 +1.31447474e-02 -9.20391157e-02 +7.98386112e-02 +4.32775095e-02 -1.65787444e-01 +3.85520868e-02 +4.96358201e-02 -1.39261171e-01 +1.50714219e-01 -8.77910480e-02 +3.58105898e-01 +2.66282316e-02 +6.24437518e-02 -9.35647190e-02 -1.13593772e-01 +7.25441650e-02 +1.13120109e-01 -1.74561900e-03 +7.23228976e-02 -6.04439080e-02 -1.08801894e-01 -9.60007608e-02 -1.34755729e-03 +5.73216565e-02 +8.55933651e-02 +2.45569065e-01 -7.61030167e-02 -1.56785786e-01 +8.93413872e-02 -2.68461227e-01 +2.27759004e-01 -4.31268215e-02 +1.63086310e-01 +1.40700072e-01 +6.50929213e-02 +3.36843938e-01 +1.24237746e-01 -4.00961377e-02 -1.29532889e-01 -3.46521795e-01 +3.87649536e-01 +1.03941716e-01 -7.14746192e-02 -1.62070513e-01 +8.18211138e-02 -2.24220250e-02 +1.01600833e-01 +1.60125252e-02 -9.57374871e-02 -8.98859650e-02 -6.40489832e-02 -1.17598131e-01 +1.26360819e-01 -3.87973547e-01 +2.27190107e-01 +2.01370329e-01 -2.34505206e-01 +8.58728029e-03 -4.04708497e-02 -9.03477520e-02 +1.25330940e-01 +7.44205043e-02 +1.54968426e-01 +2.44251803e-01 +1.08165063e-01 +3.09638292e-01 -8.04959461e-02 -1.01950839e-01 -1.62222639e-01 +1.07862465e-01 -1.38222128e-01 +9.17365178e-02 -1.95018753e-01 -3.67979228e-01 -4.58219290e-01 +1.03212632e-01 -2.93646693e-01 +5.81550971e-02 +7.76760466e-03 -1.16802417e-01 -2.70839691e-01 +1.01334460e-01 +1.30598410e-03 -6.95484057e-02 +7.31846988e-02 -1.30065203e-01 -3.13692391e-01 -1.25166541e-02 -9.13262740e-03 -7.84175843e-02 +1.62191510e-01 +4.89745513e-02 +9.70674902e-02 +7.26593658e-02 +8.93131793e-02 +3.42764378e-01 -4.15173033e-03 +1.59830987e-01 -1.83841422e-01 +9.98062491e-02 -1.10579340e-03 -4.80774194e-02 +2.01184928e-01 +4.26422581e-02 +3.70906144e-01 -9.87016484e-02 +6.49415888e-03 -3.20038289e-01 +7.01389387e-02 -3.52266818e-01 -2.76924580e-01 +7.70893618e-02 -8.04129615e-02 -1.04110623e-02 -5.32238082e-05 +1.19134128e-01 -3.49127293e-01 +2.86469489e-01 +1.28073260e-01 -5.02693295e-01 -1.73166171e-01 +1.92681238e-01 -1.07144035e-01 +2.10738465e-01 -1.48201138e-01 -9.71154645e-02 +2.62397379e-01 -1.11851329e-02 -2.28371695e-01 +8.38046521e-02 -1.62434012e-01 +2.52612293e-01 +1.63900986e-01 +4.74373661e-02 +3.89863044e-01 -2.38643676e-01 -1.07456502e-02 +1.19048908e-01 -1.90966308e-01 +6.40340447e-02 -2.10391343e-01 -6.80338070e-02 -1.67458743e-01 -2.12800145e-01 +7.88401246e-01 +3.96195287e-03 +1.56604618e-01 +2.68783391e-01 +1.09683312e-01 -6.33842424e-02 +1.09355822e-01 +4.51770425e-02 -1.89635724e-01 +1.34962484e-01 -8.15242827e-02 -1.87654018e-01 -1.87679097e-01 -4.83200997e-02 -1.25449821e-01 -3.44130278e-01 -3.15544426e-01 +1.13268733e-01 -2.17287228e-01 -3.14598590e-01 +1.67279512e-01 +3.27462852e-01 -3.27305645e-01 -6.27478585e-03 +2.90899165e-03 -1.16977850e-02 -2.11013094e-01 -3.10469442e-03 -2.80812323e-01 +1.47400007e-01 -2.39190936e-01 -4.84461039e-02 -1.28103390e-01 +2.20707625e-01 +3.69329378e-02 -2.01241478e-01 +3.89466375e-01 +2.03628689e-02 -1.72955930e-01 -1.81018990e-02 +1.62634328e-01 +9.31036621e-02 -1.96104869e-02 +1.75905049e-01 +1.73481982e-02 -2.18576878e-01 -2.43652105e-01 +2.77573943e-01 +1.63793638e-01 -3.79757017e-01 +1.44885674e-01 +1.21672057e-01 -1.52852489e-02 -2.39902884e-01 -1.92695275e-01 -7.35543959e-04 -2.23634407e-01 +2.28138432e-01 -2.25257613e-02 +2.72151440e-01 -2.59841502e-01 +2.79082924e-01 -3.41169924e-01 +1.72582075e-01 -2.26668596e-01 -1.52017083e-02 +8.93353745e-02 -1.16553158e-02 -1.16496846e-01 +2.98064910e-02 -4.83066812e-02 +1.11291684e-01 +1.66063964e-01 -2.65900433e-01 +1.33281246e-01 +2.90092021e-01 +1.91619381e-01 +1.70060880e-02 -1.84543431e-01 -9.44479704e-02 -3.00151156e-03 +1.09532699e-01 -6.73601637e-03 -2.17067599e-01 +1.55719638e-01 -2.45657131e-01 +7.32277520e-03 -3.23626935e-01 -1.06300958e-01 +1.58136576e-01 +3.40568781e-01 -3.71065944e-01 +3.04513425e-01 +1.07017249e-01 -2.15629458e-01 -1.66068807e-01 +2.84977872e-02 +1.75006494e-01 -2.00704783e-01 -1.42435536e-01 +6.12366423e-02 +1.87054835e-02 -1.48810847e-02 -1.30967855e-01 -8.87941420e-02 -1.79132000e-01 +1.76993370e-01 +3.86376195e-02 +2.12022979e-02 -7.46832937e-02 -5.69473058e-02 +2.30000511e-01 +3.83503325e-02 +4.79926705e-01 +4.68851663e-02 -2.68281847e-01 +8.12794641e-02 -1.95577350e-02 +2.22390026e-01 +4.90137711e-02 +2.61252165e-01 -1.90599933e-01 +8.92416686e-02 -1.88526735e-02 +1.02852292e-01 +4.81731772e-01 +2.10663900e-01 +2.49327789e-03 -2.24072039e-02 +3.02123249e-01 +7.49527439e-02 +1.92437544e-02 -3.26917917e-01 +6.70576617e-02 +1.88438177e-01 -1.31567597e-01 +1.79876253e-01 -2.07809389e-01 +2.20380470e-01 -1.46316364e-01 -4.87450622e-02 -1.60173118e-01 +1.22779138e-01 +6.84582442e-02 +1.18246831e-01 +2.72885442e-01 -1.05691992e-01 -3.10160331e-02 +2.70695060e-01 -3.19634289e-01 -2.41245985e-01 -5.75446673e-02 -1.99735627e-01 -2.62545317e-01 +9.06025022e-02 -5.27670234e-02 -9.58622843e-02 +8.94884858e-03 -4.08618033e-01 +5.05688675e-02 +8.57856125e-02 +1.66487291e-01 -2.18907237e-01 -1.89680025e-01 -8.15295503e-02 -1.13272920e-01 +1.13244988e-01 +2.25736439e-01 +5.48693091e-02 -1.48965076e-01 -2.94855654e-01 +1.53269172e-01 -7.46693537e-02 -8.75610262e-02 +1.30055189e-01 +4.83906381e-02 +4.35452700e-01 -2.28749633e-01 -4.16092515e-01 +1.59858003e-01 -3.83960813e-01 +7.57308975e-02 +7.51322135e-02 -2.59511247e-02 +7.10544363e-02 +1.94555372e-01 -7.37389997e-02 -8.49441141e-02 -2.36129045e-01 -1.64694205e-01 -3.39731753e-01 -4.76956442e-02 -7.87108243e-02 -3.41482133e-01 -1.50800049e-01 +8.99309590e-02 -6.75121993e-02 +1.25185568e-02 +2.00853020e-01 -1.98985666e-01 +1.63461342e-02 +1.96146816e-01 -9.24224705e-02 +1.79107394e-02 -3.60194653e-01 -1.64094076e-01 +2.26355642e-01 +2.74374992e-01 -3.75169396e-01 +1.17280465e-02 +2.40084112e-01 +6.48170784e-02 -3.94701085e-04 +2.57846594e-01 +5.00176474e-02 +2.75850207e-01 +3.72728854e-01 +2.72729576e-01 -6.77640364e-02 -1.21804595e-01 -3.80915701e-01 -3.79742384e-01 -1.60535437e-03 +2.31803685e-01 -2.95939535e-01 +3.32484134e-02 -7.35432059e-02 -5.48878349e-02 +9.80712250e-02 +1.78675026e-01 +6.89910799e-02 +1.06432391e-02 -4.07355838e-02 +7.50006586e-02 +3.36341918e-01 +1.67872801e-01 -5.31644411e-02 +1.26263723e-01 -7.41554797e-02 +3.39780897e-02 -1.23472057e-01 +1.27135426e-01 -1.42872423e-01 -9.45267919e-03 +9.44682881e-02 +9.43114161e-02 +1.59780886e-02 +2.03500345e-01 +1.52743456e-03 +9.75555740e-03 -1.49311930e-01 +1.58463672e-01 -1.03398755e-01 +1.14483856e-01 -3.22872736e-02 +4.96571213e-02 -2.86432868e-03 +8.97047892e-02 -9.40397605e-02 +1.89927697e-01 +2.68793970e-01 -8.14526454e-02 -2.49818806e-03 -5.36502935e-02 -1.11645304e-01 -1.94508061e-01 +1.73808318e-02 -7.11056888e-02 +2.19754145e-01 -1.77354738e-02 +5.82425948e-03 -1.40098035e-01 +8.22150037e-02 -5.76145835e-02 +2.31136352e-01 -1.50423020e-01 +1.93734780e-01 -1.21079423e-01 -1.53414443e-01 -1.38431817e-01 +1.21451572e-01 +2.08637062e-02 -2.44235098e-02 -7.58620575e-02 +1.11885294e-01 -2.85657018e-01 -3.50563414e-02 -1.29181333e-02 -1.01338029e-01 -1.16958983e-01 +2.68288881e-01 -4.34414372e-02 -6.06748089e-02 -9.72402394e-02 +9.19681937e-02 -1.10746540e-01 +5.00027835e-01 -4.32386878e-06 +8.37090313e-02 +6.77900165e-02 +1.60826430e-01 -2.11519096e-02 +1.68458611e-01 +1.92527995e-01 +5.75665794e-02 +1.63787261e-01 +4.11909938e-01 +5.04670218e-02 -2.41142511e-01 +9.95491073e-02 +2.47350615e-02 -1.29419625e-01 +1.14598513e-01 +2.00583622e-01 +2.06873491e-02 +9.81190652e-02 +9.49490815e-02 -9.53054726e-02 -1.57260373e-01 +1.78659752e-01 -5.30146807e-02 -1.64519966e-01 -1.15732387e-01 -3.38421240e-02 +6.22031651e-02 -2.30016306e-01 -6.60452917e-02 -4.46121655e-02 +1.85546428e-01 +1.94455847e-01 -2.61869490e-01 +9.33744833e-02 -2.30657086e-01 -7.15372935e-02 +1.17395408e-01 +2.34707519e-01 -1.33067161e-01 +2.65431046e-01 -1.35624036e-01 +1.40883084e-02 +1.21971980e-01 +8.97982195e-02 -1.29895844e-02 -4.09215361e-01 -1.33029949e-02 +1.84793770e-01 +1.58045799e-01 +2.08290160e-01 +1.84906423e-01 -5.31525724e-02 -3.30538899e-01 -3.61220717e-01 +2.38562636e-02 +1.87107682e-01 -1.37524948e-01 +1.17775857e-01 -4.42109741e-02 +3.30943942e-01 +2.49347724e-02 -2.08045676e-01 -3.91503647e-02 +2.73729503e-01 +1.78329840e-01 -1.29292039e-02 -6.72117174e-02 -7.78558180e-02 -9.46431682e-02 +2.18008980e-02 +8.48579630e-02 -9.41387117e-02 -1.11145273e-01 -1.83684036e-01 -1.63728759e-01 +4.25472781e-02 +8.15518722e-02 -3.14271785e-02 -1.55846298e-01 +5.59483953e-02 +4.55006398e-02 -3.33253801e-01 -4.37319055e-02 -2.13657886e-01 +3.27130482e-02 -1.15519889e-01 -9.23085734e-02 +2.13238329e-01 +1.94430292e-01 +2.60513484e-01 -1.89861804e-02 +2.77127415e-01 -1.06347732e-01 +1.18115589e-01 -4.62393582e-01 +1.17734564e-03 +1.39982864e-01 +4.06860203e-01 +9.44070145e-02 +2.60267913e-01 +6.45752549e-02 +1.98557422e-01 +1.30130157e-01 -1.36457846e-01 +2.23019067e-02 +1.16793394e-01 -2.07822293e-01 -1.65953085e-01 +1.97156481e-02 +1.06672786e-01 -3.66444319e-01 +1.22961938e-01 -1.95277985e-02 -3.91902924e-01 -2.06074968e-01 -6.85807467e-02 -1.88872278e-01 -8.45350549e-02 +3.38052586e-02 +2.30302885e-01 -1.86084509e-01 -4.04589921e-02 +1.90403059e-01 +1.64704069e-01 -1.83060393e-01 -1.06466644e-01 +2.64001600e-02 -3.97112727e-01 -3.49420905e-01 +4.18254361e-02 -7.86616951e-02 -5.82170188e-02 -2.14352086e-01 +4.15634774e-02 -2.24831551e-01 -9.73347500e-02 +1.61991954e-01 +2.84023255e-01 -2.85318375e-01 -1.24223016e-01 -1.05787516e-01 -1.63869739e-01 +3.06934323e-02 +9.79502574e-02 -5.32453507e-02 +5.77999093e-02 -1.49964914e-02 -3.00633997e-01 -9.52511281e-02 +1.60433307e-01 -4.63627689e-02 +7.57699087e-02 -5.25709316e-02 +2.44635511e-02 -7.84660131e-02 +5.11449995e-03 -2.26330850e-02 +1.08165592e-01 +1.19044118e-01 +3.77468020e-01 +6.27112567e-01 -3.06585550e-01 +8.87443200e-02 +2.45222196e-01 +1.54598817e-01 -1.85325164e-02 -5.28675541e-02 -3.39018255e-02 -1.02736838e-01 -2.78728316e-03 -3.44640799e-02 +1.28622875e-01 +3.57366577e-02 +6.39343336e-02 -1.15200654e-01 -1.55737057e-01 +4.40853741e-03 -2.31147539e-02 -1.23216249e-01 -1.28552586e-01 +3.27881247e-01 -1.09024353e-01 +1.73938751e-01 +1.17735840e-01 -9.15303752e-02 +7.66909495e-02 +8.94794017e-02 -1.11649416e-01 -2.88787425e-01 +1.40125796e-01 -2.28886455e-02 -4.64175753e-02 -7.69856274e-02 -3.45440418e-01 +5.61619028e-02 +1.74013034e-01 +7.05068558e-02 -8.09821412e-02 -7.26390779e-02 -1.44418731e-01 -1.90319076e-01 -1.34729773e-01 -2.98556119e-01 -2.06320174e-02 -1.14849985e-01 -2.45265216e-02 +9.72792879e-02 +7.10197911e-02 -1.38349503e-01 +9.63404179e-02 -2.03613508e-02 +1.31070778e-01 -6.16257377e-02 -7.33907297e-02 -8.08972716e-02 -3.15160453e-01 -2.02305719e-01 +2.35322565e-02 -2.40796104e-01 +1.32608071e-01 +1.81819960e-01 -8.00616518e-02 +2.86870956e-01 -5.59066162e-02 -2.24544629e-01 -2.85843074e-01 +1.13659268e-02 -6.66954964e-02 +4.48364206e-02 -4.18840982e-02 -6.49990374e-03 +1.61776379e-01 +2.23767501e-03 +6.96694478e-02 +1.14837043e-01 +3.16675752e-02 -2.41944380e-02 -2.62886614e-01 +1.76025212e-01 -2.19825104e-01 +6.59787357e-02 -6.39356449e-02 -1.18471041e-01 -1.84067011e-01 +1.90469578e-01 +2.72275239e-01 -1.39018834e-01 -9.68355462e-02 +1.13922603e-01 +8.19267482e-02 -5.90742230e-02 -2.11888388e-01 -8.09137747e-02 -1.49152298e-02 +1.72745716e-02 -1.44846693e-01 -3.42814326e-02 -2.10311338e-01 -1.93602163e-02 -2.08437741e-01 -1.45767108e-01 +2.49330103e-01 -1.14634790e-01 -7.88177624e-02 -2.87771732e-01 -9.48653817e-02 -1.61532536e-01 -6.29426539e-02 -2.78944038e-02 +1.30251914e-01 +1.90964844e-02 -1.36265069e-01 -2.00030491e-01 -9.72368196e-03 -1.85460709e-02 +9.09713209e-02 -2.06382155e-01 +7.95706213e-02 +1.23814657e-01 +1.37493148e-01 +5.63526824e-02 -1.34045199e-01 +1.67627141e-01 -6.12588488e-02 +1.90478146e-01 +3.75342108e-02 +1.05314091e-01 +4.94007580e-02 +1.17853686e-01 +5.68202995e-02 -2.33765673e-02 +8.36821124e-02 -1.37811750e-01 +2.52892449e-02 +7.33272582e-02 +8.32682624e-02 +1.16852127e-01 -1.16220340e-01 -3.69277269e-01 +1.52136117e-01 +3.89413238e-02 +1.72254425e-02 -2.29989424e-01 +1.77363738e-01 -8.12649669e-04 -5.19986078e-02 -7.45059699e-02 -6.94737658e-02 -2.24820767e-02 +1.50786579e-01 +9.20458212e-02 -1.16767369e-01 -1.04571506e-01 +2.53854729e-02 +7.07455799e-02 -5.41060604e-02 +1.27340347e-01 -5.50001189e-02 -3.15503925e-02 -6.43647043e-03 +1.58903897e-01 +3.14004198e-02 -9.05868411e-02 +1.07018329e-01 +6.18679561e-02 -3.00221086e-01 -1.04334084e-02 -7.87664950e-02 +9.31145847e-02 -6.68426454e-02 +7.62878582e-02 -1.23763852e-01 -2.06908271e-01 +1.21457167e-01 -1.63017422e-01 -4.53244261e-02 -7.11730076e-03 -1.43394363e-03 -1.56250387e-01 -1.07964918e-01 +1.60083279e-01 -4.67101596e-02 +3.16228926e-01 +1.46135360e-01 +1.29501715e-01 +1.48015201e-01 +1.55000277e-02 -1.60207273e-03 -1.23808272e-01 -3.13093662e-02 -2.09829286e-01 -1.31334424e-01 +1.46775335e-01 -2.54214346e-01 +8.09078068e-02 -1.85884431e-01 +1.37586519e-01 +5.45302294e-02 -1.90501645e-01 -2.27743611e-01 -7.10067973e-02 +3.03478912e-02 +7.14010093e-03 -1.26559600e-01 +4.57575396e-02 +3.82879041e-02 -4.58811373e-02 -5.34187406e-02 -2.04999074e-02 +5.92691787e-02 -2.40150496e-01 -1.86785087e-01 +6.43340349e-02 +1.40380219e-01 +1.62762448e-01 -6.57971203e-02 -6.41777888e-02 +5.24949022e-02 -2.36784264e-01 -1.11237720e-01 -1.38326630e-01 +3.15787867e-02 -1.52365670e-01 -1.42021075e-01 -1.41457438e-01 -7.23376125e-02 +2.46302009e-01 -2.21969262e-01 -8.77087042e-02 +1.50078326e-01 +8.26009810e-02 -2.40595087e-01 -1.27769738e-01 -1.28094986e-01 +2.43304700e-01 +7.68253431e-02 -4.35043834e-02 -1.32626131e-01 -8.06203112e-02 -1.45535484e-01 -6.17119670e-02 -1.75340414e-01 +6.62086084e-02 -6.29566833e-02 +4.48429957e-03 -2.28636846e-01 +2.28424042e-01 +3.17961955e-03 -3.79285961e-01 -4.78601545e-01 +2.18072996e-01 -5.22757061e-02 +8.85490179e-02 +1.20925799e-01 -1.95586998e-02 -1.15697853e-01 +2.79196422e-03 +5.93673997e-02 +1.36213124e-01 -4.75057922e-02 +4.93383333e-02 +5.04357107e-02 -9.60793719e-02 +1.66387502e-02 +3.78709957e-02 +5.24405465e-02 -2.71074086e-01 +1.30716249e-01 +7.51584256e-03 +1.27480373e-01 +4.82695326e-02 -8.80302209e-03 -2.14299664e-01 -1.64891586e-01 +1.58112645e-01 +2.01586604e-01 -9.58232116e-03 -1.53032660e-01 +7.24837035e-02 -2.37908140e-01 +1.75190251e-02 +3.08698379e-02 -1.56636506e-01 -1.23376437e-01 -2.95534804e-02 -9.40024853e-02 +5.42864553e-04 -1.08164780e-01 -2.94380188e-01 -1.01262815e-01 -6.73500225e-02 +8.23822916e-02 +3.60673107e-02 +3.25016439e-01 +7.01109171e-02 -4.95621897e-02 +7.14507252e-02 +8.58630762e-02 -1.07767247e-01 -4.73034456e-02 -9.24645923e-03 -1.47128448e-01 +4.41885740e-02 +1.17988110e-01 +2.01934315e-02 +1.91235021e-01 -6.45034164e-02 -1.05389409e-01 +2.05761399e-02 +3.36721912e-02 +1.74577042e-01 +1.87077552e-01 -6.87150136e-02 +1.80130068e-03 -7.89473355e-02 +6.54537156e-02 -1.23402134e-01 +1.93284452e-03 -2.94519644e-02 -3.04389261e-02 +5.34035787e-02 +6.99543059e-02 -4.55519091e-03 +2.14861050e-01 -1.49865195e-01 -7.49708787e-02 -1.82329610e-01 +4.53800857e-02 -3.03809121e-02 -1.22905709e-01 +3.59216705e-02 -1.35817572e-01 +2.14795880e-02 -1.06849708e-01 +2.00354293e-01 -1.23309992e-01 +7.37846643e-02 +4.43183482e-02 -1.45595461e-01 -1.95329353e-01 +6.22841530e-02 -3.99526544e-02 -1.16209038e-01 +1.45608410e-01 -7.72872791e-02 -2.31408831e-02 +7.26428330e-02 -2.22765859e-02 +1.46004736e-01 +3.74416076e-02 -5.15488572e-02 +2.17617545e-02 +8.80327523e-02 +1.30401880e-01 +4.18003164e-02 -1.74091477e-02 +3.53734493e-02 +1.05020113e-01 -2.04484370e-02 -3.03990040e-02 -1.75946765e-02 +1.90872233e-02 -9.06281769e-02 -1.23563290e-01 +1.32466003e-01 +7.92124718e-02 +2.80670449e-02 +1.26578420e-01 +1.23122998e-01 +6.35194257e-02 +2.66259518e-02 +1.83775976e-01 +8.85117576e-02 -6.10609055e-02 +1.24453932e-01 -2.09580008e-02 +2.38834787e-02 +6.72629755e-03 +2.02634688e-02 +4.30132588e-03 +4.04382609e-02 +9.59491208e-02 -1.40869230e-01 +1.34470075e-01 +9.31294560e-02 +6.29789308e-02 -2.95435656e-02 +6.17361851e-02 -7.47090429e-02 +4.00554463e-02 -9.71208811e-02 -6.58263266e-02 -2.10330468e-02 -1.59722090e-01 +5.61187938e-02 -9.35245603e-02 +1.13524266e-01 -5.61382920e-02 +1.16076112e-01 -1.47010863e-01 -1.81085780e-01 +4.31498736e-02 -8.88365041e-03 +1.98049650e-01 +7.19868690e-02 -2.17610244e-02 -1.56973958e-01 +1.45367369e-01 +3.29749621e-02 +1.13246031e-01 -9.46567655e-02 +4.17300202e-02 +1.22860502e-02 -3.53743173e-02 +1.01094082e-01 -2.33258680e-01 +1.23257972e-01 -4.42452636e-03 +2.00611487e-01 +3.27102877e-02 +1.41041994e-01 -1.50936350e-01 +7.13422969e-02 +6.15604548e-03 -1.17266946e-01 -1.35342225e-01 +4.35648635e-02 -1.95223376e-01 +2.00613812e-01 -7.18189925e-02 -3.64683270e-02 -8.07458386e-02 -1.91032737e-01 +7.32317120e-02 +8.68316814e-02 -3.19838971e-02 +8.20662677e-02 -1.17701113e-01 -8.14725757e-02 -1.08462356e-01 +5.41162305e-02 -8.45083073e-02 -1.39176965e-01 +8.02224968e-03 +1.98014900e-02 -5.65910563e-02 -1.61005899e-01 -2.05944069e-02 -5.18109612e-02 -1.04240226e-02 +1.07065879e-01 -4.27257717e-02 -3.18246447e-02 -1.67044565e-01 -5.75266331e-02 +6.43454194e-02 +3.51308635e-03 +2.55989209e-02 -7.27541447e-02 -6.93847239e-02 -6.34904206e-02 -7.71100521e-02 -8.40925127e-02 -1.67856142e-01 +1.37713179e-01 -8.53209421e-02 -2.09177975e-02 +9.80429873e-02 +1.26283705e-01 -1.40212655e-01 +4.03674841e-02 -2.26696253e-01 -2.39607831e-03 +1.15818217e-01 -2.19730032e-03 +1.21586388e-02 +1.67742848e-01 +1.20173562e-02 -4.59218360e-02 +1.24083184e-01 -1.09600917e-01 -8.81075114e-02 +2.48643439e-02 -2.15366799e-02 +1.15394980e-01 -2.68280003e-02 -4.10033017e-02 -2.44366787e-02 -2.63249539e-02 -8.13692156e-03 -4.49489951e-02 +1.12640858e-01 -1.60774991e-01 -2.76711360e-02 +1.08144702e-02 +6.77103102e-02 +2.48323381e-02 -1.52833089e-01 +8.97648335e-02 -2.63460696e-01 +9.01588574e-02 +4.11634929e-02 -5.96386902e-02 +1.98709592e-02 -7.00265318e-02 +8.18391517e-02 -1.69346079e-01 -4.59733531e-02 +1.64228640e-02 -2.01609228e-02 +7.01157600e-02 -8.12723190e-02 +4.05191071e-02 +1.62640363e-01 +5.70974052e-02 -7.59795979e-02 +1.17711410e-01 -2.29354933e-01 -1.93212464e-01 -1.76686168e-01 +1.13193899e-01 -1.20985150e-01 +4.20588031e-02 -1.45641923e-01 -8.40409696e-02 +6.67788088e-02 -4.05993834e-02 -3.77000757e-02 +2.52719875e-02 +3.88569683e-02 -1.26660749e-01 -2.25144047e-02 -1.83016688e-01 -1.53115541e-02 -1.32760957e-01 +7.97238052e-02 +1.83150098e-02 +7.22529963e-02 +1.85928885e-02 +2.85821371e-02 -4.02644388e-02 -1.35329694e-01 -1.68727583e-03 -3.52652706e-02 +1.46715224e-01 +5.47398254e-02 +1.41926661e-01 +1.54475436e-01 -6.63643181e-02 +1.12213483e-02 +1.16923917e-02 -5.91383176e-03 +8.64393935e-02 -9.63965654e-02 -5.17501794e-02 +3.11019924e-02 -1.96526144e-02 -3.26281153e-02 +5.75679205e-02 -5.40688634e-02 +7.59977847e-02 -1.27663417e-02 -2.02143565e-01 +8.87536258e-02 +5.32722287e-02 -1.01788223e-01 -7.60213821e-04 -6.15084060e-02 +1.12071872e-01 +9.45016444e-02 -3.51480804e-02 -6.68280497e-02 -9.26716998e-02 +4.27685678e-02 +5.75232543e-02 +4.12942842e-02 -4.58169430e-02 +4.92362157e-02 -1.12329461e-02 -1.87370971e-01 -6.14819340e-02 -9.09586996e-02 -5.88198937e-03 -1.66982234e-01 -4.02783424e-01 +8.20954237e-03 -9.03041288e-02 +1.29479123e-02 +9.60835665e-02 +1.45154938e-01 +6.09326288e-02 +1.20631315e-01 +5.21755144e-02 -1.21733494e-01 +9.82601792e-02 -1.84332997e-01 -5.94448447e-01 -1.77029327e-01 +1.56364962e-01 +1.56405523e-01 +1.54185519e-01 -9.06835198e-02 -6.01102747e-02 -2.25260228e-01 -5.54256551e-02 +5.16461581e-02 +1.18499741e-01 +3.49190757e-02 -1.16092801e-01 +2.27248408e-02 -1.56369641e-01 -1.55186146e-01 +1.80769056e-01 -2.38267742e-02 +2.02220888e-03 +1.82951003e-01 +1.31243140e-01 -1.48538947e-01 -2.55348831e-01 -2.65516341e-01 -9.72531270e-03 -6.57782257e-02 +3.10543925e-02 -1.59116480e-02 +9.38318968e-02 -1.12682290e-01 +1.54799283e-01 +3.66596617e-02 -1.64199516e-01 +2.16271460e-01 +1.95170119e-01 +5.47544509e-02 +1.38911605e-02 -8.73077288e-02 -2.65519679e-01 +1.61184549e-01 -2.05543205e-01 -1.06648440e-02 -8.29045027e-02 +1.40262961e-01 +2.79968400e-02 +1.86668597e-02 +4.75601181e-02 -3.31525654e-02 -1.71032235e-01 +7.12913368e-03 +1.00208625e-01 -1.20748550e-01 -4.79571819e-01 +4.53910865e-02 +1.23534724e-01 +3.37028056e-02 -1.75796285e-01 -1.64917503e-02 -5.39703928e-02 -8.72247219e-02 +3.45553197e-02 -1.14303745e-01 -1.10639371e-01 -1.34866208e-01 +9.39758681e-03 -2.83675045e-02 +3.34689207e-02 +1.20351925e-01 -3.03694755e-01 +1.32287487e-01 +4.44672443e-02 -7.76151642e-02 -2.32737660e-02 +1.09631680e-01 +8.59454796e-02 -1.73014626e-02 -1.63816381e-02 -2.70648301e-02 +6.87325746e-02 +1.29340842e-01 -2.65047282e-01 -2.41934642e-01 +6.27086982e-02 -5.85737359e-03 -5.15377261e-02 +1.13462530e-01 +1.11121573e-01 -1.01777546e-01 -1.32120326e-01 +1.82886533e-02 +2.20283061e-01 +5.66379055e-02 -1.53761983e-01 -2.64586266e-02 +2.37880439e-01 +1.42017096e-01 -1.33037986e-02 -1.78956226e-01 +9.33628809e-03 +2.10646808e-01 -1.91150099e-01 -2.14665443e-01 -7.31658610e-03 +1.64344385e-02 -5.85772172e-02 +1.30715417e-02 -2.47802749e-01 -1.67100236e-01 -1.16291225e-01 -1.55550852e-01 +2.19902411e-01 -3.77179570e-02 +8.17025974e-02 +1.24696568e-01 +9.36305970e-02 -1.81084096e-01 -1.14512689e-01 +2.09605634e-01 -7.69225881e-02 -1.29647091e-01 +1.86979361e-02 +8.37462470e-02 +1.60777524e-01 -1.13017345e-02 -5.80384098e-02 -1.10605307e-01 -5.68908826e-02 +1.56912897e-02 -2.70008743e-02 +6.10975213e-02 -1.21440656e-01 -1.09935880e-01 -1.86097294e-01 +3.44461113e-01 -1.46861106e-01 +7.62551486e-01 +7.91340768e-02 -8.34123492e-02 -1.85868412e-01 +5.48957922e-02 +7.00105773e-03 -1.33464009e-01 +4.06982489e-02 +3.21781337e-01 -1.42920569e-01 +3.08074839e-02 -2.84302950e-01 -5.68657294e-02 +2.08991438e-01 +4.10759618e-04 +2.36106113e-01 +3.85469884e-01 -1.46126568e-01 -1.15133999e-02 -4.23182920e-02 -1.05579481e-01 +1.49972960e-01 -1.97398201e-01 +1.36375621e-01 -3.27335820e-02 -9.67455357e-02 +7.65476376e-02 +2.01775610e-01 -5.64918928e-02 +5.31193502e-02 +1.00509197e-01 -1.95553839e-01 +6.08366076e-03 +7.28352070e-02 -9.18709859e-02 +4.63532656e-02 -4.22262587e-02 -1.74597412e-01 +3.23144905e-02 +1.34592829e-02 +1.35356858e-01 +2.06983849e-01 +1.75640687e-01 -1.01557583e-01 +1.14143841e-01 +2.45760858e-01 -2.00392082e-01 -2.62445062e-01 -4.59746778e-01 +1.38142675e-01 +2.54679263e-01 +1.72581486e-02 +1.00127514e-02 -1.73970275e-02 +1.62156541e-02 +6.86310753e-02 -7.88258091e-02 +2.87747495e-02 -6.08532846e-01 -2.24387512e-01 +5.14317900e-02 +4.64861058e-02 -1.42205656e-01 -1.02604590e-01 -4.88268763e-01 +2.46532217e-01 +1.44715324e-01 -7.07799569e-02 -3.42890397e-02 -2.70337939e-01 -3.75616968e-01 +1.61801130e-01 +8.58137906e-02 +1.73574492e-01 -6.73447177e-02 -1.45206288e-01 -1.01477094e-01 +3.02204420e-03 +1.02083936e-01 -1.57941118e-01 +1.67585731e-01 +2.55964790e-02 -7.73123950e-02 +4.02834378e-02 +1.10553667e-01 -2.24130936e-02 -3.93281662e-04 +7.96312094e-02 +4.17184904e-02 +5.78622706e-02 -4.30997722e-02 +2.65729800e-03 -2.04144269e-02 -3.80031466e-02 -4.13812362e-02 +1.81230843e-01 +3.01257849e-01 +3.06290805e-01 -8.60516727e-03 +3.70581150e-01 +1.57592334e-02 +8.48676488e-02 +8.19530617e-03 -1.52899981e-01 +7.27454945e-02 +1.39867619e-01 -1.48929164e-01 -4.53899682e-01 -1.58077225e-01 +2.94908464e-01 -5.82460016e-02 +2.25736164e-02 +1.18430428e-01 -1.90626189e-01 +1.03845023e-01 +2.36313473e-02 -3.34966592e-02 -6.57630563e-02 -1.03204116e-01 +2.44774342e-01 -3.91239440e-03 +3.18418071e-02 +5.83035452e-03 +5.51782250e-02 -1.38214856e-01 +2.25121841e-01 +2.69186199e-02 +8.65514576e-02 +4.66797277e-02 -7.98372477e-02 +1.50597498e-01 -2.20769554e-01 -7.16307685e-02 +9.61970016e-02 +1.00945592e-01 +4.36996855e-02 +2.53543314e-02 -2.03823298e-01 +2.71167401e-02 -6.19542412e-02 -2.03148589e-01 -1.25971049e-01 -1.44298524e-01 +1.44216433e-01 -7.02448771e-04 +1.34898886e-01 -3.03126276e-01 -2.13243067e-03 -1.11282237e-01 +7.26360753e-02 -1.88125208e-01 -3.56187969e-02 +2.46665224e-01 +8.82153362e-02 +1.31260931e-01 +1.48864165e-01 -9.00159329e-02 +4.04611938e-02 +5.26351258e-02 -4.03391570e-02 -8.39497615e-03 +2.79179476e-02 -1.05325706e-01 -2.64033880e-02 +1.41041651e-01 +6.32634838e-05 -3.71052884e-02 +1.43610602e-02 -4.36640792e-02 -8.54453631e-03 +3.74407440e-01 +3.81669514e-02 +1.78095717e-02 -6.28786147e-01 -1.48781633e-03 +2.24567860e-01 -5.93282580e-02 -2.41396293e-01 -1.40219495e-01 -3.25435817e-01 -2.88099386e-02 +6.80764616e-02 +1.46278277e-01 +3.09784919e-01 +3.89908969e-01 -1.40402213e-01 -4.06148672e-01 +9.01482180e-02 -5.86212762e-02 -2.73263603e-01 +6.65298551e-02 +2.96822004e-02 -7.73046911e-02 +2.36768678e-01 -2.71270454e-01 +6.90024272e-02 -7.60643110e-02 +5.99171758e-01 +2.52044946e-01 -1.70424342e-01 -2.35506799e-02 -1.02350302e-01 +1.35094196e-01 -1.76235531e-02 -2.15570498e-02 +9.38335340e-03 -7.00915232e-02 -1.22329600e-01 -6.80698901e-02 +1.95477992e-01 +8.63333046e-02 -2.74005890e-01 -1.02738664e-01 -4.72098112e-01 +2.10895419e-01 -4.49894816e-02 +1.39515415e-01 -2.45390180e-03 +1.51040271e-01 +4.93615866e-01 +9.43702385e-02 -5.58893532e-02 +2.77732223e-01 -1.05409488e-01 +1.96377584e-03 +1.62647665e-01 -5.85901365e-02 +1.73644692e-01 -4.71544787e-02 +1.30047008e-01 +1.58881322e-01 +1.11956656e-01 +2.45018318e-01 -1.22717515e-01 +1.84481665e-01 -1.11948550e-01 -6.29702210e-02 +2.39980780e-02 +2.02019230e-01 -5.38532287e-02 -1.05450615e-01 -4.24857259e-01 +2.30845828e-02 +3.98679972e-01 -2.75238097e-01 +9.14364085e-02 -7.67704397e-02 -5.94360679e-02 -9.82473269e-02 +1.10262454e-01 -3.75377178e-01 +5.79287149e-02 -1.05688371e-01 -3.41514111e-01 -8.14975500e-02 -9.55075100e-02 -1.01516612e-01 +1.58069491e-01 +8.10585245e-02 -1.74819469e-01 +1.02583885e-01 +1.29241515e-02 +1.73238688e-04 -1.42199233e-01 -1.17466629e-01 +1.35341048e-01 +9.79453549e-02 -2.52467901e-01 -1.56344593e-01 -1.83812022e-01 -2.53800392e-01 +3.34511288e-02 +1.06027745e-01 +2.47504413e-02 +3.87115357e-03 +3.66527379e-01 +2.33468115e-01 +5.55392206e-01 -1.18931316e-01 +1.39999911e-01 +2.09491923e-01 +3.95729654e-02 +7.71651343e-02 +8.70240405e-02 -1.05029754e-01 +2.43363321e-01 +1.39368698e-01 +2.61349022e-01 -9.78678763e-02 +5.44899926e-02 +6.05590120e-02 -3.61890584e-01 -1.13144740e-01 -3.11163872e-01 +1.86273843e-01 +9.83765647e-02 -4.34450567e-01 +1.36892207e-03 +6.93147928e-02 +2.23630726e-01 +2.63355803e-02 +1.18095256e-01 -6.29868135e-02 -5.29169999e-02 -3.84799056e-02 -5.15596688e-01 -1.16167754e-01 -1.89159870e-01 -2.76348852e-02 -2.67140150e-01 -2.01082021e-01 -1.08733274e-01 -1.09957390e-01 +2.56948799e-01 +2.33978048e-01 +4.44373563e-02 +4.08131093e-01 +9.03897434e-02 +2.06980370e-02 +7.23533034e-02 +5.40465891e-01 -1.11947998e-01 -6.93384558e-02 -1.80891037e-01 -1.11428887e-01 -1.81995243e-01 -9.24664512e-02 -1.55194238e-01 +2.18860060e-01 +1.16920387e-02 -9.68584344e-02 -6.44523725e-02 +3.63371684e-03 +6.62172437e-02 -3.37182820e-01 +2.89228022e-01 +1.10041857e-01 +6.47762045e-02 +9.15178508e-02 -7.77490735e-02 -2.21904051e-02 +2.66883999e-01 -8.88051167e-02 +2.39793658e-01 +1.70644675e-03 +7.94939622e-02 +6.51736557e-02 -4.58972938e-02 -1.16444603e-02 -1.17275983e-01 +1.14452884e-01 +2.86909491e-01 -8.54487792e-02 -3.19078743e-01 +9.08723101e-02 +8.10299069e-02 -2.15219826e-01 -1.03482090e-01 +3.14737409e-02 -5.62575571e-02 -7.56082311e-02 -1.24567095e-02 +2.47111693e-01 +7.95959756e-02 +1.90231800e-01 +1.28431588e-01 -2.71901190e-01 +1.28706545e-01 +6.15978031e-04 +2.24310100e-01 -2.72811413e-01 -9.97211933e-02 +1.71294034e-01 -1.47104502e-01 +6.04019389e-02 +2.78876036e-01 -5.59100509e-02 -9.21557173e-02 +1.93517119e-01 +1.55334800e-01 -8.36591795e-02 +5.66488542e-02 +2.73357183e-02 -2.87721038e-01 -4.63561952e-01 -2.29014739e-01 +2.69903302e-01 +2.21122712e-01 +1.36522591e-01 -1.27404109e-01 -1.64555192e-01 -3.01921610e-02 -9.55573246e-02 -8.49777907e-02 -2.57366508e-01 +8.37328192e-03 -8.18038583e-02 +4.92500924e-02 +5.24002872e-02 -9.08782110e-02 -1.19777387e-02 -2.33257577e-01 -2.19963565e-02 +1.68530881e-01 -2.77064107e-02 -5.50502054e-02 -2.00507089e-01 -6.11088723e-02 +1.76166579e-01 -5.18225208e-02 +9.45422947e-02 -2.33227894e-01 -1.20745331e-01 -4.61108625e-01 +5.17933309e-01 +9.24492553e-02 -2.72718817e-01 +2.52146393e-01 +2.84714252e-01 -3.15113477e-02 -2.54021376e-01 +1.58614188e-01 -2.32671555e-02 +2.40947500e-01 -7.28177130e-02 -1.16376013e-01 +8.51005539e-02 +1.59954617e-03 -3.52898682e-03 +2.41326526e-01 +1.92719579e-01 +7.67405108e-02 -5.95354140e-02 +7.83062130e-02 -2.26812169e-01 +5.14114976e-01 -2.17705090e-02 -2.33663023e-02 -2.45387048e-01 -5.23798354e-02 +1.92159861e-01 +2.73154914e-01 -1.93933472e-01 +3.06482106e-01 +7.36336559e-02 -4.20084521e-02 -5.13504483e-02 +7.23892897e-02 -1.09921895e-01 +3.94991338e-01 +1.07574292e-01 -1.57295108e-01 +1.97165176e-01 -9.43264663e-02 -6.51196986e-02 -6.68079406e-02 +3.19745451e-01 +1.19442753e-01 +1.88843794e-02 +4.60726231e-01 -3.82832699e-02 +2.30321258e-01 -2.70465165e-01 -4.13191170e-02 +4.43204999e-01 +3.10095370e-01 +2.21395344e-01 -6.99940994e-02 +1.06863864e-02 -1.71317741e-01 -2.99793836e-02 -7.15072826e-02 +1.15121089e-01 -5.61929159e-02 +1.76722363e-01 -1.69705022e-02 -1.09060846e-01 -3.06510448e-01 +1.16193682e-01 +4.87509407e-02 +3.96494716e-01 -6.60763606e-02 +1.38992846e-01 -1.13308113e-02 -6.43047392e-02 -2.19337136e-01 +6.21567369e-02 +7.65137225e-02 -1.50690861e-02 -5.42288087e-02 -3.63468491e-02 -1.21210165e-01 +9.59883034e-02 +3.58030177e-03 -1.54828317e-02 -1.95458427e-01 -7.16847554e-02 -3.26078720e-02 -2.19663590e-01 -1.89403042e-01 +6.24644272e-02 +1.03130750e-02 -1.70370698e-01 +2.57966399e-01 -6.90662041e-02 +3.59500229e-01 +1.59515411e-01 +3.01974304e-02 -2.73986697e-01 -1.14814378e-01 -1.94040164e-02 +4.85204114e-03 +2.36899704e-02 -1.24149173e-01 -1.10002495e-01 +1.26569602e-03 -2.11176760e-02 -4.72853146e-02 +1.57479778e-01 -5.18009849e-02 +5.35152219e-02 +8.63793716e-02 -1.27892215e-02 -1.88917458e-01 -1.02500863e-01 +1.24030411e-01 +8.84813145e-02 +3.72941494e-02 +2.78133899e-03 -1.12684593e-01 -1.74372926e-01 -1.88825846e-01 -2.23853104e-02 +1.41345397e-01 -3.13863275e-03 -1.00631617e-01 +7.08946511e-02 +2.10941565e-04 +2.08938867e-02 +1.11858182e-01 +1.68635279e-01 +2.36168075e-02 -1.34398937e-01 +3.87498140e-02 -9.39687341e-03 +1.52721286e-01 +2.87592337e-02 -1.72217283e-02 +6.80847764e-02 +3.09607014e-02 +1.19059071e-01 -1.55685499e-01 +2.53027491e-02 +9.15565863e-02 -4.19633836e-02 -1.62269741e-01 +1.97104469e-01 -4.22790879e-03 +1.44753531e-01 -1.07369065e-01 -8.54264349e-02 -5.93297184e-02 +1.47468094e-02 +4.36291248e-02 -2.71902196e-02 +1.38314158e-01 +1.66297350e-02 +5.97794987e-02 +6.08193949e-02 -2.80415714e-02 -9.26212519e-02 +1.21358231e-01 +2.25612789e-01 +2.35689059e-02 +3.24984677e-02 -1.35210335e-01 +6.13089800e-02 +1.42381445e-01 +1.18645482e-01 +8.69960338e-02 -2.34986916e-01 -3.76161225e-02 -2.02941857e-02 +1.94893274e-02 +1.04437955e-01 +7.62475207e-02 -7.97487737e-04 +3.18191834e-02 -1.00473091e-01 +2.89805233e-01 +3.55300639e-04 +6.28821701e-02 -2.40330368e-01 +1.33777149e-02 +8.92034732e-03 +1.49151221e-01 -8.51986036e-02 +1.80318013e-01 -1.58109829e-01 -7.09680766e-02 -2.27174491e-01 +7.76002929e-02 +2.35715941e-01 +3.44420403e-01 -1.25967011e-01 +3.33033577e-02 -6.49302155e-02 -5.92551716e-02 -4.38195765e-01 -1.81124061e-02 +6.60872012e-02 -1.84713788e-02 -1.53702885e-01 +8.80918130e-02 +4.04288881e-02 -3.69161665e-01 +2.56503839e-02 +8.32903907e-02 -2.08254859e-01 +1.99625090e-01 +4.13416699e-02 +1.35272220e-01 -1.03489928e-01 -1.39193982e-01 +7.35207945e-02 -9.76461396e-02 +1.18114963e-01 +1.12435080e-01 -1.15126900e-01 -9.02469270e-03 -5.09872772e-02 -5.52603975e-02 -4.13629087e-03 +1.51618496e-01 +1.56818070e-02 -2.72047259e-02 +6.26684502e-02 +2.70665139e-01 +1.09730102e-01 -1.24174483e-01 -2.08238021e-01 -1.75528109e-01 -1.23932986e-02 +1.22832321e-01 -7.82828704e-02 +4.85267444e-03 +7.31370971e-02 -5.89864282e-03 +2.25388780e-01 -5.74471243e-02 -5.90638518e-02 +9.68016982e-02 +4.82886732e-02 +1.20923832e-01 -3.04904934e-02 -9.00178775e-02 -1.56693920e-01 +1.24279566e-01 +3.33406717e-01 +6.07436337e-02 +5.50321974e-02 +6.91906363e-02 -1.14660636e-01 -8.27991813e-02 +2.51100123e-01 +1.80717893e-02 -2.46567324e-01 +2.16725171e-01 -1.25841826e-01 +1.89920872e-01 -2.87713092e-02 +6.93067014e-02 -3.31977606e-02 +4.45402181e-03 -9.10373479e-02 -2.13513121e-01 -9.98515710e-02 -1.89452708e-01 -1.73753537e-02 +1.31390288e-01 -1.35855347e-01 +4.20879833e-02 -4.12384495e-02 +1.66321918e-01 +3.80146736e-03 +1.81631669e-01 +5.12084141e-02 -5.54731989e-04 -2.79474497e-01 +1.89500570e-01 -1.66941471e-02 +1.38772696e-01 -9.16050673e-02 +3.27954888e-02 -2.33769510e-02 -2.39548180e-02 +9.73419473e-02 -1.70056969e-02 +1.87201291e-01 -3.03676486e-01 +1.52151123e-01 -9.33685601e-02 +1.33747235e-01 +2.18040142e-02 -1.45950615e-01 +2.13808939e-01 -5.55591919e-02 +1.53327480e-01 -6.01953967e-03 -1.66229203e-01 -7.93072432e-02 +8.24849084e-02 +7.10951015e-02 +1.81639761e-01 -5.45986332e-02 +1.39072835e-01 -1.11320719e-01 -1.97415594e-02 +1.67273313e-01 -9.04368311e-02 -2.24574246e-02 -4.36975854e-03 -4.88536209e-02 +1.17371194e-02 +4.03627306e-02 -1.05185453e-02 +1.89684168e-01 +2.50658900e-01 -2.12906301e-01 +1.73540916e-02 -2.68066656e-02 -8.74519199e-02 +1.77332163e-01 +2.43649092e-02 -4.01464738e-02 -1.54954389e-01 +1.05110835e-02 +2.29500756e-02 +1.12010024e-01 +1.38284136e-02 -7.88994804e-02 -1.90065116e-01 -1.47118926e-01 +1.63344696e-01 -6.97025210e-02 -9.72525924e-02 +1.57924876e-01 -5.31572402e-02 +5.92681905e-03 -1.60519555e-01 +4.22024205e-02 -7.44372457e-02 -2.27689128e-02 -4.24387259e-03 +9.60878134e-02 -6.13345563e-01 -2.13192566e-03 -5.44940867e-02 +4.33497056e-02 +7.84766302e-02 -4.69379574e-02 -9.09989234e-03 +8.16834345e-02 -1.55187085e-01 -1.86458498e-01 +1.78502411e-01 +3.67558390e-01 +1.28554553e-01 -1.22007892e-01 -1.63998175e-02 +2.05468059e-01 -1.21976711e-01 +2.11897552e-01 +1.75354257e-02 +1.26495495e-01 +9.83325019e-02 +2.67167185e-02 +2.22067043e-01 +1.42281577e-01 +1.46100046e-02 +7.19042495e-02 -1.92741677e-01 +2.26541147e-01 +2.41218563e-02 -7.95555338e-02 +1.14763699e-01 +5.42324632e-02 +1.64239869e-01 -1.78286489e-02 -2.08635792e-01 +1.63933858e-01 -1.38019115e-01 +1.20664470e-01 -4.43451293e-02 +6.50209934e-02 +9.09898356e-02 -2.43228957e-01 +9.07965302e-02 -2.43409090e-02 -1.16798870e-01 +3.06913167e-01 -7.75113180e-02 +2.22366124e-01 +9.45083424e-02 -2.93644935e-01 +1.07156709e-01 +4.70821820e-02 +1.67284817e-01 -9.72119719e-02 +6.54808208e-02 -1.26147196e-01 -9.72726569e-02 +1.03588343e-01 +1.58663511e-01 -5.35995811e-02 -6.97019920e-02 +1.88419037e-02 +3.73552799e-01 -1.42169148e-01 -2.88225114e-02 -2.50862271e-01 +3.14227760e-01 +2.63107926e-01 -6.43612742e-02 +1.81246459e-01 -8.29351470e-02 +1.36903331e-01 +2.23839819e-01 +3.90087575e-01 -1.82712555e-01 +2.59023696e-01 +1.65603384e-02 -2.40719505e-02 +1.36976674e-01 +2.36583836e-02 -2.09934816e-01 +1.47581492e-02 -1.51658297e-01 -3.14422511e-02 +2.78046224e-02 -2.31102303e-01 -2.65026957e-01 -8.51023644e-02 -2.01492727e-01 +1.26810029e-01 +2.00895458e-01 +1.05089925e-01 +7.64953196e-02 +1.32214755e-01 -1.28161341e-01 -1.35175481e-01 -1.40020207e-01 +1.24273814e-01 -2.25509293e-02 -2.09989607e-01 -1.67011306e-01 +1.44827655e-02 -7.58032426e-02 -1.60701331e-02 +2.20378228e-02 -4.70180213e-02 -2.71413215e-02 +4.57736373e-01 +1.22096874e-01 -1.47267252e-01 +8.45006630e-02 +1.89863354e-01 +1.32197201e-01 +1.23819605e-01 +5.27486801e-02 +1.70906872e-01 +2.36568406e-01 -1.47576436e-01 +1.59403250e-01 -1.05078913e-01 -5.87288737e-02 -3.67844880e-01 -4.17032056e-02 -6.46379590e-02 -1.85649917e-02 +1.18325531e-01 +2.33060509e-01 +6.19834587e-02 -6.28060177e-02 +4.56549585e-01 -1.21631742e-01 -3.87758225e-01 -1.65938228e-01 +8.12744945e-02 +1.02121659e-01 -6.44040927e-02 +3.49918264e-04 -7.03435577e-03 +3.09841871e-01 -9.09733176e-02 +2.07988352e-01 +1.03843205e-01 +2.39817798e-01 +6.86083781e-03 +1.21281803e-01 -2.13291928e-01 +5.00903547e-01 -3.08399592e-02 +1.82478383e-01 -1.35473058e-01 -2.67750695e-02 +7.51325712e-02 +4.01611160e-03 -2.41170228e-01 +4.10002796e-03 +6.10276125e-02 +3.76700103e-01 +1.83558926e-01 -1.89663336e-01 +1.76046580e-01 +1.27278073e-02 -6.53006062e-02 +1.09180890e-01 -6.25490844e-02 +8.93176496e-02 -9.83676985e-02 +1.09013561e-02 +2.18949184e-01 +5.96529879e-02 -5.68524674e-02 +1.53793045e-03 -2.85215676e-01 -3.13491255e-01 +1.07044280e-02 -2.86715269e-01 -2.80853391e-01 +4.20876175e-01 +1.63053676e-01 -3.60630751e-02 -4.71012574e-03 +1.99871976e-02 +2.09315971e-01 +1.63192570e-01 -1.29760668e-01 -1.00806080e-01 -1.92176521e-01 -3.72138530e-01 -1.49462715e-01 -1.35346562e-01 +7.78724477e-02 -9.28308070e-02 +1.88429043e-01 +5.08435547e-01 +3.47831905e-01 -1.56781808e-01 -1.60321474e-01 +3.50986980e-02 +7.18697086e-02 +3.95934992e-02 +1.61275864e-01 -2.49921322e-01 +4.79985327e-02 +1.54691428e-01 +3.42556089e-01 +3.34110290e-01 -3.47728014e-01 -1.27855107e-01 +2.58274395e-02 +1.75806448e-01 +1.00084171e-01 -3.75794560e-01 -5.55014238e-03 -1.29836798e-01 +2.37000674e-01 +4.82387662e-01 +1.67348444e-01 +4.51639071e-02 +1.54630303e-01 +1.09661266e-01 -3.15309479e-03 +2.51539759e-02 -6.10422110e-03 -7.46526346e-02 -5.79090323e-03 +1.08812675e-01 -1.15197122e-01 -1.63131226e-02 -1.17074259e-01 -3.41260247e-02 -1.96578771e-01 -1.56666428e-01 +2.85344183e-01 +1.38301924e-01 -9.54296142e-02 +3.41086276e-02 -1.46443576e-01 +2.03158632e-02 +1.69469103e-01 +1.30562519e-03 -3.59596387e-02 -7.22364187e-02 -4.81180139e-02 -1.77092120e-01 -1.89370245e-01 -1.37394443e-01 +5.26981689e-02 -9.83287394e-03 -7.53200948e-02 -8.63246396e-02 -1.92228466e-01 -3.85194659e-01 +6.69382066e-02 +2.28036329e-01 +1.91808239e-01 -6.35032058e-01 +2.65630800e-02 +9.48410109e-02 +1.27015859e-01 +2.07497299e-01 -3.57018054e-01 -1.27123192e-01 -1.92011237e-01 +1.82573646e-01 +2.66486406e-01 -3.16370785e-01 -1.01676986e-01 -1.36081859e-01 -7.11838752e-02 +8.31959546e-02 +5.18050790e-01 -2.90826470e-01 +1.81799568e-02 -7.74973184e-02 -1.05427608e-01 +1.41032755e-01 +7.75772706e-02 +1.65084124e-01 +1.25033170e-01 -1.01213828e-01 +6.53887168e-02 +5.90540729e-02 +1.25552028e-01 +1.65501475e-01 +2.23321244e-01 -1.08896844e-01 +1.98931843e-01 -5.34538031e-02 -3.57438996e-02 -3.88237625e-01 -3.08529567e-03 +1.67015955e-01 +2.46984407e-01 -4.42887321e-02 +1.44029647e-01 +6.37642145e-02 -4.10549305e-02 -9.86278951e-02 -1.70836225e-02 +7.26754963e-02 +6.13902323e-02 +7.27733672e-02 +6.34723622e-03 -9.06910077e-02 +1.70309708e-01 +1.83875740e-01 +9.67418775e-02 -8.73713121e-02 +1.38522953e-01 +1.33487612e-01 -2.38111362e-01 -1.01934873e-01 -1.56774521e-02 +2.83383965e-01 +1.06385209e-01 -8.80655497e-02 -3.80833417e-01 +7.22313821e-02 +4.36870055e-03 +7.14433730e-01 +1.28633246e-01 -1.24062441e-01 +2.08679475e-02 +2.02450752e-01 +4.24091905e-01 +3.79177243e-01 +1.75422411e-02 -1.92410409e-01 -4.11074668e-01 -4.77343738e-01 -3.63456130e-01 -1.54305443e-01 +4.34625119e-01 -5.39072454e-02 -1.40334174e-01 +1.58186018e-01 +3.92284729e-02 +6.32847697e-02 -3.27873565e-02 -3.68042529e-01 +2.75658220e-01 +2.15138942e-01 -1.27566263e-01 -3.98125827e-01 -2.50022233e-01 +2.24413916e-01 -2.00956941e-01 -7.50533566e-02 -2.50009783e-02 -9.29627568e-02 -1.00614324e-01 +1.26166090e-01 +5.37616983e-02 +1.27223551e-01 -1.24108188e-01 -3.03439498e-01 +5.71120344e-02 +9.88585800e-02 -1.60324514e-01 +4.87040371e-01 +1.17105640e-01 -1.35113373e-01 +1.02655910e-01 +7.22847879e-02 -5.53359240e-02 -3.55567276e-01 -1.13207765e-01 +1.10132493e-01 -7.79822171e-02 +2.25166623e-02 -5.38732670e-02 -7.40108266e-02 +8.79208967e-02 -2.54269958e-01 +2.22042233e-01 +1.59288839e-01 -3.27299088e-01 -7.20478743e-02 -1.06963448e-01 +3.90361622e-03 -5.22218533e-02 +3.41441520e-02 -1.57086655e-01 -1.11990601e-01 -1.66839510e-01 -1.14348151e-01 -5.81178628e-03 +2.12842301e-01 +1.07875578e-01 -4.06297237e-01 +2.91031867e-01 -1.03952624e-01 -7.43927434e-03 +2.34769851e-01 -2.18308028e-02 +1.03994519e-01 +1.31393999e-01 +6.06459342e-02 +2.61159390e-01 +3.54193300e-01 +1.56086281e-01 +2.41291255e-01 -2.98108011e-02 -1.72342837e-01 -2.75626153e-01 +9.67041925e-02 -2.50802308e-01 +3.97956036e-02 +1.66819897e-02 +7.31759593e-02 -1.15663916e-01 +4.45647649e-02 -1.39235958e-01 +2.52633780e-01 +1.29891708e-01 +3.61699343e-01 +6.08123615e-02 +1.86395437e-01 +1.29954740e-01 +6.45616651e-02 -8.70670304e-02 -3.03659528e-01 +1.40780555e-02 -5.77488959e-01 +2.31645808e-01 -2.00078160e-01 -9.88171156e-03 +1.77425146e-02 +2.35607754e-02 -1.70453519e-01 -7.49988109e-02 -1.68097302e-01 +1.16992474e-01 -1.74739316e-01 +2.00875536e-01 +4.68964167e-02 -1.15312703e-01 +4.02347594e-01 -1.57241851e-01 +4.27828521e-01 -5.87343164e-02 +1.79805189e-01 +6.28258705e-01 +1.79041810e-02 -6.73505990e-03 -1.34623602e-01 +4.40797070e-04 +5.96543625e-02 +1.78953245e-01 +1.25285611e-01 +4.50798422e-02 +6.29308641e-01 +7.89719746e-02 +3.38151827e-02 +2.03580320e-01 +5.07577956e-01 +2.87066370e-01 -2.33065754e-01 +1.52255237e-01 -2.79415905e-01 -2.44464636e-01 +6.34465441e-02 -3.15843493e-01 -3.45334150e-02 +2.39767209e-02 +1.33536771e-01 -2.22341612e-01 +1.25875026e-01 +2.13551149e-01 +1.81336552e-01 +6.25598282e-02 +1.99859217e-01 +9.11545125e-04 +2.62745395e-02 -3.61856550e-01 -5.85792251e-02 -3.75198312e-02 -7.71996975e-02 +8.02118257e-02 +1.91557512e-01 +1.40628666e-01 -3.09648335e-01 -1.77739952e-02 -2.96143792e-03 +8.46451372e-02 -1.31296039e-01 -5.25055230e-02 -2.06035018e-01 +9.37553588e-03 -1.18904397e-01 +7.82963559e-02 -5.67812286e-02 -1.12036072e-01 +1.39668211e-01 -1.34036280e-02 +9.51757208e-02 -2.80907094e-01 -1.55886024e-01 +1.19506447e-02 +3.06244224e-01 +7.30147585e-02 +1.90423876e-02 +3.12380999e-01 -3.01143769e-02 +8.90839566e-03 -1.78352371e-02 +9.01520327e-02 +2.13961840e-01 +1.85277797e-02 -2.84248501e-01 -9.98623744e-02 -1.96520686e-01 +8.37595016e-02 -1.22011341e-01 +1.91480279e-01 -2.74044782e-01 +1.95851013e-01 -2.19176393e-02 -2.26664796e-01 +2.44023606e-01 +4.99807224e-02 -2.07832202e-01 +1.08629363e-02 +3.44425626e-02 -3.02713253e-02 -6.78469017e-02 +3.83798368e-02 +2.30928302e-01 -3.73274162e-02 +6.90543294e-01 +3.03526431e-01 +4.93098348e-01 +1.59951951e-02 +5.89405512e-03 -8.07710886e-02 -6.37474051e-03 -4.81875939e-03 -2.00687706e-01 +1.17768593e-01 +9.44396183e-02 +4.69038099e-01 -1.38833269e-01 +6.76147193e-02 -2.00049490e-01 +6.24013878e-02 +2.15504635e-02 +7.47716129e-02 -4.19835858e-02 -1.38154313e-01 -1.15458935e-01 -7.71242660e-03 +1.44269109e-01 -2.26931386e-02 +1.75119273e-03 +5.58691062e-02 +1.28552526e-01 +3.59998420e-02 +3.93227547e-01 -9.90905315e-02 +4.81712908e-01 -2.42243871e-01 +1.19628489e-01 +2.12805673e-01 -4.58073467e-01 -1.07694469e-01 +1.46173441e-03 +1.19945459e-01 +9.71738026e-02 -4.34199944e-02 -2.35171750e-01 +3.66205387e-02 -1.25771210e-01 +3.01334038e-02 -5.66890165e-02 +1.14715755e-01 -1.89093083e-01 -2.57670373e-01 +1.54700816e-01 -1.00293025e-01 +1.23620279e-01 +1.61578000e-01 -6.94426477e-01 +4.55397964e-02 +1.82681859e-01 +4.69945092e-03 -1.60177991e-01 -2.70370156e-01 -9.51475874e-02 +1.71317980e-01 -1.88395262e-01 -1.36787072e-01 -1.23973973e-01 +5.49979955e-02 +1.43809706e-01 +1.99653864e-01 -4.54859525e-01 +7.40889385e-02 +9.79592428e-02 -4.05884176e-01 +1.40411407e-01 -2.19565742e-02 -6.03855662e-02 -2.03410268e-01 +1.02053352e-01 -1.06728174e-01 -5.88627398e-01 -1.69824436e-01 -1.23492666e-01 +1.24548957e-01 -1.17130347e-01 +1.33633479e-01 +9.85798612e-02 -1.42674685e-01 -1.78178728e-01 -1.73764870e-01 +6.94195256e-02 +4.21899527e-01 +2.69193109e-02 +8.14037919e-02 -5.80560416e-02 -7.87299685e-03 +6.22059926e-02 +3.92571896e-01 +6.81264400e-02 -1.02153569e-01 -2.22859398e-01 -3.82226072e-02 +5.78415096e-02 +1.07040823e-01 +1.10804386e-01 +1.07876621e-02 +2.59605914e-01 -5.51326945e-02 -6.44953400e-02 +8.35136622e-02 +4.86020669e-02 -1.68913960e-01 +1.51645422e-01 -2.36911215e-02 +2.28614882e-01 -2.09184419e-02 -3.94749828e-02 +3.39885712e-01 -5.20643312e-03 +2.03419015e-01 +1.08206019e-01 +9.05375183e-02 +1.72201283e-02 +1.62378415e-01 -2.47672740e-02 -6.84211403e-02 -6.72714263e-02 -6.12534620e-02 +1.63963318e-01 +1.01659603e-01 +2.49265023e-02 -3.19996208e-01 +2.51451880e-01 -1.47352085e-01 +2.93936610e-01 -3.25193226e-01 +2.08532959e-02 +1.85782984e-01 -2.48654317e-02 -2.32823044e-01 -1.03897683e-01 -2.23443016e-01 -1.75496370e-01 -3.61924529e-01 +3.66450138e-02 +4.35161032e-02 +1.04885697e-01 -1.59298152e-01 -8.54487345e-02 -2.43420675e-02 -1.59517601e-01 +1.95331618e-01 +1.96362123e-01 -2.90907413e-01 +1.15719132e-01 -4.81273755e-02 +8.57854411e-02 -1.56837448e-01 -2.36535281e-01 -2.19593570e-01 +2.61477441e-01 -2.84528762e-01 +6.08242489e-03 -1.10072859e-01 +1.02697507e-01 +4.21656966e-02 +2.65282273e-01 +6.55846298e-02 +1.09547779e-01 +1.79075897e-01 -1.91462308e-01 +2.40269139e-01 +1.02020897e-01 -1.83267742e-02 -6.69479892e-02 -2.77522981e-01 +3.69159311e-01 +1.31523609e-01 +3.92555296e-02 -6.53528050e-02 +3.46534364e-02 -1.90441251e-01 -3.71611528e-02 +1.87592283e-01 -2.27249339e-01 +1.94005910e-02 +2.64090508e-01 +2.80570649e-02 -1.43003896e-01 +2.37980615e-02 -2.73308456e-01 +7.87584186e-02 -6.33042812e-01 +1.41224831e-01 -1.01904094e-01 +1.13172285e-01 -2.60272533e-01 +9.21037346e-02 +2.56253093e-01 -2.17646420e-01 -2.49548227e-01 -1.42364502e-01 +2.53749251e-01 -2.64137872e-02 +2.85133511e-01 -4.44729142e-02 -1.33908793e-01 +2.56378949e-01 -3.27330500e-01 -2.46013477e-02 -1.30773380e-01 +6.02076687e-02 +2.42760941e-01 -1.31696658e-02 -1.46004468e-01 +1.98751479e-01 +4.01346162e-02 -5.34654975e-01 -2.82952096e-02 -2.70665884e-01 -1.99264750e-01 +4.27158512e-02 +2.06415579e-01 -5.19172400e-02 -2.24999189e-02 -1.30233616e-01 -2.98770219e-01 +1.01508990e-01 -1.98445246e-02 -1.79216310e-01 -8.27405509e-03 +4.81991097e-02 -1.30374208e-01 +4.57477495e-02 -2.73331910e-01 -1.57414734e-01 +6.58024475e-02 -2.82454729e-01 +6.93270490e-02 -1.03714377e-01 -2.65574344e-02 +1.41484533e-02 +1.03857145e-01 -1.08778775e-01 +7.63861686e-02 -3.26476604e-01 +2.28286088e-01 +6.42138347e-02 -2.86772788e-01 +1.45944864e-01 +2.63636075e-02 +2.58096933e-01 +1.77896082e-01 -3.92327048e-02 +1.28280804e-01 -1.50819734e-01 +1.16162285e-01 -1.07606091e-01 -4.48001772e-02 -1.27231851e-01 +4.45923954e-02 -4.12443206e-02 +1.91257983e-01 -1.29611015e-01 +1.43629536e-01 -2.16323912e-01 -3.18959862e-01 -7.85099268e-02 -1.31885171e-01 +1.61634758e-02 -8.09167176e-02 +6.11128472e-02 -1.24429455e-02 -9.67649221e-02 +8.25999975e-02 -3.57996449e-02 +1.45065978e-01 +3.37550119e-02 +2.80731797e-01 +7.54827410e-02 +3.15839946e-02 -4.22551781e-02 -1.58575922e-01 +1.96359009e-01 +3.09842914e-01 -1.74031809e-01 -4.76884143e-03 +7.17550740e-02 +2.65347194e-02 -1.70394838e-01 +1.62047520e-01 +1.37195438e-01 +9.46572125e-02 -1.94422796e-01 -1.67073701e-02 +4.37282994e-02 +2.70666867e-01 +2.79786494e-02 -1.87500924e-01 +1.77504629e-01 -6.93083107e-02 +2.84269214e-01 +7.54848570e-02 +1.06023945e-01 -2.67744064e-01 +1.84271857e-02 -2.98707455e-01 +1.27763832e-02 +2.12616205e-01 -6.24551997e-02 +8.86462554e-02 -6.63787425e-02 -1.06834002e-01 +1.35020226e-01 +1.33927958e-02 +2.74610370e-01 +6.06011860e-02 -6.67186901e-02 -1.51511714e-01 -1.91984445e-01 +4.24727090e-02 -2.19809674e-02 +9.14065167e-02 +2.04350412e-01 -3.72949545e-03 -3.15918624e-01 -2.19744787e-01 +2.29245443e-02 -1.60909012e-01 +2.35083047e-03 -1.23029957e-02 +1.60453483e-01 -2.05746755e-01 +4.17415202e-02 -2.75182664e-01 -8.02930966e-02 -1.25505686e-01 -4.62944746e-01 +1.66717753e-01 -1.26449196e-02 -9.13810581e-02 -8.29231814e-02 -4.58438694e-01 -1.85398951e-01 +1.83296695e-01 -1.73876300e-01 -1.00760050e-01 +9.94298160e-02 -2.15309281e-02 +1.22762360e-01 -1.02772608e-01 +7.63391778e-02 -4.49693352e-01 -2.23446116e-02 -1.24094516e-01 +5.32937311e-02 +2.19732717e-01 +3.07265646e-03 -8.57073721e-03 +2.03226045e-01 -2.16663301e-01 +2.12452427e-01 +2.48691320e-01 +7.47317150e-02 +1.23840734e-01 -9.10870656e-02 +9.78909507e-02 +9.37849283e-03 -2.31287315e-01 +2.36659601e-01 +4.19464678e-01 -1.42343536e-01 +5.54136969e-02 -2.37162530e-01 +9.34464186e-02 +1.19580619e-01 +1.69328496e-01 +1.48337767e-01 -1.29516378e-01 +8.07080939e-02 +7.01071927e-03 +1.50140435e-01 +1.56674042e-01 -1.20361984e-01 +7.31426924e-02 -1.52821481e-01 -1.69654340e-01 -7.49894883e-03 -9.21856612e-02 +7.87909776e-02 +9.24778208e-02 -1.59310147e-01 -2.94838041e-01 -3.19975197e-01 +2.68498436e-03 -1.54515266e-01 -6.42782822e-02 -4.01105583e-02 +2.67357305e-02 +4.46924269e-02 -1.23870745e-01 -1.34438366e-01 +2.41111033e-02 -4.68132421e-02 +1.57295186e-02 +2.27116302e-01 +6.69998229e-02 -1.62912726e-01 -2.41701737e-01 -5.38503192e-02 -1.08522959e-01 -9.56470072e-02 +1.08057261e-02 -2.38299549e-01 +2.45735452e-01 +3.04732263e-01 +1.16064496e-01 +1.88246042e-01 -3.07499487e-02 +3.44553441e-02 +2.52073318e-01 +3.78616303e-02 +1.10243037e-01 +7.34514818e-02 -1.36499926e-01 +7.24058226e-02 -3.74963805e-02 +6.58425540e-02 +1.76469386e-01 -4.02533310e-03 +7.45155141e-02 -9.38445702e-02 +6.32947832e-02 -1.02705874e-01 +4.55409549e-02 -1.23573638e-01 +5.89009188e-02 -2.35203475e-01 -6.96409047e-02 -1.93074599e-01 +4.06208262e-02 -1.67492747e-01 -1.12073116e-01 -3.27735171e-02 +1.25807509e-01 +7.46058077e-02 +2.91860267e-03 -1.07418790e-01 +8.65991693e-03 -9.53322873e-02 +7.72387981e-02 +3.11963633e-02 -8.46435577e-02 +2.26311326e-01 -4.71450090e-02 +1.36639431e-01 -2.48643413e-01 +9.06081721e-02 +4.69877385e-02 +9.32368413e-02 +2.87154555e-01 -1.46169364e-02 +1.37431189e-01 +1.12593457e-01 +7.65466085e-03 -8.56425986e-02 +3.06575205e-02 -9.47347954e-02 -2.85159260e-01 -1.03149250e-01 -1.17654279e-01 +1.85797065e-01 +1.78062934e-02 -1.97249323e-01 -3.67136866e-01 +1.22437097e-01 +1.27565235e-01 +5.74752688e-02 -1.32223070e-01 +2.06109196e-01 +1.40149623e-01 +3.25247109e-01 +1.21977858e-01 -5.56089692e-02 +8.97633061e-02 +1.18337937e-01 -4.38111685e-02 -6.03300557e-02 +4.43728343e-02 +9.79743600e-02 +1.36362568e-01 -9.43708047e-03 -1.46016330e-01 -8.08107574e-03 -1.61772460e-01 -1.88605666e-01 +8.13846886e-02 -3.18600573e-02 -2.67404802e-02 +1.46291494e-01 +3.63370366e-02 +1.06364392e-01 -1.94008797e-01 +4.72874224e-01 -2.04478011e-01 -1.91383690e-01 +1.32263064e-01 +1.49311991e-02 +1.12930257e-02 -3.38180773e-02 -3.41115817e-02 -5.43397628e-02 -5.78488149e-02 +9.69963819e-02 -1.90016106e-01 +6.64085001e-02 -3.02145649e-02 +7.88047910e-02 -1.04230056e-02 +1.74340025e-01 -2.04440728e-01 +7.19295204e-01 -1.13076471e-01 -6.12293966e-02 -6.75861686e-02 +1.13276199e-01 -1.05896398e-01 -1.07594974e-01 +2.05764398e-02 +1.19936585e-01 -1.25879914e-01 -1.07965834e-01 -9.75437835e-02 +1.68354195e-02 +1.23554587e-01 -5.23382649e-02 +1.58589542e-01 +1.97404340e-01 -1.13201037e-01 -8.17549154e-02 -1.83076650e-01 +9.83571783e-02 +1.11732855e-01 -3.42357866e-02 +9.80760679e-02 -1.80330928e-02 -4.83739376e-02 -1.77199304e-01 -1.12461648e-03 +4.08639461e-02 +1.05472483e-01 +1.34567916e-01 -1.45121694e-01 -1.59973949e-01 +6.20387904e-02 +8.29957649e-02 -9.05161649e-02 -2.29194108e-02 -1.62581429e-01 +1.10103721e-02 +4.65178676e-02 +1.24277107e-01 +3.73499900e-01 +4.22406718e-02 +6.02895878e-02 +1.45295858e-01 -1.97211295e-01 -2.04470202e-01 -1.36847720e-01 -2.48613115e-02 +9.90147591e-02 +1.36705562e-01 +6.05962053e-03 +1.02305654e-02 -4.31583077e-02 +1.71493348e-02 +1.38560966e-01 +4.79374118e-02 +5.52453883e-02 -3.42358440e-01 -1.53840184e-01 +1.29604727e-01 +2.88354084e-02 +1.65251046e-01 +8.89677331e-02 -4.38720793e-01 +8.14717487e-02 +2.41375402e-01 -1.14517815e-01 +1.08842179e-01 -1.41950533e-01 -1.36704922e-01 +7.68236443e-02 -4.89959568e-02 -5.95809966e-02 -1.35023683e-01 +2.72221072e-03 -4.04890142e-02 -2.26338767e-02 +2.08884165e-01 -2.02220678e-02 +2.84487933e-01 -3.19710463e-01 -2.29884163e-01 -1.10129073e-01 +1.02832325e-01 +4.89747385e-03 -1.19101070e-01 +1.56722859e-01 -5.58133610e-02 +8.80850106e-03 +2.03096986e-01 +3.31644379e-02 +3.05391178e-02 +2.09284216e-01 -5.17356768e-03 -1.55283324e-02 +3.70333046e-01 +4.19296831e-01 -3.04809421e-01 +5.52145123e-01 +1.42912760e-01 -2.70623155e-02 +5.73216714e-02 -1.66982517e-01 +1.65788129e-01 +1.78369209e-01 -9.49951410e-02 -3.30156356e-01 -1.09921999e-01 -4.35803719e-02 -2.05323026e-01 +2.44382061e-02 +1.65047586e-01 -2.31892258e-01 +1.41809314e-01 +6.87026158e-02 -1.72524691e-01 -1.79031193e-01 -1.99326515e-01 +1.28395990e-01 +3.79551500e-02 -1.38507560e-01 +1.04209170e-01 +1.40983155e-02 +5.70911681e-03 +1.44206554e-01 -1.02169350e-01 -2.52301842e-01 +1.56386018e-01 -3.28995675e-01 -2.63111573e-02 -1.85621157e-02 -4.46972661e-02 -4.65741493e-02 -6.65874407e-03 +3.51073109e-02 -2.55798642e-02 -1.57121301e-01 -2.48475686e-01 -8.96273404e-02 +1.12277023e-01 -2.54922435e-02 +1.45753101e-01 -7.16740787e-02 -7.00290576e-02 +7.20639825e-02 -2.42507532e-01 +1.19915441e-01 -7.89307281e-02 +1.47034153e-01 -3.70913781e-02 +2.14465097e-01 +7.80453384e-02 +1.11286983e-01 +2.82820314e-01 +2.28240088e-01 +2.09574141e-02 +1.53118148e-01 -1.66605070e-01 -1.42236084e-01 -2.29267374e-01 -9.71811358e-03 -2.40892008e-01 +9.71668959e-02 +9.25302058e-02 +8.70917365e-02 -9.20987874e-02 +1.14742694e-02 -2.47162748e-02 -9.66563597e-02 -6.05299622e-02 +4.67661358e-02 -5.25819836e-03 +4.49423976e-02 -5.73658012e-02 +2.87973613e-01 +2.48288028e-02 -1.47262871e-01 -2.90511847e-02 -2.55267382e-01 -4.72778939e-02 -9.08011645e-02 -7.32656345e-02 +4.51940252e-03 +1.29420772e-01 -8.14173967e-02 -4.13799547e-02 +1.00097999e-01 +1.63598448e-01 -1.32675748e-02 -1.15868717e-01 -5.70034273e-02 -9.54993591e-02 +9.72556323e-02 +5.52742109e-02 -1.29735664e-01 +4.96143922e-02 -6.31125877e-03 -4.91934977e-02 -1.11012995e-01 -7.06972033e-02 -4.07056212e-02 -1.37443453e-01 -5.97028695e-02 +7.61598125e-02 +7.38950865e-03 +1.08893281e-02 -3.16853553e-01 +6.75250292e-02 +1.05725951e-01 -7.94886872e-02 -1.88057974e-01 -7.75840506e-02 -7.49857053e-02 +8.86440128e-02 -3.25999297e-02 +5.37511334e-02 +3.01923156e-02 +1.45388633e-01 -1.67329120e-03 +2.97815353e-01 -1.47514224e-01 -3.25425893e-01 -1.75094590e-01 +6.39237985e-02 +2.65811145e-01 +1.21255606e-01 +1.41883697e-02 -1.50670156e-01 +6.55753957e-03 -1.81623891e-01 -1.14274792e-01 -2.14001864e-01 +5.69874160e-02 -7.42394105e-02 -1.18612394e-01 -6.42886981e-02 +2.84355938e-01 -1.54627532e-01 +2.23516554e-01 +6.50174990e-02 +2.30260670e-01 -1.23925276e-01 +1.20510466e-01 +5.74634084e-03 +1.67067513e-01 +7.73561746e-02 +1.57115251e-01 +1.65067427e-02 +1.23235472e-01 -3.65681760e-02 -1.10607684e-01 +1.24044083e-01 +1.36070147e-01 -1.78232826e-02 +6.02324083e-02 +7.31747448e-02 -2.48317663e-02 -1.65215924e-01 -1.32745817e-01 +1.38748676e-01 -1.00182921e-01 -1.14406936e-01 -1.77887641e-02 -1.03857629e-01 +2.09429711e-02 +4.72189859e-02 -4.80060950e-02 -3.19251493e-02 -3.35850231e-02 +6.26430437e-02 -1.22079380e-01 -3.72568518e-02 -1.47978172e-01 +8.13351125e-02 +1.36646762e-01 +4.07488942e-01 +2.58621931e-01 -8.11212510e-02 +1.51683211e-01 -3.83061990e-02 -2.03092098e-02 -1.21200711e-01 +2.48355150e-01 -2.22940668e-01 +8.59844908e-02 +4.52349365e-01 +6.88416734e-02 -3.15303832e-01 -3.05176526e-02 +8.09966326e-02 +4.83490701e-04 -7.70497918e-02 -4.12381768e-01 +9.46150422e-02 +2.52822619e-02 -1.43782839e-01 -4.96442318e-02 -5.99010922e-02 +6.90473691e-02 +7.58975744e-03 -1.80404365e-01 +1.05026588e-01 -2.18215525e-01 +1.73353702e-02 +1.18001267e-01 -1.75532477e-03 +1.98973909e-01 -1.69061080e-01 -6.55922815e-02 +1.47982314e-01 -4.11224574e-01 +3.74020264e-03 -6.09162971e-02 -7.13181868e-02 +2.54933946e-02 +1.98536310e-02 -4.80418094e-02 -1.32525846e-01 +3.10607795e-02 -8.83018225e-02 +1.04340562e-03 +1.85951859e-01 +1.05324842e-01 +1.08878814e-01 -2.14447733e-02 +4.15313035e-01 +2.57008731e-01 +1.98643189e-02 +1.07052512e-01 +1.99952289e-01 -3.87024164e-01 -3.14278454e-01 +3.98666635e-02 -1.13378815e-01 +4.85481471e-02 -1.30722588e-02 -5.95071167e-02 +8.23516920e-02 -7.43144453e-02 +1.84753552e-01 +1.16674475e-01 -1.52737722e-01 -3.10329217e-02 -1.31167352e-01 -1.06018506e-01 +2.01826811e-01 -3.04278433e-01 -4.82033156e-02 +1.44761996e-02 +4.46767919e-02 -1.72269698e-02 +2.00452330e-03 +5.73249497e-02 -1.78673506e-01 +3.29125941e-01 +9.12817754e-03 +2.48183310e-02 -1.34611174e-01 +3.68776992e-02 +2.94269472e-01 -1.44566864e-01 +6.62850507e-04 -1.75379980e-02 +8.08289647e-02 +1.74743980e-01 -1.18058965e-01 +1.61549240e-01 +7.06952512e-02 +1.07333072e-01 -2.72580422e-02 -5.68740815e-02 -1.40027395e-02 +3.78813557e-02 +2.61634905e-02 +4.42191511e-01 -3.86562161e-02 -1.30273223e-01 -1.30140781e-01 -9.98853892e-02 +2.46880017e-02 -4.33679335e-02 +8.19118619e-02 -6.55143335e-02 +7.96793997e-02 -1.45860702e-01 -4.93683890e-02 +1.41282573e-01 -2.65026651e-02 -4.41111811e-02 +3.23470160e-02 +1.13403857e-01 +1.14185326e-01 -3.93627509e-02 +7.97512978e-02 +8.71504545e-02 -4.25133631e-02 -6.79350123e-02 +3.21893126e-01 -9.71511379e-02 -4.04805876e-03 -3.08364153e-01 +1.16820604e-01 -1.80566907e-01 +7.20514581e-02 +1.75365750e-02 +7.26071969e-02 -4.63781692e-02 +3.93856354e-02 +4.19800729e-01 +1.13447785e-01 +2.52594911e-02 +7.94760734e-02 -1.08940795e-01 -7.38725252e-03 +5.24963401e-02 -1.00133687e-01 +4.27890718e-02 +9.55389114e-04 -8.62373114e-02 +1.07423864e-01 +9.18904617e-02 +2.61252541e-02 +9.68485605e-03 -2.55459785e-01 -9.02739633e-03 +1.47191405e-01 -1.06076881e-01 +7.86034670e-03 -5.57564273e-02 -6.86236173e-02 -2.18506023e-01 +7.93639719e-02 -2.16363534e-01 +8.03210028e-03 -1.36953160e-01 -4.31895822e-01 -1.48357630e-01 +1.97529152e-01 +5.75620048e-02 -3.81175607e-01 -3.18902321e-02 -4.67121936e-02 +2.02010691e-01 -5.21763321e-03 -1.08206831e-01 -4.06702273e-02 -8.66902024e-02 +2.29701012e-01 -1.03691272e-01 +1.64212622e-02 +2.66476218e-02 +1.21086255e-01 +3.04513842e-01 +1.92815922e-02 -9.55166817e-02 -1.04845524e-01 +4.61359210e-02 -1.26501724e-01 -9.81406346e-02 +1.47987455e-01 +2.25342557e-01 -2.30416376e-03 -7.71121532e-02 -1.46869242e-01 -1.06242962e-01 +1.54055795e-02 +2.62155741e-01 +1.28946990e-01 +3.03013146e-01 -7.68597946e-02 -1.80095416e-02 -3.68750282e-02 +7.16518834e-02 -2.26289220e-02 -8.43727514e-02 -1.35076374e-01 +8.02911296e-02 +4.27428782e-02 +5.77915572e-02 -6.15391007e-04 -7.62844011e-02 +1.34764224e-01 +8.44739936e-03 -7.14223385e-02 +3.41171175e-02 -9.62398499e-02 -3.48605037e-01 -8.29925686e-02 +8.84409323e-02 +9.94230062e-02 -4.18559499e-02 +7.01690987e-02 -8.93918797e-02 -2.33779892e-01 +1.73239633e-01 +1.42079361e-05 -7.50580132e-02 +1.24155924e-01 +5.06561622e-02 +1.19384795e-01 +1.85781289e-02 +2.02596158e-01 +7.07162917e-02 +1.17480539e-01 +1.29472598e-01 -8.83482099e-02 +3.56673181e-01 -1.92083940e-01 -5.94378263e-02 +4.11067344e-02 -7.77192265e-02 -6.37388304e-02 +1.91266015e-01 +1.49285898e-01 +1.50494069e-01 -2.56923348e-01 -1.73895732e-01 +1.84427172e-01 +2.26759375e-03 -1.51113451e-01 -9.05416310e-02 +2.71678269e-01 -9.67227295e-02 -3.69329512e-01 -3.56706709e-01 +3.55545222e-03 +3.74065153e-02 +1.52267024e-01 +8.60970840e-03 +2.15372548e-01 +1.56498760e-01 +1.34318590e-01 -2.28620499e-01 -1.83674499e-01 +8.05537626e-02 +9.27688032e-02 -3.03190917e-01 +6.98476881e-02 -9.53902975e-02 -2.54294425e-01 -1.95142478e-01 -7.10348561e-02 -1.00656509e-01 +2.08141461e-01 -1.50000244e-01 -4.27705377e-01 +1.13108344e-01 +3.15936818e-03 +5.79201914e-02 +5.83797842e-02 +1.36616351e-02 -6.64021075e-02 -1.07124537e-01 -4.43845689e-02 +1.16439015e-01 -1.61471646e-02 +6.04314990e-02 +1.98059436e-02 +1.30259931e-01 -1.23062000e-01 +1.89832579e-02 +9.12164077e-02 -1.02625139e-01 +1.66907310e-01 +2.43571773e-02 -1.48937553e-01 +1.89944595e-01 -8.12073518e-03 +2.12113723e-01 +1.20204248e-01 -5.25995903e-02 -6.00230955e-02 -2.39047229e-01 -8.64152387e-02 +8.94900858e-02 -3.64921540e-01 -1.61319390e-01 +2.82621644e-02 -3.01395297e-01 -1.12630025e-01 +1.17463946e-01 +1.07778512e-01 -7.74226114e-02 +1.27135992e-01 -3.92346442e-01 -2.14443386e-01 -2.61063904e-01 +5.61412632e-01 -9.20172874e-03 +1.33884251e-01 +1.25661314e-01 -1.59600675e-01 +3.16224605e-01 +7.55741522e-02 -9.13296565e-02 +1.06483929e-01 -5.23317941e-02 +1.67488679e-01 +1.82349794e-02 +1.32681236e-01 +2.43018001e-01 +5.74371144e-02 -3.90469059e-02 +1.46345228e-01 -5.71476817e-02 +9.40162018e-02 -3.78437489e-01 +8.59883055e-02 -4.69557159e-02 -6.63992241e-02 +6.30001873e-02 +1.08137295e-01 +1.24843650e-01 -2.59020589e-02 +4.12815483e-03 +1.52087092e-01 -3.77494097e-02 +1.60303622e-01 +7.57039413e-02 -8.86651352e-02 +7.82596022e-02 -9.45242643e-02 +6.21262603e-02 -1.66057855e-01 -1.71186939e-01 -4.79537010e-01 -9.89791304e-02 -3.97482105e-02 +1.12247970e-02 -2.31881380e-01 +3.40405822e-01 +2.57105023e-01 +5.55945411e-02 -1.59717053e-01 -1.17113672e-01 +4.68583293e-02 +1.02385186e-01 -5.14825322e-02 -1.92239881e-01 +1.86657645e-02 -5.30011728e-02 -5.92240654e-02 -1.50329014e-02 +1.37572899e-01 +1.22310355e-01 -2.68611372e-01 +2.59927601e-01 -2.94585107e-03 +1.11935899e-01 +5.29716350e-02 +2.29977276e-02 +1.76241249e-02 -4.36398797e-02 +4.69720304e-01 -3.67963873e-02 +8.18355232e-02 -3.01353876e-02 +1.13223091e-01 +2.07587355e-03 -2.70224690e-01 -2.09350958e-02 +1.37528673e-01 +3.81767116e-02 -2.98344642e-02 -8.10139030e-02 -3.56247313e-02 -8.28356519e-02 +9.24248472e-02 +3.16842012e-02 -4.93414216e-02 +1.31615832e-01 -1.66390181e-01 +2.41057858e-01 +4.45572548e-02 -8.23499784e-02 +4.68214378e-02 +1.12616271e-01 +5.88151403e-02 -9.60065350e-02 +1.95790175e-02 -4.13485542e-02 +1.17155183e-02 +9.99081656e-02 -6.69405833e-02 +8.25275853e-02 +2.15574235e-01 +2.50366390e-01 -4.09808084e-02 -2.67613791e-02 -1.84913442e-01 -2.25987155e-02 +2.63365824e-02 +5.58673292e-02 +6.16454100e-03 +6.12290017e-02 -7.74572119e-02 +2.20684130e-02 -8.03657249e-02 +8.30046833e-02 -3.59595232e-02 +4.56241220e-01 -1.57172292e-01 +1.03135660e-01 -8.78656879e-02 +9.41615459e-03 -1.02481194e-01 -1.69206053e-01 +1.17262322e-02 