#Parameter# /MlpAttender-0373efd4/_0 {128,128} 262145 ZERO_GRAD
+1.51244998e-01 -1.37793779e-01 -5.48061170e-02 -2.70478070e-01 +1.19535021e-01 -9.03524458e-02 -1.83288753e-02 -9.14230347e-02 +8.20800290e-02 -6.07393421e-02 -4.38079610e-02 +2.86714304e-02 -1.61243305e-01 +3.52976561e-01 -2.01783583e-01 +2.04868749e-01 -4.03077513e-01 -2.39288132e-03 -4.70439941e-01 +2.20748365e-01 +1.00345671e-01 +3.98917526e-01 -4.18751575e-02 +1.46449775e-01 -1.81146283e-02 +1.08871306e-03 +1.31460652e-01 +7.94160217e-02 -8.90133232e-02 -2.91559845e-01 -6.89913556e-02 -5.18846586e-02 +9.79251564e-02 -6.18270040e-02 +3.56243737e-03 -4.86783892e-01 -9.71726105e-02 -2.97750056e-01 -9.52795669e-02 +2.83874154e-01 -3.13526869e-01 -2.30973549e-02 -6.59671202e-02 +1.15518771e-01 -1.81828916e-01 +2.23502159e-01 +4.00044888e-01 +4.72769029e-02 -2.92998970e-01 +6.01481721e-02 +2.68827453e-02 -5.83251677e-02 -1.13454491e-01 -8.29289109e-02 -7.63676167e-02 -2.08335802e-01 +1.84639961e-01 +1.79351307e-02 +3.94209296e-01 -1.42918065e-01 -1.36308558e-02 -2.60117650e-01 -2.70294435e-02 +2.53862608e-02 -4.45885770e-02 -1.50414780e-01 +1.64561182e-01 -8.36144909e-02 +2.27368891e-01 +6.53108731e-02 -5.29386923e-02 -2.68263429e-01 -5.58001213e-02 +9.85734314e-02 -3.03376764e-01 +2.41150394e-01 -1.15186386e-01 +1.06442943e-01 -4.42891605e-02 -2.08687335e-02 -3.60338353e-02 -1.79199934e-01 +1.23303339e-01 +1.05123147e-01 +1.51874172e-02 +7.43658766e-02 +1.11757681e-01 +4.53534834e-02 -2.24083528e-01 -1.31507754e-01 -1.08635336e-01 -1.97067391e-03 -1.11895636e-01 -8.87904614e-02 -1.07599020e-01 +9.82193276e-02 +1.13589197e-01 +1.18577958e-03 +1.90113168e-02 +7.35198855e-02 -1.00437798e-01 +8.97059664e-02 +2.81781703e-01 +1.64703876e-02 +1.56874761e-01 +1.00529253e-01 +2.28731886e-01 +9.07448381e-02 +8.87215510e-02 -4.39182622e-03 +1.41124442e-01 +2.64778793e-01 +8.15370306e-03 -9.53929871e-02 -3.83188158e-01 -4.09054160e-02 +6.63873926e-02 +9.00556892e-02 +1.31012380e-01 -2.87344277e-01 +1.12402201e-01 +2.15116479e-02 +3.04518361e-02 +5.84234633e-02 -1.08794503e-01 -7.33261034e-02 -8.62981975e-02 -6.34777620e-02 -1.42971992e-01 +8.11548159e-02 +9.24643427e-02 -2.87763774e-01 -9.85314623e-02 +1.38018783e-02 +1.13621570e-01 +2.06419766e-01 -1.40819028e-01 -3.13877128e-03 +1.78611845e-01 -1.19684294e-01 -2.09184647e-01 +1.84885934e-01 +6.27400205e-02 +1.65740356e-01 +1.03290394e-01 -2.01697290e-01 -1.70436546e-01 -2.46812671e-01 -1.57035425e-01 +3.49060968e-02 -1.10946344e-02 -4.02455628e-02 -9.37741622e-02 +3.06636058e-02 -2.07799003e-02 -1.90887630e-01 -4.11326960e-02 +8.54026452e-02 -1.34157106e-01 +1.63612500e-01 -1.62179619e-01 +2.15744264e-02 +1.50361964e-02 -1.17694765e-01 -1.65029824e-01 -1.34872824e-01 -3.29609662e-02 +2.09990054e-01 -1.44588560e-01 -1.29324896e-02 -1.36408105e-01 +1.16997100e-01 +1.15267485e-01 -2.09091734e-02 -1.03354856e-01 +1.50051579e-01 -3.93151231e-02 -2.71456670e-02 +8.12663585e-02 +2.44405624e-02 -1.01753674e-01 -6.79511949e-02 +5.23205288e-02 -2.75433511e-01 +1.29205793e-01 +7.68793672e-02 -1.84887424e-02 -4.58728224e-02 +3.16576749e-01 -2.33480304e-01 -1.43696994e-01 +1.08016105e-02 -1.22777186e-01 +4.49163765e-02 +1.20800935e-01 -2.49134794e-01 -1.01770177e-01 -4.37288843e-02 +3.36280502e-02 +6.21735901e-02 -7.77542740e-02 -9.21671093e-02 +1.66743100e-01 -3.34156305e-02 +3.04031698e-03 +1.28864244e-01 -1.56400025e-01 +9.62056220e-02 +9.90354735e-03 -1.00087866e-01 +1.30259618e-02 +8.12878981e-02 -4.64615300e-02 +2.18395144e-01 +1.03002727e-01 -8.78380090e-02 -1.19878329e-01 -8.14198181e-02 +8.24063364e-03 +3.35028991e-02 -5.01617752e-02 +2.40607858e-01 +9.33895912e-03 +4.49766666e-02 -1.04606830e-01 -2.24521756e-01 -1.33269951e-01 +5.83533458e-02 -6.42674342e-02 +1.92833424e-01 -6.46742433e-02 -1.51542909e-02 +1.13112271e-01 -2.13610202e-01 +4.46449108e-02 +1.10338293e-01 -2.43033201e-01 +1.12918476e-02 -2.92941686e-02 +2.00465754e-01 -7.22517446e-02 +2.66270071e-01 -4.76582199e-02 +8.28605592e-02 -5.74577190e-02 +8.06847736e-02 +3.46008912e-02 +2.78169774e-02 +7.39791244e-02 -1.69997916e-01 -1.46994233e-01 +1.79394661e-03 -1.74523946e-02 -9.52364877e-02 -1.82420537e-02 +2.24936023e-01 +5.49695715e-02 +1.25958249e-01 -6.08152598e-02 -1.59495845e-02 +1.05865620e-01 +2.11206019e-01 -2.49013558e-01 +1.72780156e-02 +9.91525943e-04 -5.23133762e-02 -1.14891469e-01 +2.37232354e-02 +1.81306869e-01 -1.84036702e-01 +3.33587170e-01 -1.47076454e-02 +3.76973301e-01 +1.65668711e-01 +3.05620819e-01 -3.72430593e-01 +8.82048979e-02 -3.25665861e-01 +1.48328230e-01 -1.33025393e-01 -1.43753394e-01 -1.08522214e-01 -5.43772876e-02 +6.56883838e-03 -1.00862514e-02 +1.13457412e-01 +4.84258756e-02 -6.39652610e-02 -4.62647341e-02 -1.72672987e-01 +3.37597691e-02 +2.80143321e-01 +8.19350407e-02 +1.57478582e-02 +2.33219564e-01 -2.49700576e-01 +2.70547599e-01 +2.86362669e-03 -7.12728351e-02 +8.57188031e-02 +1.47982508e-01 -2.19683692e-01 -1.03076860e-01 -1.40044719e-01 +7.32142255e-02 -1.72251672e-01 +1.27901182e-01 -3.26723270e-02 +8.31019282e-02 -6.02292493e-02 +2.72155017e-01 -9.55670327e-02 -3.22906710e-02 -1.83475763e-03 -1.49986297e-02 +2.90126681e-01 +1.54457897e-01 +6.88711703e-02 +1.01668075e-01 -6.87862560e-02 +1.89155146e-01 -1.33498251e-01 -1.61608443e-01 +1.03049658e-01 -2.00749367e-01 +8.88200011e-03 +4.32012528e-02 +3.34505528e-01 -6.33319318e-02 +1.36279941e-01 +2.67993589e-03 -3.08961898e-01 +1.09528229e-01 +1.67498052e-01 +8.40228945e-02 -1.17634825e-01 -9.24340114e-02 +1.54251814e-01 +1.37769938e-01 +6.66018501e-02 -1.61967743e-02 +3.60435806e-02 -2.65230596e-01 +2.84921620e-02 +1.33949235e-01 +5.36567047e-02 -1.41467616e-01 -1.61251634e-01 -1.03752223e-04 +3.76499780e-02 +4.66468558e-02 +7.27152452e-02 +7.19811954e-03 +7.94090480e-02 +5.61099723e-02 -1.26753107e-01 +1.29017413e-01 +6.53814450e-02 +1.34625817e-02 +7.13500008e-02 -1.32331371e-01 +2.19718646e-02 -2.04587042e-01 -2.26591632e-01 +1.14867799e-01 +6.50392100e-03 -2.78170586e-01 -2.23459020e-01 -4.62028682e-02 -4.87048663e-02 +1.49533466e-01 +3.54565009e-02 +1.60896108e-02 +1.30352199e-01 -1.43546104e-01 +1.93369500e-02 +3.10654938e-02 -1.14411347e-01 +5.95886307e-03 +8.29037055e-02 +2.86019146e-01 -1.22836642e-01 -2.74434336e-03 -9.96628180e-02 -1.56733006e-01 +1.36116266e-01 -7.60928988e-02 -9.58815962e-02 -2.53693108e-02 +6.81296214e-02 +2.08092049e-01 -7.79995620e-02 +2.12758183e-02 +2.24434957e-01 +6.55811504e-02 +1.31211475e-01 -2.42326669e-02 -1.73634142e-01 +2.35728323e-01 -1.71236992e-01 +4.54207463e-03 -7.77698010e-02 +8.49822015e-02 -1.86345056e-01 -1.30622849e-01 -1.13516130e-01 -1.02236085e-01 +8.08981508e-02 +1.82547010e-02 -4.19400539e-03 -9.02357399e-02 +2.00230584e-01 -9.58301872e-02 -1.12315118e-01 -7.14369267e-02 -8.40184614e-02 -3.31298746e-02 -5.81060722e-02 -6.13756888e-02 +1.18790567e-01 -1.94106717e-02 +4.74111848e-02 -8.31977278e-02 -1.03443146e-01 +7.07641467e-02 +7.09208027e-02 +1.16830483e-01 +2.66946647e-02 +2.39099830e-01 +3.92463803e-02 -7.86779448e-02 -6.39957413e-02 -5.61524555e-03 -9.15022790e-02 -1.05264828e-01 -1.33254215e-01 +1.77038789e-01 -7.99305290e-02 +1.54193863e-01 -9.34789656e-04 +7.35498592e-02 -1.66265443e-01 +1.12196490e-01 +2.26963654e-01 -8.33146349e-02 +6.34495839e-02 +9.44226757e-02 -1.42489985e-01 +1.74484447e-01 +1.40472101e-02 -2.88064629e-02 +5.56675047e-02 +3.14530283e-02 +8.03263858e-02 +1.49351314e-01 +1.19739227e-01 -1.69397503e-01 +2.78954003e-02 -6.08604625e-02 +9.51658189e-02 +1.99605420e-01 +7.37788528e-02 +5.60308248e-02 -1.64001003e-01 +7.90660679e-02 -2.14681596e-01 -2.41174754e-02 -3.24086137e-02 -5.96810691e-02 -3.84176224e-02 -4.04570289e-02 +1.42504051e-02 +6.58499543e-03 -8.89806002e-02 +4.18742448e-02 -1.01969972e-01 +8.54192153e-02 +1.31560206e-01 -3.20501029e-02 -1.48214936e-01 -9.91846845e-02 +5.51190414e-02 +9.63375717e-02 -3.89896031e-03 -9.59653780e-02 +1.42331809e-01 +1.30843252e-01 -7.84776136e-02 +1.23563930e-01 +8.69851261e-02 +1.86276615e-01 -1.40632078e-01 +1.23990275e-01 -1.15630656e-01 -1.22907393e-01 -4.00379002e-02 -1.72928963e-02 +6.88389242e-02 +1.00082397e-01 -9.20527503e-02 +8.14194083e-02 +1.87915459e-01 +2.23562554e-01 -8.45788606e-03 -5.84345348e-02 -7.02927560e-02 +2.85417855e-01 +1.61060289e-01 +1.83001712e-01 -1.90529644e-01 +1.32779494e-01 -1.02723971e-01 +3.05324215e-02 +7.31726065e-02 -1.97243303e-01 +2.77282149e-01 -2.58574504e-02 +6.47991002e-02 -3.02150603e-02 +7.57747516e-02 +2.11536974e-01 +1.16291277e-01 -8.94553214e-02 +1.78445075e-02 -2.06896495e-02 -1.07931504e-02 +2.15174332e-01 -3.96527685e-02 -2.11494714e-02 +3.80600393e-02 +8.84463489e-02 +1.82745010e-01 +1.45066991e-01 +1.61353767e-01 -1.29016712e-01 -1.63776070e-01 -1.65627480e-01 -1.25810117e-01 +7.99686611e-02 -7.97444656e-02 +2.02388633e-02 +1.88854590e-01 +2.92046200e-02 -5.24148606e-02 +9.23411176e-03 +1.16923871e-02 -7.92834610e-02 +1.98855236e-01 -1.99541189e-02 +4.24500257e-02 -2.34158859e-01 -9.58109945e-02 +5.39287776e-02 +7.55917421e-03 +6.18181340e-02 +1.47498757e-01 +3.38202454e-02 -2.94233914e-02 -2.71140605e-01 -2.64257789e-01 -9.64051262e-02 -3.24181199e-01 -8.76608565e-02 +7.38708898e-02 +9.20838416e-02 +4.38467413e-02 +2.23210976e-01 +2.53555417e-01 -1.41007707e-01 -2.23315760e-01 -6.04339503e-02 -1.31446004e-01 -7.93124214e-02 +1.43369019e-01 +1.33881673e-01 +1.78725839e-01 -1.03526607e-01 -2.23477352e-02 -1.04598306e-01 +1.59196362e-01 -1.57490954e-01 +1.16885684e-01 -9.95222013e-03 +9.52750146e-02 -1.59487173e-01 -8.80131274e-02 +1.54912798e-03 +8.86282474e-02 +1.55311093e-01 +6.14674166e-02 +1.22352637e-01 -1.74193770e-01 -4.93476912e-02 +3.40201199e-01 -1.28274620e-01 -1.80897135e-02 -8.93716812e-02 +1.46165028e-01 -2.58508977e-02 +2.38970742e-01 +2.04089344e-01 -8.78304541e-02 +2.56159659e-02 -4.42059673e-02 -7.39897713e-02 +2.13467896e-01 -1.64668158e-01 -1.56867310e-01 -3.21423188e-02 +5.37582040e-02 -1.30765364e-01 +2.83033121e-02 -1.11486711e-01 +3.41078117e-02 +1.12489112e-01 -2.20762163e-01 -1.59274638e-01 -1.23911299e-01 -1.33501232e-01 +1.35328621e-01 +1.80694222e-01 +1.67200193e-01 -1.56017497e-01 +6.42331243e-02 +2.58652836e-01 +7.36288279e-02 +1.24879248e-01 -1.21764541e-01 +3.82902883e-02 +1.06211334e-01 +1.18662409e-01 -1.43064363e-02 +3.10191624e-02 -3.71645503e-02 +3.29333097e-01 -4.67781126e-02 +1.80364981e-01 +3.08773089e-02 +1.53476685e-01 +7.55970478e-02 +5.11675552e-02 +6.72689155e-02 +1.26235023e-01 -1.84037104e-01 -9.27331764e-03 -1.49619639e-01 +9.82422829e-02 +2.02203244e-01 +4.93202806e-02 +4.89748688e-03 +1.22114718e-01 -1.37158036e-01 +2.62512285e-02 +1.49212927e-01 -3.92995834e-01 +3.12603712e-02 -2.32177362e-01 +3.60908522e-03 -3.09517026e-01 +1.71572361e-02 +3.33328135e-02 +1.54929832e-01 +1.08963601e-01 -1.27407625e-01 +4.46303822e-02 +1.37827933e-01 -3.65520939e-02 -6.47063032e-02 +1.01289228e-01 -2.17789322e-01 -5.66564500e-03 +2.57177174e-01 -2.20410130e-03 +2.13806126e-02 -1.94367424e-01 -4.17184114e-01 -4.82229926e-02 -1.38205901e-01 +2.16584262e-02 +2.85989702e-01 -2.94273973e-01 -4.25237902e-02 -8.16244557e-02 -1.09054912e-02 +3.45023833e-02 +6.69698743e-03 +2.23910272e-01 +1.89570375e-02 -1.74711287e-01 +1.68553665e-01 +1.46338522e-01 +9.77842789e-03 +1.18103425e-03 +5.80405863e-03 +2.41602093e-01 -1.66359738e-01 +1.32624894e-01 +3.77937555e-02 +2.27205917e-01 -3.82069387e-02 +8.75531062e-02 -2.41317496e-01 -8.00386295e-02 -1.69626214e-02 -1.33526260e-02 +1.32402508e-02 +3.34769264e-02 -9.65269208e-02 -8.36057961e-02 -1.09728621e-02 -3.66774239e-02 -1.73160002e-01 -3.94166745e-02 +1.29190966e-01 +6.77832514e-02 +2.41765916e-01 +9.59387887e-03 -7.65135605e-03 +7.60023147e-02 -7.78042376e-02 +2.18247734e-02 -6.84431568e-02 +8.91316980e-02 +2.14960407e-02 +1.51533142e-01 -1.24241292e-01 +1.57720536e-01 -2.59308398e-01 +4.65977564e-02 +4.90974933e-02 -6.68292865e-02 -6.87321872e-02 +1.21427197e-02 -4.48744111e-02 +4.42441553e-03 +9.20107812e-02 +8.60467479e-02 -3.28140616e-01 +8.00929032e-03 -1.15497805e-01 +1.53048009e-01 +9.20289680e-02 -6.21691681e-02 +8.41005743e-02 +4.92384695e-02 +4.51545939e-02 +1.80721313e-01 +2.94547170e-01 +2.59240251e-02 -1.37102321e-01 +2.98556119e-01 -1.14172893e-02 -9.48930904e-02 +3.87512408e-02 -3.29628974e-01 -1.01227626e-01 +7.82291219e-03 -1.05567142e-01 +2.61660665e-01 -3.76904495e-02 +1.30306259e-01 -6.49717152e-02 -9.34723988e-02 -7.06232265e-02 +6.54767230e-02 +2.67784595e-01 -3.00129186e-02 +1.92006323e-02 -5.35557680e-02 -2.22120136e-02 +1.82005674e-01 +1.36858582e-01 +1.12276249e-01 -2.11244538e-01 -6.28835857e-02 -1.80518180e-02 +1.77918002e-01 +1.82221383e-01 +8.09845235e-03 +1.14796810e-01 -8.37846100e-02 -6.61935806e-02 -5.02091050e-02 +7.87991509e-02 +6.35851249e-02 +2.94069257e-02 +1.42601416e-01 -7.16710016e-02 -9.30695385e-02 -6.06441870e-02 +1.52397633e-01 -1.53619915e-01 +1.36382878e-01 +4.40028682e-02 -1.77302614e-01 +1.05125763e-01 +1.71103016e-01 +1.19823307e-01 -1.10568397e-01 -5.91583140e-02 -1.24096103e-01 -1.46940902e-01 +1.61447406e-01 -2.96464115e-02 -1.71280876e-01 +1.02219991e-01 +1.22887447e-01 +1.11952625e-01 +9.85806286e-02 -1.34255424e-01 +6.41608238e-02 -9.77992639e-02 +1.29334822e-01 -1.37232393e-01 -1.07028432e-01 -1.11612424e-01 -1.15959682e-01 -4.27776910e-02 +3.55396904e-02 +5.96078075e-02 -3.87428366e-02 -2.88930126e-02 -9.99430567e-02 +6.96256459e-02 +1.52873807e-02 -4.60965410e-02 -5.81421191e-03 +6.82029501e-02 +9.52581465e-02 -1.36663198e-01 +1.01347074e-01 -2.74311639e-02 +1.36598378e-01 -2.11944535e-01 +4.69824821e-02 +8.51235725e-03 +8.05216432e-02 +5.07730506e-02 +3.50020863e-02 +1.60197005e-01 -3.25653441e-02 -8.97805020e-02 -5.74091226e-02 +5.19379880e-03 +1.29726678e-01 +3.63645330e-02 +5.79992384e-02 +5.08097298e-02 +1.20602943e-01 +4.64364588e-02 -1.88263223e-01 -1.57298967e-02 +7.89004117e-02 +5.05467784e-03 -9.54908505e-03 -1.03190526e-01 +4.51797172e-02 -1.16199426e-01 -1.26346782e-01 +1.66778378e-02 +5.11841923e-02 -8.15925449e-02 -7.98455030e-02 +5.37399761e-02 -1.30812138e-01 +1.52850822e-01 +1.07694194e-01 -6.63189590e-02 +1.22434730e-02 +1.37852435e-03 -2.04147816e-01 +2.89664380e-02 +1.28461108e-01 -9.18707699e-02 -1.20512322e-01 +1.14778370e-01 -7.71844536e-02 +5.91236986e-02 +9.84597802e-02 +1.30133957e-01 +1.27929330e-01 +5.42638861e-02 -6.63098916e-02 -1.19982630e-01 -1.09479792e-01 +1.09034255e-01 +5.32451384e-02 -6.31932402e-03 -1.26741379e-01 -1.08361110e-01 +2.22069547e-01 -1.90731838e-01 +3.28834094e-02 -1.53316977e-02 +1.70227557e-01 -9.85215455e-02 -5.44587746e-02 -1.50224762e-02 -3.90088893e-02 +2.76554942e-01 -6.26462027e-02 -2.54864413e-02 -1.33742914e-01 +4.44687232e-02 -4.71786149e-02 +1.81696475e-01 +1.44717187e-01 +1.59531832e-01 +9.44371149e-02 -3.87930304e-01 +1.21863894e-01 -2.33737394e-01 +1.69323027e-01 +1.75446019e-01 +1.08566470e-02 -2.10625619e-01 -6.47794595e-03 -4.99594718e-01 +1.27482340e-01 +7.10127410e-03 +1.05145216e-01 +8.74046832e-02 -1.84550241e-01 -3.26272845e-02 -1.90971449e-01 +2.28086784e-02 +1.47706747e-01 +6.11106642e-02 -1.60731524e-01 -3.43278460e-02 -5.82712516e-02 +1.97468340e-01 -1.81833446e-01 +1.15105836e-02 +1.98487774e-01 -1.08737253e-01 +1.47993535e-01 -1.48122013e-01 +6.22176006e-02 -7.30409771e-02 +4.01966602e-01 -6.80001304e-02 -1.87193945e-01 -9.49698463e-02 +7.78141394e-02 -1.69011563e-01 -9.24797580e-02 +1.28014460e-01 +8.89778733e-02 -1.37630180e-01 -2.27506692e-03 +6.42022714e-02 +5.30485250e-03 -3.75993997e-02 -2.44118586e-01 +3.92664462e-01 -5.29974960e-02 +3.08429360e-01 +9.12875403e-03 -9.92334038e-02 +4.86415289e-02 +9.43605974e-02 -1.46792412e-01 +1.00170195e-01 -3.08348089e-01 +6.92266151e-02 +1.94621056e-01 +2.36193880e-01 -1.32017434e-01 -3.04989833e-02 +5.37480451e-02 -1.03047915e-01 +4.75269556e-03 +9.83481631e-02 -1.72002483e-02 +3.63263637e-02 -6.49841353e-02 +2.65690327e-01 +4.16500270e-02 +1.89529285e-02 +4.59859669e-02 +8.21414292e-02 -2.45882630e-01 +1.88165203e-01 +3.37849170e-01 +1.85193852e-01 +3.73854451e-02 -9.52688307e-02 -1.93529893e-02 +1.38956150e-02 -6.66285604e-02 +9.05304700e-02 -3.49984020e-02 +2.34031007e-01 +1.80813715e-01 +5.89568391e-02 -1.41773194e-01 +2.70059016e-02 -2.39259183e-01 -5.17210700e-02 +1.01904124e-01 -1.51988432e-01 -1.53153390e-01 -7.03008920e-02 +1.05479494e-01 -6.55607060e-02 -2.31405228e-01 -1.41050398e-01 +1.49819732e-01 -1.18689500e-01 +4.03284095e-02 +1.99501701e-02 -3.07426341e-02 -1.59404408e-02 +1.15296856e-01 +1.22932412e-01 +6.01518229e-02 -4.15652012e-03 +2.13432554e-02 +1.45423263e-01 +2.55639732e-01 -4.10391688e-02 -2.85088427e-05 +9.29846168e-02 -1.36259466e-01 -1.39565974e-01 -6.39947057e-02 -2.18525171e-01 +1.03874773e-01 -1.71890125e-01 +1.79478660e-01 -2.32914966e-02 -1.48658574e-01 -3.19680991e-03 -2.38910373e-02 -5.10160960e-02 +7.37133026e-02 +1.67423487e-01 -2.80097127e-01 -3.54559347e-02 +1.05708614e-01 -1.68977290e-01 -3.95243056e-02 +5.12876995e-02 -4.73642722e-02 -7.31134554e-03 -8.01979527e-02 -1.25720367e-01 +3.61970104e-02 +4.67600673e-02 +1.31614907e-02 +8.95636752e-02 -1.68455407e-01 -1.94129691e-01 -1.04317777e-02 +2.67434157e-02 +8.90543014e-02 -7.47446343e-02 -5.64499050e-02 -3.06000449e-02 +1.89211662e-03 -1.40635371e-01 +1.11257434e-01 +1.41834691e-01 -2.98163369e-02 +6.39689043e-02 +1.67454109e-02 -1.18486650e-01 +9.31520835e-02 +3.67987715e-02 +3.88388783e-02 -1.79109757e-03 -1.41881600e-01 +1.47805691e-01 -7.06240311e-02 +1.33798895e-02 -1.23391049e-02 +1.11427940e-01 +1.07967474e-01 -1.22062154e-02 +9.76510718e-02 +1.45680726e-01 -2.14977050e-03 +1.27643989e-02 -4.33300771e-02 -1.55573353e-01 -2.82815322e-02 -7.28990138e-02 -3.37412581e-02 -3.99860628e-02 +2.18731031e-01 +3.70294675e-02 +6.60819784e-02 -2.21069619e-01 -2.59332389e-01 -1.14552580e-01 +9.61090252e-02 -1.64110214e-01 -1.67534977e-01 +9.75788310e-02 +1.29808439e-02 -1.09754853e-01 -1.28182516e-01 +1.40393125e-02 -5.28091453e-02 +2.04668082e-02 +4.01427224e-02 +5.42776585e-02 +5.05441986e-03 -1.14838198e-01 +5.01157530e-02 -9.46099833e-02 -2.57726461e-01 -1.04783826e-01 -1.05942585e-01 +1.01029396e-01 +1.34524167e-01 -9.93728414e-02 +1.79905780e-02 -5.61184213e-02 +1.53071135e-01 -1.43033028e-01 +1.82750940e-01 -1.12031825e-01 +2.78682299e-02 +9.28184912e-02 +1.85378551e-01 +8.83828849e-03 +1.15158230e-01 +1.00233346e-01 +2.62626827e-01 +7.04616606e-02 +1.21536501e-01 -3.19507748e-01 +2.94247475e-02 +5.92717491e-02 -1.19362496e-01 -9.37394351e-02 -2.37444684e-01 -8.35021734e-02 +1.16252042e-01 -1.10514514e-01 -3.49599086e-02 -2.72528157e-02 -2.39527076e-02 +1.79200575e-01 -1.49672151e-01 +1.00758642e-01 -1.77818462e-01 +1.52076200e-01 -7.92898983e-02 +7.42682442e-02 +8.88508707e-02 +8.65792334e-02 +9.43104848e-02 +3.09550226e-01 -5.08450754e-02 +7.37689883e-02 -2.07890257e-01 +1.52358674e-02 +1.06278792e-01 +7.31233787e-03 -1.39382690e-01 -5.35023399e-02 +1.77040752e-02 -1.01006450e-02 +9.96253565e-02 -1.04230657e-01 -8.15241504e-03 +8.46521407e-02 +2.98631161e-01 -1.21676929e-01 +5.85910454e-02 -1.27578095e-01 +1.41460612e-01 -1.00985505e-01 -1.11329801e-01 -5.00314832e-02 -1.64753154e-01 +1.20140277e-01 -5.98289035e-02 +1.14229508e-01 +1.12544112e-01 -1.31079271e-01 -1.93555370e-01 -1.22797668e-01 +1.26387119e-01 +1.30602017e-01 +3.29647735e-02 +1.50417417e-01 +2.10698158e-01 -5.12753949e-02 +2.33611465e-01 -1.52991802e-01 +1.35664344e-01 +1.17056752e-02 -2.51302756e-02 -1.76955149e-01 -1.38365194e-01 -3.03220659e-01 +2.29122430e-01 -1.40577164e-02 -4.02956940e-02 +8.75280276e-02 +7.42723495e-02 +3.22906971e-02 +2.29631767e-01 +1.78836018e-01 -5.95352799e-02 -3.05752039e-01 -6.11244701e-02 -4.74393331e-02 -1.14901336e-02 +4.07033592e-01 -7.01192468e-02 -2.54357513e-02 +1.79000020e-01 -4.98133786e-02 -2.96692073e-01 +1.53123336e-02 -2.28055999e-01 +9.77852717e-02 +4.20561165e-01 +4.58524413e-02 +7.76558742e-02 +2.62222197e-02 +5.78979515e-02 -6.18122779e-02 +1.46799579e-01 +3.74898054e-02 +1.57465965e-01 -1.80694550e-01 -1.79639328e-02 +3.70756686e-01 +8.89765918e-02 -1.09896213e-01 -9.81149301e-02 -5.60880490e-02 -4.46843877e-02 -4.10805345e-02 +1.31600261e-01 +4.76726778e-02 -1.21366279e-02 -1.62210464e-01 +1.58189297e-01 +1.82370439e-01 -7.18583167e-02 -6.67613000e-02 -2.59425025e-02 +1.21566176e-01 -4.92887720e-02 +5.57862408e-02 +3.00986152e-02 +1.49067491e-01 -2.07372218e-01 -1.10022305e-02 -3.86267491e-02 +8.06658939e-02 -2.94453233e-01 -4.48406627e-03 -4.90462668e-02 +2.17222825e-01 -1.87171414e-01 -8.83610696e-02 +9.51596648e-02 -1.59745645e-02 +9.29820463e-02 +1.69260964e-01 -1.18274860e-01 +1.41350657e-01 +3.08033228e-02 +4.24843401e-01 +1.02457099e-01 +1.57328427e-01 +3.23121667e-01 +1.50343984e-01 +6.18700385e-02 -1.43800750e-01 +1.63108915e-01 +3.88153754e-02 +6.42876513e-03 -7.71743357e-02 +8.48577917e-02 +2.86842167e-01 -4.60378751e-02 -4.17559631e-02 -2.48921782e-01 -1.40130103e-01 +1.36571065e-01 -1.18807577e-01 -9.49562341e-03 +4.67532175e-03 +1.59635380e-01 -1.22542545e-01 +1.81126431e-01 -6.91176504e-02 +2.67419815e-01 +2.85316437e-01 +9.28017218e-03 -2.26330370e-01 +1.12519786e-01 -3.69179130e-01 +1.80067927e-01 -5.21292575e-02 -1.10243089e-01 -7.32876733e-02 -7.73572996e-02 +1.51077546e-02 -1.75356179e-01 -4.35559601e-02 -8.52912292e-02 -1.31080210e-01 -2.29119956e-01 -1.33641735e-01 -7.91851580e-02 +9.35511105e-03 -1.11076638e-01 +2.75844261e-02 +2.25207910e-01 -1.43197671e-01 +1.14738069e-01 -1.64113134e-01 +1.40126541e-01 -1.01638339e-01 +5.17804250e-02 -1.13029659e-01 -2.45615229e-01 -5.16280755e-02 +8.05391669e-02 +5.66868186e-02 -5.46343625e-02 -1.12121336e-01 +3.01983003e-02 -3.84444781e-02 +1.64841563e-01 -9.49323922e-02 -1.49353459e-01 +4.44340818e-02 -2.31008619e-01 +2.62483239e-01 +1.78908169e-01 +1.12897828e-01 -5.96837588e-02 +4.21346128e-02 +1.98137894e-01 -9.04018879e-02 -2.70343035e-01 +1.22883499e-01 -1.83796138e-01 +2.01804802e-01 +1.91548780e-01 +1.81977168e-01 +2.63302140e-02 +1.33621007e-01 +2.19702259e-01 -2.84312442e-02 +1.32400393e-01 +3.53127830e-02 +6.30203411e-02 -1.27951577e-01 -4.52908054e-02 +5.48603199e-02 +2.68867053e-02 +5.88040650e-02 +1.47544980e-01 -1.01021737e-01 -6.59911186e-02 +1.90530285e-01 +1.27065316e-01 -7.35088289e-02 -1.96236521e-02 +6.63013011e-02 +1.02272071e-01 +3.89316417e-02 -4.62047048e-02 +2.50822548e-02 -1.46898270e-01 +7.69210607e-03 +7.21523315e-02 -1.45138307e-02 +7.71169886e-02 +1.28814459e-01 -2.69260973e-01 -2.38668799e-01 +6.74815625e-02 -3.23768407e-02 -1.57323733e-01 -3.69364396e-02 -6.25438616e-02 +2.95789912e-02 -4.90434170e-02 +6.24214336e-02 -3.71659198e-03 +7.74552375e-02 +1.40578421e-02 +1.20115094e-01 -2.60827597e-03 +1.33798540e-01 -8.18438232e-02 +2.03073490e-02 -1.76347455e-03 -1.64039448e-01 +2.08708987e-01 -2.72695441e-02 +2.26039857e-01 -2.19175264e-01 +3.09352987e-02 +6.53556287e-02 +1.50913969e-01 -1.06947109e-01 +9.33541823e-03 -2.15180829e-01 +1.49552720e-02 -8.04509595e-02 +1.52383363e-02 +3.30508687e-02 -3.46742943e-02 -1.75457429e-02 +1.33295491e-01 +1.83389738e-01 -8.83864835e-02 -8.69645774e-02 -2.82331288e-01 +3.30728553e-02 -9.66916457e-02 -1.51227817e-01 -2.46989220e-01 +5.94155565e-02 -4.07863175e-03 -1.97684858e-02 +1.82709485e-01 +1.08552508e-01 -5.62636442e-02 +7.01705292e-02 -1.79773882e-01 -1.67547449e-01 +6.13431707e-02 -1.78142011e-01 +1.56055987e-01 +1.52581045e-03 +1.81240618e-01 +1.71611905e-01 +8.30101818e-02 -2.18490630e-01 -4.49734703e-02 -1.61044702e-01 +1.11518763e-01 +1.61737561e-01 -3.94279547e-02 +3.19929197e-02 -7.99107477e-02 +1.13806948e-01 -1.92078412e-01 -1.01947181e-01 +2.03728870e-01 +9.67181660e-03 +1.59091949e-02 +8.90578981e-03 -1.14701599e-01 -5.26309572e-02 -3.16226855e-02 -1.35111183e-01 +4.63689491e-02 -7.43760169e-02 +1.00782640e-01 -1.14840880e-01 +2.60172606e-01 +1.27635710e-02 -1.28191501e-01 -2.96385378e-01 -5.88326976e-02 -6.30730316e-02 -2.06165627e-01 +1.29510790e-01 +1.05685413e-01 -1.99831184e-02 +3.38133201e-02 +1.34802356e-01 +1.52955651e-01 -1.51607618e-01 +1.36564538e-01 -7.84563646e-02 +3.36488523e-02 +1.30473077e-01 -6.60484508e-02 -9.45554897e-02 +1.27339423e-01 -2.19542626e-02 -9.12360772e-02 -2.28125691e-01 +1.14668682e-01 -1.09225228e-01 -8.42442364e-02 -1.00448057e-01 +1.04484126e-01 -2.07264386e-02 -1.54782340e-01 -9.84904170e-02 +1.05919182e-01 -7.89928511e-02 -1.27178386e-01 +1.04233399e-02 -1.52370706e-01 -3.87494192e-02 -7.46146366e-02 -7.23516718e-02 -7.28303939e-02 +1.34515047e-01 -1.17020175e-01 -4.54671346e-02 +1.97965592e-01 +1.94714069e-01 -1.22552566e-01 +1.29234448e-01 +1.42138913e-01 +8.75168219e-02 +1.17565833e-01 -2.16362521e-01 +2.24206269e-01 +2.59850323e-01 -3.39443237e-02 -1.31304875e-01 -2.27595761e-01 +9.30456072e-02 +1.59947306e-01 -5.62712364e-02 -5.55965193e-02 -1.49683669e-01 -2.68808678e-02 -1.19002514e-01 +7.63048157e-02 +1.24549150e-01 +6.57844394e-02 +9.93158147e-02 -6.92705484e-03 -1.21933289e-01 -7.56973028e-02 -1.06121220e-01 -1.93926618e-01 +1.97065666e-01 -5.70472702e-02 +5.89039885e-02 -9.34314281e-02 -1.57192320e-01 +3.97087298e-02 +2.32046530e-01 +4.27080803e-02 +4.13469896e-02 +4.24137153e-02 -9.10541415e-02 +2.54305214e-01 -3.40491310e-02 +6.02958091e-02 +1.48055077e-01 +7.75110424e-02 +4.34436291e-01 +1.68503836e-01 -7.99126029e-02 -1.22560002e-01 -4.42159846e-02 +4.11168747e-02 +1.20642252e-01 +9.04789474e-03 +5.75276911e-02 -2.80353539e-02 -1.34988576e-01 +9.37863961e-02 -9.79783162e-02 +2.76694540e-02 -8.57560113e-02 +4.37713601e-02 +1.51344970e-01 -1.39307797e-01 +1.99157577e-02 -1.62551343e-01 -7.87312612e-02 +1.03968702e-01 +8.46143588e-02 +2.64732003e-01 -5.26828021e-02 -1.55210704e-01 +7.78637007e-02 +9.96128842e-02 -2.33715609e-01 +2.22130358e-01 -6.53754622e-02 +4.28086035e-02 +1.26564875e-02 +1.49351522e-01 -2.07197051e-02 -1.71991009e-02 +3.54302555e-01 -3.03027838e-01 +7.94699509e-03 -9.40519348e-02 +5.90683669e-02 -2.83703268e-01 +6.89110905e-02 +6.80277571e-02 +1.47448242e-01 -1.24631129e-01 -5.58293350e-02 -1.49547130e-01 +2.91799307e-01 +2.87963420e-01 -6.91488758e-02 +1.53366206e-02 +5.43856621e-02 -4.98192608e-02 -8.32196325e-02 -1.22157775e-01 -2.66341418e-01 -1.26188800e-01 +8.84988680e-02 +4.00482714e-02 +5.00046983e-02 -1.72176972e-01 +9.63067040e-02 +5.17977923e-02 -1.33197578e-02 -8.34958181e-02 +6.17726892e-03 -1.33346334e-01 +3.04976732e-01 +2.71525890e-01 +3.68774571e-02 +8.04604664e-02 +1.75224334e-01 +8.94754976e-02 +2.48051807e-02 -7.58424625e-02 -1.12107797e-02 +8.67201835e-02 +2.24992350e-01 +1.91462561e-01 -1.47640988e-01 -1.86573416e-02 +1.09113619e-01 -1.73485473e-01 +6.02471828e-02 +1.33963376e-01 +9.50010568e-02 -1.12750486e-01 -2.16528326e-01 +2.82761902e-01 +2.97416866e-01 -1.80995658e-01 -2.87438799e-02 -5.89144649e-03 -1.89745855e-02 +2.01825038e-01 +4.09458764e-03 +2.71186372e-03 -9.18391421e-02 +1.07984506e-02 +6.37753084e-02 +7.56847635e-02 +3.03759485e-01 -4.94903361e-04 +1.90566286e-01 -1.98364332e-01 -1.61770433e-01 +4.75239456e-02 -1.53252572e-01 -6.73438460e-02 -7.88963139e-02 +1.41153067e-01 +1.23568811e-01 +1.26660377e-01 -1.07541241e-01 -1.57610133e-01 -1.48333665e-02 -1.55806899e-01 +1.33054659e-01 -8.90449882e-02 -7.69426376e-02 +1.01962753e-01 -1.20240740e-01 +1.71988487e-01 +2.48301849e-02 +2.63937980e-01 +7.46643841e-02 +7.47552281e-03 -1.06758446e-01 -9.50840488e-02 -6.84804916e-02 +5.47756478e-02 +6.18682764e-02 -1.03484482e-01 +1.03872038e-01 -1.10869169e-01 +1.33985998e-02 -1.90870166e-01 +4.24263179e-02 +1.12298615e-01 +7.65417889e-02 -7.98712596e-02 -1.13113619e-01 +1.45159945e-01 +2.04787552e-02 -5.10254204e-02 +3.60890292e-02 +6.19727857e-02 -2.42337912e-01 +8.97893831e-02 -1.24982662e-01 -1.20883085e-01 -1.75682962e-01 +2.28237718e-01 -1.31364301e-01 -2.01601069e-02 -2.40350887e-02 +2.25882307e-01 -1.07131824e-02 -9.07030627e-02 +4.17243727e-02 -3.04031577e-02 -1.29450113e-01 -7.12822899e-02 +3.31917927e-02 -1.75831690e-01 +1.75304547e-01 -2.50280532e-03 +5.48769496e-02 +1.38505995e-02 +1.22041866e-01 -7.16971979e-02 +8.88335258e-02 -1.44092655e-02 -1.41292345e-02 +3.83880064e-02 +9.19819772e-02 -1.19607188e-01 +5.40247485e-02 -3.01800724e-02 +5.45508489e-02 +8.38524848e-02 +1.61819309e-01 -3.85481771e-03 -1.64030381e-02 -1.17813364e-01 -1.74972549e-01 +8.22407827e-02 +1.15276761e-01 -1.52001753e-01 +7.43542910e-02 +5.69226518e-02 +5.70692830e-02 +9.29530039e-02 +5.92926517e-02 -4.76385839e-02 -1.35488302e-01 +1.22114792e-01 -8.57532024e-02 +4.32649814e-03 +3.53554264e-03 +4.39427756e-02 +1.43252343e-01 -1.05271883e-01 +2.56280042e-03 +1.24889240e-01 +1.40577629e-01 -5.62553070e-02 -1.32923886e-01 -5.70246987e-02 -1.07673943e-01 -1.37862653e-01 -5.69633655e-02 -1.09250560e-01 -3.53337340e-02 -1.10758506e-02 -1.11318663e-01 +9.31994617e-02 +1.97448552e-01 -2.07569778e-01 +4.96936291e-02 -2.06474319e-01 -1.29548818e-01 +1.11715309e-01 +1.27532288e-01 -1.86020210e-01 -5.46130985e-02 -3.58912013e-02 +7.44250864e-02 -5.84594235e-02 +5.43044833e-03 +2.68609151e-02 +2.62227375e-02 -9.58179459e-02 -2.23377913e-01 +6.14010841e-02 -8.71433020e-02 +9.08875987e-02 +6.36386946e-02 -9.89575237e-02 -8.23013783e-02 -1.37480810e-01 +8.91666561e-02 +3.38417888e-02 -1.10019721e-01 -9.10505503e-02 -1.26377910e-01 +1.12756096e-01 -5.31996079e-02 -7.01658847e-03 -2.32335627e-01 +2.36928910e-01 -1.91407815e-01 +3.10868084e-01 +1.34768754e-01 +2.29851648e-01 -1.75920248e-01 +1.05465673e-01 -4.25496817e-01 -1.34422407e-01 -2.48407107e-02 -5.76025955e-02 -5.43698743e-02 -1.12344153e-01 +1.17470510e-01 -1.64834261e-01 +1.43160954e-01 +4.48882841e-02 +6.48880973e-02 -1.57842159e-01 +1.21872582e-01 +1.03368789e-01 +7.71485642e-02 +4.44935560e-02 +1.09174937e-01 +2.76120692e-01 -6.63530752e-02 +2.48156227e-02 -1.10406457e-02 +2.68000990e-01 +1.38997734e-01 +1.73090339e-01 +1.98219121e-02 -8.07383433e-02 -7.09195212e-02 +6.82707876e-02 +5.45027219e-02 +5.69995977e-02 -1.05020843e-01 -3.76861021e-02 +4.52956073e-02 +1.68180794e-01 +1.65860102e-01 +1.62053686e-02 +1.08721264e-01 +7.81093091e-02 +3.79279524e-01 -1.36317760e-01 +1.46691218e-01 -1.56024527e-02 -1.86835546e-02 +1.44086763e-01 +2.82275467e-03 -3.93778421e-02 +3.31048459e-01 -1.52924120e-01 +2.19344422e-02 +2.38962010e-01 +2.05441669e-01 -1.70074821e-01 -1.18536107e-01 +2.25879937e-01 +4.90957871e-03 -1.09774493e-01 +1.32856160e-01 -5.65636232e-02 -5.89622408e-02 -3.80778275e-02 +1.38998866e-01 +1.44106343e-01 +2.11631265e-02 +8.80308524e-02 -1.45230815e-01 -1.75128147e-01 +3.26027244e-01 -3.33336666e-02 +7.63510689e-02 +1.06169060e-01 +3.01791467e-02 +1.58471346e-01 +1.40456976e-02 +3.61839496e-02 -1.28928453e-01 -6.89303726e-02 +2.18412772e-01 +2.49247357e-01 -1.25663370e-01 +4.09119166e-02 +1.42991483e-01 -1.96075410e-01 -1.16199395e-02 -2.13098992e-03 +1.23738050e-01 +9.88913793e-03 +2.63482351e-02 +1.39617369e-01 -1.33645162e-01 -1.28949195e-01 -1.47707537e-01 +8.51172283e-02 -1.50058240e-01 +1.82128570e-03 +3.17135043e-02 -2.58945245e-02 -6.00671321e-02 -6.64905682e-02 +5.80229461e-02 -5.13524711e-02 -1.08698025e-01 -1.07376345e-01 -1.15193225e-01 +1.15247056e-01 -2.23803490e-01 +9.09856260e-02 -5.02010360e-02 +1.07120529e-01 -1.63952291e-01 +2.90144801e-01 -3.17861348e-01 +3.33384238e-02 -2.96680838e-01 +3.90108407e-01 +1.25470653e-01 -1.67848572e-01 +5.35628945e-02 -1.95724517e-02 -1.14046805e-01 -6.34668469e-02 +2.08966523e-01 -2.37733379e-01 +3.43293369e-01 -1.44122452e-01 -2.08599716e-01 -1.36399642e-01 -1.87065706e-01 +6.28224686e-02 +1.66806653e-01 -4.30401117e-02 +1.48282144e-02 +1.53885841e-01 +4.00531814e-02 +1.71750322e-01 -1.14743942e-02 -1.94719523e-01 -1.88072696e-01 -5.28831333e-02 +1.45231396e-01 +1.74969599e-01 -1.90391354e-02 -2.38677599e-02 -2.11370528e-01 +1.62809342e-02 -3.18336725e-01 -1.87594127e-02 +1.32336482e-01 -1.54047653e-01 -2.83842161e-02 -1.63818344e-01 -5.04188836e-02 -1.96023956e-01 -4.26438414e-02 +1.65179744e-01 +2.45738626e-01 -9.65078920e-02 +1.88295841e-01 +2.66388757e-03 -6.68159574e-02 +1.31359324e-01 -5.93751408e-02 -2.48825550e-02 -2.00974479e-01 +2.73582548e-01 +1.69681236e-01 +1.66070849e-01 +7.25500286e-02 +1.44792467e-01 -4.48468566e-01 -7.86244199e-02 +1.28449082e-01 -2.20453665e-01 -7.72707537e-02 +3.80946070e-01 -1.48732841e-01 -2.28104647e-02 +1.08823227e-02 -2.24500850e-01 -4.63296056e-01 +1.46211877e-01 -6.53026998e-02 -9.98877436e-02 +1.90341890e-01 -7.21986741e-02 +1.24077126e-01 -8.47043917e-02 -1.06391042e-01 -7.27227256e-02 -3.38089436e-01 -3.70929688e-02 +1.20632477e-01 +8.38160217e-02 -1.33958086e-01 +1.59748346e-01 -4.75695767e-02 -4.92137849e-01 -1.41476497e-01 -7.66611546e-02 +1.67259544e-01 +7.29340762e-02 -2.38552287e-01 -2.91086193e-02 +1.38675719e-01 -5.39336465e-02 -3.23956758e-01 +1.45397171e-01 +1.37747288e-01 -3.65182124e-02 +3.50093906e-04 +3.79384279e-01 +1.36612505e-01 +1.47222146e-01 +1.11475959e-01 +4.84234661e-01 +1.92690268e-01 -6.68739527e-02 -2.34044433e-01 +2.70473808e-01 +3.77723247e-01 -2.31215104e-01 -4.68385443e-02 -3.18728715e-01 -1.02541730e-01 -1.20234990e-03 -9.44834650e-02 +2.53125783e-02 -3.02278161e-01 +3.51605900e-02 -1.31893724e-01 -1.37840688e-01 +2.93378979e-02 -1.12554364e-01 +2.92861834e-02 -3.40227708e-02 +1.49088204e-01 -1.37935966e-01 +9.11320373e-02 -1.50020882e-01 +2.16699049e-01 -1.00985564e-01 -1.20668277e-01 -1.80140287e-01 -9.28897932e-02 +6.32484555e-02 +2.54449964e-01 +9.51122567e-02 +9.61322412e-02 +8.02443102e-02 -1.93468705e-01 +1.56225070e-01 +5.08759618e-02 +7.71595761e-02 +8.56967866e-02 -7.89927691e-02 +4.89776433e-02 +4.43051271e-02 -1.08236670e-01 +5.82705997e-02 +9.75620970e-02 -1.07961237e-01 -4.49279547e-02 +8.53150263e-02 -7.89934471e-02 +1.01083480e-01 +9.70499665e-02 -1.23493515e-01 +3.55408415e-02 -1.74505815e-01 -1.49289772e-01 +3.21883112e-02 -1.20890319e-01 -5.32897748e-02 +2.08052769e-02 -2.10532263e-01 +1.31577700e-01 +1.09298907e-01 +1.42155722e-01 -5.09097464e-02 -1.22920699e-01 +1.19336970e-01 +1.31898671e-01 -8.02226141e-02 -1.11683175e-01 -7.41708204e-02 -7.03284070e-02 -1.55211911e-02 -7.99424853e-03 -7.21334144e-02 +1.46527261e-01 +2.00798526e-01 -1.95888872e-03 +2.13626623e-01 -5.80239855e-02 +1.95037633e-01 +2.76137167e-03 -7.41608739e-02 +7.94482231e-02 +4.33032066e-02 +5.82199506e-02 -6.50575012e-02 +1.00401128e-02 -6.38890713e-02 +1.22358643e-01 -1.29020035e-01 -6.04790589e-03 -1.42248482e-01 +1.31237254e-01 -9.21655297e-02 -7.56863132e-02 -5.10548353e-02 +2.28299230e-01 -7.42878988e-02 -8.84932652e-02 +1.48066655e-02 +1.12205207e-01 +1.06746964e-01 -3.35227437e-02 -7.39846565e-03 +3.51580046e-02 -1.13376528e-01 +4.83732447e-02 -3.73667553e-02 +1.11325309e-02 +1.63616627e-01 +1.57086581e-01 -6.31816760e-02 +9.57573429e-02 -2.00008620e-02 +9.45585445e-02 -9.23371837e-02 +6.25559315e-02 -1.07661061e-01 +1.24851167e-01 +2.72077918e-01 -1.44425347e-01 -4.13591340e-02 -8.23858976e-02 +8.91881287e-02 +4.78383154e-03 -1.32682949e-01 +1.03228293e-01 -2.03268215e-01 +6.48813844e-02 +4.63924222e-02 +1.94133952e-01 +1.05719611e-01 -2.70949285e-02 +8.50277692e-02 -1.68789655e-01 -4.52282093e-03 +8.24608933e-03 +3.67777795e-02 +1.96332112e-01 +8.82764235e-02 -9.60413367e-02 +9.10677537e-02 +1.69783253e-02 +2.14412853e-01 +4.28659134e-02 +4.55090180e-02 -4.49184962e-02 +9.42876860e-02 +8.70810896e-02 -4.77109551e-02 -1.15327366e-01 -2.09505130e-02 -4.22183014e-02 -8.05106089e-02 +9.31308120e-02 +1.85057342e-01 +1.33866459e-01 +3.88165861e-02 -2.28943657e-02 +7.70857334e-02 +4.78720851e-02 -5.70339821e-02 -9.20571908e-02 -8.28202441e-02 -8.56122375e-02 -1.90025508e-01 -1.80214323e-04 -3.61421198e-01 +2.46945858e-01 -1.41401231e-01 +1.48150116e-01 +1.10605180e-01 +4.27813306e-02 -1.04025580e-01 -3.70299667e-02 +9.31449756e-02 +1.26018330e-01 +2.21618250e-01 +1.82720099e-03 +1.08152814e-01 +2.29337439e-01 -1.08956605e-01 +2.93453522e-02 +1.72007605e-01 -2.50809759e-01 +1.02049336e-01 -8.47501680e-02 -3.50110941e-02 +2.26154570e-02 -3.13154846e-01 +1.46878228e-01 +1.14441678e-01 -1.00040130e-01 -8.31112564e-02 +9.45176557e-02 +2.97808032e-02 -2.43736342e-01 -2.70282954e-01 -1.39437215e-02 -9.88319293e-02 +1.50395781e-02 -8.39249045e-02 -4.68421988e-02 +9.62930545e-02 -1.10788859e-01 +1.34238265e-02 +2.26937070e-01 +1.42572045e-01 -1.42601877e-01 +2.18103081e-02 -5.93973212e-02 +1.11649588e-01 -3.92832570e-02 -6.95173740e-02 -1.09325379e-01 +2.62730211e-01 +4.24263626e-02 +4.70961034e-02 +2.58701235e-01 -2.20619049e-02 +1.07655153e-02 -1.72136724e-01 +6.35438636e-02 +1.30729571e-01 +2.94962496e-01 +1.90201879e-01 +8.54305848e-02 +5.24471439e-02 +1.81398228e-01 +1.95182890e-01 -1.09067477e-01 +4.57052840e-03 +8.67000148e-02 -1.44216880e-01 +1.34770840e-01 -4.88532521e-02 -3.67893688e-02 -2.84783572e-01 +3.25746611e-02 +1.02920830e-01 -4.25039716e-02 +2.10380748e-01 +3.14120874e-02 -9.93310586e-02 -1.97427213e-01 -1.16087489e-01 -6.98316470e-02 -3.90277132e-02 +2.05445718e-02 -1.59211919e-01 +7.71542639e-02 -9.82383545e-03 -3.47300135e-02 +1.01939738e-01 -1.48551658e-01 +3.07480395e-01 +6.56335726e-02 +6.67242184e-02 -9.69259217e-02 +1.10541224e-01 +5.46200387e-02 +3.15399887e-03 -1.24883600e-01 -3.57896775e-01 +3.79504040e-02 -9.56195593e-03 +4.23180275e-02 -1.53267145e-01 -1.02053843e-01 -8.58644843e-02 +4.86063696e-02 -8.87140110e-02 -4.78245430e-02 +7.74477143e-03 +5.44567369e-02 +1.68986425e-01 -3.74054275e-02 +3.23746502e-02 +4.80929874e-02 -7.22161829e-02 +2.49505714e-01 -1.09594367e-01 -3.41157019e-02 -1.89618602e-01 +1.17696568e-01 +1.97676674e-01 +1.08266510e-01 -1.29473388e-01 -8.49437639e-02 +1.19009204e-02 -3.40737820e-01 +2.70188034e-01 -4.95799519e-02 +1.34190530e-01 +1.62283167e-01 +1.12216361e-02 +6.90635107e-03 +2.52655689e-02 -4.13987964e-01 +1.05026498e-01 -6.48767054e-02 -1.24969110e-01 -1.03213802e-01 -2.22823679e-01 -1.11837491e-01 -1.36965904e-02 +8.88761599e-03 -1.18222810e-01 +9.25631076e-02 -1.07680522e-01 -2.17745360e-03 -1.49304822e-01 +1.75568327e-01 -2.84481216e-02 +1.44951478e-01 +2.64595985e-01 -5.72166964e-02 +1.12743720e-01 -2.20635552e-02 +2.04341456e-01 +1.32336825e-01 +3.31212878e-01 +1.08637743e-01 +3.59280035e-02 -3.60513777e-01 +1.69336367e-02 -8.71102959e-02 -7.40166754e-02 -1.15496248e-01 -8.52224678e-02 -1.30308881e-01 +1.61509216e-01 -8.02914053e-03 -1.61613181e-01 -1.89404264e-01 -2.31568262e-01 +1.36635303e-01 +9.51692089e-02 +3.12625438e-01 +1.49275750e-01 -4.83056232e-02 +2.11421512e-02 -7.32274875e-02 -1.26431093e-01 +4.84470576e-02 -3.87296200e-01 +8.57358798e-02 +2.87150502e-01 +1.87142849e-01 +1.10469162e-01 +2.53485590e-02 +1.00851372e-01 -1.22190535e-01 +1.75486207e-01 +4.09630351e-02 +1.93156805e-02 -7.45598152e-02 -3.85565520e-03 +6.55386224e-03 -1.42875895e-01 +1.82931721e-01 -1.08646393e-01 -1.54254526e-01 -5.29560000e-02 +1.26324087e-01 +8.14047456e-02 -1.30955249e-01 -9.60145667e-02 +7.00208405e-03 +1.17009833e-01 +1.32544965e-01 +8.27504992e-02 +3.80417071e-02 +4.57262322e-02 +1.20255239e-01 +5.28862923e-02 -4.65626679e-02 -6.79503307e-02 -1.40348990e-02 -1.99900642e-01 -1.79016456e-01 +1.36257811e-02 +2.80567743e-02 -2.07895055e-01 -2.15759665e-01 +2.53638290e-02 +2.26593211e-01 -3.63132358e-02 -1.42511865e-02 +1.30088747e-01 -7.29069710e-02 +5.74259907e-02 +1.20230407e-01 -1.06393389e-01 -9.92454309e-03 +1.21835418e-01 +1.97115555e-01 -6.43984741e-03 -1.59100562e-01 +2.21504077e-01 +3.70417088e-02 +2.32298270e-01 -4.79432195e-02 +2.83226613e-02 -1.81769691e-02 -1.21208787e-01 +9.17352811e-02 +1.24646850e-01 +6.43026754e-02 +1.57128587e-01 -1.89968143e-02 +1.92540303e-01 +3.21299769e-02 -2.03994885e-01 -1.32671162e-01 +8.27984065e-02 -1.11208923e-01 -2.66362671e-02 +1.34885237e-01 -2.07250174e-02 -1.79316942e-02 -5.60899936e-02 -1.81861207e-01 -3.80763523e-02 +5.17289564e-02 +3.82241160e-02 -3.54393981e-02 +3.06901112e-02 +9.39069018e-02 -8.02208111e-02 +7.56238848e-02 -4.76253666e-02 -1.35089442e-01 -2.37204418e-01 +7.83998743e-02 -8.58244896e-02 +6.58669099e-02 -7.75882304e-02 +3.62006426e-02 +6.86279684e-03 -2.68739283e-01 -7.56958053e-02 +3.51083986e-02 +1.64959934e-02 +5.57213463e-02 -1.64392442e-01 -1.58691946e-02 -3.92554313e-01 +1.45543024e-01 -1.43023759e-01 +9.84756052e-02 +6.15383834e-02 +2.04483628e-01 -1.85838565e-01 +2.74913460e-02 -8.12959746e-02 +2.01353177e-01 -1.31638512e-01 -4.10175733e-02 +6.84460998e-02 -3.24623883e-01 +1.95690662e-01 -1.04760323e-02 -1.36226148e-03 +8.20262283e-02 +2.76004255e-01 -1.09367259e-02 +8.50967988e-02 -1.76613256e-01 -2.18939576e-02 +3.35696600e-02 -7.68690184e-02 -8.66209492e-02 +1.20519243e-01 -1.66692048e-01 +9.59854980e-04 -8.32014754e-02 +1.26689911e-01 -1.18812144e-01 -2.54088026e-02 -3.33724245e-02 -2.28989646e-01 -1.13035873e-01 +6.26796251e-03 +1.33605339e-02 +1.23642534e-01 -7.30253085e-02 -8.02649558e-02 -1.45541728e-01 +1.27521932e-01 -1.05184905e-01 +1.05685905e-01 +8.05346482e-03 -5.47480620e-02 -1.17389962e-01 -1.00397676e-01 +1.11745551e-01 -7.52690285e-02 -4.28059772e-02 +6.51573166e-02 +1.90757051e-01 +1.72035754e-01 -7.58787915e-02 -2.61431873e-01 +1.20503411e-01 +1.88318625e-01 -1.04320914e-01 -1.28743395e-01 -5.38680777e-02 +1.83576152e-01 -9.23345312e-02 -6.21223673e-02 +2.24885449e-01 -8.56447741e-02 -7.33326748e-03 +5.26940729e-03 +4.32359576e-02 -2.21738536e-02 +7.57397935e-02 -1.43775746e-01 +2.93505262e-03 +1.07381999e-01 -1.32732376e-01 -6.64014593e-02 +5.05761662e-03 -3.68684642e-02 -1.75078407e-01 +6.87012002e-02 +4.74944338e-02 -1.21778801e-01 +5.11174612e-02 -1.40585661e-01 +3.27656269e-02 +7.29914457e-02 +1.12598114e-01 +6.70197979e-02 -4.52196300e-02 -1.52309105e-01 +1.44468248e-01 -1.09899953e-01 -1.52658120e-01 -1.01098023e-01 +4.05261619e-03 +2.08702032e-02 -9.49877035e-03 -1.13710888e-01 -2.20075697e-01 +5.01396619e-02 +1.95113872e-03 -1.89433709e-01 +7.72297904e-02 +1.38201222e-01 +2.09799141e-01 +2.83376165e-02 +4.77908701e-02 +1.03485756e-01 +3.62855680e-02 +2.52541564e-02 -1.03965305e-01 -5.11214808e-02 -1.32522106e-01 -9.81189534e-02 -9.41466074e-03 +1.26800418e-01 -3.13631222e-02 -1.17306173e-01 +6.95437640e-02 +6.29173964e-02 +8.88867080e-02 +8.59590173e-02 -3.92374173e-02 -7.71886334e-02 +5.22995591e-02 +6.93840254e-03 +7.38089532e-02 +1.24729887e-01 +1.04079112e-01 +1.75642923e-01 -7.04823062e-02 -1.19190812e-01 -1.97935939e-01 -4.75638025e-02 -2.63490975e-02 +1.82760030e-01 -9.20512993e-03 +4.82678898e-02 -7.52118751e-02 -8.39507803e-02 -8.58374406e-03 +3.95602323e-02 +1.28263190e-01 -1.66794360e-01 -9.70997512e-02 +8.62677232e-04 +2.02605333e-02 -3.54354046e-02 +3.94912157e-03 -1.48157254e-01 +7.46255517e-02 -1.69695184e-01 +8.05935711e-02 +1.24002069e-01 +1.44930780e-01 +1.61554366e-01 +2.02595219e-01 +1.57813758e-01 -9.56416801e-02 -1.19515441e-01 -1.87527582e-01 +4.67648879e-02 +4.56373692e-02 +3.69494632e-02 -1.47097111e-01 -8.21015313e-02 -1.72067702e-01 -1.54500425e-01 -1.22989796e-01 +4.76146117e-02 +9.97320861e-02 -1.49363995e-01 +1.82217732e-01 +1.62591320e-02 -8.25157017e-02 +1.02936119e-01 -6.91099092e-02 +1.13240652e-01 +1.59900472e-01 +1.70046464e-01 -4.25921641e-02 +7.24097118e-02 +5.83113208e-02 -1.09019540e-01 -1.19572848e-01 +8.29339698e-02 +9.68957227e-03 -1.05581805e-01 +2.38404162e-02 -1.02558792e-01 +1.42823040e-01 +8.08981732e-02 -2.31027320e-01 +9.90236104e-02 +2.64047086e-01 -5.44804633e-02 -2.78678592e-02 -2.71600317e-02 -1.03802346e-01 -6.13643117e-02 -1.50099576e-01 -7.27061182e-02 -6.60643429e-02 +7.35276863e-02 +1.48036867e-01 -4.06152196e-02 -1.82898492e-02 +7.67769068e-02 +6.94642812e-02 -2.40248814e-03 -1.26336619e-01 +6.97664022e-02 +9.09985304e-02 -4.78595160e-02 +2.05257609e-02 +2.20677964e-02 -2.05772698e-01 -5.84896142e-03 -3.71212423e-01 +1.06790261e-02 +4.18061465e-02 +3.38838398e-02 -8.60681906e-02 +8.87801647e-02 -2.80742288e-01 -1.55772150e-01 +2.02756330e-01 -3.57889116e-01 +1.26591697e-01 -2.11015612e-01 -1.93005666e-01 -1.53122798e-01 -1.62688524e-01 +1.54226283e-02 -1.35312706e-01 +2.22829469e-02 -4.56981696e-02 -1.10195577e-01 +7.05912197e-03 +3.73658538e-02 -1.86553553e-01 -1.88039154e-01 -1.39296159e-01 -1.34493532e-02 +1.98439300e-01 +5.25637083e-02 +1.95647970e-01 +4.74113300e-02 -1.43906265e-01 +2.10597813e-01 -8.54256526e-02 -8.66516456e-02 +2.41428912e-01 -2.87851006e-01 -1.18155457e-01 -4.21338052e-01 +4.48073931e-02 +1.54086232e-01 +6.57773837e-02 +3.76822613e-02 +1.19027987e-01 -3.08356404e-01 +3.04988921e-01 -2.41421863e-01 +9.28957164e-02 -7.95554817e-02 -5.46415634e-02 +6.26979694e-02 -2.11164206e-01 +3.45508903e-01 +2.16867313e-01 +2.88901716e-01 -1.59919068e-01 +1.26260817e-01 -2.44763240e-01 -2.16800198e-01 -3.38130519e-02 -9.00310203e-02 -5.93354227e-03 +2.65989125e-01 -5.95293716e-02 -1.85665458e-01 -1.17105797e-01 -6.25750721e-02 -8.42638537e-02 +5.11471368e-02 -1.73810020e-01 +8.97921100e-02 +2.17224270e-01 +6.62608594e-02 -1.21619925e-01 -1.14835501e-01 +8.68723840e-02 -2.44972147e-02 +1.41056916e-02 +1.01196706e-01 +8.40129033e-02 +1.12651274e-01 +1.98478878e-01 +1.26524881e-01 -3.27774078e-01 -7.33961686e-02 -2.76671313e-02 +1.56537443e-01 +1.38136148e-01 +8.58627558e-02 +1.56838689e-02 -4.08371026e-03 +1.79224625e-01 -1.59336329e-02 -4.42765206e-02 -2.11218357e-01 -9.04254541e-02 -1.86499998e-01 -4.73780073e-02 +2.36957699e-01 +3.04402769e-01 -9.33077857e-02 +1.56835496e-01 +1.55778855e-01 +1.03561491e-01 -7.12964088e-02 -2.50463396e-01 +3.85986447e-01 +1.64882004e-01 -1.17175266e-01 -6.88067749e-02 -1.85014397e-01 +9.71877426e-02 -1.24579862e-01 -2.50381231e-02 +1.58265620e-01 -1.49142176e-01 +1.39236143e-02 -1.36812687e-01 -9.05493423e-02 -7.21950233e-02 +2.10620612e-01 +1.11667112e-01 -1.38136819e-01 +5.70988879e-02 +9.20154378e-02 +9.32240635e-02 -3.92711684e-02 -2.24379420e-01 -2.54707672e-02 -1.32724702e-01 +1.28795236e-01 +1.41249657e-01 -2.04050049e-01 -1.52597830e-01 -1.75189916e-02 -3.04351039e-02 -7.18159676e-02 -3.57922539e-02 -9.46750194e-02 +5.45672625e-02 -2.12180376e-01 -2.39524111e-01 +2.62060831e-03 +1.65397346e-01 +1.04596689e-01 -8.20727926e-03 -1.19387165e-01 +8.16913992e-02 +4.41408269e-02 +7.10532255e-03 +2.04949692e-01 -1.17546625e-01 +8.97190571e-02 +7.99603611e-02 +1.28508687e-01 +1.90040857e-01 +1.27415150e-01 +1.50080293e-01 +1.09388232e-01 -7.01522976e-02 +1.40085548e-01 +4.69895490e-02 -6.66005388e-02 -4.29693647e-02 -5.28112911e-02 +7.48509243e-02 -2.94790454e-02 +1.25192061e-01 -4.77744155e-02 -1.04795694e-02 +3.86614874e-02 +2.54726380e-01 -4.25771549e-02 +1.44918412e-01 -6.65697157e-02 +1.22359604e-01 -1.09183028e-01 +2.24169735e-02 -2.62203753e-01 +6.02388792e-02 +1.42248958e-01 +2.71966398e-01 +2.45382264e-01 -1.17053017e-01 +7.31851310e-02 -2.55529583e-01 +3.12946811e-02 +6.57169446e-02 +2.35642120e-02 -1.83213949e-02 +7.24377483e-02 -3.73159088e-02 +2.83949822e-01 -2.53055364e-01 -2.72867411e-01 -2.70656168e-01 -6.56870976e-02 -1.85302898e-01 -6.00278713e-02 -1.34575777e-02 -1.55721813e-01 -1.43623263e-01 -8.59457478e-02 +1.19593330e-01 -1.96640962e-03 -2.14367658e-01 +1.37139156e-01 +7.89488330e-02 +1.69700710e-03 -8.53820592e-02 -8.72797668e-02 -4.43798527e-02 -2.05242798e-01 -1.50732964e-01 -6.47348240e-02 -1.51795940e-03 -4.43617329e-02 -1.93252876e-01 +4.42981496e-02 -1.29806623e-01 +1.53296098e-01 -2.42477003e-02 +2.79410947e-02 +8.22571442e-02 -1.36763871e-01 +7.61169344e-02 +2.10482895e-01 +8.12877417e-02 +1.30190715e-01 -9.16990340e-02 +2.06889227e-01 -2.10204963e-02 -2.69836467e-02 -1.00803651e-01 -9.77452472e-02 +2.16002434e-01 -2.00946718e-01 -7.01581016e-02 -1.48202002e-01 +6.32014871e-02 +1.40500709e-01 -1.75607577e-01 -1.00674763e-01 -1.88702285e-01 +1.92092527e-02 -6.73290715e-02 -3.20646942e-01 -2.18729191e-02 -1.62011355e-01 +1.29587101e-02 -1.46267032e-02 -7.98341557e-02 -1.48626924e-01 -1.25727996e-01 -1.29548773e-01 +6.45426437e-02 -6.72520772e-02 -1.12194054e-01 -2.17788830e-01 -1.49370044e-01 +8.99577215e-02 -8.96192901e-03 +3.40429656e-02 +1.02769904e-01 +1.88294947e-01 -1.29138485e-01 -1.65543690e-01 +5.93550317e-03 +8.01574290e-02 +1.62115812e-01 +6.62687421e-02 +8.92337784e-02 +3.70514095e-01 +1.78858787e-01 +1.40047774e-01 +3.42274411e-03 +5.70496097e-02 -8.29837378e-03 -4.50375341e-02 +3.62799666e-03 -8.91699269e-03 +7.59371594e-02 +9.43623781e-02 -1.21648476e-01 +1.29297659e-01 -3.35513279e-02 +1.86673701e-01 +5.11870831e-02 -1.99544728e-01 -1.19773738e-01 +5.22803217e-02 +1.23589404e-01 -1.12613931e-01 +9.50948223e-02 +3.11020166e-01 -1.27947897e-01 -1.08376920e-01 +1.23886503e-02 -7.44135603e-02 -4.92808372e-02 +8.11253637e-02 -1.10132478e-01 +7.59782046e-02 +9.73070562e-02 +1.36369422e-01 -3.61406989e-02 +2.68374775e-02 +3.68512243e-01 -3.61474492e-02 -1.40631437e-01 -1.77226588e-01 -7.22366199e-02 -3.33266735e-01 +2.44581550e-01 -5.19933552e-02 +2.55209804e-01 -8.99426043e-02 -1.57401472e-01 -1.75052851e-01 +1.68153971e-01 +3.25472443e-03 +1.37550637e-01 +1.86648473e-01 -9.82928276e-02 +1.10896520e-01 +9.18648466e-02 +1.62610754e-01 -1.09190546e-01 -2.03077435e-01 -2.05589458e-02 -1.78041440e-02 -1.03314921e-01 +7.30233192e-02 -4.94187847e-02 -1.48858786e-01 -1.65494047e-02 +1.58129007e-01 -9.90008265e-02 -1.84400424e-01 +1.28203586e-01 +3.30442898e-02 +9.78708267e-02 +1.40918240e-01 -3.67075689e-02 -9.33150277e-02 -3.31720784e-02 -3.43123153e-02 -1.68493047e-01 -6.42535314e-02 +2.54497826e-01 +2.44149968e-01 -1.95450280e-02 -1.44364461e-01 -9.82564464e-02 +6.38913065e-02 +2.73746881e-03 -5.22244722e-02 -1.74186960e-01 -5.65597834e-03 +2.30006836e-02 +3.26845124e-02 -1.91353604e-01 -1.16233528e-01 -1.45165384e-01 +8.56996030e-02 -1.77300185e-01 +4.82061505e-02 +3.93305123e-02 -1.13212980e-01 +4.34104316e-02 +1.36621557e-02 +9.86314267e-02 +1.33737609e-01 +2.53530592e-01 +1.45779699e-01 +1.61155194e-01 +3.37318964e-02 +6.99103028e-02 -4.59036715e-02 -2.82304913e-01 +8.75865743e-02 -5.48441820e-02 +2.36305017e-02 -1.80831149e-01 +1.29204255e-03 -3.76104414e-01 +2.27922544e-01 +2.76530720e-02 -3.08220480e-02 +1.49690816e-02 +3.92741822e-02 +9.46300179e-02 -1.15593933e-01 +8.43709037e-02 -6.23484217e-02 -9.62260514e-02 +3.21746916e-02 -4.22785319e-02 -1.63426280e-01 -2.40535408e-01 -4.98776287e-02 -1.91235810e-03 +9.67318472e-03 -1.51090980e-01 -5.12872450e-02 +1.36384636e-01 -2.49701738e-01 +9.94403735e-02 +2.45580003e-02 -1.90092340e-01 +5.35602458e-02 +1.07787587e-01 +2.80721989e-02 -2.61821337e-02 +1.14075541e-02 -2.95370638e-01 -9.43475887e-02 -1.53799534e-01 +8.47031251e-02 -3.01918038e-03 -1.11346476e-01 +1.26967251e-01 +2.45985717e-01 -8.61702263e-02 -8.11376646e-02 +2.83403695e-01 +9.48233232e-02 +5.40058352e-02 -5.33428043e-02 -3.32751781e-01 -1.14737630e-01 +8.69824812e-02 -2.29818393e-02 -1.30060300e-01 +4.45791692e-01 -1.10479362e-01 +1.79855809e-01 -2.25880474e-01 +1.56802475e-01 +1.10704944e-01 -8.08562562e-02 -1.68577865e-01 +9.14820805e-02 -5.96209755e-03 -9.72573161e-02 +2.00951230e-02 +6.09199516e-02 +5.30284159e-02 -3.21142167e-01 -5.90798780e-02 +1.94085926e-01 +4.52479459e-02 +9.10293832e-02 -6.80530444e-02 -4.87550795e-02 +2.48189285e-01 +1.12337865e-01 -1.03047960e-01 +1.24172054e-01 -8.85191932e-02 -1.20451048e-01 -1.13761894e-01 -6.90268651e-02 +1.85229897e-01 +8.16012025e-02 -1.92482769e-01 -1.24176584e-01 -2.66282950e-02 -2.81454265e-01 -1.14166074e-01 -1.08790295e-02 +3.96715989e-03 -5.63680492e-02 -1.18988462e-01 +9.20221359e-02 +9.15971398e-03 +3.35183628e-02 +1.13753743e-01 +2.02267736e-01 +8.57998133e-02 -1.43537521e-02 +1.25331372e-01 -1.49217576e-01 +1.41164303e-01 -1.35101303e-01 -1.61450937e-01 +2.35521227e-01 +5.98711781e-02 +1.44925401e-01 -2.27253705e-01 +5.26558906e-02 +1.45102590e-01 +1.28888145e-01 -9.71643403e-02 -2.08819211e-01 -1.04818635e-01 -1.08997598e-01 +6.71813712e-02 +4.29941028e-01 -8.53451639e-02 -1.11959569e-01 -6.25039637e-02 +1.98966205e-01 +1.45793870e-01 +4.88766670e-01 +1.96275502e-01 +1.40339330e-01 -1.27092585e-01 -1.75770968e-02 -2.83325259e-02 -1.29472673e-01 -4.27965261e-02 +9.30554122e-02 -1.00744300e-01 -9.32273120e-02 -1.64451748e-01 -1.34573117e-01 +2.03631267e-01 -7.07667843e-02 +1.75146431e-01 -9.89707038e-02 -3.45888138e-01 +2.32739866e-01 -3.55081737e-01 +3.40524733e-01 +1.44165799e-01 +1.48725614e-01 -5.73638864e-02 +1.86096579e-01 -1.53660700e-01 -6.67096749e-02 -5.15284277e-02 +2.29912903e-02 +2.22982988e-02 -2.65707318e-02 +3.77215520e-02 +8.32597911e-03 -4.71360125e-02 +2.93007568e-02 +7.85101503e-02 -5.19167446e-02 +4.75200973e-02 +1.22303948e-01 +1.65577739e-01 -1.03068359e-01 -2.86171157e-02 -6.45596832e-02 +6.79101199e-02 +5.58438264e-02 -1.53076306e-01 +2.18568951e-01 -1.67431962e-02 +2.50111610e-01 +1.12915598e-01 +9.18515474e-02 -1.49889901e-01 -7.62963668e-02 +2.92876060e-03 -9.59536284e-02 -8.06592181e-02 -1.79487132e-02 +3.51610258e-02 -2.35150278e-01 -1.42257074e-02 -1.16062559e-01 +1.01343915e-02 -1.76205397e-01 +1.18953682e-01 -2.41793264e-02 +9.70772877e-02 -1.95175428e-02 -2.25049723e-02 +1.87849730e-01 -5.50574027e-02 -1.79053947e-01 +3.13191265e-01 +2.03717172e-01 +1.74606770e-01 -2.91452497e-01 +1.59902975e-01 -9.65867937e-02 +2.19149292e-02 -1.49062365e-01 -9.95443910e-02 -1.86138988e-01 -1.13046080e-01 -8.50927383e-02 -1.54377863e-01 -1.02933727e-01 +7.76874796e-02 -1.17721356e-01 -4.96166646e-02 -1.74465582e-01 -1.63976744e-01 -2.48454660e-01 +3.20679158e-01 +2.00441808e-01 +1.34742275e-01 +3.76999900e-02 -1.31683692e-01 +1.05107263e-01 -1.16180159e-01 +1.24295548e-01 -2.01715514e-01 -1.60495564e-01 +2.94199228e-01 +3.90750259e-01 -1.80082873e-01 +9.64803621e-02 -1.28985122e-01 -4.97023612e-02 -1.97649077e-01 +8.21927041e-02 -9.34029445e-02 -9.61776227e-02 -1.85095578e-01 +1.55392960e-01 +2.26734161e-01 -2.26242065e-01 -1.42954051e-01 -1.12658907e-02 -3.09160184e-02 +1.27806505e-02 +1.55523643e-02 +7.32206255e-02 +5.49687818e-02 -1.44722030e-01 +8.81464556e-02 -6.94599003e-02 +9.07895938e-02 -4.66522537e-02 -5.89372739e-02 -2.92484373e-01 -3.09425831e-01 +1.53257862e-01 -1.67418718e-01 -2.57994831e-02 +1.40479267e-01 +1.14385374e-01 +3.22066307e-01 +1.63149275e-02 +4.08920020e-01 -1.31570712e-01 -2.38563009e-02 +4.40522060e-02 +6.21742941e-02 -7.48457089e-02 +1.58914417e-01 -1.69405024e-02 -2.20427945e-01 +6.13263667e-01 -5.80029795e-04 +2.74173021e-01 +1.09622166e-01 +5.56677222e-01 -6.78930506e-02 +8.59635249e-02 -1.54225573e-01 -9.74465460e-02 +7.32173473e-02 +1.06780976e-01 -1.67516112e-01 -3.86601724e-02 -1.18464202e-01 +1.28821224e-01 +3.34150672e-01 -1.32449970e-01 -2.04193830e-01 +4.29315120e-02 +1.95731103e-01 -1.94076940e-01 +4.49206531e-01 +8.03588927e-02 +3.98387313e-01 +2.67854661e-01 -2.88616508e-01 +5.17516017e-01 +9.80001837e-02 -1.48746476e-01 +1.05600901e-01 +2.16573805e-01 -4.64244068e-01 -4.08441514e-01 +1.75127592e-02 +5.17623603e-01 -1.25651076e-01 -1.41188055e-01 +7.37414956e-02 -1.61243647e-01 +1.14895582e-01 -1.30651698e-01 +3.11161410e-02 -4.02432114e-01 +4.47390638e-02 -2.82276481e-01 +1.38731182e-01 +4.07715030e-02 +3.67817104e-01 +2.53292695e-02 -3.71170565e-02 -5.51691949e-02 -3.51642780e-02 -1.77139834e-01 -3.42635764e-03 -1.26568258e-01 +3.18038948e-02 +2.50101388e-01 +1.44512415e-01 +1.83634549e-01 -1.17715023e-01 +1.90188304e-01 -4.01829302e-01 -3.97026073e-03 -1.05783388e-01 -1.32290021e-01 -9.95589346e-02 -1.28834233e-01 +8.95709470e-02 -4.41615544e-02 -5.53400889e-02 -8.68423283e-02 -1.15666121e-01 +7.98546895e-02 +1.36110932e-01 +3.13854963e-01 -1.25922561e-01 +9.94860977e-02 +7.47167394e-02 -1.93602473e-01 +3.97951871e-01 +7.21084103e-02 +2.24856749e-01 -1.92362256e-02 +1.32150808e-02 -1.99520200e-01 +4.51896265e-02 +7.52818733e-02 +2.18744725e-02 -6.39869794e-02 -1.25442326e-01 +9.10206437e-02 +2.19196677e-01 -4.85768259e-01 -4.48806971e-01 -1.72892854e-01 +2.40779474e-01 -3.50351691e-01 -4.87191945e-01 +1.66297510e-01 +5.71010038e-02 +5.33116400e-01 -1.56712875e-01 +1.02659881e-01 -1.36946976e-01 -9.45521146e-02 +2.73347646e-01 +7.49973580e-02 +8.42611715e-02 +1.08491890e-01 -1.59391135e-01 -3.43361385e-02 -3.48527819e-01 -1.64418012e-01 +4.04655263e-02 +3.99695188e-02 -2.44557019e-02 -9.47868973e-02 +2.70206779e-01 +9.28433146e-03 +2.21865177e-01 -2.52064615e-01 +2.24486813e-02 +1.32793099e-01 +1.51997298e-01 -1.12750577e-02 +3.00645471e-01 -1.17927715e-02 -1.48802742e-01 +2.50056982e-01 -3.51940319e-02 +1.52080599e-02 +2.85932511e-01 +2.76490211e-01 +1.78266019e-01 +2.18126997e-02 -4.38322462e-02 +2.89851632e-02 -1.22490272e-01 +5.33693098e-02 -4.25591804e-02 +1.79404497e-01 +4.87534255e-02 -4.41403911e-02 +1.59885392e-01 +6.89333528e-02 -3.32736939e-01 +2.18737721e-02 -1.46908686e-01 -2.70108487e-02 +2.20057353e-01 +1.14301011e-01 +2.74735183e-01 +6.25688583e-02 -1.47374153e-01 +1.48126394e-01 +3.59880216e-02 +3.00413013e-01 -4.03134301e-02 +4.00911905e-02 +1.55646309e-01 -5.19866347e-02 -7.48722479e-02 +3.74016374e-01 +3.50914523e-02 +7.60813281e-02 +1.12591632e-01 -1.24348693e-01 -2.31913961e-02 -4.33190614e-01 +9.38269868e-02 -4.45491940e-01 -1.05801262e-01 -2.80329078e-01 +3.49397250e-02 +6.92168251e-02 +2.59939998e-01 -1.57433361e-01 -1.82671592e-01 +1.46977112e-01 -8.03390592e-02 -1.18997000e-01 +2.74462104e-01 +9.72348452e-02 -1.68775413e-02 +2.61881133e-03 +6.34361356e-02 +1.42097309e-01 -1.08251162e-01 +3.09941471e-02 -2.11800456e-01 +5.33172935e-02 +1.16211483e-02 +8.60229433e-02 +4.27865535e-02 +4.51349048e-03 +1.13726966e-01 -9.00498480e-02 -2.23919773e-03 -1.12427928e-01 +1.69882551e-01 -1.61104515e-01 +6.51253061e-03 +3.13807242e-02 -1.69750929e-01 -3.44056115e-02 -4.89344485e-02 -1.17886119e-01 -5.05573191e-02 -2.46843286e-02 -1.40848890e-01 -2.20156256e-02 +4.99619208e-02 +3.31278592e-02 +4.66211401e-02 +6.02147095e-02 -4.71590012e-02 +1.43566625e-02 -2.20401958e-01 +1.34961069e-01 +1.35206714e-01 -2.71415859e-01 -3.28180879e-01 +1.21209092e-01 +1.17645495e-01 -2.60387808e-01 -1.55472741e-01 +2.95495354e-02 +1.58561170e-02 +1.80878550e-01 -1.55640971e-02 -1.33594260e-01 +6.00736514e-02 -4.06988263e-02 +4.92168404e-02 +7.53587410e-02 +1.94354936e-01 +1.38112038e-01 -6.66549802e-02 -2.24084452e-01 -1.19332440e-01 -1.39367692e-02 -5.89411445e-02 +1.08136319e-01 -2.34540775e-02 -1.36155605e-01 +1.57890305e-01 -1.33639708e-01 -1.54446468e-01 -8.25777575e-02 -9.35085714e-02 -7.94197097e-02 +9.21852514e-02 +9.99757499e-02 +8.94357339e-02 -5.85054755e-02 -9.59367678e-02 -5.80432564e-02 -1.42121047e-01 -1.47820383e-01 +7.61747137e-02 +6.26162589e-02 +1.03916034e-01 +1.75142154e-01 +1.11836493e-01 +3.49524915e-02 +8.73303562e-02 -6.31903708e-02 +4.71055135e-02 +1.76620707e-01 +2.83015043e-01 +2.26004645e-01 -3.14159214e-01 +4.16092016e-02 -2.01824978e-01 -1.40156239e-01 +3.25171165e-02 +2.92050000e-02 -8.36100653e-02 +1.67810336e-01 -9.66198463e-03 -2.07124040e-01 +1.00494474e-01 -1.82327598e-01 -2.59266347e-02 +2.44783208e-01 -2.04367280e-01 +1.09064363e-01 +1.16718873e-01 +2.84667403e-01 +3.66251078e-03 -1.38953060e-01 +1.29063998e-03 -1.67706516e-02 +6.13731798e-04 -7.85221383e-02 +8.27220157e-02 -1.35697797e-01 +2.73810234e-02 -6.97715506e-02 -6.96435804e-04 +6.06544456e-03 -3.63743156e-02 -2.83001631e-01 -2.96913665e-02 +4.76375176e-03 +1.61514968e-01 +5.51767796e-02 +9.43079591e-02 +4.63579930e-02 -8.11009482e-03 +2.60047585e-01 +1.13610141e-02 -3.40262800e-02 +3.77889699e-03 +8.07219371e-03 +1.35412499e-01 -1.42964274e-01 +5.65933436e-02 -1.44584015e-01 -1.44360214e-01 -9.73003432e-02 +5.91683947e-02 -8.50051045e-02 +8.00503790e-02 -1.31492987e-02 -2.45668113e-01 -2.40135625e-01 -9.31025576e-03 -1.58551350e-01 +1.61840856e-01 -1.20246477e-01 -7.40982443e-02 +6.46794308e-03 +7.65959993e-02 -3.96205112e-02 -1.74526155e-01 +4.13032249e-02 -4.07744795e-02 +7.12767765e-02 -1.93390856e-03 +2.44823724e-01 +2.90002301e-02 -5.61300553e-02 +7.97426105e-02 -3.14102136e-02 -8.66944343e-03 +1.37829170e-01 +1.30205909e-02 +6.96868747e-02 +2.71450095e-02 +1.72988728e-01 -6.03097677e-02 +1.72118291e-01 +2.24782094e-01 +1.95373923e-01 -2.34792978e-01 -1.59366757e-01 +2.63921842e-02 +1.29418328e-01 -7.04498962e-02 -2.93791257e-02 -2.58701742e-02 -6.37476519e-02 +1.78669229e-01 -6.12501614e-02 +3.20491828e-02 -2.48098657e-01 +1.49688628e-02 -9.16562602e-02 -1.51956022e-01 +1.22436792e-01 +1.46355778e-01 +9.08207968e-02 +5.39630316e-02 -6.12785779e-02 -5.50797395e-03 +5.85088991e-02 -8.32497701e-02 +1.70328747e-02 +1.05072051e-01 -1.33199424e-01 +1.44308656e-01 +9.41608101e-02 +1.01050988e-01 +5.59950769e-02 -5.34263924e-02 +2.14323819e-01 -1.75098971e-01 +2.79504284e-02 -2.64937997e-01 +9.08327773e-02 -4.47725691e-02 -5.70255071e-02 +1.57509968e-01 +1.26645342e-01 +4.39732969e-02 +1.37873786e-02 -1.01759814e-01 +2.30554715e-02 +1.70334563e-01 -9.47890282e-02 -2.20457688e-02 +5.19709960e-02 +1.48983762e-01 +6.14001453e-02 -8.18108171e-02 -1.46530896e-01 +1.35022206e-02 -8.28344896e-02 -8.22445154e-02 +6.60420954e-02 +9.57014337e-02 -8.88026804e-02 -9.17626470e-02 +2.43209332e-01 -9.88487154e-02 -8.75782371e-02 +1.01859547e-01 -6.92950785e-02 -1.49427548e-01 -6.43154308e-02 -2.61886697e-02 +8.60456899e-02 +1.60993904e-01 +1.89945161e-01 +1.02557056e-01 -3.15639265e-02 -3.13688815e-03 +1.12839840e-01 +2.37100527e-01 -7.61217475e-02 +1.56979516e-01 -1.04724512e-01 +2.22804993e-02 +1.79345146e-01 -6.82279021e-02 +3.07431743e-02 -1.00877993e-01 -1.86308786e-01 +1.25197202e-01 +1.07984886e-01 +1.15862817e-01 +6.63975254e-02 -1.43021986e-01 +1.76256821e-01 -9.52819064e-02 +1.70343250e-01 +1.14049045e-02 +2.14942116e-02 +7.32491836e-02 +1.86327249e-02 +2.69430466e-02 +6.47021341e-04 +1.77459747e-01 -6.18224440e-05 -1.41583726e-01 -1.44083634e-01 -4.57812734e-02 +1.36965662e-01 -5.70133850e-02 -8.35233461e-03 +1.11691374e-02 -1.29905045e-01 +1.40891388e-01 -1.68045517e-02 +9.26130265e-02 +1.05436206e-01 -1.67838186e-01 +6.86909854e-02 +3.04528438e-02 -1.35239372e-02 +2.59571318e-02 -9.22968239e-02 -1.53633922e-01 -1.53066844e-01 -1.64429229e-02 -9.03993994e-02 +4.04988276e-03 -1.39461875e-01 -5.97102158e-02 +5.31648137e-02 -1.62501395e-01 -6.19781055e-02 -3.19974683e-02 +1.84046607e-02 -1.05397157e-01 -1.31260008e-01 -8.01433343e-03 +1.80324867e-01 -1.10955670e-01 +6.75479770e-02 -1.14654720e-01 +4.20270897e-02 +1.06129199e-02 +2.73577660e-01 -1.15912110e-01 +1.63233597e-02 -6.30118186e-03 +4.49284278e-02 +1.36103749e-01 +3.82467592e-03 +1.55419499e-01 -2.83532077e-03 +1.42140895e-01 +2.80509330e-02 +4.19188989e-03 -7.91252181e-02 -8.51617530e-02 -1.34246022e-01 -6.80139512e-02 +1.62468389e-01 -3.06040138e-01 +3.29429179e-01 +3.28307077e-02 +3.89986873e-01 +6.11344017e-02 +4.67794657e-01 -5.31665802e-01 -1.29369825e-01 -4.13954675e-01 -2.45595314e-02 -1.19505733e-01 +1.30229920e-01 +7.65281841e-02 -1.27386898e-01 -1.61146950e-02 -7.88762942e-02 +2.08563700e-01 -9.31849703e-02 +5.17892372e-03 +4.45964374e-02 -1.52342217e-02 +2.57607810e-02 +3.20037156e-01 -1.04139358e-01 +3.46682131e-01 +2.61432379e-01 -3.86509478e-01 +2.45187551e-01 +3.83331031e-02 +8.68106708e-02 -7.26175532e-02 +3.53996992e-01 -2.08836466e-01 -3.20154428e-01 -6.25249296e-02 +1.98964313e-01 +1.79390367e-02 +7.68093318e-02 +4.82644682e-04 -5.77365514e-03 -1.37797266e-01 +3.73382866e-01 +2.99731251e-02 +9.94574465e-03 +6.87253028e-02 -2.98772097e-01 +5.51107109e-01 -6.42649531e-02 +4.85928133e-02 +5.69316279e-03 +3.25814411e-02 +1.46632224e-01 -2.72791903e-03 -1.20438725e-01 +6.53391629e-02 -4.41942304e-01 -1.09253405e-02 +2.36730464e-02 +4.40422446e-01 -1.57938987e-01 -6.92065135e-02 +1.28116280e-01 -3.18795830e-01 +1.56408682e-01 -9.14595723e-02 +6.02462292e-02 +1.04773104e-01 -9.94487330e-02 +1.43608123e-01 -1.92696434e-02 +3.45245413e-02 +7.04263598e-02 -1.41220003e-01 -1.15634657e-01 +1.66543946e-01 +3.16408187e-01 -1.55009758e-02 -7.21279383e-02 +8.46566707e-02 +7.79454559e-02 +2.23579705e-01 +1.82636634e-01 -7.81031623e-02 -1.63115591e-01 +1.98895838e-02 -1.47480899e-02 -1.48006111e-01 -7.16898590e-02 +5.84527850e-02 -2.72848845e-01 +2.54328810e-02 +1.07216671e-01 -1.60106555e-01 -2.65160769e-01 -2.17996940e-01 +1.60426140e-01 +1.25430763e-01 -3.34735990e-01 -2.46259257e-01 -3.81349772e-02 +8.15128982e-02 +3.38388652e-01 -7.16333762e-02 -4.51223552e-02 +7.56343156e-02 -8.94571468e-02 -2.34378073e-02 -5.16811199e-02 -1.29421532e-01 +1.07265934e-02 -1.20454893e-01 +3.75745177e-01 -1.49542391e-01 -9.35417265e-02 +1.25722066e-01 +1.44080162e-01 -1.82386506e-02 +1.66418150e-01 -7.65578821e-02 -9.62876230e-02 -1.77238867e-01 +2.30751187e-01 -1.37788588e-02 -7.97768906e-02 +4.77758013e-02 +4.91253287e-02 +1.44353390e-01 +4.40543219e-02 +1.84535190e-01 -2.78801888e-01 +2.46806648e-02 -1.58970803e-01 -8.74049142e-02 -2.48244837e-01 +1.79495916e-01 -8.42327625e-03 +2.92039126e-01 -2.14097649e-02 +1.76438659e-01 -1.34260058e-01 +7.36837159e-04 +3.17939073e-02 -5.66476211e-03 +1.54736534e-01 -1.42721355e-01 +6.54942915e-02 -5.73055372e-02 -3.93432863e-02 +1.65482432e-01 +3.86824459e-02 -1.23351090e-01 +1.48442551e-01 -6.72463626e-02 -6.67627603e-02 +1.84913442e-01 -8.77663642e-02 -1.60299838e-02 -7.65453130e-02 +1.22771129e-01 -2.95551866e-01 +1.33420110e-01 +2.29878098e-01 -5.14490902e-02 -5.29323705e-03 +1.23574235e-01 -1.39789417e-01 -5.51058212e-03 +4.16508913e-02 +1.36258975e-01 -1.56357199e-01 -1.41838118e-01 +1.16190754e-01 +1.67695060e-01 +1.21227220e-01 -3.33573461e-01 +3.49577814e-02 -2.00670436e-01 -6.35004640e-02 -2.84449439e-02 -2.19739825e-01 +1.41924396e-01 +1.82079434e-01 +9.33017302e-03 +1.20707974e-01 -1.30543008e-01 -1.89954266e-01 -3.50525141e-01 -1.08215593e-01 -5.04175946e-03 -2.36977950e-01 +5.11273518e-02 +5.70277646e-02 +2.97806673e-02 -1.12208389e-01 +1.26206160e-01 -1.31601959e-01 +4.50091362e-02 -6.11548461e-02 -1.41760316e-02 -1.32380411e-01 +1.13018546e-02 +9.88742709e-02 -1.24653570e-01 -1.98068753e-01 -1.02107339e-01 +9.72050875e-02 -2.03421991e-02 -4.70792176e-03 -1.98687449e-01 -1.21543920e-02 -1.01945691e-01 +4.36542481e-02 -3.56369056e-02 +7.00670704e-02 +2.03963265e-01 +1.33715898e-01 -6.59494177e-02 +1.49960682e-01 +2.55778253e-01 -6.64322898e-02 -1.27708688e-01 +7.82277137e-02 +1.47237659e-01 -3.05731613e-02 -2.25424543e-01 +2.33393475e-01 -4.17384431e-02 +4.29011509e-02 -3.74586135e-02 -8.90031923e-03 -7.66902417e-02 -1.43944342e-02 -1.26887679e-01 -9.79728401e-02 -3.91661040e-02 -1.09977964e-02 -5.20038493e-02 +2.19834056e-02 +8.99845269e-03 -3.67383077e-03 +1.56841427e-01 -5.05072102e-02 +3.85479792e-03 -1.27566546e-01 +1.09411247e-01 +2.86016241e-02 +2.15929106e-01 -3.21378484e-02 -6.54626545e-03 -7.41547048e-02 +5.05616628e-02 -1.00968163e-02 +4.75714654e-02 +8.65101293e-02 +1.01512186e-01 +1.46593690e-01 -2.08193898e-01 +2.08283402e-02 -1.12679236e-01 +2.09730253e-01 +1.88282892e-01 +3.87301408e-02 -1.50713772e-01 +2.23574042e-03 +2.46227579e-03 -4.33915518e-02 -8.88753906e-02 +3.64654288e-02 +1.49751063e-02 -2.87760589e-02 -6.52446374e-02 +6.52379468e-02 +7.28868470e-02 +2.89659272e-03 -5.39383255e-02 -1.06136829e-01 -1.00082263e-01 -4.87133674e-02 -5.28884344e-02 -6.75228983e-03 +3.37530971e-02 +2.43960265e-02 -1.77600473e-01 +1.34554669e-01 -1.95892379e-01 -6.05640635e-02 -6.16238154e-02 +2.42723599e-01 -6.67287409e-02 -7.46775344e-02 -2.74919361e-01 +3.02693266e-02 -6.90216348e-02 +6.63782805e-02 +1.16769142e-01 +2.00274795e-01 -3.07470262e-02 +1.04589611e-01 +2.07625240e-01 -8.31986070e-02 -1.79428175e-01 +6.22120164e-02 +2.13952586e-02 -1.19747603e-02 +1.59314036e-01 -6.18823916e-02 +1.36641040e-01 +9.68520343e-03 +5.51323034e-02 -1.99863479e-01 +8.57233927e-02 +3.50473337e-02 +8.02788138e-02 +7.12089315e-02 +2.53244013e-01 +8.17937404e-02 +9.27960575e-02 +6.00088090e-02 -1.07522525e-01 +1.34538367e-01 -3.98109592e-02 +2.11218014e-01 -4.12113443e-02 +9.82892141e-02 +2.53641397e-01 -1.37526467e-01 +1.53690755e-01 +7.30464049e-03 +3.08955889e-02 -1.40587538e-01 +2.06723779e-01 +2.41581008e-01 +3.10373772e-02 +5.21056950e-02 +4.01855707e-02 +1.04752146e-01 +1.63899973e-01 +6.71340823e-02 +3.18574086e-02 +5.51646426e-02 +1.58566117e-01 +1.14550807e-01 +1.60376485e-02 -7.86223933e-02 -8.67006853e-02 -1.27647758e-01 +2.03132443e-02 -4.70473571e-03 -3.86519618e-02 -1.30633131e-01 +1.57640781e-02 +2.39100792e-02 -3.65292914e-02 -1.42773092e-01 +4.95949984e-02 +4.55909222e-02 -1.09381281e-01 +1.27609640e-01 -2.99101323e-02 -1.28489703e-01 +9.71102417e-02 +1.59784839e-01 +1.19387418e-01 +1.52651668e-01 +1.13188609e-01 +2.36832574e-01 +2.50746179e-02 +2.47035369e-01 -1.29571036e-01 +6.43967390e-02 -2.77103521e-02 +4.93693054e-02 +2.06304826e-02 +1.11285508e-01 +5.39350212e-02 -1.68424666e-01 +1.07001595e-01 -1.80082902e-01 -1.40345648e-01 +1.37768388e-01 +1.66858628e-01 +1.19805112e-01 +1.45646989e-01 +1.63267061e-01 +1.51771940e-02 +2.97712743e-01 +7.72084668e-02 +1.42039493e-01 +1.12303220e-01 +3.31822000e-02 -3.47482353e-01 -8.18350725e-03 -1.36232674e-01 +1.05387732e-01 -7.29004294e-02 -9.78949219e-02 -7.69103244e-02 +1.16905244e-02 +1.47921234e-01 -1.04617335e-01 +1.12326801e-01 -8.00420269e-02 +1.23500369e-01 -1.40987277e-01 +1.09501049e-01 -9.95200425e-02 +1.01454809e-01 -7.19803646e-02 +2.05325171e-01 +2.13356718e-01 -5.88595942e-02 +2.16361389e-01 +1.61348581e-02 +1.46398712e-02 -5.06631322e-02 +3.03973436e-01 -1.87478885e-01 -7.40082115e-02 -2.43217754e-03 +2.20617920e-01 -8.59641433e-02 +1.92620438e-02 +1.27085313e-01 +5.99725731e-02 -1.31640896e-01 +4.09115285e-01 +4.08275910e-02 -1.56292453e-01 -2.53591299e-01 -2.71588080e-02 +1.74134299e-01 +1.38908878e-01 +1.52470618e-01 +1.96162552e-01 -1.07349165e-01 +1.27728865e-01 -2.88871732e-02 -4.53231931e-02 +7.18045607e-02 -4.46201622e-01 +3.43991667e-02 +2.96881169e-01 +1.54027641e-01 -9.86701436e-03 +6.49220720e-02 +1.36975244e-01 -1.01920515e-01 +1.04186364e-01 -1.19127646e-01 +1.74096882e-01 -4.35365625e-02 +3.92235518e-02 +1.33821726e-01 -7.03163072e-02 +2.05165356e-01 +2.21332848e-01 +6.13376573e-02 -1.15581259e-01 -1.34457067e-01 +1.17474779e-01 -6.74259523e-03 +1.14689386e-02 +7.41584674e-02 +9.96668935e-02 +1.49291113e-01 +8.46398249e-02 -4.78874566e-03 +3.73161919e-02 -1.02422483e-01 +3.14364843e-02 -1.09350421e-01 -6.38906434e-02 +8.05236027e-02 -3.90745774e-02 -1.79428220e-01 -1.75764427e-01 -3.50969061e-02 -2.21436494e-03 -6.79066628e-02 -7.24802986e-02 +1.62710920e-01 -3.88392620e-02 -1.18869938e-01 +1.03627644e-01 +1.16157793e-01 -5.74284792e-03 +9.66694802e-02 +1.08937033e-01 -7.89838210e-02 +3.02714467e-01 -6.16585352e-02 +3.60420682e-02 -1.29551351e-01 +1.04415894e-01 -3.73870879e-02 +4.41639483e-01 -1.37464004e-02 +7.36623630e-03 -1.37225360e-01 +1.06015086e-01 +1.67773031e-02 +1.01105295e-01 -2.65541404e-01 +2.32654750e-01 +6.14679158e-02 +2.72992551e-01 -8.35603327e-02 -2.14956030e-01 -1.46373184e-02 +2.79738978e-02 -3.00051924e-02 -5.18372469e-03 +2.17004135e-01 -1.41683474e-01 +6.99673295e-02 -1.63234547e-01 -2.18948424e-01 +4.22132462e-02 +1.01460271e-01 +9.02564824e-02 +1.56431630e-01 -4.42204550e-02 -3.35904881e-02 -1.31176651e-01 -1.24750763e-01 +2.86986589e-01 +8.51898789e-02 -2.41380204e-02 +1.22214593e-01 -2.33968068e-02 +1.04373321e-02 +1.82238951e-01 +1.04657657e-01 -5.64095005e-02 -1.67655751e-01 +1.35210201e-01 -5.03801554e-02 +4.34255973e-02 +1.51257291e-01 -1.16522215e-01 +4.33049798e-02 -6.45616129e-02 -3.54644954e-02 -1.96076438e-01 +1.17226727e-01 -1.97271872e-02 +2.51075387e-01 -5.10939909e-03 +3.03498089e-01 -1.01797864e-01 -5.92845418e-02 -1.40169695e-01 -2.56515518e-02 -1.32025674e-01 -1.01803459e-01 +1.49464294e-01 +7.95868412e-02 -4.13490273e-02 -7.53356963e-02 +1.22462712e-01 -7.73735419e-02 -4.45238017e-02 +1.47017151e-01 -7.16375560e-02 +1.26325563e-01 +1.44376783e-02 -1.12889782e-02 +2.57806271e-01 -3.46510530e-01 -1.09959267e-01 -1.97375089e-01 +2.75759138e-02 -1.29636183e-01 -6.28303960e-02 -1.42372062e-03 +3.15986462e-02 +1.91641767e-02 +8.64811838e-02 +9.82218459e-02 -1.29276770e-03 -7.87125230e-02 -1.07345805e-01 +3.25353642e-04 -1.06099226e-01 +7.48977857e-03 +9.66728404e-02 +5.89497667e-03 -2.38837972e-01 +9.73337591e-02 -1.41484618e-01 +1.67111129e-01 -1.03115968e-01 -8.41663126e-03 +8.35096315e-02 +6.97752237e-02 +1.15958475e-01 -7.52819404e-02 +4.17470261e-02 +1.12372786e-01 +1.35244220e-01 -9.89582464e-02 +2.88042933e-01 +1.94225907e-01 +2.62762122e-02 +1.57639965e-01 +3.38009410e-02 -1.67349931e-02 +4.07788008e-02 -1.41447186e-01 +8.56615324e-03 -4.66659442e-02 -1.16106726e-01 -2.11069249e-02 +2.43201610e-02 +3.95739041e-02 -8.69245902e-02 +6.07423335e-02 -1.73598021e-01 -1.67118460e-01 +2.05321591e-02 +8.83608758e-02 -1.88193783e-01 -1.40328422e-01 -1.28185287e-01 +1.28613040e-01 -1.31676316e-01 -5.11247246e-03 -1.14898071e-01 +6.30172342e-02 -1.53536931e-01 +2.94652339e-02 +4.36428599e-02 -4.02504578e-02 -1.81985065e-01 +8.75659436e-02 +9.31240842e-02 +1.07924767e-01 -1.20898232e-01 -1.07321881e-01 +3.63917090e-02 -2.69661486e-01 +1.01491809e-01 -2.09148169e-01 +2.64586955e-01 +1.44499362e-01 +2.14206949e-01 -5.62052056e-02 +3.32967788e-02 -2.63337046e-01 +1.05587021e-02 +1.24134183e-01 -7.01824352e-02 -1.63447008e-01 +8.46108571e-02 +3.07204202e-02 -6.30348250e-02 +1.53337538e-01 +5.98928332e-02 -1.31771892e-01 -8.67318958e-02 +9.16930735e-02 -1.02983147e-01 +1.85847878e-01 +6.46930262e-02 +1.72004506e-01 -6.19363338e-02 -6.69769049e-02 +2.24495262e-01 +6.95264712e-02 -2.90494598e-02 +1.71375826e-01 +2.34116226e-01 +9.07117873e-02 -2.34561693e-02 -1.59709856e-01 +1.49451688e-01 -1.69385284e-01 -1.69394240e-02 -1.29608527e-01 +1.15368292e-01 -6.31400719e-02 +2.43646186e-02 +2.00038686e-01 +2.03931183e-02 -2.35980079e-02 -1.17974639e-01 +1.40269116e-01 +7.75178373e-02 -5.89871258e-02 +1.91180930e-02 -1.20574929e-01 +1.61240146e-01 +4.33811881e-02 -1.65081173e-01 +1.86089039e-01 +5.07994518e-02 -1.28288820e-01 -1.77704487e-02 +1.01502784e-01 -1.26413912e-01 +7.87614435e-02 +2.15665922e-01 -1.57055706e-01 -1.63775831e-02 -6.49264976e-02 -7.05031976e-02 +1.19051099e-01 -1.52584687e-01 +2.29822546e-01 -1.99800124e-03 +8.79511833e-02 -9.22031980e-03 -7.98172690e-03 -1.04166329e-01 +2.53532916e-01 -8.70841146e-02 +2.01664586e-03 -3.56906503e-02 +4.76491489e-02 -1.11962683e-01 -8.54009315e-02 -1.81795701e-01 +7.46070892e-02 +9.05280784e-02 +7.14345416e-03 +1.05788469e-01 -1.04023539e-01 -4.16668840e-02 -1.05976183e-02 -2.35841963e-02 -1.10201642e-01 +3.82392369e-02 -8.33089650e-02 -1.63920298e-01 -1.69436380e-01 +8.70989114e-02 +2.08796691e-02 -3.11227918e-01 -1.88455712e-02 -3.01410463e-02 -1.02445200e-01 +6.99147806e-02 +1.28760204e-01 -1.57643706e-01 -9.25275162e-02 -6.29708543e-02 -4.72767092e-02 -1.79151729e-01 -4.44119610e-02 +2.18924135e-01 +1.15013845e-01 +6.81649894e-02 -1.02208957e-01 -9.43804383e-02 -1.03380039e-01 +1.68330185e-02 +6.83413073e-02 +9.40332785e-02 -2.10814878e-01 +8.71645883e-02 -6.41409680e-02 +8.92320555e-03 +1.69394240e-01 -1.66965917e-01 -3.94095108e-02 +1.48557261e-01 +1.05966054e-01 +6.03546463e-02 +1.00453041e-01 -1.28529090e-02 +1.68853715e-01 -1.71235919e-01 +1.26983970e-01 -1.40808359e-01 -1.07508816e-01 +6.66354317e-03 +8.48653018e-02 -1.55092895e-01 +4.02726009e-02 +5.17560579e-02 -8.96481681e-04 -1.65354177e-01 -7.55367354e-02 -1.26290813e-01 +2.55269166e-02 -1.25590250e-01 +6.33570552e-02 -1.24401338e-02 -4.71837260e-02 -6.88420236e-03 -1.09926447e-01 -1.15895964e-01 -3.18651497e-02 +1.75906807e-01 +7.49776587e-02 -1.24818832e-01 -4.06182818e-02 -3.89508232e-02 +2.34040156e-01 -1.38717115e-01 -1.04240566e-01 -2.57431949e-03 +1.11517757e-01 +2.05547020e-01 +9.58428308e-02 -9.82354134e-02 +1.54677555e-02 -5.52937873e-02 -1.47004843e-01 -5.63214868e-02 -2.91701347e-01 +1.03408404e-01 +2.32215032e-01 -1.11449599e-01 -1.06951505e-01 -9.64592844e-02 -1.07900901e-02 -7.76129439e-02 -2.35345047e-02 +5.82117885e-02 +8.83573219e-02 +1.05415724e-01 +3.20574678e-02 +2.15998087e-02 -5.80073223e-02 +1.37056872e-01 -2.28023142e-01 +1.12750821e-01 -9.59811136e-02 +7.22484067e-02 +9.76198688e-02 +1.71318993e-01 -3.83619629e-02 +2.07841992e-02 -3.99164408e-02 +1.43554702e-01 -9.10137147e-02 -9.11121815e-02 +3.44792083e-02 -8.87579769e-02 +2.05235735e-01 +1.26224279e-01 -2.17445031e-01 -5.00303358e-02 -1.34930745e-01 +1.08660005e-01 +8.52186829e-02 -6.71022460e-02 -2.23101787e-02 -8.41087922e-02 +1.39924780e-01 +1.53543547e-01 +6.31392673e-02 -1.52454808e-01 +4.81486581e-02 -2.03103535e-02 -5.51111586e-02 +4.56944741e-02 +1.05276585e-01 +5.60102761e-02 +8.12109336e-02 +1.53471962e-01 +2.91939247e-02 -2.43017240e-03 -1.79876566e-01 -1.14360854e-01 -1.11946009e-01 +9.45839062e-02 +1.90524787e-01 +3.27270590e-02 +1.01020224e-01 +1.45649686e-01 -9.47278142e-02 -1.58117503e-01 -1.48424163e-01 -6.98649734e-02 -4.85349447e-02 +4.51394618e-02 -9.69012752e-02 +1.20961450e-01 -7.04975501e-02 -5.34653328e-02 +1.22056633e-01 +9.00032297e-02 +1.41371787e-01 -3.27102840e-01 -4.08058874e-02 -1.53703138e-01 -1.66636676e-01 -3.28638442e-02 -1.58578157e-01 +8.63034800e-02 -4.30531837e-02 -2.69593075e-02 +1.03658885e-01 -1.26351520e-01 -3.10915679e-01 -5.58542013e-02 -2.48148218e-01 +3.15058649e-01 -7.23309591e-02 +8.87185857e-02 -1.31292135e-01 -3.81874107e-02 -2.68982172e-01 +1.76409427e-02 -9.98938903e-02 +3.53828035e-02 -2.51100231e-02 +2.61274546e-01 +1.90022245e-01 -7.93261230e-02 +3.32726836e-02 -7.55111352e-02 +2.75785893e-01 -1.01046572e-02 +8.16284195e-02 -1.48515120e-01 +1.44338831e-01 -2.16748044e-02 -1.95321231e-03 -2.33490835e-03 -1.51036665e-01 +1.02616936e-01 +2.42028497e-02 +1.62957132e-01 -1.28794342e-01 +4.06266183e-01 +5.09254858e-02 -2.07844734e-01 -1.54402763e-01 -9.41302702e-02 -7.87760168e-02 -6.00501448e-02 +7.64352307e-02 -2.48378445e-03 +9.44537669e-02 +9.51546654e-02 +1.47602603e-01 +9.56778508e-03 +2.69023497e-02 +1.71341509e-01 +2.08174959e-01 -5.80009706e-02 +1.59304067e-02 +9.79217887e-02 -9.00665075e-02 +3.80419903e-02 +2.45723873e-02 +1.11938097e-01 +8.63539577e-02 +3.26453783e-02 -2.60340452e-01 -1.99183330e-01 +3.88832569e-01 -5.17846718e-02 +2.61586700e-02 -6.49800152e-03 -1.03438914e-01 +6.14294223e-03 +5.76037215e-03 -1.07908972e-01 -3.64802368e-02 -5.07436357e-02 -1.12036597e-02 -4.70250510e-02 +1.58098936e-01 +8.72622877e-02 +9.43267532e-03 -2.04799220e-01 +2.29548097e-01 +8.42808932e-02 +1.32625028e-01 +9.42283049e-02 -1.22504026e-01 -5.57067357e-02 +7.13273436e-02 +1.23106666e-01 -1.13938041e-01 -2.34028362e-02 +3.80717993e-01 +2.06630021e-01 -1.53320253e-01 +1.33504067e-02 +1.64726283e-02 -1.16982281e-01 -2.09634881e-02 -9.08175558e-02 +1.27572089e-01 -6.85289204e-02 -6.94679795e-03 +1.99497074e-01 +9.59032103e-02 -7.94590935e-02 +1.53246611e-01 +1.56501811e-02 -7.96073303e-02 +6.76282719e-02 -1.18970275e-01 +9.53254476e-02 +3.86478789e-02 -5.97436279e-02 -4.95574884e-02 -9.93899480e-02 -1.57221869e-01 -6.97764903e-02 +6.12053350e-02 -1.31304160e-01 +6.21944182e-02 +1.72656909e-01 -1.33759826e-01 -4.55520414e-02 +6.06181584e-02 -8.41262415e-02 +1.57660961e-01 -7.52416253e-02 -5.95955178e-03 -9.42509994e-02 +1.76106300e-02 +6.82706982e-02 +3.44737321e-02 -6.48672059e-02 +1.08360797e-01 +1.11673944e-01 -3.53821397e-01 +1.97416291e-01 -1.51352093e-01 +2.65491098e-01 -9.27509740e-02 +2.34906614e-01 -2.20698148e-01 -2.81594694e-02 -1.46941170e-01 -1.46874413e-01 +6.53213635e-02 +2.07757339e-01 +7.18260407e-02 -5.91077879e-02 +2.02879518e-01 -4.94443476e-02 +4.70804889e-03 +4.94468622e-02 -5.95423020e-02 -1.57292530e-01 +2.06121970e-02 -7.36664459e-02 +5.91908470e-02 -5.36947548e-02 +1.99917227e-01 +9.57710594e-02 -8.87874886e-02 +1.16681829e-01 -8.42213705e-02 +2.22165942e-01 -2.25659415e-01 +3.39804858e-01 +8.28033984e-02 -2.03419596e-01 -3.31889093e-03 +8.16796571e-02 +5.78872347e-03 +9.83261392e-02 -3.06450855e-03 +1.17075227e-01 +1.32441327e-01 +5.20956963e-02 -5.18924072e-02 -4.24703620e-02 -1.15709797e-01 -4.61517610e-02 +2.54957020e-01 +9.54270288e-02 +2.18752146e-01 +1.28875181e-01 +3.37516777e-02 +1.67985827e-01 +4.98891398e-02 -1.24510452e-01 -3.34182121e-02 -4.11586910e-02 +7.59496763e-02 +1.73039529e-02 +3.44824642e-01 +7.88935795e-02 +2.74370480e-02 -9.57022421e-04 -2.47954056e-01 +5.19218855e-02 -1.67033210e-01 -7.42410717e-04 -1.60039097e-01 +1.04272760e-01 -9.44431871e-03 +6.76659867e-02 +4.92219813e-02 -7.15680346e-02 -1.29984990e-01 -9.94882137e-02 +1.83401182e-01 +1.06817894e-01 +1.37865101e-03 -2.40940928e-01 -1.32807747e-01 +2.73388461e-04 -2.92113405e-02 +3.77574190e-02 -3.68029401e-02 -9.74042937e-02 +2.03663990e-01 +1.52147844e-01 -1.10442743e-01 +1.63159713e-01 +1.71097219e-02 -3.40971857e-01 +1.79329459e-02 +1.40974209e-01 -1.27456173e-01 -4.77269143e-02 -1.68910801e-01 +1.88466713e-01 -2.86308732e-02 -2.04434454e-01 -1.26509264e-01 -2.59037819e-02 +1.29051926e-03 +2.02537775e-01 -8.44447091e-02 +1.08272927e-02 +1.34115174e-01 +4.53714766e-02 -3.70393991e-02 +5.24803139e-02 +3.92758474e-02 +3.34830321e-02 -1.44487098e-01 -5.86292446e-02 -6.12715967e-02 -2.94368211e-02 +1.44908756e-01 +1.60185650e-01 -1.11806095e-01 +3.57903033e-01 -3.27835411e-01 +1.41979605e-01 +3.61854509e-02 +2.40315706e-01 -2.75947321e-02 -9.16957930e-02 -2.09680155e-01 -1.24722183e-01 +2.71539930e-02 -1.23836830e-01 +2.40688369e-01 -6.40384480e-02 +2.71377832e-01 -6.53245375e-02 -1.33373693e-01 -2.15921834e-01 +2.03061458e-02 -1.95102721e-01 +2.61511028e-01 -1.29950289e-02 -1.24073654e-01 -4.46144566e-02 +3.44446003e-02 -1.13075390e-01 -1.58211604e-01 -3.47631834e-02 -2.18631141e-03 -4.39462215e-02 -7.63433799e-02 -9.27408338e-02 -7.64386877e-02 -9.87007469e-02 -2.19173163e-01 +1.01362906e-01 -2.50041634e-01 -1.53925627e-01 +2.58366436e-01 +2.72901375e-02 +1.66198015e-01 -1.53507292e-02 +1.26218414e-02 -3.19084227e-01 +5.09923398e-02 +1.54116303e-01 +2.00269058e-01 -5.89104295e-02 +4.58548442e-02 +7.63091072e-02 +3.22206765e-02 -1.66875973e-01 -9.10192803e-02 +9.47981775e-02 -2.28746191e-01 +2.13498384e-01 -1.96002554e-02 +4.88342494e-02 -1.68654338e-01 -2.59069484e-02 -1.76702380e-01 -1.34200767e-01 -1.33186812e-02 +6.88812369e-03 -1.48992568e-01 +2.85539806e-01 -3.96669865e-01 -4.62631322e-03 -1.53948426e-01 +6.82473509e-03 -3.69697064e-01 +5.45556135e-02 -1.78281948e-01 -1.84846371e-01 +6.34079203e-02 +5.83318397e-02 +5.14482195e-03 +8.14118981e-02 +2.92678829e-02 -1.42378954e-03 -3.36063296e-01 +1.02156214e-01 +1.14380464e-01 +6.58369064e-02 +8.53584707e-02 +2.45852694e-01 -4.28408086e-01 -2.90772140e-01 +8.30362663e-02 +7.13878125e-02 -5.58904745e-02 -1.84624597e-01 -5.30627323e-03 -6.67996407e-02 +1.37094542e-01 +5.21641076e-02 -2.10600331e-01 -3.30450870e-02 +3.93966883e-02 +3.39951366e-02 -8.34694281e-02 +1.18140802e-01 +1.78376347e-01 -1.17717490e-01 +7.62227252e-02 +1.24078132e-01 +3.36663388e-02 -3.05079699e-01 +1.69557221e-02 +2.47006789e-01 +2.59368092e-01 -1.36097789e-01 +1.26942530e-01 -1.76875934e-01 -1.27686813e-01 +3.53410318e-02 +7.70896822e-02 +1.06143899e-01 -7.65581429e-02 +1.10256448e-01 -8.01548436e-02 +2.83877365e-02 -1.69383809e-01 +1.24978265e-02 -4.51892950e-02 -1.99211821e-01 +6.08004183e-02 +1.03158318e-01 +6.53719902e-02 +1.19725220e-01 -9.72621441e-02 +9.66883302e-02 +7.78770745e-02 -3.66042480e-02 +1.66563436e-01 -3.06744277e-02 -2.64926720e-02 +1.03993870e-01 -1.63990453e-01 -3.13218459e-02 +1.30277425e-01 -3.97947617e-03 -1.73795111e-02 +2.42265791e-01 -1.72974765e-01 -5.39744049e-02 -3.32293838e-01 +5.15216403e-03 -2.71879107e-01 -2.73938552e-02 +1.08277731e-01 +9.64503139e-02 -1.54362783e-01 +2.39618853e-01 -1.08670555e-01 -1.68305755e-01 +7.31476694e-02 -1.88905001e-02 +2.06091747e-01 +1.22517198e-01 +5.32873385e-02 +4.61004004e-02 +8.92061070e-02 -9.04771835e-02 +2.07504898e-01 -7.41610005e-02 -3.01245190e-02 -7.48077175e-03 +8.36902633e-02 -1.07272297e-01 +5.13105392e-02 +2.10363731e-01 -2.53715403e-02 -2.30431687e-02 +1.58572197e-01 +1.77234095e-02 +3.55542630e-01 +1.54196605e-01 +4.00779918e-02 -1.76431760e-01 -1.39513671e-01 -1.85985446e-01 -1.47338420e-01 +1.15783714e-01 +1.14672631e-02 -2.12996632e-01 +2.62783051e-01 +1.43284813e-01 +4.90185730e-02 -1.18291102e-01 +9.84385461e-02 +2.91366819e-02 +3.96134332e-02 -8.21174830e-02 -1.36022955e-01 -6.01329170e-02 -1.11472487e-01 -4.09288667e-02 +1.45560548e-01 +5.49071357e-02 +1.19834375e-02 +9.28291082e-02 +4.63482663e-02 -1.12266876e-01 +1.51000479e-02 -1.26126513e-01 +4.27025817e-02 -1.21254526e-01 +1.95873287e-02 -7.03962594e-02 -4.18938361e-02 +8.11512396e-02 -5.54092452e-02 +1.48202315e-01 -2.96631875e-03 -7.32271820e-02 -2.71231923e-02 +1.14135034e-01 +1.41313240e-01 -1.19931020e-01 +1.04123689e-01 -2.34719887e-02 -5.12204729e-02 -2.99246442e-02 -1.89228654e-01 +7.17017874e-02 +1.20091617e-01 +7.09930062e-02 -4.15060185e-02 +8.72647911e-02 +1.45475328e-01 -1.87700465e-02 -3.92971113e-02 +7.54464511e-03 +1.32056803e-01 -3.45803685e-02 -1.09090500e-01 -1.43931955e-01 -1.52752593e-01 -4.43517342e-02 -3.82425636e-02 -8.86497349e-02 -1.52169064e-01 +7.66831934e-02 -1.77786518e-02 -1.45881578e-01 +6.00487851e-02 +1.61568463e-01 +4.01338302e-02 -2.89524794e-01 +2.73539796e-02 +8.07040632e-02 +1.68789938e-01 +3.69551294e-02 +1.55091971e-01 +7.65351206e-02 +1.53872967e-01 -1.32612512e-01 +3.41301620e-01 -5.07184155e-02 +1.15922317e-01 -1.60129681e-01 -1.22790225e-01 +3.80284823e-02 -2.67647598e-02 -1.33528383e-02 +1.86832994e-01 +1.81933418e-01 -2.64914185e-01 +2.08884627e-01 +5.03625199e-02 +1.69011578e-01 +2.52789855e-01 +2.42371380e-01 -4.83425520e-02 +6.61166459e-02 -2.10485458e-01 -1.06324531e-01 +9.42754298e-02 +6.45442903e-02 -7.41823763e-02 +1.20419534e-02 +4.67521250e-02 -3.26812565e-02 +1.79798365e-01 -1.20510831e-01 -2.52329946e-01 -2.18434930e-01 -4.32491675e-03 +2.04263106e-02 +2.65670300e-01 +4.95080203e-02 +1.90531805e-01 -1.16471432e-01 -1.47171810e-01 +1.94239929e-01 -1.75841257e-01 +2.26187229e-01 -8.46029893e-02 +6.73186481e-02 -9.40706655e-02 +1.93896051e-02 -1.39173165e-01 +1.05323352e-01 -3.06432247e-01 -8.96227136e-02 +6.39265999e-02 +1.55723229e-01 +7.92546943e-03 +4.23953719e-02 +4.23512816e-01 -2.70042680e-02 -1.84361637e-01 -1.86381102e-01 +1.77732389e-02 -2.18980715e-01 +2.06325293e-01 +2.29502358e-02 +7.23954141e-02 +1.52180254e-01 -8.10227916e-02 -1.77739650e-01 +3.40631753e-02 -2.00940803e-01 +8.44342448e-03 +3.18267077e-01 +2.44597062e-01 +4.57499437e-02 +8.76196995e-02 +1.22066759e-01 -2.65480161e-01 +1.02555536e-01 +6.98814169e-02 -4.36800299e-03 -9.41486582e-02 -1.11637577e-01 +3.11138272e-01 -2.01085433e-02 +2.91788783e-02 -1.16525792e-01 -1.02169313e-01 -5.22942394e-02 +1.84991807e-01 +2.13294983e-01 +1.34317666e-01 -1.50410041e-01 -1.07001044e-01 +1.24598332e-01 +1.95340775e-02 -8.36502314e-02 +5.33534326e-02 -1.14756403e-02 +2.15472490e-01 -1.05494827e-01 +9.24081448e-03 +5.83950058e-02 -3.24265063e-02 +8.83032233e-02 +4.19638567e-02 +1.20267004e-01 -1.60927892e-01 -3.01604331e-01 -1.51518441e-03 -5.15797399e-02 +2.98351906e-02 -2.26142839e-01 -2.54501700e-02 +3.06284130e-01 -7.10948482e-02 +1.92483306e-01 +6.64786398e-02 +3.11179236e-02 -6.81653321e-02 -2.80721635e-02 +1.14048287e-01 +2.15520579e-02 +2.85282377e-02 +3.00751418e-01 +1.24126792e-01 +1.62111446e-01 -1.22245140e-01 +8.21495280e-02 +6.04798719e-02 +6.74095005e-02 -5.12545556e-02 +2.56144822e-01 -1.29389361e-01 -9.15300474e-02 +1.64280776e-02 +5.54781780e-02 +1.34683251e-01 +1.19218044e-01 -1.76895663e-01 -9.96663868e-02 -6.43127486e-02 -3.17787826e-02 +1.25331461e-01 -1.63061440e-01 -2.94438228e-02 -6.06786758e-02 -1.98899299e-01 +8.35497528e-02 -2.02556744e-01 -1.51682988e-01 -2.45414495e-01 +1.39811225e-02 -6.03854582e-02 -8.65705311e-02 -3.93593237e-02 -1.09198213e-01 -1.93494558e-01 -2.38885209e-01 +6.71095997e-02 -2.50834793e-01 +3.43377404e-02 -1.34961009e-01 -9.61155295e-02 -7.24437460e-02 +1.23900911e-02 -1.06090300e-01 -9.87935588e-02 +3.47412080e-01 -8.07763636e-03 -3.84129696e-02 +8.21279883e-02 -1.11774445e-01 +1.40311420e-01 +5.94906583e-02 -2.84452021e-01 -2.38691255e-01 +2.55507082e-01 -1.21663049e-01 -1.29019022e-01 -1.89826638e-01 +1.69261038e-01 +1.24073640e-01 -6.08636774e-02 +2.07360629e-02 -5.38969159e-01 +1.01589806e-01 -1.23143226e-01 +2.99288034e-02 +1.77682549e-01 +3.00235450e-01 -3.05851758e-01 +1.27062917e-01 -1.14447422e-01 +1.21198766e-01 +9.89727825e-02 +2.42083043e-01 -7.26794899e-02 -1.70410976e-01 +1.56579152e-01 +1.35159388e-01 +1.18338941e-02 -5.50118135e-03 -2.29658303e-03 +3.14901441e-01 -5.03216498e-02 +2.12340981e-01 +1.04763128e-01 +9.92782116e-02 -5.64662814e-02 -5.42164370e-02 -2.80674726e-01 -1.78423271e-01 +9.05973315e-02 +8.34259987e-02 +1.34537682e-01 +8.83582681e-02 -1.35991991e-01 -6.44984916e-02 -1.71434715e-01 +4.92090732e-02 -1.21023141e-01 -1.71350777e-01 +1.29872739e-01 +2.06182804e-02 +2.63003204e-02 -1.08376391e-01 -1.98904946e-01 -2.36144379e-01 -9.97801870e-02 +1.63822230e-02 -3.66459601e-02 +1.43736243e-01 +6.57053441e-02 -1.87449843e-01 -9.64309089e-03 +1.62474625e-02 -5.56596480e-02 -6.97925761e-02 -6.34551942e-02 +4.53075580e-02 -5.27931191e-02 -3.09173693e-03 +2.65181690e-01 +2.58429791e-03 +2.76354216e-02 -7.25628287e-02 -1.53009802e-01 +8.18946138e-02 -9.26317181e-03 +1.62703127e-01 -1.31477624e-01 +4.97676767e-02 +1.10906035e-01 +1.00106716e-01 +1.29940808e-01 -1.05135487e-02 +1.58702537e-01 +1.08915403e-01 -1.96611181e-01 +1.06388116e-02 +1.32770419e-01 -1.59307122e-02 +2.16987684e-01 +6.73668133e-03 +2.50290781e-02 +7.27049112e-02 -9.86733213e-02 +4.28262018e-02 -1.35871887e-01 -4.68817577e-02 +1.23899586e-01 +1.72842219e-02 +1.67385906e-01 -6.59021661e-02 -6.12908788e-02 +1.66197345e-01 +9.08769146e-02 +6.33338913e-02 -1.07825533e-01 +7.13683292e-02 +1.72500581e-01 +1.77679941e-01 -1.25382423e-01 -1.00587420e-01 +1.96109228e-02 +2.93975119e-02 +3.20562124e-02 +1.21944427e-01 -1.53097689e-01 -7.27808699e-02 +3.08445618e-02 +3.30806486e-02 -4.92405966e-02 +9.85664949e-02 -6.34201244e-02 -2.47807708e-02 +8.43795165e-02 +8.34589377e-02 +4.48990837e-02 -1.79499492e-01 -1.43912695e-02 +6.52789921e-02 +3.86692211e-02 +1.39298499e-01 +1.93545133e-01 +5.17971776e-02 +1.82774529e-01 +8.31481628e-03 -3.12908255e-02 +9.28570405e-02 -5.15858084e-02 -1.06366329e-01 -7.26691633e-02 -1.96626216e-01 +2.30332881e-01 -7.87064657e-02 -1.67390034e-02 +5.65081127e-02 -8.52978602e-02 +5.88501198e-03 +1.07416930e-02 +9.18512642e-02 +5.12923077e-02 -1.28403470e-01 +9.71859507e-03 -2.46504396e-02 -2.42057219e-02 -5.27541265e-02 -6.70833439e-02 +1.31295159e-01 -1.99248850e-01 +6.60964549e-02 -1.59322530e-01 -3.26064741e-03 +1.00468688e-01 -7.87937716e-02 +1.02004133e-01 -2.01814179e-03 -7.04451650e-02 +3.64257880e-02 +5.56366928e-02 -1.60251990e-01 +5.68130389e-02 +8.48239213e-02 -1.55902267e-01 +1.72098130e-02 -1.36839345e-01 -8.77797455e-02 -9.90762040e-02 -6.41041622e-02 -8.27355459e-02 +3.91037315e-02 +5.22339419e-02 +1.76866844e-01 -1.52123407e-01 -1.32263452e-03 +1.00492284e-01 -9.97195169e-02 -1.56609993e-02 +7.38053694e-02 +5.95812611e-02 +1.06220096e-01 +1.49710849e-01 +1.57459062e-02 -1.22907013e-01 +5.16578145e-02 -1.23120251e-03 -1.03264660e-01 +3.23147997e-02 -6.99972734e-02 -8.34806710e-02 -7.42701516e-02 -2.60086898e-02 -1.27423733e-01 -1.39587492e-01 -2.47725397e-01 -3.91650237e-02 +1.19394749e-01 +6.54331818e-02 -2.90749669e-02 -7.57281184e-02 -1.80557743e-02 -1.21155806e-01 +1.47802820e-02 -1.46107659e-01 +1.63159579e-01 -1.55219451e-01 +6.40271083e-02 -4.37857360e-02 +1.31882921e-01 +1.54270470e-01 +5.79073057e-02 +4.26454730e-02 -1.72725841e-01 -7.76253194e-02 +1.11432336e-02 +4.43145670e-02 -1.50768504e-01 +1.89476997e-01 -2.43623242e-01 +1.32197395e-01 -4.34612371e-02 +9.33569744e-02 -1.34572819e-01 -3.59201431e-02 -2.09281147e-01 +4.27183742e-03 +1.16042262e-02 -7.15706944e-02 +3.65081578e-02 -3.68588082e-02 +1.60766423e-01 -7.15249628e-02 -2.75179781e-02 -2.31818154e-01 +1.02634154e-01 +7.48566240e-02 +1.95129558e-01 +6.06870204e-02 +1.20585807e-01 -4.09366041e-02 +1.93823293e-01 -1.38231084e-01 -2.21678652e-02 +1.17422566e-01 -1.71876580e-01 -1.90478235e-01 -2.19502598e-01 -6.52419627e-02 -4.45445254e-02 +9.61432382e-02 +3.11136633e-01 +1.13076143e-01 -8.44988823e-02 +1.32348791e-01 -2.57331431e-02 -7.55177625e-03 -6.71800971e-02 +1.73330605e-01 -1.06456600e-01 -1.50987640e-01 -6.49395306e-03 +1.02763675e-01 +1.93524867e-01 +1.62448408e-03 +9.47543234e-02 -2.51093298e-01 +2.44846139e-02 -1.23667218e-01 +6.62633330e-02 -3.22788507e-02 +1.89427331e-01 -2.45358914e-01 +4.14330661e-02 +1.82778671e-01 +4.74070758e-02 -1.69147968e-01 -5.44230677e-02 -1.60409078e-01 -1.28009990e-01 +2.20927477e-01 +9.71291438e-02 -8.30686558e-03 -1.77289844e-01 -3.68010290e-02 +1.17198460e-01 -9.62692350e-02 -7.35354051e-02 -1.95166856e-01 -1.21996127e-01 -1.25945464e-01 +1.56889960e-01 -1.42436270e-02 -6.93291277e-02 -4.29949202e-02 +1.05002187e-01 -1.10025138e-01 +1.23537891e-02 -9.73729789e-02 +5.08230813e-02 +2.27712467e-01 +1.54651478e-01 -7.67596858e-03 -1.26545787e-01 +5.16222753e-02 +1.33759350e-01 -8.75177905e-02 +4.52197082e-02 -2.51775384e-02 +3.20454985e-02 -5.94862096e-04 +1.87652200e-01 -1.60253495e-02 -1.19240452e-02 +4.66910377e-02 +2.11835518e-01 +1.14994146e-01 +7.28937611e-03 +1.07064202e-01 +2.14271378e-02 -7.35729337e-02 +3.28555889e-02 -1.12017728e-01 -1.46273836e-01 +3.85713875e-02 +7.62307942e-02 -1.38695285e-01 -2.11612776e-01 -9.97691080e-02 -8.32578987e-02 -1.22334212e-01 -2.43713334e-02 -4.74995077e-02 +7.21992087e-03 +1.66316032e-01 +8.59430991e-03 +1.74240723e-01 +1.56348962e-02 +7.22368285e-02 -1.40354529e-01 -3.76633331e-02 +1.83228955e-01 +4.62893434e-02 +1.15724139e-01 +1.66426495e-01 +1.11436106e-01 -1.23725809e-01 +1.56691179e-01 +1.28656104e-01 -7.55327791e-02 +2.21821964e-01 -4.55274731e-02 +1.74612720e-02 +1.33917734e-01 -5.05641401e-02 -3.63191180e-02 +1.95122987e-01 +1.47615120e-01 -5.51555082e-02 -7.58382306e-02 +7.40246177e-02 +2.20859185e-01 -6.21864572e-02 +2.89338734e-02 -7.49528874e-03 -4.24344651e-02 +1.59885645e-01 -5.44072799e-02 +1.87613055e-01 +1.68299630e-01 +9.40102711e-02 -1.98011443e-01 +8.92844200e-02 -8.90590772e-02 -3.26922648e-02 +1.82586178e-01 +5.99611215e-02 -1.36736974e-01 +1.76563822e-02 -1.69913903e-01 -2.00844914e-01 +7.85155520e-02 -1.50203034e-01 +2.11161092e-01 -5.42626381e-02 +5.36268502e-02 -1.79423168e-02 -1.20772019e-01 +6.88846484e-02 -2.50042170e-01 -1.57332912e-01 -1.53851822e-01 +1.56227397e-02 -2.35034928e-01 +6.36174232e-02 -3.36701572e-02 +1.77624807e-01 -1.08128957e-01 -7.22213984e-02 -2.51069874e-01 +5.02080470e-02 -1.05470382e-01 -2.55140755e-02 +2.51056487e-03 +1.49130560e-02 -6.79206252e-02 +1.54552534e-02 +5.33330739e-02 -2.19564121e-02 +4.16518822e-02 -1.14717811e-01 -1.32005692e-01 +1.29577577e-01 +1.44162267e-01 +2.73355335e-01 -1.94499847e-02 -2.10915804e-02 -1.22426404e-02 -1.83646977e-01 -1.19635984e-01 +1.55801177e-01 +7.94478282e-02 -1.05901487e-01 +1.63949281e-01 +1.47372643e-02 +2.08708569e-01 -1.53689221e-01 +4.37909029e-02 -1.57026611e-02 +1.47658125e-01 -3.73399444e-02 +6.81637451e-02 -1.11940853e-01 +4.20838632e-02 -1.12268336e-01 +7.36483838e-04 -6.17186315e-02 +4.95280214e-02 -1.07459687e-01 +3.03874514e-03 -3.40955071e-02 +6.96011409e-02 +1.98410340e-02 -1.12559743e-01 +6.00272231e-02 -4.43795472e-02 -1.39770880e-01 +1.31003886e-01 +2.55469792e-02 -2.25138366e-02 -5.45284227e-02 -8.52665007e-02 +7.66191781e-02 -8.87421817e-02 +1.09980620e-01 +1.04055785e-01 +1.04368702e-01 -2.98796780e-02 -1.34332687e-01 +1.13695800e-01 -1.64358824e-01 -1.45314308e-02 +7.07158223e-02 +1.00347372e-02 +3.23768370e-02 -4.97851782e-02 -2.44023219e-01 -5.63817956e-02 -5.32533936e-02 -3.25668901e-02 +3.61289419e-02 +3.00786141e-02 -1.61626071e-01 -1.22748688e-01 -1.63236093e-02 -1.19396457e-02 -6.17691278e-02 +1.43028229e-01 -8.47043246e-02 +7.16125071e-02 -4.86621052e-01 -1.65128931e-01 -2.24034622e-01 -4.81766947e-02 +6.96552992e-02 -2.61213314e-02 -2.74267094e-03 -3.84992547e-02 -1.03789024e-01 -5.44327684e-02 +2.28706047e-01 +1.30957767e-01 +6.57499358e-02 -4.98380810e-02 +1.27714857e-01 -1.99053034e-01 -2.96437237e-02 -6.39041737e-02 +5.76654859e-02 +1.42259613e-01 -1.81671441e-01 +4.88303117e-02 -5.08395210e-02 -1.13414712e-01 -1.04293652e-01 +2.60948569e-01 -2.38105834e-01 -2.10203543e-01 -2.10482478e-01 +9.19364914e-02 -8.86237025e-02 +1.84626393e-02 +1.22301854e-01 +3.93091738e-02 +9.20978040e-02 +1.77967593e-01 -9.75759551e-02 +3.31923664e-02 +5.24887294e-02 +7.64841363e-02 +3.06489825e-01 +2.02717528e-01 +5.32419495e-02 +4.73644622e-02 -9.64995697e-02 +1.35708541e-01 -1.58792958e-01 -1.51139349e-01 -7.16618747e-02 -1.96220711e-01 +6.66148588e-02 +2.54609078e-01 +1.36210039e-01 -1.07415065e-01 +9.76282284e-02 +3.09615880e-01 +9.99385342e-02 +2.53955275e-01 -3.18884701e-02 +4.40951474e-02 -9.46208090e-02 +6.94022551e-02 -8.21394101e-02 +3.26799713e-02 -5.07935230e-03 -1.13380728e-02 +1.44569725e-01 -3.44069116e-02 -8.16496089e-03 +4.74926271e-02 +1.31999671e-01 +1.09756790e-01 +1.19749106e-01 +1.19633690e-01 +1.59454972e-01 -3.40952203e-02 +1.60168067e-01 -1.12382688e-01 -9.82127190e-02 -9.09084529e-02 -1.85672224e-01 +5.59235588e-02 +8.64718780e-02 -1.50419444e-01 -1.16357386e-01 +5.40871210e-02 -6.09305687e-02 +1.95266418e-02 +4.09999266e-02 +1.27648503e-01 -1.21590436e-01 -6.94670295e-03 -4.57732119e-02 -1.40317336e-01 +9.78523195e-02 +7.31436163e-02 +1.22719646e-01 -9.45963785e-02 +1.66264355e-01 +2.11722761e-01 -1.98742181e-01 -6.75612688e-02 -6.80333227e-02 +7.59621263e-02 -6.50187805e-02 +2.03827292e-01 +1.77855343e-02 +1.03974625e-01 +1.58266589e-01 -6.30984977e-02 +6.44060001e-02 -1.43234909e-01 -3.55468020e-02 -1.50255933e-01 +1.80839330e-01 -1.72478437e-01 -2.23568473e-02 +2.69755460e-02 -7.17800111e-02 -6.41318634e-02 +1.47588626e-01 +1.40229076e-01 -2.88845509e-01 +2.56520391e-01 -8.75763148e-02 +3.28680724e-01 +1.56915948e-01 +2.97271669e-01 -2.23216146e-01 -7.59740621e-02 -2.82072395e-01 +6.86859246e-04 -1.90265439e-02 -7.96315297e-02 -1.38621822e-01 -3.66158672e-02 -1.17862178e-02 -1.32214293e-01 +6.95971251e-02 +6.24802224e-02 -1.64315909e-01 +8.73237252e-02 -7.41467029e-02 -4.19935770e-02 +3.61664683e-01 -1.38680995e-01 +2.51515895e-01 +7.43295774e-02 -2.22597152e-01 +2.27170885e-01 +2.11185440e-02 -8.31392705e-02 -9.51325670e-02 +2.39150841e-02 +1.80974305e-02 -2.79465895e-02 +8.47502425e-02 +1.65844053e-01 -2.17273131e-01 +9.46061537e-02 -1.48097038e-01 -7.49875680e-02 +1.03743784e-01 +1.50684431e-01 +1.37764752e-01 -9.96137410e-02 +9.90263596e-02 +4.17889208e-02 +1.55549020e-01 +1.46094427e-01 +2.55889952e-01 +1.35316581e-01 +2.36790664e-02 +1.54536247e-01 +5.33763915e-02 +2.53376383e-02 +1.48658663e-01 -2.85723303e-02 +1.01707190e-01 -7.48308152e-02 +1.62514433e-01 -4.40895073e-02 +1.09397024e-01 +1.64072841e-01 +1.02836648e-02 +1.16579719e-01 -8.73587057e-02 +1.11006208e-01 -1.07269973e-01 +5.06862737e-02 -6.74980879e-02 -8.52348506e-02 +1.29747838e-01 +8.32979567e-03 -1.18627511e-01 -2.65966542e-02 +3.32545824e-02 +8.32302868e-02 -3.25001962e-02 -5.49345575e-02 -1.47213280e-01 +2.21491139e-02 +4.31441441e-02 -8.11309144e-02 +1.08624570e-01 -6.50605708e-02 +1.78799078e-01 +1.16315395e-01 -9.45652425e-02 +7.74864629e-02 +4.42736149e-02 -3.02737236e-01 -1.76366538e-01 -1.07184596e-01 -4.73216698e-02 -1.69298239e-02 -2.11782515e-01 +1.80111453e-01 +2.03873783e-01 +1.33516463e-02 +8.95730592e-03 +1.44770488e-01 -8.60098079e-02 -1.08907130e-02 +1.39815271e-01 -6.71861367e-03 -3.38971093e-02 +1.15896374e-01 +1.29544899e-01 -1.44502819e-01 +7.66862333e-02 +8.52918699e-02 -9.30686444e-02 +1.63893238e-01 -8.86230394e-02 +1.38135999e-01 -7.97979757e-02 +3.25192208e-03 +1.15513720e-01 -2.98421621e-01 +2.27577046e-01 +9.55577195e-02 +1.87906995e-01 -2.09416419e-01 +8.16045478e-02 +1.23685107e-01 +1.16631120e-01 -1.43263955e-02 +6.95146471e-02 +9.21720825e-03 -9.29123387e-02 +2.25677714e-01 -3.27843755e-01 +6.10748939e-02 +1.80940613e-01 +3.96426879e-02 +1.85568258e-01 +1.83914989e-01 +5.01201227e-02 -8.66739675e-02 -8.79654139e-02 -5.43776304e-02 -8.93167630e-02 -1.56342179e-01 +1.55163407e-01 -1.12486910e-02 +1.59696471e-02 +3.02382968e-02 -2.00524107e-01 +4.00697775e-02 +6.18183427e-03 +5.27789406e-02 +1.77677706e-01 +1.00732772e-02 +9.69045386e-02 +1.74462736e-01 -1.61894679e-01 +3.31159174e-01 -7.42412657e-02 +4.08213496e-01 -2.10769355e-01 -1.02927012e-03 +1.52773019e-02 +1.24368509e-02 -8.80664960e-02 +1.35195091e-01 -2.11133718e-01 +1.06366880e-01 -4.81637195e-02 -9.40400660e-02 -1.39894471e-01 -5.70846684e-02 +4.35793787e-01 -2.10119292e-01 -1.02356151e-01 -2.32811466e-01 -4.82489169e-02 -2.17233449e-01 +1.40204236e-01 +9.00740549e-02 -9.23915952e-02 +1.61000282e-01 -1.50011569e-01 -2.17388570e-01 +7.84758627e-02 +3.10714573e-01 -7.09911138e-02 +4.27368991e-02 +1.74471483e-01 -1.56955600e-01 -1.28689244e-01 +2.64327843e-02 -3.27889293e-01 -1.92223191e-01 +1.04187034e-01 -1.18779331e-01 -1.31057441e-01 +4.74036764e-03 +3.02375585e-01 -1.24023847e-01 +8.92493874e-02 +3.39162024e-03 -1.38463095e-01 -2.12169439e-03 +3.39689076e-01 +3.34928781e-01 -4.05493379e-02 +1.41922757e-01 -5.87521270e-02 -4.82285097e-02 -7.63085186e-02 -2.99019367e-02 -8.84091109e-02 -6.97180256e-03 +1.46733537e-01 +1.48966774e-01 +3.00974473e-02 +2.21976954e-02 +1.30576501e-02 