#Parameter# /UniLSTMSeqTransducer-f9f97dd0/_0 {256,300} 1228801 ZERO_GRAD
-7.10999370e-02 -2.70330366e-02 -1.81718543e-01 +3.07933893e-02 -2.43019443e-02 -2.18919627e-02 +3.43442634e-02 -1.91507898e-02 -7.05450848e-02 +1.47808254e-01 -4.32071323e-03 -9.84734297e-03 +3.46333012e-02 -1.61628872e-02 +3.52068990e-02 -7.35363141e-02 -8.54481384e-02 +3.80133092e-02 +1.10250257e-01 +5.40259387e-03 -1.65185645e-01 +4.89102351e-03 -3.45293842e-02 +3.10000032e-03 -5.57971466e-03 -3.99731249e-02 +1.31371230e-01 +1.34461328e-01 +8.16344917e-02 +9.77310985e-02 -1.22549161e-01 +4.19569798e-02 -3.00960988e-02 -8.71365219e-02 -6.45359084e-02 -5.12802191e-02 -4.27305177e-02 -1.47497758e-01 +6.81909397e-02 -4.38641645e-02 -2.84228642e-02 +3.41688693e-02 -1.62831530e-01 +9.59270671e-02 +2.29895078e-02 +8.39200169e-02 -4.76877466e-02 -7.19730631e-02 -1.21902861e-01 +5.00693917e-02 -1.24164544e-01 -8.16110522e-02 -7.00335652e-02 +3.61254960e-02 +1.06498167e-01 -2.06485868e-01 -1.45483404e-01 +4.29371223e-02 -3.97672616e-02 +5.51649518e-02 -1.05771035e-01 +3.67667787e-02 -5.58973104e-02 -8.81278887e-02 -6.05941117e-02 +7.99889490e-02 -7.13862181e-02 -1.28899261e-01 +8.22221562e-02 +2.81325951e-02 +9.72230881e-02 -8.76828209e-02 +7.88781792e-02 +9.10280123e-02 -1.36232287e-01 +1.77639738e-01 -2.24018633e-01 +1.03086874e-01 -7.61144608e-02 -1.04941726e-01 +2.86761429e-02 -6.21060245e-02 -1.14345387e-01 -1.88957587e-01 -1.08444944e-01 +1.64123893e-01 +8.53246152e-02 -2.71119475e-02 -1.75027490e-01 -1.07360177e-01 -4.20729443e-02 +5.66136949e-02 -1.87582895e-01 -1.26725286e-01 -5.84863797e-02 +4.46510129e-02 +2.16621812e-02 +1.57775555e-03 -4.96197976e-02 +1.08083285e-01 +9.65568796e-02 -9.03592184e-02 +6.29829019e-02 +8.23512003e-02 -1.77052096e-01 -6.34303987e-02 -6.56378344e-02 -1.73130054e-02 +1.13795012e-01 +3.57053205e-02 -1.51782436e-02 -1.02166310e-01 +1.13387518e-01 -1.42001599e-01 -2.00877767e-02 +1.93059415e-01 -1.31381243e-01 -1.77941129e-01 -2.25751847e-02 -1.70722380e-01 +7.77509734e-02 +1.05404288e-01 +4.24172245e-02 -4.35494725e-03 +4.92016040e-03 +1.69848297e-02 -4.18386422e-02 +1.23956650e-01 -1.20695584e-01 -1.81574762e-01 -6.55438527e-02 -7.89910629e-02 -1.50683448e-01 -1.36221379e-01 +8.67599994e-02 +1.86497852e-01 +1.13781825e-01 +1.62806928e-01 -1.82445914e-01 +3.39937173e-02 -8.16765130e-02 -7.63125196e-02 -1.65506616e-01 -2.33748004e-01 +2.43936237e-02 +6.92618489e-02 +3.13675292e-02 -1.54477358e-01 -1.27062380e-01 +1.61171518e-03 -1.80557400e-01 -2.10874174e-02 -1.30719483e-01 +2.21707880e-01 -3.98312919e-02 -6.96513802e-02 +2.87941564e-02 -1.37486219e-01 +1.00924186e-01 +2.24774018e-01 +1.31763890e-01 -2.19514384e-03 -9.23684835e-02 -2.06726924e-01 -1.19730182e-01 -8.31169412e-02 +1.58324521e-02 +1.83095366e-01 +6.65277466e-02 -5.18554859e-02 +4.23464850e-02 -2.02105995e-02 -6.49570227e-02 +3.08537409e-02 +1.41641311e-02 -1.64361462e-01 -8.93680081e-02 +4.06515859e-02 -2.32894227e-01 +5.25956936e-02 +8.16252977e-02 +3.86272334e-02 +5.42010926e-02 -3.87362279e-02 +2.85823513e-02 -4.95609269e-02 +1.79973483e-01 +8.09073299e-02 +2.95598377e-02 +9.50097144e-02 +1.40715376e-01 +1.07312001e-01 -8.56676698e-02 -6.31775567e-03 +2.82343496e-02 +6.01928309e-02 -7.20547587e-02 +1.22643530e-01 -1.00141622e-01 -8.07627439e-02 -2.19083913e-02 +2.39976928e-01 +1.12101878e-03 -2.58144028e-02 -7.02396780e-02 +2.12511253e-02 -4.73798960e-02 +8.78147259e-02 -2.54497733e-02 +1.12409294e-01 +6.66717067e-02 +7.03621060e-02 -5.85841201e-02 +2.31933664e-03 +6.01494918e-03 -8.60193074e-02 +5.29136360e-02 +3.32132727e-02 -9.26201046e-02 -6.95632845e-02 -6.81431368e-02 -1.81560233e-01 -6.99920654e-02 +1.36862770e-01 -4.85990793e-02 +7.43932500e-02 +1.11950926e-01 -4.45083193e-02 +2.32508451e-01 +3.49041112e-02 +4.68271337e-02 -9.34327170e-02 +1.88393399e-01 -1.07304052e-01 +1.96256563e-01 +5.47498874e-02 -8.45259726e-02 +1.52480051e-01 +1.11538395e-01 +6.45301193e-02 +4.08611670e-02 +1.00274034e-01 -1.51783794e-01 -5.18034250e-02 +1.47503754e-02 +1.34441048e-01 -3.86913493e-02 -1.31919578e-01 -1.73384398e-01 +1.09466732e-01 +3.89124230e-02 -5.52069843e-02 -6.40430897e-02 -8.59201774e-02 -1.28818423e-01 -1.89210206e-01 +3.25533301e-02 +2.73451116e-02 -1.43514246e-01 +9.50985029e-03 -2.31814981e-01 +1.86449066e-02 -8.74893889e-02 +1.05418237e-02 -8.93346146e-02 -3.89827847e-01 -1.55206457e-01 -3.72357666e-01 +8.59399885e-02 -2.02938765e-01 -2.50699878e-01 -8.44141096e-02 -1.62074372e-01 -3.23264062e-01 -1.12993769e-01 +4.60888743e-02 -2.12713704e-01 -2.69703448e-01 -7.89780021e-02 -5.47196493e-02 -8.63297954e-02 -2.84567863e-01 -3.82412970e-01 -1.28070995e-01 -2.66853571e-01 -4.10457671e-01 -1.62669837e-01 -2.27628380e-01 -3.08878839e-01 -3.22211087e-01 -1.79410681e-01 -7.92063922e-02 -1.75079480e-01 -9.04227048e-02 +8.96160584e-03 -2.22529724e-01 -3.95223647e-01 +1.00170054e-01 -4.32571739e-01 +4.62617539e-02 +1.49850130e-01 -3.39953564e-02 +3.11185094e-03 -5.25289252e-02 -2.79949903e-01 -1.37356207e-01 +2.53245905e-02 +5.90788461e-02 -1.07251946e-02 -5.35069667e-02 +8.98373872e-02 -2.10338682e-01 -2.07287759e-01 -6.89904466e-02 -1.16556352e-02 -2.74437785e-01 -4.96510953e-01 -5.99034987e-02 +7.13223666e-02 -2.89157152e-01 -1.00836810e-02 +4.87982854e-02 +3.51357460e-02 +4.21256088e-02 +1.02648325e-01 -8.83387923e-02 -6.80108964e-02 +3.14676404e-01 -1.53990582e-01 +3.52374345e-01 -6.31030351e-02 +4.68339890e-01 +1.78888217e-02 -4.67923991e-02 +5.64669818e-03 -7.17170238e-02 -1.20539397e-01 +6.58987612e-02 +1.03274390e-01 -1.51491970e-01 +2.12834440e-02 +1.17662333e-01 -1.27699137e-01 +5.09669678e-03 +1.25184536e-01 +2.08901450e-01 +3.26523125e-01 +1.15372837e-01 +4.98446375e-01 -3.85526359e-01 +2.16929495e-01 +1.03020698e-01 +1.60749301e-01 +1.96861044e-01 +1.98312670e-01 +2.20104471e-01 +4.78095114e-02 -1.11078046e-01 +1.54183418e-01 +3.28206688e-01 -1.19705960e-01 -4.56818193e-02 -1.09086551e-01 -1.49063393e-01 +1.47339702e-01 -4.24544849e-02 +1.61140040e-01 -8.56044665e-02 +3.69171947e-02 -1.69098303e-01 -5.37756495e-02 -1.24737062e-01 +9.20050666e-02 +1.84301525e-01 -5.17741479e-02 -9.36609507e-02 +3.84223238e-02 -1.42680779e-01 -1.10427722e-01 +3.55884172e-02 -6.51980266e-02 +1.73427984e-01 +2.83267170e-01 -1.96822099e-02 -4.57887799e-01 -3.79354268e-01 +1.66916355e-01 -1.97365820e-01 -1.61791027e-01 -1.26182333e-01 -3.71656299e-01 -3.45116556e-01 -1.75645873e-01 +2.87174046e-01 +8.03727191e-03 +9.02646184e-02 -5.46611287e-02 -6.36957958e-02 -7.50100538e-02 -1.82070583e-01 -6.59638643e-01 -2.16308549e-01 +6.89450800e-02 -1.06212623e-01 -4.23196912e-01 -1.34096548e-01 -4.61881846e-01 -1.27576455e-01 +4.84287627e-02 -2.23843455e-01 +3.51869434e-01 -2.45034158e-01 +4.95078832e-01 -5.63653886e-01 -2.81430304e-01 -4.40581858e-01 -1.05677091e-01 +4.91697993e-03 -1.28443509e-01 -6.96779937e-02 -1.00265391e-01 -1.77674815e-01 -2.52074867e-01 -2.08185300e-01 -1.55417114e-01 -2.98173517e-01 -3.99732947e-01 -2.92122036e-01 -1.12275802e-01 -4.25072521e-01 +1.13027014e-01 +6.44341186e-02 -1.41096925e-02 -1.91994399e-01 -4.56687897e-01 +6.23668134e-02 -3.95856112e-01 -3.21703672e-01 -9.04689953e-02 -2.57444292e-01 -2.35696763e-01 +2.09742233e-01 -1.82816446e-01 +1.97128858e-02 -2.44226992e-01 -4.06092167e-01 +3.49688739e-01 -1.72818229e-01 -1.02514602e-01 -2.49748072e-03 -2.81951666e-01 +2.13185713e-01 -2.70132460e-02 +1.58086106e-01 +1.74730629e-01 -4.26102459e-01 +1.21795334e-01 +2.49518335e-01 -9.62184444e-02 +1.36432886e-01 -9.89288986e-02 +3.57978493e-02 -1.45026624e-01 +6.07518069e-02 +8.33012685e-02 -2.43504629e-01 +1.28097728e-01 +1.82293709e-02 +4.07854468e-03 -1.01379782e-01 -6.88784197e-02 -1.44849673e-01 +1.72873989e-01 -2.63901889e-01 +3.02978694e-01 -6.91780150e-02 +2.94100642e-01 -1.82859078e-01 +1.97721407e-01 +5.01039214e-02 +1.67554721e-01 +1.83320597e-01 +3.54478881e-02 -9.56397429e-02 -5.71198761e-02 -7.32606277e-02 -1.30220816e-01 -3.18071216e-01 +2.67592072e-01 -9.66151133e-02 -7.12787872e-03 +9.08151194e-02 -1.78714290e-01 +7.49545246e-02 +1.19628742e-01 +8.38190503e-03 +1.42373860e-01 +1.79054946e-01 -6.62707612e-02 -2.29155034e-01 +5.34822941e-02 -1.62802741e-01 -2.70833343e-01 +1.79256320e-01 +7.31001645e-02 -9.01428163e-02 -1.91731413e-03 -1.38200477e-01 -2.33587017e-03 +2.52627671e-01 +5.32006612e-03 -6.16809651e-02 +1.23812139e-01 -8.70553702e-02 +4.10105661e-03 +1.42983675e-01 +3.83055657e-02 -5.65859349e-03 -2.79845726e-02 +4.05537151e-02 +3.13136987e-02 -2.49614846e-02 +6.34895861e-02 +8.34320039e-02 +3.37943770e-02 -6.27514869e-02 +2.07584165e-02 -1.32968232e-01 -3.52324918e-02 +2.38376632e-01 -7.97765404e-02 -8.25475752e-02 -1.52273223e-01 +5.29772937e-02 -8.15242827e-02 +3.63859348e-02 +1.04075052e-01 -8.60227570e-02 +6.35580048e-02 +4.32525687e-02 -1.35532226e-02 -5.76845519e-02 +6.70323521e-02 +2.06414625e-01 -4.51961346e-02 +1.89887092e-01 +9.23683047e-02 +1.60994932e-01 -1.21718697e-01 +2.21053008e-02 -8.55278149e-02 +4.14394587e-01 -5.05052023e-02 -1.42916858e-01 +1.15903258e-01 -8.95244777e-02 +2.69234143e-02 -1.77307785e-01 +1.52148217e-01 +1.76931247e-02 +1.78247597e-02 +1.39536470e-01 -1.40147120e-01 +8.22016131e-03 -1.09805360e-01 -1.48288915e-02 -1.78185999e-01 -1.80807168e-04 -4.73253876e-02 -5.87232076e-02 -1.14296839e-01 -1.65037680e-02 +1.70217559e-01 +9.15781930e-02 +5.84398136e-02 +1.90893084e-01 -1.72854681e-02 -5.11345379e-02 +7.25479946e-02 +6.11882657e-02 +2.04084039e-01 +1.02702901e-01 +1.96696848e-01 +1.56573609e-01 +1.04211345e-01 +1.59560308e-01 +2.48366684e-01 +7.33837411e-02 +1.92005202e-01 +1.90009847e-01 +5.93595617e-02 +1.24894306e-01 +5.43635078e-02 +2.25273237e-01 +2.49795824e-01 +7.73809627e-02 +1.74310163e-01 +3.63244534e-01 +9.55454484e-02 +1.81086734e-01 +2.90709943e-01 +6.87596500e-02 +5.86986616e-02 -7.45930662e-03 +1.59781620e-01 +1.06439441e-01 +1.14992611e-01 +1.44045562e-01 +1.47692576e-01 +3.27490598e-01 +2.26039097e-01 +3.07374865e-01 +1.05681166e-01 +1.78156689e-01 +6.51213154e-03 +9.86273881e-05 +1.33495405e-01 +3.53528172e-01 +2.75586575e-01 +1.35411173e-01 -4.75641787e-02 +2.09846541e-01 +1.41958371e-01 +1.53394803e-01 +2.60786325e-01 +3.10967982e-01 -3.97692062e-02 +1.07132517e-01 +1.85595855e-01 +1.64624915e-01 +2.11683229e-01 +4.41668123e-01 +1.86665073e-01 +7.52332732e-02 +8.22161809e-02 +6.92610964e-02 +2.27007955e-01 +1.71236366e-01 +2.82800227e-01 +9.47691649e-02 +2.05358163e-01 -1.42074764e-01 -5.24091907e-02 +4.67858687e-02 +3.38999867e-01 +1.70058131e-01 +2.79758215e-01 +4.87739742e-02 +1.41603589e-01 +1.52906507e-01 +1.24685913e-01 +2.49581203e-01 +1.52032718e-01 +5.25710918e-02 -1.70324191e-01 +1.13054201e-01 +9.46579725e-02 +2.34473407e-01 +1.11866839e-01 +2.14573428e-01 +7.62640759e-02 +2.35597163e-01 +7.35276788e-02 -5.91462049e-05 +1.28658921e-01 +4.32821624e-02 +1.76722690e-01 +2.16613188e-01 +1.07478827e-01 +7.64441863e-02 -2.31651869e-02 +2.50443459e-01 +3.69128138e-01 +2.03351960e-01 +3.19168270e-01 +3.21951509e-01 +1.46823093e-01 -1.18087372e-02 +4.20705341e-02 +3.83004129e-01 +2.17994198e-01 +1.59224093e-01 +1.64041564e-01 +1.91122830e-01 +7.21581504e-02 +1.95142969e-01 +2.52097875e-01 -9.67302695e-02 +2.93717951e-01 -4.06296998e-02 +1.56525359e-01 +1.13139391e-01 +2.95511764e-02 +2.97293186e-01 +2.46989727e-01 +2.12602243e-01 +1.62537783e-01 -7.68996775e-02 +2.11080372e-01 +4.44684699e-02 +1.64922282e-01 +1.53572991e-01 +1.97618946e-01 +1.95421159e-01 -2.39107475e-01 -6.02932796e-02 +2.13701911e-02 +2.57126600e-01 +1.72902286e-01 -4.56254780e-02 +2.22981170e-01 -1.11104444e-01 +5.84541187e-02 -1.10539822e-02 +3.00751049e-02 -6.93006590e-02 -4.98542190e-02 +3.48469913e-02 +3.35696228e-02 -2.41391268e-02 +1.08420886e-01 +1.60294876e-01 +1.79731846e-01 +8.97534415e-02 -4.61616367e-02 -9.33786854e-02 +2.76000828e-01 +2.13628747e-02 +1.99770376e-01 -8.63427296e-02 -1.19328257e-02 -3.10814887e-01 +8.24691132e-02 +7.35419169e-02 -1.81354389e-01 -1.36630729e-01 +1.09650351e-01 +7.07450807e-02 +1.58582494e-01 -1.74377084e-01 -1.78783070e-02 +1.49089068e-01 +7.18339607e-02 -4.65483069e-02 +7.68053755e-02 -9.85444710e-02 -1.27192944e-01 +1.04001082e-01 -1.35269240e-01 -3.04497350e-02 +1.13150321e-01 -8.24057013e-02 +6.60354868e-02 -2.42393598e-01 +5.17613515e-02 +7.02010244e-02 +2.06357509e-01 -8.82099643e-02 -1.65706888e-01 +8.24204534e-02 +2.95833439e-01 -6.40070438e-02 +2.23405268e-02 +8.99414122e-02 +1.40830934e-01 +1.91656068e-01 -7.81991780e-02 +7.22474158e-02 +2.35655829e-02 +1.92647696e-01 -1.02311932e-01 +5.61156049e-02 -1.09334096e-01 +5.21188043e-02 -5.90626486e-02 +2.62812003e-02 -1.45047368e-03 -9.05271545e-02 -1.12631455e-01 -6.40028566e-02 -1.05855815e-01 -9.32685845e-03 +1.29097134e-01 -1.19987391e-01 +1.06814042e-01 -2.13874783e-02 -1.12868518e-01 -9.35824439e-02 +9.95478705e-02 -1.91117615e-01 +1.97405040e-01 -5.04083671e-02 -3.22899073e-02 +1.32174864e-01 -1.28910199e-01 +2.36390159e-01 +8.30276757e-02 -2.06428722e-01 -7.16861784e-02 +6.41028732e-02 +1.35123447e-01 +7.08027780e-02 +9.92571563e-02 +6.51506856e-02 -1.02832243e-01 -4.79815826e-02 +5.68011999e-02 -1.03287185e-02 +1.52305648e-01 +7.93579519e-02 +1.25144437e-01 -1.17127024e-01 -2.83303428e-02 +1.75165221e-01 +6.30978961e-03 +7.77671039e-02 +9.19462293e-02 -1.70695364e-01 -4.54054549e-02 -5.36507703e-02 +7.83577710e-02 +1.43170863e-01 -5.66818602e-02 +3.32626820e-01 +1.51548088e-01 +1.00194253e-01 +8.92309099e-02 +1.38586730e-01 +1.86026543e-01 +5.24902456e-02 -1.14140317e-01 +8.96140486e-02 -8.72404501e-02 +1.13618791e-01 +2.16675848e-01 +2.71899819e-01 +1.59125373e-01 +8.72819051e-02 -1.33210957e-01 +3.19149315e-01 +5.00089154e-02 -2.76088327e-01 +5.02158850e-02 -4.00700048e-03 +1.32692859e-01 -3.65820713e-02 -2.65279412e-02 +5.58838658e-02 +2.06179351e-01 -4.86406274e-02 -5.52986339e-02 -2.27565896e-02 +3.33435996e-03 +2.46525556e-01 +2.14029014e-01 -7.02955648e-02 -4.91772965e-03 +6.75587729e-02 -4.09456789e-02 +5.10338601e-03 -2.82129999e-02 -3.75120156e-02 -7.38493181e-05 +2.15931982e-02 +3.57089713e-02 +1.20226264e-01 +2.37760004e-02 -3.73848647e-01 +3.99719737e-02 +1.06210545e-01 -4.66750488e-02 -8.88655633e-02 +1.03588320e-01 +2.64958479e-02 +1.63720638e-01 -3.37914303e-02 +1.15086652e-01 -5.52871972e-02 +6.74924850e-02 +9.42485929e-02 -6.94777817e-03 +1.33721784e-01 +1.75705776e-01 -3.10349435e-01 +1.27653256e-01 +9.45890918e-02 -3.80321927e-02 +4.65227127e-01 +9.51107964e-03 +1.13127483e-02 +5.92643693e-02 -9.36426222e-03 +1.37433454e-01 +2.75678039e-01 -9.03896540e-02 -5.69663979e-02 +2.01713234e-01 +1.57899007e-01 -2.23613262e-01 +3.55016172e-01 +1.45897567e-01 +1.44495457e-01 -1.05543748e-01 +4.16053116e-01 +6.16498776e-02 -1.80804878e-01 +1.19047098e-01 -1.43781781e-01 -1.06085017e-01 +1.74159646e-01 -3.16897146e-02 +9.10793468e-02 +7.01953024e-02 +1.32096276e-01 -6.86072111e-02 -1.32437229e-01 +2.26561755e-01 +7.92582482e-02 +4.78198200e-01 +2.87195653e-01 -1.28499672e-01 -2.92194132e-02 +3.12134102e-02 +4.39680427e-01 -4.09720391e-01 -3.10909543e-02 +2.14626789e-01 +7.83322901e-02 -8.01773518e-02 +1.12026893e-01 +4.83941361e-02 -6.28917813e-02 -6.42219484e-02 -1.05735533e-01 +7.29015768e-02 +1.35559931e-01 -2.84229796e-02 +8.39557648e-02 +8.56240373e-03 -1.28171101e-01 +1.45934194e-01 +1.57604337e-01 +1.31583229e-01 -1.54173365e-02 -1.86371133e-01 +7.83655699e-03 +3.58082533e-01 +6.59967586e-03 +8.09302330e-02 -1.66206732e-01 +5.39302193e-02 +2.37522766e-01 +1.89456135e-01 -4.84394468e-02 -1.65942803e-01 -3.03386431e-02 +2.28863478e-01 +1.59012824e-01 -3.54665607e-01 -1.06124453e-01 +8.80859718e-02 +8.49797428e-02 -7.10153803e-02 +1.50099948e-01 +1.37259275e-01 +1.95309669e-02 +1.21195391e-01 -3.19624245e-02 +1.04723103e-01 -2.23453149e-01 -5.05240541e-03 -1.55476049e-01 +6.92268685e-02 +7.84667488e-03 +1.10167272e-01 +7.45048299e-02 +1.47648945e-01 +1.00903057e-01 -1.12512574e-01 -3.34783122e-02 +1.23092711e-01 -1.32464781e-01 +1.56553602e-03 +6.63580969e-02 +2.10125349e-03 +2.71946400e-01 +1.13213426e-02 -7.78370202e-02 -1.42379841e-02 -5.29346652e-02 +3.36150639e-02 +1.35463001e-02 -3.22006829e-02 -7.99848363e-02 +1.20546758e-01 +1.44084513e-01 -9.36831608e-02 +6.28704950e-02 -5.48221171e-02 +1.93831384e-01 +8.84702951e-02 +6.85415119e-02 -8.07445124e-02 -3.80382920e-03 +3.05744708e-02 -8.73585790e-02 -6.24139644e-02 -2.90177986e-02 +7.38677084e-02 -4.36823852e-02 -2.60635559e-02 -3.04134423e-03 +1.17358923e-01 -5.86010814e-02 -1.16700448e-01 +1.14325829e-01 -5.39380759e-02 -1.06484115e-01 +3.96945290e-02 -4.97980714e-02 +1.58136025e-01 +9.81554538e-02 -1.53417468e-01 -7.58682862e-02 -1.75396219e-01 -1.92145035e-02 +1.59465253e-01 -1.62369404e-02 -3.91286612e-02 +1.56699985e-01 +1.15026057e-01 +3.30871530e-02 +9.33475196e-02 -1.65688042e-02 +1.37225643e-01 -8.63973647e-02 +1.95044130e-01 +2.06747949e-01 -4.73881476e-02 +2.31119674e-02 -3.01666604e-03 -7.22844750e-02 +7.27512166e-02 -1.17280483e-01 +8.88796374e-02 -4.27525565e-02 -4.54118028e-02 +2.75507402e-02 -6.35291040e-02 +3.61348391e-01 -2.87587773e-02 -3.74023505e-02 +1.92188561e-01 +2.51986504e-01 +5.49691729e-02 -8.55744556e-02 +6.22393116e-02 +9.32405666e-02 +3.66699606e-01 -2.19007120e-01 +1.42243579e-01 +2.89432965e-02 -9.28156897e-02 -6.42832890e-02 +1.45384863e-01 +8.64856094e-02 +8.59170482e-02 +9.76369381e-02 -3.50816511e-02 -1.39267454e-02 -3.66250835e-02 +1.76325902e-01 +5.36595732e-02 +1.94859281e-01 -9.53673497e-02 -4.39679772e-02 -1.31322816e-01 +1.38227493e-01 +7.66037330e-02 +2.06946552e-01 -6.50340468e-02 +1.31849214e-01 -7.10372850e-02 +2.75825839e-02 -9.05664265e-03 +2.34246731e-01 +2.48907357e-01 -1.41042441e-01 -1.44355902e-02 +9.54939947e-02 +1.39122993e-01 -8.40888247e-02 +8.84735286e-02 +5.20284176e-02 +1.37585312e-01 -3.27973440e-02 -1.28589243e-01 -1.27773210e-01 -2.05821097e-02 -1.20559663e-01 +2.24425763e-01 +6.47652522e-02 +1.86904892e-02 +1.49630204e-01 +3.38457040e-02 +9.21408311e-02 +2.38512218e-01 -6.09378107e-02 +1.61691442e-01 -1.01520464e-01 -3.46190959e-01 -6.72071427e-02 -5.92089258e-02 -8.64458829e-02 -2.20996603e-01 +8.00807104e-02 -1.41695648e-01 +1.08716719e-01 +4.28845081e-03 +1.97728127e-01 -7.09307194e-02 -2.08281890e-01 +1.90213453e-02 -2.97961473e-01 +5.59601933e-02 +1.14007749e-01 +1.14099570e-01 +2.59761930e-01 +3.81055251e-02 +1.38557091e-01 +1.92004994e-01 +2.54813224e-01 +1.58620998e-03 -7.10055232e-02 +3.23261768e-02 +8.51863921e-02 +1.00673765e-01 +9.49225575e-03 -3.74517404e-02 -3.26461755e-02 -1.68535113e-02 +3.92498188e-02 -1.05289416e-02 +9.85417515e-02 +2.12934967e-02 +4.26302990e-03 +2.68949345e-02 +3.58315296e-02 +4.01767232e-02 +1.04869157e-01 +1.23992793e-01 -3.40253003e-02 +2.79581398e-01 +1.62546486e-01 -9.51156393e-02 +1.39828831e-01 +3.95412631e-02 +2.68008467e-02 +1.74641728e-01 +1.42576680e-01 -8.03988650e-02 -1.95051923e-01 +1.55370593e-01 -9.19131711e-02 +4.63036969e-02 +1.81194589e-01 +7.86443427e-02 +2.40435869e-01 +3.27611387e-01 -1.82362139e-01 -9.78652481e-03 +1.58197641e-01 +1.81726903e-01 +7.82071799e-02 +2.20485479e-01 +4.75479923e-02 -3.96009088e-02 -2.06421316e-02 -2.54331380e-01 +4.63738352e-01 -1.90906689e-01 -3.77641991e-02 +2.01679826e-01 +6.37135804e-02 +1.48458615e-01 -1.67371139e-01 +1.28840897e-02 -1.37991235e-01 -5.07599860e-03 +7.74563327e-02 -4.87088636e-02 -1.49085909e-01 +2.62294799e-01 +1.63441285e-01 -1.15333810e-01 +2.41142735e-01 +2.91950196e-01 +2.17391118e-01 +4.05477453e-03 +2.65597463e-01 -1.24222256e-01 +1.82876259e-01 +3.92350525e-01 -5.65823056e-02 +1.06009943e-02 +2.98068792e-01 +3.13734293e-01 +8.32842216e-02 +2.45123915e-02 -1.63845614e-01 +6.08683527e-02 +9.37527716e-02 -1.82246879e-01 +2.07106233e-01 +1.52523443e-01 -6.92014694e-02 +1.65660400e-02 -1.70611352e-01 -1.69668630e-01 -1.50561444e-02 +9.38992947e-02 -8.34041685e-02 +6.13221340e-02 +3.23779255e-01 +1.96351230e-01 -2.31333718e-01 -1.09815732e-01 +2.96830502e-03 -5.29724509e-02 -3.56792472e-02 -1.22535124e-01 +6.37961552e-02 -1.68531448e-01 -5.34418151e-02 +1.58316009e-02 -1.45343080e-01 -4.00248766e-02 -7.73254707e-02 -2.60524690e-01 -1.33142740e-01 +5.48198000e-02 +3.40267718e-01 -2.64667988e-01 +3.25652599e-01 -1.52492300e-02 +6.22206330e-02 -1.79078817e-01 +1.12586886e-01 -1.43940886e-02 -2.90787667e-01 -3.63716722e-01 +1.07056521e-01 +1.25563249e-01 +1.37270419e-02 -1.24804154e-01 -2.46617958e-01 +7.38053769e-02 -1.21029846e-01 +9.13429111e-02 -1.59142107e-01 +1.60801083e-01 +3.06877755e-02 -1.77645281e-01 -1.81375500e-02 -5.16214706e-02 +1.18396990e-01 -2.45336499e-02 +1.15646921e-01 -4.84040231e-02 +1.97772220e-01 +6.94666654e-02 -4.98815365e-02 -4.83406112e-02 -1.22947864e-01 -9.77427438e-02 -6.23491108e-02 -8.21825042e-02 -1.14485167e-01 +2.38570217e-02 +4.23898287e-02 +1.05985522e-01 -3.39441709e-02 +8.32328945e-02 -7.57585373e-03 +3.63918468e-02 +1.42312124e-01 +2.15760231e-01 -3.21040601e-02 +1.20064750e-01 +1.21022969e-01 +6.60264418e-02 -1.33123025e-01 +1.47222340e-01 -4.91428822e-02 +2.51224097e-02 +1.48114888e-02 +7.72021934e-02 +9.17452946e-02 +1.12555958e-01 +8.57888348e-03 +4.56117205e-02 +2.33648032e-01 -4.33036983e-02 +4.96810153e-02 +9.88709368e-03 +1.72008157e-01 +3.00495148e-01 +7.91050568e-02 +9.59602222e-02 -7.29117990e-02 -1.34360954e-01 +8.70598555e-02 +9.45948511e-02 -4.97829244e-02 +2.08310872e-01 -5.56281209e-02 +1.32242113e-01 -5.47549576e-02 +2.51001239e-01 -4.44113230e-03 +3.25481743e-01 -6.33381009e-02 +1.26104444e-01 -5.28484322e-02 +7.87892714e-02 +1.31977543e-01 -3.17824595e-02 -3.81749906e-02 +1.49051756e-01 +1.28549337e-01 -4.60306108e-02 +3.59331630e-02 -4.94911447e-02 -5.12951836e-02 +8.97280052e-02 -4.03348170e-02 +7.20786154e-02 -1.37138665e-01 +1.22649521e-01 +1.31725311e-01 +2.51440167e-01 +1.95255075e-02 -6.33324124e-03 +3.58354062e-01 -1.15032874e-01 -7.01051131e-02 -9.64839458e-02 -2.08195731e-01 -8.60945880e-02 -3.12943235e-02 -3.57437059e-02 -1.45657212e-01 -9.76082161e-02 -2.34445736e-01 -9.75481346e-02 +1.29190132e-01 -1.42487109e-01 -1.55325636e-01 -1.25935897e-01 -3.01576257e-01 -2.86657870e-01 -2.22585443e-02 -2.54186004e-01 -3.69182113e-03 -1.79208353e-01 -2.13554114e-01 -1.45986766e-01 -7.33469650e-02 -2.23728627e-01 -5.10784425e-02 -1.19643927e-01 +3.48621458e-02 -9.05391946e-02 -3.51767242e-01 -2.08009794e-01 -1.49802238e-01 -1.66038468e-01 -1.43108338e-01 +2.58290619e-02 -2.61577457e-01 -1.53589532e-01 -2.48115901e-02 -6.41974136e-02 +1.27002373e-01 -1.60383984e-01 -1.26164600e-01 -3.44695449e-01 -2.38675609e-01 +8.78724754e-02 -1.58326030e-01 -2.81592458e-02 -9.18207169e-02 -6.92265630e-02 -1.05782874e-01 -2.48253852e-01 -1.85834896e-02 -1.46262676e-01 -9.59891230e-02 -3.77583876e-02 -1.55321792e-01 -1.49540842e-01 -8.86802524e-02 -1.36168972e-01 -7.73431584e-02 -3.04710865e-01 -3.12394816e-02 -1.07084788e-01 -2.28273168e-01 -4.45787795e-02 -3.29124928e-01 +1.11275107e-01 +7.26315603e-02 -8.17223638e-02 -6.81334063e-02 -1.09106727e-01 -6.67611808e-02 -3.64905708e-02 -1.86228275e-01 +2.39991434e-02 +6.07761890e-02 +2.25549508e-02 -1.81709036e-01 -1.49040774e-01 -1.83020756e-01 -4.73331101e-02 +5.19453883e-02 +1.22116670e-01 -7.74765909e-02 +4.77507561e-02 +3.15302722e-02 -8.59391466e-02 +1.20104784e-02 -3.39415967e-02 -1.43174097e-01 -2.77044233e-02 +1.89841270e-01 -8.84452742e-03 -2.94702780e-02 -6.68685064e-02 -1.40103530e-02 -1.85211033e-01 -3.73884916e-01 +1.56616196e-02 -1.81459650e-01 -6.08223043e-02 -9.01365206e-02 -5.31773828e-02 -3.35551016e-02 -1.64795190e-01 -2.10490316e-01 +3.37116607e-02 -1.98833227e-01 +5.67316525e-02 +6.21448942e-02 -3.15743744e-01 -2.13226557e-01 +6.57001883e-02 +4.03723009e-02 +1.01882972e-01 +6.26731068e-02 -7.58848190e-02 +9.44971689e-04 +2.62550533e-01 +1.09823383e-01 +5.20869792e-02 -4.06670839e-01 +4.48396541e-02 -7.26112723e-02 +4.43763845e-03 +2.32538208e-01 +1.27696142e-01 -1.23172484e-01 +1.79102600e-01 -2.35316262e-01 -9.89248380e-02 -1.02864038e-02 +1.01546340e-01 -1.06501505e-02 -8.04582462e-02 +1.35664940e-01 -5.31938951e-03 -1.79056227e-02 -4.28761765e-02 +1.17441155e-01 +5.53043373e-02 +1.59847528e-01 -1.25237420e-01 +4.21458520e-02 -3.13890219e-01 -4.43672277e-02 -1.33853495e-01 -1.38704181e-02 -1.61190897e-01 +1.93594247e-02 -1.84446111e-01 +2.77006552e-02 -8.63422751e-02 -5.66413999e-02 -9.74127278e-02 +1.29424900e-01 -1.06688835e-01 -2.21737579e-01 -7.86967278e-02 +7.70396600e-03 +1.71136454e-01 -2.31093556e-01 -2.57707313e-02 +2.41322741e-01 +1.56616241e-01 -9.97728035e-02 +2.96013802e-02 -2.14397028e-01 +1.48950607e-01 -1.53274819e-01 +7.82888010e-02 -7.45628104e-02 -1.06995292e-01 -6.98442990e-03 -1.41796796e-02 -5.85504286e-02 +2.21450850e-02 +4.14321087e-02 -2.52937019e-01 -9.41028222e-02 -2.21152991e-01 -4.25448082e-02 -2.53726542e-03 -2.33871341e-01 -9.30919405e-03 -1.85012534e-01 +4.17303713e-03 -7.60461986e-02 +9.57634449e-02 -1.33238018e-01 -1.09492637e-01 +3.54705416e-02 +2.34939724e-01 -7.39029571e-02 +3.46628204e-02 -6.08030008e-03 -5.78871220e-02 +2.05858648e-01 +6.38904497e-02 +1.82215542e-01 +2.30599329e-01 -2.87709180e-02 +1.20419733e-01 -1.22055590e-01 +3.05224687e-01 +2.06382751e-01 +2.28182539e-01 +2.41399985e-02 +7.79177248e-02 +2.09480360e-01 -8.75914022e-02 +7.93589652e-02 +5.14910184e-02 +7.90311545e-02 +1.58411115e-01 +2.57879913e-01 -5.85752875e-02 -1.95031390e-02 +3.05409767e-02 +4.77863729e-01 +7.00834841e-02 +8.46178532e-02 -1.57745048e-01 +9.75867882e-02 +4.98510972e-02 +8.97514448e-02 +1.91960350e-01 +2.89950192e-01 +6.41445294e-02 +2.48713642e-01 +2.25320011e-02 +1.02773674e-01 -2.89281532e-02 -7.62043297e-02 +1.44576520e-01 +2.43820056e-01 +1.81313068e-01 +2.19050869e-01 +2.87083805e-01 -1.82273369e-02 +1.80385605e-01 +8.12866464e-02 +2.11312965e-01 +3.31112891e-02 -6.80060908e-02 +2.26095110e-01 +1.31273776e-01 +2.60776579e-01 +1.46682978e-01 +1.37038961e-01 +2.11150274e-01 +1.79899022e-01 +1.66974142e-01 +1.75765425e-01 +2.11358890e-01 -7.90418088e-02 +2.54265875e-01 +1.32031485e-01 +5.61430939e-02 +2.54313111e-01 -1.82787869e-02 +1.63159460e-01 -1.25202596e-01 +3.01234573e-01 +2.11196452e-01 -1.39823675e-01 +2.71184295e-02 -2.49329224e-01 +1.92153454e-01 +8.91169086e-02 -1.97817776e-02 -9.37174261e-02 +1.17116019e-01 -6.59625903e-02 +1.69270873e-01 +5.70044667e-02 +1.46087110e-01 +2.61366636e-01 +2.02839524e-01 +2.00588003e-01 +2.13231683e-01 +1.35154560e-01 +2.61667371e-02 +4.65582311e-02 -2.35097739e-03 +5.74912392e-02 +1.44956395e-01 -1.00896381e-01 +1.44552693e-01 +1.57634676e-01 +1.51291698e-01 +2.14426026e-01 +1.01577647e-01 +1.03055730e-01 +1.84523433e-01 +1.21005755e-02 +6.13482483e-02 +2.31545810e-02 +2.93993056e-01 +1.02623180e-01 +3.17589313e-01 -7.75560439e-02 -3.58116673e-03 -1.02797151e-01 +1.65678561e-01 -1.66308286e-03 +8.28621164e-02 +9.62331146e-02 -5.24765113e-03 +2.70501167e-01 +3.11920345e-01 +2.29201540e-01 +6.62368387e-02 +6.18287772e-02 +1.24868862e-01 +1.15841411e-01 +1.63370878e-01 +9.95091200e-02 +1.09069392e-01 +2.29895748e-02 +1.83362290e-01 +1.83998376e-01 +2.93228421e-02 +2.84369737e-01 -5.78715317e-02 +1.51705369e-01 +2.52944380e-01 +3.75437707e-01 +2.49516070e-01 +5.63259088e-02 +9.54409689e-02 +1.15346715e-01 +2.05098480e-01 +1.29671454e-01 +9.72984806e-02 +3.97746861e-02 +3.72763515e-01 +1.98501959e-01 -1.06044829e-01 +2.83633649e-01 +1.96401745e-01 +1.72677025e-01 -5.94156608e-03 +1.89927816e-01 -1.41592532e-01 +2.36271322e-01 +2.30793342e-01 +3.99846107e-01 -1.29797131e-01 +2.13152990e-01 +3.44107300e-01 +2.69794464e-01 +3.02579373e-01 +2.31564969e-01 +3.75127196e-01 +5.04831612e-01 +1.27039805e-01 +4.88212593e-02 +1.83797285e-01 +4.49562594e-02 +7.92751834e-02 +2.41850704e-01 +2.40234211e-01 +7.92375184e-04 +2.09212214e-01 +1.86898232e-01 +1.46948859e-01 -1.72317878e-03 +2.28844270e-01 +8.84481594e-02 +2.05203310e-01 +1.61123261e-01 +1.06275871e-01 +3.84314090e-01 +2.47675121e-01 +2.07353294e-01 +3.84338528e-01 +1.95980724e-02 +1.96864724e-01 +1.15810476e-01 +1.51373029e-01 +2.62460917e-01 -2.21165884e-02 +2.70511091e-01 -2.18889341e-01 +1.95520699e-01 -1.24520976e-02 -1.15346201e-02 -1.95189849e-01 -1.27428919e-01 +2.24024400e-01 -1.25873731e-02 +9.82208103e-02 -1.66588917e-01 -1.41666103e-02 -3.13491262e-02 -3.38518620e-01 -2.99332976e-01 +1.36277527e-01 +6.97641894e-02 +2.00986192e-01 +2.30183765e-01 +2.38582939e-01 +2.04193801e-01 +1.14454351e-01 +1.41718522e-01 +6.63927794e-02 +3.41347218e-01 +9.01921988e-02 -2.98952796e-02 -9.77023505e-03 -2.22162485e-01 +4.32221917e-04 +1.31267354e-01 -4.84673195e-02 -2.59088963e-01 -3.05609368e-02 -9.42632630e-02 -1.21146031e-01 -1.72023252e-01 -9.76186171e-02 +5.88315427e-02 +1.54166430e-01 +3.81838828e-02 +2.36504432e-02 -9.09104012e-03 -4.35006358e-02 +1.30563304e-01 -2.43598953e-01 -2.91892916e-01 +1.94418564e-01 +1.25066238e-02 -7.98204169e-02 +8.66577849e-02 -1.27378467e-03 +1.66546300e-01 +2.43350625e-01 -1.66395485e-01 -1.04788527e-01 +9.57832262e-02 +3.81295271e-02 +1.53245553e-01 +1.61965445e-01 +2.58356124e-01 -1.65782161e-02 -1.06484540e-01 +5.22672012e-02 +1.95943251e-01 -1.83378518e-01 -2.63765012e-03 -4.73550647e-01 -8.98554847e-02 +8.00476235e-04 -2.28829794e-02 +4.05309871e-02 -2.45297953e-01 -8.10736939e-02 +2.56507814e-01 -1.16924420e-01 +2.80134995e-02 -2.20109239e-01 +9.09268633e-02 -1.19269928e-02 -7.90828243e-02 -3.53652351e-02 -7.97616765e-02 -1.25392601e-01 -2.05062106e-01 +5.88628836e-03 -1.10148467e-01 -4.60219793e-02 -8.56084153e-02 -4.00381312e-02 +9.20201614e-02 -2.54660666e-01 -1.70833796e-01 +7.48869553e-02 -6.98401183e-02 -9.37994495e-02 -1.59976464e-02 -9.29980353e-02 -2.48607665e-01 -7.17429891e-02 -2.58658379e-01 +4.99027893e-02 -6.01723194e-02 +6.33425266e-02 -2.48155087e-01 -6.69257268e-02 -5.55526391e-02 -2.76392419e-03 -1.18418060e-01 -1.89383388e-01 -8.97290930e-02 +7.80599341e-02 -2.20709309e-01 -1.10489868e-01 -2.35930040e-01 -9.88085270e-02 -3.60443056e-01 -1.98328838e-01 -1.71882063e-01 -1.03676938e-01 -1.62051186e-01 -1.42899035e-02 -1.71603277e-01 +5.25815487e-02 -1.37139216e-01 -1.45406544e-01 +6.19017929e-02 -6.13834709e-02 -8.23156163e-03 -5.14255352e-02 +9.94819403e-02 +1.62537709e-01 +4.68355156e-02 -1.71673745e-01 -1.58922389e-01 +2.53986061e-01 +1.04832783e-01 -5.83535619e-02 -2.76571959e-02 -2.50491083e-01 -2.64348965e-02 +3.96171436e-02 -1.39355659e-01 -1.81760088e-01 -3.46309282e-02 -8.03340375e-02 -6.12824298e-02 -1.84778497e-01 -2.31407955e-02 -6.68145064e-03 -2.04159364e-01 -6.37030005e-02 -4.96620648e-02 -3.87104526e-02 +5.20699890e-03 -1.48735084e-02 -5.58725595e-02 -5.56430221e-02 -2.32671037e-01 -5.76707944e-02 +1.15796871e-01 -1.20977182e-02 +3.48103307e-02 -1.18863685e-02 -1.02925831e-02 -1.36842325e-01 -3.80990691e-02 +2.11551353e-01 +1.11788228e-01 -2.44100988e-02 -2.07541972e-01 -1.59680292e-01 -1.93338200e-01 -7.92804360e-02 +3.10563985e-02 +8.36556628e-02 -1.13256074e-01 -3.69378999e-02 -9.38535035e-02 -4.69982671e-03 -2.22642943e-01 -9.75939855e-02 +3.09239281e-03 -9.77063924e-03 -8.02253932e-02 +4.90306541e-02 -5.68203302e-03 -1.54751435e-01 -5.32137044e-02 +1.33574769e-01 -1.21171981e-01 -2.66670614e-01 +1.30682230e-01 -4.71450575e-02 +1.26962572e-01 -2.73053765e-01 -2.31088281e-01 -1.95011914e-01 -2.08341390e-01 -1.57458052e-01 -1.89900585e-02 -8.49256739e-02 +1.88572377e-01 -2.56412715e-01 +3.10612116e-02 -1.84050992e-01 +1.19493447e-01 +6.63341805e-02 -2.06850898e-02 -1.56092763e-01 -1.22528501e-01 -1.57166064e-01 -7.58697838e-03 +6.71026260e-02 -2.13721320e-01 -1.74944416e-01 +3.09043322e-02 +1.98076237e-02 -2.36025285e-02 +1.39597021e-02 -3.94175351e-01 -1.83254927e-01 -1.44379446e-03 -1.70640245e-01 -2.21845090e-01 -2.52096057e-01 -3.21130872e-01 -3.08653027e-01 -2.95931958e-02 -2.11181473e-02 -2.96103865e-01 -1.28161460e-01 -1.11290708e-01 -1.74386904e-01 -1.37331963e-01 +6.57970235e-02 -1.62941352e-01 -2.59617865e-01 +3.33121642e-02 +1.30951419e-01 -1.35942593e-01 -1.22794122e-01 -1.99508965e-01 -1.85959622e-01 -1.92246243e-01 -1.30233198e-01 -4.03960347e-01 -3.47745389e-01 -1.57633215e-01 -1.36182765e-02 +3.53006111e-03 -5.82890399e-02 -1.34672612e-01 -1.45215422e-01 +1.12478109e-03 -2.72420675e-01 -2.00841621e-01 +1.28751025e-01 +5.54044964e-03 -2.29324233e-02 -1.40160784e-01 -2.22522561e-02 +9.34044644e-02 -3.02021772e-01 +1.65034369e-01 +3.74249043e-03 -6.88602254e-02 -2.15223785e-02 +1.24682397e-01 +3.36522967e-01 +1.13893375e-01 +2.78508011e-02 +1.63475752e-01 -2.68753976e-01 -9.76915732e-02 -1.41568899e-01 -1.55185699e-01 -1.93617851e-01 +2.89954990e-01 +3.86931375e-02 -9.82217938e-02 -2.06503183e-01 -2.99500734e-01 +2.34959513e-01 +2.79312283e-01 +1.53455079e-01 -1.98880270e-01 -2.74760965e-02 +1.02214001e-01 +1.03253745e-01 -2.69844681e-02 +2.03574717e-01 +1.17035121e-01 +2.00186178e-01 -1.96441233e-01 -2.11925656e-01 -1.43124625e-01 +2.87204683e-01 -2.60131270e-01 +7.13469237e-02 -1.12784572e-01 +1.24999143e-01 +1.43024519e-01 -1.56634584e-01 -1.86977819e-01 +6.84068203e-02 +1.15535222e-01 -1.00986861e-01 -1.91839248e-01 -2.05764800e-01 +9.78665352e-02 +2.41630107e-01 -1.42688483e-01 -2.67590761e-01 +6.57289773e-02 -1.89544618e-01 -8.57767612e-02 -1.99177131e-01 -2.59473603e-02 -8.98497552e-02 -2.10024595e-01 +1.32064983e-01 -1.82690080e-02 -1.00482605e-01 -7.91091472e-02 +1.84551179e-01 +1.01995111e-01 -4.02594469e-02 -1.35724291e-01 -5.96356802e-02 +1.64582461e-01 -1.77184138e-02 +1.02301300e-01 -1.31518632e-01 -9.07448977e-02 -1.67278908e-02 +9.08253118e-02 +8.91119391e-02 +4.78831492e-03 -6.57894909e-02 -1.13644302e-02 +1.38705999e-01 +6.36207089e-02 -7.41213858e-02 +5.69742285e-02 +3.23752984e-02 +1.01164524e-02 -2.28757430e-02 +2.67815776e-04 +2.54473966e-02 -3.32731754e-02 +7.34095052e-02 +1.22866750e-01 +1.21970072e-01 -1.54367253e-01 -9.49511528e-02 +3.72721329e-02 +1.01999052e-01 -3.09758298e-02 -1.07710548e-01 -6.95161819e-02 -1.76073641e-01 +8.61219540e-02 -1.33590490e-01 +6.64117560e-02 +1.38635021e-02 +2.71963980e-02 +2.40857452e-02 -7.92072639e-02 +3.61516811e-02 -9.61224437e-02 -4.96031297e-03 -9.09006521e-02 -3.89401615e-02 +3.60829895e-03 +8.93565789e-02 -2.69219317e-02 -2.60418039e-02 +2.28156857e-02 +3.70256267e-02 -4.29080874e-02 -1.26063570e-01 +7.93539956e-02 +3.26291770e-02 -2.84292728e-01 -5.28926328e-02 +1.52560286e-02 -8.11202601e-02 -6.67525753e-02 -6.76016062e-02 -4.94972803e-02 -1.06259651e-01 -3.71152386e-02 +1.44412583e-02 -3.44824791e-01 -1.46619260e-01 -1.03120908e-01 -1.04374602e-01 -1.46832466e-01 -8.79668107e-04 -5.69640994e-02 -1.74366117e-01 -1.10344708e-01 -2.15870827e-01 +7.70312026e-02 -3.40253502e-01 -1.43149495e-01 +3.28044929e-02 -2.07734108e-02 -1.31622806e-01 -1.11461587e-01 -3.16298753e-01 -9.67651792e-03 -3.07113260e-01 -3.56260277e-02 -1.53147802e-01 -1.81694195e-01 -9.09351259e-02 -2.32636094e-01 -1.48527309e-01 -1.29868671e-01 -7.96909034e-02 -2.40947846e-02 -1.54382080e-01 -1.17096908e-01 -1.55546829e-01 -2.42578551e-01 -1.90196112e-01 -2.07583327e-02 +1.20197840e-01 -2.37847995e-02 -1.75209135e-01 -5.24715520e-02 +8.55111852e-02 -2.19116554e-01 +5.98519342e-03 +7.85205886e-02 +4.13648412e-02 +1.10240750e-01 -6.91229338e-03 -3.78508419e-01 -2.76735611e-02 +6.96504535e-03 +2.63757687e-02 -1.66463643e-01 +9.45121108e-04 +2.84137707e-02 +1.13987727e-02 -1.66394040e-01 -1.64460242e-02 -5.84874116e-02 -1.51942983e-01 -1.19893119e-01 -7.25817382e-02 -4.40690480e-02 -7.64063513e-03 -1.10753559e-01 +1.33814692e-01 -2.34463289e-02 -2.39462983e-02 +1.38708308e-01 +1.07620738e-01 +8.79184529e-03 -5.00685088e-02 -1.14138678e-01 -1.48355186e-01 -8.52986947e-02 +1.45967990e-01 +1.87253766e-02 -1.39410540e-01 -1.30349055e-01 +1.22793570e-01 +1.61890998e-01 -6.32316917e-02 +1.43196166e-01 -5.90690710e-02 -1.50082946e-01 -1.00802956e-02 -8.67967829e-02 +5.22495843e-02 -1.99419349e-01 +1.39433429e-01 -3.68430287e-01 -9.11632702e-02 +1.61221370e-01 +1.08965263e-01 -8.61249268e-02 -3.56945582e-02 -2.70241886e-01 -1.08042739e-01 -1.83150396e-01 +1.34712402e-02 -5.05528748e-02 +1.74876638e-02 -1.45352498e-01 -2.40026116e-01 -2.88530905e-02 -2.41269041e-02 -1.70847908e-01 +6.44396339e-03 -7.49603361e-02 -3.04746516e-02 -3.28731328e-01 -6.51124492e-02 -5.21213263e-02 -1.84718311e-01 +1.57647178e-01 +1.30738035e-01 +8.43454525e-02 +3.68180615e-03 +1.08043246e-01 -1.18594609e-01 -1.13116488e-01 -3.32435407e-02 -8.16421881e-02 +5.48036098e-02 +4.38080095e-02 +5.46885713e-04 -7.25402161e-02 +2.62820926e-02 +1.09617442e-01 -2.01849222e-01 +1.39721632e-01 +1.21340051e-01 -3.68362591e-02 -6.15418144e-03 -1.03746727e-01 -1.26757056e-01 +1.23946071e-02 -1.36018217e-01 +7.19620660e-02 -9.25622657e-02 +2.60532228e-03 +2.82023344e-02 +4.39204685e-02 -7.27665201e-02 +1.27318248e-01 +8.22244585e-02 +8.85097831e-02 +1.79075956e-01 -1.11738555e-02 +4.08969633e-02 +1.52009174e-01 +9.43935364e-02 -1.82106346e-02 -1.18492313e-01 +7.49161188e-03 +2.29210854e-02 -4.69531417e-02 -2.96489485e-02 -5.89426421e-02 -4.65180762e-02 -2.01889917e-01 -5.58242798e-02 +1.31955475e-01 +1.17072083e-01 -4.40290235e-02 +2.84404214e-02 -9.76297110e-02 +1.38866484e-01 +1.59958359e-02 +2.25872565e-02 +8.46285373e-02 -7.05177486e-02 +5.71627989e-02 +2.55483687e-02 +1.43081337e-01 +4.13140133e-02 -1.83539227e-01 -1.49405509e-01 +4.24430631e-02 +1.85102709e-02 -5.87518550e-02 -2.20194399e-01 -1.76212758e-01 -2.46035792e-02 -1.94291383e-01 +4.02941257e-02 -2.49628305e-01 -3.94637883e-01 -1.37182474e-01 +1.11196168e-01 -1.00429505e-01 -1.78845882e-01 +1.07188419e-01 -6.98843747e-02 -3.45086902e-02 +3.44200619e-02 +4.01076861e-02 -8.48728195e-02 -1.73016354e-01 +6.34640530e-02 -1.50635362e-01 +8.06975272e-03 +1.25618890e-01 -7.44076744e-02 +7.99887255e-02 -2.98069492e-02 -8.99144858e-02 +1.21050648e-01 +1.23829678e-01 -1.93604156e-01 -9.78097245e-02 -3.08088362e-01 +2.49150172e-01 -2.29867231e-02 -1.61854282e-01 -8.16998482e-02 +3.54126990e-01 +6.14535809e-02 -7.24179670e-03 -3.37550715e-02 -1.07580861e-02 -2.44669728e-02 +6.20388277e-02 -1.27207190e-01 -2.02724591e-01 -1.54563904e-01 +3.74550978e-03 -1.65624376e-02 +1.15057565e-01 -1.13320477e-01 +3.56265088e-03 -1.95581198e-01 -1.44462600e-01 -2.85155233e-02 -3.36810797e-02 +3.76553498e-02 -1.79096028e-01 -2.96700187e-02 +1.03311323e-01 -1.22513175e-01 -1.75372064e-01 -1.90420777e-01 +4.09311391e-02 +4.95342538e-02 -8.89117867e-02 -3.68032455e-01 -2.97014695e-02 -1.71637788e-01 -4.57612798e-02 -5.11697233e-02 +3.93808633e-02 +1.62570730e-01 +1.89973146e-01 +7.87565708e-02 +9.29222703e-02 +1.11803949e-01 +2.70647228e-01 +8.89118165e-02 +5.75640760e-02 +1.79865137e-01 +1.49851784e-01 -3.16158310e-02 +9.53013375e-02 -1.03488602e-01 +3.84759530e-02 +4.48959135e-02 +1.70101702e-01 -1.15430862e-01 +3.40763666e-02 +1.02402672e-01 +2.81197935e-01 +1.79031938e-01 -2.71467101e-02 +1.39463386e-02 +3.76625992e-02 -4.38176580e-02 +3.59421782e-02 +4.81966846e-02 +9.91946012e-02 +2.39735737e-01 +2.74944492e-02 +2.06804469e-01 +1.59826070e-01 +2.24942267e-01 -8.98164883e-02 +3.98593880e-02 +7.88203254e-02 +1.76981464e-01 +7.09091276e-02 +8.26896727e-02 +9.53242704e-02 +9.93166715e-02 +1.00298047e-01 -1.43467644e-02 -7.23524168e-02 +4.26032655e-02 +6.58313259e-02 +2.15828598e-01 +1.48215620e-02 +1.88597920e-03 -2.65203360e-02 +8.06863084e-02 +1.20066062e-01 +2.25159436e-01 +1.78655475e-01 -2.85979826e-02 +3.96039411e-02 +6.52632117e-02 +1.89803928e-01 -1.93419661e-02 +1.52288318e-01 +2.78146982e-01 +1.72407970e-01 -4.30803001e-02 -7.98978060e-02 -1.44491613e-01 -1.61999669e-02 -8.64873175e-03 +1.82481736e-01 +1.79380640e-01 -6.87033683e-02 -5.91450408e-02 +2.99260050e-01 +1.14002146e-01 -1.53147383e-02 -9.14685875e-02 -1.64221734e-01 -5.46003170e-02 +1.76835462e-01 -9.67878178e-02 +9.22413617e-02 -1.68822438e-01 -1.95374042e-01 -1.35692144e-02 +2.03683466e-01 +1.35588914e-01 +4.60644066e-02 +1.73530281e-02 +4.44000661e-02 +6.60468265e-02 +2.69053847e-01 -5.01275733e-02 +9.90998298e-02 +1.86619177e-01 +2.06569612e-01 +2.12585360e-01 -7.70557148e-04 +6.34193001e-03 -1.83185667e-01 -4.78501879e-02 +1.32468134e-01 +1.10630378e-01 -5.24818152e-02 +4.93986532e-02 -6.43371493e-02 +1.14506386e-01 +1.27265193e-02 +9.41244140e-02 +9.59754065e-02 +3.15575376e-02 +1.06094971e-01 +3.28715861e-01 +1.22101434e-01 -1.57152191e-01 +3.45165320e-02 +2.20165011e-02 +3.10196634e-02 +1.92458183e-01 -1.07607432e-01 -6.67337701e-02 +8.56189057e-02 +1.07906200e-01 +1.03922799e-01 -1.49087831e-02 +4.68243435e-02 -1.30883083e-01 -3.77116981e-03 +7.73986727e-02 -1.43965721e-01 -1.91582248e-01 -8.45030881e-03 -4.77920612e-03 -9.10927877e-02 +1.29360840e-01 -2.80885529e-02 -2.27376428e-02 -1.27051771e-01 +2.70587159e-03 +6.13925792e-03 +9.69216079e-02 +9.72681046e-02 -4.94188741e-02 +6.08256757e-02 +8.43163878e-02 +7.97103643e-02 +1.99493486e-03 -1.04848787e-01 +4.30241637e-02 -4.52090017e-02 +1.27116263e-01 -2.72861812e-02 -5.99271730e-02 +1.11466208e-02 +2.13448599e-01 -7.50948936e-02 +1.65468380e-02 +5.72004877e-02 +3.55359577e-02 -1.23394430e-01 -2.41602995e-02 +1.27057254e-01 +1.07101761e-01 +1.09397918e-01 +8.15146938e-02 +1.55170351e-01 +3.73787209e-02 -1.81514814e-01 -6.99139610e-02 +8.98689553e-02 +2.23401026e-03 -5.81871439e-03 -2.74752267e-02 -1.17994836e-02 +1.36106508e-02 +8.44724327e-02 +5.15787005e-02 -1.16375186e-01 +5.31463092e-03 -1.28751978e-01 +1.07640699e-01 -5.84915094e-02 +1.05233878e-01 +4.42249924e-02 -9.09063295e-02 +1.00664854e-01 +4.50495966e-02 -7.44497254e-02 -2.87844360e-01 -1.26077263e-02 +9.05934442e-03 +5.88232502e-02 -8.64415020e-02 -5.27098626e-02 +4.88810465e-02 +8.26763175e-03 -1.45567417e-01 +1.63983002e-01 -5.88443056e-02 -2.40176156e-01 +3.22154611e-02 +1.69028744e-01 +1.43914789e-01 +1.03645287e-01 -2.14023851e-02 +1.59914419e-01 -9.35617834e-02 +4.98978514e-03 -8.31779167e-02 +1.30703479e-01 -3.66973206e-02 -5.07018864e-02 +8.41572508e-02 +1.17913000e-01 -5.21310652e-03 -2.87785623e-02 -5.74642494e-02 +1.66529179e-01 +2.92645961e-01 -1.11821286e-01 +1.79295048e-01 -1.56940557e-02 -9.53055620e-02 -1.34356236e-02 +3.90859917e-02 +1.00735180e-01 +4.50609550e-02 +5.20211086e-03 +1.51622575e-02 +1.63944364e-02 +1.06511332e-01 +3.83198932e-02 +1.84119850e-01 +3.60279828e-02 +8.31150413e-02 -1.24971271e-01 -2.00974807e-01 +4.14927267e-02 -3.02722976e-02 -2.09882092e-02 -5.69850719e-03 +2.70317774e-03 -1.12752751e-01 -2.30967123e-02 +2.62771118e-02 -1.32754594e-01 +4.22798544e-02 +3.80041301e-02 -1.10158391e-01 +2.00914405e-02 +2.49647461e-02 -2.56136991e-03 +5.75238653e-02 -1.99504066e-02 +2.69302912e-02 +1.59920529e-01 -1.77485332e-01 -3.24198097e-01 -2.00787157e-01 -2.99400955e-01 -1.28566064e-02 +2.29709111e-02 -1.12688057e-01 -2.18832299e-01 -1.68700278e-01 -1.48584083e-01 -1.19717605e-01 -2.39092886e-01 -5.46410419e-02 -1.04799293e-01 -1.94979802e-01 -1.88908070e-01 -1.21367626e-01 -1.28350005e-01 -2.28675053e-01 -1.86709657e-01 -1.18513316e-01 -2.30714306e-01 -2.05924854e-01 -6.28137067e-02 -1.66689381e-01 +2.48416234e-03 +1.55477868e-02 -1.58258975e-01 -1.10854559e-01 -1.80479273e-01 -3.23003739e-01 +1.80032209e-01 +1.61446107e-04 -2.28351116e-01 +2.05998756e-02 +3.67279500e-02 -1.10975571e-01 -1.33598596e-01 -2.02794194e-01 +6.65111616e-02 -2.24881187e-01 -2.22237647e-01 -2.34996095e-01 -1.06246255e-01 -2.06864290e-02 -1.30886272e-01 -1.47800952e-01 +6.16301447e-02 -1.89594969e-01 -1.25773117e-01 -2.91346431e-01 -2.52727211e-01 -1.00979626e-01 -2.63661772e-01 -1.59879625e-01 -1.89520314e-01 -1.29675135e-01 -1.76559831e-03 -1.09518491e-01 +7.87780620e-03 -2.50789464e-01 -1.04522184e-01 -1.40025333e-01 +3.80647033e-02 +2.03894928e-01 +8.95112157e-02 -1.30578205e-01 +1.39224708e-01 -2.33854443e-01 +4.23233630e-03 +2.86923666e-02 +1.28277689e-01 -6.10515364e-02 -4.78242375e-02 -1.54857382e-01 -1.37120143e-01 -3.27734910e-02 -1.13909602e-01 +1.12123244e-01 -1.68373033e-01 +4.94873486e-02 -1.42935514e-01 +3.32665443e-02 -6.00524135e-02 +3.95713821e-02 +8.50290153e-03 +1.45618185e-01 +1.13099627e-02 -2.85161316e-01 -8.79364163e-02 -6.95766956e-02 +5.44447526e-02 -2.70868570e-01 +1.51838750e-01 -2.42625475e-01 +6.19014613e-02 -2.20385998e-01 -1.18570328e-01 -3.44271138e-02 -1.23106189e-01 +4.43918048e-04 -1.17594913e-01 -3.07415146e-02 +1.78505238e-02 -7.29851648e-02 +1.15486351e-03 +5.91297820e-03 +2.36593420e-03 -1.83632910e-01 +1.27804607e-01 -2.58391321e-01 -3.53320092e-01 +6.79886118e-02 -8.13706517e-02 +2.22344518e-01 -1.06040649e-01 +7.20926747e-02 +2.31184438e-01 +1.59155428e-01 -2.05371040e-03 -1.99498329e-02 -5.15153110e-01 +1.55964762e-01 -1.16773784e-01 -3.00418198e-01 +2.76296888e-03 -2.26202726e-01 -1.02605313e-01 +2.13412195e-01 -1.23686127e-01 +9.99018997e-02 -1.64573237e-01 +1.61469698e-01 -5.54428734e-02 -2.58033723e-01 +2.91708052e-01 +1.03363648e-01 +1.07068874e-01 +2.20789704e-02 +2.65926160e-02 +1.69253007e-01 +1.77332666e-02 -4.45457175e-02 +9.45492536e-02 -2.01658860e-01 -4.75322129e-03 -8.11151490e-02 -1.83541879e-01 -2.64940798e-01 +1.82282716e-01 -1.03334963e-01 -2.58684844e-01 -6.85414225e-02 -9.09908041e-02 +1.83363095e-01 +2.52071202e-01 -9.44929104e-03 -6.86830506e-02 -8.36684778e-02 +1.19469658e-01 +2.10593835e-01 +1.64315067e-02 +1.82786524e-01 -4.45717871e-02 +1.14574455e-01 -2.83182487e-02 -1.29911348e-01 -1.13172434e-01 +9.62253734e-02 -1.00010879e-01 +5.28085046e-02 -2.40481660e-01 +2.58487374e-01 +2.04676926e-01 -9.97902676e-02 -1.31330281e-01 -3.12057999e-03 +2.12696731e-01 -2.78306395e-01 -1.75496221e-01 -7.66843110e-02 +1.16678499e-01 +2.19926238e-01 -2.74393231e-01 -2.01898634e-01 -9.73317996e-02 -2.36110404e-01 -3.55840862e-01 -1.00766681e-02 -2.70964921e-01 -1.34123132e-01 -2.46861696e-01 +6.50994554e-02 +5.76279461e-02 -2.93380439e-01 +1.29666375e-02 +2.80183822e-01 -6.36430755e-02 +1.93136912e-02 +1.50518958e-02 +1.41019583e-01 +1.55414253e-01 +8.61093104e-02 +7.09282875e-04 +1.11133985e-01 -1.68387815e-02 +7.78941885e-02 -6.48852289e-02 -4.82079089e-02 +7.41647258e-02 -1.37533382e-01 -2.63714492e-02 +8.66672471e-02 +2.62935702e-02 -8.45573470e-02 -6.66217506e-02 -1.23194814e-01 +1.15111783e-01 -2.06879899e-01 +8.50138515e-02 +1.40747882e-03 +3.33225131e-02 -1.23718582e-01 -4.09505367e-02 -1.52692646e-01 +2.21806452e-01 +1.42841861e-01 -1.00697037e-02 -2.05044523e-01 -1.25767991e-01 -1.19223051e-01 +9.29564461e-02 -1.72274947e-01 +8.32107067e-02 +4.13537472e-02 -6.45030364e-02 -1.05782002e-01 -1.34072021e-01 -5.92719065e-03 -1.44553585e-02 -3.21674608e-02 +1.89718213e-02 +3.62163223e-02 -8.10308605e-02 -8.07397217e-02 -1.89242110e-01 -6.60770014e-02 -7.01525882e-02 -1.34848356e-01 +3.45686823e-02 -1.35700136e-01 -3.73100564e-02 -1.96840271e-01 +1.11121804e-01 -8.49628225e-02 +8.11193809e-02 +1.44745573e-01 +3.65440212e-02 +2.21349329e-01 +6.67272881e-02 +2.47748606e-02 +1.10991813e-01 +3.78192991e-01 +2.57465154e-01 +2.86717951e-01 -3.01161129e-02 +9.53751504e-02 +1.00285709e-02 -2.32024724e-03 -2.44298391e-02 +6.14408851e-02 +2.35451251e-01 +3.29694375e-02 -7.05477819e-02 +4.80073690e-03 -1.21347494e-02 +3.56247604e-01 +3.56430709e-01 +2.57215708e-01 +2.31270090e-01 +1.62403267e-02 +4.66238149e-02 +1.17328316e-01 +8.51417705e-02 +1.12559304e-01 +1.38235912e-01 +2.46922523e-01 +1.81114078e-01 +7.32675493e-02 +1.36841118e-01 +6.17357390e-03 +1.84368208e-01 +1.83094516e-01 +1.60866510e-02 +1.27227619e-01 +3.66797477e-01 +1.97556615e-01 +2.50024557e-01 +2.00060830e-01 +6.56922534e-02 -1.70860272e-02 +1.32578298e-01 +2.36485869e-01 +8.35229978e-02 +1.66981325e-01 +1.76987022e-01 +1.48305133e-01 +6.54661730e-02 +1.16053395e-01 +1.61373302e-01 +1.96418807e-01 +6.84899688e-02 +1.52884811e-01 -5.22553623e-02 +1.78439796e-01 +2.85878573e-02 +1.35029957e-01 +6.99895918e-02 +6.64479285e-02 +1.51378900e-01 +4.14504297e-02 -6.84208721e-02 +9.22005847e-02 +5.10816276e-02 +1.19253129e-01 +7.86351860e-02 +2.14914396e-01 +3.82196903e-02 +1.90985367e-01 +6.69344664e-02 +1.46092266e-01 +1.17005490e-01 +5.85561581e-02 -3.01272073e-03 +1.52596943e-02 +2.40059137e-01 -1.96150169e-01 -1.53373806e-02 -1.06723502e-01 -8.43263566e-02 +5.98682128e-02 +2.03329280e-01 +1.47211865e-01 +1.37585863e-01 -2.10463684e-02 -4.59496081e-02 +5.25037944e-02 +8.03088546e-02 -1.11770276e-02 -1.63847744e-01 -8.67030863e-03 -8.82774033e-03 +2.37471834e-01 +1.87674686e-01 +1.29949734e-01 +6.00452088e-02 -6.05629236e-02 +1.19672678e-01 +1.52793974e-01 +2.05064267e-01 +2.47058824e-01 +6.99931085e-02 -1.16205387e-01 +1.11476239e-02 +1.84976846e-01 +4.85702753e-02 +1.82935968e-01 -3.40916924e-02 +4.49942090e-02 +7.18208477e-02 -9.34899412e-03 +1.53190959e-02 -2.34164849e-01 +2.73229517e-02 -6.72512800e-02 +2.53452007e-02 -9.05576274e-02 -6.64373022e-03 -4.12284471e-02 +2.67570078e-01 +2.24256516e-01 +2.03613907e-01 +3.14791948e-02 +3.45381707e-01 -3.05401862e-01 +1.29731134e-01 -1.38905466e-01 +4.07959111e-02 -1.22208126e-01 -2.91332722e-01 -1.62274450e-01 +2.17825565e-02 -2.17534572e-01 -3.05718213e-01 +2.93652803e-01 -2.14145720e-01 -3.55471000e-02 -1.34348825e-01 +2.93078840e-01 -1.70077950e-01 +1.16510548e-01 +3.07953488e-02 +7.48198703e-02 +5.52677102e-02 -6.65084794e-02 -1.69539049e-01 +2.27278039e-01 +2.70611614e-01 -1.65105298e-01 +2.92890817e-01 -1.02706388e-01 -1.72117144e-01 -1.79553762e-01 +8.34188703e-03 -9.87001583e-02 +1.19647652e-01 -1.11560225e-01 +2.63688624e-01 +5.67699187e-02 -2.30301857e-01 -2.74070594e-02 +2.39509478e-01 -1.06343161e-02 -1.80405408e-01 -7.83915669e-02 +7.43085891e-02 -4.49954681e-02 +5.20979986e-02 +4.96936813e-02 -8.75721574e-02 +3.45896035e-01 +1.71920732e-01 -2.07949415e-01 -1.80842638e-01 +3.56810354e-02 +2.04735756e-01 -1.41971797e-01 +7.17163086e-02 +1.72788993e-01 +1.09806366e-01 +1.24375068e-01 +1.30641922e-01 +1.16696149e-01 +1.44935071e-01 -7.00095519e-02 +1.61154702e-01 +5.02876490e-02 +4.12969701e-02 +1.54594034e-01 +6.85272040e-03 -7.72823393e-02 +8.24191198e-02 -9.34709609e-03 +1.47154570e-01 -2.54667193e-01 +7.85184801e-02 -6.17742073e-03 -4.37320396e-02 +1.84017852e-01 -9.41521525e-02 -4.87180464e-02 +9.35020521e-02 +1.25290185e-01 +2.06330091e-01 +3.73147763e-02 +2.58610070e-01 -1.27722040e-01 +1.19228669e-01 -2.18034815e-02 +7.39159854e-03 +1.03692256e-01 +1.19488478e-01 +8.22390616e-03 +9.90979224e-02 -2.43072003e-01 +2.66546339e-01 +1.84140921e-01 +7.98491761e-02 +8.60159472e-02 +2.11743161e-01 +1.26726553e-01 +2.47728825e-02 +1.04794025e-01 +2.26100534e-01 +1.09063372e-01 +7.34395608e-02 -1.43769339e-01 +5.05548976e-02 -1.41660064e-01 +9.64787528e-02 +3.22795752e-03 +2.67537478e-02 -5.32716773e-02 +1.89009324e-01 +1.88043013e-01 +3.32567506e-02 +8.03749263e-02 -7.77313933e-02 +1.61033034e-01 +1.01757936e-01 +1.68413728e-01 +1.77238256e-01 -1.92235500e-01 +5.43915704e-02 +2.98537850e-01 +5.76142110e-02 +1.11096956e-01 +2.62084931e-01 +6.01213090e-02 +1.72969311e-01 -4.59089912e-02 -2.33019173e-01 -3.63609791e-02 +1.02125853e-02 +8.54171664e-02 +2.01332895e-03 -3.38971354e-02 +1.54211223e-01 +1.18550450e-01 +2.48959541e-01 +2.67647684e-01 -1.62080601e-01 +2.86111921e-01 -9.20466334e-02 +1.82284951e-01 +3.27205211e-02 +1.19547725e-01 +1.38593465e-01 +8.49320646e-03 -6.46395236e-02 +3.42007019e-02 +3.46444361e-02 -1.50093853e-01 +2.40956038e-01 +1.78121984e-01 +2.17197016e-01 +1.83821633e-01 +2.31420070e-01 +1.53393656e-01 -4.43755556e-03 -6.77432194e-02 +2.88251471e-02 +1.99821517e-01 -2.30113968e-01 +1.99653983e-01 +1.98660687e-01 +1.37081414e-01 +1.17174804e-01 -1.18790597e-01 +7.82835484e-02 -1.99303344e-01 -7.22382441e-02 +8.67598355e-02 +2.45620534e-01 +5.30773327e-02 -5.40181026e-02 +3.50744687e-02 +3.56254689e-02 +1.81413800e-01 +1.76159024e-01 +1.15781844e-01 +1.19736880e-01 -5.16603738e-02 +5.81197366e-02 +9.74677280e-02 +3.83009128e-02 +2.05230281e-01 +1.41228661e-01 +2.58934665e-02 +1.71402648e-01 +7.17080012e-02 -1.15793131e-01 +1.07244782e-01 +7.22447038e-02 +1.01736709e-01 +3.75218764e-02 +2.52267420e-01 -1.11528637e-03 +3.14333998e-02 +2.51490355e-01 +2.06016928e-01 +2.35746890e-01 +2.78949160e-02 +3.90781730e-01 +2.72655070e-01 +2.05683485e-01 +2.66006976e-01 +1.79871082e-01 -8.39409903e-02 +3.98843661e-02 +3.12330835e-02 +2.10549101e-01 +3.66125628e-02 +1.23073630e-01 -1.25352696e-01 +8.93924087e-02 -6.41022250e-02 +3.73423398e-01 +2.38022670e-01 +2.03712463e-01 +7.29641467e-02 +3.32835287e-01 -3.40239108e-02 +3.84447664e-01 -1.31900594e-01 +2.74743855e-01 +3.08740020e-01 -2.47614104e-02 +2.63827384e-01 +3.22884470e-01 +2.99035192e-01 +4.08098519e-01 +2.14664191e-01 +1.27871111e-01 +1.26013845e-01 +1.06123760e-01 +1.82343289e-01 -7.34107429e-03 -3.19261737e-02 +3.75660248e-02 +3.33524942e-01 +1.84324428e-01 +9.79837403e-02 +7.72873312e-02 +3.02007198e-01 +6.61316514e-02 +1.69755518e-01 +1.83957145e-02 +2.03453600e-01 +8.54552239e-02 +1.59401819e-01 +1.05853289e-01 +8.01066682e-02 -8.93954094e-03 +9.94777586e-03 +1.07361272e-01 -1.49802491e-02 +3.34825039e-01 -1.58721894e-01 -4.24637794e-02 +9.63616595e-02 +1.31582364e-01 +1.09574668e-01 +9.63715389e-02 -1.00913696e-01 -9.76778418e-02 +1.60644531e-01 +7.97522366e-02 -5.24700135e-02 -6.84606135e-02 -7.86682814e-02 +4.21550497e-02 +1.10252276e-02 +6.67057782e-02 -6.13273419e-02 +1.66117083e-02 +1.11519672e-01 +5.44889793e-02 +2.49982197e-02 -1.44575208e-01 +2.25050710e-02 +1.82820916e-01 +1.12644523e-01 +1.60176188e-01 +1.24906249e-01 -1.93622142e-01 +9.07118469e-02 -8.22575018e-02 +3.21305990e-02 -1.84279248e-01 +3.33089195e-02 +3.91809382e-02 -6.73299357e-02 +1.39171779e-01 +1.55528545e-01 +2.36741509e-02 -2.08653748e-01 +1.20360637e-02 -6.61506841e-04 +4.27065796e-04 -5.62184975e-02 +1.09395407e-01 +2.89424080e-02 -3.01187690e-02 -9.62957293e-02 +4.52318229e-02 +6.88656121e-02 -1.41620219e-01 -1.28645062e-01 -2.92533506e-02 +2.14776099e-02 +1.49490148e-01 +1.12920597e-01 -1.66082308e-01 -1.16563417e-01 +1.44568086e-01 +1.82517558e-01 +1.47425368e-01 -5.36236316e-02 -2.55947351e-03 +9.87865478e-02 -9.17343050e-02 -5.12226522e-02 +1.45778969e-01 +4.14511263e-02 -7.57082775e-02 -2.87181735e-01 +1.92458369e-02 -1.49857905e-03 -7.15002269e-02 +3.79089974e-02 +1.00517355e-01 -3.72211598e-02 +1.92620143e-01 +7.36505957e-03 -5.43196499e-03 -7.62414560e-02 +1.08381703e-01 -3.23580578e-02 +1.63025931e-02 +8.77414346e-02 +7.30619812e-03 -1.09956317e-01 +1.39950484e-01 -2.75840610e-03 +2.39931837e-01 -1.17376819e-03 -4.16600853e-02 -1.69589445e-02 +2.06766859e-01 +1.67879713e-04 +1.24250576e-01 -9.63941142e-02 -1.24549102e-02 +1.01177372e-01 +2.32549816e-01 +1.39801472e-01 +1.30401418e-01 -1.55851185e-01 -2.13704314e-02 -7.12568983e-02 -5.42414747e-02 +5.43264896e-02 +6.44151866e-02 -2.38631591e-01 +1.97902292e-01 +1.09697476e-01 +7.62116984e-02 +1.28556103e-01 +6.24729553e-03 +7.98175856e-02 -2.16558371e-02 -5.62846437e-02 -2.39944384e-02 -9.23957899e-02 -1.78161711e-01 +3.49273570e-02 -4.09798808e-02 -9.48323775e-03 +6.76533133e-02 +7.42795169e-02 -9.13226306e-02 +5.26766665e-02 -8.86017978e-02 +8.11617449e-02 +4.13152397e-01 -1.21787693e-02 +6.41294569e-02 -4.23030704e-02 +1.39600962e-01 -2.09281027e-01 +2.69467443e-01 -2.46651359e-02 -5.83556294e-02 +3.83367091e-01 +2.69362867e-01 +1.26308273e-03 +1.27797067e-01 +6.69244528e-02 +1.36392489e-01 -7.21572861e-02 +2.11828306e-01 -1.94553602e-02 +8.84325132e-02 +5.55335283e-02 +1.57874510e-01 -4.90134209e-02 -4.51400392e-02 +3.73241007e-01 +1.86033860e-01 +9.10163000e-02 +4.27691592e-03 +1.48266539e-01 -1.02707639e-01 -1.77793298e-02 -6.65444368e-03 -1.27436638e-01 -2.28265345e-01 +3.12916398e-01 +1.52556673e-01 +8.99447426e-02 +3.41411024e-01 -5.15441298e-02 -2.23794892e-01 +2.31015906e-02 -1.28555998e-01 +3.38504791e-01 +2.56234676e-01 -5.33581190e-02 +2.14300960e-01 +4.00879949e-01 +1.04391046e-01 +2.07955595e-02 +8.49221796e-02 +1.40772924e-01 -1.00512989e-01 +8.25927928e-02 -9.87450406e-02 +3.67953926e-02 -4.44022752e-02 +1.26034871e-01 +1.50075510e-01 -1.11052988e-03 +1.41830683e-01 +1.45959735e-01 -6.13607243e-02 -6.66099116e-02 +1.68046862e-01 +5.81610836e-02 +3.19685608e-01 -6.80072308e-02 +1.66915417e-01 +2.42082834e-01 +1.80920497e-01 -1.92706853e-01 +5.86982787e-01 +3.83130163e-02 -4.25081477e-02 +2.62257308e-01 +5.60364902e-01 -1.24437711e-03 +2.79963225e-01 -1.51682422e-01 +2.36710906e-01 -2.16986779e-02 -1.69474613e-02 -4.58401963e-02 +2.32359365e-01 +4.77304384e-02 +5.44878691e-02 -1.35039002e-01 +2.79191975e-02 +1.36314586e-01 +1.15079515e-01 +1.89762637e-01 +2.01139182e-01 -8.17325786e-02 +1.02551594e-01 +1.55320302e-01 +4.66361374e-01 -2.04690978e-01 -5.12981229e-02 +3.00915420e-01 +3.64716589e-01 +2.06437726e-02 +1.91134617e-01 +1.09632788e-02 -1.03102252e-01 +2.33121529e-01 -7.85692260e-02 +7.74462372e-02 +1.67399645e-01 +2.24430449e-02 +2.83000320e-01 +3.85348588e-01 +5.34397773e-02 +1.43541560e-01 +3.66124392e-01 +6.76497743e-02 -5.21632247e-02 -1.76813602e-01 +5.28324209e-02 +3.20726097e-01 -1.34269223e-01 +1.78990737e-01 -6.73703179e-02 +2.75179476e-01 +1.21688791e-01 +2.17889264e-01 -2.54326105e-01 +2.17018619e-01 -2.57465709e-02 -8.76984224e-02 +6.30479395e-01 -3.68540168e-01 +1.15491398e-01 -6.77414462e-02 -1.36746481e-01 -2.32826933e-01 +5.44708371e-02 +1.01491235e-01 -7.91648999e-02 -1.28187612e-01 -1.35659754e-01 +1.27637088e-02 +2.35493138e-01 +9.58690867e-02 +8.73564929e-02 -1.21375218e-01 +4.16037394e-03 +3.34300138e-02 -8.51993635e-02 -6.31108135e-02 -4.17491458e-02 -1.26175717e-01 +7.63204917e-02 -5.96198291e-02 -7.12418556e-02 -1.73710026e-02 +7.11312070e-02 -5.33152781e-02 +1.31256327e-01 +6.92310855e-02 +9.05837193e-02 +5.48897162e-02 -3.56798284e-02 +1.36931673e-01 +1.12727992e-01 -7.42043629e-02 +4.77720946e-02 +9.02357623e-02 +1.68821275e-01 +2.16007710e-01 -1.18276216e-01 -9.86315385e-02 -1.53565735e-01 +1.35895461e-01 +6.00075535e-02 -3.21642421e-02 +2.36749090e-02 -1.70295641e-01 -9.63789448e-02 +1.13773905e-01 -5.05085476e-02 +1.08074378e-02 +6.39681593e-02 +9.30438787e-02 +8.82522576e-03 -1.47732630e-01 -8.61067139e-03 +4.65425625e-02 -1.14065848e-01 +4.91477475e-02 +9.44478139e-02 -1.22105986e-01 -8.95269215e-02 +1.23395836e-02 +1.51495337e-01 -9.82073769e-02 -4.51571979e-02 +2.51838248e-02 +6.70395419e-02 +4.18645814e-02 +1.86987177e-01 +2.86493376e-02 +4.98881526e-02 +6.85925335e-02 -2.31727958e-01 -1.18999518e-01 -1.94071069e-01 -5.31606451e-02 -1.44876450e-01 -2.74064541e-01 -8.63544047e-02 -4.46756594e-02 +1.10516474e-01 -4.19566669e-02 +4.94624339e-02 -1.07510790e-01 -1.47364035e-01 -4.94492762e-02 -3.15947950e-01 +1.01990886e-01 +1.26443431e-01 -1.16995528e-01 +2.09180899e-02 +1.78618487e-02 -4.71670879e-03 +6.89015090e-02 -3.07217658e-01 -1.17305599e-01 -1.03361502e-01 -4.15336564e-02 -2.93444157e-01 -1.06931411e-01 -3.35431218e-01 -8.07800367e-02 -1.88964140e-02 +1.66235864e-01 -6.03851266e-02 -1.85994521e-01 +1.27880961e-01 -1.80040404e-01 -3.77254933e-02 +3.53105664e-02 -3.94840278e-02 -8.48102719e-02 +4.16841246e-02 -2.06679329e-02 -2.19598860e-01 -3.07934694e-02 -8.08483630e-04 +1.46307558e-01 -1.84468314e-01 +2.46413335e-01 -6.91561475e-02 +3.06121018e-02 +1.22420236e-01 +3.83339562e-02 -8.91522467e-02 -9.08290595e-03 -2.35486537e-01 +3.69706005e-02 +3.39132883e-02 +1.46643892e-01 -1.58013683e-02 -1.71769336e-02 +1.26688913e-01 -1.03389040e-01 +2.81457119e-02 -1.04165941e-01 -6.84907883e-02 -1.03169695e-01 -2.85114765e-01 +3.88705768e-02 -8.63561556e-02 -2.01212853e-01 -1.45232573e-01 +1.37626007e-01 +7.61673227e-03 -3.39276381e-02 -2.36825347e-01 -4.60111499e-02 +1.41662052e-02 -1.13693178e-01 -4.78289016e-02 -9.04074982e-02 +8.49707946e-02 -6.83294758e-02 -5.99398538e-02 -5.75725913e-01 -4.87046242e-02 +2.67104898e-03 -2.16357708e-01 +1.19859241e-01 -3.02380353e-01 -3.10592428e-02 -4.96796787e-01 +1.94192324e-02 -2.72424549e-01 +2.59056110e-02 -9.17424709e-02 -1.09738600e-03 -1.75780669e-01 -1.15798347e-01 +1.26099773e-02 -1.67183459e-01 -6.55249357e-02 +4.53005321e-02 -1.00913800e-01 -1.81538001e-01 -6.62588403e-02 +7.70959929e-02 -7.16984048e-02 -1.18991017e-01 -2.69980788e-01 +7.38206282e-02 -7.07118958e-02 +9.66844708e-02 -2.38871515e-01 -4.25371230e-02 +1.14640594e-01 -7.79767781e-02 -3.43548834e-01 +5.80929704e-02 -1.60596713e-01 +6.21594228e-02 -5.79030178e-02 -3.36066365e-01 +3.68600264e-02 +3.48059058e-01 -5.14638245e-01 +5.36544584e-02 +3.50695588e-02 -9.33295563e-02 -3.53804827e-01 -1.03968017e-01 -2.80530125e-01 -5.53984940e-02 -9.47002769e-02 +2.19924860e-02 -2.01238230e-01 -3.56329419e-02 -2.10211903e-01 -2.24138081e-01 -1.18757360e-01 +1.33759484e-01 -3.47333372e-01 -7.87744746e-02 -3.01452309e-01 -2.65708774e-01 -5.74972332e-02 -3.16567943e-02 -1.52904227e-01 -6.59370348e-02 -5.63826442e-01 -1.52594708e-02 -2.64569670e-01 -1.85367644e-01 -3.58122706e-01 +2.62660682e-02 -3.51036280e-01 -7.58300275e-02 -2.56768137e-01 -2.40813583e-01 -8.16214904e-02 -3.02951392e-02 +1.68946683e-01 -1.75642699e-01 -2.41347719e-02 -1.90523475e-01 -2.90583104e-01 -3.23847383e-01 -2.77181029e-01 -3.85104269e-01 +3.31638008e-02 +6.68540522e-02 -1.61474366e-02 -4.19629335e-01 +2.86220154e-03 -1.17264003e-01 -4.39650595e-01 -2.03083664e-01 -1.76858947e-01 -1.42444705e-03 +2.88961798e-01 -1.21818922e-01 -1.43364044e-02 +2.12756485e-01 -2.84459502e-01 +1.08407825e-01 -1.21153176e-01 -1.34960800e-01 -3.68840359e-02 -1.86252147e-01 +4.47595902e-02 -7.73186679e-04 +1.63905278e-01 +1.84059992e-01 +2.34918832e-03 +1.95313729e-02 -3.75978798e-01 +3.47509086e-02 -2.00270861e-01 +1.18773818e-01 +7.39934444e-02 -8.52515325e-02 -1.31740449e-02 +3.90670821e-02 +8.32228363e-02 +6.71303719e-02 +1.21702336e-01 +1.53634310e-01 +1.62718654e-01 +1.20508596e-01 +5.52120730e-02 +1.29995644e-01 -6.55526519e-02 -2.34437987e-01 +9.58694816e-02 -1.86020151e-01 -3.37195583e-02 +7.92830735e-02 -2.69226074e-01 -1.65295467e-01 -3.06920230e-01 -1.69648319e-01 +2.53460675e-01 -2.00034365e-01 -8.59450623e-02 +7.36155659e-02 +2.80988604e-01 +1.18505135e-01 +1.25578493e-01 -8.17226321e-02 -9.75234881e-02 +2.03378066e-01 -2.79866934e-01 -6.64976239e-02 +6.61876053e-02 +8.95408820e-03 +1.20948307e-01 -9.44207013e-02 -2.13281810e-01 +1.12590127e-01 +1.76188171e-01 -1.01998299e-01 -2.48953123e-02 +1.09171726e-01 -1.42324686e-01 +5.90331219e-02 +1.62281781e-01 +8.39265138e-02 +1.77957982e-01 -7.96535835e-02 +1.13905519e-02 -1.48632424e-02 -6.98136613e-02 +1.30050659e-01 -5.23284674e-02 +1.51955202e-01 +9.57957283e-02 +9.50792730e-02 +1.79062903e-01 +1.65406406e-01 +2.03025445e-01 +2.85346657e-02 +2.64964461e-01 +3.63794006e-02 -1.93489660e-02 +5.93678420e-03 -1.44764304e-01 -1.43797789e-02 +2.73001324e-02 +3.39319333e-02 +5.30000664e-02 +7.25565925e-02 +4.05591391e-02 -3.66821215e-02 -8.35792348e-02 +1.86859041e-01 +2.21253708e-01 +3.48691255e-01 +5.98497391e-02 +3.92428376e-02 +4.81656455e-02 -8.42511877e-02 +1.37535408e-01 -8.31102356e-02 +1.76233605e-01 +4.36290205e-02 +3.58949721e-01 -9.92878750e-02 -7.12252855e-02 +2.25019939e-02 +2.21914768e-01 +7.70695806e-02 -2.27812082e-02 +1.02900937e-02 -1.60692692e-01 +3.52898315e-02 +3.93231772e-02 +6.90937489e-02 -2.05843553e-01 -6.11642702e-03 +2.10100822e-02 +7.24346042e-02 +1.38914749e-01 -5.05706016e-03 -5.11634089e-02 -8.10546726e-02 -1.23406900e-02 -5.99612370e-02 -4.63414118e-02 -5.04180081e-02 +1.79986745e-01 +6.82680532e-02 +6.86197430e-02 +6.90923706e-02 +5.00402823e-02 -5.04071712e-02 -4.76449057e-02 +1.20044388e-01 +8.24329257e-02 +1.45457536e-01 +1.01193525e-02 +1.58130396e-02 -4.73580882e-02 +8.70621130e-02 +2.16760918e-01 +1.18973121e-01 -7.87140131e-02 +2.58963317e-01 +2.00676262e-01 -9.37344786e-03 +1.76342458e-01 +2.94055998e-01 +1.77407444e-01 +7.16511384e-02 -3.40422392e-02 +1.08208857e-01 +1.76595747e-01 +1.48793697e-01 -3.83960903e-02 +3.19177270e-01 -6.00834284e-03 -3.90656106e-03 -2.05667205e-02 +9.70125124e-02 +3.63594204e-01 +1.00076124e-01 -5.85813187e-02 -7.20750913e-02 +2.75614858e-01 -6.69708326e-02 +2.22614154e-01 +2.70981155e-02 +8.55068639e-02 +1.75847650e-01 -5.04460670e-02 +2.40761101e-01 +1.92481309e-01 +3.75716358e-01 +2.38714784e-01 -4.39103171e-02 +8.67998600e-02 +5.89809120e-02 -9.55675635e-03 +1.30329341e-01 +6.63398430e-02 +1.00679338e-01 +2.15352222e-01 +3.23228240e-02 +1.37435094e-01 +2.44433060e-01 +3.04663748e-01 +9.26752090e-02 +7.80812576e-02 +8.58882442e-02 +1.35565326e-01 +1.90251261e-01 +1.64305359e-01 +6.40804544e-02 -4.60898951e-02 -3.58727239e-02 -1.31081447e-01 -1.05009288e-01 +1.10471912e-01 +6.54266700e-02 +5.79824261e-02 +2.49827325e-01 +3.22863534e-02 +6.67247549e-02 +3.26707035e-01 +1.36585549e-01 +1.05892047e-01 +1.24768302e-01 +2.18472481e-01 -1.24490760e-01 +1.25065148e-01 +4.25851405e-01 +1.90172315e-01 +8.87373090e-02 +2.51133412e-01 -5.21984603e-03 +6.68221563e-02 +2.01222584e-01 -1.82634294e-01 +1.14052035e-01 +1.40038738e-02 +2.20228016e-01 +6.57398626e-02 +1.29449785e-01 +1.45297945e-01 +2.94708572e-02 +3.45813751e-01 +1.46248281e-01 +2.69512445e-01 +9.11345985e-03 +8.34067836e-02 +2.40684316e-01 -6.51320443e-02 +6.14834055e-02 +3.00611973e-01 +1.72677830e-01 +2.97873050e-01 -2.83316802e-02 +1.85746193e-01 -2.04352602e-01 +1.39126927e-01 +2.04176933e-01 -9.99882892e-02 +2.78352350e-01 -5.86659741e-03 +3.95357199e-02 +1.95538104e-01 +1.40554547e-01 +2.62482762e-01 +1.06725104e-01 +3.11406404e-02 +3.53017688e-01 +7.01793376e-03 +1.40260488e-01 +1.55080497e-01 +1.71474349e-02 +1.24760948e-01 +3.71093722e-03 +8.01717043e-02 -5.88208176e-02 -1.47035629e-01 +9.61474776e-02 +3.17427926e-02 +1.62724555e-01 -5.37944511e-02 -1.12931775e-02 -1.47443414e-01 -1.64356709e-01 +2.30155867e-02 +5.26759624e-02 +8.21456462e-02 +2.33969837e-02 -6.44823909e-02 +7.26373717e-02 +2.04175990e-02 +1.77660108e-01 -7.80859813e-02 +1.77558184e-01 +8.71906579e-02 -7.98303708e-02 -2.29902491e-01 +3.13678682e-02 -8.47182348e-02 +1.47589505e-01 +1.55709460e-01 -1.87801600e-01 +4.97229174e-02 +7.71721313e-03 +2.03111526e-02 +7.51021579e-02 -5.09073846e-02 -5.44848107e-02 +9.48787630e-02 +2.30303500e-02 -2.32349969e-02 +1.28006116e-01 -1.42262205e-01 +1.20314337e-01 +1.92514881e-01 -1.86227471e-01 +1.34421453e-01 -1.94212303e-01 -9.19734016e-02 +1.43187866e-01 +9.17373449e-02 +9.55582261e-02 +8.22319239e-02 +8.03024769e-02 +1.26344450e-02 +1.04143128e-01 +1.35087430e-01 +1.09341115e-01 -2.72372067e-02 +1.61010474e-01 -7.30023384e-02 +9.47855711e-02 -5.93842454e-02 -1.12819344e-01 -1.16020590e-01 -4.16548969e-03 +6.73469901e-02 +2.06866935e-01 +9.39414203e-02 +2.05644637e-01 +1.35496661e-01 +2.95037031e-01 +2.38216426e-02 -5.39531223e-02 +6.87741265e-02 +4.60682111e-03 -8.76274928e-02 -3.85036245e-02 +9.89751294e-02 +4.46151420e-02 +2.76380368e-02 -2.63650459e-03 +3.93147394e-02 +1.91037059e-01 +2.50295132e-01 -8.87978077e-03 +3.41709107e-02 +1.61434218e-01 +8.59764889e-02 +1.14168711e-01 -1.56069100e-01 +1.14375561e-01 -1.97549090e-02 +1.22156247e-01 -9.12142247e-02 -1.71779767e-02 +3.06068850e-03 +3.02240163e-01 +5.24471849e-02 +3.67838107e-02 +1.16765216e-01 +2.54052430e-01 -3.76133114e-01 +1.82236120e-01 -1.09057322e-01 +1.80553362e-01 +2.21119091e-01 -5.48985377e-02 -1.25026852e-01 +1.11289687e-01 +7.14701638e-02 +1.08091861e-01 +8.72211382e-02 -7.41297677e-02 +2.12211370e-01 -8.16040784e-02 +1.12074986e-01 +4.42556962e-02 +9.64097492e-03 +6.54930323e-02 +8.94805938e-02 +4.04112227e-02 +1.01266883e-01 +8.52905437e-02 -9.95058268e-02 +2.40461245e-01 +2.17769340e-01 +1.78419322e-01 +2.17643157e-01 -1.21425763e-01 -3.78599502e-02 +9.27798599e-02 +5.47588505e-02 +4.20696810e-02 +6.27811253e-02 -1.95482031e-01 -2.81877462e-02 -5.31103499e-02 +1.68322265e-01 -9.56388265e-02 -8.24828371e-02 +1.05159558e-01 -2.13244021e-01 +1.20446451e-01 -2.76835978e-01 -9.82633382e-02 -5.43145984e-02 +1.70128345e-02 +3.49079669e-02 -4.61570267e-03 -3.18223946e-02 +2.00046506e-02 +3.11274976e-02 -7.14485943e-02 -1.83047324e-01 -4.22903374e-02 +1.87675357e-01 -1.28687188e-01 +4.21399400e-02 -4.18412238e-02 -2.67908517e-02 -2.11109549e-01 -8.50027874e-02 +7.77575076e-02 -3.37728351e-01 +2.08430160e-02 -1.21446580e-01 -1.32966936e-01 -2.75826335e-01 -4.40964252e-02 +1.79225244e-02 -2.93322742e-01 -2.24930018e-01 -1.19555168e-01 -2.17339560e-01 -2.01644301e-01 -1.15966812e-01 -1.08210295e-01 -6.48796186e-02 -2.37398803e-01 +1.25627846e-01 +7.36981481e-02 +1.94484800e-01 -3.51530612e-02 +3.09421241e-01 -7.34253302e-02 +1.98944479e-01 +9.64745134e-02 -1.44448519e-01 -2.06306223e-02 +2.45151520e-01 +9.70879570e-02 -1.61790460e-01 -2.04220697e-01 -2.01703921e-01 +4.97104563e-02 -6.73239678e-02 -1.10287659e-01 +7.28904232e-02 +1.66292399e-01 -2.62459755e-01 -1.68075383e-01 +1.24167375e-01 -1.40705016e-02 -2.87950058e-02 +1.96826547e-01 +3.92388292e-02 -1.04075730e-01 +4.78746369e-02 +9.48062167e-02 -1.72942504e-01 +2.53320783e-01 -1.14599332e-01 +3.42021465e-01 +7.90161863e-02 +3.85991603e-01 -4.76706736e-02 +2.07351446e-01 -1.69656098e-01 -3.17355931e-01 -2.04485357e-01 -1.60954297e-02 +6.73852712e-02 +1.88778061e-02 -9.14116353e-02 +9.86080095e-02 +1.30134225e-01 +1.76887631e-01 -1.57016948e-01 -2.74289846e-02 +5.34788892e-02 +7.32858703e-02 +1.76535413e-01 +2.02022702e-01 +1.63071096e-01 +2.02719830e-02 +1.05215952e-01 -4.46277950e-03 -7.01349527e-02 +2.35121131e-01 -3.67332958e-02 +4.55106832e-02 -1.47143781e-01 -1.93485424e-01 +1.15105614e-01 +2.25135460e-01 +9.80842933e-02 -9.13203508e-02 +2.12561876e-01 +1.78424641e-01 -1.35323852e-02 +1.24569476e-01 +1.52750671e-01 -1.05314411e-01 +2.54773367e-02 +1.81468174e-01 +1.03133000e-01 +1.08745083e-01 +1.67289257e-01 +2.70251006e-01 +5.05087599e-02 -3.74264903e-02 +1.57791927e-01 +3.32613796e-01 +6.62994385e-02 -2.58534640e-01 -1.35151729e-01 +2.25848958e-01 +2.58827657e-01 +1.18745960e-01 +6.83094040e-02 +1.51236668e-01 -7.69005194e-02 -1.96261272e-01 -2.58451134e-01 -4.51006293e-02 -4.83694859e-02 -7.96640888e-02 +2.31427193e-01 +1.30468234e-01 -5.53473011e-02 +1.90835774e-01 +3.26338202e-01 -6.72212765e-02 +1.25974700e-01 +7.72546381e-02 -8.80017802e-02 +2.57073506e-03 +1.62384823e-01 -1.16789162e-01 +8.15179572e-02 -8.68797526e-02 -2.88024601e-02 -4.05875295e-02 +8.61048177e-02 -2.16747448e-01 -2.31917924e-03 -7.49032870e-02 +6.80601001e-02 +7.78840482e-02 +1.49739206e-01 -1.46299064e-01 +6.44719750e-02 -2.96146460e-02 +1.47456288e-01 +9.15267169e-02 -3.08321733e-02 -4.53298874e-02 +8.96727070e-02 -1.95198044e-01 -1.84691593e-01 +1.35196090e-01 +8.58723670e-02 +1.36135146e-01 -9.58591420e-03 +5.14714094e-03 -1.69189289e-01 +9.14054066e-02 +1.76906809e-01 +9.95686501e-02 +5.05097210e-02 +2.89055496e-01 -2.35620394e-01 -1.26414588e-02 +1.68026447e-01 -5.35073951e-02 +1.21484116e-01 +3.48953873e-01 +2.99600847e-02 +7.98960798e-04 -1.52307916e-02 +1.81037650e-01 -1.41073555e-01 +1.36547580e-01 -2.60401338e-01 -1.06591508e-01 +9.19315498e-03 +9.80978459e-02 -4.45877947e-02 +6.68530986e-02 +2.14895666e-01 -1.93361077e-03 -7.64232650e-02 +1.04445957e-01 +9.99653190e-02 +1.82829916e-01 +2.53994048e-01 +4.10538837e-02 +1.24073289e-02 +2.35015079e-02 +2.98437715e-01 +5.22215664e-02 +1.20362729e-01 +6.60752580e-02 +2.04728290e-01 +2.29695402e-02 -8.81580785e-02 +2.96378434e-01 -1.18740767e-01 +3.51636320e-01 +1.18683547e-01 -8.09930637e-03 -1.10966437e-01 +1.40645608e-01 -2.65074166e-04 +3.48632604e-01 -6.54956400e-02 -7.74120772e-03 +4.35560197e-02 -7.15133548e-02 +5.27875014e-02 -1.27638042e-01 +1.17910758e-01 -3.01869232e-02 -3.57621796e-02 +1.81639835e-01 -2.22377181e-01 +3.28755289e-01 +3.15834954e-02 +1.27000604e-02 +2.97826529e-01 +1.01002268e-01 +1.29004315e-01 +5.36166094e-02 -5.61813600e-02 +4.49084789e-01 -1.58601925e-01 +4.18576635e-02 +5.99746034e-02 +5.60187325e-02 +3.60266268e-02 +3.59505527e-02 -9.57972370e-03 +5.66664301e-02 -2.93460004e-02 -8.58694315e-02 +6.71364293e-02 -4.43103500e-02 -1.01868257e-01 +6.46477044e-02 -1.60514101e-01 +1.83323339e-01 -1.59502566e-01 +7.32391551e-02 +1.24752201e-01 -7.27397501e-02 -4.33649793e-02 +1.08636506e-01 -4.62028719e-02 -7.70904571e-02 +1.61761016e-01 +1.61992624e-01 -6.78497702e-02 +1.94653347e-01 -3.82877588e-02 +5.33727370e-02 -3.71628217e-02 +6.68963045e-02 +1.23175278e-01 +2.30978020e-02 +4.42730449e-02 +8.45114589e-02 +6.88499510e-02 +1.42133459e-01 -5.80895739e-03 -8.47016573e-02 +2.27832403e-02 -3.08611780e-01 -2.11422533e-01 +1.83598727e-01 -1.08294971e-02 +1.88257024e-01 +1.83463544e-01 -1.25770709e-02 +3.21254507e-02 -3.09276909e-01 +7.98147693e-02 +1.67132095e-02 +1.94375977e-01 +5.28027024e-03 -3.14148873e-01 -3.07544298e-03 +4.13596742e-02 -1.09493420e-01 +1.96998432e-01 +4.98430990e-02 -7.80418590e-02 -3.46262679e-02 -4.16573137e-02 +6.78653046e-02 -1.35083377e-01 +4.58568074e-02 -1.36927292e-01 +2.96852052e-01 +1.81923106e-01 +9.69022736e-02 +3.63853961e-01 +2.00067639e-01 -1.10972613e-01 +2.03553408e-01 -2.93774959e-02 -5.30046932e-02 -1.46685019e-01 +3.11423242e-02 -7.91799575e-02 +1.16392352e-01 -7.56682679e-02 +6.73324689e-02 +9.00823101e-02 +2.13959485e-01 -2.89612673e-02 -1.00550048e-01 +1.58844935e-03 +4.03442122e-02 +1.11140385e-01 +3.45997244e-01 +3.88586596e-02 +4.14381064e-02 +1.29839733e-01 -1.06975339e-01 +2.22064286e-01 +8.51823464e-02 +1.74693018e-01 +2.83213258e-01 -1.14065729e-01 +1.67436779e-01 -6.92731217e-02 +1.53524220e-01 +1.61602259e-01 +1.42721683e-01 -3.55750113e-03 +1.16425477e-01 +7.35479146e-02 +8.74029547e-02 +2.87050337e-01 +4.72546928e-02 +4.00845468e-01 -2.18710154e-02 +3.03620219e-01 -2.50040770e-01 -4.94314097e-02 -2.31057808e-01 +4.42494638e-02 +3.13186377e-01 -2.57431537e-01 +3.04778039e-01 +1.81048959e-01 +3.26972604e-01 +2.39868149e-01 +1.09503381e-02 -1.19839065e-01 -1.01873046e-02 +5.78375868e-02 +1.28704458e-01 -1.15678646e-01 -2.02821493e-01 -9.54388306e-02 -2.70884410e-02 +2.16814335e-02 +9.44436938e-02 +2.99416721e-01 +1.65271208e-01 -2.63302326e-02 +2.55591601e-01 +7.96521232e-02 +2.17119560e-01 +8.78675431e-02 -1.90091774e-01 -1.05572790e-01 +2.44854931e-02 -1.49900660e-01 +4.49015871e-02 +9.84783769e-02 +1.63150001e-02 +1.72063019e-02 -6.19914979e-02 -5.92457131e-02 +1.87294446e-02 +2.94899076e-01 +5.05090430e-02 +1.71490103e-01 +1.42318457e-01 -8.32017586e-02 +2.72940725e-01 -5.78057989e-02 +2.38184556e-01 +6.46522790e-02 -1.00252338e-01 +4.79108170e-02 +5.34823835e-02 +1.60218358e-01 +3.15969028e-02 -1.30710661e-01 +3.11743710e-02 +5.49014658e-02 +1.13721482e-01 +1.39239386e-01 -1.22979051e-02 +2.51936689e-02 +1.32471910e-02 -7.37938583e-02 +1.51449114e-01 -7.89477006e-02 -6.14662394e-02 +4.97945063e-02 +8.85027200e-02 +9.65722129e-02 -7.24594248e-03 -2.30866387e-01 +2.40215108e-01 -1.70957938e-01 -9.19766054e-02 +3.00797671e-01 +1.72384575e-01 -5.62462136e-02 +1.16070591e-01 +4.61109132e-02 +4.51519564e-02 -2.18505389e-03 -9.61655751e-02 +2.14353338e-01 -7.97928423e-02 +3.85766216e-02 +4.04386707e-02 -1.73519671e-01 +1.02015715e-02 -6.78581223e-02 +1.84886411e-01 -8.02881941e-02 -1.00474179e-01 -2.17626885e-01 +6.83316737e-02 -1.00931823e-01 +6.39129952e-02 +5.98948868e-03 -1.15066029e-01 +1.56514104e-02 -2.05450095e-02 +2.79229879e-02 +7.75950029e-02 -1.21905599e-02 +9.24781412e-02 -2.57720262e-01 -3.66988555e-02 +1.48529187e-01 +3.27747315e-02 +4.47394103e-02 -8.60149488e-02 +2.34792824e-04 -3.15276794e-02 -1.71889335e-01 -2.29977056e-01 -3.95276882e-02 +3.45829278e-02 -4.86221984e-02 -1.35046557e-01 -1.60048723e-01 -7.25263031e-03 +8.75335857e-02 -3.49121653e-02 -1.11855172e-01 +1.81056827e-01 +4.03492488e-02 +1.19041866e-02 -9.23271552e-02 -8.65950584e-02 -3.83128561e-02 +7.14863092e-02 +1.20420821e-01 -4.43815552e-02 +7.33703971e-02 +2.05685124e-02 +1.50284469e-01 +1.38931856e-01 -9.80354548e-02 +2.08909035e-01 -1.36885986e-01 -2.40526304e-01 -5.30129522e-02 +8.42112899e-02 -1.46014959e-01 +8.30265582e-02 -8.96057785e-02 -6.85859099e-02 +1.13084853e-01 +1.56629737e-02 +2.51008067e-02 -2.65951511e-02 -1.23097986e-01 -1.22077823e-01 -1.32359877e-01 -7.48651102e-02 -6.74618632e-02 +5.63774165e-03 -2.35779993e-02 -5.04212491e-02 -4.75246608e-02 -1.78061128e-01 -1.10690847e-01 -1.78984657e-01 -1.14553384e-01 -1.50831670e-01 -2.87072128e-03 -8.88659284e-02 +2.51597296e-02 -1.37061998e-01 -2.64340699e-01 +1.31340045e-02 -3.31561938e-02 -1.45179152e-01 +6.82674199e-02 -1.85099617e-01 -1.03889771e-01 +1.63601696e-01 -2.03944758e-01 +1.22054154e-02 -1.14378929e-01 -1.81562662e-01 -2.26555914e-01 +1.30497376e-02 -5.31810373e-02 -2.95962095e-02 -2.77054701e-02 +3.47864032e-02 +5.80876507e-03 -1.61608800e-01 -1.69169843e-01 -2.74199575e-01 -1.14230402e-01 -1.31100759e-01 -1.48910135e-01 -8.80764052e-02 -1.60504922e-01 -2.81258263e-02 -1.84617206e-01 -2.43377134e-01 -1.71587779e-03 -6.44836053e-02 -1.60084620e-01 -1.84201375e-02 -2.89373428e-01 +4.85184230e-02 +7.63486177e-02 +2.68737366e-03 -1.39310881e-01 +6.07155301e-02 -3.17848078e-03 -1.31363660e-01 -4.75725941e-02 -2.37054706e-01 -1.83850944e-01 +2.19975561e-01 -4.21199322e-01 -4.27685417e-02 -5.10053523e-02 -1.07688300e-01 -1.76214710e-01 -1.97593480e-01 -2.63383895e-01 -1.47710785e-01 -1.22535966e-01 -5.38622541e-03 -1.43805146e-01 -8.81706625e-02 -3.02421719e-01 -8.71437788e-02 +6.78263530e-02 -4.55398932e-02 -2.72892207e-01 -6.64502084e-02 -3.70681792e-01 -2.88462639e-01 -4.50270884e-02 +2.33900324e-01 -2.40670457e-01 -6.21708333e-02 -3.18917274e-01 +2.37847105e-01 -1.21559076e-01 -3.77249986e-01 -5.07856207e-03 -3.87183189e-01 -3.52560490e-01 -1.57492027e-01 -1.16386507e-02 -1.32130638e-01 -1.55045643e-01 -1.86809361e-01 -4.59766909e-02 -1.94788396e-01 -2.54193842e-01 -1.65003344e-01 -3.42389643e-01 -3.75648379e-01 -2.82267600e-01 -1.82232484e-01 -4.74955365e-02 -1.81485489e-02 -2.07567126e-01 -4.06491846e-01 +7.53029883e-02 -1.32526070e-01 -9.13787410e-02 -3.10192425e-02 -2.47858480e-01 -1.62824437e-01 +6.94606900e-02 +3.37259062e-02 -1.03358686e-01 -1.75984398e-01 -2.33323663e-01 +1.56301796e-01 -2.52484763e-03 -2.06236285e-03 +2.16442142e-02 -1.57049030e-01 -1.54284269e-01 -2.00411603e-01 -1.14724979e-01 +1.41076744e-01 +1.14823014e-01 +4.67449464e-02 +1.06098000e-02 -9.17680040e-02 +3.63248289e-02 +1.06151871e-01 +1.17543057e-01 +1.70857906e-02 +1.86961666e-02 -5.53513505e-02 +9.64450836e-02 -6.98938146e-02 +9.67575982e-02 -2.79918173e-03 +8.17035139e-02 -1.37429997e-01 -2.97925156e-02 -8.71831924e-02 +9.80729163e-02 -2.41886437e-01 +1.74227562e-02 -1.81686208e-01 -6.76053315e-02 +4.28390205e-02 -1.74845338e-01 -1.61871016e-01 -1.99026272e-01 +4.09579873e-02 +1.94103152e-01 -2.79312395e-02 -3.58107965e-03 -8.68599117e-03 +1.65695518e-01 +1.20957449e-01 +1.05579153e-01 +1.61606565e-01 +7.22249551e-03 +9.13630724e-02 -4.26713079e-02 +3.23208198e-02 +2.58112028e-02 +8.05935860e-02 -3.27553265e-02 -1.33780405e-01 -3.25281508e-02 +1.01171806e-01 -5.84694818e-02 +6.38546124e-02 +8.99870321e-02 +7.19522089e-02 -3.46098468e-02 -3.84167694e-02 +1.56533401e-02 -1.78610414e-01 -1.35478843e-03 +1.02937326e-01 -5.57190878e-03 -3.68295759e-02 +1.07716039e-01 +7.03560337e-02 -2.47379586e-01 +2.92102024e-02 -1.06194608e-01 -1.50657386e-01 -7.47575164e-02 -1.10000655e-01 +8.99527371e-02 -1.79509118e-01 +1.10367872e-01 -1.60201117e-01 -2.45596021e-01 -1.25440031e-01 -4.99597639e-02 -1.99474618e-02 +1.54459909e-01 -1.58307850e-01 +2.56582834e-02 +1.35116816e-01 -6.16753362e-02 -2.63172895e-01 -1.22998416e-01 -1.72429353e-01 -2.18127295e-01 +1.56225756e-01 -2.25849599e-01 +8.69601667e-02 +1.02623239e-01 +8.78581181e-02 -1.31733213e-02 +6.23225607e-03 -2.12258488e-01 +5.58914170e-02 -2.47158170e-01 -7.66082928e-02 -1.79976121e-01 +1.88175544e-01 -9.71613452e-02 -2.01946199e-01 -4.60376367e-02 -1.35034591e-01 -6.41491711e-02 -1.97067946e-01 -9.27491114e-02 -1.88093975e-01 -1.51917756e-01 -2.40910694e-01 -1.18888237e-01 -1.22658961e-01 -9.86741036e-02 -2.31524818e-02 -3.71174306e-01 -8.69493186e-02 -3.08795333e-01 -3.70262861e-02 +4.37115692e-02 +4.52141576e-02 +4.78923842e-02 -8.45965520e-02 -4.10911322e-01 -5.49828708e-02 -9.04600918e-02 -9.51819494e-02 +2.97293905e-02 +5.58055192e-02 +3.16360779e-03 -1.19588919e-01 +9.42490995e-02 -3.93438339e-01 -2.27332547e-01 -6.13283217e-02 -1.90729164e-02 -9.56735834e-02 -2.01933399e-01 -1.13043971e-01 -9.04741958e-02 -1.21107744e-02 -7.99793452e-02 -1.98296197e-02 -6.89437762e-02 +1.72089964e-01 -2.80170906e-02 -2.30966687e-01 -1.82314459e-02 -7.07185790e-02 -1.31228298e-01 +9.62491781e-02 -4.21840936e-01 +6.15521520e-02 -1.21423542e-01 +5.97241297e-02 +7.67666623e-02 -1.26522869e-01 -3.11025716e-02 +1.15414998e-02 -1.86953053e-01 -1.41845182e-01 -1.02916144e-01 +5.30536696e-02 +1.10905014e-01 -3.29516709e-01 -2.94131219e-01 +4.38006446e-02 -2.08483577e-01 -2.92804688e-02 -4.01083976e-02 -4.29137871e-02 +7.40615129e-02 -1.32128745e-01 -6.09657280e-02 -1.46331251e-01 -1.01553947e-01 -1.61479548e-01 +1.75991163e-01 -1.46132514e-01 -1.80794880e-01 -8.98673907e-02 -4.54848409e-01 -1.10308111e-01 +2.19065044e-02 +8.86670724e-02 +2.76687834e-02 -1.92475736e-01 -3.34474683e-01 -1.06238417e-01 -2.53598034e-01 -3.05572182e-01 -1.41260847e-01 +1.17011098e-02 -3.18313301e-01 -1.67782933e-01 -1.07986376e-01 -1.72231808e-01 -4.74969208e-01 -3.83908570e-01 +2.90392190e-01 -4.98303957e-02 +4.32504863e-02 +5.40312752e-02 -1.89323008e-01 -5.50195109e-03 -2.63156414e-01 -1.51585648e-03 +4.09174850e-03 +1.70697086e-02 -1.61490947e-01 -1.90737307e-01 -1.54787838e-01 -4.79378909e-01 -3.50960493e-01 -7.88987577e-02 -1.08508602e-01 +5.69634400e-02 -4.15964156e-01 +3.04193109e-01 +1.44968808e-01 -3.12664449e-01 -3.11108470e-01 -3.26083824e-02 -3.37743700e-01 -6.67262226e-02 -1.51890323e-01 -5.56579269e-02 -2.66095579e-01 -1.07776947e-01 -3.36464420e-02 -1.74057305e-01 -4.25081998e-02 -5.17155267e-02 -9.37571973e-02 -6.17957890e-01 -2.30447516e-01 -8.65416601e-02 +2.67077312e-02 -1.50076255e-01 -2.16139719e-01 -2.50342786e-01 -1.40882462e-01 -2.74958134e-01 -4.64294434e-01 -5.39796770e-01 -3.80109757e-01 +7.87774250e-02 +1.79947242e-01 -1.65690854e-01 +1.80381481e-02 -1.14592589e-01 -5.38517118e-01 +6.16533421e-02 +6.13763481e-02 +8.11686888e-02 +1.48213148e-01 +4.15645279e-02 -9.97845680e-02 -2.52952240e-02 +1.26199067e-01 +3.12212203e-03 +1.14509009e-01 -1.86698809e-02 -7.67886313e-03 +5.15062138e-02 +1.57673110e-03 -1.31378070e-01 -1.08310670e-01 +1.40060335e-01 +7.57690892e-02 -5.48925810e-03 +1.38615236e-01 -2.56423447e-02 +8.40501785e-02 +1.21846385e-01 +1.44631758e-01 -1.62529811e-01 -5.19985445e-02 -1.03463806e-01 +1.42722204e-01 -1.37136772e-01 +1.62810683e-01 -7.71307037e-04 -1.62601277e-01 -9.75389853e-02 +7.65431151e-02 +1.22051559e-01 -1.63367704e-01 -1.23172536e-01 +1.90411285e-01 -5.99135533e-02 -2.04374250e-02 -1.49286259e-02 +7.99338073e-02 -6.96654394e-02 +1.33574128e-01 -1.42952994e-01 -1.02516949e-01 +1.47591233e-01 +5.53120524e-02 +5.54917343e-02 +1.06684446e-01 +2.58932691e-02 -1.33265331e-02 -6.43664673e-02 -1.37671679e-01 -1.09664366e-01 +1.21953517e-01 -5.86908795e-02 +1.07130095e-01 +1.14470549e-01 -1.00365095e-01 -5.20524718e-02 -6.23471513e-02 +2.84360707e-01 -7.37529173e-02 -8.63040462e-02 +2.05772817e-01 -3.50060104e-03 +4.86720726e-02 -1.86083645e-01 +1.54015169e-01 -6.67964965e-02 -4.47889641e-02 -3.79453972e-02 +1.69016491e-03 +2.64164694e-02 +4.56609391e-03 +1.45320386e-01 -1.37607174e-04 +5.07351570e-02 +2.24957243e-03 +1.26104662e-02 -6.52290881e-02 +5.63013181e-02 -6.83948919e-02 -1.49063036e-01 +5.25372103e-02 -1.11338822e-02 +2.01975167e-01 -5.37733249e-02 +2.05569454e-02 -1.79970935e-01 +2.42377251e-01 -5.38189113e-02 +6.33318350e-02 -1.32378235e-01 +9.40039828e-02 -3.30358148e-02 +1.96407527e-01 +1.14634946e-01 -4.89084795e-03 -8.11704062e-03 +1.19704336e-01 +1.25022009e-01 +5.79265580e-02 -2.65688598e-01 -4.02669348e-02 -1.05371654e-01 +4.57840897e-02 +6.77495673e-02 +7.99479261e-02 +1.25769287e-01 -4.28920286e-03 +7.34810457e-02 -8.54440555e-02 +7.32034445e-02 +7.70982727e-02 +4.86734584e-02 +1.11657932e-01 -1.34513840e-01 +1.16205275e-01 -3.53053026e-02 +2.90995538e-02 -5.66462427e-02 -6.55573979e-02 -3.16252038e-02 -1.05963722e-02 -1.99910123e-02 +2.17050523e-01 -1.50578558e-01 +1.06510162e-01 +4.37520668e-02 +5.48857152e-02 -2.92613935e-02 +2.40419373e-01 +1.89384103e-01 +1.15148220e-02 +1.23268723e-01 +4.07107919e-01 +3.60188098e-03 +3.34539980e-01 +1.37047619e-01 +1.78707674e-01 -1.15418561e-01 +1.83059379e-01 +1.47938756e-02 -2.88035553e-02 -8.31318125e-02 +1.82216585e-01 +4.82856445e-02 +1.61871284e-01 +2.58619815e-01 +1.44634068e-01 +1.64360940e-01 +2.00007707e-01 -2.09760331e-02 +7.98961148e-02 +1.16888635e-01 +2.13108942e-01 -1.15181088e-01 -1.12362383e-02 +1.18777536e-01 -1.05750732e-01 +3.96385752e-02 +2.39864498e-01 +7.68325105e-02 +9.77657363e-02 -3.15056518e-02 +1.34406716e-01 +6.63256496e-02 +4.29118276e-01 +2.52552214e-04 +1.91247120e-01 +3.31786603e-01 +1.56180009e-01 +3.27236861e-01 -9.30241216e-03 +1.57017335e-01 +8.14623088e-02 +9.40436348e-02 +1.34726986e-01 +1.43613845e-01 +7.46985376e-02 -5.91213293e-02 +1.21312097e-01 +2.48702481e-01 +2.12659225e-01 +1.69235840e-01 -1.01681994e-02 -3.54157500e-02 -9.66766383e-03 +2.11275801e-01 +2.33168185e-01 -6.20571114e-02 +1.44026265e-01 +2.69893408e-01 +1.60166025e-01 -2.97562718e-01 +3.29967618e-01 -1.83208045e-02 +4.24217805e-02 +1.76861674e-01 +3.57995987e-01 +6.04119375e-02 +1.36144802e-01 +2.63418496e-01 +3.48935038e-01 +6.15491308e-02 +8.38516131e-02 -1.42084911e-01 +1.85737461e-01 -6.76350743e-02 +1.12727851e-01 -4.02554236e-02 +2.28251487e-01 -4.94340807e-02 +4.26036924e-01 +4.25515845e-02 +2.29483634e-01 -1.05126470e-01 +1.54568583e-01 -3.40128839e-02 +3.42388362e-01 -2.10321933e-01 +1.31221518e-01 +3.54033560e-01 +1.93126887e-01 +3.01584244e-01 +3.54800880e-01 +2.54250467e-01 +1.69281110e-01 +2.18230158e-01 +8.81496295e-02 +1.99052513e-01 +1.16655137e-02 +1.20672993e-01 +2.94559956e-01 +1.88667048e-03 +2.37699255e-01 +4.84307826e-01 +1.01013407e-01 +4.06316102e-01 +7.05521926e-02 +2.15936884e-01 +1.13058344e-01 +2.01793626e-01 +5.93183264e-02 -3.34978625e-02 +1.25693470e-01 +3.11500430e-01 +3.01266402e-01 +4.26728040e-01 -1.53154537e-01 +2.56127089e-01 +5.44843599e-02 -1.19095966e-01 +3.64313751e-01 +3.83157376e-03 +8.61108005e-02 -7.10960403e-02 +1.56254638e-02 -2.12175667e-01 +7.07211494e-02 +9.02285874e-02 +1.05454408e-01 -1.34814798e-03 -1.93046480e-01 +2.00410381e-01 +2.53088832e-01 -8.04236755e-02 +2.55494863e-01 -4.82596271e-02 +4.77540260e-03 -2.38245837e-02 +1.12284437e-01 +7.64569044e-02 -1.70978144e-01 -7.10237920e-02 -4.94141802e-02 -5.14541613e-03 -1.17182329e-01 -1.74016375e-02 +6.24573715e-02 -5.75417168e-02 +1.06037267e-01 +1.72515899e-01 -1.16192266e-01 +1.65064320e-01 -4.06126566e-02 -2.05501635e-02 +1.34626508e-01 +1.47057652e-01 +3.63456346e-02 +3.14220265e-02 +2.08657747e-03 -3.04160938e-02 -2.93926280e-02 +6.00151382e-02 -3.04282159e-01 +5.43407127e-02 +7.99292624e-02 +3.77911665e-02 -3.67544778e-02 -1.13126831e-02 -7.88609236e-02 +1.40078485e-01 +4.49566022e-02 +5.49547300e-02 +3.91343748e-03 +9.41750929e-02 -1.16574660e-01 +1.97326969e-02 +1.00680217e-02 -6.80127218e-02 +9.85781848e-02 -9.14954245e-02 -1.02918170e-01 -7.42352307e-02 +3.72330584e-02 +4.39919392e-03 +9.42224339e-02 -1.37217805e-01 +1.05453685e-01 -5.10130525e-02 +8.94160420e-02 -1.82911053e-01 +3.77305970e-02 -9.53848287e-02 -1.62483111e-01 -9.64240134e-02 +3.09828185e-02 +7.70776868e-02 -2.11794823e-01 -1.40274931e-02 -7.39956126e-02 +2.44754702e-02 -1.06402658e-01 +1.57737345e-01 -8.00373405e-02 -1.17891707e-01 -1.78338543e-01 -8.91676843e-02 -1.53399380e-02 -4.05326486e-02 +1.18047945e-01 +7.63184652e-02 -1.17929177e-02 -1.34495152e-02 -1.87683076e-01 -2.38763839e-01 -1.46760896e-01 +5.90758100e-02 -1.04204848e-01 +1.72656346e-02 -9.89244729e-02 -1.07549481e-01 +1.91856086e-01 -1.51425600e-01 +1.47492334e-01 -3.70916016e-02 -1.69777527e-01 -1.66410971e-02 -5.91322668e-02 -2.62403525e-02 +7.69538165e-04 -1.46991611e-01 -1.70994811e-02 -1.50228649e-01 -1.37070313e-01 -8.12822878e-02 -1.90952256e-01 -2.68172380e-02 +5.33496588e-02 -2.07144707e-01 -6.14404753e-02 +5.05989604e-02 +4.41115052e-02 -2.03156054e-01 +5.54522686e-02 -1.36255756e-01 -1.53517962e-01 -1.28718942e-01 -9.52313766e-02 -8.25965330e-02 -1.41760692e-01 +6.04894795e-02 +9.72636789e-02 +1.49695100e-02 -8.43282975e-03 +1.70486748e-01 -1.42909616e-01 +2.25191876e-01 +9.68306586e-02 +1.79331377e-01 -2.23367438e-01 +4.38884236e-02 +6.72491118e-02 +8.71103816e-03 +1.58746883e-01 +6.22580796e-02 -1.34961799e-01 -7.49939382e-02 +2.77158916e-01 -1.51339680e-01 +2.49269605e-02 +2.85290405e-02 -1.23064883e-01 -8.10206831e-02 +1.16456024e-01 -1.46523397e-02 -4.76075001e-02 +1.37797564e-01 +2.15581819e-01 +3.37448001e-01 +7.20827729e-02 +3.09690744e-01 +2.13389978e-01 -1.32328793e-01 +3.17303389e-01 +3.79538894e-01 +2.95258802e-03 +1.91488847e-01 +4.19382960e-01 -4.63856384e-02 -6.38439953e-02 -4.79408540e-02 -8.14628899e-02 -5.18196002e-02 +1.29437633e-03 -1.21853851e-01 +1.08616099e-01 -9.62843671e-02 -8.74187723e-02 +5.08627221e-02 +2.41084974e-02 +8.67948961e-03 -7.21777529e-02 -9.64633469e-03 +1.80537701e-01 -5.92127070e-02 +1.30757436e-01 -9.64276679e-03 +4.74325344e-02 +9.20600817e-02 +9.74371657e-02 -1.74618647e-01 +8.04803222e-02 -1.20372035e-01 -5.34823053e-02 +1.10726587e-01 +1.12834051e-01 -6.05899319e-02 -3.95481586e-01 +1.54580936e-01 -7.94137269e-02 -5.76585904e-02 -1.98360477e-02 -1.04527026e-01 -1.43501997e-01 -1.36366963e-01 +1.65616851e-02 +2.61827469e-01 -1.16932631e-01 -6.51973188e-02 -6.80497810e-02 +5.45412190e-02 +4.94613200e-02 -2.23032638e-01 -1.98117867e-01 -2.80086458e-01 +5.68157388e-03 -2.12141693e-01 +2.39689536e-02 +2.53691506e-02 -1.21328920e-01 -7.26670623e-02 +1.00971296e-01 +7.96291754e-02 -4.26150039e-02 +3.09565037e-01 +4.92500067e-02 -4.89675552e-02 -1.16128199e-01 -9.72837806e-02 +1.74539864e-01 +4.24146689e-02 +2.46786371e-01 -8.28082412e-02 -1.20108388e-02 +6.81586843e-03 -6.33631423e-02 -3.82435918e-02 -8.77056345e-02 -1.30653724e-01 -1.30152315e-01 -1.87763229e-01 -1.27418712e-01 +2.95663685e-01 +4.16732058e-02 +1.29783019e-01 +2.17617080e-02 -7.55602419e-02 +1.77157864e-01 -3.94882470e-01 +1.51205420e-01 -2.92313337e-01 -1.96671039e-01 +9.22949240e-02 +1.95356503e-01 -2.57970095e-01 -7.89622366e-02 -5.57817635e-04 -2.52463102e-01 +3.46223742e-01 +1.21071942e-01 -7.26675466e-02 +3.28410789e-02 +1.18614390e-01 +1.69783700e-02 +1.90813228e-01 +6.42714575e-02 -3.32745574e-02 -6.19194470e-02 +1.77664831e-01 -2.43241280e-01 -1.05979078e-01 -1.42682076e-01 +1.88720524e-01 -1.48214161e-01 +1.61062300e-01 +1.83936022e-02 +8.70297626e-02 +1.32326737e-01 -7.95519948e-02 +7.88773522e-02 +1.15068920e-01 +1.19785607e-01 -1.10812793e-02 -9.38042924e-02 -1.08357586e-01 -2.17898950e-01 +1.45660743e-01 -2.15820279e-02 -3.03110760e-03 -5.94890788e-02 -3.67075980e-01 -6.89001987e-04 +3.42827260e-01 +4.63345833e-02 +2.43136585e-01 -1.49447784e-01 -6.29774258e-02 +6.76140934e-02 +2.41551131e-01 +2.65713483e-01 -1.44995376e-01 +1.29822269e-01 +7.26369396e-02 +9.94538772e-04 +1.11133143e-01 -7.27998652e-03 +2.63287406e-02 -3.19468603e-02 +1.21970057e-01 +5.74520752e-02 -6.81974739e-02 -6.01784587e-02 -5.22462279e-02 -2.08062530e-01 +1.32313594e-01 +4.49046667e-04 -3.08319647e-02 +9.35570970e-02 -4.42528763e-05 -7.48236477e-02 -4.16863225e-02 -1.63056374e-01 -1.67319372e-01 +1.27387330e-01 +1.11165643e-01 +1.27328485e-01 +1.33193448e-01 +5.00545539e-02 -1.48852188e-02 +4.44059744e-02 +1.56217679e-01 -8.64327699e-02 -2.06730410e-01 -1.39254197e-01 -6.34277314e-02 -2.32477456e-01 -5.07934727e-02 -7.07645565e-02 +1.92919269e-01 +1.12958580e-01 -2.59582791e-02 -5.14513366e-02 -1.80280551e-01 -2.22054377e-01 +6.21370524e-02 -1.15811387e-02 -8.04349184e-02 +6.08653799e-02 -1.36734873e-01 +2.92782653e-02 +6.45420030e-02 -2.04941362e-01 -6.28966838e-02 -2.45236054e-01 +8.04435834e-03 -1.88363805e-01 -4.78776544e-02 -9.73505229e-02 +4.04077508e-02 -1.97080046e-01 -1.97368190e-01 +6.33905502e-03 +3.23730637e-03 +2.81465948e-02 -1.72915235e-02 +6.66349605e-02 -2.22646281e-01 -4.79855463e-02 -7.41797015e-02 -5.45137823e-02 -1.63804218e-01 -2.27349158e-02 -1.44966751e-01 -1.29046198e-02 +2.16955021e-02 -1.34410366e-01 -5.93112856e-02 -6.44463673e-02 +1.93621293e-01 -2.93177217e-01 -1.77849829e-01 -5.97134680e-02 +1.15965284e-01 +2.35133320e-02 -2.70224945e-03 -1.45831510e-01 -1.08719833e-01 +2.95926556e-02 -4.45396677e-02 -2.36257203e-02 +3.04157808e-02 -1.02114566e-01 -3.90939927e-03 +2.20433231e-02 -2.70299911e-01 -2.58449167e-01 -1.28783807e-01 -4.78530765e-01 -2.27498397e-01 -2.00639099e-01 -3.03098887e-01 -2.65617847e-01 +1.37571529e-01 -5.51311597e-02 -2.48067781e-01 -2.44902492e-01 -2.75124401e-01 -2.94335820e-02 -3.77423674e-01 -3.74372452e-01 -1.72087565e-01 -1.87433109e-01 -3.74593139e-01 -9.87431481e-02 -1.78131759e-01 -1.28563261e-02 -4.30888794e-02 -3.11253399e-01 -2.77498990e-01 +1.26375243e-01 -5.59732243e-02 -2.82796323e-01 -5.83534800e-02 -1.41230777e-01 -1.39042720e-01 +5.69876730e-02 -2.53016829e-01 -2.15624899e-01 -4.18830290e-02 -2.70777255e-01 -4.87184346e-01 -2.54334599e-01 -2.27208123e-01 +4.38494571e-02 -2.68649936e-01 -1.19654633e-01 +1.86221004e-02 -1.03035212e-01 -5.95581159e-02 -1.86737970e-01 -7.58245736e-02 -2.72327691e-01 -1.53059259e-01 -2.84013778e-01 -2.06324711e-01 +3.51870954e-02 -1.02572933e-01 -1.72419101e-01 -1.93905130e-01 -2.27482468e-01 -1.71967313e-01 -1.06999539e-01 -1.59875318e-01 -7.16625154e-02 +5.09681143e-02 -2.54322886e-01 -2.49660179e-01 -1.59208402e-01 -2.27482378e-01 -1.03956081e-01 -1.31888479e-01 -2.09906697e-01 -9.50675979e-02 -1.75557405e-01 -7.00606629e-02 +5.72289759e-03 +5.09821735e-02 -2.23557632e-02 -2.99736075e-02 -1.53955236e-01 -1.12848662e-01 -3.38380575e-01 +4.67745587e-02 -3.03969800e-01 -1.20008498e-01 +9.70593318e-02 -3.32278498e-02 -8.50877315e-02 -2.10810661e-01 -3.46545801e-02 +6.94254935e-02 -2.68294930e-01 -2.09927171e-01 -2.82027036e-01 -7.84475580e-02 -3.22730839e-01 -4.86618951e-02 -2.00992957e-01 -2.70438135e-01 +1.61112621e-01 +5.55564277e-03 -4.73150872e-02 -2.56817728e-01 -1.00247994e-01 -3.28314811e-01 -1.49339750e-01 -1.90486118e-01 -1.18680790e-01 -3.28550130e-01 +8.90562907e-02 -2.24274606e-01 +2.86566950e-02 -1.70956314e-01 -5.81614524e-02 -1.34574054e-02 -3.91971916e-01 -2.17212468e-01 -3.16159099e-01 -4.56374168e-01 +1.01130754e-01 -2.75622066e-02 -1.52325392e-01 -2.37272739e-01 -1.15604088e-01 -3.52877602e-02 -1.16153046e-01 +3.16366442e-02 +1.47560045e-01 +4.95011620e-02 -1.48066238e-01 -1.73295185e-01 -3.83076146e-02 -7.90258572e-02 +7.06908852e-02 +1.25810370e-01 -2.79760420e-01 +4.50526141e-02 -9.42512602e-02 -7.81608298e-02 -9.64013860e-02 +3.08498144e-02 +7.41060078e-02 -4.73314822e-02 +1.68959331e-03 -1.37625068e-01 -9.34577510e-02 -4.25147153e-02 +1.75404102e-01 +2.92211742e-04 +2.19849478e-02 -1.17591128e-01 -1.26364544e-01 -1.46957085e-01 +1.33468196e-01 +3.57614048e-02 -1.35974094e-01 -7.34890550e-02 +1.16403624e-01 +2.89187748e-02 -7.41545781e-02 -5.73950782e-02 +3.69842425e-02 -1.10361293e-01 +3.69382091e-02 +5.86102195e-02 +1.12995170e-01 -8.67634267e-03 +1.25405028e-01 +4.64468114e-02 -1.20881423e-01 -4.68722731e-03 -4.62199077e-02 -4.34642844e-02 +1.61024302e-01 -4.83156648e-03 -1.43436287e-02 -4.88909185e-02 -1.05154149e-01 -3.75885367e-02 +3.11334226e-02 +7.76025802e-02 -4.59239893e-02 -1.79922059e-02 -8.73080734e-03 -4.61375117e-02 -2.62336098e-02 +2.91075762e-02 +5.06040007e-02 -1.29742697e-01 +9.12368372e-02 +6.65696785e-02 +1.55975476e-01 +2.27814376e-01 +1.24710880e-01 +1.21356070e-01 +7.60232881e-02 -9.39227641e-02 +1.87681708e-02 -6.44452572e-02 +1.16717823e-01 +1.69725910e-01 +1.90181881e-01 +3.49611163e-01 +9.14355274e-03 +2.03445107e-01 +8.43143910e-02 -4.29151841e-02 +2.32194960e-01 +1.29891932e-01 +1.00464866e-01 +1.67900875e-01 +1.47344783e-01 +1.44992068e-01 +2.60146381e-03 +3.38084698e-02 +2.04126611e-01 -1.89524397e-01 +3.13680470e-01 +9.53861400e-02 +1.79012939e-01 -1.20153852e-01 +1.33607805e-01 +2.61122704e-01 -1.47165701e-01 +3.02630067e-01 +6.69716522e-02 +2.19924837e-01 +8.36331770e-02 +1.22814246e-01 +1.50440291e-01 +1.06373183e-01 +1.28640518e-01 +1.62742212e-01 +3.22024673e-01 -6.73911721e-02 +1.69669256e-01 +1.47208780e-01 +2.18739230e-02 +1.70484886e-01 +1.61062136e-01 +2.10720047e-01 -9.65395719e-02 +2.47519344e-01 +2.39108160e-01 +1.71698853e-01 +3.99375319e-01 +2.50226945e-01 +3.03245425e-01 +1.81122292e-02 +9.76589024e-02 +1.65515289e-01 +5.96353225e-02 +9.50653553e-02 -2.48547853e-03 +1.56370118e-01 +2.41183937e-01 +9.34384093e-02 +3.68052423e-01 -4.53579314e-02 +1.01854913e-01 +3.84649485e-02 +3.60894591e-01 +6.02588281e-02 -8.00881162e-02 +1.60141170e-01 -6.94299340e-02 +5.80420382e-02 +4.47605439e-02 +1.88669786e-01 +2.99772471e-02 +1.64824501e-01 +5.37734963e-02 +1.86876535e-01 +1.68040052e-01 +1.63092092e-01 +1.53198436e-01 +1.97373584e-01 +2.33688056e-01 +1.84432566e-01 +1.71241581e-01 +3.17916162e-02 +1.79628003e-02 -9.13051292e-02 +2.13191658e-02 +9.49130580e-02 -2.72713006e-01 +1.22030437e-01 +2.57550806e-01 +1.63812071e-01 +1.63628578e-01 -2.98982076e-02 +7.77441114e-02 -6.70951158e-02 -2.30683401e-01 +2.33528614e-01 +1.99211672e-01 +4.44299400e-01 +1.49287820e-01 -8.03759322e-02 -4.10437658e-02 -2.87486725e-02 +2.45364830e-02 +2.27041263e-02 +1.44010171e-01 -3.17672305e-02 -1.07263297e-01 +2.38815337e-01 +3.62045914e-01 +1.09572597e-01 +4.49856699e-01 +1.86365336e-01 +8.40408280e-02 +1.84955355e-02 -7.52891675e-02 +1.43176079e-01 +2.54981726e-01 +6.84978887e-02 +1.58240441e-02 +6.29661202e-01 +1.66958466e-01 -2.09268983e-02 +5.89700818e-01 -1.18317397e-03 +3.47689390e-01 +3.54077637e-01 +3.54483992e-01 +1.62385747e-01 +1.78080544e-01 +3.08178753e-01 -6.63035177e-03 +3.32788229e-01 +2.96384215e-01 +3.94565880e-01 +1.20171085e-01 +1.37137711e-01 -1.54279172e-01 -5.13833947e-02 +2.40228042e-01 +3.90330166e-01 +4.61272508e-01 +2.94352591e-01 +4.00163114e-01 +1.58400878e-01 +2.49543995e-01 -8.60422552e-02 +3.50291461e-01 -2.48338714e-01 +3.26040506e-01 +5.14815688e-01 +1.70349464e-01 +2.41008073e-01 +1.00205928e-01 +2.07024813e-01 +2.79010803e-01 +3.47964436e-01 +2.66366720e-01 -2.47177538e-02 -1.16571970e-01 +2.35606626e-01 +2.40557790e-01 +1.78675190e-01 +4.07688260e-01 +4.86789286e-01 +4.06080812e-01 +1.93399161e-01 +1.42423818e-02 +1.63371786e-01 +1.79295823e-01 +3.73422235e-01 -2.60668881e-02 +2.07372323e-01 +5.74863434e-01 +2.68978894e-01 +5.02606392e-01 +4.51070070e-01 -6.76809847e-02 -6.62561953e-02 +5.64274155e-02 +2.17916191e-01 +2.50750482e-01 -3.15125823e-01 +9.69866887e-02 +1.25272979e-03 +1.16707951e-01 +3.03570509e-01 +7.84288421e-02 -5.78177795e-02 -5.33486046e-02 +4.35668051e-01 +8.45055282e-02 +1.18274041e-01 -7.04741105e-02 +7.73858652e-02 -1.13855951e-01 -1.28941566e-01 -1.15725242e-01 +1.59899846e-01 -1.12438686e-01 -6.46220818e-02 +1.08871773e-01 +1.85632741e-03 -8.07776451e-02 +2.24893034e-01 +3.00635278e-01 +2.36325860e-01 +1.50487423e-01 +1.22236088e-01 +4.91449274e-02 +8.15985695e-05 -1.27167612e-01 +1.61388099e-01 -4.30023577e-03 +1.25495255e-01 -2.93480575e-01 -1.02660976e-01 +3.99356820e-02 +5.46637885e-02 -8.91309977e-03 -1.70176640e-01 +1.23458423e-01 +2.44258821e-01 +3.99644464e-01 +3.84011306e-02 +2.20274299e-01 -7.88421705e-02 +1.93919882e-01 -2.58786939e-02 +2.46178936e-02 -1.63234770e-01 -4.70057242e-02 +2.93231942e-02 -2.04541296e-01 +1.98589601e-02 -1.23150520e-01 +1.91094398e-01 -2.08523944e-01 +2.85288952e-02 +3.48718137e-01 +2.52572477e-01 -3.55190523e-02 -4.57069203e-02 +2.05063328e-01 +3.59957129e-01 -3.73248160e-02 -1.47947282e-01 +1.01357952e-01 -3.74083854e-02 +2.60125902e-02 +2.13651374e-01 -4.44909856e-02 -8.84685814e-02 +3.16080377e-02 -2.13147551e-01 -1.74636394e-01 -1.12360440e-01 -1.67388946e-01 +8.70901495e-02 -6.12810701e-02 +1.68892011e-01 -4.70652245e-02 +7.84337223e-02 -1.64520532e-01 +8.60917941e-02 +1.24790825e-01 -8.50178823e-02 +3.52216698e-02 +2.04389766e-02 +1.25966534e-01 +8.17673877e-02 +6.32215803e-03 -5.41514456e-02 +1.04629464e-01 +1.41040400e-01 +7.89667014e-03 +3.55187035e-03 +8.52141380e-02 +5.26463836e-02 -8.12117755e-02 -1.09894611e-01 +1.73526406e-01 +1.58524230e-01 +3.10385942e-01 -1.78834274e-01 +7.50172362e-02 +4.93500568e-02 +1.17345288e-01 -2.53488887e-02 -1.35782138e-01 -5.19958418e-03 +1.82315391e-02 -1.45670809e-02 +9.00813472e-03 -1.02962293e-01 -5.26307849e-03 -5.29525392e-02 +9.89536010e-03 +2.21669599e-02 +1.38836175e-01 +4.09815684e-02 -1.38330646e-02 -5.42861484e-02 -1.04232505e-01 +3.82305719e-02 -6.48401082e-02 -6.28643036e-02 +5.57160378e-02 +7.34811872e-02 -2.30080515e-01 -4.17863354e-02 -4.85418700e-02 +3.01916506e-02 -5.96849322e-02 -1.07108966e-01 -3.48857529e-02 -8.97718295e-02 +5.31932339e-02 -2.01390684e-01 -2.72204429e-01 +8.03653896e-03 -1.91139191e-01 -1.63981780e-01 -9.61016938e-02 -2.23705813e-01 -7.29515776e-02 -7.81882703e-02 -1.46011993e-01 +2.44215433e-03 -6.03660941e-02 -2.40111709e-01 -9.96761546e-02 -2.49866650e-01 -1.93031773e-01 +9.10408124e-02 -1.60577372e-01 -1.82366878e-01 -1.61390025e-02 -5.56156114e-02 -6.38747886e-02 -1.42692164e-01 +8.80635008e-02 -6.63963258e-02 -3.10950596e-02 +8.26746300e-02 -5.20388000e-02 -1.70441851e-01 -9.18973535e-02 +8.60195085e-02 