#Parameter# /UniLSTMSeqTransducer-7e48edb1/_0 {512,256} 2097153 ZERO_GRAD
-1.45590249e-02 +4.04923372e-02 -1.48499772e-01 +5.54599836e-02 -3.76734883e-02 +2.18350574e-01 -1.84640959e-02 -1.19336814e-01 +1.10168219e-01 +2.70249811e-03 -1.05128355e-01 +1.60472423e-01 +1.54203936e-01 -7.37998448e-03 -3.68508846e-02 +1.03201851e-01 +6.95041344e-02 -1.80423558e-01 +6.75258785e-02 +2.46700216e-02 +2.63031751e-01 +1.06413655e-01 +2.78504882e-02 +7.84287602e-02 +2.68129706e-01 +1.60783812e-01 +8.75322968e-02 +1.72788538e-02 +9.79858171e-03 +1.25647038e-01 -5.33930808e-02 +3.97156598e-03 -8.08475018e-02 +8.35228860e-02 -3.07831801e-02 +4.80559953e-02 +2.05892488e-01 +4.10709381e-02 +3.13422114e-01 +3.39053497e-02 +1.49928600e-01 +8.75953883e-02 -2.40562949e-02 +1.66598428e-02 +1.26211226e-01 +1.27801359e-01 -3.44476849e-02 +3.12280767e-02 +1.43111750e-01 -1.97219625e-01 +4.72096018e-02 -5.80648296e-02 -1.06472015e-01 +7.79944882e-02 +1.42785832e-01 +2.25463703e-01 -1.99415750e-04 +2.98815034e-02 +1.71795547e-01 +2.50862837e-01 +1.17031336e-01 -6.33991435e-02 +4.30854522e-02 -5.61621636e-02 +4.05085981e-02 -8.24905485e-02 +1.52561024e-01 +9.03515145e-03 -2.08329186e-02 +9.67134237e-02 +7.41302446e-02 +5.59731349e-02 +1.08015083e-01 -1.94769483e-02 +2.24242523e-01 +1.22201018e-01 +1.25144020e-01 +8.00668001e-02 +1.90128922e-01 +8.48441422e-02 -7.79903308e-02 -1.76849216e-01 -7.02555999e-02 -6.71092272e-02 -8.30399096e-02 -1.22077130e-01 +1.19070642e-01 +5.85336424e-03 -3.97241712e-02 +1.29272848e-01 +2.60504056e-03 +1.17670648e-01 +1.53351203e-01 -1.59282312e-01 +6.17640056e-02 +3.02013755e-01 +2.22142905e-01 +1.33844810e-02 +1.57108959e-02 +6.57078922e-02 +1.00154608e-01 -3.19363028e-02 +8.51381347e-02 +1.79999366e-01 +1.51453495e-01 -7.19416887e-02 +4.23864603e-01 +4.85004820e-02 -1.91301350e-02 +1.96642056e-01 +3.52210142e-02 -5.87266125e-02 -9.55838244e-03 -8.33286569e-02 +9.94538069e-02 -1.19442018e-02 +1.94609445e-02 -2.79567629e-01 -4.72975560e-02 -4.99242870e-03 +2.64060441e-02 -1.06516957e-01 -1.37744555e-02 +1.43164203e-01 -7.22355768e-02 -3.29164341e-02 +2.38714784e-01 +1.24473386e-01 -7.21844956e-02 -9.67099965e-02 -1.52292728e-01 -1.78637981e-01 +1.60304859e-01 +5.41993566e-02 -5.55921718e-02 -4.16895747e-02 -1.68765530e-01 +3.03046238e-02 +8.92643556e-02 -1.79538831e-01 -2.22074240e-02 +9.99330194e-04 -4.75967489e-02 -3.87230851e-02 -1.21151589e-01 -1.45745814e-01 -5.86396009e-02 -8.83077681e-02 +2.77165264e-01 -2.25417800e-02 +1.24204122e-02 -8.75186399e-02 +1.55308470e-01 -7.30728311e-03 -1.92512739e-02 +1.36359811e-01 -1.10359423e-01 +1.01239979e-01 +3.23749572e-01 -2.25607157e-01 +6.97075799e-02 +7.58914426e-02 -1.72239002e-02 -9.37146842e-02 -3.93577293e-02 +4.85375002e-02 -3.81547242e-01 +5.84140569e-02 -1.60913065e-01 -4.48847339e-02 +3.55463736e-02 +1.51367098e-01 -4.84890297e-05 +5.16981371e-02 +1.59400359e-01 +3.07203412e-01 -3.42227072e-02 +8.64563659e-02 +1.81663092e-02 -2.02151671e-01 -4.93774861e-02 -1.08326718e-01 -7.00151771e-02 +1.30095258e-01 -2.61884872e-02 +1.23169452e-01 -1.42156109e-01 -1.57717153e-01 +2.77804993e-02 +5.54543026e-02 +2.30529103e-02 +1.15505926e-01 -1.48720667e-01 -1.01542413e-01 +1.42307341e-01 +4.70688492e-02 -5.84947988e-02 -1.29168600e-01 -9.04452801e-02 -1.08030148e-01 +9.48905945e-02 +1.70764685e-01 -3.43099475e-01 -1.10934049e-01 -4.74022001e-01 +4.55140546e-02 +2.65462339e-01 -1.07165746e-01 -6.87852083e-03 -1.90232277e-01 +4.07304764e-02 +1.20575380e-04 -7.32916817e-02 -3.76438908e-02 +3.04415468e-02 -6.26824275e-02 -1.42195597e-01 -6.01329394e-02 -1.94572166e-01 -2.68551826e-01 -4.24584523e-02 -1.22195005e-01 +4.71245982e-02 +7.76393712e-02 +1.02744319e-01 -8.19813088e-02 -2.78079417e-02 +5.91025464e-02 +1.15483001e-01 -9.46137533e-02 +2.95994338e-02 +5.40324859e-03 -7.31530972e-03 -1.05298690e-01 +3.67286533e-01 -8.71376544e-02 -2.83971697e-01 -6.98352233e-02 -1.23877995e-01 -1.68596127e-03 -3.30516472e-02 -4.03179750e-02 -9.39319581e-02 +8.05471390e-02 -1.99711788e-02 -2.07301840e-01 -3.32324296e-01 -7.19389096e-02 -1.25073008e-02 +2.20327571e-01 -4.16113026e-02 -1.85461089e-01 +6.43147826e-02 -1.00522935e-01 +2.06966445e-01 +1.88462600e-01 +2.29340106e-01 +1.64391562e-01 +4.70384747e-01 +5.58128990e-02 -4.54455540e-02 +1.21835925e-01 +6.20769024e-01 +1.36177912e-01 +3.00020516e-01 -6.07983693e-02 +4.48514551e-01 +1.37673408e-01 +7.92263895e-02 -3.08805201e-02 +1.22719631e-01 +1.15008987e-01 -7.61848912e-02 -9.07500461e-02 +5.06715655e-01 +6.50184035e-01 +3.38294655e-01 +8.33079159e-01 +3.69181633e-01 +2.09729105e-01 +3.58282328e-01 +2.34590888e-01 +3.02311450e-01 -1.96002558e-01 +3.51975471e-01 -5.57471029e-02 -2.04535574e-01 -5.85355997e-01 +1.03238799e-01 -5.93686104e-01 +4.42568175e-02 +2.02682838e-01 +1.59008607e-01 -3.43887269e-01 -3.16088013e-02 -5.41374609e-02 -2.04518318e-01 +4.69799936e-01 +3.97678651e-02 +2.18681648e-01 +3.32708329e-01 +3.59787256e-01 +9.31459740e-02 +6.35303603e-03 +5.47753274e-02 +5.55540621e-01 +5.42673886e-01 -3.95216733e-01 +3.39932770e-01 +6.78334951e-01 +1.09286129e-01 -2.45034471e-02 +1.64827377e-01 +8.12745571e-01 +3.94148892e-03 +1.34092867e-01 +3.91597487e-02 +1.93024725e-01 -6.42275214e-02 -1.16460182e-01 +1.86261415e-01 +3.45467955e-01 +4.26799476e-01 -7.74675608e-02 +4.63105775e-02 -1.29511235e-02 +7.85382926e-01 +5.88714406e-02 +9.27684903e-02 -1.41957756e-02 +1.18209787e-01 +1.09896176e-01 -8.39114189e-02 -2.32777715e-01 +3.03133488e-01 +9.50334892e-02 +5.14109731e-01 +2.09400840e-02 +6.54504418e-01 +3.89338851e-01 +1.25571102e-01 -2.21751095e-03 +2.31343463e-01 -3.93547416e-02 -9.20264870e-02 +2.58439273e-01 +2.83090144e-01 +1.00558884e-01 +6.60417601e-02 +2.92436570e-01 +3.18887591e-01 -1.02741108e-03 -5.12208603e-02 +8.04654211e-02 -2.12012634e-01 +5.99360585e-01 +6.86425209e-01 +7.64122725e-01 -1.26285970e-01 +3.37186366e-01 +2.99788475e-01 +4.05754417e-01 +3.45181167e-01 -6.47839904e-02 -9.19798166e-02 -1.18487842e-01 +9.41832662e-02 +2.64380336e-01 -1.21241823e-01 +3.42505962e-01 -3.48524064e-01 -9.18512419e-02 -7.21357809e-03 +7.47476071e-02 +7.19261542e-02 -1.02099538e-01 +3.93553287e-01 +6.02424860e-01 +2.21030980e-01 -1.18862137e-01 +1.96569800e-01 +2.83159375e-01 +2.70707402e-02 +4.14171964e-01 +8.00763164e-03 +1.41529873e-01 -7.96387866e-02 +8.81047398e-02 +1.04082473e-01 -6.60369471e-02 -1.43553335e-02 +4.04295810e-02 -1.14390239e-01 +1.22014165e-01 +1.86298788e-02 +2.55508721e-02 +3.02933101e-02 -2.66304165e-01 +1.32403048e-02 +8.95589218e-02 +1.58514515e-01 -1.65308118e-01 -1.16896532e-01 +1.18078932e-01 -1.10054485e-01 +6.17780127e-02 +1.00500733e-01 -5.26358699e-03 +5.87808937e-02 -1.02988534e-01 -6.73252791e-02 +6.86291466e-03 -1.23637915e-01 -6.45596460e-02 +5.81429414e-02 -1.20074837e-03 +6.06076829e-02 -1.20028287e-01 -5.92276342e-02 -8.60913619e-02 +1.61707383e-02 +8.80655646e-02 -1.35014758e-01 +9.91658121e-02 -7.54027814e-02 +1.13958165e-01 +1.09424430e-03 +1.30291760e-01 -5.30496128e-02 +9.10457969e-02 +1.22556444e-02 -1.31811008e-01 -1.01308711e-01 -1.24255614e-03 +3.31990272e-02 -4.22820635e-02 -7.82772005e-02 +1.06998883e-01 +1.69315964e-01 -6.91010579e-02 +9.25862268e-02 -8.68200660e-02 -7.67502859e-02 +3.69071923e-02 +2.74827331e-02 -1.02713406e-01 +1.26143262e-01 -3.31682302e-02 -9.76976287e-03 -1.54209644e-01 +4.87091877e-02 +7.63135552e-02 +1.50666028e-01 -1.17865333e-03 +3.83203924e-02 +8.20800737e-02 +1.35981560e-01 -6.41755015e-02 -2.79435873e-01 -7.11233839e-02 -9.65760462e-03 -4.18067239e-02 -2.96418201e-02 +3.00884098e-02 -7.14840293e-02 -2.26495671e-03 +2.94734947e-02 -6.07170835e-02 -2.88468841e-02 +1.67258494e-02 +9.10971686e-02 +9.85913128e-02 +5.68228867e-03 -4.91065830e-02 -8.11330527e-02 +3.41578037e-01 -1.18596889e-01 -5.12789078e-02 -3.48981470e-01 -9.84100476e-02 +2.86691450e-02 -1.86803304e-02 -1.25387639e-01 +1.72048032e-01 -7.46278092e-02 +4.65515293e-02 -5.50176576e-02 +1.78191799e-03 +9.32944939e-02 -1.43210562e-02 +5.93997464e-02 -1.10254185e-02 -4.17342000e-02 -1.55199736e-01 +7.19703883e-02 -1.10743806e-01 -5.51692210e-02 -3.63771059e-02 +7.72254318e-02 +1.12889722e-01 -8.85756221e-03 -4.35263440e-02 +1.41960040e-01 +6.31935745e-02 -7.24575520e-02 -1.85282990e-01 +1.03332870e-01 +3.27746682e-02 +1.52848139e-01 +6.02828711e-02 +1.82907730e-01 -2.65636761e-02 +3.14171612e-02 -3.92395444e-02 +7.08315847e-03 -1.05470076e-01 +7.71992207e-02 -1.44339278e-01 +1.26394317e-01 +7.61237144e-02 -1.61660269e-01 +1.45943403e-01 +6.70001237e-03 -4.29100282e-02 +8.79278481e-02 +2.96528544e-02 +2.04636887e-01 +1.25522288e-02 -7.78336674e-02 -6.53841794e-02 +6.58644065e-02 +5.13540693e-02 -1.15065612e-01 -9.24051628e-02 +1.44184232e-02 -1.45247459e-01 -3.85435969e-01 -1.34398714e-01 -9.97849368e-03 -5.50088752e-03 +2.47581914e-01 -1.39188305e-01 +2.45005842e-02 +2.58102883e-02 +6.54049218e-02 +1.23901181e-01 +9.92964488e-03 +2.12351784e-01 +1.02262162e-02 +5.59005775e-02 +3.87977391e-01 +5.27905300e-02 -5.86161129e-02 +3.01559344e-02 +1.04576096e-01 +7.85446391e-02 -6.09010831e-02 +3.44645604e-02 +8.30235928e-02 +2.68688202e-02 +1.13364577e-01 +2.31951680e-02 +3.86101715e-02 +7.01139718e-02 +2.03346029e-01 +3.88744846e-02 +2.99524013e-02 -2.37136096e-01 -1.45062417e-01 +6.83398172e-02 -4.68897745e-02 +5.09483702e-02 -3.32303643e-02 -1.17923261e-03 +8.85124132e-02 -7.79458508e-03 +9.80221108e-02 -2.17483379e-03 +4.46552448e-02 +2.04605401e-01 -6.35134354e-02 +5.88461384e-02 -9.88360718e-02 -6.34785071e-02 +6.23118766e-02 +4.52780016e-02 -5.76163605e-02 -1.25271067e-01 +4.86026630e-02 -1.77928805e-02 -1.34054631e-01 -7.39997951e-03 -5.00374362e-02 +5.24179697e-01 -5.70504852e-02 +4.93277423e-02 +7.52080008e-02 -7.01682270e-02 +1.23968706e-01 -2.60037370e-02 -5.79362772e-02 -5.99693172e-02 +1.15661353e-01 +1.91968851e-04 -1.13241374e-01 +5.75943738e-02 -2.06043050e-01 -4.23781835e-02 -1.05843686e-01 +1.57896318e-02 -1.31644726e-01 +1.69771552e-01 +2.72511095e-02 +2.73486767e-02 -2.72714853e-01 +8.06841254e-02 +6.05700128e-02 +1.83487087e-01 +2.58573971e-04 +2.71362308e-02 +1.57157138e-01 -6.15690164e-02 +3.00584398e-02 -6.05126992e-02 -6.52477220e-02 -4.00341824e-02 -4.38868143e-02 +2.25210078e-02 -3.31651419e-02 +3.04360956e-01 +4.75630797e-02 +1.61104590e-01 +8.14132914e-02 +1.75524473e-01 -1.79673806e-02 -7.21048936e-02 -1.01848859e-02 +1.13499455e-01 +3.84351373e-01 +4.30986583e-02 -1.01127066e-01 -9.89106251e-04 +2.02582911e-01 -1.17541842e-01 -1.44293696e-01 +7.77265579e-02 -5.79936504e-02 +1.36162760e-03 +6.74654171e-02 +9.01608244e-02 -7.03275353e-02 +7.87098259e-02 +4.50972235e-03 +1.23752706e-01 +2.81221449e-01 +1.15059458e-01 +7.72825107e-02 +1.13946274e-01 +4.25322615e-02 -6.42852709e-02 -1.60092980e-01 +4.61879708e-02 +8.58193412e-02 -2.42763385e-02 -3.34723175e-01 +4.48239520e-02 +6.45149499e-02 -1.80616677e-01 +9.64047983e-02 -2.18131900e-01 -2.44011477e-01 +3.29358310e-01 +2.10772175e-02 -1.40458435e-01 -3.00059840e-02 +1.62767500e-01 -3.48409154e-02 -2.47422885e-02 -5.44074997e-02 +2.46411681e-01 +1.82735801e-01 +1.68684080e-01 -1.66594218e-02 -1.12735137e-01 -3.84886786e-02 -1.23331040e-01 -6.68446496e-02 -1.31342828e-01 -1.10486493e-01 +2.16595456e-02 +2.43695587e-01 +3.10915470e-01 +1.61768511e-01 +1.90395098e-02 -2.40053865e-04 +4.75260988e-02 -3.97554226e-02 -1.62923351e-01 +4.18903202e-01 +1.33525670e-01 -1.76591918e-01 +7.01508150e-02 +9.93838906e-02 +7.72648444e-03 +1.17832497e-02 -3.01846247e-02 +7.79863214e-03 -6.47114888e-02 +1.78198535e-02 -8.79670084e-02 +3.24355289e-02 -7.50984326e-02 +4.72186394e-02 +1.77756287e-02 +6.37355447e-01 -1.25236437e-01 +8.42326432e-02 -3.83976996e-02 -3.68523687e-01 +8.42345282e-02 -6.27842918e-02 +4.35502142e-01 -9.83715802e-02 +2.49509718e-02 +1.48435339e-01 +5.30279416e-04 +1.18746191e-01 -7.10237771e-02 -1.00400396e-01 +1.52274936e-01 +5.89886867e-02 +8.20907354e-02 +1.71152472e-01 -1.23902606e-02 +1.04064055e-01 -5.29430322e-02 -1.64153397e-01 +1.76829085e-01 -6.54368429e-03 +2.57604122e-02 +7.93499174e-04 +7.74173066e-02 +9.42172036e-02 +1.09851062e-01 +6.13614097e-02 -1.01550020e-01 +1.07812926e-01 +3.55281346e-02 +3.20062071e-01 +1.05865203e-01 +3.66056412e-02 +1.76486403e-01 -6.25577196e-02 -4.36015241e-02 -9.58939716e-02 +5.99409938e-02 -7.06638396e-02 +1.57683522e-01 +7.30293915e-02 -6.64101243e-02 -1.39792398e-01 -1.47349149e-01 -4.88198595e-03 -1.64050329e-02 +1.41024679e-01 +7.79057294e-02 +2.59626240e-01 +2.53180391e-03 -2.89226830e-01 -4.10498857e-01 -1.38053879e-01 -5.29415250e-01 -4.19039167e-02 -4.93660495e-02 +1.80760515e-03 +5.28298598e-03 -4.30429637e-01 -1.28293484e-01 -3.06925833e-01 +7.75587186e-02 +1.06288359e-01 +7.22262189e-02 +1.70594171e-01 -2.65769660e-01 +1.21522173e-01 -9.82672442e-03 -1.87457591e-01 -5.61424613e-01 -3.64127189e-01 -2.79823393e-01 -1.61020741e-01 +5.72710810e-03 -3.05941910e-01 -4.42595892e-02 -2.58190095e-01 +1.96051091e-01 -2.33771831e-01 +3.99439722e-01 +1.63745165e-01 +6.03065073e-01 +1.76196307e-01 +3.21838945e-01 -5.54817855e-01 -2.09938273e-01 -3.61851364e-01 +1.27758443e-01 +1.19243048e-01 +2.91071180e-02 -1.04469433e-01 -7.23116100e-02 +3.13228995e-01 +2.20212024e-02 -1.54390246e-01 -1.27857849e-01 -3.60997647e-01 +2.99297392e-01 +3.09341162e-01 -5.31463683e-01 -1.89756185e-01 +5.87592244e-01 -1.24403194e-01 -4.56876785e-01 +2.18978733e-01 -2.02838525e-01 +9.51721221e-02 -4.36721712e-01 +1.18153967e-01 -1.67458907e-01 -1.96581483e-02 -3.00789863e-01 -4.71448675e-02 +3.99844587e-01 -4.29397166e-01 -8.61833468e-02 -3.65414619e-01 +2.57059008e-01 -3.70434046e-01 -1.46968156e-01 -1.55325681e-01 +1.34234235e-03 +1.11365415e-01 +2.02243835e-01 +5.23075648e-02 -2.33444478e-02 +1.98843583e-01 +1.30751789e-01 +3.39782685e-02 +1.87253937e-01 -2.24860176e-01 +3.88299882e-01 -4.36636627e-01 -2.22494036e-01 +3.91146243e-01 +6.89786747e-02 -2.30995953e-01 -5.67523956e-01 +3.05830449e-01 -3.74312848e-02 -7.73694217e-02 -1.36565482e-02 -1.21974118e-01 -2.11365625e-01 -1.73538595e-01 +1.06842279e-01 -1.96689844e-01 +1.64376348e-01 +3.42104286e-01 -3.91193181e-01 +7.19890818e-02 -3.93934250e-01 +2.82524735e-01 -4.89153028e-01 -2.14307070e-01 -2.50488490e-01 -1.11039765e-01 +1.22694656e-01 -5.52244112e-02 +1.19875163e-01 -1.13147542e-01 -2.02527672e-01 +4.34474230e-01 -1.53976217e-01 +4.58462030e-01 +1.56438410e-01 +1.26782835e-01 +1.02160215e-01 -1.14030100e-01 -1.11464322e-01 -3.09635669e-01 -1.59533411e-01 -3.84720147e-01 +3.58686894e-01 -1.52920946e-01 -1.65390894e-01 -8.58319327e-02 +6.21456020e-02 +9.73775052e-03 +8.30488428e-02 -1.89125948e-02 +2.01109782e-01 +6.87765479e-02 -1.13627888e-01 +1.11574076e-01 +8.33036155e-02 +1.05644748e-01 +3.37939314e-03 -1.42922318e-02 +5.24809696e-02 -3.83919664e-02 +6.18852908e-03 +2.58619845e-01 +1.46631882e-01 +2.90600508e-01 -1.07129780e-03 +2.32225470e-03 +7.21542956e-03 +1.65657289e-02 +2.02065688e-02 +1.04804941e-01 +3.61950010e-01 +1.13253705e-02 +6.68829158e-02 -2.05829516e-01 +6.44214749e-02 -8.70667771e-02 +1.70492470e-01 +1.52069420e-01 -1.14193581e-01 +3.44830416e-02 -5.52084967e-02 +5.72583266e-02 +2.17008800e-03 -1.33751854e-02 +6.91484883e-02 +8.25635437e-03 -3.21494117e-02 -3.21759358e-02 +2.08031923e-01 +2.53073364e-01 -6.76472858e-02 -3.63163128e-02 -6.00134432e-02 -1.36230841e-01 -9.25729498e-02 +2.32852697e-02 +5.15900813e-02 +7.44243637e-02 +4.30090949e-02 -5.86478896e-02 +1.04473814e-01 -7.79528096e-02 +6.55539557e-02 +1.69315308e-01 -5.43202795e-02 -2.24934071e-01 +2.11023256e-01 -2.83042878e-01 -7.41736293e-02 +1.61966696e-01 +2.00969633e-03 -6.86951820e-03 +1.22173890e-01 +6.85421284e-03 +5.34256697e-02 +6.64594471e-02 -2.59245746e-02 -1.74684916e-02 -3.33162956e-02 -5.80638880e-03 +4.43236940e-02 +1.01283893e-01 +8.87720659e-03 -5.45505807e-02 +2.07774460e-01 +1.77618653e-01 +4.48616445e-02 -1.03823230e-01 +1.20230623e-01 +2.42494550e-02 +8.17881525e-02 +1.24410287e-01 +9.46461335e-02 +1.54890403e-01 +9.73442793e-02 -7.06811920e-02 +3.78894620e-02 -1.28376901e-01 -1.08549558e-02 -1.18867226e-01 +5.88279627e-02 +1.49751753e-01 -1.91558063e-01 -5.52916229e-02 +2.95796782e-01 +2.47995257e-02 +6.97685257e-02 -4.86113057e-02 +7.39632398e-02 -3.52565162e-02 +3.96756567e-02 +5.23053482e-02 +1.18826423e-02 -6.03475645e-02 +3.91503423e-02 -9.04511958e-02 -1.77041531e-01 +2.50492424e-01 +1.43933207e-01 -2.71112740e-01 +8.89697373e-02 +5.67581132e-02 +1.54689863e-01 -3.38872522e-02 +1.20522618e-01 +4.52960730e-02 +7.24681467e-02 -1.82717554e-02 -7.76914507e-02 +2.79429760e-02 -2.99123283e-02 -4.30568010e-02 +5.85447252e-02 +8.24029669e-02 +6.73072115e-02 -3.89725901e-02 -8.08838569e-03 -2.10346609e-01 +9.38679501e-02 +3.47144753e-02 +4.55396734e-02 -2.36398000e-02 +1.86702684e-01 +5.64043634e-02 +1.29747733e-01 +8.77127647e-02 -1.56950839e-02 +4.18480448e-02 +1.05225332e-01 -2.11647913e-01 -5.80663159e-02 -3.42873707e-02 +1.58054143e-01 -2.32454732e-01 -5.57581615e-03 +6.96749194e-03 -1.42222613e-01 -8.06652158e-02 +2.18193922e-02 +2.14189425e-01 +2.08373442e-02 -1.48926675e-01 +5.47304414e-02 -8.70453194e-02 +5.41454792e-01 -3.68396118e-02 +5.57132736e-02 -1.13735691e-01 -1.37352630e-01 +7.18715861e-02 +1.15230232e-01 -1.95586756e-01 +1.79418817e-01 -3.12910713e-02 +2.35181540e-01 +3.78069915e-02 -1.63453400e-01 -1.14226438e-01 -2.11765960e-01 -6.10625707e-02 -2.15596221e-02 -9.93217006e-02 -3.82040441e-02 -7.08231702e-02 -3.05243041e-02 -1.87919021e-03 -1.53586194e-01 +2.66765933e-02 -8.93571302e-02 +8.29276592e-02 +1.44662738e-01 +2.36090243e-01 -1.43850580e-01 -1.05357409e-01 +5.04690073e-02 +4.41550314e-01 -1.73315153e-01 -5.72238676e-02 -4.83410545e-02 +1.13714129e-01 +1.01877302e-01 +4.65584509e-02 -3.50787416e-02 -1.72742650e-01 -1.52191043e-01 -1.49939194e-01 +5.02479263e-02 +8.91081393e-02 +9.33672190e-02 +2.63247669e-01 +4.59472053e-02 -3.79750468e-02 +1.60054654e-01 +8.98785591e-02 +4.03988250e-02 -1.77864566e-01 -2.78254211e-01 +7.60363415e-02 -9.51147228e-02 -5.66294380e-02 -1.16104983e-01 -1.49707213e-01 +6.16910793e-02 -1.31437972e-01 -5.02296351e-02 -1.98787332e-01 +7.40750059e-02 -4.48118374e-02 +1.31302625e-01 +1.81738883e-01 +1.54461935e-01 -1.60947454e-03 -1.76902726e-01 -5.57997935e-02 -1.02383018e-01 -1.11715168e-01 -2.00322747e-01 +2.27114692e-01 +1.36429546e-02 -1.21957190e-01 -1.39495417e-01 -2.29530916e-01 -9.11889747e-02 -5.98913990e-02 -2.17471048e-01 -4.61896434e-02 -1.19200513e-01 -1.04176171e-01 +8.16289037e-02 +6.19755499e-02 +1.88733693e-02 +8.34389031e-02 -2.39506792e-02 -1.21342987e-01 -1.72916681e-01 -2.73170006e-02 -2.60677431e-02 +1.75712690e-01 -7.42575228e-02 +3.28777321e-02 +4.75149602e-03 -2.25620106e-01 -1.98020160e-01 +1.63347274e-02 +8.69694054e-02 -2.41562456e-01 -4.22076927e-03 +2.24331185e-01 +4.46872450e-02 -1.35296524e-01 +2.07167089e-01 -8.01218525e-02 +5.33433221e-02 +3.22232619e-02 +1.14049762e-02 +4.37777415e-02 -2.41157949e-01 -5.65370679e-01 +6.26443028e-02 -5.11979535e-02 -1.37755245e-01 +5.42906113e-02 -2.76095346e-02 +2.63126075e-01 -1.30278558e-01 +9.71116573e-02 +1.26262680e-01 +3.55418772e-01 -5.54083264e-04 +5.51450849e-02 +1.72052719e-02 -2.08890781e-01 +5.89289546e-01 +1.05943099e-01 -7.03988150e-02 +2.28335299e-02 +3.93381603e-02 +2.56814837e-01 +1.84857756e-01 -6.14803322e-02 +5.82567118e-02 +2.29428038e-01 -2.46047094e-01 +2.36015439e-01 -2.43618935e-01 -6.81858957e-02 -4.66635115e-02 +6.46930709e-02 -7.75138214e-02 -9.55126658e-02 +8.65211561e-02 +1.87174127e-01 +2.74284072e-02 -3.93219031e-02 -3.61089498e-01 +4.72257892e-03 +2.57382058e-02 -6.17760292e-04 +3.17454308e-01 +3.35815072e-01 +7.72340298e-02 -3.20115834e-01 -3.29519659e-02 +5.73594213e-01 +2.81496663e-02 -1.66012794e-02 -1.46594401e-02 +1.47950888e-01 -5.70069775e-02 +5.67970909e-02 -1.10357605e-01 -8.29543173e-02 -1.04264885e-01 +3.57892029e-02 -9.99244079e-02 -3.46909575e-02 -7.60486275e-02 -4.54346418e-01 +1.90609694e-01 -1.68611214e-01 +2.57984921e-02 +3.57197374e-01 +2.35605612e-02 +1.58562794e-01 -6.29653931e-01 +3.06788031e-02 -9.88028273e-02 -2.88351685e-01 -1.25911430e-01 +3.47792581e-02 +1.49189755e-01 +7.97529966e-02 +7.17350328e-03 +1.11307770e-01 +2.86311060e-02 -3.69522035e-01 +5.40660620e-02 +2.24004257e-02 -4.22477350e-02 +1.10082455e-01 -2.49891236e-01 +1.99294686e-01 +9.80223939e-02 +1.16440125e-01 -2.06468701e-01 +1.26484573e-01 -4.86397743e-02 +1.14291437e-01 +2.19736546e-01 -4.24758792e-01 -9.08788666e-02 +1.05414324e-01 -7.70843476e-02 -6.68158904e-02 -1.91648901e-01 +1.83306150e-02 -7.02245161e-02 -5.66869183e-03 +1.90783795e-02 +2.14904998e-04 -8.15014765e-02 +1.40137523e-01 -5.73583022e-02 -1.28225237e-01 -3.93045731e-02 -2.45149489e-02 -4.33433168e-02 -1.64258286e-01 +1.98951568e-02 -9.42615271e-02 +8.38980898e-02 +3.71180683e-01 +6.61660731e-02 +1.82520464e-01 -1.03338823e-01 +6.64194822e-01 +4.26150188e-02 -1.67504087e-01 +4.69729751e-01 +2.52993256e-01 +4.00003582e-01 +2.12004691e-01 -7.15416819e-02 -3.69725525e-02 -5.43948933e-02 -1.64085701e-01 -6.19038865e-02 -2.06198156e-01 -7.63001442e-02 -1.39674187e-01 +1.85929283e-01 +1.53238133e-01 -2.40286216e-01 -1.26651868e-01 -6.21496141e-03 +3.53991359e-01 -4.57311645e-02 +3.22222888e-01 -1.96398690e-01 -3.07931006e-01 +5.96353054e-01 +5.23530580e-02 -2.83769608e-01 -3.29999387e-01 -1.65157858e-02 +5.08103073e-01 -3.58170569e-02 +1.61965027e-01 +5.75292826e-01 -1.24284558e-01 -1.48603052e-01 +2.36641407e-01 -3.29965562e-01 -2.12832674e-01 +3.09308022e-01 -1.07218616e-01 -2.74095625e-01 +5.95141649e-01 +5.52717507e-01 -1.81510523e-01 -3.29746827e-02 -1.93636604e-02 -5.13802767e-01 +4.85152490e-02 -1.37922540e-01 -2.27895156e-01 +1.85038242e-02 +3.55926096e-01 +1.36775419e-01 -5.89336231e-02 -1.40724510e-01 +4.18110758e-01 -1.37962490e-01 +1.32091632e-02 -4.64979529e-01 +3.12275976e-01 +1.38056189e-01 -7.36262798e-02 +2.44256511e-01 -1.05079226e-01 +4.61158991e-01 +1.63718984e-01 +2.66575992e-01 +5.18740892e-01 +1.22630060e-01 -8.62791687e-02 -6.83614090e-02 +1.64980203e-01 +3.19186717e-01 +4.09281045e-01 +4.82727557e-01 -3.67847830e-01 -2.14854196e-01 -4.88677956e-02 +1.28175735e-01 -7.72032440e-02 +6.94837347e-02 +3.01613361e-02 +2.14527741e-01 -5.10097779e-02 -1.31793037e-01 -7.13030994e-01 -7.92731419e-02 +2.03996580e-02 +1.65140241e-01 +1.63074397e-02 -8.31494108e-02 +2.59564258e-03 -3.50986153e-01 -3.51111978e-01 +5.06984890e-01 +4.98840034e-01 -7.66405165e-02 -3.84652987e-02 -1.40548974e-01 -1.97792858e-01 +2.81095684e-01 -4.29535091e-01 +1.53597414e-01 -1.74717590e-01 +3.50549310e-01 +1.30168289e-01 -2.14880183e-02 -3.45164478e-01 -5.06900966e-01 -2.57630199e-01 -1.98101699e-01 -3.34327191e-01 -1.05947718e-01 +9.54012945e-02 -4.43039760e-02 -3.12049866e-01 -3.95831466e-01 -7.98117593e-02 -4.28074718e-01 +5.25933325e-01 -1.72029719e-01 +1.72936931e-01 +1.02793664e-01 -1.54751223e-02 -1.74927756e-01 -5.59725314e-02 +5.47715761e-02 -7.51383603e-02 -6.06199689e-02 +2.86187112e-01 +8.82180855e-02 -1.62401691e-01 +6.49130717e-02 +1.79027710e-02 +1.25024989e-01 +1.37799248e-01 +5.55965006e-02 -2.21405342e-01 -1.79102436e-01 -9.21475217e-02 +3.55293564e-02 -8.31900090e-02 -1.92702729e-02 -4.94151376e-02 -1.09446980e-01 -1.73861325e-01 -3.42709184e-01 +1.02542154e-01 +2.86008324e-02 +1.64923668e-01 +9.76041928e-02 +4.39504497e-02 -1.55191934e-02 -2.92504877e-01 -1.30073100e-01 -1.68944687e-01 +1.67544752e-01 +1.15135886e-01 +1.32648900e-01 +8.10830221e-02 -8.09413865e-02 +1.98193476e-01 +1.99690878e-01 -2.63333082e-01 -1.72728807e-01 -1.91745013e-01 +6.14984371e-02 +5.56299984e-02 +5.09187505e-02 -4.94221319e-03 +1.70150679e-03 -6.93593398e-02 -1.40800089e-01 -6.50516525e-02 -1.50344253e-01 -2.44252700e-02 +6.49346486e-02 -1.31771952e-01 -7.38100559e-02 -1.20544039e-01 +9.11470205e-02 +1.78534478e-01 -4.09439683e-01 +4.98552956e-02 -9.97050330e-02 -1.43224046e-01 -7.76187629e-02 -8.43164250e-02 +8.42299089e-02 -2.92760297e-03 -5.63609600e-02 -5.84622324e-02 -3.74624282e-02 +9.70682651e-02 +7.65395910e-02 +1.63697585e-01 +1.52011896e-02 +4.74252492e-01 +2.12994665e-02 -1.96173355e-01 -7.68536404e-02 -1.34924456e-01 -5.92026636e-02 +3.82278264e-02 -2.24362567e-01 +6.07676730e-02 -7.73971304e-02 -8.88396874e-02 -4.69896272e-02 +3.65616344e-02 +1.11005649e-01 +7.03427866e-02 +1.01860456e-01 +1.95919611e-02 -3.06278169e-01 +2.00491577e-01 -9.59060621e-03 +2.26243928e-01 +4.12320718e-02 +8.32212791e-02 -3.51033032e-01 +1.81790307e-01 +2.21309531e-02 +7.02051893e-02 +8.41203332e-02 -1.92567371e-02 +1.11467004e-01 -6.36807233e-02 -9.43780392e-02 -3.12731080e-02 -1.35290802e-01 -1.24681517e-01 +1.65304616e-01 -1.73958391e-01 +3.89396735e-02 +2.78409481e-01 -2.13238314e-01 -1.05519198e-01 -7.99487084e-02 -8.66372958e-02 +9.59620923e-02 +4.49003465e-02 -2.78258361e-02 -1.35350265e-02 +1.20461032e-01 +1.01028360e-01 -1.74379557e-01 -3.96658247e-03 -7.72767290e-02 -1.39491796e-01 +3.83653380e-02 +6.02445044e-02 +1.41353663e-02 +6.98713586e-02 +3.45250927e-02 +1.46380784e-02 +6.48906827e-02 +7.08704069e-02 -8.65261257e-02 -1.78808824e-03 -6.96699321e-02 +8.86145607e-02 +1.36602838e-02 -5.47779240e-02 +1.57012239e-01 +2.06914440e-01 +1.35681167e-01 +2.29386151e-01 -1.43714905e-01 -2.06142012e-02 -3.27376686e-02 +1.33197814e-01 -4.85848039e-02 +1.22226402e-01 +7.58539364e-02 +1.32456735e-01 -5.70652261e-02 -3.09546795e-02 +3.29590030e-02 +5.12778051e-02 +1.43092290e-01 +1.05980277e-01 +1.20813340e-01 +2.73632891e-02 +8.39920267e-02 -8.20505712e-03 +1.28294975e-01 +1.23390421e-01 +5.23313843e-02 +2.50887692e-01 +1.07915878e-01 -2.42231846e-01 +7.92796686e-02 -9.75722298e-02 +1.63982864e-02 +5.28966859e-02 +1.97090507e-01 +2.93647102e-03 +1.29677802e-01 -9.07146782e-02 +2.81689242e-02 +6.29951507e-02 +2.49891073e-01 +1.47906363e-01 +9.12305564e-02 +1.32465705e-01 -2.62807846e-01 +2.49616336e-02 -4.53385673e-02 +1.26656607e-01 +2.26878762e-01 +2.88942128e-01 +1.27519771e-01 +4.05792370e-02 -2.23531742e-02 +8.76232535e-02 -2.00770557e-01 +1.92395329e-01 +8.87433812e-02 +9.32377353e-02 +8.98752660e-02 -3.33007872e-02 -1.18301630e-01 -7.46505782e-02 -2.13558171e-02 -1.46317571e-01 +1.16420016e-02 +2.50972267e-02 -1.61155820e-01 +1.43663183e-01 -1.52027562e-01 +8.18269923e-02 +2.96768695e-01 +1.68063551e-01 -3.64677608e-02 +1.06159739e-01 -2.59020459e-02 -1.14571370e-01 -1.29331797e-01 +5.76827452e-02 -6.83162808e-02 +5.63777685e-02 -1.14015855e-01 -2.09605396e-02 +7.67430440e-02 +3.97370849e-03 +9.06645581e-02 +2.03148946e-01 +3.22954394e-02 +1.30833119e-01 -2.90986300e-02 +1.18227713e-02 -3.23304161e-03 +7.41471499e-02 +1.34527683e-01 +6.32131472e-02 +1.43066421e-01 +1.95621237e-01 +3.42602879e-02 +1.63903892e-01 -1.53160747e-03 -1.44247934e-01 +4.91465405e-02 +1.04187973e-01 +8.45611691e-02 +1.74817443e-01 -4.61501852e-02 +4.97680977e-02 -1.76079407e-01 +7.36888573e-02 +4.14087959e-02 +4.37399298e-02 +1.54995143e-01 -5.19441254e-02 +3.98739018e-02 -6.16235845e-02 +2.17744596e-02 +3.24800551e-01 +1.63887575e-01 -5.45969866e-02 -1.46332264e-01 +7.30994940e-02 -6.33755252e-02 +1.26216933e-01 -2.73245946e-02 -4.02173810e-02 +6.12777434e-02 +1.04760164e-02 +2.13284373e-01 +3.92394438e-02 +7.14489371e-02 -3.35181206e-02 -2.80566476e-02 +1.98065579e-01 +2.69345399e-02 +6.43476620e-02 +5.32461852e-02 -1.87774058e-02 -1.11090817e-01 -2.10517317e-01 +1.29553769e-02 -4.11596671e-02 -1.11786447e-01 +2.08049655e-01 +1.24597766e-01 +6.59758076e-02 +3.98499332e-02 +2.70001311e-02 +3.06076020e-01 +8.08517933e-02 +1.21425457e-01 +6.01369003e-03 -1.66192889e-01 +1.22312874e-01 +1.63403109e-01 -1.94517598e-02 +1.09904356e-01 -3.01411211e-01 -5.00089563e-02 -2.91095525e-01 -7.04493523e-02 -1.52970284e-01 +1.47235662e-01 -5.53321354e-02 -2.78528919e-03 +7.74226859e-02 +2.20463410e-01 +1.13803923e-01 +8.59512240e-02 -1.20981820e-02 +1.69866867e-02 -4.70773969e-03 +6.04506917e-02 -3.31499055e-02 -2.15950864e-03 -2.70747785e-02 -1.09348007e-01 -2.97701117e-02 +6.75676689e-02 +1.26762345e-01 -2.80360840e-02 +2.87558548e-02 +1.25288323e-01 +1.76743835e-01 -6.68423772e-02 +6.28672959e-03 -7.18860980e-03 -1.21671379e-01 -1.31760731e-01 +5.07461056e-02 -7.61248544e-02 +1.45815872e-02 +8.43962356e-02 +2.21799105e-01 +1.31721348e-01 +4.47612256e-03 -9.84234214e-02 +9.39191207e-02 +2.35895693e-01 -5.91808185e-02 +1.85359344e-01 -5.31832054e-02 +5.62234782e-02 +4.09039371e-02 -2.58482769e-02 -3.18247452e-02 +1.32428091e-02 +1.28831569e-04 -5.22044525e-02 -8.10209066e-02 +9.59163606e-02 +5.34986928e-02 -1.05084084e-01 +2.00120851e-01 -6.74261302e-02 -1.14863858e-01 -4.23851609e-02 -1.11076273e-01 +1.70837566e-01 -1.78405702e-01 +1.43933296e-01 +7.50377476e-02 -1.79160200e-02 +1.64741516e-01 +3.16261314e-02 +3.38296860e-01 -7.07981288e-02 +1.96009457e-01 -7.80410618e-02 -4.20040227e-02 -1.17689669e-01 -8.24116170e-02 -5.84366359e-02 +8.10258314e-02 +4.17118408e-02 +1.08970225e-01 -3.21739390e-02 -2.88943946e-02 +5.49446419e-02 -4.65713516e-02 -5.76778688e-03 -1.35358870e-02 +1.05394550e-01 +1.87997110e-02 -7.39047676e-02 +5.32496572e-02 +1.32590905e-01 -4.96147126e-01 -1.07723147e-01 -5.38580604e-02 -4.62906808e-01 +8.22734013e-02 +1.16785049e-01 +2.06686780e-01 -2.71135509e-01 -4.51001525e-01 +2.73962356e-02 -2.52652597e-02 +2.89397150e-01 +2.41939843e-01 -5.50677255e-02 +1.43213779e-01 -2.33648956e-01 -8.29918832e-02 +2.19050154e-01 -6.11559488e-02 -3.30954611e-01 -2.47294724e-01 -3.94161306e-02 -2.42669702e-01 -4.75759059e-02 -4.43250407e-03 +2.79561663e-03 -3.04422498e-01 -1.82620332e-01 -2.90058199e-02 +3.03431809e-01 +1.32360041e-01 +1.22287281e-01 +8.28861892e-02 -7.38544539e-02 -3.14998448e-01 +7.10933059e-02 -4.78429735e-01 -4.45645988e-01 +1.01007186e-01 -3.21472250e-02 -3.43060136e-01 +4.97885823e-01 -1.13349250e-02 +3.39838266e-01 +3.15935798e-02 +2.87532806e-01 +2.72324860e-01 +4.39887524e-01 +2.69621372e-01 -2.65004188e-01 +1.01674376e-02 +5.64544261e-01 -1.43889830e-01 -1.69423461e-01 +6.68644682e-02 -3.29183966e-01 +6.04883544e-02 -1.37113228e-01 -2.76395362e-02 +2.37999573e-01 +4.52651620e-01 -3.05400431e-01 -1.15433540e-02 +2.96236187e-01 -2.73748606e-01 -3.66935164e-01 +9.44905877e-02 +4.50784653e-01 -5.84680498e-01 -1.95578709e-01 -1.25861973e-01 +1.26769226e-02 -7.05590695e-02 +4.06959474e-01 -2.48992871e-02 +3.45896244e-01 +7.09325016e-01 -7.25729614e-02 +5.36178231e-01 +1.95432186e-01 +3.52293789e-01 -2.39130035e-02 -2.99319834e-01 -3.64340395e-01 +1.69387132e-01 -2.49002233e-01 -2.73457974e-01 -7.96159923e-01 +5.82181096e-01 +9.48480219e-02 +4.58881944e-01 +2.21177982e-03 -1.30815972e-02 -5.33991635e-01 +1.43307924e-01 +3.66330147e-01 +1.14035420e-02 +6.19407296e-01 +2.15845212e-01 -2.72544771e-01 +2.13687837e-01 +3.47687155e-01 +2.02771738e-01 -5.99420428e-01 +1.92476690e-01 -9.31766909e-03 +5.20740330e-01 -2.10018083e-01 -2.98972666e-01 +8.06493238e-02 -6.68769181e-02 -1.13976069e-01 +2.56226033e-01 +3.87630850e-01 +4.48470682e-01 +1.55180365e-01 +2.69367546e-01 -2.02062458e-01 +1.40772045e-01 -3.26708972e-01 +2.88710296e-01 +2.24101678e-01 +1.14579879e-01 +1.73209742e-01 +6.14676401e-02 +5.08635104e-01 +7.79569522e-02 -1.72886997e-01 +6.04234263e-02 +1.33322418e-01 +3.18254158e-03 +7.54851326e-02 -9.28583518e-02 -7.42058009e-02 -1.23838577e-02 +7.61240348e-02 -1.15356073e-01 -6.13668263e-02 -6.00882731e-02 -1.17324442e-01 -2.91734859e-02 +8.61967281e-02 +1.50379419e-01 +4.67775799e-02 +9.64523554e-02 -6.63400590e-02 +1.31214455e-01 +1.20600477e-01 +9.58178490e-02 +7.95696080e-02 +1.04022220e-01 +1.89945504e-01 -2.53340583e-02 -7.44276540e-03 +8.40161182e-03 -1.14139564e-01 -2.96084061e-02 +4.47651185e-03 -3.65589231e-01 -4.48063053e-02 +1.16841376e-01 -1.51274249e-01 +1.19513303e-01 +1.09632768e-01 -3.19698602e-02 -4.81422804e-02 -3.25682089e-02 -1.79797143e-01 +1.67557031e-01 +4.66572754e-02 -2.68745255e-02 +1.31427839e-01 -7.94285536e-02 +2.80280374e-02 -4.43719216e-02 -7.48724565e-02 -1.26337856e-01 +3.38857807e-02 -4.48579900e-02 -2.58463807e-02 +9.75257438e-03 +1.01962335e-01 +1.22122101e-01 +4.34658267e-02 -2.69489288e-01 +4.51493040e-02 -7.18213171e-02 +1.34732008e-01 -3.81171633e-03 +4.46938723e-02 +7.50748366e-02 -9.46302414e-02 -3.70163582e-02 -3.37447450e-02 -1.19722575e-01 -1.21352993e-01 +1.29863217e-01 +4.33586165e-02 -1.35860428e-01 -3.49978581e-02 +9.60850418e-02 -4.40606251e-02 +1.67521015e-01 -3.45074981e-02 +2.15446740e-01 -6.51297271e-02 -3.72735374e-02 -2.07157135e-02 -3.01198047e-02 -7.57686794e-03 +4.03982289e-02 +3.32798362e-02 -1.27894133e-02 +6.21217443e-03 -9.99533460e-02 +2.99324486e-02 -1.04490630e-01 +5.53436726e-02 -1.07540742e-01 -2.63150603e-01 -1.18974768e-01 -6.04896657e-02 +1.18014254e-01 -1.41461924e-01 +7.17202798e-02 +6.10798672e-02 -1.08462423e-01 +1.72614992e-01 -8.29151347e-02 -1.40427783e-01 +1.03843138e-01 +8.60985368e-02 -4.72657420e-02 -1.47522856e-02 -8.42590723e-03 -1.33206055e-01 -8.03840533e-02 +1.61314495e-02 +9.33187604e-02 -7.38595799e-02 +2.85390653e-02 +1.09758951e-01 +5.70367277e-02 -8.33672211e-02 +1.06398679e-01 -1.98986735e-02 +1.35887787e-01 +2.89041176e-02 +4.21226025e-02 -6.13364130e-02 +4.26590815e-02 +5.35700507e-02 +8.93785283e-02 -3.15821022e-02 +2.09012777e-02 +1.72065347e-01 +1.92775372e-02 +1.53873280e-01 -1.61141470e-01 -4.45413925e-02 -8.53763521e-02 -4.59167026e-02 +6.24753200e-02 -2.03395053e-03 +1.88725740e-01 -1.51063073e-02 +1.11001898e-02 +1.76258102e-01 -1.23089001e-01 -4.57580434e-03 +4.23068069e-02 -6.67873472e-02 +8.01963881e-02 +8.14895406e-02 -1.72190130e-01 -5.13070039e-02 -7.10658208e-02 -1.35579035e-01 +5.06992489e-02 +1.09639369e-01 +3.74933034e-01 -7.13933781e-02 -2.28253946e-01 -1.03347033e-01 +1.27957026e-02 +4.94648457e-01 -1.22960821e-01 +2.87872478e-02 -1.53238237e-01 +8.75213817e-02 +1.02951176e-01 -1.94935516e-01 -1.05379354e-02 +5.38691953e-02 +1.85052752e-01 +2.08773434e-01 +8.60145688e-02 +7.63896108e-02 +4.86592613e-02 -2.81326603e-02 -6.57934323e-02 -1.41510442e-02 -8.86129215e-02 +7.41212023e-03 +3.53539661e-02 -2.38507301e-01 -2.82367673e-02 -8.55270177e-02 -4.94383648e-02 +7.60733411e-02 +1.26563504e-01 +2.89584905e-01 +2.31542848e-02 -5.91186620e-02 -4.53897044e-02 -2.69424450e-03 +2.08903149e-01 +8.04298669e-02 +1.84705317e-01 -1.51119441e-01 +2.24626027e-02 +7.41519928e-02 +5.16247116e-02 -1.16072662e-01 +1.96314767e-01 -8.77672359e-02 -1.04647085e-01 +1.22980930e-01 +1.28773406e-01 +7.70612760e-03 +2.34129667e-01 +8.02709684e-02 +2.89408058e-01 +2.15104938e-01 +2.96304941e-01 +7.83801749e-02 -1.58992395e-01 +1.56650051e-01 +7.38778189e-02 -5.24740852e-02 +3.35885845e-02 +4.42676768e-02 +1.38726979e-01 +7.38064051e-02 +1.26985595e-01 +5.04488721e-02 -1.09531663e-01 -7.33548477e-02 +2.43184924e-01 -5.86450398e-02 +1.64082706e-01 +1.47990569e-01 -7.21585006e-02 -3.04210242e-02 +5.67215085e-02 +9.99183804e-02 -8.16669911e-02 +3.04831844e-02 +9.89440754e-02 +1.61502138e-01 +1.20320454e-01 +6.49645999e-02 +2.74161100e-01 +1.26459703e-01 +5.66395093e-03 -5.06078005e-02 +1.05761010e-02 +1.11724332e-01 -3.94439362e-02 -1.93167210e-01 +1.12934457e-02 -7.03132004e-02 -1.88286602e-02 -9.43412483e-02 -4.71221395e-02 +2.08224636e-02 +6.97090626e-02 -2.15383008e-01 -5.85555807e-02 +1.06150389e-01 -5.78484796e-02 -1.27464086e-01 +3.72086167e-01 -1.37954265e-01 -6.88853860e-02 -1.31630540e-01 +2.08019130e-02 -9.04406700e-03 -8.44379365e-02 -8.05891976e-02 +5.39254062e-02 -1.08389534e-01 +7.83827230e-02 +1.18206348e-02 +5.53427003e-02 -1.26837239e-01 -8.15198123e-02 +7.25431144e-02 +3.26093566e-03 +9.67626870e-02 +8.71303529e-02 -6.07082173e-02 +2.13461984e-02 +3.64349633e-02 +1.98855489e-01 +5.23450635e-02 +9.18697752e-03 -1.38647199e-01 +1.69789046e-01 -6.14331244e-03 -7.88667127e-02 -5.82153238e-02 -3.00492346e-02 +3.37462038e-01 +1.71958014e-01 -2.29190569e-02 +6.99361786e-02 +7.05093071e-02 -2.54639685e-02 -1.37984470e-01 +2.67719030e-02 +1.88180968e-01 -1.18743122e-01 -5.12992442e-02 -1.60531923e-01 -1.19091839e-01 -1.40947253e-01 -1.03285134e-01 -2.58624442e-02 -5.73846251e-02 +8.33088681e-02 -7.68745923e-03 +4.03806716e-02 +2.40527298e-02 -3.75618748e-02 -1.49341717e-01 -1.34563679e-02 +5.94813726e-04 -1.29933190e-03 +1.90001234e-01 -2.15622727e-02 +1.33822232e-01 -5.93820661e-02 +1.31352879e-02 +1.14820480e-01 -2.08399873e-02 -6.11966848e-02 -8.99327919e-02 -1.40388668e-01 +1.07573815e-01 +8.52911845e-02 +2.21287515e-02 -9.83593240e-03 +3.97210866e-02 +1.37619764e-01 +9.73396152e-02 +7.58118331e-02 +1.44418389e-01 -2.71630138e-01 -1.04304917e-01 +3.28037381e-01 -4.44010980e-02 +3.07179332e-01 -6.91305995e-02 -3.04998588e-02 -1.29263282e-01 +7.09395260e-02 -1.44369053e-02 +1.20698132e-01 +4.51163799e-02 +9.73346606e-02 +1.24612026e-01 -6.36169165e-02 +1.86655037e-02 -9.51121673e-02 -8.64150748e-02 -9.34689790e-02 +3.22299637e-02 +1.33439869e-01 +1.10219322e-01 -7.28464546e-03 +9.60360616e-02 -5.38580194e-02 +6.06876463e-02 -1.23850659e-01 +2.27020979e-02 -7.16994777e-02 +1.11156031e-01 -1.18584953e-01 +3.94213833e-02 +1.49570078e-01 -1.83108691e-02 +7.55528882e-02 +8.18234086e-02 +6.82714656e-02 +4.83482005e-03 +2.09860243e-02 +1.04732756e-02 -3.83832566e-02 -3.37028466e-02 +8.01105518e-03 -2.17159137e-01 -1.96312234e-01 +2.26755273e-02 +3.92924696e-02 -1.04373917e-01 -3.51962037e-02 -7.58942887e-02 -1.81275173e-05 -5.31002730e-02 +3.56164694e-01 +3.65603194e-02 +4.45626527e-01 -3.93246382e-01 +1.54688120e-01 +3.13422680e-02 +3.59824479e-01 -6.39813254e-03 +4.27076668e-01 +1.76490307e-01 -1.06848553e-01 +3.16640317e-01 +7.95284629e-01 +2.82796681e-01 +1.61950439e-02 +1.32764522e-02 -5.80255575e-02 -1.06459104e-01 -2.67423183e-01 -5.63976914e-02 +3.20253313e-01 +3.77700478e-02 +2.22801030e-01 +5.01799047e-01 -3.12908404e-02 +9.76954326e-02 +5.58884084e-01 +1.68314576e-01 +2.06279919e-01 -1.63429424e-01 -2.77160574e-02 +3.05265754e-01 +5.48407212e-02 -3.18638593e-01 +3.05805713e-01 +5.97698167e-02 -1.54874638e-01 +4.04939860e-01 +2.75449693e-01 +1.83187306e-01 -1.26050308e-01 -2.03577772e-01 +1.17274947e-01 +3.41087103e-01 -5.00619859e-02 +5.30164421e-01 +4.69373822e-01 +1.24493904e-01 +7.34722316e-01 +5.15572608e-01 +3.53380173e-01 +6.29576504e-01 +3.66169572e-01 -3.61778170e-01 +3.14294934e-01 +3.89751971e-01 +1.33926988e-01 +3.26144695e-01 +1.77100778e-01 +3.54682416e-01 +1.22233860e-01 -4.29559462e-02 +3.20357025e-01 +8.58418196e-02 +3.43595445e-02 -3.37182730e-01 +3.77957284e-01 +2.09836766e-01 +2.15429515e-01 +2.90939242e-01 +3.88769694e-02 +3.50497842e-01 +4.85637188e-01 +7.58697510e-01 +2.99546540e-01 +7.05566332e-02 +6.45170808e-02 +4.55909252e-01 +4.16964501e-01 +2.91780531e-01 +3.95869046e-01 +6.47352874e-01 +4.06040937e-01 -1.05590411e-01 +3.08158845e-01 +3.86254907e-01 +2.36863513e-02 -7.20497104e-04 +3.18337113e-01 -1.29129170e-02 +1.86587319e-01 +1.94396093e-01 -1.46030471e-01 +4.53255102e-02 +2.03023721e-02 +5.24837635e-02 +2.89980739e-01 +2.41812766e-01 -2.12213956e-03 -4.22417074e-01 -2.61663347e-01 +6.18609071e-01 +7.65148461e-01 +4.17237133e-01 +6.21917844e-02 +2.61063755e-01 +5.63902482e-02 +7.98367679e-01 +1.98579445e-01 -1.43664867e-01 -1.75963759e-01 -1.15182780e-01 -1.04678243e-01 -2.50420123e-02 -1.27934394e-02 +2.23488465e-01 -8.30386505e-02 +1.68424640e-02 -2.92956680e-01 -1.74533818e-02 +2.29320586e-01 -2.25576863e-01 +1.02927156e-01 +3.65686715e-01 -5.69326468e-02 -5.02974153e-01 +4.94120002e-01 +1.27433255e-01 +6.30714223e-02 +2.84363270e-01 +2.17868760e-02 -2.45451540e-01 -1.03945859e-01 -1.73194930e-01 -1.63629383e-01 +8.96365866e-02 +2.70777475e-02 +3.60538550e-02 -6.28861189e-02 -7.20864013e-02 +5.02678156e-02 +5.06706582e-03 +1.42465845e-01 -3.24936092e-01 -2.75095310e-02 -1.53951064e-01 +2.03788862e-01 +8.52997694e-03 -4.16866802e-02 +6.89552426e-02 +4.81382041e-04 +5.23803234e-02 -6.30985647e-02 -1.41499057e-01 +1.61490828e-01 +2.61154529e-02 +2.00986430e-01 -1.66017208e-02 +4.84506153e-02 -1.80847585e-01 -1.23508751e-01 +9.84260738e-02 -1.48697227e-01 +6.70322478e-02 +1.95746750e-01 -4.39046808e-02 +2.64382288e-02 +1.19463138e-01 -1.95954759e-02 +1.53313860e-01 +2.61100680e-02 -1.18856743e-01 -5.86146414e-02 -8.08889791e-02 -4.74998467e-02 -1.59403712e-01 +1.34305239e-01 +1.30683661e-01 +1.02965526e-01 -8.85615870e-03 -1.58532992e-01 +9.42380577e-02 -4.70913239e-02 +2.13738158e-02 +4.50046398e-02 -1.04248866e-01 +7.22446740e-02 +2.11743414e-02 +4.81429845e-02 -2.44677383e-02 +1.84690431e-01 -1.10188544e-01 -3.16198915e-02 +6.98831603e-02 +7.57416710e-02 +8.43425095e-02 +5.39705828e-02 -2.01213229e-02 +1.00560628e-01 -8.78951699e-03 -3.00443266e-03 -2.11244007e-03 +1.73015237e-01 -1.68369725e-01 -2.61603482e-02 +2.05268431e-02 -1.18759423e-01 -2.48806000e-01 -8.77593979e-02 +3.01897880e-02 -6.52098656e-02 +6.47267625e-02 -6.04347810e-02 +1.32809952e-01 +7.86410347e-02 -5.60678840e-02 -3.80236208e-02 +9.65905488e-02 -3.12257558e-02 +1.27264168e-02 +1.00286067e-01 -1.98683068e-01 +1.17676295e-02 -1.05030023e-01 -1.71647862e-01 +4.25654985e-02 -1.98229216e-02 -1.46168485e-01 +9.47223604e-02 -1.63365841e-01 +3.69427726e-02 -7.19603375e-02 +4.82485928e-02 +1.13218412e-01 +6.80650491e-03 +2.33858582e-02 -4.24661785e-02 -6.63797334e-02 -9.25594345e-02 -6.78727552e-02 -1.29059583e-01 +2.24533654e-03 +4.73348275e-02 +3.66054587e-02 +1.05295517e-01 -2.15366986e-02 -1.52779996e-01 +5.29634543e-02 +1.27853662e-01 -2.38693446e-01 -1.95544332e-01 -2.06187330e-02 +4.57369871e-02 +5.22451922e-02 +7.76285902e-02 -1.75505821e-02 -5.10512032e-02 -7.57446811e-02 +1.12464570e-01 +1.24625735e-01 -4.06815931e-02 +8.53977874e-02 +9.17468816e-02 -8.07538629e-02 -4.59252782e-02 +8.96449611e-02 +1.96716562e-01 +5.50806001e-02 -4.12217081e-02 +1.66219145e-01 -2.17899289e-02 -1.48469448e-01 +8.94917697e-02 -1.15797035e-01 -2.38641277e-02 -4.16491069e-02 -1.94919378e-01 -4.54419591e-02 -4.47768420e-02 +4.07294482e-02 +1.78417876e-01 +1.30032524e-01 +2.52871931e-01 +2.13314090e-02 +2.06466205e-02 +7.02962801e-02 +1.64145138e-02 +3.04247051e-01 -6.08393401e-02 +1.49403617e-01 +8.10510963e-02 +1.45420775e-01 -4.42007789e-03 +1.25973180e-01 -7.27555889e-04 +1.06268771e-01 -1.87419783e-02 -6.34521386e-03 +3.07012290e-01 +1.98872499e-02 -1.77004952e-02 +4.86436486e-02 +6.21983036e-02 -1.08393654e-02 +1.41216233e-01 +1.51584983e-01 -4.01218012e-02 +2.35085934e-02 -4.26939279e-02 +1.68186635e-01 -4.31817435e-02 +3.37185785e-02 +9.51918960e-02 +1.05770603e-01 +8.67481902e-02 +1.00136459e-01 +1.67399675e-01 -1.43725008e-01 +4.54071939e-01 -1.11463778e-01 +1.34158328e-01 -8.18274263e-03 +8.24136436e-02 +8.98091793e-02 +1.58910215e-01 +7.17645464e-03 +1.81048110e-01 +1.52703181e-01 -1.06368288e-01 -5.81477471e-02 +5.65073155e-02 +1.08870514e-01 -1.93317961e-02 +7.22333193e-02 +4.48246717e-01 +6.90337494e-02 +2.42568523e-01 +4.04552072e-02 -1.18554063e-01 +4.07034069e-01 +3.11492831e-02 -8.42326283e-02 +6.18108809e-02 +3.51378247e-02 -1.21451735e-01 +1.25580475e-01 +1.96851697e-02 -1.95734631e-02 -3.40129025e-02 +4.64124046e-03 +3.37499082e-02 +9.09089670e-02 +4.67047766e-02 +6.12774268e-02 -5.09667881e-02 +1.64818943e-01 +9.93659049e-02 +1.87699571e-01 -1.57046199e-01 -1.41052544e-01 +2.81616449e-01 +1.54059678e-01 +1.22927167e-01 -3.76751162e-02 +1.83787033e-01 -1.20203076e-02 +1.09803133e-01 -7.64584616e-02 -2.91622803e-02 +6.78799152e-02 -3.36705856e-02 -8.15957040e-02 +1.19491808e-01 +2.57377066e-02 +1.22336805e-01 -4.99156490e-02 +1.23703152e-01 +1.71734974e-01 -1.05728842e-01 -1.77947894e-01 +5.81620447e-02 +1.15895681e-01 +1.49455920e-01 +9.91440341e-02 +8.94286707e-02 -1.37538433e-01 +4.33429629e-02 -7.03705177e-02 +6.31929338e-02 +5.44561557e-02 -8.87946784e-02 +2.46860683e-02 +1.98656693e-02 -3.62208858e-02 +6.30045533e-02 +1.27585202e-01 +6.10405356e-02 +1.25757575e-01 +7.74919540e-02 +4.90772039e-01 -1.95375662e-02 -1.60240326e-02 +8.95990357e-02 +1.85308784e-01 -8.43140557e-02 +1.51481852e-01 -1.40245676e-01 -2.75818761e-02 +1.32043406e-01 +5.74854873e-02 +1.22418724e-01 -1.35739613e-02 -8.58686790e-02 +6.97387457e-02 -2.13374585e-01 +5.51102400e-01 +3.66869211e-01 +2.45110497e-01 -4.66411039e-02 +6.65184297e-03 +1.04162477e-01 +2.79427096e-02 -4.28841971e-02 -2.33707204e-02 -1.99470162e-01 +1.54669970e-01 +1.80393934e-01 -6.94019571e-02 +1.47319093e-01 -2.77309194e-02 +4.56712171e-02 +3.14662606e-03 +3.15390690e-03 -1.51075304e-01 +5.65627031e-02 -1.86433028e-02 +1.32327318e-01 -5.33045791e-02 +3.10822248e-01 +1.17625318e-01 -6.09925576e-02 -2.73199230e-01 +2.80676126e-01 -2.46602580e-01 -1.10735349e-01 +2.01364771e-01 +5.16388595e-01 +1.94796473e-02 +2.58548968e-02 +9.61064324e-02 +2.30570972e-01 +2.86369380e-02 +1.68261379e-02 +1.05814375e-01 +8.25164765e-02 -1.77987106e-02 +1.44115403e-01 +5.90099171e-02 +1.06126331e-02 +1.03666358e-01 +4.54921015e-02 +2.15245783e-01 +3.41536194e-01 +1.58209667e-01 +4.00514990e-01 +1.62176579e-01 +3.44844572e-02 +1.96231157e-01 +6.34252280e-02 -6.91260099e-02 +2.15738527e-02 +9.75403711e-02 -2.73632873e-02 +2.28915349e-01 +2.04425186e-01 -1.46611910e-02 -4.37526312e-03 -3.26730125e-02 +1.34141147e-01 +1.31127894e-01 -8.61391146e-03 +1.43492995e-02 +1.39598101e-01 -2.07732189e-02 +3.99832837e-02 -8.58821422e-02 -1.77872375e-01 -1.52319044e-01 +8.98922533e-02 +1.02626055e-01 -8.51604939e-02 -2.20633205e-02 -2.12137207e-01 +1.76883712e-02 +2.41681889e-01 +1.08070232e-01 +4.77512591e-02 +1.50819525e-01 -5.25029711e-02 -3.00639728e-03 +1.01678744e-01 -2.71449033e-02 +1.10376053e-01 -9.86649171e-02 +1.34511247e-01 -3.40851955e-02 +4.67579253e-03 +4.01993878e-02 +8.88325945e-02 +7.79737458e-02 +6.03229143e-02 +1.24855950e-01 +2.33378470e-01 +1.67298794e-01 +5.12092054e-01 -3.28651130e-01 +9.81289148e-02 -5.03104031e-01 +6.31030679e-01 +2.19950010e-03 -2.59301695e-03 +6.57494366e-01 -1.75947830e-01 +3.97232860e-01 +3.04039568e-01 +9.88667682e-02 +5.04007578e-01 -1.88765824e-02 +1.42488301e-01 -2.65014917e-01 -1.60133213e-01 +2.15307564e-01 -2.15584487e-02 -2.48296782e-01 -3.31768394e-01 -4.32208985e-01 +4.36227098e-02 +4.23177332e-02 +2.58115292e-01 -7.36143291e-02 +3.95550251e-01 +3.16128522e-01 -6.85194507e-02 +5.30859351e-01 +3.52480590e-01 +3.90388995e-01 -9.15472209e-02 +6.15098000e-01 +6.89387694e-02 +1.20150700e-01 -1.14420056e-01 +6.72800004e-01 -4.78217052e-03 -7.05334172e-02 +3.91130000e-01 +1.62165508e-01 +5.66092968e-01 +7.26393282e-01 +1.82787076e-01 +2.95153081e-01 +2.52045065e-01 +9.92582381e-01 +2.83096701e-01 +3.32964182e-01 +2.39455536e-01 +1.80084392e-01 +6.39463127e-01 -1.96977541e-01 -2.18285155e-02 -1.88849956e-01 +1.90918088e-01 -9.44811925e-02 -8.53016898e-02 +1.22651257e-01 +6.86733186e-01 +4.68165427e-01 +1.43642547e-02 +2.66905993e-01 +3.39062870e-01 +9.18569788e-02 -1.32932991e-01 +2.83052146e-01 -9.23876017e-02 +1.43734932e-01 +2.02047110e-01 +7.99274027e-01 +8.68819594e-01 +2.23699018e-01 +1.80326533e-02 +4.45289791e-01 +4.13902819e-01 +6.66886866e-01 +4.80726749e-01 +7.25765169e-01 +1.95310295e-01 -9.81581658e-02 -6.07846081e-02 +3.01591232e-02 +9.56893340e-02 +3.53330404e-01 +2.24567294e-01 -6.91623613e-02 -5.11771217e-02 +8.95678103e-02 -2.57553488e-01 +6.42524213e-02 +2.50059199e-02 +5.26238568e-02 +6.55993000e-02 +1.69604551e-02 -8.83563713e-04 -6.96208254e-02 +3.92359108e-01 +1.85953930e-01 +3.31848353e-01 -9.95876044e-02 +9.62876976e-02 -1.72188118e-01 -8.08859020e-02 +8.46457958e-01 +1.35746747e-01 +1.13021441e-01 +3.38332504e-01 -5.19779362e-02 +9.80474353e-02 +1.33733556e-01 +2.31422514e-01 -3.53691280e-01 +6.65897846e-01 -4.67553176e-02 +2.33036637e-01 +3.77829075e-01 -6.74788142e-03 -5.90667129e-02 -1.91957504e-01 +1.17018379e-01 -3.75710964e-01 +1.76209971e-01 +5.84692538e-01 +3.40870440e-01 +1.38839900e-01 +5.11564255e-01 +3.37717533e-02 -8.89818445e-02 +3.67829055e-02 +5.98005354e-02 -5.00674620e-02 -3.28126103e-02 -1.45043194e-01 +1.08082838e-01 -2.54928470e-02 -7.14049861e-02 -6.03482910e-02 +1.51531726e-01 +5.09502925e-02 -2.26634428e-01 -2.24409793e-02 -4.23608301e-03 +2.69864947e-01 -1.89924702e-01 -7.99642578e-02 +8.28481615e-02 +3.33801401e-03 -1.09810971e-01 -9.21561867e-02 +1.45631775e-01 +1.08934954e-01 -1.64079964e-01 +1.37212619e-01 -3.46882665e-03 -5.08020520e-02 -2.46158615e-02 -4.19846863e-01 +1.70425475e-02 +9.73062962e-02 +1.31421983e-01 -2.34304536e-02 +1.06654063e-01 +1.53332099e-01 +1.26781151e-01 +2.06769153e-01 +2.97365338e-01 -1.15568765e-01 -8.16470236e-02 +2.16883887e-02 +2.58336626e-02 +1.24508999e-01 +6.73589632e-02 +1.04538992e-01 -9.13787931e-02 -6.41190484e-02 +6.28856942e-02 +3.10652014e-02 -7.48436302e-02 +1.45505415e-02 -8.37380141e-02 -7.87494332e-03 -5.98819405e-02 -4.45093095e-01 -4.25155684e-02 -1.10118911e-01 +6.33084849e-02 +2.56005943e-01 +9.22412798e-02 +4.38850746e-02 +6.62566870e-02 +9.37312320e-02 +1.67593449e-01 -7.34987110e-02 -1.49098247e-01 +1.06323056e-01 -1.54315516e-01 +1.03036202e-02 +5.24770655e-02 +4.33350028e-03 -3.85367237e-02 +1.55190244e-01 +7.31537072e-03 -3.43557298e-02 -1.68837473e-01 -3.18633825e-01 +2.58576050e-02 +1.45160526e-01 +5.21074496e-02 -5.09405434e-02 +9.60812792e-02 +1.46539330e-01 -7.48528689e-02 -2.91552511e-03 +7.86398873e-02 +1.42087400e-01 -1.03344135e-01 -6.39315993e-02 -1.17819175e-01 +1.21174388e-01 +2.06708498e-02 +1.75720125e-01 -1.57564104e-01 -1.50961816e-01 -4.58703451e-02 -7.31998309e-03 -6.11688457e-02 +5.81791177e-02 -1.07838802e-01 -1.53775230e-01 +1.68022498e-01 -5.78371026e-02 -8.42190385e-02 +1.20797008e-02 -6.83062449e-02 -6.18331283e-02 -4.12990823e-02 +3.70243564e-02 +9.47536752e-02 +9.07033030e-03 -8.30900073e-02 -6.21730685e-02 +8.14762563e-02 -4.95666377e-02 +9.83299464e-02 +3.03326771e-02 -9.05977970e-04 +7.31431246e-02 -3.80727053e-02 +2.59444471e-02 -1.06560677e-01 +1.49903521e-01 +3.98160070e-02 -8.55935663e-02 -6.05247244e-02 -1.08709071e-04 -3.39577091e-03 +5.90907708e-02 +2.39591040e-02 +4.17316556e-02 +8.17018598e-02 -9.73200053e-02 -3.34308296e-02 -4.43233103e-02 -8.36724117e-02 -9.94482636e-02 +1.49205759e-01 -6.50750194e-03 +1.60564646e-01 +1.05240107e-01 -1.20478459e-01 +1.25061795e-01 +2.01627482e-02 -3.88007797e-02 +1.63461789e-01 +1.39425248e-01 +5.35937632e-03 +2.23166257e-01 -8.92437696e-02 +6.39739692e-01 -7.99730346e-02 -8.93602206e-04 +8.03459957e-02 -3.13736312e-02 +4.34253097e-01 +1.41638130e-01 +6.50489843e-03 -9.51886103e-02 +6.79396242e-02 +8.92341509e-02 -1.24610059e-01 -1.00380100e-01 +2.49855574e-02 -1.23693645e-01 +2.59104759e-01 +2.49948874e-01 -5.60129769e-02 +4.72880676e-02 +1.43621162e-01 +1.47147566e-01 -4.75220829e-02 +1.22572012e-01 +1.53308824e-01 -1.48154035e-01 -2.34831348e-02 +8.06408450e-02 -6.60748109e-02 +1.40727296e-01 +6.25962168e-02 +1.21366773e-02 +1.83733836e-01 +2.27272421e-01 -4.43656743e-02 -1.20864280e-01 -1.51202187e-01 +4.88561720e-01 +1.00177573e-02 +5.87726906e-02 -1.98774226e-02 -9.67128351e-02 -6.22301251e-02 -6.29086792e-02 +6.49225339e-02 +7.51415268e-02 -5.39560206e-02 +5.13006635e-02 -2.14302521e-02 -2.36294232e-02 +2.84966379e-02 +3.42658460e-01 +7.09322989e-02 -9.24169347e-02 +1.88355535e-01 +1.05381832e-01 +1.23461083e-01 -4.44683917e-02 -5.09483032e-02 +8.67147520e-02 +6.11422062e-02 +1.47579700e-01 -9.73052755e-02 +2.41290312e-02 +1.72420070e-01 -2.00346042e-03 -4.58548069e-02 -1.59527451e-01 +2.05982432e-01 +3.44608501e-02 -2.01207712e-01 +1.00995652e-01 +3.39447744e-02 -4.34269272e-02 +1.28050134e-01 -8.82911831e-02 +5.15645184e-02 -5.79542331e-02 +6.53392728e-03 +5.15432954e-02 -5.01396060e-02 +1.79302856e-01 -1.38324305e-01 +2.14288738e-02 -1.20574556e-01 +1.69413127e-02 -2.05882769e-02 +1.05012186e-01 -3.07888091e-02 +1.84794236e-02 -8.35901722e-02 -1.31948337e-01 -7.38938758e-03 +1.18740067e-01 -3.15038972e-02 -9.63605940e-02 +7.41415843e-02 +1.26349824e-02 -1.91973209e-01 +2.78469622e-02 +1.57088131e-01 +1.12526335e-01 -7.21448734e-02 -1.27629623e-01 +1.01504385e-01 +1.75083697e-01 +1.78131498e-02 +1.21439602e-02 +5.81385531e-02 +1.08408334e-04 +5.24352975e-02 -1.89721808e-01 -4.41207811e-02 -4.56857979e-02 +3.14662643e-02 -2.27268174e-01 -5.52302711e-02 +1.55478492e-02 +5.44152968e-03 +5.97464181e-02 -2.36152019e-02 -1.24057814e-01 -1.15886554e-01 +3.42997834e-02 -3.52757913e-03 +3.33572239e-01 +7.44394585e-02 +1.16286064e-02 -1.35592043e-01 +6.41750038e-01 -7.91563001e-03 -5.11918254e-02 -1.40715912e-01 +7.62936892e-03 +3.64013821e-01 +1.65902570e-01 +7.72813410e-02 -1.66955292e-01 +1.22470304e-01 -6.35890216e-02 -1.12107947e-01 +9.03841257e-02 +7.13269562e-02 -8.20780247e-02 -1.27415508e-01 +2.84172982e-01 -8.77456665e-02 +1.06911451e-01 +1.69310477e-02 -2.32039206e-03 -1.54507291e-02 +7.28824884e-02 -8.00205618e-02 +8.09566155e-02 +1.16324455e-01 -6.55680969e-02 -1.26016019e-02 +8.98255780e-02 -6.09447025e-02 -1.25663579e-01 +1.97757542e-01 +1.21076077e-01 -1.72662899e-01 -3.92428637e-02 +2.10678354e-02 +1.72549441e-01 +1.03632174e-02 +1.67639144e-02 -1.19234510e-01 +1.01119280e-01 +3.63550545e-03 +5.05974591e-02 -1.25361875e-01 -1.63631458e-02 +8.92666951e-02 -6.97481856e-02 +1.61202043e-01 +8.68412405e-02 -8.38005841e-02 -2.00312674e-01 +5.87391593e-02 -1.94444850e-01 +1.01304308e-01 +2.95584291e-01 -3.59995887e-02 -6.47013187e-02 -3.59255634e-02 +8.97251908e-03 +2.61987466e-02 +4.58311103e-02 +1.54756144e-01 +3.14635085e-03 +1.07972316e-01 +4.73800190e-02 -1.06976561e-01 -7.65331313e-02 -2.75129914e-01 +4.56253663e-02 +3.75607982e-02 +1.67868454e-02 +6.71676397e-02 +6.86744452e-02 -3.06763388e-02 +1.58543084e-02 -1.10193223e-01 +1.11829832e-01 +5.10352664e-02 -1.04612112e-02 -3.03400680e-02 +2.56772842e-02 -8.84394050e-02 -1.79586902e-01 +7.19038816e-03 -1.09054707e-01 +8.78357366e-02 -6.24385029e-02 +8.07250738e-02 +7.63550326e-02 +1.01965964e-01 -7.22872317e-02 -1.58684105e-01 -1.28053725e-01 -8.44046995e-02 -6.12974018e-02 -6.00070767e-02 -6.81222156e-02 +8.40023756e-02 +4.33352217e-02 +2.17411276e-02 +4.76433039e-02 -7.63462251e-03 -2.30799079e-01 +9.96850245e-03 +3.91791165e-01 +2.31222555e-01 +4.59690869e-01 +2.53540784e-01 +5.82418501e-01 -7.12553486e-02 -2.02987388e-01 +2.35062346e-01 +1.54650077e-01 +3.77239048e-01 +1.34282172e-01 +8.57754499e-02 -3.05212978e-02 +1.19960658e-01 -1.30312294e-02 +5.89369461e-02 -4.39641863e-01 +1.77842882e-02 +1.53759420e-01 +2.49707140e-02 +1.95088997e-01 +3.21284533e-01 +3.02503884e-01 -1.24877274e-01 +5.92748463e-01 -1.01610154e-01 +1.08893082e-01 -2.32921634e-02 -6.86442107e-02 +2.74433255e-01 -5.65107241e-02 -3.43453020e-01 -8.75602886e-02 +1.64257869e-01 +3.76516491e-01 +3.19388181e-01 +2.79130429e-01 +6.78765327e-02 -1.89412951e-01 -1.17257021e-01 +2.35391438e-01 +3.72989982e-01 -1.48597443e-02 +3.15230608e-01 -3.18928629e-01 +2.72682041e-01 +7.21159518e-01 +1.93856016e-01 -3.41702695e-03 +2.51208335e-01 +4.70204145e-01 -1.45206362e-01 -1.29467711e-01 +3.84653449e-01 -2.09045224e-02 +1.64029092e-01 +2.11266100e-01 -3.58120240e-02 +4.27828804e-02 -1.16224572e-01 +5.75331330e-01 +1.99277937e-01 +6.92294836e-02 -1.75949156e-01 +3.15966070e-01 +1.43488169e-01 -1.74054310e-01 +2.56652031e-02 +7.27806389e-02 +1.78347766e-01 +2.69970179e-01 +3.91452938e-01 +3.07873279e-01 +2.22597383e-02 -2.91897869e-03 +3.17789130e-02 +4.51716036e-02 +4.07541454e-01 +5.60856402e-01 +3.86712193e-01 +4.72389050e-02 +8.20156001e-03 +3.17851096e-01 +3.15469891e-01 -1.54549256e-01 +1.17859192e-01 +1.35394230e-01 +2.23677576e-01 -6.08108453e-02 +3.58274877e-01 -2.13455871e-01 +1.57982573e-01 +1.99634835e-01 +3.11878443e-01 +2.91737318e-01 +5.16940393e-02 +2.22771913e-02 +6.78570867e-02 +3.22085798e-01 +2.15651989e-01 +3.66946936e-01 +1.89094871e-01 +1.58543155e-01 +1.90226853e-01 +8.75888020e-02 +2.41166562e-01 -1.69273868e-01 +1.66304588e-01 +6.90792920e-03 -2.81876266e-01 -1.31544158e-01 +3.28622371e-01 -3.41321796e-01 +2.23284587e-02 -1.04578696e-01 -9.98612377e-04 -2.24806089e-02 +4.18730676e-02 +8.62604305e-02 +1.51600242e-01 +3.13324183e-01 +2.70084232e-01 +2.71562487e-01 -1.32301033e-01 +5.77321887e-01 +1.25513107e-01 +1.39231205e-01 -5.66004440e-02 -6.10404350e-02 -2.39582092e-01 +8.33045170e-02 -1.06073305e-01 -5.59312291e-02 +1.43971786e-01 +7.50726312e-02 +8.36596787e-02 -1.05655789e-01 +7.79830515e-02 -1.72328979e-01 +1.31017640e-01 +2.73199379e-03 -2.62470186e-01 +8.39930028e-02 -4.78956215e-02 +1.07051298e-01 -2.12545514e-01 +5.83821349e-02 +4.50746343e-03 -2.78968424e-01 +3.20099629e-02 -8.92035067e-02 -6.44860268e-02 +8.33763480e-02 -3.29697058e-02 +2.22851291e-01 +6.74904883e-02 -1.15476046e-02 -5.76950647e-02 -5.87921798e-01 +4.65057641e-02 -9.38872620e-02 +1.72436357e-01 -7.45313838e-02 +1.16322070e-01 +2.30543122e-01 -1.07985167e-02 +1.12374827e-01 +2.11576596e-01 -2.00397208e-01 -9.85936448e-02 -1.46831974e-01 -1.38866603e-01 +2.04936769e-02 -2.09756359e-01 +1.10029597e-02 +7.29931295e-02 +2.05745146e-01 -9.14985314e-02 +3.24011780e-02 +1.51527107e-01 +3.31547633e-02 -3.96216214e-02 -9.70508084e-02 -1.50606692e-01 -4.51107353e-01 -1.90825742e-02 -6.31702170e-02 -1.90564349e-01 +7.85746276e-02 -2.01000914e-01 +9.04675014e-03 -1.35006264e-01 +7.19783977e-02 -9.10081193e-02 +1.05219848e-01 -6.39423579e-02 +9.58482102e-02 -2.69724011e-01 +1.59073994e-01 +1.18140675e-01 +5.67281768e-02 -6.83760345e-02 -2.49342903e-01 +4.87358347e-02 -7.29093105e-02 -1.85247481e-01 -4.58076112e-02 -5.22757359e-02 -1.06134914e-01 +6.84436485e-02 +1.84850022e-02 +7.90451840e-02 -7.94409513e-02 -1.73423111e-01 +1.59126565e-01 +2.04306096e-01 -1.35387629e-01 +1.41095752e-02 +6.55003563e-02 +2.31139377e-01 -1.12071242e-02 +7.30083361e-02 -1.13184512e-01 -5.27871214e-02 +5.83969653e-02 +3.06600053e-03 -3.38322073e-02 -2.67133057e-01 +1.21363059e-01 -1.16964225e-02 -8.44099745e-02 +2.72695094e-01 +3.10210269e-02 -2.19902098e-01 -1.06027931e-01 -1.56177059e-01 -2.71204680e-01 -9.58795771e-02 -6.84202686e-02 +4.51319404e-02 +4.51414883e-02 +9.75690261e-02 +1.30179375e-01 +4.46336642e-02 -2.86346786e-02 +3.41529511e-02 -1.71070442e-01 -4.05161083e-02 -5.86183071e-02 +9.40548852e-02 -1.41673731e-02 -6.17214739e-02 +1.99291363e-01 -9.35417190e-02 -2.37931266e-01 -1.63577020e-01 +1.27638876e-01 -9.69731715e-03 -9.30364579e-02 +3.66575681e-02 -1.88834697e-01 -3.14342231e-02 +1.53177828e-01 -2.60499656e-01 -2.60479022e-02 +1.67533588e-02 +1.07229620e-01 +1.23147406e-01 +2.45403070e-02 +2.78841108e-01 -5.09156063e-02 -7.52958804e-02 +1.58676699e-01 -5.52650020e-02 -5.19758351e-02 +1.42188832e-01 +1.15540370e-01 +2.47235820e-01 +5.56622371e-02 +5.71930557e-02 +2.75812209e-01 +8.91737291e-04 +7.45525509e-02 +6.06420785e-02 -2.29724169e-01 -3.45779389e-01 +1.32599220e-01 -1.07994229e-01 -3.67500745e-02 -2.14001611e-01 -8.92706141e-02 +1.25561073e-01 -1.21829845e-01 +1.06026754e-01 +1.26578987e-01 +1.97387248e-01 +8.43132734e-02 -1.87453955e-01 +5.45287728e-02 +8.64546224e-02 +7.08550066e-02 -2.82346103e-02 +2.27830606e-03 +1.09754950e-01 -8.66484866e-02 +1.26093060e-01 -9.77768824e-02 -4.97505628e-02 +3.05830594e-02 +2.45179713e-01 +1.73586324e-01 +2.23009020e-01 +1.69579417e-01 +6.93514571e-02 -3.97517486e-03 +2.86097564e-02 -1.80352181e-01 -8.71708989e-02 +1.91899519e-02 -5.87672628e-02 -2.36153007e-02 -4.76716049e-02 +5.79055212e-02 -8.72566923e-02 -8.09945986e-02 +3.01702525e-02 +4.38865013e-02 -1.65175274e-03 -1.16688001e-03 +2.58110687e-02 +5.66808134e-02 +4.14691679e-02 -9.66079906e-02 +1.38840169e-01 +2.45730393e-02 -1.58137545e-01 +6.38908595e-02 -2.87714899e-01 +4.75032255e-02 +9.38530713e-02 -7.74026290e-02 -1.11841708e-02 +8.49030912e-02 +1.90174460e-01 +4.12644111e-02 -9.70356017e-02 +1.97488517e-01 +2.30676737e-02 +4.02914099e-02 -7.28791859e-03 -9.89898108e-03 -1.76861927e-01 +6.74720630e-02 +4.30307910e-02 -1.92107081e-01 +1.35318758e-02 -7.99366459e-02 +8.96608308e-02 -8.54508653e-02 -6.84746951e-02 +1.63459137e-01 -8.39570239e-02 +6.87345937e-02 -1.40655994e-01 -2.16680750e-01 +1.53790824e-02 -2.15193760e-02 +7.54999518e-02 -2.36701965e-01 -1.26345947e-01 +4.75174598e-02 -3.71610522e-02 -1.19604208e-01 -1.99915871e-01 +1.34240640e-02 -1.11780763e-01 +3.73875163e-02 -1.57805979e-01 -6.27049478e-03 -6.67890534e-02 -1.55073956e-01 -8.84842873e-02 -1.21517606e-01 +6.40782574e-03 -7.77460216e-03 -2.15083525e-01 -1.09928764e-01 -2.17128560e-01 -6.55335635e-02 -2.74140298e-01 +1.57986671e-01 -1.02300964e-01 -2.96240970e-02 +4.03619744e-02 +1.39320139e-02 -8.40724111e-02 -1.71200797e-01 -1.66453749e-01 +1.39901238e-02 -1.34074250e-02 -1.40051870e-02 +1.57708719e-01 -7.75106624e-02 -8.93894807e-02 +4.42648262e-01 -4.88449298e-02 -7.04881847e-02 -2.39691902e-02 +2.10909769e-01 -1.34569824e-01 +8.54578018e-02 -1.00306183e-01 -2.49090623e-02 -2.59023458e-01 +1.86168447e-01 -2.66093135e-01 -3.13074619e-04 +7.69531354e-02 -1.25060290e-01 +8.82962048e-02 -1.45415381e-01 -1.38519421e-01 -2.09021986e-01 +1.70446917e-01 +4.75090779e-02 -1.10384427e-01 -1.64969817e-01 +9.16632488e-02 -1.44192189e-01 +5.62584121e-03 +1.07283570e-01 +9.61544514e-02 -8.00746977e-02 +1.10161006e-01 +1.26301339e-02 -1.91266183e-04 -7.71988034e-02 -1.33868366e-01 -5.31101525e-02 +2.20931917e-01 +3.27913351e-02 +1.01936467e-01 +1.96859583e-01 -4.71964031e-02 -1.72802553e-01 -1.19579017e-01 -7.84194842e-02 -6.51574880e-02 -8.63392130e-02 -1.13891944e-01 -1.55785039e-01 -6.12359196e-02 -1.91817638e-02 -1.62903413e-01 +9.21010673e-02 +1.45486131e-01 -3.16363201e-02 +4.35768142e-02 -1.62341163e-01 +7.96165131e-03 -5.52028298e-01 +9.76219848e-02 +1.26108661e-01 -6.61334619e-02 -1.62089497e-01 -3.17919314e-01 -3.11785899e-02 +7.26790205e-02 -6.50135875e-02 +1.35395557e-01 +8.14288780e-02 +1.71500340e-01 -1.45435274e-01 -1.01736650e-01 -2.88495034e-01 -1.58168852e-01 +1.33870617e-01 -1.82245448e-01 +1.55245662e-01 +8.79545435e-02 -3.53379883e-02 -2.97650583e-02 -7.10476413e-02 +2.33722597e-01 +1.21212170e-01 +5.11377379e-02 -5.70091009e-02 -5.83800673e-02 +1.21204458e-01 +6.80070370e-02 +7.20600337e-02 +8.30231085e-02 -2.24169359e-01 -9.01655927e-02 -1.03563042e-02 +7.39502087e-02 -1.26647977e-02 +3.31724323e-02 -3.86783034e-02 +1.56392343e-02 -1.35699034e-01 -2.31522083e-01 -9.55022275e-02 +7.55819529e-02 +1.64972007e-01 +2.37414148e-02 -1.33223617e-02 -3.18761468e-02 -1.28308758e-01 -4.62005064e-02 -3.45740944e-01 -3.48760784e-02 -5.23233321e-03 +5.87862968e-01 +3.22179109e-01 +3.28213811e-01 -1.70179427e-01 -3.31150144e-02 +3.26574594e-01 -2.69232839e-01 +5.48155867e-02 -1.77677453e-01 +2.71455318e-01 +2.22561538e-01 -4.14475620e-01 -4.16029245e-02 -5.27476892e-02 +5.76458126e-02 -1.03527725e-01 -6.98914304e-02 +3.28214765e-01 +5.03030494e-02 +4.73812193e-01 +7.86223650e-01 -4.61968742e-02 -2.85766795e-02 +1.89391285e-01 -1.49769068e-01 +1.90515861e-01 -1.93525419e-01 +2.82245845e-01 -6.01662219e-01 -2.48850271e-01 -6.52265966e-01 +4.41855155e-02 -6.00272775e-01 +2.34452918e-01 +3.60567808e-01 -2.38444865e-01 -5.22113383e-01 -2.67191976e-01 -9.67795700e-02 -1.66141927e-01 +2.85788685e-01 -5.62990606e-01 -2.71665782e-01 -1.65413395e-02 +1.30387843e-01 -5.74249104e-02 -4.09679860e-01 +7.20888376e-02 +3.35467488e-01 +2.12607011e-01 -9.73207355e-02 -7.85562694e-02 +5.92605650e-01 -3.76329087e-02 +2.65779257e-01 -1.27482519e-01 +3.23622853e-01 -3.79230157e-02 -4.64654602e-02 -1.56155795e-01 +3.10125202e-02 +1.18797019e-01 -1.12564459e-01 -7.34788552e-02 +2.36324668e-01 +1.40818909e-01 -4.53735888e-01 +6.35390654e-02 -7.00020343e-02 +2.13489890e-01 -4.75919574e-01 -5.32648981e-01 -2.45026022e-01 -2.90509202e-02 +7.43851438e-02 -1.03096694e-01 -4.13915098e-01 -2.93431997e-01 -3.00738454e-01 -3.56959142e-02 -3.12636524e-01 +4.74984348e-01 +2.06881404e-01 -2.83236086e-01 -9.80861932e-02 +1.68066978e-01 -1.14813209e-01 -5.20933094e-03 +2.61736482e-01 +4.20631498e-01 +1.03024162e-01 +6.87508285e-02 +1.63507849e-01 +1.20488368e-01 +5.65630049e-02 +9.05109793e-02 +4.27689493e-01 -3.04912686e-01 +4.83397953e-02 +5.88837564e-02 +5.87890148e-01 -1.74839899e-01 -5.79949142e-03 +5.12872458e-01 -2.20190108e-01 -1.45148775e-02 -1.87637657e-01 -3.62075448e-01 -1.54060140e-01 -2.38445699e-02 +2.74234802e-01 -1.81332976e-01 +2.66991675e-01 -6.05476737e-01 -1.41168907e-01 +2.33342513e-01 -1.87510908e-01 +5.72697110e-02 -1.54247984e-01 +5.92360020e-01 +5.38097024e-01 +6.14389062e-01 -2.23354593e-01 -2.17014879e-01 +1.79834262e-01 +8.97480100e-02 -1.00936797e-02 -5.18923923e-02 -1.60974205e-01 -1.21410720e-01 -1.32361710e-01 -7.56124184e-02 +6.12055920e-02 +7.28375241e-02 +4.25422899e-02 -8.24967921e-02 -8.84508193e-02 +7.43336901e-02 -1.08978920e-01 +1.67114854e-01 +9.70702693e-02 +1.00991666e-01 -6.37063831e-02 -4.78666052e-02 -1.60128042e-01 +4.40117344e-02 -2.16886010e-02 -2.33002156e-01 +1.35304719e-01 -4.99747656e-02 -1.88176945e-01 +1.24380603e-01 +1.70762673e-01 +2.04524711e-01 +7.59805217e-02 +1.56715274e-01 +7.27003720e-03 -1.88921809e-01 -2.04725955e-02 -1.08290948e-02 +8.07912499e-02 +2.00733077e-02 -8.96112844e-02 +4.63217422e-02 +1.05434097e-01 -1.02885500e-01 -4.07206500e-03 -4.69348878e-02 -5.73865213e-02 -5.58970794e-02 -3.07482425e-02 -1.70119479e-01 -1.85148090e-01 +2.19060294e-02 +4.66104858e-02 +9.43811163e-02 -1.35866463e-01 -3.59648727e-02 +1.76640347e-01 +4.49207686e-02 +1.31840065e-01 +1.29306063e-01 -1.61262244e-01 -1.35926992e-01 -6.66445717e-02 -1.13923825e-01 -2.91197687e-01 +7.62659460e-02 -3.29607204e-02 +1.65276993e-02 +1.86002124e-02 +9.61491391e-02 -1.42742768e-01 +1.26335453e-02 +7.89269432e-02 +6.03070110e-02 +4.91481982e-02 +1.56711508e-02 +5.42144887e-02 -3.94084863e-02 -1.51059376e-02 -5.58730483e-01 +1.83588624e-01 -9.94002745e-02 -1.39199480e-01 -2.80568749e-02 -1.98636353e-02 -6.27656579e-02 +1.20611921e-01 -5.51306941e-02 -7.31612593e-02 +1.56740602e-02 -5.49897514e-02 +3.34599987e-02 +1.35583645e-02 -1.57975763e-01 -1.86489940e-01 +2.10366353e-01 +2.84073025e-01 -4.90568671e-03 -8.71514715e-03 -1.64174020e-01 +8.74946415e-02 +1.01446711e-01 +8.72256309e-02 +7.34725893e-02 -5.32668829e-02 +1.22274071e-01 -3.67013365e-02 -6.46949932e-02 +6.25709370e-02 -1.24600902e-02 -9.49947312e-02 -7.90709481e-02 +1.85131133e-02 +2.63625141e-02 +4.98516485e-02 +7.50556588e-02 +4.17854302e-02 +2.30015982e-02 -2.03311071e-02 +2.07811236e-01 -2.61760969e-02 -1.39535591e-01 -1.20317869e-01 -1.63246796e-01 +4.84758019e-02 -1.41718596e-01 +1.47241637e-01 -4.96938117e-02 -1.58026651e-01 +1.49385661e-01 -9.47340280e-02 +2.01206595e-01 -8.81450400e-02 +2.71808151e-02 -1.60379305e-01 +1.94114208e-01 +7.99972191e-02 -1.09608315e-01 +1.67424772e-02 -1.68974712e-01 -3.73372883e-02 -2.51767784e-01 +1.30271181e-01 +1.79824516e-01 -9.14190114e-02 +8.16554874e-02 -9.36022699e-02 -6.02760576e-02 -1.88463759e-02 -7.97137767e-02 +1.03834517e-01 +1.52414814e-01 +9.24605727e-02 +1.19607141e-02 +6.49800599e-02 -1.63593352e-01 -1.79905429e-01 -6.19017243e-01 +8.85206535e-02 +3.11602857e-02 -2.23051179e-02 +6.82511553e-02 -5.57674706e-01 -1.68898702e-02 -1.63501903e-01 +2.64236759e-02 -8.32487270e-02 -1.25791728e-01 +8.90384614e-02 -1.09946266e-01 -1.15581848e-01 -3.40708315e-01 -1.02288179e-01 +1.44166932e-01 -4.44262102e-03 -1.03077345e-01 -8.02765861e-02 +4.22365479e-02 +3.25743593e-02 +9.38057229e-02 -6.95538148e-02 +2.27632821e-02 +2.04812333e-01 -2.77909599e-02 -1.49851680e-01 +2.09487095e-01 -6.03314936e-02 -1.45078385e-02 -1.97412133e-01 -2.58444883e-02 -2.00141110e-02 -3.74997668e-02 -1.04044743e-01 -5.20735264e-01 -3.22775990e-02 +5.18051647e-02 -9.00948942e-02 -4.58726138e-02 +1.04674585e-01 -1.08273514e-02 -6.85842708e-02 -3.13649699e-02 -2.10232809e-01 -3.34017677e-03 -1.88785754e-02 +6.19751737e-02 -8.56465474e-02 -2.51823545e-01 -9.18101221e-02 -3.62079769e-01 +5.69593497e-02 +4.59065363e-02 -5.92479706e-02 +9.05685276e-02 -1.68160766e-01 -3.85341272e-02 -7.02082925e-03 -6.28571361e-02 +2.95589045e-02 -6.12297095e-02 -1.64328784e-01 -1.01911388e-02 +6.84482604e-02 +5.34168072e-03 -6.79631233e-02 -9.27582383e-02 +2.24925816e-01 -7.96330422e-02 -1.62681006e-03 -1.04585655e-01 -3.91648374e-02 -5.01803048e-02 +6.47717714e-02 +2.56140158e-02 +1.15691707e-01 -2.13826641e-01 -2.34091625e-01 +1.43657606e-02 +1.22327581e-01 -1.12600438e-01 -7.35507533e-02 -5.19292913e-02 +5.28742895e-02 -1.50105283e-01 -3.04823127e-02 -2.65431479e-02 +6.65776059e-02 +6.18172809e-02 +7.29958266e-02 -2.47623995e-02 +2.13891506e-01 +4.61165495e-02 -1.80834904e-02 +6.90659583e-02 +2.94129993e-03 -7.24774823e-02 -2.02642471e-01 +3.49621214e-02 -4.06628996e-02 -5.44554472e-01 +5.95418662e-02 -1.20888062e-01 +1.65679157e-01 +1.57557681e-01 +1.20584570e-01 -1.37041271e-01 +8.97417068e-02 -1.61305107e-02 +7.68516362e-02 -6.82891905e-02 +5.91967031e-02 +1.73893467e-01 +1.71841145e-01 +7.15315789e-02 +2.16276750e-01 -8.21051300e-02 +2.01872289e-01 +3.91610786e-02 +7.61224702e-02 -4.96434197e-02 -2.72653569e-02 +5.87122552e-02 +8.47015753e-02 -1.77869890e-02 +4.69015818e-03 -4.54738557e-01 -6.82619736e-02 -6.53818669e-03 +1.65517554e-02 +3.03702112e-02 -3.19923133e-01 -7.45075047e-02 +2.53603339e-01 -6.77520931e-02 -6.37741238e-02 +5.50770424e-02 +1.85265481e-01 +8.11789185e-02 -6.62715659e-02 +4.91201311e-01 +9.84462425e-02 +1.47499368e-01 -4.94474843e-02 +5.76276034e-02 +4.51159775e-02 +8.98669288e-02 +9.48786810e-02 -6.96428195e-02 +9.82823223e-02 -7.73748476e-03 -2.20458340e-02 -7.61898383e-02 +2.32337624e-01 +5.57955243e-02 -1.87973157e-02 +1.38773784e-01 -1.71888620e-01 -4.83527184e-02 -5.28874248e-02 +9.55331028e-02 +6.71945065e-02 -1.70133129e-01 +8.17959085e-02 +6.20416813e-02 +6.99060112e-02 +1.32507741e-01 +8.61762762e-02 +6.31533414e-02 -1.16422877e-01 +1.28478304e-01 +1.00868389e-01 +8.87041539e-03 -1.58599451e-01 -7.90172964e-02 -4.43215063e-03 +1.96392424e-02 +1.05178215e-01 -1.05214529e-01 -7.85371587e-02 -3.49699676e-01 +3.18342373e-02 -2.66025774e-02 -1.59131438e-02 -1.28761500e-01 +7.37097412e-02 +2.26833560e-02 +8.77920538e-02 +6.50326312e-02 -1.47465646e-01 +4.17549536e-02 +1.41142845e-01 +8.15095939e-03 -7.84565881e-02 +7.38315508e-02 +1.18105046e-01 +2.20267586e-02 -6.95508793e-02 +9.29271132e-02 -1.24232201e-02 -1.15373423e-02 +1.34726152e-01 -1.38634369e-01 +4.23065200e-02 +1.51784539e-01 +3.15735526e-02 +1.98122226e-02 +4.59326655e-02 -1.36503810e-02 +2.09550038e-02 +3.05401417e-03 +8.72690678e-02 +3.81466188e-02 +1.12125523e-01 +1.50007218e-01 -9.30656269e-02 -2.22434755e-02 +7.30944127e-02 +1.59382403e-01 +2.43023425e-01 +5.02263196e-02 +1.06626555e-01 +4.95539084e-02 +8.86458084e-02 +6.48154542e-02 +2.37358272e-01 -6.68972824e-03 -2.52011325e-02 -1.29315615e-01 -1.90655068e-02 -3.04533184e-01 -3.64293344e-02 -1.25558704e-01 -7.84581527e-02 -1.83460623e-01 +1.37919269e-03 -5.71264625e-01 +7.64663741e-02 +6.85092285e-02 +1.11806579e-01 -6.83304012e-01 -2.76470304e-01 -6.08357191e-02 -1.65766463e-01 -1.46124601e-01 +7.07134232e-02 -1.56196598e-02 +7.64534809e-03 -6.62684917e-01 -1.28774988e-02 -8.80319327e-02 -5.71578264e-01 +1.36812463e-01 -1.43997297e-01 -4.22192276e-01 -2.50995696e-01 -3.03507656e-01 +2.13548005e-01 +8.71629361e-03 -2.03728169e-01 -1.30452439e-01 +8.52162957e-01 -2.29914591e-01 +1.99140355e-01 +4.18202356e-02 -5.26795447e-01 -5.86256199e-02 -4.43496779e-02 +4.73533273e-02 +1.69123694e-01 +2.40960702e-01 -4.47875977e-01 +7.26125956e-01 -2.80208349e-01 -3.61514509e-01 -4.16821428e-02 -9.19625223e-01 -1.17443793e-01 -3.63272369e-01 -3.36858630e-01 -3.50732543e-02 +5.24328351e-01 +1.26960635e-01 -5.42228818e-01 -1.09900691e-01 -2.27795213e-01 +5.95066845e-02 -4.28813875e-01 -4.31567840e-02 -1.12963840e-01 -3.24912846e-01 +2.03388050e-01 -1.74867451e-01 +6.89044118e-01 -2.72925973e-01 -1.13799982e-01 -5.29381633e-01 -2.81479210e-02 +1.36893559e-02 -5.51520348e-01 -1.62309006e-01 -4.93448287e-01 -1.93301141e-01 -1.60718575e-01 +1.25252856e-02 -2.01550886e-01 -4.66704011e-01 -1.94203541e-01 -3.00875485e-01 -3.75798315e-01 -3.62899870e-01 -1.64083876e-02 -2.17348814e-01 -4.52140719e-01 -1.44343555e-01 +3.33860636e-01 +3.28903347e-02 -1.25755206e-01 -5.79371452e-01 -3.14569443e-01 -7.57357851e-02 -1.30350739e-01 -1.92433055e-02 +2.40440387e-03 -1.21138997e-01 -1.44789204e-01 +5.73601313e-02 +3.09751153e-01 +5.03811002e-01 -7.83766210e-01 -6.94048584e-01 -6.29355609e-01 -1.28688961e-01 -1.73282683e-01 +2.10593380e-02 -6.64459348e-01 -4.22189653e-01 +3.93496037e-01 +5.97421110e-01 +9.18955207e-02 +6.18129559e-02 -4.12035175e-02 -9.88821387e-02 -2.95193791e-01 +5.03697634e-01 +1.75974235e-01 +5.50324440e-01 +1.51848018e-01 -1.13445215e-01 +3.93154770e-01 -1.27281204e-01 -2.44001165e-01 -3.10241282e-01 +8.17084789e-01 -3.07770491e-01 -3.20249289e-01 +1.00799441e-01 +1.70008019e-01 +3.92356142e-02 +2.13631876e-02 +3.68750864e-03 +1.29230367e-02 +1.52609482e-01 +6.49486631e-02 -4.90931831e-02 +2.30732691e-02 -1.55310463e-02 -1.88402794e-02 -6.74809441e-02 +8.53206813e-02 +1.77879184e-02 +1.46741932e-02 +6.26052842e-02 -2.35970560e-02 -8.39197189e-02 +7.29285404e-02 +6.14591949e-02 -1.04336418e-01 -2.57578976e-02 +1.25257328e-01 -4.54056263e-02 +7.19204023e-02 -2.30919883e-01 -6.72716498e-02 +3.53871882e-02 +4.49572243e-02 -7.42478250e-03 -4.48850691e-02 +1.38024777e-01 -1.73336983e-01 +7.71516711e-02 -8.56550783e-02 -6.23453632e-02 -7.57445246e-02 +2.67764051e-02 -6.15246333e-02 -6.47443086e-02 +2.12547928e-01 -5.68076819e-02 -6.31723329e-02 -4.00566831e-02 +9.14298445e-02 -5.85232712e-02 +6.88825399e-02 -6.10253215e-02 +1.46040702e-02 -8.46573561e-02 -1.18806832e-01 +1.26759440e-01 +6.28859699e-02 -3.88060138e-02 +1.67436097e-02 -1.18927456e-01 +3.96736801e-01 -5.11686243e-02 +1.76853277e-02 +1.03292033e-01 -4.93014976e-03 -1.11158103e-01 +8.99100453e-02 +9.37604159e-03 -6.08646795e-02 -2.25964431e-02 +5.15038334e-02 -9.85557064e-02 +1.17292576e-01 -1.36314938e-02 -4.26656529e-02 +1.37645602e-01 +7.73949176e-02 -1.15804598e-01 -8.88681877e-03 +1.97370261e-01 -6.16043583e-02 -1.18885040e-01 +1.56073913e-01 +7.48693869e-02 +1.13536064e-02 +3.63071412e-02 -2.74749827e-02 -1.68776221e-03 -9.51815695e-02 -1.63820572e-02 -5.56794181e-03 -8.78594518e-02 -5.68223745e-02 -9.69694629e-02 -4.97312061e-02 +7.53344893e-02 -3.68828952e-01 +3.18473168e-02 -7.48126134e-02 -5.45019507e-02 +7.68839195e-02 +4.87614721e-02 +4.69896607e-02 +4.01812978e-02 -7.00108111e-02 +4.54106554e-02 +1.04111865e-01 -4.17393893e-02 -9.09757540e-02 -3.77132185e-02 +8.03510994e-02 -1.18248716e-01 +1.61844678e-02 +1.85281821e-02 +2.38040403e-01 -1.24502033e-01 +1.48368016e-01 -6.65614679e-02 -1.66681215e-01 +2.87741725e-03 +9.37810242e-02 -5.83726466e-02 +1.00393198e-01 +2.43208110e-02 +3.16965878e-02 +1.25385612e-01 +1.02239922e-01 -1.65828705e-01 -4.49143201e-02 -1.27162054e-01 -9.92738530e-02 +4.41298820e-02 -4.89472747e-02 -5.19341528e-02 +1.30495867e-02 +3.33406031e-02 +1.41033262e-01 -1.21314526e-01 +1.28461540e-01 +8.56946036e-02 -5.47879227e-02 -9.18146297e-02 -5.03788292e-02 +1.08949291e-02 +7.79876579e-03 +1.97721701e-02 -2.76382446e-01 -7.92011693e-02 -3.81373838e-02 -2.55106181e-01 -1.56053361e-02 +1.83463633e-01 -8.15941840e-02 -1.26773581e-01 +4.41036411e-02 -7.46235698e-02 -3.04800123e-01 -2.96668530e-01 -6.23112097e-02 -4.00065556e-02 +5.67097776e-02 -4.30465847e-01 -4.55869168e-01 +1.00344848e-02 +2.02996414e-02 -4.36869729e-03 -8.70301574e-02 -1.30881399e-01 +3.32578123e-02 -1.88704226e-02 +8.78501311e-02 -6.60730004e-02 -5.05797088e-01 -4.88754451e-01 +1.08605780e-01 +8.12552273e-02 +7.19539030e-03 -1.08101390e-01 -3.76075245e-02 -3.43116336e-02 -1.84322089e-01 +8.79299417e-02 +6.25411272e-02 +1.15373507e-02 +4.56804322e-04 -1.83072001e-01 +2.60691065e-02 -1.41452059e-01 -3.93165261e-01 -5.98396182e-01 -9.68183056e-02 +1.13440521e-01 -1.99232295e-01 -3.99301380e-01 -2.06374582e-02 +1.51070595e-01 +1.48229534e-02 -1.65540621e-01 -3.62429419e-03 +7.05175251e-02 +6.66088611e-02 -1.76279530e-01 -1.95929915e-01 +1.73340682e-02 -7.02555180e-02 +9.24879685e-02 -1.25923976e-01 -2.10003331e-01 +4.66349386e-02 -1.75951645e-01 -2.14558095e-01 -3.63133103e-01 -1.48156866e-01 -7.63158053e-02 +6.41001761e-02 -2.93435231e-02 -4.50530089e-02 -1.21659137e-01 -8.96744579e-02 -6.46270812e-02 -1.71041787e-01 -1.26790062e-01 +4.15409617e-02 +5.38434237e-02 -2.09880441e-01 -8.79753605e-02 -1.12428620e-01 -3.51111799e-01 +2.74071991e-01 +3.22687849e-02 +4.43884544e-02 -6.25740364e-02 -2.33215801e-02 +1.22362345e-01 -8.83110166e-02 +1.84463248e-01 -7.05013797e-02 -1.63468793e-01 -3.04173380e-02 +1.68814778e-01 +1.99433770e-02 -3.07068408e-01 +4.87793125e-02 -4.18880470e-02 -1.30654290e-01 -1.60506338e-01 +5.62004820e-02 +7.78180733e-02 +4.26588468e-02 +1.98799893e-02 -1.32786065e-01 +9.16121900e-02 +3.10592055e-02 -1.72313321e-02 +1.02229752e-01 +7.69612268e-02 -2.08010092e-01 -7.93222338e-02 +1.99577063e-02 +4.00068760e-01 +8.54959637e-02 -7.41885379e-02 +1.72177464e-01 -6.09648228e-02 -2.25491915e-02 +1.78476400e-03 +1.74702093e-01 +4.94329780e-02 -1.19464181e-01 -7.41708800e-02 -2.09770538e-02 -1.60015136e-01 -1.53438598e-02 +1.35320142e-01 +2.85802811e-01 +9.19769146e-03 +6.75187260e-02 +1.14889070e-01 -1.40898958e-01 -4.73478548e-02 -6.34323135e-02 -9.60412771e-02 +1.32138297e-01 +4.19632196e-02 +1.41456366e-01 -3.64262372e-01 +6.10373095e-02 +2.45252606e-02 +8.17324743e-02 -6.17702082e-02 -3.96133065e-01 -2.66639113e-01 -3.60845178e-02 +5.00942618e-02 +9.97505188e-02 -4.10305941e-03 -1.20276667e-01 -1.87704429e-01 +5.06203882e-02 -1.86907761e-02 +3.37234765e-01 -8.11587811e-01 -1.97289914e-01 -4.30804603e-02 -6.96432292e-02 +1.66232184e-01 +1.36556402e-01 -4.26595025e-02 +1.08764991e-01 +1.17344540e-02 -1.02703407e-01 -2.16895808e-02 +1.46847397e-01 -2.36113891e-01 +1.12497725e-01 -4.27188016e-02 -7.52176404e-01 -4.40243661e-01 -4.34926804e-03 -1.80825412e-01 +4.40446138e-02 -5.17632782e-01 +7.84865674e-03 -8.66249502e-02 +1.62863910e-01 -1.81325778e-01 -5.58302402e-02 +6.64047524e-02 +1.22193042e-02 -1.50381953e-01 +2.81583611e-02 -1.54940993e-01 -1.01568485e-02 -1.67014122e-01 -2.94447429e-02 -8.31036940e-02 +9.56093669e-02 +4.29873794e-01 -8.93729702e-02 -3.60216528e-01 -4.88131456e-02 +5.32004759e-02 +2.13128135e-01 -4.49378695e-03 +6.62217215e-02 -3.82805206e-02 -6.28490821e-02 -1.32566527e-01 -1.68872327e-01 +1.18069857e-01 +1.35417238e-01 +1.99053764e-01 +5.10002911e-01 +1.75894294e-02 -1.43279180e-01 -1.16989091e-01 -7.34130386e-03 +3.19889858e-02 -8.68328288e-02 -1.10787824e-01 -2.76680738e-02 -5.07201888e-02 +1.52562425e-01 +6.86314628e-02 -8.36826116e-03 +1.10114351e-01 -2.04427317e-02 +2.40507454e-01 -5.77250607e-02 -1.85071975e-01 +1.30127072e-01 -1.50466248e-01 -7.77398720e-02 -4.19148058e-02 -1.62719786e-01 +1.17906280e-01 +4.44723964e-02 -1.35632744e-02 -2.36193284e-01 +1.73963681e-01 +1.04182236e-01 -1.42643973e-01 +8.66890773e-02 -9.52901766e-02 -1.50629068e-02 +5.80742955e-03 +4.74877805e-02 +2.85746247e-01 +5.45893498e-02 -2.80306101e-01 +8.32637772e-02 -2.25631669e-01 +2.90544361e-01 -7.37223089e-01 +1.62364170e-01 +2.80680954e-01 -4.85160619e-01 -4.48825136e-02 -4.89235491e-01 -6.20466992e-02 -2.00167865e-01 -9.35457945e-02 +6.14393242e-02 -7.18109906e-02 +2.58982271e-01 +3.43284994e-01 +4.32834290e-02 +4.62843865e-01 +3.81318271e-01 +1.51660159e-01 +3.35033834e-01 +1.48160290e-02 +1.00015150e-02 -1.49173394e-01 +2.85134375e-01 -1.22888327e-01 -3.91211569e-01 +1.70775354e-01 -5.56362391e-01 -1.23434171e-01 -2.73346037e-01 +2.47846842e-01 -1.62010208e-01 -1.78536564e-01 -4.63189296e-02 +1.06421791e-01 -4.84632045e-01 +2.41739556e-01 +1.01560883e-01 -4.48862821e-01 -5.51072620e-02 -2.18354985e-01 -3.62048477e-01 +1.12535417e-01 +4.02561128e-02 +5.95822148e-02 -5.14136493e-01 -3.83823037e-01 +1.90048609e-02 -5.71248755e-02 +1.92890480e-01 -3.86787742e-01 +1.36181131e-01 +6.49181083e-02 -4.38178867e-01 -4.13025767e-01 +1.79396763e-01 -2.36504786e-02 +1.30173609e-01 -6.45562828e-01 -3.51454496e-01 +4.83015962e-02 -4.93252389e-02 -3.40945810e-01 +7.32510397e-03 +5.18508136e-01 -1.01025462e-01 +2.77620226e-01 -3.07319969e-01 -3.12514782e-01 +5.13854697e-02 -1.94333062e-01 -5.21645069e-01 +1.76671624e-01 +6.22436479e-02 +1.54546216e-01 -1.42278761e-01 -4.59069490e-01 -1.60887897e-01 +7.73971856e-01 +1.26698703e-01 -9.16754454e-02 -1.73176974e-01 +2.77499901e-03 -4.52376544e-01 -3.88496429e-01 -2.03169838e-01 +2.78050125e-01 +1.23226255e-01 +6.65757120e-01 -1.01427540e-01 +7.14745000e-02 -2.05283940e-01 -2.37952307e-01 -1.80289391e-02 -1.11531302e-01 +6.91563413e-02 -3.03910315e-01 +3.07374269e-01 -2.75710404e-01 +2.01305255e-01 -5.35928681e-02 +1.00179441e-01 +1.04784817e-01 -1.23239696e-01 +7.28928924e-01 -4.37424630e-01 -9.69108269e-02 -1.31560400e-01 +2.75615994e-02 -1.63677573e-01 +2.64517337e-01 +3.92454565e-01 +1.53046802e-01 +3.98388281e-02 -2.68399447e-01 -4.63144600e-01 -6.13523275e-02 -1.80166125e-01 +3.95604998e-01 +3.81687433e-01 +2.16195419e-01 -1.09715156e-01 -1.60373807e-01 +1.05501749e-01 -2.42815554e-01 -4.26291287e-01 +7.26603568e-02 +9.33470428e-02 -1.01154812e-01 -4.42777760e-02 +8.15164074e-02 -5.89844733e-02 +1.93412423e-01 -1.56893611e-01 +1.31165415e-01 +6.91200569e-02 +2.11162150e-01 +3.75401750e-02 +9.04140249e-02 -5.59774749e-02 -1.23858169e-01 -2.58680023e-02 -8.89650732e-02 +3.17446858e-01 -3.84481810e-02 -4.80970293e-02 +1.60536036e-01 -1.12761155e-01 +2.44398668e-01 +8.31137374e-02 -1.60324216e-01 -1.46749988e-01 -2.06330732e-01 -2.86431913e-03 -7.80068189e-02 -1.66499726e-02 +5.66372931e-01 +1.77103519e-01 +2.18808457e-01 -2.13538855e-01 -1.36761501e-01 -1.58988059e-01 -2.64946282e-01 -4.24469363e-05 +3.06092892e-02 -1.63617171e-02 +3.69851917e-01 -1.58069476e-01 -9.13427547e-02 +1.55788660e-01 +1.32869527e-01 +1.94301262e-01 -4.60049361e-02 -9.45465788e-02 -1.65839002e-01 -2.84932759e-02 -2.87127886e-02 -1.83286350e-02 +5.40398248e-03 +2.45435964e-02 -6.74129650e-02 +3.11735451e-01 +6.61638141e-01 +1.42468572e-01 +7.20957741e-02 +3.40162396e-01 -1.86496079e-02 +1.09340467e-01 -1.60824195e-01 +1.00591697e-01 +7.61886165e-02 -5.05023934e-02 -1.25580773e-01 -1.29526168e-01 -1.87199727e-01 +2.52869070e-01 -2.71006137e-01 -1.66234806e-01 -1.15548387e-01 +1.85068801e-01 -2.32582808e-01 -1.65199548e-01 +2.01862663e-01 +1.37824863e-02 +2.60710984e-01 +1.02667080e-03 -1.52939577e-02 -5.00157140e-02 -3.02430876e-02 -2.37060621e-01 -1.08869925e-01 +9.18640345e-02 -1.72544405e-01 -1.99625015e-01 +3.44048887e-02 -9.65404809e-02 -4.63848636e-02 +4.74135011e-01 +1.17535397e-01 +8.11355263e-02 +6.42846227e-02 -1.10815726e-01 +1.22755277e-03 -1.36868566e-01 -1.80720061e-01 +1.89177856e-01 -1.57487113e-02 +1.71967745e-01 +1.18166618e-01 -1.09913826e-01 -2.42913421e-02 +1.40826702e-01 +3.75605598e-02 +1.42081305e-01 +2.24395737e-01 +4.94142473e-02 +3.72082111e-03 +5.08678034e-02 +1.53162867e-01 -1.85144827e-01 -1.81796819e-01 +6.37543499e-02 -8.00764337e-02 -1.00775801e-01 -2.95905601e-02 +1.01670630e-01 +9.97871980e-02 -3.69378701e-02 -5.62469363e-02 +2.72874385e-01 -1.56206593e-01 +7.27364719e-02 +8.82188156e-02 +1.95084810e-01 +6.99721351e-02 +2.47948110e-01 +1.60622761e-01 +9.26698595e-02 +1.07001871e-01 -8.32780749e-02 -2.84900088e-02 +1.00334182e-01 +2.21350268e-02 -3.15306261e-02 -2.26850659e-01 +8.63910019e-02 +2.93666460e-02 -2.85346299e-01 +2.14384392e-01 +2.13089231e-02 -4.23188627e-01 -7.11502284e-02 -1.05514258e-01 -6.83455691e-02 -3.59153509e-01 -2.23743930e-01 +4.67973091e-02 -2.22324073e-01 -2.74337572e-03 -5.86410500e-02 -1.23522393e-01 -3.99391800e-02 -2.44218200e-01 -4.09793198e-01 +2.68202603e-01 +1.97304338e-02 +2.15804223e-02 +9.58761573e-02 -5.30169206e-03 +2.29913797e-02 +1.47520110e-01 -4.91159037e-03 +1.55321760e-02 -3.87013584e-01 -1.08178899e-01 +6.61804676e-02 -6.52244091e-02 +1.66850001e-01 -1.24412164e-01 +1.13700284e-02 +2.14582652e-01 +2.18744621e-01 +1.61482468e-02 -4.32889909e-01 +8.61898214e-02 +2.22365648e-01 -1.60584465e-01 -1.00958362e-01 -5.05775586e-02 -6.20454907e-01 -7.81331658e-02 -1.64672017e-01 +1.38154589e-02 -3.44714493e-01 +9.61198658e-02 +3.96129787e-02 -8.45656637e-03 -2.27972884e-02 +9.51971263e-02 +2.98225861e-02 -7.14634433e-02 -1.61143038e-02 +2.09330320e-01 +2.46698391e-02 -1.44674227e-01 +4.86763604e-02 +3.10370210e-03 -1.14396952e-01 -2.24087641e-01 -1.10958844e-01 -1.93496153e-01 +8.74230117e-02 -1.01429470e-01 +8.51948261e-02 -1.29073486e-01 +3.76210868e-01 +1.75058141e-01 +6.04064204e-02 +6.52670264e-02 -9.50338393e-02 -1.62494276e-02 +4.98050004e-02 -2.70742178e-02 +3.03927120e-02 -1.84724495e-01 -2.54338861e-01 +1.65024772e-01 +5.79533428e-02 -1.60514772e-01 -5.27157560e-02 -1.99125558e-01 +1.50083870e-01 +1.76229283e-01 +6.68468475e-02 -1.49601564e-01 -1.43192768e-01 +2.22597018e-01 +2.36310393e-01 -3.13339308e-02 -2.14362115e-01 -3.10782105e-01 -9.57697555e-02 +3.52186114e-01 +3.91142722e-03 -2.44928394e-02 +5.11547849e-02 +1.29726365e-01 +2.23416269e-01 -8.24152380e-02 -6.10818975e-02 +2.32615218e-01 +8.31115320e-02 +6.69186860e-02 +3.64979394e-02 +9.84748378e-02 -9.68690291e-02 +6.64615929e-02 +5.13751581e-02 -1.07806422e-01 -1.77849904e-02 -1.58799857e-01 -2.56412406e-03 +1.68707088e-01 +2.69103080e-01 -3.21521908e-02 -4.12348956e-02 -1.20225370e-01 +1.16029099e-01 +4.99000885e-02 +6.68811239e-03 -1.46398200e-02 -7.14085177e-02 -2.31121153e-01 +1.48016408e-01 -1.37865134e-02 +4.00185078e-01 +1.36251092e-01 -7.85840824e-02 +2.19858646e-01 +1.35320008e-01 +2.26332266e-02 +6.53043855e-04 -4.56202388e-01 +1.69965357e-01 -3.63857113e-02 +5.98885678e-02 -1.47793666e-01 +1.02611586e-01 +2.45611835e-02 +2.73758210e-02 +1.62382334e-01 -3.86214942e-01 -3.92590910e-01 +4.80104890e-03 -1.51663065e-01 -8.78930017e-02 +5.47636859e-02 -6.29643202e-02 +1.02352932e-01 +7.41930380e-02 +2.21465990e-01 +2.72495717e-01 +2.42686704e-01 +4.36832011e-02 -7.35799372e-02 -1.93288568e-02 +2.41317526e-01 -5.01022525e-02 -1.18435226e-01 -3.20364200e-02 +7.73417130e-02 -1.36734664e-01 -1.13428660e-01 +2.96215594e-01 -1.09624840e-01 -4.35977094e-02 +6.41658604e-02 -5.58870316e-01 -2.66128242e-01 -2.43970856e-01 +4.06680396e-03 +3.48288387e-01 +4.61947210e-02 -1.08750090e-01 -5.30934148e-02 +8.00547935e-03 +1.71006218e-01 +2.26482138e-01 -2.01136377e-02 +1.25553846e-01 +1.85368985e-01 +4.59341668e-02 -9.37307701e-02 +5.91013469e-02 +1.27141729e-01 +6.34107292e-02 +6.76128268e-01 +3.96154523e-02 +6.07501030e-01 +1.23074286e-01 -3.29887569e-01 +1.10983200e-01 -3.23323137e-03 +4.52070594e-01 -1.41393736e-01 +1.06588826e-02 -2.05829725e-01 +8.19443539e-02 -6.03548810e-02 -8.06716532e-02 +5.75947315e-02 +1.68382779e-01 +3.55658978e-01 +8.07890892e-01 +4.43805158e-02 +1.86363645e-02 -9.65719856e-03 +7.43867606e-02 +1.30498528e-01 -2.30144486e-02 +6.69604465e-02 -3.34108099e-02 +9.70419869e-02 -6.78905174e-02 -1.83822569e-02 +1.07336283e-01 +8.43466669e-02 -1.33398160e-01 -2.92515963e-01 -2.86091082e-02 +1.58412665e-01 +1.51385143e-01 +8.58106301e-04 +1.65783301e-01 -1.68363377e-01 -3.85890305e-02 +4.44616526e-02 +2.95391046e-02 -1.44000217e-01 -1.50377646e-01 +2.19539359e-01 +1.68905407e-02 -1.45038024e-01 -8.62951577e-02 -6.16976656e-02 +2.34617129e-01 +2.91416626e-02 +1.65110871e-01 +1.70885623e-01 -7.58632123e-02 +1.41000822e-01 +9.23144296e-02 -2.14100510e-01 -1.18392929e-01 +1.18744008e-01 -3.08121983e-02 -7.27005482e-01 -6.72991723e-02 +2.24886909e-01 +5.80798239e-02 -3.60855818e-01 +1.04865376e-02 +3.03582877e-01 -1.37326717e-01 +1.53143033e-02 +2.17862412e-01 -8.89027193e-02 +3.33833486e-01 -6.39889985e-02 -7.35843480e-02 -1.96040258e-01 -3.71922672e-01 -4.60971259e-02 -3.90214846e-02 -1.31530121e-01 -3.97971213e-01 -9.87151638e-02 +5.12636080e-02 -1.42780840e-01 -4.96742316e-02 +1.06703252e-01 +1.75517332e-02 -2.99576640e-01 +2.97923207e-01 +3.04052383e-01 -2.40397662e-01 +3.19469899e-01 -3.42663154e-02 +1.16851740e-01 -2.51296367e-02 +2.14501902e-01 -1.31370369e-02 +3.09419669e-02 -3.06785386e-02 -3.95886064e-01 -2.78056085e-01 +3.56381863e-01 +4.94051993e-01 -4.81045455e-01 -3.65563065e-01 -2.86288232e-01 +4.81334865e-01 -5.03554761e-01 -4.66456681e-01 +2.17553675e-01 -1.99435681e-01 +2.07902104e-01 -3.07032883e-01 -4.11073081e-02 +2.05081794e-02 +1.36733294e-01 -4.35900301e-01 -3.50714922e-02 +1.77420408e-01 +2.65808761e-01 -3.08683395e-01 -3.93543512e-01 -2.21088752e-02 +2.46855006e-01 +1.45866647e-02 -6.02427244e-01 +5.08053482e-01 +3.14118803e-01 -3.54517430e-01 -3.85041572e-02 -3.50818247e-01 +4.57011610e-01 +5.60788155e-01 +3.72445472e-02 +2.36323118e-01 -5.41024432e-02 +1.17066406e-01 -7.94052482e-01 -2.70430923e-01 +8.34641233e-02 -3.74027222e-01 -4.83445048e-01 +2.37516448e-01 +1.49198547e-01 -6.74370825e-02 -1.63898673e-02 +1.54110953e-01 +1.56165529e-02 -5.25712967e-01 -1.38150275e-01 -1.05695024e-01 -5.77801839e-02 +2.04757117e-02 +2.60969937e-01 -1.31141357e-02 -2.89731622e-01 -5.40894151e-01 +2.50473410e-01 -4.10311967e-02 -2.22167835e-01 -2.26510122e-01 -2.42631108e-01 -1.06513083e-01 +1.25109524e-01 -2.86811143e-01 +1.50960624e-01 -2.12566301e-01 +7.85964876e-02 -6.10909581e-01 +4.36291218e-01 -2.17433661e-01 -1.60084367e-01 -4.36298132e-01 +7.49508739e-02 -1.23231940e-01 +1.02980599e-01 -2.45445389e-02 -5.58218621e-02 -2.30393396e-03 +4.79585975e-01 -2.30293930e-01 +2.69226253e-01 -6.02178454e-01 -2.91609913e-02 -5.01240194e-02 -4.87188473e-02 -5.81454337e-02 -7.48927100e-03 -7.97731876e-02 -1.55793905e-01 +7.77628273e-02 +2.25563347e-02 +1.88332107e-02 +1.03003107e-01 +2.31236637e-01 -4.30508107e-02 -2.14348853e-01 +1.25190437e-01 +6.21434115e-02 +2.83193827e-01 -4.34196889e-02 -9.91927981e-02 -1.27230957e-01 +3.12170208e-01 +1.27807572e-01 -1.43650605e-03 +2.16644943e-01 -7.03055933e-02 -5.90835251e-02 -2.09442630e-01 -9.43480805e-02 -3.20667704e-03 +2.38587573e-01 -8.55480805e-02 +7.39270598e-02 +1.01064742e-01 +1.59807935e-01 +7.71838948e-02 -1.31874993e-01 +4.49058674e-02 +1.00124432e-02 +4.00065601e-01 +1.75663888e-01 -2.08475992e-01 -1.52656332e-01 -6.63402304e-02 -5.47700226e-02 +6.78713322e-02 -7.76225701e-03 -1.89404786e-01 +7.40957260e-02 -1.19318411e-01 +9.34715196e-02 +9.31096300e-02 -1.74244881e-01 -7.48379529e-02 -6.06474727e-02 -2.00029895e-01 +3.12820256e-01 +8.94376189e-02 +1.06116131e-01 +3.36322212e-03 +4.80270267e-01 +1.06628332e-02 +8.37207586e-02 +8.45954344e-02 +3.61104682e-02 +8.98308083e-02 +9.30741280e-02 -1.34311855e-01 +2.43656486e-02 +2.81738769e-03 +1.59809645e-02 -9.57661867e-02 -1.22732185e-01 +6.35032281e-02 +1.00882627e-01 +6.89000428e-01 -1.51330441e-01 +1.20865718e-01 -3.85701545e-02 +1.47980675e-01 -1.61291793e-01 +2.27263500e-03 -2.74547748e-02 -1.85005479e-02 +7.26668090e-02 -6.40999451e-02 +6.92030266e-02 +1.11492388e-01 -9.08094794e-02 +2.75964946e-01 +1.51346758e-01 -1.92164376e-01 -9.60047096e-02 +6.09758645e-02 -4.38776761e-02 +3.72966290e-01 -5.24370670e-02 -1.97354570e-01 -3.97350118e-02 -7.98566788e-02 -6.02037609e-02 +1.58446357e-01 +9.66881439e-02 -5.65160923e-02 +2.84168534e-02 -6.89162090e-02 +1.45136043e-01 +1.97533160e-01 -2.63910331e-02 -4.88668494e-02 -1.15325332e-01 -1.78413302e-01 -4.93597379e-03 +3.55055369e-02 +1.10427357e-01 -1.14110097e-01 +8.59112144e-02 -8.62377957e-02 +2.99782790e-02 +2.32652932e-01 -1.08759813e-01 +2.51740161e-02 -1.86737195e-01 -1.90827213e-02 -6.84389994e-02 +2.14892384e-02 +1.39561638e-01 -3.69572610e-01 -6.45215064e-02 -2.93498952e-02 -2.58619875e-01 -5.63703924e-02 +1.22367434e-01 +1.57270566e-01 +1.71197820e-02 +1.00962415e-01 +8.30676407e-03 -1.77034318e-01 +1.24394238e-01 -1.18489951e-01 -1.80819184e-01 -2.03318864e-01 -2.30627835e-01 +4.54245863e-04 -2.08043084e-01 -1.96863696e-01 -1.35813579e-01 +1.44466415e-01 +2.15169434e-02 -1.46865636e-01 +4.02425975e-02 -9.11454699e-05 -2.79546194e-02 -2.80834794e-01 -5.74378669e-03 -2.24506602e-01 -1.13410637e-01 -9.23833773e-02 +2.63082534e-02 +7.72276102e-03 -2.08029017e-01 -3.13473605e-02 -1.26949966e-01 -1.18435763e-01 -1.97897881e-01 -1.58664852e-01 -1.27917960e-01 -2.52651453e-01 -1.30016685e-01 -1.35916602e-02 -1.93263128e-01 +5.77568673e-02 +8.00228789e-02 -1.41397685e-01 +6.55267984e-02 +1.36582367e-02 -1.40274659e-01 +1.33703966e-02 -8.56020600e-02 +1.24962889e-01 -5.44102564e-02 +1.89589756e-03 -7.44386613e-02 +1.83314774e-02 -5.02816327e-02 -4.34523337e-02 +3.46809477e-02 -1.76775753e-01 -2.31312543e-01 +6.25581145e-02 +5.73683269e-02 -9.74898785e-03 -1.44247055e-01 +1.69210225e-01 +2.91030761e-02 -6.82076961e-02 +1.13941647e-01 -1.82545841e-01 +1.43217528e-02 -1.15498893e-01 +2.62542397e-01 +5.03530018e-02 +9.25069861e-03 -5.05991690e-02 -1.25443906e-01 +1.56655401e-01 -1.33737966e-01 -1.94624916e-01 +1.50080219e-01 -1.60105806e-02 +5.75624872e-03 +6.70649558e-02 -6.33935723e-03 -1.91646833e-02 +3.01038623e-02 +2.50946842e-02 +2.71480381e-02 +3.34615819e-02 -1.10987127e-01 -6.83471859e-02 -1.56424403e-01 -9.25762355e-02 +1.46585315e-01 +5.49568906e-02 -2.65542567e-02 -1.28555670e-01 -1.09813139e-01 -1.99994192e-01 -1.70255210e-02 -2.56618056e-02 -9.25980955e-02 -5.74464984e-02 -4.30904143e-02 -1.06721923e-01 +1.20607488e-01 -4.08173025e-01 -2.41929479e-02 -2.61994656e-02 -1.40603259e-01 +1.27047291e-02 +8.46841186e-02 +6.45827353e-02 -5.15446886e-02 -1.03546694e-01 -5.17568849e-02 -1.73975036e-01 +2.39641517e-01 -6.90543950e-02 -5.12059182e-02 -8.56146775e-03 +4.70067784e-02 -8.07517841e-02 +4.72152345e-02 +1.04317740e-01 +3.17127295e-02 +2.75230795e-01 +3.81753445e-02 -3.01899090e-02 +2.77406685e-02 -3.19968984e-02 +8.47146958e-02 -1.20345987e-01 -1.05125032e-01 -2.43304740e-03 -9.77554843e-02 +1.52150437e-03 -2.38146186e-02 -7.03318641e-02 -1.41636938e-01 +4.79066484e-02 +3.57018530e-01 -1.13035843e-01 +4.45409268e-02 +1.98133320e-01 +1.15139894e-01 +7.87934735e-02 -8.15714747e-02 -3.44574451e-01 +1.91786774e-02 +8.99751037e-02 -7.52191693e-02 -1.28078669e-01 -8.39959979e-02 -8.82952586e-02 +1.09747522e-01 +2.10487723e-01 -4.64316420e-02 -1.46097958e-01 +2.41958294e-02 +1.16565473e-01 -1.23351872e-01 +1.21902734e-01 -1.84028015e-01 +7.85293728e-02 -8.47427770e-02 -6.23740852e-02 +5.52075684e-01 -2.07498461e-01 +8.56842771e-02 +1.23262517e-01 +1.21578455e-01 +9.66383889e-03 -1.43952474e-01 +1.20813735e-01 -1.04683854e-01 -1.17235959e-01 +6.01478107e-03 -6.24475777e-02 +1.48451105e-01 +4.48020436e-02 -4.53865230e-02 -1.13426305e-01 -1.57506332e-01 -8.75465199e-02 -1.43123820e-01 +1.26928315e-01 -2.08344907e-02 -5.20364307e-02 -1.08380087e-01 +1.45704029e-02 -7.55453408e-02 +9.45374221e-02 +7.14414269e-02 -2.41635680e-01 +1.52645648e-01 +1.76324487e-01 +1.16928898e-01 -1.12911656e-01 -5.28514199e-02 -4.51313220e-02 +2.28023212e-02 -1.09716272e-02 -9.53757912e-02 +5.92447281e-01 +1.02654789e-02 -2.78112918e-01 -7.82011151e-02 +3.00754048e-02 +1.02962777e-01 -1.73128337e-01 +1.20682426e-01 +1.35184988e-01 +5.76060973e-02 +8.99228361e-03 +3.89976427e-02 +8.01341794e-03 -2.72060316e-02 +4.37549409e-03 +2.07939848e-01 +1.19682811e-01 +4.72716242e-02 -1.03316717e-01 -1.20908404e-02 -1.34006634e-01 +1.55214071e-01 -4.08209488e-02 -6.90377429e-02 +1.05984788e-02 -1.12502333e-02 +3.55666541e-02 -4.93929349e-02 +2.38523632e-02 +1.67187959e-01 -1.32757708e-01 +3.52277756e-02 +8.54260623e-02 +2.31062651e-01 +1.28298089e-01 +1.42935395e-01 +1.36101201e-01 -1.12087019e-01 +1.33272693e-01 +5.44921570e-02 +1.94398277e-02 +2.35698298e-01 +2.48598028e-02 +8.18426162e-02 +2.76787560e-02 -1.75423250e-01 +5.98928370e-02 +1.98320180e-01 -1.46516606e-01 +3.41460146e-02 +4.27158356e-01 -1.99565142e-02 +3.17816660e-02 -6.22203171e-01 -5.71934521e-01 -3.93482685e-01 +1.46202132e-01 -7.88191855e-02 -1.84917003e-01 +2.71663927e-02 -3.33974600e-01 +2.02315152e-01 -1.77666321e-01 -3.86692444e-03 +7.91241322e-03 +4.69102077e-02 -4.03022841e-02 -2.79844493e-01 -3.33383024e-01 -3.67682636e-01 +1.34652667e-02 -4.44818527e-01 -5.86665571e-01 -1.53474793e-01 -2.96548814e-01 -1.57092258e-01 -1.76905289e-01 -4.04867157e-02 -1.63209051e-01 -8.15467536e-02 -2.66871333e-01 +2.25840792e-01 +2.16561303e-01 +1.76821694e-01 +2.61190563e-01 +2.84874469e-01 -1.09793797e-01 -3.00723284e-01 -1.66377753e-01 +3.30290169e-01 -3.64087634e-02 +8.70343968e-02 +8.05691332e-02 -6.50685132e-01 -3.45406197e-02 +1.04955196e-01 -1.04388967e-01 -3.53506982e-01 +3.31600942e-02 +3.81518394e-01 -1.82458356e-01 -4.16352570e-01 -3.00899625e-01 +3.82318646e-02 -1.03316337e-01 -3.98432970e-01 -3.36262137e-02 +7.59301633e-02 -2.18925864e-01 -3.29199225e-01 -2.35340968e-01 -8.81329328e-02 +1.08565785e-01 -3.47043276e-01 -1.82835132e-01 -1.48981167e-02 -5.16311266e-02 -2.40652069e-01 -1.78921163e-01 +4.13666457e-01 -1.33367658e-01 +6.65013939e-02 -3.66719782e-01 +2.11365461e-01 +2.05769673e-01 +6.52079806e-02 -7.35289231e-02 -3.40776183e-02 +2.86388278e-01 +3.21058095e-01 +2.56917685e-01 +1.64275780e-01 -5.95604964e-02 -1.34087935e-01 -5.41965246e-01 -1.41110435e-01 -8.18614066e-02 -3.35108370e-01 -2.29647979e-01 -4.52567264e-02 -1.37322098e-02 -7.29180127e-02 -4.78890330e-01 +1.55447740e-02 -7.46492296e-02 -2.47291639e-01 -2.91976959e-01 -1.83993340e-01 +8.87010917e-02 -2.25666165e-01 -1.93092883e-01 -1.48454696e-01 -1.76326975e-01 -2.36086115e-01 +6.30286857e-02 -7.25432187e-02 -4.34572041e-01 +1.31234005e-01 -2.46990532e-01 -3.41194242e-01 -7.54234493e-02 +2.80558746e-02 +4.31138426e-02 -3.09161842e-01 -1.79804355e-01 -2.60734141e-01 +1.34582132e-01 +3.60869728e-02 -4.43969637e-01 -1.93973839e-01 +8.06355923e-02 -1.33418784e-01 -3.59836876e-01 -3.22933733e-01 -5.51100850e-01 -9.35931876e-02 +2.77940840e-01 -1.62543833e-01 +1.83511395e-02 -8.02426189e-02 -1.26902133e-01 -3.05081662e-02 +1.37030661e-01 -5.16678207e-03 +4.50392179e-02 +1.29679129e-01 +5.52397259e-02 -3.55007462e-02 +6.59600645e-02 -1.31149199e-02 +8.42060745e-02 -1.32856250e-01 -2.59032585e-02 +1.40416799e-02 -2.70233862e-02 -1.88225865e-01 -5.49537428e-02 -9.20620561e-03 +1.41020298e-01 +1.26398236e-01 +7.48072714e-02 -6.03018366e-02 -2.66435798e-02 -2.08791375e-01 +1.32466167e-01 +4.39533964e-02 +1.24974757e-01 -9.90390033e-03 +1.15544945e-01 +1.03689127e-01 +5.26126981e-01 -3.91386412e-02 +1.60260443e-02 +7.06858262e-02 +5.68440296e-02 -2.07882654e-02 +2.72229966e-02 +9.81933624e-02 +1.28175551e-02 +3.31845492e-01 +8.18987116e-02 -1.05286859e-01 +3.10280826e-02 +3.02852262e-02 -7.89024308e-03 +8.24470222e-02 -2.98031438e-02 +1.49014667e-01 +2.36407705e-02 +5.85628524e-02 -8.35089460e-02 +1.28082514e-01 +1.07406691e-01 +6.30897731e-02 -1.36467785e-01 +3.11951190e-01 +1.99465856e-01 -1.04959264e-01 +8.02916884e-02 -9.34968293e-02 -1.92232028e-01 -1.41624436e-01 -3.38371694e-02 +8.78001004e-02 -1.07981861e-01 +1.54970437e-01 +3.13064083e-02 +2.22907066e-02 +3.81750613e-02 -1.23537593e-01 +7.23057091e-02 -1.04141496e-01 -2.58016717e-02 -1.05012245e-01 -6.65134564e-02 +1.27563104e-01 +1.82525218e-01 -6.02056719e-02 +2.93311238e-01 -8.83119330e-02 -3.57674733e-02 +7.57793635e-02 +2.89313328e-02 -4.52117398e-02 -1.77349430e-02 +2.51583420e-02 -2.17305440e-02 -1.27388045e-01 -4.57757860e-02 -1.37962133e-01 +1.02536365e-01 +6.71867132e-02 +3.69727314e-02 +1.01341315e-01 +7.68537149e-02 +1.96051486e-02 +9.93984863e-02 +3.67599130e-02 -3.28248888e-02 -2.96183825e-02 +9.85344723e-02 +1.92091558e-02 -1.02373213e-01 -3.14016221e-03 -4.39699367e-03 +3.16602923e-02 -1.04010113e-01 -3.96691971e-02 -3.84196267e-02 +1.00255162e-01 -1.39631899e-02 +8.19610283e-02 -6.30350187e-02 +6.66472465e-02 +1.00452363e-01 +7.49718919e-02 -1.46691697e-02 +2.09722444e-01 -2.70729177e-02 -1.01175889e-01 -1.03403174e-03 +9.91805270e-02 -8.11672509e-02 +6.85590580e-02 +9.08788443e-02 -9.85259116e-02 -8.13759491e-03 -1.10747054e-01 -9.70187336e-02 -1.06432408e-01 +6.48836121e-02 -1.20852716e-01 +1.42930403e-01 +1.19179167e-01 -2.67071929e-02 +2.44946346e-01 -2.10714251e-01 +1.76208548e-03 +1.29319429e-01 -8.22119266e-02 -7.98382610e-02 -7.85772726e-02 -1.40358225e-01 -2.61574853e-02 -1.52474806e-01 +1.98946558e-02 +1.56829834e-01 -1.34148085e-02 -3.64134967e-01 +1.22947760e-01 +2.87203044e-02 +8.74660090e-02 +1.09388314e-01 +3.94913293e-02 -1.53757408e-01 +9.24426988e-02 +1.44215330e-01 +2.59442925e-01 -1.40389651e-01 -1.55257359e-01 +1.91567391e-02 -1.99502066e-01 +5.16393930e-02 +4.80967090e-02 -1.30159646e-01 -3.58985551e-02 -4.04504150e-01 +2.77844936e-01 +1.68667644e-01 -1.46809667e-01 -2.40324792e-02 -1.15507305e-01 +3.71104479e-02 +1.40327156e-01 +8.36304352e-02 -4.29437198e-02 -1.96635108e-02 -7.82633051e-02 -1.28339469e-01 -1.06276572e-01 +2.16326714e-01 -5.11314981e-02 -1.59383580e-01 +3.24530602e-01 +2.80810773e-01 -3.35481502e-02 -1.28416508e-01 -1.74794614e-01 +1.10795684e-01 -4.84650172e-02 +5.69884889e-02 -6.65221512e-02 -7.32387230e-02 -2.68165581e-02 -1.20557219e-01 +6.41015396e-02 -1.31878540e-01 -1.81955211e-02 +3.02470140e-02 +5.41886054e-02 -9.57093537e-02 -1.40488576e-02 -1.06721990e-01 -2.84075588e-02 -3.12820762e-01 -4.66062613e-02 +1.60537630e-01 +2.83274893e-02 +1.13348715e-01 -1.99187845e-01 -5.89608736e-02 +1.39050454e-01 -2.17808224e-02 +4.10779230e-02 -3.68282981e-02 -1.06063746e-01 -8.20455253e-02 +4.19941023e-02 +9.87141803e-02 -3.22861999e-01 -2.33634382e-01 +1.08687446e-01 -4.01593698e-03 -4.42528911e-02 -1.27552226e-01 -1.09915532e-01 -1.11625507e-01 +1.44607564e-02 -8.84503350e-02 