#Parameter# /UniLSTMSeqTransducer-23be85d5/_0 {256,300} 1228801 ZERO_GRAD
+1.42237902e-01 +6.31458983e-02 -9.82045308e-02 +9.66960117e-02 +3.74250449e-02 +1.11220784e-01 -1.33861378e-02 -6.42373264e-02 +1.06128186e-01 -9.13766772e-02 +4.42937240e-02 +4.06332999e-01 +3.80287059e-02 +9.26050916e-02 +5.80477938e-02 -2.51531117e-02 -2.63276827e-02 -5.58990203e-02 -4.40108515e-02 +5.60631827e-02 +1.09575707e-02 +8.89731348e-02 +2.70907462e-01 +1.62147488e-02 +1.84007958e-02 +2.31470093e-01 -1.56133011e-01 +3.80324498e-02 -3.92144732e-02 +2.71913186e-02 +8.57303217e-02 +1.75756052e-01 +9.94666591e-02 +2.41332036e-03 -1.05222486e-01 -1.55072317e-01 +8.59525893e-03 +1.35467038e-01 +1.88823000e-01 +6.19123913e-02 +1.12589374e-01 +8.91338587e-02 -1.23395957e-02 -2.25927494e-03 +1.19837195e-01 -1.37142375e-01 +3.90006565e-02 +1.45586729e-01 +4.62107882e-02 -3.24920714e-02 +1.22174561e-01 -1.29423395e-01 -4.99213859e-02 +7.88643882e-02 -9.08777863e-02 -3.29542458e-02 +1.05395377e-01 +1.32245541e-01 +1.89137980e-01 +8.85021240e-02 +2.00467557e-03 +1.90947428e-01 +2.90053394e-02 +1.36668831e-01 +1.16153196e-01 +1.79120213e-01 -2.65490380e-03 +8.75316858e-02 +1.58053741e-01 +3.65038440e-02 +2.84428418e-01 +2.20932662e-01 +4.88185734e-02 +5.72907589e-02 +1.95693240e-01 +6.15203559e-01 +2.85338342e-01 +4.09363031e-01 +1.99473247e-01 -9.65890437e-02 +8.31479877e-02 +5.71902171e-02 +1.31706417e-01 -9.48962010e-03 +2.05637828e-01 +3.34859014e-01 +4.16914165e-01 +2.94465572e-02 -3.29471305e-02 +2.64680147e-01 -1.22125186e-01 +2.02273563e-01 +2.31164604e-01 -4.10278663e-02 -8.08977522e-03 +3.69724959e-01 -5.53061021e-03 +1.69628430e-02 -1.26696080e-02 +2.23740622e-01 +3.99157941e-01 +2.51020137e-02 +3.83202314e-01 +2.82037228e-01 +2.25901753e-01 +5.96572608e-02 +3.34538817e-01 -8.24578200e-03 +1.36033431e-01 +1.61035568e-01 +3.29990312e-02 +1.61988780e-01 -2.11522430e-02 -2.45430190e-02 +2.88117155e-02 +4.64420430e-02 -8.72342195e-03 +1.99004680e-01 -4.71215658e-02 +1.87704802e-01 +1.84622332e-01 -1.83081012e-02 +4.79721129e-02 +2.35827982e-01 +1.67785779e-01 +1.98809654e-01 +2.93478012e-01 -6.89459732e-03 +1.54687567e-02 +3.90462019e-02 +1.94159877e-02 +1.25656366e-01 +5.73248751e-02 +5.53595182e-03 +2.69383211e-02 +1.08495519e-01 +6.21805824e-02 +8.07544068e-02 +1.09568357e-01 +2.75608987e-01 +1.92903399e-01 +2.25279778e-01 -5.90893179e-02 -1.20278113e-01 +2.05729455e-02 +5.41410893e-02 -5.21994457e-02 +5.90055063e-02 +2.80519575e-01 +1.69452317e-02 +1.88390493e-01 +1.61177248e-01 +1.87292978e-01 +4.60158080e-01 -1.02151252e-01 +2.14201003e-01 -1.61582381e-01 +9.09372643e-02 -1.01653129e-01 +1.55503139e-01 +3.37823302e-01 +2.04420439e-03 -6.77965954e-02 +4.51985449e-02 +3.78519654e-01 +2.11002707e-01 +1.83815062e-01 +1.85509145e-01 +1.15801454e-01 +5.67077175e-02 +2.05303296e-01 +2.58038193e-01 +1.32240385e-01 +1.83592200e-01 +4.16884944e-02 +2.43399531e-01 +7.10433647e-02 -4.17371094e-02 +8.99857730e-02 -1.63947105e-01 +1.23262212e-01 +1.32143840e-01 -3.04689556e-02 +1.45405158e-01 +1.58643618e-01 +5.92136793e-02 +1.14665642e-01 +2.04634652e-01 +9.32194144e-02 +7.84601569e-02 +5.75252697e-02 +4.79778685e-02 +1.39557630e-01 -6.82732090e-02 +7.71253109e-02 -1.50296897e-01 -8.94777849e-02 +3.27000052e-01 -1.96474999e-01 +8.11564028e-02 -8.14129040e-02 +1.00700296e-01 +2.41560815e-03 +5.04652485e-02 -2.89637387e-01 -2.21225381e-01 -2.53903605e-02 -7.83486813e-02 -8.79155919e-02 -1.89553276e-02 +3.60348597e-02 +1.30289748e-01 -1.24600627e-01 +1.37124926e-01 +1.40750855e-01 +1.86390370e-01 +1.47211626e-02 -3.50902677e-02 +1.13438174e-01 -2.01417729e-01 +2.73107499e-01 +6.52140379e-02 +8.47182274e-02 +8.00915509e-02 +3.87706095e-03 +6.64062351e-02 -2.86308844e-02 -1.72047123e-01 +1.77455679e-01 -1.92150965e-01 -1.32593930e-01 +6.06051758e-02 +1.58510119e-01 +8.40863660e-02 +5.57327688e-01 +3.42825763e-02 +4.63170223e-02 +8.71218145e-02 +1.22697927e-01 -1.11925989e-01 +4.96134311e-02 -1.89340055e-01 +8.63736272e-02 +6.32787198e-02 +5.08993194e-02 -2.44592145e-01 -9.99707729e-03 +1.55391181e-02 -1.93906873e-02 +4.31918800e-02 +1.21658564e-01 -9.46754217e-02 -1.10495992e-01 -5.94448559e-02 +1.18294716e-01 +2.88156588e-02 -1.38373926e-01 -3.76419246e-01 -1.00906808e-02 -8.36517140e-02 -4.02193874e-01 -4.79279995e-01 -1.61212936e-01 -8.21400955e-02 +5.79815218e-03 -3.79334986e-02 +3.76690067e-02 +3.40928793e-01 +5.17394096e-02 -1.23889558e-02 -2.95444667e-01 -1.17469877e-01 -1.41011342e-01 -1.99029893e-01 -2.33341321e-01 -6.65769875e-02 +1.70099899e-01 -8.32721740e-02 -5.75136058e-02 -3.50122780e-01 -1.11502983e-01 -2.48248294e-01 -1.10666798e-02 +1.34258568e-01 -3.91603470e-01 +1.13215692e-01 +1.00576229e-01 +1.44455880e-02 -5.82154058e-02 -1.28207967e-01 -6.72754347e-02 -2.64673412e-01 -9.61595029e-02 -4.99134004e-01 -8.37177783e-02 -2.80200243e-01 -1.70592844e-01 +2.14708429e-02 +4.39912453e-02 +2.68137734e-02 -3.36577237e-01 -2.35708326e-01 -7.90506750e-02 -2.05060109e-01 -8.86707157e-02 -2.36289412e-01 -3.47382396e-01 -1.75326854e-01 -5.84887564e-02 -2.24930227e-01 -2.14555591e-01 -3.56231540e-01 -3.02163940e-02 -1.06221028e-01 +7.60938004e-02 -5.76280467e-02 -8.59537721e-02 -2.07371116e-02 -1.18658051e-01 -2.41655577e-02 +1.14173785e-01 +2.84082219e-02 +2.58211000e-03 -2.12939885e-02 +2.63863821e-02 +8.71935412e-02 -2.45130569e-01 +1.27622366e-01 +1.42503753e-01 -7.34832287e-02 -7.72083104e-02 +4.15781379e-01 +8.86761472e-02 -5.20832501e-02 +8.29728022e-02 -1.30868763e-01 +4.23389114e-02 +4.70173582e-02 +8.54110122e-02 -6.24875352e-02 -1.01468675e-01 -5.63021237e-03 -1.81170814e-02 -2.35766750e-02 +8.83246064e-02 +6.76142983e-03 +1.78295851e-01 -1.33250087e-01 +1.32121250e-01 +3.41432333e-01 +1.41408682e-01 +1.08359896e-01 +1.12097405e-01 +1.52579919e-01 -8.82813334e-02 -3.44221294e-02 -1.20885737e-01 -1.12848524e-02 +1.78964734e-01 -1.03426673e-01 -1.82844579e-01 -1.22858703e-01 +2.51997381e-01 +1.21142603e-01 -3.08835916e-02 +1.61512441e-03 +3.75540741e-03 -1.95904180e-01 -2.33708858e-01 +6.52464703e-02 -3.22444253e-02 -1.80560067e-01 -8.81910846e-02 -1.73735693e-01 +6.57932386e-02 +3.27769727e-01 -9.37528834e-02 +2.13865750e-02 +1.44507378e-01 -9.78155062e-02 -7.59593472e-02 +2.21767626e-03 -1.75468698e-01 +1.15817614e-01 -8.78589302e-02 -1.54262885e-01 -2.92611010e-02 +2.75533386e-02 -8.63519385e-02 -1.42797187e-01 -1.05613001e-01 -8.63605961e-02 -7.30006257e-04 +7.19870701e-02 -2.35831141e-01 +8.37445706e-02 +1.01769611e-01 -5.11340871e-02 -5.13571016e-02 -1.49040163e-01 -8.03164616e-02 +2.91821524e-03 -2.24948749e-01 +1.82128549e-02 +6.64447322e-02 -1.28604844e-01 -1.49524286e-01 -8.81570280e-02 -1.01646651e-02 -2.47295368e-02 +3.01341712e-02 +4.70460467e-02 -8.39399323e-02 +5.55952378e-02 -8.16447437e-02 -1.45682454e-01 -1.05081774e-01 -1.89360395e-01 -1.66082248e-01 -6.45625591e-02 -1.04479432e-01 -7.64102489e-02 -2.42841974e-01 -1.66001260e-01 -7.64501840e-02 -1.52029753e-01 +3.49329002e-02 -1.28436834e-01 -5.11607081e-02 -2.70215511e-01 -2.17822082e-02 -1.65635183e-01 -8.07226822e-02 -2.15017572e-01 -3.66128325e-01 -3.31622392e-01 -2.49172181e-01 -3.67693752e-01 -1.97650969e-01 +2.21258625e-02 -2.07961589e-01 -1.99882269e-01 -2.04499125e-01 -1.56199992e-01 -1.69499218e-01 -1.29484832e-01 -4.07829672e-01 -2.38933384e-01 -9.48620811e-02 +2.64903545e-01 +1.00028224e-01 +1.45357577e-02 +9.55566913e-02 -2.12700620e-01 -1.97290370e-04 +1.23043373e-01 +1.78533539e-01 -1.00885369e-01 +9.55595449e-02 +2.39016458e-01 +5.92617840e-02 -1.20238245e-01 +3.03032994e-01 +1.00632906e-01 -1.33573502e-01 -2.51728781e-02 -6.32423908e-02 +1.05125055e-01 -2.12370202e-01 +8.10716078e-02 +1.84745882e-02 -6.15900606e-02 +8.29803012e-03 -2.07934707e-01 +1.16563980e-02 +9.66686606e-02 -7.97619373e-02 -1.57125100e-01 +1.31765097e-01 -6.77917302e-02 +9.17056277e-02 +2.87020300e-02 -6.86102435e-02 +1.93667561e-01 +8.89546704e-03 +2.29360774e-01 +2.20722686e-02 -1.02091603e-01 +1.07164554e-01 -1.01809211e-01 +2.32536659e-01 -7.24735409e-02 -1.37990609e-01 -2.61289388e-01 +1.05548605e-01 +5.86390346e-02 +2.96612661e-02 -1.92029532e-02 -6.16907850e-02 +1.07582986e-01 +9.41892117e-02 +8.07352290e-02 +6.21222742e-02 -2.26284042e-01 -4.98067886e-02 +4.21144674e-03 +6.94908872e-02 -1.67260602e-01 -1.94819886e-02 +1.10162258e-01 +3.63983475e-02 -8.69545490e-02 -8.40606689e-02 +1.25789866e-01 -9.19829234e-02 +8.12106431e-02 +1.56967357e-01 -1.02855926e-02 -1.03598505e-01 +1.46776840e-01 +1.57997906e-01 +6.68973336e-03 +1.77736357e-02 +5.61622344e-02 -2.87058484e-02 -3.94549109e-02 +1.77437127e-01 -1.71666984e-02 +2.17727333e-01 -2.10080504e-01 -1.35625064e-01 -1.42056316e-01 +3.39189805e-02 -2.30963547e-02 -1.60322294e-01 -1.66745290e-01 -3.10525931e-02 -1.52012125e-01 -3.17423604e-03 +2.46290769e-02 +1.56574577e-01 -1.06748164e-01 -8.65785703e-02 +9.64099839e-02 +1.01651335e-02 -2.40825117e-02 -1.40917554e-01 +1.82677209e-02 -4.75788489e-02 -1.43355429e-01 +3.61042507e-02 -9.03844461e-02 +6.80483878e-02 +5.72075211e-02 +1.12280816e-01 +1.92766543e-02 -8.48946869e-02 -1.02955580e-01 +1.73677549e-01 -5.38669229e-02 -4.28121537e-03 +2.15985831e-02 +1.63567930e-01 +1.04296744e-01 +1.32019639e-01 -3.42256986e-02 -7.97710344e-02 -1.12133332e-01 -9.35811102e-02 +1.72869731e-02 -5.43448031e-02 +3.20304483e-02 -1.33567914e-01 +6.16548546e-02 +1.34308990e-02 +3.28866467e-02 +1.64012790e-01 +3.27270657e-01 +2.04626277e-01 +1.19985022e-01 +1.53924942e-01 -2.86985431e-02 +5.17095089e-01 +3.03659141e-01 +5.92138886e-01 +1.25805676e-01 +3.89243275e-01 +2.77550459e-01 +2.58879215e-01 +4.74565595e-01 +2.34187748e-02 +1.02710314e-01 +2.54072636e-01 +2.87746817e-01 -6.01929054e-02 +1.20231867e-01 +2.86595970e-01 +1.18102230e-01 -2.63172649e-02 +5.23134470e-02 +2.35268921e-01 +1.86255664e-01 +7.17162788e-02 +8.10096115e-02 +4.11494702e-01 +3.81707937e-01 +7.29284510e-02 +3.90974939e-01 +2.54486054e-01 +6.54457584e-02 +2.18001187e-01 +8.93044397e-02 +2.27452993e-01 +1.95202783e-01 -5.44745550e-02 +3.86767322e-03 +2.35564765e-02 +4.71380763e-02 +1.18782349e-01 +2.82673836e-01 +1.32431403e-01 +2.59997219e-01 +2.27052718e-01 +1.29176274e-01 +8.95790756e-02 +1.32705227e-01 +2.42920384e-01 +4.37939763e-02 +2.27737054e-01 +3.95550169e-02 -2.53948122e-02 -2.39966009e-02 +2.77219653e-01 +2.73511052e-01 +5.69434874e-02 +3.35181862e-01 +1.04045011e-01 +2.01783404e-01 +1.96944937e-01 +2.95796305e-01 +7.81091675e-02 +2.58154422e-01 +1.57625660e-01 +1.92237154e-01 +1.89343002e-02 +2.29887724e-01 +4.99851368e-02 +8.31292868e-02 +3.26481909e-01 -1.78225916e-02 +9.48852599e-02 +3.97594273e-01 +2.12767884e-01 +2.38362819e-01 -3.74653079e-02 -4.29302156e-02 +2.66848862e-01 +2.95937777e-01 +7.74437636e-02 +1.69546902e-01 +5.10974884e-01 +8.29762667e-02 +2.33308859e-02 +3.20736498e-01 +1.57428831e-01 +4.36016656e-02 +2.36314237e-01 +7.51509666e-02 +2.46928304e-01 +1.72431529e-01 +8.97707120e-02 +2.80759841e-01 +2.02291474e-01 +2.45210938e-02 +6.96628690e-02 +2.10520905e-03 +1.17553897e-01 +2.84819365e-01 +2.53653347e-01 +1.15616404e-01 +2.08065718e-01 +1.49051040e-01 +4.83652204e-01 +1.49905309e-01 +1.05232969e-01 +2.01209202e-01 +3.17255884e-01 +1.48992762e-01 +1.45863578e-01 +2.26240888e-01 +2.22398713e-01 +1.31887749e-01 +2.45896429e-02 +1.64510041e-01 +2.09258884e-01 +1.08233303e-01 +2.24702239e-01 +1.98684618e-01 +1.54891238e-01 +3.17475677e-01 +3.31593975e-02 +8.87125656e-02 +1.62217245e-01 +3.24412525e-01 +9.51921940e-03 -1.03165589e-01 +1.31425977e-01 +9.21055600e-02 -5.77727333e-02 +4.39113267e-02 -3.78476121e-02 +4.23262827e-03 +1.29750565e-01 +3.57976952e-03 -6.06551766e-02 +1.06506757e-01 -1.82490319e-01 -2.86791354e-01 +2.38544494e-01 -1.68162733e-01 +9.99518391e-03 +3.97110097e-02 +1.50287688e-01 -9.01882946e-02 +1.29237413e-01 -5.56900129e-02 -1.33535638e-01 -1.64428458e-01 +1.22691952e-01 -1.39181927e-01 +1.15632385e-01 +4.27777432e-02 +2.96521723e-01 -1.17311954e-01 +1.57247901e-01 +1.23941824e-02 +1.03104308e-01 +1.20400339e-01 +5.47456443e-02 -3.61829344e-03 +2.78913587e-01 +1.84224516e-01 +1.71918750e-01 +3.43756229e-02 -1.18774273e-01 +1.52599946e-01 -1.75916944e-02 -4.12980430e-02 -8.61262903e-02 +4.70813364e-01 -1.00174956e-01 -1.43884122e-01 +1.29865080e-01 -5.16880080e-02 +1.37591168e-01 -1.03655979e-02 +5.97064989e-03 +1.54159576e-01 +4.75007221e-02 +1.10161036e-01 -5.79570457e-02 -7.63076320e-02 +1.71530545e-02 -4.43645678e-02 +1.01197124e-01 -7.69537464e-02 +7.73421153e-02 +8.75388309e-02 -2.74425417e-01 +3.37191105e-01 -9.50424597e-02 -2.20428541e-01 -1.04097940e-01 -3.17853503e-02 +1.14307925e-01 -2.51841873e-01 -2.02991694e-01 -8.25174823e-02 -1.86588481e-01 -3.59127611e-01 -8.22266564e-02 -3.45018283e-02 -1.98135212e-01 -1.71035662e-01 -1.39754415e-01 +3.03359419e-01 -4.85538021e-02 -4.02686037e-02 -1.31878883e-01 -2.76520729e-01 -1.97018176e-01 +5.31479083e-02 -9.24068838e-02 -1.57763824e-01 -2.42325068e-02 -1.96705654e-01 +4.06913310e-01 +3.99041735e-02 -9.61826965e-02 -6.33311719e-02 -1.07151987e-02 -1.71787605e-01 -1.23090960e-01 -2.75693655e-01 +1.29598051e-01 -1.94010913e-01 -3.02145690e-01 -2.79598743e-01 -2.15545371e-01 -2.26665080e-01 +2.21286193e-01 -2.33166039e-01 -2.96241287e-02 +9.28452611e-02 -8.37795138e-02 -1.01550736e-01 -1.99209064e-01 -1.54439464e-01 -3.09255300e-03 +4.16771770e-02 -1.90554202e-01 -2.50632048e-01 -2.57073659e-02 +5.68486601e-02 -2.79770792e-01 -1.78774551e-01 -1.66044846e-01 -3.70167822e-01 -2.16348842e-01 -6.04282282e-02 -1.24298215e-01 -1.15945175e-01 -4.06512856e-01 -4.15623665e-01 -1.04019195e-01 -3.01275969e-01 -7.85617009e-02 -2.22827658e-01 -1.78489849e-01 -9.72256362e-02 -2.73531437e-01 -4.92265612e-01 -2.28977531e-01 -7.16275692e-01 -1.65471330e-01 -3.49052489e-01 -2.56999463e-01 -3.45495403e-01 -9.47281197e-02 -1.68667629e-01 -1.94023430e-01 -2.46970266e-01 -3.69553655e-01 -4.26464587e-01 -5.05803764e-01 -7.28695691e-02 -2.21790701e-01 -4.03586030e-01 -3.21801938e-02 -2.77114928e-01 -6.57711685e-01 -3.10903996e-01 -4.36458319e-01 -3.63796055e-01 -3.93120080e-01 -1.67741939e-01 -2.31954291e-01 -1.53531432e-01 -3.43494803e-01 -2.68589079e-01 -5.39911211e-01 -6.35862529e-01 -2.74780035e-01 -3.36299211e-01 -2.73568392e-01 -4.28596526e-01 -8.63155499e-02 -4.37069029e-01 -1.83574572e-01 -3.05419296e-01 -9.34461132e-02 -3.07931066e-01 -3.10062617e-01 -6.35801926e-02 -3.15915078e-01 -3.52862924e-01 -1.48938194e-01 -2.98363090e-01 -4.98181432e-01 -2.29707375e-01 -3.29422094e-02 -1.36550039e-01 -1.25921145e-01 -2.21295610e-01 -4.29688185e-01 -2.16707811e-01 -2.97466546e-01 -7.74276406e-02 -6.15886040e-02 -2.29185611e-01 -2.00691000e-01 -2.50305206e-01 -1.90979987e-01 -4.75424260e-01 -3.11397761e-01 -3.30104053e-01 -1.63439333e-01 -4.87648368e-01 -1.29909307e-01 -4.10603313e-03 -1.52642086e-01 -3.36031228e-01 -5.36820479e-02 +1.00945339e-01 -2.87405461e-01 +1.93340238e-03 -8.91233683e-02 -2.26072103e-01 -2.44492829e-01 +3.55912708e-02 -5.97844124e-01 -3.87612641e-01 -1.75713107e-01 -1.69767827e-01 -2.03878600e-02 -2.97217280e-01 -1.39450729e-01 -3.23627681e-01 -4.68807638e-01 -3.44156772e-01 -2.85258085e-01 -3.66424382e-01 -2.42774054e-01 -1.51082695e-01 -1.79570079e-01 -1.33750856e-01 -2.02315331e-01 -3.70340437e-01 +2.50758361e-02 -3.23040813e-01 +4.31247577e-02 -1.60117403e-01 -3.51282023e-02 -2.07103372e-01 -5.95496632e-02 -1.74799174e-01 -3.99279833e-01 -1.19672239e-01 -2.57417202e-01 -2.24010974e-01 -7.14810267e-02 -2.75424510e-01 -1.60862714e-01 -3.96039307e-01 -2.35840902e-01 -1.97118253e-01 +1.66255832e-02 -1.65991500e-01 -3.92602116e-01 -3.19223374e-01 +1.00373037e-01 -3.16415906e-01 +3.33729461e-02 +2.76019219e-02 +1.69999540e-01 +1.47825480e-01 -1.37422651e-01 +8.62322748e-02 +9.57723036e-02 +2.52514660e-01 -6.59683198e-02 -1.62453413e-01 -7.25174919e-02 +6.04890753e-03 +2.20702533e-02 -1.74094558e-01 -1.33951113e-01 -5.52749112e-02 +2.59054080e-02 +1.58551447e-02 -3.19404826e-02 -2.39777267e-02 -5.76095842e-02 -2.83549100e-01 +2.27427278e-02 -1.82264343e-01 -6.26289099e-02 -2.76752142e-03 +4.53105243e-03 -1.27954304e-01 -2.53064022e-03 -5.39572611e-02 +6.86309263e-02 +7.70017430e-02 -1.92756444e-01 -1.36927739e-01 -2.90803295e-02 -2.03731835e-01 -2.15446819e-02 +2.53593805e-03 +4.12037410e-02 +1.13728330e-01 +1.38917612e-02 -2.08998900e-02 +9.62625518e-02 -6.40632212e-02 +8.19107145e-02 -1.15904868e-01 +6.23416454e-02 -4.20570403e-01 -3.04577481e-02 +2.65151739e-01 -2.91157782e-01 -2.83210203e-02 -3.83684114e-02 +2.71289945e-01 +1.22287214e-01 -2.58295462e-02 -1.02718547e-01 +2.95427889e-01 +2.00567581e-02 -7.76570663e-02 -3.54485027e-02 -3.34028201e-03 -2.06329990e-02 -1.47598296e-01 -3.36511768e-02 -2.14106664e-01 -3.05724945e-02 -6.33202074e-03 -1.82379961e-01 -1.77213743e-01 -4.18636709e-01 -2.03916073e-01 +2.84620039e-02 -7.09492564e-02 -5.19418120e-02 -7.23138591e-03 +7.95272440e-02 -1.43952638e-01 -1.46922991e-01 +3.04070786e-02 +1.39885424e-02 -2.82011554e-03 +5.52773774e-02 -1.07847877e-01 -2.14633599e-01 -1.00958526e-01 -2.03193069e-01 +2.87175495e-02 -5.58955669e-02 +1.83752440e-02 +2.13286325e-01 +1.31115243e-01 -1.17954008e-01 -2.06689283e-01 -3.87709774e-02 -1.99651361e-01 -2.09137914e-03 -4.44518924e-02 -1.88548729e-01 +1.16592906e-01 -2.63291866e-01 +6.51546940e-02 -3.96877974e-02 -2.18736187e-01 +6.19368926e-02 -2.14732334e-01 -6.76523373e-02 +2.95345902e-01 +1.40904412e-01 -6.60159960e-02 -3.67478393e-02 +1.98365927e-01 -2.49272808e-01 -1.79351605e-02 -7.46693136e-03 -1.00590110e-01 -8.40876997e-02 +2.71729767e-01 -2.99439430e-01 -2.17107758e-01 -1.74260899e-01 -1.88387379e-01 -1.58993214e-01 -1.25611797e-01 -1.92833260e-01 -1.98643461e-01 +2.71886960e-02 -3.43462825e-01 -3.10259014e-01 -1.63691029e-01 -2.25470960e-02 -5.24958037e-03 -3.99335057e-01 -4.30944450e-02 -4.08572882e-01 -2.66150653e-01 -3.10679134e-02 -1.86954632e-01 -1.01282738e-01 -3.38302553e-01 -6.54671118e-02 +6.08428158e-02 -1.33997992e-01 -1.46886498e-01 -3.35602686e-02 -3.98893058e-02 -2.50818700e-01 -9.87406895e-02 -4.61441636e-01 +4.83635999e-03 -6.70721903e-02 -2.67941356e-01 -1.52461976e-01 +1.49688959e-01 -4.72155720e-01 -1.50279298e-01 -1.06999375e-01 -2.61391640e-01 -2.64421701e-01 -3.16110909e-01 -1.76846068e-02 -6.24661152e-06 -1.42035022e-01 -2.48071909e-01 -2.19277158e-01 -3.87379944e-01 +2.76495982e-02 -5.54991700e-02 +1.27469927e-01 -2.09832102e-01 -3.10721193e-02 -7.18764886e-02 -5.73867671e-02 -3.33286852e-01 -2.26768833e-02 +9.90507081e-02 -8.73770714e-02 -2.08949111e-02 -1.46701053e-01 -6.22594729e-02 +1.49677098e-02 -2.20042057e-02 -3.52771908e-01 -2.39432260e-01 -1.31969735e-01 -1.96312368e-01 -1.57475427e-01 -2.38175049e-01 -3.84405911e-01 -2.16977090e-01 +1.51134478e-02 -1.11042775e-01 -2.45070517e-01 -7.01071396e-02 -1.33039327e-02 -3.07071395e-02 -2.70080417e-01 -1.72592133e-01 -1.76507130e-01 -1.92751825e-01 -1.22787252e-01 -2.93918818e-01 -1.79331307e-03 -1.90099001e-01 +4.29831333e-02 +1.59621701e-01 -1.77005589e-01 +2.81555839e-02 -9.30392593e-02 +7.64536709e-02 -9.35051441e-02 +6.16294332e-02 -1.41253889e-01 +8.24579000e-02 -3.09624195e-01 -1.58871591e-01 -1.07687458e-01 +2.08514377e-01 +3.52842867e-01 -1.01345457e-01 +1.25689909e-01 -8.18078592e-02 -2.80345798e-01 -3.07781637e-01 -7.56505951e-02 -1.31812260e-01 -1.37679890e-01 -1.13553114e-01 +3.81213636e-03 +7.62716159e-02 +1.96365222e-01 -6.03143591e-03 -2.30821893e-01 -1.27143666e-01 -1.46180578e-02 +4.01520967e-01 +1.00894690e-01 -1.59464970e-01 +1.52785733e-01 +5.44370562e-02 -2.60335386e-01 +1.05314158e-01 -1.47934686e-02 +7.87565932e-02 +3.06613129e-02 +1.08437380e-02 -6.79989681e-02 -9.06124935e-02 -2.13475570e-01 +1.60415694e-01 -1.55373722e-01 -1.38487995e-01 -2.39771907e-03 -5.33634797e-02 +5.11672571e-02 +2.14841604e-01 +1.32711390e-02 +4.14316542e-02 +5.42865507e-02 -3.56763713e-02 +1.43299147e-01 +5.40867448e-03 -1.63189322e-01 +3.49911265e-02 +1.59069300e-01 +7.46888369e-02 +2.04226568e-01 +2.13878766e-01 -1.36441782e-01 -7.22793629e-03 -1.30519317e-03 +6.01568408e-02 -2.82311235e-02 -1.54272974e-01 +1.83932230e-01 +9.57687646e-02 -4.45607603e-02 -4.32174802e-02 +1.32436618e-01 +9.17204395e-02 +9.16175842e-02 +1.04316227e-01 -3.66093665e-01 -7.19487965e-02 +5.16054891e-02 -1.33704960e-01 +7.33888522e-02 -1.54734896e-02 +3.16992812e-02 +1.23500004e-01 -2.62143314e-01 +1.10080920e-01 +1.11684263e-01 -1.53782353e-01 -2.04436332e-01 +1.20719112e-01 -1.80259809e-01 -2.12214261e-01 +5.27404249e-02 -3.24973697e-03 -1.43946245e-01 -5.09753823e-02 -7.42629394e-02 +5.18572666e-02 -3.86476852e-02 -1.43276408e-01 -1.61173016e-01 +1.14550397e-01 -3.37596312e-02 -4.04904075e-02 +1.13500804e-01 -8.15713182e-02 -9.55610201e-02 +1.59390315e-01 +1.66730687e-01 -1.17163779e-02 +3.79265025e-02 -1.21331826e-01 -4.99285981e-02 +5.24579942e-01 +4.93133105e-02 +1.27752885e-01 +3.15809518e-01 -7.83772245e-02 +2.11601838e-01 +9.27883536e-02 +5.88947646e-02 -2.34443229e-02 +1.41250953e-01 +2.72758991e-01 +2.84624130e-01 +4.87750649e-01 +6.27250448e-02 +1.22377545e-01 +7.78760910e-02 +5.34701228e-01 -7.52730519e-02 +3.39441091e-01 -9.05336663e-02 +5.66137075e-01 +2.45877683e-01 +4.14490581e-01 +1.97692811e-01 +4.96183157e-01 -1.28885463e-01 +1.57903418e-01 +4.61290896e-01 +5.88268861e-02 -2.99628135e-02 +2.45402470e-01 +1.27603799e-01 -3.74539979e-02 +2.25664496e-01 +2.35388115e-01 +4.89206940e-01 +3.17889035e-01 +2.73152828e-01 +3.05509418e-01 +2.90407985e-01 +9.35956091e-02 +1.61515906e-01 -1.46420980e-02 +3.84232134e-01 +4.03150886e-01 +1.36103272e-01 -6.82330206e-02 +9.92219299e-02 +3.33816737e-01 +2.58323193e-01 -6.99078664e-02 +6.36397749e-02 +1.18906297e-01 +9.78223532e-02 +3.35538238e-01 +1.70757696e-01 +1.78947717e-01 -1.88988168e-02 +3.83910090e-01 +1.49641410e-01 -9.28373933e-02 -1.68166570e-02 -1.06310748e-01 +3.55876535e-02 -3.00161783e-02 -1.43711522e-01 -2.04437137e-01 +5.58439223e-03 -8.66007954e-02 -2.28660345e-01 -9.02484283e-02 -2.14904323e-01 -8.52028355e-02 -1.41866118e-01 +5.75439706e-02 -4.20378847e-03 -8.52262601e-02 +6.71075508e-02 +1.25132233e-01 -1.31451458e-01 +6.65748864e-02 -1.73110917e-01 -3.22153680e-02 -9.80143771e-02 +1.80532649e-01 +1.21315476e-02 -1.65870041e-01 -8.27421397e-02 +7.55203068e-02 -2.88975034e-02 -3.37698720e-02 -1.01873413e-01 -1.35662436e-01 +6.14238679e-02 -1.32343620e-01 -7.07780197e-02 -1.67626306e-01 -1.63237527e-02 -2.83024386e-02 -7.46576115e-02 +5.69123775e-02 +2.14844272e-01 +1.29368797e-01 +1.73726976e-02 +7.15884119e-02 +1.71373487e-02 -2.45254666e-01 +2.15498898e-02 -1.34244874e-01 -2.12618545e-01 -1.05872124e-01 +9.43457857e-02 -2.56718814e-01 -2.90132016e-01 +5.72525524e-02 -1.08034536e-01 +1.58203747e-02 -1.40122607e-01 -2.30775759e-01 -1.52380794e-01 -1.49283051e-01 -1.07746795e-01 +3.42656150e-02 -1.30897269e-01 -1.46189615e-01 +2.02104393e-02 -3.50614816e-01 +1.68239623e-01 -1.77235946e-01 -1.93428472e-02 +1.82848975e-01 -7.46094659e-02 -1.86566748e-02 -7.66153261e-02 +2.89236754e-02 -1.04373179e-01 -8.68195966e-02 -1.74770012e-01 -7.92965293e-02 +8.72981027e-02 +6.52808473e-02 +2.02641174e-01 -1.22037441e-01 +4.43986431e-02 -2.10348487e-01 -1.61055550e-02 -1.60686702e-01 -3.29158485e-01 +2.69203424e-01 -6.76669851e-02 -1.65605322e-01 +6.71595261e-02 +1.99288279e-01 +6.28549531e-02 +6.70095161e-02 -1.91446051e-01 -1.85505338e-02 +1.01099789e-01 -1.49481431e-01 +1.07536785e-01 +9.39163268e-02 +7.97509158e-04 +5.62342890e-02 +2.07858428e-01 -3.85621488e-02 -5.74752539e-02 -1.12042330e-01 -8.66600350e-02 +9.53362063e-02 -4.79615144e-02 -7.59440335e-03 -1.14333943e-01 -2.62491226e-01 -1.22066721e-01 +4.50623557e-02 -6.95131719e-02 -1.87924653e-01 -6.80940151e-02 +9.06920508e-02 -1.07825071e-01 +3.34021114e-02 +1.48094118e-01 -4.13680151e-02 -8.70819390e-02 +6.92081228e-02 +1.31971672e-01 +5.21571040e-02 +3.93562838e-02 -1.40814930e-01 -6.94818748e-03 -1.08667783e-01 -8.58165026e-02 +1.31178305e-01 +4.54057716e-02 +2.94358097e-03 +9.40700695e-02 +2.30160858e-02 +7.39953443e-02 -1.58184335e-01 +5.36743691e-03 +4.44257185e-02 -5.60650192e-02 -1.48136854e-01 -2.83779293e-01 -1.59343809e-01 -5.76444454e-02 -1.15064815e-01 +1.96465906e-02 +4.41948548e-02 -1.03378817e-01 +9.43986177e-02 +8.86645690e-02 +4.99349535e-02 -9.84470248e-02 -2.09809393e-02 -1.41939849e-01 -1.07275918e-01 +1.22663140e-01 -7.68554583e-02 -2.49342039e-01 +1.10776700e-01 -1.09826557e-01 +2.69443844e-03 +3.34935859e-02 +1.36345373e-02 -4.45945002e-03 -1.17380522e-01 +1.64793313e-01 -1.48751736e-01 -1.19707860e-01 -1.59012467e-01 -8.37396607e-02 +8.31072778e-02 +3.12155157e-01 +8.37646574e-02 +9.35247540e-02 +2.03834679e-02 -8.75243843e-02 -7.63134137e-02 -3.90577987e-02 -9.33372304e-02 -1.07680902e-01 -6.30961210e-02 +7.28272125e-02 -2.05731904e-03 +1.30080916e-02 +4.67860281e-01 -3.65413986e-02 -7.83298463e-02 +7.34989671e-03 -1.28081858e-01 -1.54239405e-03 -3.92455682e-02 +1.44785866e-01 -6.72756061e-02 +2.12441266e-01 +5.38196564e-01 -6.72176555e-02 +1.22670941e-01 +2.05901772e-01 +1.06422611e-01 -1.50566041e-01 -7.12158438e-03 -1.36055022e-01 +7.08981529e-02 +6.06955066e-02 +1.79990917e-01 +1.36656351e-02 +1.83859512e-01 +2.75583804e-01 -1.63316086e-01 +1.17328048e-01 +1.31708145e-01 +6.95577562e-02 +2.50702858e-01 +1.28024906e-01 -7.75680020e-02 -6.04643300e-02 +1.17009908e-01 +1.72899570e-02 +1.17200583e-01 +1.50649650e-02 +1.28765404e-01 +3.95832688e-01 +1.82094630e-02 +2.14605480e-01 +1.55880749e-01 +7.38273114e-02 -1.77140795e-02 +1.21906340e-01 +7.26034194e-02 -1.04430549e-01 +3.23726803e-01 +7.98344240e-02 +4.20903116e-01 +9.32738110e-02 -8.47725198e-02 +2.39124179e-01 -1.25109836e-01 +4.61761877e-02 +1.30034298e-01 +9.05708782e-03 +1.38169825e-01 +2.25162745e-01 +2.85698082e-02 +2.89973319e-01 +4.06041779e-02 +7.48829320e-02 +3.23533602e-02 -6.38130307e-02 +2.90088236e-01 -2.44589467e-02 +2.82183737e-02 -2.10419044e-01 +3.57250720e-02 +1.11260153e-01 -1.05424285e-01 +1.38254076e-01 -4.30196822e-02 +6.93564340e-02 +1.30645305e-01 +1.40043139e-01 +7.56207556e-02 +1.44700199e-01 -2.48264045e-01 +1.28627166e-01 +1.37905091e-01 +1.42878592e-01 +8.94759595e-02 +8.73924792e-02 +6.28463849e-02 +2.34745517e-01 +5.52676022e-02 -1.74471647e-01 -1.78640131e-02 +3.06270361e-01 -1.48078427e-01 +5.43955639e-02 +2.35910993e-02 +2.11591944e-01 -1.36289354e-02 +9.32506844e-03 -5.54289035e-02 +8.60872790e-02 +9.64112654e-02 -2.83124954e-01 +3.79522704e-02 -3.85688171e-02 +1.50152324e-02 -4.10717949e-02 +2.62897402e-01 +8.43634903e-02 -8.31132531e-02 +8.40836614e-02 +4.80634235e-02 -5.77580556e-02 +1.51409894e-01 +3.52826738e-03 +7.78312907e-02 +4.52928841e-02 +1.70552269e-01 +2.26390615e-01 +7.89226126e-03 +2.29421607e-03 -3.11256088e-02 +1.62677377e-01 -6.75895438e-02 -1.17155135e-01 -1.88262239e-02 +2.68880308e-01 -1.38733357e-01 +2.41164565e-01 +1.06859729e-02 +1.56335950e-01 -1.53240189e-01 +1.76679537e-01 +1.77333489e-01 -1.37635169e-03 +9.42240581e-02 +1.32851809e-01 +5.09545803e-02 +9.76293311e-02 +2.60043412e-01 +2.58460701e-01 +1.64893389e-01 +1.74134776e-01 +1.67512015e-01 +1.19476639e-01 +5.32251224e-02 +1.01002790e-01 +2.14418188e-01 +4.42876332e-02 -5.81584759e-02 +8.87356475e-02 +3.39980036e-01 +1.13951437e-01 +3.38392317e-01 +1.23944163e-01 +1.89008534e-01 +2.39793390e-01 +2.89141834e-01 +6.31941333e-02 +1.98439717e-01 +1.46550938e-01 -1.47006333e-01 +8.59551579e-02 +2.44178504e-01 +3.20748091e-02 -5.50062116e-03 +7.36130401e-02 -2.38141734e-02 +2.61752456e-01 -1.66159794e-02 +3.41971874e-01 +8.73491094e-02 +8.71756598e-02 -1.03791706e-01 +2.91759390e-02 +1.26667703e-02 +2.63633817e-01 +2.53598422e-01 +2.09965900e-01 +2.42007837e-01 +1.47004202e-01 -4.19995561e-02 +3.84527862e-01 +8.91282856e-02 +2.01950118e-01 +2.08880842e-01 -6.64130843e-04 +2.03774750e-01 +1.13786280e-01 +3.34847778e-01 +2.67608404e-01 +1.22884199e-01 -1.45699029e-04 +3.31289679e-01 +2.86090821e-01 +1.74319804e-01 +7.09685609e-02 +1.95541307e-01 +2.49931589e-02 +1.04482919e-01 +1.75211370e-01 +3.58579569e-02 +1.76801175e-01 +3.04751217e-01 +1.10650375e-01 -1.83182165e-01 -1.17097899e-01 +4.71157432e-02 -1.92126036e-01 +5.61424643e-02 +5.00885695e-02 +8.77514854e-02 -1.71429217e-01 -7.59732351e-02 -6.67833835e-02 -1.69174150e-02 -1.53823972e-01 -1.05418734e-01 +4.93616834e-02 -1.90018132e-01 +1.21442668e-01 -2.97585458e-01 +6.28731847e-02 -2.06978004e-02 +7.26007074e-02 -1.43312991e-01 -2.93308366e-02 -4.65085916e-02 +1.50039539e-01 +1.59850180e-01 -1.54505146e-03 -1.42338857e-01 +3.27075347e-02 +1.05311804e-01 +5.48359640e-02 +6.61067665e-02 -1.79785788e-02 +1.63087577e-01 +5.46174087e-02 +9.46460888e-02 -2.26267159e-01 -1.14527028e-02 -2.19684709e-02 +1.40101714e-02 -3.80641334e-02 +4.66697738e-02 -2.19558142e-02 +2.59057488e-02 +1.44984484e-01 +1.44250661e-01 -3.41268554e-02 +1.86842624e-02 +5.17017469e-02 +2.39132233e-02 +2.99953539e-02 +3.98218371e-02 -9.78747681e-02 +6.81373850e-02 -9.97348577e-02 +1.65450603e-01 -1.10159948e-01 -3.00782751e-02 -1.31459698e-01 -1.06646724e-01 -7.77195990e-02 +1.41430264e-02 -9.53714177e-02 +8.02214071e-02 -4.42954488e-02 -8.72871950e-02 +7.23065510e-02 +7.49490038e-02 -7.28082657e-02 -3.23166668e-01 -9.61680561e-02 -1.67010635e-01 -4.99350727e-02 +1.16210692e-01 -3.08103058e-02 -2.68967122e-01 -2.10221201e-01 -1.15360044e-01 -1.77329153e-01 +2.27454472e-02 -1.82713926e-01 -3.53298843e-01 +7.96602368e-02 -4.17251617e-01 -2.02798441e-01 -3.74762446e-01 +5.19945510e-02 -1.12618133e-01 +6.83754161e-02 -3.24816495e-01 +1.36431992e-01 -2.42615104e-01 -1.38125524e-01 -2.17846736e-01 -2.42637202e-01 -1.43879093e-02 +1.03277430e-01 -5.89923896e-02 -1.26534581e-01 -2.12798253e-01 -2.87186980e-01 -2.80334145e-01 -2.73804873e-01 -1.65749088e-01 -1.66888282e-01 +8.66907910e-02 +3.90693583e-02 +7.33645400e-03 +3.19659084e-05 -3.89759183e-01 -1.99912280e-01 -6.81049377e-02 -2.44403332e-01 -3.33595097e-01 -1.18766271e-01 -8.71288404e-03 +1.08810082e-01 -8.08106922e-03 -5.05961031e-02 -3.04373205e-01 +2.46212587e-01 +8.98898989e-02 +5.86863719e-02 -2.82099426e-01 +1.79030490e-03 +8.05326626e-02 +1.80390447e-01 +2.63295826e-02 -2.63168752e-01 +1.30856335e-01 +3.18611711e-02 +9.51397344e-02 -1.56132430e-01 -1.86082333e-01 -1.06120348e-01 -1.83616772e-01 -2.93448091e-01 +4.03281786e-02 -3.19074094e-02 -3.38578194e-01 -2.98516005e-01 -4.45086628e-01 +1.32374903e-02 -2.16788769e-01 -5.66539168e-02 -2.17066526e-01 +1.28226196e-02 -1.65553108e-01 -1.82494953e-01 -3.93269658e-01 -1.54672250e-01 -2.43941411e-01 -3.85593399e-02 -3.39894146e-01 +1.23531841e-01 -1.73310846e-01 +1.02537990e-01 -2.42859513e-01 -1.88682690e-01 -7.70316049e-02 +1.03975954e-02 -6.98187798e-02 +5.65432087e-02 -1.35889068e-01 -2.29855537e-01 -2.51739115e-01 -1.60714790e-01 -9.71995667e-02 -2.69519240e-01 -2.00844213e-01 -1.45178400e-02 +7.96909407e-02 -1.72063783e-01 +8.55285227e-02 +2.17525568e-02 +1.40371785e-01 -2.28789136e-01 -2.67905593e-01 +7.54414946e-02 -1.27619714e-01 -9.45909992e-02 -1.15806319e-01 -6.97203800e-02 -1.12035185e-01 +8.30934942e-02 -4.06149514e-02 +5.52962013e-02 -3.92755091e-01 -4.91661504e-02 -8.19353312e-02 +5.21659814e-02 -6.38283938e-02 -2.50214994e-01 -1.55332610e-01 +5.27799129e-02 -5.48953749e-02 -2.14316815e-01 -1.91077322e-01 -7.69756436e-02 -9.38882902e-02 +5.86179234e-02 -3.48581262e-02 +2.04090886e-02 -2.95297951e-01 -3.81306261e-01 -3.95637155e-01 -1.73556179e-01 -2.15631902e-01 -1.28623739e-01 -2.89214641e-01 +1.03507126e-02 -1.66992664e-01 -3.45284760e-01 -3.07674766e-01 -5.37232161e-02 -2.51840025e-01 +1.34625873e-02 -3.91278505e-01 +9.33800861e-02 -3.13224018e-01 -1.47029936e-01 -8.05102214e-02 -2.85744399e-01 +7.26689622e-02 -1.14698984e-01 -6.02922924e-02 -1.18215084e-01 -2.20125973e-01 -1.50538012e-01 -1.22010052e-01 -2.23521799e-01 -3.33876938e-01 -2.76699871e-01 -1.35419205e-01 -2.73573428e-01 -2.11788639e-01 -1.49977848e-01 -2.52137393e-01 -2.69727170e-01 -1.96559981e-01 -2.30174959e-01 -3.52799386e-01 +1.66982383e-01 -3.32090884e-01 -3.23571861e-02 -2.73818225e-01 -1.77416891e-01 -4.09289658e-01 -7.98503906e-02 -1.39232695e-01 +1.02083445e-01 -4.53493595e-01 -7.73368776e-02 +3.10363211e-02 -6.65785000e-02 +1.90067217e-02 -1.09501079e-01 -2.87336290e-01 -1.27861261e-01 +6.37990935e-03 -8.10913891e-02 +2.03318909e-01 +8.63473043e-02 -1.68290418e-02 -4.23763618e-02 +1.05793951e-02 +8.46500099e-02 -8.38468671e-02 -6.09050393e-02 +2.39015788e-01 -1.26600310e-01 -1.33220121e-01 -1.54942488e-02 -1.77029923e-01 -1.39984041e-01 +1.37052149e-01 -1.19649872e-01 +4.51079868e-02 +9.83271450e-02 -3.71286273e-02 -3.90375257e-02 +1.35345981e-01 -9.34121534e-02 -4.12908383e-02 +8.79195854e-02 +3.56541984e-02 +2.08973549e-02 -8.88673067e-02 -8.43180269e-02 -6.15894869e-02 -7.41402134e-02 -2.45747775e-01 -1.47384897e-01 +5.98880537e-02 +2.25477144e-02 -7.97773749e-02 +2.27309138e-01 -4.63374592e-02 -8.33590552e-02 +1.31491885e-01 -2.73276325e-02 -1.18548863e-01 +3.26450951e-02 +1.43302884e-02 -2.20487872e-03 -1.58698127e-01 +2.39584148e-01 +1.83478184e-02 -1.06219798e-02 -1.88578278e-01 -3.70205753e-02 +1.53499112e-01 -6.00232296e-02 +6.56827465e-02 +1.22127265e-01 -2.63344087e-02 -6.94267675e-02 +6.28977269e-02 -1.43075258e-01 +4.16890234e-02 +2.96532184e-01 -1.06602594e-01 +1.28675058e-01 +1.84848219e-01 +4.06518400e-01 +1.63714871e-01 +1.78058907e-01 +2.47181132e-01 +1.91103786e-01 +1.28042042e-01 +1.04976267e-01 +4.66357768e-02 +1.91996440e-01 -1.57947298e-02 -1.29003346e-01 +6.63215145e-02 -6.32356331e-02 +2.19051629e-01 +2.43170083e-01 +1.26478791e-01 +1.77052096e-01 +3.47237855e-01 +3.52657020e-01 +3.63912851e-01 +2.83624858e-01 +2.48051241e-01 +1.92325100e-01 +3.84185277e-02 -1.88273951e-01 -5.42315515e-03 +7.55659938e-02 +3.28795105e-01 +8.92057866e-02 +2.64988244e-01 +1.24394245e-01 +2.38153189e-01 +1.33147597e-01 +3.29870582e-01 +2.17646331e-01 +2.10346505e-01 +2.27373481e-01 +2.33509853e-01 -3.30518544e-01 +2.70122379e-01 +4.87699449e-01 +3.73892672e-02 +3.46767306e-02 +2.12250531e-01 +1.47289913e-02 +2.18539089e-02 +1.44463569e-01 +2.12536871e-01 +1.96752667e-01 +5.52590787e-02 +2.50567663e-02 +9.31734666e-02 +3.77579242e-01 +2.44724631e-01 +7.08168074e-02 -9.06442478e-03 +1.37120783e-01 +1.35017708e-01 +3.35340053e-01 +1.05879337e-01 +2.41366386e-01 +3.14092860e-02 +4.45937924e-02 -2.21419316e-02 +1.46720931e-01 -4.30334024e-02 +2.07485631e-01 -6.07078522e-02 +1.33750275e-01 +1.57733068e-01 +2.48485699e-01 +1.44316807e-01 +9.08809081e-02 -4.88381684e-02 +1.71489775e-01 -2.18439475e-01 +2.76503742e-01 +9.17632431e-02 -8.21557567e-02 +1.30927727e-01 +2.39488147e-02 +1.09765224e-01 +4.04256165e-01 -2.64093280e-02 +1.37734786e-01 +2.48839274e-01 +6.97143981e-03 -8.37017447e-02 +1.12476781e-01 -7.12341294e-02 +1.18979074e-01 +3.53306562e-01 +8.56148005e-02 +2.18103722e-01 +2.54405051e-01 +7.31271431e-02 +2.08294466e-01 +1.95870012e-01 +5.41495740e-01 +4.79878813e-01 +1.17167808e-01 +2.73075849e-02 +1.67287737e-01 +1.79708973e-01 +2.98493654e-01 -6.90553039e-02 +1.17575489e-01 +2.88577199e-01 -5.43148024e-03 -2.61732507e-02 +9.03059542e-02 -1.39946058e-01 +4.06379439e-02 +7.59859979e-02 +1.62358746e-01 -7.35422522e-02 +3.63002419e-01 +7.87796900e-02 +8.45324174e-02 -6.20263144e-02 +6.53546974e-02 -1.65912732e-02 +3.40181410e-01 +2.70243824e-01 +1.31387142e-02 -9.83665287e-02 +5.16766347e-02 +2.40937859e-01 +5.68267773e-04 +1.02041140e-01 +1.20898031e-01 +2.61005610e-01 +1.74030125e-01 +1.14677608e-01 +3.04616928e-01 -1.42768741e-01 -1.08411893e-01 -1.91927925e-01 +1.06852390e-01 -7.47590065e-02 -1.89164598e-02 -1.25601590e-01 +1.83266848e-02 -1.54814318e-01 +6.92349151e-02 +2.68072486e-02 +3.81080955e-01 +5.49419373e-02 +4.30418581e-01 +9.27124396e-02 +2.38360107e-01 +2.78166439e-02 -1.86938629e-01 -9.79706049e-02 +2.61373103e-01 +2.48650894e-01 +3.54196489e-01 +4.70597446e-01 +1.52839655e-02 +2.38460556e-01 -1.31246582e-01 +1.33862779e-01 +1.47979185e-01 +1.99416175e-01 +5.20907454e-02 +6.63306192e-02 -2.39504337e-01 +3.73155117e-01 +1.45762369e-01 +7.59402886e-02 +3.74379642e-02 +2.81493306e-01 +1.99938789e-01 -1.67321444e-01 +2.89620668e-01 +7.21302778e-02 +1.54013280e-02 +1.19844913e-01 +6.02319986e-02 -8.85153860e-02 +1.62439838e-01 +2.00736612e-01 +2.18145728e-01 +9.81364399e-02 +2.47272491e-01 +1.81685582e-01 +2.31726855e-01 +2.20380440e-01 +1.98202431e-01 -2.79595017e-01 +2.32362952e-02 -1.26255453e-01 -7.53940195e-02 -3.50850001e-02 -1.36059895e-01 -1.05241677e-02 -6.62765726e-02 +4.99890707e-02 -1.01750501e-01 -2.72101849e-01 -2.70531978e-02 +3.11039716e-01 -2.83372343e-01 -6.43585324e-02 -2.77294610e-02 -2.35148147e-01 -4.88845743e-02 +1.58100843e-01 -2.66613096e-01 +2.41505299e-02 -4.21249941e-02 -8.20474774e-02 +1.93000332e-01 +7.03784004e-02 -1.70807391e-01 -2.52278388e-01 +1.39257004e-02 +1.88328579e-01 -1.04502708e-01 -9.42200497e-02 -1.00064859e-01 +7.27065802e-02 +7.56303035e-03 -9.95539203e-02 +2.50209682e-03 -3.84809673e-02 +2.41354741e-02 +1.59154966e-01 +7.01272488e-02 -8.62068608e-02 -4.05040264e-01 -4.24695052e-02 +1.07473448e-01 -1.17205858e-01 -9.06724036e-02 +1.34219751e-01 -1.27522536e-02 -1.38809651e-01 +1.18507765e-01 +1.90995976e-01 -7.69573823e-03 -2.03029796e-01 -1.40606016e-01 +1.73620045e-01 +2.76663862e-02 +1.08632557e-01 -4.91707698e-02 -3.39708547e-03 -8.47778656e-03 -2.35126559e-02 -1.47318438e-01 +8.94610211e-02 -9.74751636e-02 -6.30427673e-02 +6.23457097e-02 -2.50794552e-02 -1.88707650e-01 -3.87466326e-02 -2.37945411e-02 -1.23055093e-01 +6.99598938e-02 -3.93670611e-02 +2.71715485e-02 +2.02117130e-01 +9.34525207e-02 +3.59256156e-02 +1.03930518e-01 -7.70957023e-02 +9.94069874e-02 -3.18046391e-01 +3.47111300e-02 -2.49886155e-01 +8.97757933e-02 -8.54103640e-02 +5.24791367e-02 -3.10057908e-01 -2.24001929e-01 -2.20837481e-02 -1.04311466e-01 -3.27419974e-02 -2.09107369e-01 +3.38242985e-02 -4.37271297e-02 -7.02555478e-02 -1.77718535e-01 -6.83911741e-02 -2.48173907e-01 -1.12668321e-01 -1.41091987e-01 -3.26367229e-01 -1.44352838e-01 +8.02617893e-02 -1.58833385e-01 -1.22386754e-01 +1.22213950e-02 -2.01496825e-01 +3.64606120e-02 -1.89360410e-01 -1.82248190e-01 -1.18950859e-01 +2.26825308e-02 -3.28411013e-01 +7.09915906e-02 -3.04525271e-02 -2.32602656e-02 -2.11193666e-01 -1.76389143e-01 -5.99401146e-02 -8.93550590e-02 -1.88486036e-02 +5.77932745e-02 +1.45102562e-02 -1.55844972e-01 -2.30988506e-02 -1.25434875e-01 +3.25594135e-02 +2.11825058e-01 -4.40846868e-02 +6.40527979e-02 +2.29244843e-01 +1.02958433e-01 +1.02622464e-01 +3.71713042e-01 +1.91987038e-01 +6.28531337e-01 +2.46585950e-01 +9.27012414e-02 +6.08332038e-01 +3.90938133e-01 +5.87739110e-01 +1.02088228e-01 +9.33384374e-02 +1.54768080e-01 +2.85714656e-01 +2.25845084e-01 +3.34486693e-01 +3.57814193e-01 +4.66975957e-01 +5.19113123e-01 +2.69028008e-01 +2.83469081e-01 +4.63098764e-01 +1.31593645e-01 +2.05502719e-01 +6.06032833e-02 +4.76671755e-01 +1.86265465e-02 +1.90245375e-01 +1.89252228e-01 +1.62162855e-01 +2.05323085e-01 +2.86176533e-01 +6.45095885e-01 +1.66010648e-01 +1.66013181e-01 +1.12683073e-01 +2.38797903e-01 +2.56933451e-01 +2.96124488e-01 +2.14419797e-01 +2.46124223e-01 +2.11507734e-02 +5.34648374e-02 +1.17337018e-01 +3.38323474e-01 +2.45363742e-01 +1.97998360e-01 +4.99522835e-02 +3.18875968e-01 +2.15186939e-01 +1.34884834e-01 +3.24181676e-01 +3.15904319e-01 +2.09822461e-01 +2.18233600e-01 +2.95948595e-01 +1.74744800e-01 +2.52799571e-01 +1.46025270e-01 +3.01372498e-01 -3.77407223e-02 +2.49132082e-01 +1.08962283e-01 +4.40711621e-03 +5.57840429e-02 +2.24343121e-01 +2.00055465e-01 +2.78561898e-02 +1.47147089e-01 +2.58096993e-01 +1.48748994e-01 +3.94874990e-01 +1.44393891e-01 +2.22725734e-01 +2.72727311e-01 +9.11982451e-03 +1.82395533e-01 +2.38089576e-01 +7.17082694e-02 +2.38930717e-01 +2.68740475e-01 +2.38467053e-01 +1.96545437e-01 +6.10792898e-02 +1.29363641e-01 +3.92834872e-01 +3.24638970e-02 -9.94677693e-02 +5.48843801e-01 +3.01674694e-01 +1.20877914e-01 +9.34812278e-02 +2.53846586e-01 +2.43780658e-01 +8.83646011e-02 +2.17598379e-01 +3.77627552e-01 -5.10807186e-02 +3.00877038e-02 +1.71834901e-01 +2.42142513e-01 +3.12783271e-01 +3.00474405e-01 +3.94305065e-02 +1.12372994e-01 +3.40403050e-01 +7.64719397e-02 +6.83554187e-02 +8.46774504e-02 +1.43612802e-01 +2.14874521e-01 +4.39343462e-03 +1.44768983e-01 +1.32777110e-01 +2.18136773e-01 +3.75918299e-01 +7.70577490e-02 +8.17435309e-02 +1.10530714e-03 +1.50776312e-01 +2.55150143e-02 -5.54230362e-02 +2.13147208e-01 +3.19660790e-02 +5.85458986e-02 +1.36458948e-01 +7.04034232e-03 -1.80410855e-02 +1.71334937e-01 +5.31199686e-02 -8.25912040e-03 -7.78699517e-02 +1.76006690e-01 +1.65554993e-02 +1.23267695e-01 +1.73486218e-01 -1.71562970e-01 -3.80197346e-01 +2.20744640e-01 +9.43100601e-02 -5.75375073e-02 +2.47561619e-01 +1.52557388e-01 -2.68531621e-01 +2.45747074e-01 -1.33499816e-01 +4.30264696e-02 -1.90376956e-02 +6.56447336e-02 -7.12319091e-02 -1.02144241e-01 +2.23114491e-01 +4.97461446e-02 -1.96493611e-01 +4.74653542e-02 +7.25783706e-02 -7.80187696e-02 -9.31803733e-02 -5.14204279e-02 +4.66527836e-03 +1.88945249e-01 +1.77582517e-01 +6.29679561e-02 +1.16115071e-01 +1.28947792e-03 +4.93098684e-02 +1.98648885e-01 -2.05774009e-02 -1.20071173e-01 +1.29493892e-01 +8.09974819e-02 +5.21929525e-02 -2.40888558e-02 -6.70498908e-02 -1.23026989e-01 +5.42418137e-02 -9.52628106e-02 +1.94683447e-01 +1.80526357e-02 +1.92812867e-02 +1.42271802e-01 -6.99697509e-02 -6.27944544e-02 -2.93700900e-02 +3.91529724e-02 +8.83892253e-02 +5.13653308e-02 +2.49278191e-02 +2.22115785e-01 +1.55323103e-01 +9.84560475e-02 +9.59028974e-02 +2.27583349e-01 +1.38279095e-01 +2.71002650e-02 +1.51375771e-01 +3.61772180e-02 +1.86342269e-01 +1.99802101e-01 +1.16499662e-01 +5.89475594e-02 +1.43299058e-01 +6.46017790e-02 +1.27141654e-01 +1.07093439e-01 +3.78233552e-01 -1.57292560e-01 +3.27913880e-01 +9.66966227e-02 +3.74140382e-01 +1.34835064e-01 +5.94736496e-03 +1.42569840e-01 +3.25009584e-01 -8.36801007e-02 +2.23227203e-01 +3.36472951e-02 +1.58595055e-01 +1.08694747e-01 +1.05260730e-01 -6.61717281e-02 -5.76024875e-03 +2.47147679e-01 +5.84428944e-02 +8.27110335e-02 +3.87524933e-01 +4.82295863e-02 +3.24779183e-01 +2.09308267e-01 +2.68341489e-02 +1.07520118e-01 +5.72151281e-02 +1.04729086e-01 +2.53728151e-01 +1.82855427e-01 +3.95875312e-02 +5.83220571e-02 +1.94823816e-01 +1.65205434e-01 +1.52065068e-01 +1.84596941e-01 +4.09783460e-02 +2.48609260e-01 +1.82254359e-01 +3.06292009e-02 +1.03075858e-02 +7.38367140e-02 +1.35105014e-01 +6.59130793e-03 -7.73471072e-02 +1.26728430e-01 +5.87019250e-02 -5.96439652e-02 +3.51971537e-02 -2.02094004e-01 -1.52949765e-01 +8.02655797e-03 -2.21644402e-01 -3.02053634e-02 -5.86591214e-02 -2.92722762e-01 -2.59818375e-01 -5.63541688e-02 -8.62164572e-02 -2.21575588e-01 -2.51247972e-01 +5.13240471e-02 -1.99339241e-01 -4.11375687e-02 +1.11234235e-03 -1.55718416e-01 -2.32260197e-01 -8.76680091e-02 +1.52767688e-01 -4.04222980e-02 -2.23140746e-01 -1.15920782e-01 -1.63001835e-01 -1.29257627e-02 +1.24224462e-01 -1.38676316e-01 -3.06215793e-01 -2.25261956e-01 -1.64314017e-01 -2.16157585e-01 -1.85642153e-01 -2.06233442e-01 -2.23954290e-01 -1.19610958e-01 -2.17172623e-01 -6.53217286e-02 +5.16752787e-02 -4.08068299e-02 -2.71847304e-02 +2.64902115e-01 -2.01902613e-01 -1.30706608e-01 -2.06780434e-01 -2.87377685e-01 -4.73990515e-02 -5.68459928e-03 -2.30687931e-01 -1.17176801e-01 -3.10217775e-02 -7.13414326e-02 +9.86311510e-02 -6.09379634e-02 -3.34694475e-01 -1.39421701e-01 -1.28414392e-01 -1.05893612e-01 +5.17294630e-02 -2.27794379e-01 -4.24805544e-02 -9.64818597e-02 -1.22663856e-01 +4.57838140e-02 +2.02469788e-02 +1.15460493e-01 +7.68388584e-02 -6.63934555e-03 +2.57957250e-01 -1.04043789e-01 -5.89175522e-03 -2.05663338e-01 -9.95042548e-02 +6.30131215e-02 -5.18411100e-02 -1.19492680e-01 -8.89772847e-02 +9.48237907e-03 +3.54249552e-02 -1.68435931e-01 -5.67745939e-02 -1.96904242e-01 -1.50708497e-01 +7.40828961e-02 -2.89034415e-02 -3.87695879e-02 -6.58812523e-02 -3.85594182e-02 +1.78625152e-01 +5.94350994e-02 +6.35979772e-02 -1.05478063e-01 -9.43757966e-02 -3.48028280e-02 -1.64931193e-02 -8.44086409e-02 -8.01003277e-02 +3.54842469e-02 +1.16980597e-02 -8.90863463e-02 -1.49384275e-01 +1.40043780e-01 +1.05618790e-01 -1.52045563e-01 -1.73355285e-02 -3.11321933e-02 -4.09355275e-02 +1.25296367e-02 +2.88514402e-02 -1.03431650e-01 +5.23383357e-02 -5.75910956e-02 -1.96002245e-01 -5.82204238e-02 -1.70153454e-02 +4.41146083e-02 +5.72554693e-02 +1.85717046e-01 -1.08920477e-01 -8.25769976e-02 -3.15286033e-02 -1.88317094e-02 +1.29311234e-01 +2.35259477e-02 +1.66779518e-01 +4.69628647e-02 +1.20560855e-01 +2.43387409e-02 +5.27002513e-02 +8.45663026e-02 +4.78983894e-02 +3.72060463e-02 +6.77876920e-02 +1.82939500e-01 -2.55008545e-02 -1.70312971e-01 +4.10333984e-02 +3.27749215e-02 -1.24718122e-01 -7.75511339e-02 -4.54082079e-02 -2.30134889e-01 +4.70205471e-02 +1.37735546e-01 -7.17418790e-02 +1.17136523e-01 +2.55599469e-01 +1.56131789e-01 +4.50710347e-03 +7.37364870e-04 +4.31740656e-02 -9.58193019e-02 -2.54794300e-01 +9.48751420e-02 -1.32747158e-01 -1.93337634e-01 +9.32959765e-02 -1.35076523e-01 +7.10832234e-03 +1.43184051e-01 -2.26567257e-02 -1.10756129e-03 -1.23334125e-01 -1.40682682e-02 +1.18816577e-04 +9.33422819e-02 +1.30483598e-01 -1.68326735e-01 -1.82121024e-02 -3.42862085e-02 -2.29037747e-01 -3.87251340e-02 -2.19838694e-01 -4.49026376e-03 +1.12212725e-01 -1.06588662e-01 -2.49609023e-01 -1.81801155e-01 -8.63872394e-02 -1.20860092e-01 +5.43963537e-02 +1.95055649e-01 +3.82148713e-01 +1.66823238e-01 -1.50790438e-01 -1.34765103e-01 +1.25767335e-01 -2.43653916e-02 -1.03880823e-01 +4.00089510e-02 -1.21156402e-01 -1.57331839e-01 -3.55028123e-01 +7.13478103e-02 -6.44858554e-02 +1.14060462e-01 -2.63726085e-01 -4.48023528e-02 +4.23459746e-02 +4.10419069e-02 -5.28999120e-02 -1.64254934e-01 +1.04302250e-01 -1.14307538e-01 +1.05632536e-01 -1.56155333e-01 -8.56664553e-02 -9.67700705e-02 -1.64161697e-01 +9.67364907e-02 -1.78319454e-01 -9.74746048e-03 -3.54669839e-01 +3.91828828e-02 -1.17753185e-01 -6.83814986e-03 -1.76484197e-01 +5.64118624e-02 -2.68443450e-02 +1.04261808e-01 -5.22446036e-02 -1.49293929e-01 -1.94272488e-01 +3.16665247e-02 -3.80327888e-02 -9.83185694e-02 -6.73301592e-02 -1.70126930e-01 -2.48627856e-01 -5.82018569e-02 +1.33264074e-02 +3.76268663e-02 -1.51823789e-01 +2.51866072e-01 -1.78859700e-02 -6.05423115e-02 -1.01452030e-01 +1.49498656e-01 -1.00923032e-01 -9.76035520e-02 +5.59338257e-02 -5.44367768e-02 -1.53962970e-01 +2.03887019e-02 -2.52410650e-01 -1.47601590e-01 -7.39852525e-03 +4.87695858e-02 -7.07998127e-02 -6.44249050e-03 -1.66723147e-01 +9.88024194e-03 -1.00355454e-01 +7.08380863e-02 -4.96659465e-02 +1.01835551e-02 -1.74773395e-01 +2.84866631e-01 -2.45221201e-02 +1.29491150e-01 -1.27366349e-01 +1.90034539e-01 +1.67300388e-01 +2.75339246e-01 +1.92125708e-01 +1.30612791e-01 -1.11337237e-01 +2.29017004e-01 +1.34862587e-01 -4.08078954e-02 +1.57250941e-01 +1.86614260e-01 +2.03852609e-01 +1.06747955e-01 +4.65116575e-02 +8.87675732e-02 -8.12843814e-02 +3.05124819e-01 +2.41384029e-01 +2.01114565e-01 +1.08004026e-01 +2.59089142e-01 +1.13618083e-01 +2.30120987e-01 +3.54515135e-01 +2.51892731e-02 +2.18109831e-01 +2.81244814e-01 +1.92696020e-01 +2.47372806e-01 -3.44113670e-02 +1.05296060e-01 +7.02200979e-02 -6.82311356e-02 +3.81394848e-02 +4.44483012e-02 +1.37203291e-01 -5.00421040e-03 +8.94808769e-02 +2.78346300e-01 +3.79513726e-02 +1.08846739e-01 +1.57360375e-01 -8.04089680e-02 +1.61065340e-01 +1.12026706e-01 +3.45115997e-02 +3.30767184e-01 +3.17929225e-04 +1.37991747e-02 +2.33910292e-01 +2.57907268e-02 +1.78494588e-01 +3.58444303e-01 -1.14738077e-01 +1.22190654e-01 +2.59593576e-01 +2.01458618e-01 +1.47402346e-01 +5.13657518e-02 +9.57557559e-02 +1.31093804e-02 -1.09488733e-01 +1.64326280e-01 -1.26583070e-01 +1.20041445e-01 +5.85026927e-02 +2.36227103e-02 -7.21440790e-03 -8.00040662e-02 +3.17239821e-01 +2.29125068e-01 +1.40973583e-01 -2.55682856e-01 +7.27659091e-02 +1.61985233e-01 +2.66064495e-01 +1.50899729e-02 +1.24434620e-01 +6.45185933e-02 -1.78570956e-01 +1.87916577e-01 +7.10684806e-02 +1.76438719e-01 +7.58601949e-02 +1.64600372e-01 -5.08218296e-02 +3.95127684e-01 +2.73288876e-01 -2.22369190e-02 -1.16244135e-02 -1.53402030e-01 +4.10454869e-02 +1.58552617e-01 -1.75615951e-01 +3.07855867e-02 +3.11424229e-02 +1.51252955e-01 +2.63459355e-01 +1.50800437e-01 +5.95226027e-02 +4.13111478e-01 -3.84463556e-03 +2.38063365e-01 +2.73087382e-01 +1.61899645e-02 +3.98004055e-03 +7.55133629e-02 +2.56982327e-01 +1.97065443e-01 -1.89370707e-01 -1.58047937e-02 -1.05732247e-01 +6.33865828e-03 +2.19130337e-01 +4.05643396e-02 +4.65521701e-02 -1.32631481e-01 -5.93960918e-02 -2.08304897e-01 +2.19430700e-02 +8.14184621e-02 -1.14555992e-01 -1.20167010e-01 +7.44239837e-02 -4.84257042e-02 +6.60898015e-02 +9.23096240e-02 +2.73303855e-02 +8.99690762e-02 -5.43987900e-02 +3.63649242e-02 +1.11279618e-02 -4.45063747e-02 +2.94803262e-01 +2.70758390e-01 -2.19024956e-01 +9.89606380e-02 +6.44580871e-02 -3.41885164e-02 +1.99684039e-01 -5.96766099e-02 -2.57390678e-01 +4.68697473e-02 +8.23296979e-02 +8.22959989e-02 +1.34115279e-01 -9.59784687e-02 +2.13162042e-02 +2.45932937e-02 -2.18752753e-02 +2.82509387e-01 -1.42869368e-01 +5.84450644e-03 +1.81272089e-01 -6.44492209e-02 -6.96626753e-02 +9.36899111e-02 +2.00910687e-01 +3.15177292e-02 +2.60733664e-02 -2.39675567e-02 -1.43357664e-01 -1.14905313e-02 -1.18086688e-01 +8.12759995e-03 +1.70472100e-01 -1.79987922e-01 +2.81366915e-01 +1.20730009e-02 -6.38031065e-02 +2.00529754e-01 -1.02427853e-02 +1.08951457e-01 -5.65914176e-02 -8.77567753e-02 +3.10497824e-02 +7.17868060e-02 -1.52299359e-01 -1.24510281e-01 +3.54599468e-02 +3.21678519e-02 -2.89174318e-01 -1.56142950e-01 -1.23093892e-02 -1.35322437e-01 -8.77089240e-03 -1.63106516e-01 +2.58418947e-01 -5.05822012e-03 -1.64671198e-01 -2.36366555e-01 +1.15256630e-01 +4.26906869e-02 +8.62933462e-04 -3.76195647e-02 -2.63282984e-01 -1.66568890e-01 -2.76252329e-02 -2.12244347e-01 -5.82549982e-02 -1.21717602e-01 +8.83893296e-02 -9.98843610e-02 +2.17490662e-02 +9.59848613e-02 -3.52348462e-02 +7.68626109e-02 -1.64977312e-01 -2.90815532e-01 -3.23448092e-01 -1.90398499e-01 -1.36773020e-01 +8.81616175e-02 -3.11731726e-01 +3.24424297e-01 +1.21303797e-01 -2.14572251e-01 -1.05095997e-01 -4.81559485e-02 +8.09756108e-03 -4.06579912e-01 +1.41655523e-02 -4.47603352e-02 -2.30126098e-01 -3.01736414e-01 -2.21700519e-01 -2.65586555e-01 -8.59699994e-02 +1.70699909e-01 -1.61480322e-01 -3.33735377e-01 +1.78900617e-03 -1.69772748e-03 +1.39222685e-02 -9.39826593e-02 -7.58522600e-02 +2.00242773e-01 +1.02047786e-01 -1.34077713e-01 -1.96363807e-01 +2.24854294e-02 +2.76839852e-01 -6.57472238e-02 -2.00924471e-01 -1.00849375e-01 -9.13197696e-02 -1.32079095e-01 +7.24489167e-02 -3.01808324e-02 -1.40652210e-02 -1.07555151e-01 +1.12846363e-02 +1.39993161e-01 -5.93417920e-02 +1.44891322e-01 +2.53275502e-02 +3.30244750e-01 +2.26911202e-01 +4.72810566e-01 -1.04565755e-01 +4.20220234e-02 -6.39349744e-02 +1.03169829e-01 +1.47746742e-01 +3.82360891e-02 -6.73917755e-02 +8.45634863e-02 +2.63079464e-01 -3.06716207e-02 +2.22731709e-01 +3.79863530e-01 -3.47711332e-02 -1.18011132e-01 +2.45891213e-01 +4.82662283e-02 +1.71948075e-01 +2.31900498e-01 -7.49516785e-02 +3.28388475e-02 +4.98841166e-01 -3.17757800e-02 +1.64406002e-01 +7.89773464e-02 +1.01451814e-01 -8.96055996e-02 +1.37985736e-01 +3.61829177e-02 +1.00060321e-01 -9.11980718e-02 -1.21333793e-01 +1.05152741e-01 +3.38851921e-02 +8.10537934e-02 -3.05013079e-02 +2.12887555e-01 +2.64097210e-02 +1.09661825e-01 +5.94938174e-02 +1.82670847e-01 +1.40325636e-01 -2.41954159e-03 +1.20813817e-01 -9.60965548e-03 +9.73758921e-02 +2.70474162e-02 -1.54314712e-02 -5.22711780e-03 -5.13613410e-02 +1.25867948e-01 -9.42923427e-02 +5.72210969e-03 +2.30390951e-01 +4.76110838e-02 +9.11379084e-02 -6.70426339e-02 +3.61840129e-01 +5.85220605e-02 +1.22828014e-01 +1.32961780e-01 +1.59099177e-01 +8.90349820e-02 +5.03213331e-02 +1.52230218e-01 +1.54390097e-01 +2.32364163e-01 +1.80441543e-01 +1.76860645e-01 +1.34003073e-01 +1.06967613e-01 +6.03475571e-02 +1.52060539e-01 +4.25783545e-01 +2.15541437e-01 +4.70769912e-01 +4.16941434e-01 +1.35416910e-01 -3.04650813e-02 +9.93732661e-02 +1.07325770e-01 -1.90597028e-02 +1.03067964e-01 +2.17317030e-01 +3.51664007e-01 +3.29660565e-01 +1.46493539e-01 +1.17264010e-01 -3.06676626e-02 +1.76853105e-01 +8.51503089e-02 +2.20740978e-02 +2.52795249e-01 +2.94499155e-02 +2.60815114e-01 +4.00292277e-01 +2.59842128e-01 +1.09977357e-01 +4.75764960e-01 -1.00551434e-02 +2.46014476e-01 +4.05395597e-01 +1.52621027e-02 +2.26880684e-01 +5.00283800e-02 +4.48005050e-01 +2.45454386e-01 +1.80908948e-01 +1.08343750e-01 +2.55408406e-01 +7.42790848e-02 +9.60662290e-02 +2.78903008e-01 +1.12550519e-02 +6.13092035e-02 +1.24656722e-01 -6.32957518e-02 +7.48228580e-02 +2.83082336e-01 +1.56717494e-01 -8.95193815e-02 -1.51240513e-01 -1.85270414e-01 -1.80048972e-01 +3.24238986e-01 +6.76810071e-02 +3.70498113e-02 +5.43280765e-02 +7.92677328e-02 +1.25398606e-01 +7.95523375e-02 +1.17718197e-01 -2.17172340e-01 -4.39087525e-02 +6.63345754e-02 +6.50249943e-02 +1.93913784e-02 +1.70369327e-01 -2.76680291e-03 -1.32203758e-01 -1.63648114e-01 +3.10191028e-02 -7.88592398e-02 +2.41669014e-01 -3.96571755e-02 -3.13128352e-01 -1.25889946e-02 -1.38173550e-01 -8.57163873e-03 -3.06022018e-01 +1.18017003e-01 +1.63643539e-01 -1.93307083e-02 -1.32892147e-01 -1.80571944e-01 -8.90689716e-02 +2.50580639e-01 +1.37799397e-01 -7.71676302e-02 -8.11628103e-02 -9.19135660e-02 +7.04701617e-02 +1.02682844e-01 +8.05428426e-04 -2.18232021e-01 -8.45317021e-02 +8.94838795e-02 -1.42721713e-01 +1.82651192e-01 -1.32986471e-01 -5.78062385e-02 -3.80233419e-03 +5.89150470e-03 -2.63687987e-02 -1.02654412e-01 +2.68935204e-01 +7.75333196e-02 -8.35390985e-02 -2.53763963e-02 +4.86676320e-02 +1.64517742e-02 -1.27511501e-01 -2.16604266e-02 -2.08126064e-02 +2.21709162e-02 +3.64495575e-01 +2.34454915e-01 +1.75572947e-01 +1.48101062e-01 +1.27694592e-01 +1.04540981e-01 +3.27241421e-01 +2.39707395e-01 -3.72807756e-02 +2.73291469e-01 +4.79651652e-02 -1.02542698e-01 -9.98990834e-02 +1.64555669e-01 -2.19869167e-02 +2.08415523e-01 -6.62176460e-02 +1.07308976e-01 -2.29861245e-01 +1.99395880e-01 -3.82755175e-02 +6.98665380e-02 -7.38642737e-02 +2.29406163e-01 +4.00352478e-03 +2.42024735e-01 +9.51649249e-02 +3.25848639e-01 +3.47671136e-02 +8.65361691e-02 +1.97972253e-01 +2.34587014e-01 +3.56656045e-01 -1.53541327e-01 +1.82256535e-01 -3.98956910e-02 +6.43468797e-02 +1.75068323e-02 -3.29568610e-02 +1.84698161e-02 +1.90171540e-01 -2.65383035e-01 +6.21972643e-02 -1.96697935e-01 -5.86496629e-02 +2.35647317e-02 +1.59059852e-01 -1.50595903e-02 -8.77935365e-02 -1.64771248e-02 +2.10866537e-02 -8.69367793e-02 +6.96951002e-02 +8.16799402e-02 -8.40631425e-02 +2.81127721e-01 +2.16576651e-01 +1.73112690e-01 +1.26492620e-01 +2.52850056e-01 +2.56948829e-01 +8.07921663e-02 +1.24843664e-01 -3.35002653e-02 +2.67601967e-01 +2.54900515e-01 -1.27646048e-02 +1.35267466e-01 +1.79313347e-01 +1.42475411e-01 +1.92336500e-01 +2.26086751e-01 +4.54851128e-02 +1.53966978e-01 +2.53079176e-01 +3.28443319e-01 +3.79622996e-01 -5.63651100e-02 -6.77398592e-02 +1.18919529e-01 +1.69745963e-02 +3.22513059e-02 -7.62513131e-02 +2.98826724e-01 -1.56039611e-01 +2.58210003e-01 -9.21940058e-02 -2.94816643e-02 +2.17460334e-01 +2.89687186e-01 +2.20456317e-01 +1.70553043e-01 +1.81344926e-01 +7.82129169e-02 +2.88084567e-01 -1.50382519e-02 +9.23160091e-02 +1.14886656e-01 +1.82022229e-01 +4.80525941e-01 -2.85010859e-02 -3.54091376e-02 -2.69851744e-01 -1.34067565e-01 +5.30209616e-02 +4.31537807e-01 -4.52245492e-03 -1.46710455e-01 -2.01207548e-01 +1.73041876e-02 +2.00973049e-01 +1.42683029e-01 -2.96820968e-01 +3.33976746e-01 +9.38492119e-02 +2.88900472e-02 +1.85458779e-01 +4.87484373e-02 -1.13113122e-02 +2.63926178e-01 +5.19840373e-03 -2.35445034e-02 +5.50998263e-02 +1.76706150e-01 +1.36486990e-02 +1.06316179e-01 +2.15415537e-01 +1.83341295e-01 +3.66536617e-01 +3.96470219e-01 +1.96215510e-01 +3.01449955e-01 +2.67411113e-01 +2.96713889e-01 +2.14709893e-01 +2.15105891e-01 +1.74142256e-01 +3.58757079e-01 +2.37220347e-01 +1.02822706e-01 +3.32531661e-01 +6.47159964e-02 +7.99287185e-02 +6.37364089e-02 +2.16935411e-01 +5.20537347e-02 +5.43044396e-02 +3.31709057e-01 -2.42772326e-02 +2.89824903e-01 +1.33273914e-01 +3.06298345e-01 +8.81049782e-02 +1.04817204e-01 +2.11312249e-01 +7.89655298e-02 +1.70526892e-01 +1.19363569e-01 +2.83052713e-01 +2.40636244e-01 +3.46559435e-01 +1.85468227e-01 +2.05021650e-01 +3.77228826e-01 +1.53123066e-01 +2.42452011e-01 +5.78397885e-02 +8.36170614e-02 +6.61860108e-02 +2.06732631e-01 +1.10845953e-01 +9.52857807e-02 +1.65577948e-01 -8.28319117e-02 +2.82878220e-01 +2.35591382e-01 +1.71953917e-01 +1.91312745e-01 +1.29199848e-01 +2.96652079e-01 +1.57921106e-01 +1.42957596e-02 +1.23347703e-03 +2.40709528e-01 +2.22381473e-01 +2.10691780e-01 +2.74985712e-02 +6.09082580e-02 +4.49476302e-01 +2.54967481e-01 +2.18912616e-01 +7.74729773e-02 -1.51635498e-01 -6.54961318e-02 -9.80838165e-02 -3.71998698e-02 +4.07870412e-01 -1.34316683e-01 -2.97472011e-02 -1.38603047e-01 +4.83242050e-02 -3.27087604e-02 -2.52619356e-01 +2.21283644e-01 +1.15959151e-02 -1.33333206e-01 -1.51146099e-01 +1.13125872e-02 -9.33938101e-02 +1.11022078e-01 -2.82431189e-02 +6.00973405e-02 -2.56543189e-01 -5.64304478e-02 +3.55837792e-02 -1.80532694e-01 -1.78133965e-01 +4.46549477e-03 -6.94442987e-02 -1.63723379e-01 -7.50074014e-02 -1.86226755e-01 +1.67185873e-01 -1.08940251e-01 -1.81923360e-01 +7.64794350e-02 -3.24555039e-01 +2.33800352e-01 -2.28689939e-01 +3.19001414e-02 +2.20376085e-02 -5.59810176e-03 -1.26995474e-01 -8.10407996e-02 -3.60212736e-02 -1.13351181e-01 -2.53524333e-01 -1.41616846e-02 -4.98771928e-02 +9.52352583e-02 -2.10187927e-01 +8.47180486e-02 +1.15491368e-01 -1.44631073e-01 -3.69086936e-02 -6.90330490e-02 +2.67854631e-01 +5.91773726e-02 +9.42984334e-05 +9.28333923e-02 -1.69999018e-01 -2.22009961e-02 -3.79324034e-02 -1.42655656e-01 -3.82683962e-03 +1.99233785e-01 +1.30445197e-01 -3.45392115e-02 +1.00397415e-01 +2.61896342e-01 +1.37582093e-01 -4.44601336e-03 +2.19133459e-02 -4.20023426e-02 +1.70777626e-02 -1.62647679e-01 +3.73465747e-01 -3.48105431e-02 -1.73077583e-02 -8.64671990e-02 +7.84082115e-02 +2.42304474e-01 -1.74248785e-01 -4.11332846e-02 +1.83201551e-01 -4.21742424e-02 +2.41043583e-01 +2.95205683e-01 +1.07427716e-01 -3.08730192e-02 +1.58415988e-01 -1.21454997e-02 +1.29341483e-01 +4.90284190e-02 -1.34756982e-01 -3.68532538e-02 +1.22043602e-01 -5.19187041e-02 +7.67985359e-02 +1.99297279e-01 +2.36906677e-01 +1.22694060e-01 +3.49615335e-01 +5.54406166e-01 +2.58823544e-01 +1.55073941e-01 +1.89477608e-01 +9.36980322e-02 +2.34659985e-02 +9.82927382e-02 +1.59008548e-01 +1.32841023e-03 +2.14652624e-03 -3.95493098e-02 -6.38192566e-03 +2.73691062e-02 +2.98843458e-02 +2.64344901e-01 +2.19180703e-01 +8.17097574e-02 -1.01030171e-01 +1.07163094e-01 -1.75476950e-02 -1.40126318e-01 +1.33874267e-01 +2.03416988e-01 +1.51663795e-01 -1.46432379e-02 +8.18717033e-02 -9.57477000e-03 -8.78886506e-02 -3.88185531e-02 -6.07625991e-02 +1.59476310e-01 +1.45489812e-01 +1.90376714e-02 -8.57985988e-02 -1.51641652e-01 +1.22816354e-01 -4.00916114e-02 +1.08631410e-01 +1.10869501e-02 -1.76029891e-01 +1.56956345e-01 -1.57116540e-02 +9.59319547e-02 -1.02793768e-01 -6.83441162e-02 -1.08394675e-01 +4.90594050e-03 +6.67040199e-02 +7.04548210e-02 +2.68410370e-02 +1.03019364e-01 -5.93543462e-02 +1.27939790e-01 -5.99820279e-02 +1.79696754e-01 -2.89772376e-02 +3.10508739e-02 -8.03569779e-02 +8.72899070e-02 +1.58516243e-01 +6.65755495e-02 +1.70040041e-01 -2.35003442e-01 +1.72024161e-01 +3.91933352e-01 +3.45807493e-01 +1.29426196e-01 -9.40707102e-02 -2.54544705e-01 -5.64594865e-02 +8.87913331e-02 -1.11418605e-01 -2.80863587e-02 +1.44142985e-01 +6.15844093e-02 -1.29622146e-01 -1.34815931e-01 -1.00119345e-01 +1.00645393e-01 +1.91526800e-01 +1.30044073e-01 +1.79801911e-01 +2.06431031e-01 -3.40270959e-02 +3.71027030e-02 -1.03781462e-01 +1.18426576e-01 -1.99516546e-02 -8.77253413e-02 -9.36257020e-02 +3.02921664e-02 -1.39410675e-01 -2.02885568e-01 -7.04699606e-02 -9.01197419e-02 +3.81631330e-02 +1.84316300e-02 -1.95556998e-01 -1.06628761e-01 +1.28566712e-01 -2.51275837e-01 -3.49094093e-01 -6.17776364e-02 -3.24618727e-01 +1.39070362e-01 -6.07114621e-02 +3.21406545e-03 -5.28234661e-01 +7.24061253e-03 -3.94085683e-02 -2.37183779e-01 -4.56479006e-02 +2.30569944e-01 -9.35445577e-02 -3.61418948e-02 +4.70347190e-03 -8.34203959e-02 +6.60024583e-02 -2.90939838e-01 -3.29844236e-01 -1.34581968e-03 -1.08573303e-01 -1.52707368e-01 +1.95113972e-01 +1.01967826e-02 +1.96061924e-01 -1.92290962e-01 -9.10552442e-02 -2.00334817e-01 -2.36616299e-01 -1.41074508e-01 -5.65491728e-02 -4.26267087e-01 +9.90235358e-02 -1.73957124e-01 -1.50201946e-01 +1.75602958e-01 -7.61703104e-02 -4.22985964e-02 -2.69458622e-01 -4.15597074e-02 +3.68641801e-02 +4.60729189e-02 +1.64329588e-01 +2.18206868e-01 +3.16296965e-02 +2.50530779e-01 +2.34670527e-02 +8.79243240e-02 +1.76222939e-02 +2.67591059e-01 +1.27464369e-01 +9.53158066e-02 -2.01968372e-01 -2.22606361e-02 -1.09548986e-01 +2.37722471e-02 +1.50716268e-02 -1.62348732e-01 +1.37462988e-01 +4.33419570e-02 +1.13312013e-01 +1.75667390e-01 -1.77111506e-01 +7.62235001e-02 +4.14266624e-02 +5.07714646e-03 +1.75147817e-01 -1.22319892e-01 +1.22981511e-01 -8.89701173e-02 -4.27275198e-03 -5.64451963e-02 +2.00825453e-01 -1.09956153e-01 +7.68599808e-02 +1.14626840e-01 -5.38067631e-02 -5.97416796e-02 +1.14441618e-01 -1.06905445e-01 +2.04919398e-01 +2.82128692e-01 -5.43481261e-02 -1.61528721e-01 -4.24434692e-02 +5.61874956e-02 -1.22571766e-01 +8.84896815e-02 -4.30321693e-03 +6.81473315e-03 +1.64051969e-02 -4.59141470e-02 +2.82608896e-01 +2.14004666e-01 -1.84730098e-01 -5.44839278e-02 -1.42093450e-02 +3.29730064e-02 -1.93955198e-01 +3.33103128e-02 -2.37822104e-02 -3.29149105e-02 +9.12155658e-02 -1.45652175e-01 -9.65723488e-03 +1.40477538e-01 -1.38501003e-01 -5.96973188e-02 -1.31020337e-01 +4.07461002e-02 +8.41367021e-02 +5.28105386e-02 -9.75371674e-02 -8.54626298e-02 -1.00406021e-01 -2.77057141e-02 -5.84752597e-02 -4.16702218e-02 +2.02702396e-02 -6.02667257e-02 -1.45188589e-02 +1.93164721e-01 +1.39058068e-01 -4.02373038e-02 -1.44834528e-02 -4.28958312e-02 +1.23828545e-01 +4.96288352e-02 -2.85510153e-01 -4.02121156e-01 +4.78837863e-02 +2.17452124e-01 +9.57738236e-02 -7.03337938e-02 -7.39027485e-02 +5.67227192e-02 -2.62335595e-02 +5.30080236e-02 -2.37340957e-01 +5.65572781e-03 -1.87724739e-01 +2.70938396e-01 -2.96512932e-01 +6.14760369e-02 +1.38438210e-01 +1.44608272e-02 -1.63011830e-02 -1.59183636e-01 -3.93990763e-02 +2.62384936e-02 -6.58402685e-03 +2.88535319e-02 +3.01719885e-02 -3.18699777e-02 -2.10053660e-02 -2.07313552e-01 -1.64025575e-01 -1.01987913e-01 -1.11334264e-01 -2.08003759e-01 +3.42650861e-02 -1.59225017e-01 -3.70146036e-02 -6.37013316e-02 -1.23776011e-02 +1.78457871e-01 +1.04019761e-01 +2.61733472e-01 +3.67664434e-02 +1.95721209e-01 -1.26987785e-01 -1.95758287e-02 -1.46608129e-01 +1.42831475e-01 +2.32943937e-01 -2.35325899e-02 +2.88961623e-02 +1.09606214e-01 -6.78286403e-02 +7.46163875e-02 -3.77002778e-03 -2.13811193e-02 +3.20207596e-01 +2.55899131e-01 -7.57051706e-02 -1.09887952e-02 +8.01833495e-02 +1.63652122e-01 +2.88983360e-02 +1.86701372e-01 -7.27577284e-02 +1.22369096e-01 -4.99248430e-02 +2.08927065e-01 +2.14918435e-01 +1.07064821e-01 +5.92585392e-02 +1.51924431e-01 -1.53564721e-01 -1.21206477e-01 +2.16933936e-01 +3.74633610e-01 +8.02227706e-02 -6.44610375e-02 -1.70153324e-02 +6.38878420e-02 +6.31646141e-02 +5.92988804e-02 +5.44370860e-02 +4.02593791e-01 +1.14973687e-01 +5.00430837e-02 +1.91668227e-01 +1.54938221e-01 -4.42908369e-02 +1.75632387e-01 +1.94150254e-01 +2.98780113e-01 +5.81469685e-02 -1.36177212e-01 -1.42299756e-01 +1.41558694e-02 +4.52774018e-02 +4.63919014e-01 +3.21777724e-02 +2.12670535e-01 +8.83953124e-02 -4.17481735e-02 +1.06989413e-01 +1.07701778e-01 -5.81922987e-03 +2.22759426e-01 +2.99564973e-02 +5.99831305e-02 +2.46923696e-02 +1.18042156e-01 +5.37678711e-02 +1.50038868e-01 +2.46903658e-01 +8.64092931e-02 +1.44067809e-01 +8.01563933e-02 +7.11625516e-02 +3.87521535e-01 +2.94036180e-01 +4.20403294e-02 +4.76297915e-01 +6.44381195e-02 -1.98530890e-02 +2.54668504e-01 +3.58620048e-01 +2.53374219e-01 +1.04742289e-01 +2.92498559e-01 +9.02157575e-02 +1.54178023e-01 +1.61624461e-01 +1.39807627e-01 +1.90742999e-01 -4.67762426e-02 +1.92831174e-01 +6.01978004e-02 +4.34723824e-01 +6.12726249e-02 +3.80682647e-01 +4.55506146e-01 +5.79122603e-02 -4.15259711e-02 +1.69129863e-01 +1.23546124e-01 +2.20047578e-01 -4.72070090e-02 +3.28738391e-01 +1.23765498e-01 +1.01329900e-01 +2.22857997e-01 +2.46222913e-01 +2.99202621e-01 -8.84928554e-02 +5.79083115e-02 +1.93951026e-01 +2.52318203e-01 +1.13370702e-01 +4.73137945e-02 +1.39843673e-01 +1.82581797e-01 +1.06777728e-01 +2.67307580e-01 +1.99999530e-02 +1.50802180e-01 +3.23573768e-01 +2.09041655e-01 -2.83503961e-02 +2.27447644e-01 +2.19038546e-01 +3.24059784e-01 +1.04234971e-01 +1.13230728e-01 +2.03030616e-01 +2.98625946e-01 +1.49235025e-01 +2.67407775e-01 +2.72236973e-01 +1.94792226e-01 +8.95665959e-02 +1.31178781e-01 +7.82657191e-02 +3.42516154e-01 +3.34624708e-01 +1.65223330e-01 -4.15677190e-01 -5.35006337e-02 +1.12093762e-01 -1.92140073e-01 +2.60869652e-01 -1.19658485e-02 +6.68189079e-02 -1.96937650e-01 -1.70487821e-01 -1.47097528e-01 -1.72022164e-01 +1.00290347e-02 +7.40411878e-02 +9.98356044e-02 +1.46233201e-01 +1.96211174e-01 -3.12433839e-01 +1.65178224e-01 -2.46100873e-01 +1.08923558e-02 -2.66511291e-01 +3.77433077e-02 -2.13498563e-01 -1.25067532e-01 +1.39805883e-01 -5.35044298e-02 -7.99119473e-02 +5.36792397e-01 +1.51805012e-02 -7.20160306e-02 +9.70577002e-02 +9.12100449e-02 +4.02699634e-02 +1.81355774e-01 +3.51969115e-02 +4.00445387e-02 -9.55314189e-02 +2.27958903e-01 -8.74956604e-03 -1.13215767e-01 -7.29116425e-03 -2.18321785e-01 -1.39166772e-01 +2.36175448e-01 +3.35325509e-01 +1.34746313e-01 +5.08823879e-02 +4.66666259e-02 -3.42720672e-02 +2.92895228e-01 -5.33521809e-02 +1.85189307e-01 +1.19714662e-01 -2.77628973e-02 +3.18520010e-01 -7.59794042e-02 +1.72277823e-01 -9.21532735e-02 -1.09048538e-01 -6.78195283e-02 +6.38583601e-02 +5.67527674e-02 +1.60699517e-01 +2.50547349e-01 +2.18780652e-01 -1.18134223e-01 -5.76846395e-03 +1.53085172e-01 +4.72734831e-02 +1.14014782e-01 +5.71928322e-02 +1.14365593e-01 +9.17053148e-02 -8.44687521e-02 +1.52425736e-01 +1.95480317e-01 +1.10315777e-01 -3.47225158e-03 +1.82293981e-01 -1.73900038e-01 +1.23373501e-01 +1.73031557e-02 +2.00450152e-01 +1.42857328e-01 +4.89615738e-01 +1.11566931e-01 +8.11629593e-02 -7.55838975e-02 +1.78773910e-01 +1.24458618e-01 -7.46508464e-02 +5.16085587e-02 +5.92871197e-02 +8.45969468e-03 +2.09749743e-01 +1.58812832e-02 +4.45800833e-02 +1.30655885e-01 +1.69598475e-01 +5.38301952e-02 +8.65066871e-02 +2.16918290e-01 +3.24744910e-01 +2.43815228e-01 +1.12217234e-03 +1.01589575e-01 -6.63802326e-02 -2.46476140e-02 +5.33646047e-02 +2.31005643e-02 -9.77674499e-02 +1.65216729e-01 +2.42859051e-02 -6.00276887e-02 -1.61588043e-02 +2.95793056e-01 +2.48878479e-01 +1.10164508e-01 +7.50751346e-02 +1.87786631e-02 +8.42739493e-02 -2.96222698e-02 +3.31626356e-01 +4.22024634e-03 +3.30528952e-02 +1.27829432e-01 +1.07138358e-01 +1.45821720e-01 +1.61228761e-01 -9.49255601e-02 -1.49539690e-02 +7.57742673e-02 +2.85972863e-01 +2.17839897e-01 -1.58674028e-02 +3.20709884e-01 +1.64786324e-01 -1.39118070e-02 +3.90903294e-01 -1.01691090e-01 +2.62988750e-02 +4.97840941e-02 +1.13379411e-01 +1.22983836e-01 +1.68733150e-01 +1.04877260e-03 +7.09448904e-02 +9.12653878e-02 +2.27727607e-01 +2.82806188e-01 +2.93389887e-01 +1.32815123e-01 +3.77102584e-01 +1.44880638e-01 -9.66111869e-02 +1.22344129e-01 +1.29797354e-01 +2.57018954e-01 +2.82557726e-01 +2.37988994e-01 +4.58858311e-02 +1.55743808e-01 +2.00192049e-01 +2.46020481e-01 +2.04392344e-01 +2.22765625e-01 +3.09916198e-01 +2.04449967e-01 +9.41969976e-02 -6.11346737e-02 +2.46197924e-01 +6.81742653e-02 +1.80951580e-01 +1.64919078e-01 +2.11628944e-01 -2.21247211e-01 +2.33734250e-01 +1.33152187e-01 +2.31171191e-01 +2.48111740e-01 +8.86301100e-02 +9.04971138e-02 +1.08196720e-01 +2.08433747e-01 +1.40499368e-01 -4.53783013e-03 +3.39980453e-01 +5.78237511e-02 +8.77914950e-02 +1.30040750e-01 +1.84033886e-01 +3.17995578e-01 +1.34787440e-01 +3.84612172e-03 +4.03220654e-01 +1.91264808e-01 +3.79471391e-01 -6.23663291e-02 +5.19883856e-02 +1.65164277e-01 +2.16568008e-01 -1.07654423e-01 +2.08073303e-01 +2.78766155e-01 +2.13140668e-03 +3.44987601e-01 +1.39818653e-01 +9.91688445e-02 +4.24372517e-02 +2.38244653e-01 +1.51975855e-01 -3.05283181e-02 +3.72669458e-01 +1.11968502e-01 +8.11916776e-03 +2.46834546e-01 +2.84689903e-01 -6.03567511e-02 +1.36980295e-01 +3.94889899e-02 -9.75970179e-02 +1.53840125e-01 +9.79938284e-02 +3.46750379e-01 +4.69092786e-01 +1.37509674e-01 +3.21853697e-01 +8.85858461e-02 +6.52119890e-02 +2.93147355e-01 +2.26350173e-01 +2.71113902e-01 +1.09174147e-01 +1.28242046e-01 +2.02276766e-01 +1.04460366e-01 +1.93573814e-02 +6.38254806e-02 +1.99438512e-01 +3.50242853e-01 +1.04513310e-01 +1.33962765e-01 +1.52949557e-01 +1.45736322e-01 +3.08676243e-01 +2.54364491e-01 +2.62137711e-01 +1.48335442e-01 +3.83645669e-02 +1.83573261e-01 +1.89353362e-01 +2.67184526e-01 +5.55186383e-02 +3.42581838e-01 +2.00851440e-01 +2.06972763e-01 +1.95622489e-01 +1.50643349e-01 +4.38907035e-02 +1.05438393e-03 +6.60420880e-02 -4.13415767e-02 -4.64737602e-02 +3.09831258e-02 +1.39233291e-01 +7.06351548e-02 +4.04464789e-02 -2.06903234e-01 -5.90942847e-03 -1.11338854e-01 +2.38055438e-01 +1.89174656e-02 -9.23393890e-02 +6.70047104e-02 +1.45302504e-01 +2.16127887e-01 +3.19005281e-01 -2.23578811e-02 +2.00587019e-01 +1.05878606e-01 -1.78192496e-01 -1.14442687e-02 -1.98104411e-01 -5.41820414e-02 +4.74512950e-02 -6.62477105e-04 -7.86206648e-02 +4.73969802e-02 -1.05254976e-02 -8.11313689e-02 -3.01695615e-01 -7.95116201e-02 -1.87569201e-01 -1.30862817e-01 +2.94702232e-01 -8.81819054e-02 -3.96937132e-02 +7.13638663e-02 -1.30887985e-01 -1.36229828e-01 -1.49616003e-01 +5.44961402e-03 -2.93988492e-02 -1.43593043e-01 +3.22967529e-01 -4.19240370e-02 +1.55487537e-01 +1.46830708e-01 -2.77391434e-01 -2.48339579e-01 -3.66480350e-02 -6.39731809e-02 +1.55031845e-01 -1.09940194e-01 +2.38146797e-01 +9.32483152e-02 +9.08089355e-02 +1.62893489e-01 +8.12942535e-02 -1.43606678e-01 -1.73211217e-01 -3.77643593e-02 -4.50819880e-02 -2.58165672e-02 -8.95905346e-02 -1.27688004e-02 +1.00825459e-01 +1.90920886e-02 -5.19831851e-02 -9.40549597e-02 -8.40043202e-02 +1.53548317e-02 -8.74397457e-02 +1.40950885e-02 -3.64571959e-02 -1.46230578e-01 +2.03540877e-01 -7.03853834e-03 -7.03384727e-02 +3.47305745e-01 -2.10884839e-01 -4.01321352e-01 +1.99553266e-01 -2.03833833e-01 +2.32706144e-02 +1.90119386e-01 -2.86684725e-02 +3.41725975e-01 +2.08597723e-02 +9.90571007e-02 -2.26039603e-01 -2.15446621e-01 -1.58219650e-01 +4.91909832e-02 -1.49697408e-01 -3.37195285e-02 -8.55461359e-02 -1.58013582e-01 +2.94650216e-02 -2.39168964e-02 -1.55905448e-02 +3.15702632e-02 +3.10078240e-03 -1.49777472e-01 -5.77141084e-02 +7.17519177e-03 -1.61788419e-01 +3.80447619e-02 +6.58313259e-02 -2.42704466e-01 -5.01082139e-03 -8.08478594e-02 -1.76987238e-02 +8.93448517e-02 +2.35194832e-01 -1.58115521e-01 -3.99598181e-02 -3.58275361e-02 +5.03856502e-02 -2.46014401e-01 -7.92469308e-02 -1.85618639e-01 -1.93615258e-01 -1.06041364e-01 -1.17837645e-01 -2.34911561e-01 +3.72057855e-02 -1.50139183e-01 -4.59747463e-02 -1.68413907e-01 +7.64752701e-02 -2.54501283e-01 -1.35516360e-01 -1.45611301e-01 -2.26307228e-01 -7.59811699e-02 -2.91288584e-01 +7.27795763e-03 -1.26397312e-02 -9.75980610e-02 +1.73710674e-01 +6.17634170e-02 +5.57236709e-02 -1.65270522e-01 -1.33760020e-01 -4.78465676e-01 -1.36355236e-01 -2.50853628e-01 -2.79301554e-01 -2.42154719e-03 -7.23596439e-02 -1.93255886e-01 -1.09562121e-01 +1.04048559e-02 -2.29101419e-01 -1.46640614e-01 -7.42841884e-02 -2.31054172e-01 -5.14663272e-02 -4.27854717e-01 +4.61295694e-02 -3.81029755e-01 -3.00994605e-01 -1.75790012e-01 -9.97535214e-02 -8.71638730e-02 -1.18323773e-01 -2.73948818e-01 +7.27819726e-02 +8.23635459e-02 -2.38265291e-01 +2.28593856e-01 -1.06314562e-01 -3.31739306e-01 -1.80088699e-01 -1.67209134e-01 -8.05672184e-02 -3.37170139e-02 +2.59352457e-02 -2.08716065e-01 -1.80721596e-01 -8.95646065e-02 -9.78153665e-03 -2.80586213e-01 -2.47851789e-01 -3.69808376e-01 -1.34322673e-01 -3.58749591e-02 +5.46167381e-02 +8.38233437e-03 +1.55815613e-02 -5.43874279e-02 -1.37849703e-01 -2.47398704e-01 -1.68599278e-01 -9.63378325e-02 +4.44150716e-02 +5.67170121e-02 -1.07013702e-01 -2.30522864e-02 -2.57535905e-01 +9.36064422e-02 -2.68311752e-03 -6.68640807e-02 +2.07829192e-01 +1.46435514e-01 +1.09802410e-02 +2.33550854e-02 -9.21175405e-02 -2.45555505e-01 +4.43200245e-02 -3.01187485e-01 +9.83754620e-02 +7.11900890e-02 -5.33330441e-02 +2.55757719e-01 -1.35470778e-01 +2.38605142e-01 -1.16969906e-01 -2.13112265e-01 -1.26465142e-01 +1.02992080e-01 +6.31441921e-02 -3.78960595e-02 +5.47416657e-02 -9.70967487e-02 +8.27308297e-02 +2.02072233e-01 -1.45343348e-01 -1.66895613e-01 -7.86924362e-02 +3.56101021e-02 +1.49156913e-01 +1.40304804e-01 -5.93172982e-02 +7.95938894e-02 +2.19800904e-01 -1.87249288e-01 -4.36081849e-02 -8.00747722e-02 -4.30585183e-02 -1.13942750e-01 +1.38452828e-01 -1.52137607e-01 -2.21324265e-01 -1.25412717e-01 +1.12155236e-01 -1.01059623e-01 -1.39175251e-01 -2.46882111e-01 -1.81562319e-01 +1.39982522e-01 +7.76077062e-02 +1.07463516e-01 +4.24232148e-02 +2.45469868e-01 -2.44386032e-01 +2.26563290e-01 -1.26905248e-01 +5.64318150e-02 +1.62279829e-01 +3.74017656e-02 -2.02021241e-01 +2.48554826e-01 +2.94933498e-01 -1.71747953e-02 -8.24520439e-02 +4.33985814e-02 +1.55428186e-01 -3.56697291e-02 +1.78185925e-01 +3.79781090e-02 -1.96220443e-01 -1.75968990e-01 -1.19336836e-01 +1.32956162e-01 -1.82965338e-01 +8.12515896e-03 +2.63342708e-01 -4.27793533e-01 -1.25698134e-01 -1.06649309e-01 +9.32569057e-02 -2.24882327e-02 +9.72685963e-03 +1.20195355e-02 +2.49666441e-02 -2.00085536e-01 -9.96400937e-02 +7.98059404e-02 +1.61695972e-01 -2.27411807e-01 +1.43468425e-01 -2.55669355e-01 -1.57436982e-01 +5.48891351e-02 -2.00253770e-01 -1.59249172e-01 +1.12939306e-01 -5.13012372e-02 -1.35624886e-01 -1.40389889e-01 -1.41146109e-01 -1.36804447e-01 +7.40294233e-02 +2.55754173e-01 +7.32972026e-02 -7.43903518e-02 +2.74582859e-02 -5.39082568e-03 +2.80229717e-01 +1.30782172e-01 +1.97791904e-02 +3.74017023e-02 +5.19079231e-02 +3.13684121e-02 +9.12197009e-02 -1.03912719e-01 -3.45001817e-02 +7.77158886e-02 -1.05107978e-01 +1.90154277e-02 -1.24519624e-01 +1.34290215e-02 +6.89685345e-02 -2.20222212e-02 +2.35538512e-01 +5.56058660e-02 +2.79244542e-01 +1.94840860e-02 +7.55005255e-02 +1.01940751e-01 -1.03515349e-01 -2.33820215e-01 +8.29902515e-02 -2.84150660e-01 +3.42419535e-01 +1.50449291e-01 +1.39960751e-01 +3.49320173e-02 +3.61220799e-02 -1.97391525e-01 -5.92217669e-02 -8.06292444e-02 -5.27386107e-02 -3.08628306e-02 +3.77137214e-02 +1.34266391e-01 +8.71569887e-02 -5.88432467e-03 -6.08074153e-03 +4.96638753e-02 +1.24778152e-01 +2.07868248e-01 +4.99715004e-03 +1.44667458e-02 +1.98880732e-01 +1.65408790e-01 +1.18238300e-01 +6.14944808e-02 -5.70496777e-03 -4.83385101e-02 +4.76589054e-02 +3.12691964e-02 -3.70640308e-02 -1.27610177e-01 -1.39374837e-01 +1.71034276e-01 +3.38316001e-02 +4.74908352e-02 +9.47836339e-02 +7.49532580e-02 +1.59517184e-01 -1.60607249e-01 -3.42845991e-02 -4.93892618e-02 -8.73626322e-02 +1.49103906e-02 +4.80665229e-02 -6.24615178e-02 -2.67991304e-01 -2.67689526e-01 -1.64571181e-01 -4.64727841e-02 +3.07392832e-02 -3.55604231e-01 -1.96326315e-01 -4.77180302e-01 -9.65590030e-02 -3.62083077e-01 +8.12676027e-02 -1.37510553e-01 -1.27907008e-01 +5.81044778e-02 -1.87650919e-01 -1.90702990e-01 -2.68436402e-01 -2.13692576e-01 -2.69918233e-01 -3.81513804e-01 +8.13898444e-02 +1.33933797e-02 -2.25780711e-01 +4.49507013e-02 -8.44337642e-02 -2.78910726e-01 -5.01052216e-02 -1.86488070e-02 -2.20619380e-01 -1.23770595e-01 -3.36552650e-01 -3.51208188e-02 -1.64217636e-01 -1.34273961e-01 -1.79127738e-01 -5.99388853e-02 -6.38480335e-02 +1.00862868e-02 +9.27643776e-02 -9.71310586e-02 -1.59979090e-01 -1.49003088e-01 -2.19211742e-01 -1.16459429e-01 -1.13627687e-01 -1.90289438e-01 -1.71435401e-01 -2.07958549e-01 -3.16599220e-01 -3.44902515e-01 -1.78386390e-01 -2.09655553e-01 -9.12847519e-02 -5.61179444e-02 -1.69545233e-01 -1.58522710e-01 +1.29738906e-02 -4.04460430e-01 -1.79823875e-01 -2.34908953e-01 -3.74012202e-01 -1.79459974e-01 -4.01299149e-01 -4.75864410e-02 -4.28805590e-01 -2.68788666e-01 -9.90643539e-03 -3.90801251e-01 -1.14316985e-01 -1.41347289e-01 -3.94326746e-01 -1.80673867e-01 -1.46686152e-01 -2.66305536e-01 -1.64819807e-01 -3.84414613e-01 -4.34096724e-01 +7.21852295e-03 -3.04182529e-01 -9.73811522e-02 -3.84176135e-01 -2.90698767e-01 -4.74802881e-01 -5.18316686e-01 -8.10087323e-02 -1.35084927e-01 -2.05123574e-01 -1.25767499e-01 -2.95977503e-01 -2.80337304e-01 -1.62630543e-01 -6.35683835e-01 -3.47660780e-01 -3.26748282e-01 -2.38004506e-01 -5.00168316e-02 -1.45556808e-01 -9.95661765e-02 -8.98617432e-02 -2.38688588e-01 -1.49844378e-01 -3.15956980e-01 -3.73014361e-01 -1.85040668e-01 -8.68289173e-02 -3.62214088e-01 -2.09159672e-01 -4.28223312e-01 -5.15791893e-01 -3.67302150e-02 -2.26121679e-01 -2.57997602e-01 -4.32454079e-01 -3.22003663e-01 -1.68213889e-01 -9.27773491e-02 -1.86252221e-01 -6.42098710e-02 -1.42665327e-01 -3.88004810e-01 -1.45844251e-01 -2.60994583e-01 -2.82249779e-01 +1.77984312e-01 -2.89291620e-01 -3.92224565e-02 -2.00317279e-01 +5.39817587e-02 +1.95866317e-01 -5.62006347e-02 +6.86537102e-02 -7.35830367e-02 -1.46248341e-01 +4.47438993e-02 +8.42155144e-02 -6.44547641e-02 -1.70429558e-01 -9.37219784e-02 -1.47722930e-01 -2.61230677e-01 -1.45585552e-01 -1.21327834e-02 +4.28566411e-02 +2.63780784e-02 -1.67895108e-02 +3.18555869e-02 +2.31515840e-02 +1.15388408e-01 -5.82886897e-02 +8.24440867e-02 -3.05164695e-01 -3.24749164e-02 +1.71957523e-01 +2.69252490e-02 -1.03541002e-01 +5.74016422e-02 +5.01596816e-02 +1.10714227e-01 -1.18874401e-01 -1.20274842e-01 +1.06157899e-01 +1.55559048e-01 -4.80197221e-02 +5.98151423e-02 -1.17918551e-01 +3.05417534e-02 +1.56170741e-01 +2.75393408e-02 -1.82041898e-01 +3.14483404e-01 +1.48995474e-01 +1.85161620e-01 -6.15398691e-04 +9.34788957e-02 +1.83860436e-02 -2.39099171e-02 -3.32086205e-01 +1.95707753e-02 -5.25156707e-02 -3.64180058e-02 -1.11726671e-02 -7.98013136e-02 +1.00259982e-01 -1.09000139e-01 +1.55075818e-01 -2.96040933e-04 +1.23796649e-01 -1.32489547e-01 +8.03770497e-02 +1.09841928e-01 -1.70132905e-01 +8.65641087e-02 -4.94016677e-01 -1.04125150e-01 +2.59129442e-02 -1.65842041e-01 -1.51491433e-01 -1.62320480e-01 -5.44180721e-02 +3.80675457e-02 +1.60833523e-01 -4.43549268e-02 -4.00681138e-01 -2.63809174e-01 -3.85516316e-01 -2.09790826e-01 +1.15342893e-01 -1.00229032e-01 -2.63319373e-01 +1.89248100e-01 -2.06853867e-01 +3.91899720e-02 -1.33323312e-01 +5.90656586e-02 -5.28209031e-01 +5.90235293e-02 -3.29186589e-01 +2.24892423e-01 +1.14165723e-01 -6.62302971e-01 -2.27299303e-01 -1.40803650e-01 -4.29957397e-02 +2.83151902e-02 -4.96910838e-03 +1.45866334e-01 -4.27544452e-02 -3.43455255e-01 -1.07030623e-01 -2.92444676e-01 -2.94685215e-01 -9.92964581e-02 +1.20222971e-01 -2.27881238e-01 +8.78587142e-02 -3.67529571e-01 -3.94167036e-01 -2.29873687e-01 -7.60857761e-02 -4.58039902e-02 -2.03640178e-01 -3.83139610e-01 -6.40674010e-02 +1.19816802e-01 +2.49436438e-01 +1.73774928e-01 -2.29887486e-01 +1.15229942e-01 +2.50720270e-02 +2.16191709e-01 -9.73211825e-02 +4.09372449e-02 +5.53702563e-02 -3.59128714e-02 +5.18923216e-02 +4.52141650e-02 +4.94534671e-02 -2.26637200e-02 +7.92067423e-02 +1.67696238e-01 +1.47376508e-01 -1.70715958e-01 +3.80176567e-02 +6.31486475e-02 +2.55633980e-01 +8.93369317e-03 -6.52706474e-02 -1.02981620e-01 -3.83888662e-01 +1.62345544e-02 +1.90733492e-01 -3.83018963e-02 -1.63034326e-03 +9.33977664e-02 -1.76810026e-01 -7.76319727e-02 -1.92333832e-01 +3.88312563e-02 +1.54185578e-01 +3.45360823e-02 -1.22773133e-01 +4.60221261e-01 +6.23566434e-02 -3.75930071e-02 -2.15891793e-01 -1.59286596e-02 -5.76157570e-02 +1.25512421e-01 +1.20429061e-01 +1.74346954e-01 -1.11099929e-01 -3.07624459e-01 -9.61015970e-02 -9.85095203e-02 +2.53920294e-02 -1.65909812e-01 +3.62403959e-01 -7.41934702e-02 -3.81525010e-02 +8.56950656e-02 +1.47627786e-01 -1.86097011e-01 +1.17523685e-01 -2.98501812e-02 +1.59976631e-01 -1.06282998e-02 +3.12405732e-02 +3.02911401e-01 +1.38630241e-01 +1.09821469e-01 +1.01908892e-02 +1.12336509e-01 +1.55896857e-01 -2.67579630e-02 -1.52104273e-01 -5.39441481e-02 +6.28673360e-02 -1.01360738e-01 -1.77715067e-02 -6.16558194e-02 -1.37375057e-01 -2.79088736e-01 -7.25235343e-02 +1.39330715e-01 +1.29281983e-01 -9.12975296e-02 -1.35952011e-01 -1.60322525e-02 +1.33690491e-01 +2.41724197e-02 -3.39811534e-01 -3.69800180e-02 -2.26566747e-01 -2.63221711e-01 +3.46700877e-01 +3.73576358e-02 -2.19684899e-01 +2.12810710e-01 -1.38489738e-01 +1.28477225e-02 +2.08971247e-01 +1.27303675e-01 +1.14349807e-02 +1.00263625e-01 -5.01065664e-02 +1.09065175e-01 +1.17423333e-01 -1.63373217e-01 -1.88455969e-01 -2.15368494e-01 -3.27054709e-02 -2.19018832e-02 +1.06591828e-01 +2.77017504e-01 +1.57125086e-01 -5.75869605e-02 +1.65903941e-02 +9.59204882e-03 -1.25824753e-02 -8.15798864e-02 +2.50315607e-01 -1.42945364e-01 +8.11373368e-02 +2.22674198e-02 -2.04771101e-01 -2.18573019e-01 -2.04984657e-02 +8.40596259e-02 -1.36784390e-01 +8.79628062e-02 -1.38979048e-01 +2.69843251e-01 +1.96360141e-01 -3.54635194e-02 +1.31131232e-01 +7.31240883e-02 +2.16300324e-01 -7.30835497e-02 -1.80389494e-01 -2.51970552e-02 -8.28197673e-02 -7.73013979e-02 -9.63886008e-02 +9.47799608e-02 -1.07691772e-01 -7.34842047e-02 -5.62278144e-02 -2.90409505e-01 +3.76931906e-01 -4.36956286e-02 -1.55122221e-01 +4.50506620e-02 -2.13590804e-02 +6.55184463e-02 -3.21317255e-01 -7.27570876e-02 +2.70705253e-01 -1.83519214e-01 +2.42130503e-01 -1.41874049e-02 -1.27890185e-01 -1.62919253e-01 +3.48221362e-01 +8.04370153e-04 +3.21404859e-02 +1.07449248e-01 +1.38984933e-01 +7.85403848e-02 +1.01856232e-01 -1.16454780e-01 -2.34123200e-01 -9.84749049e-02 +1.31812170e-01 +7.83282891e-02 +1.78249367e-02 +8.98295566e-02 +1.12114780e-01 +1.46827161e-01 -2.12273598e-01 -2.28767678e-01 -7.70408213e-02 +2.41433680e-02 -1.00683652e-01 +1.75565511e-01 -1.05341740e-01 -3.02128792e-01 -1.72745183e-01 +4.41982038e-02 +3.75302881e-02 +8.88757184e-02 +9.36492309e-02 -1.99491173e-01 -9.53788310e-02 +1.79233402e-01 -6.73108995e-02 +1.64896950e-01 -1.94371808e-02 -2.85666347e-01 +9.84386206e-02 +7.67108724e-02 -5.94033673e-02 +6.62157834e-02 -2.78413319e-03 -8.30786955e-03 +8.10172558e-02 +3.18370499e-02 +6.46140194e-03 -1.80771798e-01 +3.09375711e-02 -9.49602574e-02 -5.54012507e-02 +4.28208187e-02 +1.31043065e-02 +1.40548393e-01 +1.81357354e-01 +2.76930153e-01 +6.97706118e-02 +7.01529011e-02 +2.02932194e-01 +1.78605855e-01 -1.40238479e-01 +5.93714751e-02 -3.28217261e-02 +4.78315214e-03 +1.32975712e-01 -1.34716919e-02 +1.48129985e-01 +4.77721654e-02 +6.43281788e-02 -2.79417820e-02 -2.88235843e-01 -1.10307708e-01 +2.08075922e-02 +1.47268891e-01 -1.78827420e-01 +5.68428002e-02 -5.15960390e-03 -2.54563019e-02 -8.02306980e-02 -1.48315012e-01 +1.17675051e-01 -1.83729351e-01 +5.46761602e-02 -7.40064904e-02 +1.05246073e-02 +1.46656632e-01 +4.91825119e-02 -9.75988582e-02 -1.79938570e-01 -2.04927608e-01 +7.74408430e-02 -1.58639252e-01 +3.29640806e-01 +2.14373902e-03 +9.62313116e-02 +3.50295492e-02 +3.24738100e-02 -1.29752457e-01 +1.90527171e-01 -1.61050007e-01 -3.72906253e-02 -1.04223981e-01 +1.14278078e-01 +9.67614576e-02 -1.08797900e-01 -5.50162233e-02 +1.94263250e-01 -5.36996461e-02 +1.21404760e-01 -3.72864082e-02 -8.76794308e-02 +9.63976793e-03 +1.40155777e-01 +1.98584884e-01 +8.25164244e-02 +1.83013439e-01 -6.21803962e-02 +4.78746474e-01 +1.07924551e-01 +6.78279519e-01 -7.12039135e-03 +3.93423997e-02 +4.47595656e-01 +1.55361265e-01 +4.37318683e-01 -2.12489158e-01 +2.55054198e-02 +3.71505439e-01 +6.36680648e-02 +6.36940403e-03 +1.49675161e-01 +2.53367990e-01 +3.76482219e-01 +1.91225395e-01 +2.29548514e-01 -4.99492921e-02 +4.17368472e-01 +2.04287827e-01 -1.92408040e-02 +1.47080952e-02 +3.68479282e-01 -1.82285979e-01 +2.30787188e-01 +7.57899508e-02 +7.34707862e-02 -3.44906077e-02 +7.52860159e-02 +4.49325651e-01 +3.28676663e-02 +1.42337620e-01 -2.05128372e-01 -7.42432754e-03 +6.95798919e-02 -1.09617691e-03 +1.56945318e-01 +8.99520069e-02 +1.88190177e-01 +2.61942875e-02 +2.41872415e-01 +3.01345319e-01 +2.17110664e-01 +2.99799114e-01 +1.70059219e-01 +2.85024326e-02 +1.29845142e-01 +1.36091724e-01 +1.79671735e-01 +1.45109922e-01 +1.77721456e-01 +5.43124080e-02 +1.00460656e-01 +2.72095553e-03 +2.19024017e-01 +1.53640389e-01 +1.88617021e-01 +4.40862179e-02 +2.13397160e-01 +2.67206311e-01 +8.06411449e-03 +1.67525277e-01 +1.34384170e-01 +2.09066346e-01 +3.42223734e-01 +1.35653272e-01 +1.32174507e-01 +1.70504972e-01 +4.92966235e-01 +2.43951410e-01 +3.76092285e-01 -7.65551254e-02 -4.90026549e-02 +1.34840578e-01 +1.32194415e-01 +2.93750972e-01 +2.14691296e-01 +2.88345993e-01 +1.12029828e-01 +7.59213865e-02 +4.87453770e-03 +2.17631996e-01 +2.20957831e-01 +3.55626583e-01 +1.16585098e-01 +3.10285479e-01 +2.92811692e-01 +1.60557538e-01 +1.37322843e-01 +2.39939503e-02 +2.86287516e-01 +9.84711722e-02 +1.38697233e-02 +3.02684158e-01 +9.20557603e-02 +1.87084943e-01 +4.53698307e-01 +3.03793013e-01 +1.84590295e-01 +2.13194773e-01 +1.36196092e-01 +2.42144033e-01 +3.77992123e-01 +1.00139633e-01 +1.10438742e-01 +1.01412982e-01 +1.21663384e-01 +3.08994919e-01 +1.67776555e-01 +1.74637750e-01 +2.45769083e-01 +1.53540596e-01 +1.70267701e-01 +1.58438951e-01 +5.22628017e-02 +2.66816497e-01 +2.15336934e-01 +1.88248813e-01 +2.32880071e-01 +6.35022372e-02 +1.13158077e-01 -1.67546496e-01 -1.47109300e-01 -1.15620226e-01 +5.94762899e-02 -3.88877727e-02 +8.78620148e-02 -1.32917147e-02 -6.26258627e-02 +8.39485228e-02 +6.76928908e-02 +1.69455796e-01 +2.79532939e-01 +1.14556536e-01 -3.03598881e-01 -5.83649464e-02 -2.24829257e-01 -1.37084961e-01 +1.90981269e-01 -3.49140093e-02 -1.94858998e-01 -1.14687085e-01 -8.85988772e-02 -7.99945444e-02 +3.11787546e-01 -3.69105637e-02 -3.90563011e-01 +1.17313847e-01 +1.15722910e-01 -1.43972963e-01 -1.37959927e-01 -3.27575207e-02 +1.02044947e-01 +9.88885313e-02 +6.38541672e-03 -7.73483664e-02 -4.08868492e-02 +2.91149020e-01 +1.28585070e-01 -8.21097493e-02 -2.38879710e-01 -1.75919577e-01 +2.13810895e-02 +2.68700749e-01 -2.30175648e-02 -4.18483913e-01 +1.26884177e-01 -1.41542435e-01 -3.47547815e-03 +2.18287349e-01 +1.79861963e-01 -7.23498408e-03 +2.87639666e-02 +6.58241585e-02 +3.47028598e-02 +6.74646869e-02 -1.88732911e-02 -2.47654431e-02 -8.16061199e-02 -1.28323108e-01 -1.88064754e-01 -1.45014897e-01 -1.22786626e-01 +7.82111883e-02 -1.10470392e-01 +5.67971021e-02 -2.13173404e-01 -1.37532651e-01 -2.03710973e-01 -9.99458209e-02 -2.42216438e-01 -3.35208505e-01 -1.10513814e-01 -2.49544322e-01 -1.28081426e-01 +1.49138421e-02 +2.43468300e-01 +9.93376449e-02 -2.24303603e-02 +2.35570921e-03 -2.12307349e-01 -1.95302203e-01 -2.25241154e-01 -2.10368186e-01 -2.47813493e-01 -2.69102752e-01 -2.51424134e-01 -2.71102190e-01 +1.39255464e-01 -7.37082139e-02 -2.83930093e-01 -1.71777040e-01 +3.35209863e-03 +1.01204887e-01 +2.45215017e-02 +2.33462378e-02 -1.67270675e-01 +5.36471754e-02 +4.20027552e-03 -8.55425820e-02 -2.97917217e-01 -2.75193244e-01 -2.63476253e-01 -2.73379028e-01 -1.83237508e-01 -7.60237128e-02 -5.21401763e-02 -4.65627806e-03 -6.56103715e-02 +5.84211797e-02 -1.34867415e-01 +4.77697700e-02 -2.08813027e-01 -2.14287132e-01 +1.18830889e-01 -1.21570066e-01 -2.06970692e-01 +3.42784151e-02 -1.88776031e-02 +6.54636621e-02 -9.90390554e-02 -2.80660689e-01 -1.75325554e-02 +8.01051408e-02 -1.22355102e-02 -6.04874901e-02 -9.43668112e-02 -1.32241109e-02 -2.37835363e-01 +3.40137095e-03 -4.04987484e-02 -3.73315588e-02 +6.47875741e-02 +8.37623328e-02 -1.91485465e-01 -3.35641831e-01 -2.51933988e-02 -2.61856258e-01 -3.62003781e-02 -1.43313512e-01 +1.07069321e-01 +1.61601588e-01 +2.45654672e-01 -2.18798161e-01 +1.17989004e-01 -4.73087840e-02 +1.19842425e-01 +1.04486868e-01 +1.93911642e-01 -6.43353403e-01 -1.02820188e-01 -3.42020243e-01 -1.00786805e-01 +1.49435610e-01 -2.92596012e-01 -2.91903228e-01 -8.34188312e-02 +2.35600084e-01 +2.26417795e-01 +5.78945503e-02 -1.88986659e-01 +1.20505080e-01 +8.55626445e-03 -1.00941472e-01 -1.88449800e-01 -8.94901082e-02 +5.72894067e-02 -2.64377266e-01 -4.91353218e-03 +1.24691566e-02 +2.56803960e-01 +1.34887308e-01 +6.32927641e-02 +1.28226086e-01 +8.32527727e-02 +1.51086465e-01 -1.10778488e-01 -3.26730795e-02 -8.95008352e-03 +6.70422986e-02 -4.07164693e-02 +1.64319739e-01 -2.14891434e-01 -1.17886111e-01 -1.79667413e-01 -1.40923321e-01 +3.61458175e-02 +1.41034573e-01 -1.27387226e-01 -5.81192486e-02 -5.22106290e-02 -2.70783268e-02 -1.01525590e-01 -2.74412371e-02 +1.10916337e-02 -4.52984832e-02 -2.86730021e-01 -1.94701925e-02 -2.29459941e-01 -1.26578465e-01 -9.74322036e-02 -1.35224357e-01 +3.97943519e-03 -1.92114681e-01 -6.72523752e-02 -4.47147936e-02 +1.47270426e-01 -1.54903214e-02 -5.95343076e-02 -2.79265996e-02 -9.22663733e-02 -1.96903989e-01 +8.88601542e-02 -1.76639408e-01 -3.77318710e-01 -4.06142116e-01 -1.50840551e-01 -1.40359908e-01 -3.20886403e-01 -1.05951220e-01 +2.15774011e-02 +1.32665306e-01 +1.09542115e-02 -7.71696568e-02 -2.62356222e-01 -1.61516041e-01 -3.96006733e-01 -1.44983614e-02 -3.20105195e-01 -2.10113570e-01 -2.59617239e-01 -1.27290875e-01 -8.13504234e-02 -1.78842381e-01 +6.99685141e-02 +5.61961159e-02 -2.83401459e-01 -1.66162699e-01 +1.63827073e-02 +1.15842737e-01 -3.42598736e-01 -2.81848848e-01 -1.11572757e-01 -3.45560133e-01 -2.05369264e-01 -1.37012646e-01 -3.71137232e-01 -3.40018451e-01 -2.21677706e-01 -3.12159657e-01 -1.60065070e-01 -3.06111038e-01 -3.05235416e-01 -9.94190425e-02 -3.25375229e-01 -3.53213876e-01 -9.16540772e-02 -6.87071159e-02 -5.68671562e-02 -6.55560568e-02 +1.91978309e-02 +6.70377165e-02 -2.73123056e-01 +1.14740930e-01 +5.44660129e-02 +7.80876130e-02 +3.96834500e-02 +3.33133675e-02 -1.38826203e-02 -1.93138793e-01 -1.00517124e-01 +3.17070931e-01 -1.15485370e-01 +1.93549454e-01 +2.94268548e-01 +2.02435087e-02 -3.35168093e-01 +1.81232288e-01 -5.63345812e-02 +8.15698951e-02 -5.23466691e-02 -4.65251431e-02 +4.71382499e-01 +1.20783493e-01 +1.68146983e-01 +2.14903370e-01 -1.55991852e-01 +1.56002566e-01 -6.60569519e-02 -1.50812730e-01 -5.84512949e-02 +6.70947060e-02 +2.22973511e-01 +6.03528097e-02 +2.56498218e-01 +2.28337184e-01 -9.88335907e-02 +8.95410329e-02 +9.39023495e-03 +2.72596508e-01 -9.37047377e-02 +1.84882939e-01 +2.45328814e-01 +6.46421909e-02 +6.70327023e-02 +1.59660146e-01 -2.97452416e-02 +1.55273438e-01 -1.20882094e-01 +8.94103274e-02 +1.43914267e-01 +2.75704078e-02 -3.47810122e-03 +8.35127532e-02 -5.30504324e-02 +1.22614250e-01 -1.31398275e-01 +4.51208614e-02 -3.10373269e-02 +1.06914639e-01 -1.15603507e-01 +1.37761170e-02 +1.56380847e-01 +5.58845773e-02 -1.24676511e-01 +1.94099844e-02 -9.61670056e-02 -1.56718507e-01 +1.48427561e-01 -1.41784534e-01 +3.80405337e-02 +3.78029086e-02 +2.84329891e-01 +1.54724896e-01 +2.42097303e-01 +1.89211499e-02 +1.01293333e-01 -3.70053080e-04 +1.18574202e-01 -1.53722493e-02 +2.59680431e-02 -1.08740829e-01 +1.27575979e-01 +1.60781760e-02 +1.63492590e-01 +1.42888159e-01 +1.44818127e-01 -2.65210178e-02 +7.11991191e-02 +1.75961435e-01 +1.26884922e-01 +4.09666710e-02 +7.80147314e-02 +1.84830919e-01 +1.63240850e-01 +4.33839625e-03 -2.59554833e-01 +1.65468380e-02 +2.39893958e-01 +2.43558854e-01 +8.53635073e-02 -8.69629383e-02 +1.91403955e-01 +2.47510403e-01 -1.04866717e-02 +1.54513240e-01 +1.13960907e-01 +2.42701083e-01 +1.22357616e-02 +6.61456883e-02 +1.06102511e-01 +6.19829558e-02 -5.57918241e-03 +3.80700529e-02 +2.44493056e-02 +3.54412338e-03 +1.35939389e-01 -1.18791878e-01 +4.27656015e-03 +1.71647981e-01 +9.41713080e-02 +4.82452624e-02 +4.74588647e-02 -1.82178766e-02 -7.08947629e-02 -1.87234357e-01 -4.50510681e-01 -7.97657371e-02 -1.23098679e-01 -6.39395341e-02 -3.32594514e-01 -4.24051702e-01 -1.40726700e-01 -5.50918996e-01 -8.43498036e-02 -3.22250634e-01 -8.26717466e-02 -2.45280052e-03 -2.98357129e-01 +6.30311742e-02 -3.27987596e-02 -1.40009210e-01 -1.75336495e-01 -1.89597785e-01 -1.83440715e-01 -4.19683754e-01 -5.29645272e-02 +7.53651634e-02 -1.59306705e-01 -2.18588844e-01 -1.61886066e-01 -3.13106507e-01 -1.97096869e-01 -1.28586873e-01 -3.04854870e-01 -1.29665241e-01 -3.68212193e-01 -1.32494926e-01 +5.68213724e-02 -1.36529401e-01 -1.50913224e-01 -4.92366813e-02 -1.91012025e-01 +8.54851007e-02 +9.91419330e-02 -1.35937855e-01 +4.48339432e-02 -1.23555705e-01 -1.26139551e-01 -1.54679850e-01 -1.29409015e-01 -1.37578428e-01 -1.36890903e-01 -3.42487805e-02 -1.98636577e-01 -2.00742275e-01 -7.17162937e-02 -1.59092203e-01 -1.39851414e-03 +1.78514998e-02 -2.05427840e-01 -1.69270352e-01 -3.02944779e-01 -1.02494940e-01 -2.62057513e-01 +4.23892774e-02 -1.14714559e-02 -3.55245709e-01 -4.71585840e-01 -1.60855770e-01 -2.67845571e-01 -1.92863658e-01 -1.01023458e-01 -1.29650071e-01 -3.08058977e-01 -2.56050318e-01 -2.02991366e-01 -2.86349177e-01 -2.28657499e-02 -6.23812079e-02 -2.28256032e-01 -2.14140177e-01 -4.22271669e-01 -1.47228971e-01 -1.59714445e-01 -2.08531752e-01 -2.44255483e-01 -1.75841346e-01 -1.97698250e-01 -3.24107796e-01 -8.16492215e-02 +9.79368854e-03 -2.36042261e-01 -5.16524948e-02 -9.71996710e-02 -1.05111174e-01 -1.28078803e-01 -1.23504758e-01 -2.24533856e-01 -2.51824856e-01 -2.76289254e-01 -9.64407176e-02 +1.39535934e-01 +2.02017371e-02 -2.08241791e-01 -4.47450131e-01 -7.54298791e-02 -1.34127438e-01 -2.74966031e-01 -4.04175639e-01 -1.39301151e-01 -2.86991119e-01 -1.61467940e-01 -2.15016127e-01 -2.17477843e-01 -1.96394429e-01 -3.08288097e-01 -2.27120340e-01 -4.87207860e-01 -1.62208304e-01 -2.78949678e-01 +5.57598062e-02 -1.76400974e-01 -1.50610626e-01 -2.69361854e-01 -9.78840217e-02 -1.42410040e-01 -1.70656815e-01 -2.97094554e-01 -7.05711991e-02 -1.69705898e-01 -3.04907590e-01 -3.45305562e-01 -2.22350582e-02 +6.21387482e-01 +8.67486149e-02 +7.57892132e-02 +3.16407867e-02 +1.20874174e-01 +1.24334253e-01 -4.35352512e-02 -3.46852429e-02 +7.20911659e-03 -1.93955414e-02 +4.92115729e-02 +2.10839789e-02 +1.23644501e-01 -1.58243805e-01 +1.51799530e-01 -4.88229133e-02 +2.04345137e-01 -5.46769053e-02 +2.30260566e-01 +1.74654678e-01 +1.03938162e-01 +1.29695356e-01 +1.40396029e-01 -1.07431225e-01 -6.32162765e-02 +1.43544942e-01 +4.10610773e-02 -3.53316963e-01 +1.42159089e-01 -1.19458251e-01 -2.52502281e-02 -5.10027334e-02 +8.18434283e-02 +8.21588263e-02 -1.96997020e-02 -2.86512762e-01 -1.61662430e-01 -1.74077764e-01 +9.29091722e-02 +1.09759353e-01 -1.73989102e-01 +1.18959330e-01 +3.74395512e-02 +7.91643411e-02 -2.59948432e-01 -6.60671368e-02 -6.43743947e-02 -1.55914411e-01 -1.19343489e-01 -1.81428745e-01 +9.90981534e-02 +8.40291828e-02 +2.10374538e-02 -7.81273562e-03 -9.14055184e-02 -9.02254507e-02 +7.39032179e-02 +1.14426799e-01 +1.32311359e-01 -2.58288626e-02 -2.63966247e-02 +9.10794139e-02 -4.20409255e-02 +9.45993960e-02 +8.70868564e-02 +5.03486721e-04 -1.35516226e-01 -2.88487762e-01 -4.88358783e-03 +5.50059229e-02 -1.67557463e-01 -2.07930923e-01 -1.41843304e-01 -1.17213115e-01 -3.62694800e-01 -1.78452104e-01 +1.87530685e-02 +2.01840669e-01 -2.08215386e-01 -4.19446006e-02 +8.63713697e-02 +1.48581907e-01 +1.13198080e-03 +6.02803566e-02 -2.74161935e-01 -1.05145350e-02 +4.51649949e-02 +2.81377300e-03 -1.35003906e-02 -2.52371356e-02 -7.75033375e-03 +2.96832621e-01 +6.65600151e-02 +1.87079266e-01 -3.22771132e-01 +4.67308387e-02 -3.35285887e-02 -2.47060806e-01 +1.86986908e-01 -2.44174711e-02 -2.32591797e-02 -2.25744575e-01 -1.23944446e-01 -1.26331523e-01 -2.20401853e-01 +4.88194870e-03 -2.76463747e-01 -2.88001239e-01 +1.97614089e-01 +1.26713678e-01 -6.46767542e-02 -4.33749482e-02 +1.06373645e-01 -9.53395292e-02 +1.91704869e-01 -3.23457658e-01 -1.45997912e-01 +1.42062753e-01 +1.37044013e-01 -1.92838356e-01 -1.39412552e-01 -7.55991936e-02 -8.86479020e-02 -5.97949773e-02 -1.82145253e-01 +1.06633969e-01 +1.22401053e-02 -1.01299644e-01 -6.42528236e-02 -4.55946736e-02 +5.93868420e-02 -1.03439167e-01 +1.13012195e-01 +1.34759873e-01 -1.57806605e-01 +5.30167185e-02 -1.44197345e-01 -6.77293837e-02 -4.70834047e-01 +5.30202650e-02 -1.40192464e-01 -2.01746136e-01 +3.26510286e-03 -3.67794484e-02 +4.49455976e-02 -1.08844088e-02 -5.31191416e-02 +1.75144926e-01 -2.17605919e-01 -3.04065078e-01 +2.79231314e-02 +4.28275280e-02 -5.54931685e-02 +3.22472267e-02 -9.30185467e-02 -2.00037733e-01 +1.63510412e-01 -4.72824983e-02 -1.44028738e-01 -1.31893203e-01 +9.70832109e-02 -2.02992573e-01 +1.65192112e-01 -1.47597967e-02 -3.47601660e-02 -3.33619207e-01 -3.49800140e-01 +3.61368805e-02 +4.90425564e-02 -3.30296643e-02 -9.45118144e-02 -1.01994336e-01 -1.32412791e-01 +1.82213992e-01 +1.04087545e-02 +1.60384014e-01 -4.73850146e-02 -2.03527048e-01 +3.56832221e-02 -5.42390049e-02 -1.83032915e-01 -1.25248060e-01 -9.19463113e-02 -2.73587763e-01 -1.70367807e-01 -3.28035653e-02 +9.52082425e-02 -1.00678690e-01 -7.39682615e-02 -2.53745258e-01 -2.21335322e-01 +2.48955563e-01 +1.08341664e-01 +1.77721292e-01 -8.94068331e-02 -7.26688886e-03 +2.09362194e-01 -1.18346058e-01 +3.28249410e-02 -1.21511705e-01 -2.03417931e-02 +2.60036588e-01 +8.05338025e-02 +2.38173887e-01 +2.80105114e-01 +1.30173370e-01 +1.81224123e-01 +1.88615561e-01 +4.01320606e-01 +1.23330750e-01 +1.85691029e-01 +2.18675375e-01 -3.40462178e-02 -2.05950290e-01 +1.62465900e-01 -1.98329419e-01 -5.58991097e-02 +1.12146214e-01 +1.46378487e-01 +3.01521122e-01 +2.17910260e-01 +4.08770323e-01 +9.71389636e-02 -3.12841713e-01 +5.43318577e-02 -2.06446890e-02 +9.37662050e-02 -3.67032439e-02 +1.98008820e-01 +2.14500278e-01 +6.98324889e-02 +7.45789483e-02 +9.10826847e-02 +3.13011944e-01 -8.61315504e-02 -4.50259261e-02 +2.64331698e-01 +3.68780702e-01 +1.89971924e-02 +1.46370018e-02 +1.70088425e-01 -1.43185526e-01 +3.67671877e-01 -1.28051511e-03 +1.20356448e-01 +7.14076534e-02 +2.83977278e-02 -1.48901567e-01 -1.87355772e-01 +5.48130721e-02 +2.19323352e-01 +1.32325932e-01 +9.14500132e-02 -2.40730401e-02 +1.35552824e-01 -5.53619638e-02 +1.57553926e-01 +2.58529447e-02 -3.60833332e-02 +1.02770537e-01 -4.03956890e-01 +2.20648702e-02 -3.42053957e-02 +1.60942059e-02 +5.00076450e-02 +1.83688346e-02 -1.45961987e-02 +1.43084154e-01 -1.67658806e-01 +4.38892394e-02 -1.62542552e-01 -5.94448633e-02 +1.37205034e-01 +1.09570257e-01 +2.88931131e-01 -3.43758389e-02 -3.22937042e-01 +1.39939308e-01 -2.59005725e-01 -9.98925790e-02 +2.61082463e-02 +6.01985157e-02 +1.51880562e-01 -2.11078569e-01 +3.11803296e-02 -1.17297992e-01 -4.63324487e-02 -1.32218003e-01 -5.26271164e-02 -6.62263632e-02 -2.34548245e-02 -2.48434290e-01 -1.33207381e-01 +1.19932011e-01 -1.77452378e-02 +3.19678113e-02 -8.38909373e-02 +2.36499101e-01 -1.42559886e-01 +1.48090303e-01 -3.13347727e-02 +4.17952053e-03 -7.77131766e-02 +3.11746210e-01 -1.67490289e-01 +3.17423195e-02 -9.09784064e-02 -1.80523872e-01 +1.42621413e-01 +8.21841210e-02 -1.08547151e-01 +1.95464909e-01 +1.16134092e-01 -2.80857403e-02 +4.03824836e-01 +2.48892456e-02 +3.21631655e-02 +1.63922608e-01 +2.96227634e-02 +2.73484856e-01 +3.24776918e-01 -1.95727944e-02 -3.86575758e-02 +6.77363575e-02 +2.81927317e-01 +1.25252875e-02 +8.84119123e-02 +1.47348225e-01 +6.59900159e-02 +1.63248867e-01 -1.97562501e-01 -1.06855914e-01 +3.60593684e-02 +8.33377838e-02 +1.24300793e-01 +6.55503795e-02 +2.77248085e-01 +1.31457448e-01 +2.38228381e-01 +1.25980094e-01 -4.83060181e-02 -1.03510562e-02 +3.18705112e-01 -1.13879390e-01 +8.75272006e-02 +1.13069452e-02 +3.17001015e-01 +2.71880031e-01 +7.19276592e-02 +2.82107383e-01 +4.43527661e-02 -3.61797735e-02 +1.48634017e-01 +6.39560148e-02 +7.72408023e-02 +1.91705301e-01 +2.55027413e-01 -4.57530953e-02 +1.11637212e-01 +1.14894539e-01 -7.21556172e-02 +7.61587843e-02 -8.20597783e-02 +1.25304356e-01 +2.20555499e-01 +1.19500868e-01 -7.17689320e-02 +4.19901609e-02 +2.57788420e-01 +2.47866541e-01 +2.24043265e-01 +1.85007811e-01 +3.98894167e-03 +7.89374188e-02 +3.85612220e-01 +1.87835678e-01 -2.55888477e-02 +2.60339081e-02 -1.40727693e-02 +3.14784124e-02 +1.43767059e-01 -7.59267583e-02 -3.15639712e-02 -1.52951285e-01 -5.60354702e-02 -2.26126865e-01 -1.05668686e-01 -1.94280185e-02 -2.02434704e-01 -3.24653596e-01 -1.27739668e-01 -2.96457648e-01 -1.53727487e-01 -2.78417379e-01 -3.96590531e-01 -3.72817665e-01 -3.96365255e-01 -2.53377885e-01 -4.24167551e-02 -3.40107232e-01 -2.71525711e-01 -1.62362009e-01 -1.06863484e-01 -2.12292835e-01 -2.06979007e-01 -1.04815252e-01 -1.37131020e-01 -8.78702924e-02 -3.39125454e-01 -6.11549430e-02 -1.55244872e-01 -1.64137170e-01 -5.45022666e-01 -1.85181558e-01 -2.46617168e-01 -1.63699433e-01 -9.57064852e-02 -1.83436796e-01 -1.09716669e-01 -5.08125186e-01 